-0.0027053952
0.0002156393
0.0036551943
0.0039885663
0.0024915563
-0.0047402903
-0.00042182265
-0.0006348832
0.005263353
0.001999218
0.0012241735
-0.00041959967
0.0026871725
-0.001589841
-0.00016683972
0.002489829
-0.001834179
0.008050803
0.0012196922
-0.0052987672
0.0034675736
-0.00043978466
0.00506528
0.0067448053
0.00013368619
-0.003511187
0.00066118484
-0.007603349
-0.0045161014
0.008084388
0.0021161505
0.00018454673
-0.0018097591
-0.0010129325
-0.0019406353
0.0018677218
-0.005765972
-0.00086834555
0.0038158172
-0.0046660164
-0.0016538764
0.004265207
-0.0059948955
0.0010101694
-0.0044008833
0.0060017724
0.002614535
-0.0032769362
0.0041012797
-0.0037020207
-0.0030859613
-0.0016287067
0.0030619095
0.0030863062
-0.0010474772
0.0026348915
-0.0004621828
0.0026370536
0.0009463558
0.0050954106
-0.0053758733
-0.0007830339
0.0018231203
-0.0018517268
0.0018047608
0.008319197
0.0047346535
0.009695295
0.0029459868
0.004963788
-0.0018300912
0.0006139476
0.0047996393
0.002294688
0.0066983923
-0.0038829728
0.0053339247
-0.001371346
-0.00054727914
0.0016516773
0.0028069918
0.0007934928
0.0021046512
0.001704248
-0.0042191623
0.011386145
0.00072254054
0.0011232834
0.0031732179
-0.002334796
0.0049301656
0.007102124
0.0005869834
0.0075357924
0.0009825265
0.006683922
-0.0016989872
-0.0006397652
0.0028150796
-0.0022748196
0.0009101417
0.005533611
0.0010762955
0.0066485764
-0.00294184
0.0006782632
-0.004199658
0.0007625083
0.0010669279
-0.0018798454
-0.0032111553
0.0038768952
0.0036360726
0.0037754565
-0.003841075
0.003433559
0.005151678
0.004844108
-0.0012650124
0.0011924304
-0.0030174467
0.0012561087
0.0057599004
-0.0030487082
-0.0063878396
0.0046015927
-0.005646768
0.0052165487
