-0.014908466
-0.011405417
-0.004314093
-0.004001408
0.015582135
-0.0016439485
-0.010214754
0.024883175
0.0061736787
-0.0007020791
0.011190584
0.006402078
0.009100616
-0.0044621713
0.00022524662
-0.0061759804
-0.010914916
0.03227695
0.0044596912
-0.0066250344
0.0005889525
-0.0033666906
-0.0076868543
-0.00402459
-0.008245244
0.005976445
-0.0030908994
0.005345778
0.011935598
0.0062124
0.005647405
-0.01091082
0.02249912
0.0040573236
0.0049999813
0.0130994925
-0.0023395207
-0.0035864264
-0.012752733
-0.009667896
-0.010637585
0.0015885201
0.0050276592
0.0014353547
0.016714497
-0.0033985246
0.016021684
-0.0024483085
0.006374029
-0.00292058
0.004100673
-0.0004367638
0.0023536826
-0.004873495
0.010132246
0.0118339425
-0.0032412112
0.014952064
0.016921112
0.009240299
0.017812558
-0.0054597408
-0.0018186392
-0.0011970449
-0.006538114
0.012427406
0.0123125315
0.0057988227
-0.0077422764
-0.004785414
-0.010391624
0.006867617
0.01579223
0.00981139
0.011206357
-0.009197436
0.008550279
0.0055193836
0.015632838
-0.0035519626
0.01561025
-0.00082993787
-0.0006739376
0.008462593
-0.006151969
0.0029501137
-0.0059918803
0.0036832073
0.0072094877
0.024567232
0.0070104892
-0.0005233595
0.00021137133
0.0036328218
0.015370623
-0.0058839456
0.0074813673
0.0037228607
0.01236921
0.0113676535
-0.014879358
0.00093100633
0.00091817137
-0.007539277
0.0022649558
-0.0004189115
0.0014469618
0.0061691506
-0.0011382852
0.017123155
0.015415096
-0.0051690075
0.008824811
0.0035152035
-0.0035389026
0.020748176
-0.008401503
0.005054883
-0.0012079218
0.01030199
0.012459875
-0.0020977273
0.01048354
-0.005210387
-0.00995497
0.010926353
-0.00061242905
0.009996024
0.0102676125
-0.0007581644
0.013548193
0.004342523
-0.0076406435
-0.00771934
0.012653379
-0.0026374366
0.0065038525
0.016139032
-0.0024520026
0.0012409004
-0.005892477
-0.011272525
-0.005459219
-0.0034876193
0.0076823733
-0.009493896
0.002020011
0.015426151
-0.0012817668
-0.011669724
0.005577211
0.010564351
-0.00021776362
-0.0069515863
0.002257794
-0.0055359015
0.0005895426
-0.0008672436
0.015187032
0.0046551214
-0.001005438
0.0063991407
0.01826656
-0.00012479341
0.00730788
0.004372658
-0.009975966
-0.0029286735
-0.005347642
-0.0013405647
-0.00017957669
0.01177712
0.008051481
-0.0016828207
0.0015750481
-0.010245482
-8.628648e-05
-0.0068868124
-0.001172659
-0.00019949088
-0.0017629804
-0.0037921804
-0.007354001
-0.006544919
-0.0063322885
0.011927944
0.0076595824
-0.0011958233
-0.003704482
0.0014075991
-0.010226114
0.010997433
0.0022541634
-0.002009605
-0.00083786296
0.0108971605
0.0012127496
0.008779404
0.01890584
0.04118301
0.0050509037
0.0023518782
-0.012767005
-0.017310837
-0.005373649
0.016515553
-0.0029335262
0.010424018
-0.010195258
0.014212511
-0.0012789093
3.1957094e-05
-0.0037704755
-0.010019243
0.0011584933
0.00039042713
0.0034526507
-0.0032279226
0.0031708162
-0.0020045291
-0.0076399692
0.011014208
0.00046246586
-0.010256357
-0.0055721663
-0.008413124
-0.006083744
-0.009303836
0.0051948787
-0.0016815225
0.010635778
-0.012517239
-0.0052666194
0.022609068
0.0032765316
-0.0070612347
-0.0061745243
0.0063332487
0.0009134501
0.0024709224
0.009160456
0.009603876
0.007693066
-0.004039258
0.0022612845
-0.008182543
0.028697146
0.0073753884
-0.00048273074
-0.00022619551
-0.01574367
0.00995645
-0.010195644
0.00074634043
0.0020354576
0.010265321
