0.026726313
0.013763923
0.0089548025
0.0034461326
0.035978705
0.020826163
0.0043982086
0.005279229
-0.013171361
0.018399628
-0.0025937846
0.0073357327
0.008817919
-0.003923457
-0.022387367
0.011765207
0.030411271
-0.02082526
-0.02451649
0.019853927
-0.039357517
-0.03728124
-0.02242775
0.02046258
0.037572492
0.029606238
0.0062371767
-0.029240845
-0.030027328
-0.026363702
-0.03509898
-0.040462937
0.022854263
-0.008374088
0.006568616
-0.01095589
0.023634367
-0.027730048
0.01166634
-0.0048811077
0.00134115
0.019978257
-0.034225423
-0.036651306
0.020139324
0.025640085
0.015959878
-0.035405755
-0.03880097
-0.031877857
-0.038476657
0.010278037
0.0018566308
-0.03288024
-0.016354293
-0.007806175
-0.037983082
-0.038400434
0.0050291126
0.009224152
0.02346946
-0.03496021
0.019741349
-0.0042806338
0.012888499
-0.026546335
-0.009607811
-0.005979703
-0.024368996
0.027431417
-0.038822565
0.031522915
-0.021271328
-0.017598601
-0.029148763
-0.029263197
0.038604118
-0.0396332
-0.012182299
0.01222087
-0.0067143743
0.00939841
0.03340149
0.034154307
0.035343032
0.038598333
-0.004003683
0.028287182
-0.037866928
0.022381376
-0.012001198
0.0044952156
0.019631594
0.014865221
0.031403027
0.0008686301
0.021973059
-0.014968896
-0.032253437
0.028150788
0.023668256
0.026392136
0.027751682
-0.03936989
-0.02379564
-0.026928566
-0.03723004
0.00026423795
0.032580603
0.016616449
-0.00657201
-0.010646314
0.029654229
-0.030712781
-0.03040145
-0.01884049
-0.007664122
-0.010081424
-0.011861893
0.032408055
-0.0069356854
0.0034079258
0.00022193984
0.016300036
0.02012535
0.035158854
0.02291714
-0.026492804
