-0.022096738
0.035168495
-0.021034578
0.06649889
0.01133098
-0.060916264
0.0492061
0.071954325
-0.14180093
0.009204951
-0.08667435
-0.2042922
-0.043334365
0.052777074
0.24385493
0.038702335
-0.1647668
-0.00023486851
-0.08070121
0.075851806
0.041413005
-0.06592958
0.04613575
0.09546403
0.049028143
0.09378662
0.06094809
0.07806035
-0.05171607
-0.029680232
0.17438625
-0.0376305
0.09789056
0.11778881
-0.13942675
0.07444621
0.014275055
0.035907503
0.04754003
0.026529813
-0.07176668
-0.10598203
-0.009570892
-0.0391436
0.0020969356
0.054390963
0.02678672
-0.025431816
0.09594099
-0.06403591
0.042075247
0.05494389
-0.030873284
-0.00506222
-0.016753012
-0.03397103
0.10587568
0.031290006
0.060001295
0.15160528
-0.022542745
0.034660704
-0.016140828
0.059706476
0.04183379
-0.15293166
-0.02381144
-0.040874735
-0.17209505
0.10194226
-0.092606045
-0.07848612
0.028237486
0.009941411
-0.015482329
-0.06277695
-0.016186533
-0.02983879
-0.03404684
0.016173743
0.084897526
-0.03646815
-0.06717096
0.03925001
0.060531836
-0.0561314
-0.0772494
0.06280893
0.02673143
0.06657762
-0.08424296
-0.15388666
0.06048379
0.06417529
-0.044989627
0.06915604
-0.07490609
-0.085448295
0.105255015
-0.046151374
0.086022116
-0.066189855
-0.00084251794
0.062922575
-0.016568538
0.02239588
0.0047155377
-0.039247062
0.07237935
0.0029627893
-0.08718024
0.11069674
0.080070786
-0.03669392
-0.021374673
0.06565965
-0.083383925
-0.14384204
-0.025088742
-0.091194555
-0.13209833
0.044505935
0.07713629
-0.13656063
0.1017894
0.02766861
0.0949415
0.06853902
-0.03168723
0.077563286
0.07335826
-0.043403782
-0.069220714
0.078939825
0.017709667
0.07254043
0.127691
-0.08307055
0.05376076
0.02094737
-0.15844248
-0.10727382
-0.041172426
0.077084415
0.1298066
-0.0834764
-0.123194516
0.09164771
-0.0024447164
0.044036273
-0.060701087
-0.024825528
0.010003853
-0.018641904
-0.069614224
-0.046222664
0.03961294
0.046335626
-0.07193233
0.04564053
-0.094460845
0.07596501
0.03638986
-0.091314964
-0.11043766
-0.12871653
-0.063930795
0.0037801873
-0.10689041
-0.069692776
-0.01870882
0.013187965
0.106514126
0.071798995
-0.091712005
-0.08577648
0.04984599
-0.0038361948
0.075546145
-0.06471294
0.08856244
0.028456261
0.026738176
-0.07254337
0.0925525
0.07522077
0.06663837
-0.09145815
-0.055011727
-0.037959367
-0.09892834
-0.03275752
-0.098769926
0.088512346
0.10615534
-0.007820458
-0.056731533
0.062025104
-0.09203098
0.04816886
-0.15634096
-0.022128217
0.1046534
0.024881326
-0.09958295
0.048507106
-0.067871965
-0.07006879
0.059948612
0.0017413027
0.0094955815
-0.04799361
-0.09181815
0.047264535
-0.038448647
-0.08668777
-0.037516974
0.09610991
0.112111956
-0.08181661
-0.06303984
-0.025713738
0.033584513
-0.048500396
-0.15536432
0.05703019
0.16159478
0.09534826
-0.0361273
-0.041938264
-0.053120084
0.079387315
-0.031113846
-0.1088117
0.049272247
0.030916946
-0.014166433
0.007972917
0.023687556
-0.0507882
-0.062294338
-0.06649882
-0.027340803
-0.028249139
-0.02138257
-0.021087069
-0.034788676
-0.009980559
0.0717145
0.0022878523
0.05704889
0.039488245
-0.02976303
0.08451348
0.033542413
0.011967213
0.13991156
0.048681512
0.00042437704
0.11277837
0.13526513
0.041886967
-0.032438423
-0.06634795
0.038915012
0.00056385895
0.0008441917
-0.064630024
0.058740214
0.059605125
-0.019785138
0.0071474365
0.076486774
-0.084014855
-0.11192223
0.100192614
-0.03211556
-0.073723875
0.07291998
-0.091584116
6.387036e-05
0.052136768
0.012742048
-0.042450663
0.034466676
-0.011438515
-0.028424626
-0.050571032
0.03996164
0.07436069
0.036619965
-0.033828236
-0.06557875
-0.04706004
0.03476588
0.08324442
-0.0015482274
0.008813671
0.042807624
0.10364894
0.08648741
-0.028208865
-0.084534876
-0.004308466
-0.024335848
0.07560791
0.019758211
-0.18190163
-0.09299602
-0.17668684
-0.048615653
0.024801053
-0.118451424
-0.17936718
-0.0670552
-0.061598193
-0.058403496
-0.03934042
0.08696065
-0.013628329
0.07494966
-0.08819397
-0.015134759
-0.0926016
-0.08027575
0.060588844
-0.089082375
-0.0747882
-0.050206568
0.024767293
-0.10141236
0.09836417
-0.0067154793
-0.0649152
-0.036322355
0.14884776
0.11364483
0.017269023
0.079600155
0.108503126
-0.032291856
0.12068671
-0.03852023
-0.03361334
-0.044519555
-0.03560856
0.019736165
-0.02515132
0.067563355
-0.069209985
0.095408805
0.073402114
0.044792756
0.04232245
-0.06518322
-0.0015590095
-0.02834636
0.026310608
0.03096148
-0.063321516
0.12166596
-0.03824679
0.10115415
0.09750829
0.08657676
0.07830583
0.060139634
-0.10829711
0.114750616
-0.08725321
0.080508254
-0.010506244
0.053065836
-0.066585906
0.043788772
-0.042632177
-0.009746944
-0.025132356
0.090040416
0.030747958
-0.027392387
0.11253538
-0.064565755
0.045119084
0.03881621
0.032839336
-0.0324009
-0.1551289
0.11373233
-0.069969244
-0.14864127
0.11057077
-0.072360374
-0.13060036
0.08395018
-0.09210043
0.056003835
-0.085562855
0.09557259
0.03498621
-0.0719303
0.06070179
-0.033534385
0.045201074
0.045126785
-0.032519717
0.07624389
0.081941165
-0.04881364
0.09003039
0.029905725
0.07261534
0.02490801
0.016783684
0.08263375
-0.02444682
0.11614174
0.031495027
0.043807313
0.06326523
0.058836114
0.048743993
0.10389875
-0.045427866
-0.079111
-0.014737407
-0.06102737
-0.053108986
-0.06915984
0.0048527834
-0.083182015
0.057390224
-0.1033155
0.016874652
-0.11841052
0.0752766
0.050759714
0.1484149
0.036810935
-0.036562305
0.14223331
-0.03294518
-0.042242773
-0.021706242
0.09897195
-0.08976388
0.023453014
0.14941484
0.058787987
0.015545037
0.066824734
0.06377992
-0.0933935
0.0057752775
0.08185675
0.070308454
-0.079236746
-0.032918558
-0.052198857
-0.013409721
-0.11736735
-0.07722904
-0.10144471
-0.015891496
-0.016880764
-0.077608675
0.06825478
0.08274497
-0.122340985
-0.0684312
0.13413252
-0.0399861
0.110299945
0.041984685
0.14937182
0.040604882
0.027337054
-0.06209658
-0.021556964
0.055900384
0.027067723
0.08874047
-0.029206969
0.019109745
-0.059806507
0.024063606
0.014909327
0.080133036
-0.08298184
-0.05277395
0.07136871
-0.043477908
-0.04917847
0.02221479
-0.043062747
0.030155355
-0.13251236
0.14298095
-0.12722899
0.010617926
-0.004572894
-0.1274639
-0.057254933
0.0660324
0.06045303
-0.008925643
-0.04753069
0.037150167
0.029251639
-0.07916807
-0.031455845
0.076746866
-0.04922073
0.03042929
-0.05257925
-0.1007991
0.06498083
-0.02438975
-0.16747715
0.166002
-0.107097335
-0.01302891
0.012895516
-0.04015657
0.038551956
-0.061193146
0.007885108
0.08163755
0.0268406
0.021610713
0.0051511615
-0.063137315
-0.013038591
0.07198764
-0.03107922
-0.09392589
-0.01970823
-0.0049160914
0.019751046
-0.08843774
0.031262666
0.04814291
0.079606555
-0.057469457
-0.037305724
-0.07206907
-0.024485817
-0.05495991
0.014598288
0.15960766
-0.023684805
-0.08064254
0.026656317
0.013700016
-0.07748882
-0.13818322
-0.054725427
-0.11348229
0.018585203
-0.08659059
0.03069864
-0.02622239
-0.07446059
-0.014903211
0.070406936
0.06263366
0.06399219
0.06559392
-0.031443603
0.028124116
0.06354013
-0.031927217
-0.006053672
-0.043989275
-0.04090391
0.07630043
0.08719489
-0.034970812
0.058480635
0.14458463
-0.014177023
0.08509842
0.12059328
-0.06990354
0.045685284
-0.07008944
0.010965311
-0.056449395
0.060256016
-0.037559908
0.07840193
0.0027825728
0.07113192
0.029470863
-0.10706917
0.028751114
0.10258262
-0.06492297
0.07825176
0.04133814
0.06144998
0.004435548
0.06700534
-0.09773813
-0.06560477
-0.001875899
-0.018239126
0.09462293
0.0021594784
-0.032681406
0.11323846
0.12076819
-0.033898994
-0.07521833
0.018541146
0.026918117
-0.04071152
-0.037050217
-0.0100958925
0.08276049
-0.025499891
0.025950588
-0.014223099
-0.03722841
-0.07108622
-0.13764983
-0.07021556
-0.058792263
-0.09879259
-0.040930666
0.07408958
0.045617674
0.007539728
-0.081936724
-0.054927457
-0.046077017
0.073679574
-0.08610015
0.08968145
0.0974909
0.073731855
-0.008833378
0.029122174
0.08765054
-0.07681614
0.07671163
0.036004473
-0.0057909843
-0.039941538
-0.023448827
0.124675654
-0.027879722
0.023264304
0.07820684
0.08114883
0.081933916
0.105018064
-0.12627885
-0.05129444
0.102054365
-0.0937103
0.014653385
0.09930314
0.047579695
-0.09899402
-0.055011664
-0.030265301
0.04640306
0.046270456
-0.08792982
0.085675344
-0.093418986
0.06531279
0.06862569
0.07219016
0.17456101
0.050451994
0.058066882
0.020089408
-0.049583748
-0.04705105
0.09546506
0.051724475
0.07446111
-0.061279353
-0.0598305
-0.07523302
0.04787948
0.0034418586
0.022420688
0.15047652
0.056024928
-0.08548431
-0.0672024
0.013024843
-0.052900344
-0.01482783
0.01203696
-0.006883372
0.030671371
0.063120365
0.0041265343
0.14062098
-0.10517619
0.14047411
0.19435105
-0.11477198
0.059129387
0.12919194
-0.16913134
0.13148853
-0.05898777
0.023095123
-0.0399602
-0.1353974
0.061944332
0.054644916
-0.012786992
0.0947805
-0.094934925
-0.046918448
-0.042257674
0.025401263
0.09089615
-0.09037575
0.0525869
0.05310566
0.035619702
0.087459534
-0.13009946
0.100857176
-0.05795605
-0.028936487
-0.05656188
0.03135225
0.08829997
-0.1257357
0.046322953
-0.14544927
0.25270364
-0.09111515
0.049019877
-0.060087316
0.065738924
0.14503057
-0.17600112
0.008516043
-0.0702564
-0.013396329
0.08428356
0.015707167
0.006234217
-0.035981305
-0.084784195
-0.048662506
0.08295881
-0.051088084
-0.075441025
0.06378759
0.089142814
0.0728319
-0.017765477
-0.005612708
-0.08125678
0.09214449
-0.06713918
-0.13726611
0.031515017
-0.042116396
-0.14856488
0.063768074
0.022463031
-0.112979494
-0.09109813
0.017439475
-0.09300327
-0.079824604
0.012843858
-0.05075007
-0.032448545
0.003400874
0.04369523
-0.072802246
0.098862626
-0.08604093
0.06596156
0.10861228
-0.111655295
-0.0364688
0.07982305
-0.07026013
0.060332306
0.048985578
0.024155958
-0.13111348
-0.027282909
0.047656413
-0.08010128
-0.12224921
-0.047588956
-0.14863275
-0.08268761
-0.08321853
-0.086442515
0.0113522345
0.058798097
-0.019738613
0.027201785
-0.0907021
0.08377703
0.0057221265
-0.037404574
-0.06169901
0.024767082
0.02401076
0.041074086
0.009691538
0.052210953
-0.00513708
-0.014561895
-0.006144342
0.15298459
-0.12747858
0.07571371
0.09394602
-0.06530377
0.05719201
0.04895721
-0.09009185
0.015797136
-0.060831096
-0.05694017
0.034735963
0.020612523
0.06646267
-0.03606948
-0.05260339
-0.14490804
0.03365458
0.068107136
-0.09817099
0.07605332
0.06315785
-0.11376642
0.045423742
0.10168292
-0.010915111
0.02123941
-0.053284798
-0.05934707
0.039323594
-0.06268577
0.042083498
0.056928612
-0.084382445
-0.06918987
-0.047131907
0.084692575
-0.060741812
0.04027435
0.054710522
0.042559054
0.018140083
-0.06490849
0.08184486
-0.15889679
-0.015542364
-0.028063573
-0.13583691
-0.04556486
0.100212395
0.0020749094
0.004469705
0.015094888
0.10558214
0.039180644
-0.02025463
0.030220078
-0.057058122
0.07046532
-0.044789106
-0.07043527
0.090508744
0.0069938097
-0.048125707
0.031070106
0.092489205
-0.024250625
-0.013475861
-0.014573855
-0.035596464
-0.0072293645
-0.025107617
0.10612202
-0.054863114
-0.050799023
0.040186778
0.0015984372
0.056468084
0.01426353
0.16479832
-0.07837777
0.09706553
0.053518884
-0.023723211
0.097419545
0.15845886
-0.046159472
0.108247966
0.0889583
-0.06875179
-0.008246024
-0.039890263
-0.07583697
0.0065363813
-0.019571388
-0.036111496
0.016678784
0.082855776
0.0060327514
-0.00997959
0.094005845
-0.0072500505
0.06044561
0.054977905
0.057240136
0.06998866
-0.11445624
-0.046067424
0.094327755
-0.04971776
-0.073297694
0.026139332
0.07974842
0.0031686402
0.1292184
-0.0057096854
0.013928468
-0.010875425
0.043985773
-0.014336663
0.074672654
0.030808276
-0.010750856
0.01268598
-0.058204386
0.081835344
-0.0022719824
0.10037541
-0.013761416
-0.1390838
0.09809877
-0.06153333
-0.07562886
-0.05324893
-0.077334836
0.02903366
-0.184273
0.06931808
0.12959163
-0.13363107
-0.0036453733
0.02562743
0.05998061
-0.04307329
-0.08003049
-0.03293347
-0.07010304
-0.016024888
-0.061870456
0.07881257
0.09428862
0.02108402
0.013584116
-0.02538173
0.07670233
0.045083128
0.030702837
-0.073554724
0.0019809993
-0.02770935
-0.023703061
-0.018526262
0.17383398
-0.045033693
0.03852265
0.15051837
-0.048022367
0.05157282
0.067348145
-0.021460107
0.06260915
0.0035583046
-0.040953726
0.052007455
-0.08900984
-0.06337824
0.027200691
-0.018402686
0.06344363
0.031360295
-0.009277691
0.0148225315
0.039484896
0.088379234
0.023977231
-0.066820115
0.11174684
-0.009743939
0.014176355
0.022777587
-0.13366926
-0.090328895
0.0036362926
-0.13038416
0.06092385
0.1035024
-0.014623643
0.034778267
0.084808625
-0.03331151
0.09482676
-0.075994544
0.026085844
0.051257476
-0.06244679
-0.0046313875
-0.022380482
-0.001966168
0.037482474
-0.07015614
-0.12722446
-0.12210725
-0.093180366
-0.1051981
-0.05488764
-0.022853667
0.08956704
-0.05799285
0.1142135
0.10599749
-0.07977383
0.11543229
0.036316466
0.05711894
0.06316689
-0.048274606
0.0974714
0.047077384
0.010974558
-0.09044837
-0.062116377
-0.08532596
-0.07362992
0.022715181
-0.06716177
0.17171228
0.009284247
0.12571071
-0.12809707
-0.01909737
-0.10253117
-0.008142027
-0.0068401014
-0.10999296
0.16975449
0.0777691
0.1695653
-0.17021672
-0.041925084
-0.023200858
0.05156257
-0.038367562
-0.037770722
0.0461249
-0.08849191
-0.032603115
0.054276142
0.05556536
-0.06358115
0.028958661
0.033469807
0.0034010287
-0.062100176
0.1253937
0.028935788
0.10307176
0.06996535
-0.048209183
-0.09869582
0.106846325
-0.0059362943
0.009652343
0.028049538
0.11037094
-0.056447435
0.11772609
-0.055275433
0.07176181
-0.03390252
-0.059607342
0.07912523
-0.047126178
-0.04544655
-0.02806778
-0.06600558
0.023599772
-0.009142497
0.0014798719
-0.041412298
-0.08356841
0.0064904727
0.0063813594
-0.078996405
0.05157739
0.046547744
0.017834084
-0.07251892
0.062399533
0.10492945
-0.1167825
-0.0048497175
-0.032458372
-0.17372799
-0.029142145
0.06773295
0.03234224
-0.0051399125
0.017515812
0.028751802
-0.052907884
-0.024809621
-0.041018225
0.050129317
-0.086464785
-0.04763134
0.035276696
-0.12225149
0.103354156
0.119309686
-0.11754938
-0.021916917
0.12685233
0.058953606
0.022683816
-0.0041197985
-0.0893595
-0.022234451
0.082185134
0.055128053
0.028085966
-0.017916808
-0.023699615
-0.09123431
-0.07476145
0.06062921
0.026254626
-0.055285186
-0.0075541544
-0.016500661
-0.012224602
-0.06487487
0.042576775
-0.10063778
0.061246756
0.09313953
-0.10711211
0.048639227
0.08641579
0.016897023
-0.111519866
0.08004447
0.03631318
-0.03798314
0.059908662
0.083686076
-0.04728196
0.023745751
0.032940716
-0.044317886
-0.007586332
-0.025307994
-0.05575144
0.08234522
0.06298382
-0.062297557
-0.083703
0.09751409
-0.13618281
-0.06651668
0.12822609
-0.16274354
0.039505024
0.10721273
-0.095299065
-0.12293215
-0.055242
-0.049965862
0.035802737
-0.056107737
-0.03911865
-0.026048698
0.030808333
0.09942496
0.07269815
-0.024625635
-0.014498184
-0.08189602
-0.038984403
-0.045967806
-0.016681254
-0.03557845
-0.09362227
-0.052077897
-0.0095762275
-0.0702936
-0.033814043
-0.03801957
0.0329708
0.08830388
-0.079489
0.050034523
0.0062277187
0.012729627
0.08339613
-0.04413013
0.069668144
0.08903096
0.11409366
0.025582053
0.1269941
0.08654899
0.06647856
-0.03144485
-0.060349938
-0.019168222
0.043625027
0.048527326
-0.012340493
0.0018593139
-0.06597783
-0.07343659
0.077707864
0.015568779
-0.004965028
-0.030756665
0.07136806
-0.02957312
-0.05234589
0.07440506
0.02242774
0.004234064
-0.191623
-0.10551892
0.1508608
-0.11262588
0.026651446
0.03126267
0.18214986
-0.016831534
-0.0076675233
0.0019087127
0.03732067
0.04074558
-0.039129417
-0.07243837
-0.09732723
0.047452547
0.039793532
0.009640934
0.0897815
0.04863722
0.07797597
0.084855504
0.008152049
-0.08372368
-0.07282241
0.03306203
-0.075958714
-0.12955523
0.0046425364
-0.08066825
-0.19033927
-0.097878166
-0.07552863
-0.11227963
-0.035752777
0.07479389
-0.08865708
0.009862232
-0.014881128
0.01629245
-0.010856987
0.026736906
-0.005190478
0.07457304
0.061819293
0.028478824
0.0045286664
-0.10526509
-0.051578052
-0.05295856
-0.05182258
-0.09291773
-0.123959675
0.11105078
0.092826925
0.1182477
-0.011341345
-0.07843389
0.120268986
0.025706982
-0.015473852
-0.06463099
-0.05506377
0.07437272
0.02524288
0.053153716
0.03682343
-0.08298922
0.0126513075
-0.096076205
-0.033029944
0.050832886
0.024607224
-0.15790157
0.0026609902
-0.043359607
-0.074843735
0.04597277
-0.03919146
-0.052275073
0.015295507
0.025309505
0.09290072
0.14896329
0.05213041
0.07745136
-0.016122207
0.09190117
-0.077463746
0.008792491
0.025786722
0.07748347
0.04681732
-0.074305326
0.029390927
-0.046313394
0.038100276
-0.05352277
0.027674032
-0.019054418
-0.044409443
-0.04795833
0.018849758
0.043762732
0.07311884
0.037435036
-0.014313934
-0.07177499
-0.17124099
-0.025827684
-0.17201197
0.038726874
0.027040722
0.1859295
0.12639518
0.025245719
0.059392426
-0.034963075
0.0892192
-0.044814896
-0.029342346
0.08841496
0.09364202
0.0121238455
0.061566096
-0.19426183
0.08289607
-0.14137736
-0.16093679
0.11235556
-0.11041373
-0.11083008
0.11842244
-0.060208857
0.1600414
-0.07916975
0.037485197
0.044926655
-0.02299975
0.013681961
0.000915969
-0.068436086
-0.059785757
0.07837251
0.0400447
0.04875774
-0.060474437
-0.014035974
-0.033538695
0.01987057
0.022619044
0.0077050296
0.032549176
-0.016692642
0.1399595
-0.082233004
0.113390766
0.1253506
-0.12965721
-0.028779622
0.08282028
-0.0031658653
-0.07658059
0.0069728326
0.1063665
0.019579224
0.0062789973
0.035539895
0.066033654
0.009251899
0.025673456
-0.04844966
-0.08313633
0.02067786
-0.0155891925
0.06817184
0.025671817
0.052987818
-0.035790518
0.0153507795
-0.034681458
-0.124728635
-0.050650027
0.027970623
-0.14674959
0.03888344
0.030187342
-0.11698644
-0.0077012726
-0.06789473
0.029461412
-0.054036077
0.0073330216
-0.016980039
0.06429389
-0.0034429415
0.006035353
0.08838683
-0.035417993
-0.06471975
-0.03397654
0.040770207
-0.03435041
0.0689543
0.04782636
-0.06135422
0.05260301
-0.1094954
0.09385897
0.014161843
-0.044330604
-0.008497586
0.02794412
-0.06571408
0.05613991
-0.119496234
0.1256412
-0.0068595014
-0.10346368
0.004686955
0.080828466
-0.10830958
-0.025147878
0.05865212
-0.037316125
-0.0144366985
0.083239995
-0.09760309
0.037836127
-0.05159077
0.066353336
0.06666268
-0.055864416
-0.054076847
-0.0005035134
0.11831975
-0.16061841
0.04025502
0.081143424
-0.13574147
-0.11484531
0.04250285
-0.008256415
-0.061516322
-0.02082102
0.017975688
-0.06188522
-0.062742054
0.061258882
0.051920682
0.022541778
0.065058745
0.017317811
0.081305794
-0.017247826
-0.09230667
-0.09631914
-0.04304334
-0.06766861
0.052216295
-0.009013335
-0.14111955
-0.0897154
-0.086638235
-0.019688109
-0.11453709
0.052166037
-0.12572592
-0.03175074
0.006068205
0.006499698
-0.014309071
0.013498888
0.005687222
0.064755835
-0.028741272
0.080689915
0.046663944
0.019618893
0.016917396
-0.053703573
0.0018060048
-0.03665168
-0.036760688
0.030498957
0.060963146
0.09159498
0.044306714
0.0018362891
-0.1086921
0.05257174
0.116837844
-0.099036
0.0252092
0.07535489
0.019087117
-0.0046634353
-0.007688821
0.0035625107
-0.13147679
-0.07214582
-0.12398857
-0.062572055
-0.04283043
-0.083374605
0.05203492
0.09524086
0.0064295763
-0.04316815
-0.083234504
0.05220392
-0.013956992
0.05618586
-0.04738656
0.050748363
0.027347015
0.039232593
0.030536806
0.10876324
0.081862405
0.08935405
0.038255982
0.040626835
0.100339666
0.074683405
-0.0037881522
-0.061865386
0.013683838
-0.059305172
0.11085775
0.041995104
-0.040576443
0.018569361
-0.009886166
0.07463881
0.015442273
0.012830352
-0.043399468
-0.051275305
0.018299848
-0.07492529
0.03705108
0.08309195
-0.02298733
-0.032164466
0.12950379
0.071122155
0.036708042
0.09616136
-0.14143673
0.046602536
-0.13086933
-0.07378051
0.07682327
-0.10024987
-0.0073344205
0.034632858
-0.106956095
-0.05209649
0.06677442
-0.037302747
0.07906779
0.041369848
-0.04029551
-0.002135319
-0.046383586
0.0069020684
-0.016916106
0.031823777
0.07025035
-0.027604718
-0.06269153
0.015425303
0.08773364
-0.02723266
0.047620017
0.036991883
-0.05323886
-0.059979815
0.060371097
-0.10141848
-0.113899246
0.06529998
0.01184394
-0.14400382
-0.017772159
-0.07837672
-0.007822239
0.09273105
0.08692638
-0.08419437
-0.08480396
0.02060075
0.027135951
0.04561825
0.20249082
0.004253877
0.10177757
-0.008425476
-0.019838966
-0.12900409
-0.16391931
0.012183322
-0.027260527
0.043315396
0.08383695
0.04609322
-0.13776928
-0.066073395
-0.08330088
-0.0168952
0.12113025
0.061167292
0.0053548296
-0.014451082
0.026986964
-0.03131932
0.015029751
-0.037105434
-0.027191918
-0.02080855
-0.016396798
-0.06439054
0.040202893
-0.02515622
0.072837465
-0.0024135194
-0.022908455
-0.07147051
0.056854
0.08730409
0.13416006
0.08082346
-0.01105613
0.14530541
0.059398208
-0.016277969
0.11453855
-0.01319392
-0.04575213
0.0658182
-0.041077837
-0.059146266
-0.068650275
-0.07001792
0.0745396
-0.043170653
0.034126647
-0.03295403
0.011752214
-0.006316433
-0.1253719
0.021953098
-0.031327713
-0.052745778
-0.028737303
0.02520228
-0.12786843
0.11013474
-0.05818818
0.107826374
0.0765309
-0.07211333
0.119931504
0.112211496
-0.0013943921
0.094610475
-0.010059088
-0.0002648625
-0.020408776
0.07708247
0.020102104
0.053332474
-0.013336553
0.09441856
-0.0051714987
