0.037175763
0.007819149
-0.035270896
0.005664894
0.027097506
0.028364843
0.040483516
0.031935457
-0.029045584
-0.037579406
-0.036611762
-0.020022312
0.023087392
-0.018891493
-0.036753796
0.025326014
-0.0018164096
0.017554568
0.03517058
0.030941186
0.031749066
0.030269088
0.029874451
0.036529195
0.010278068
-0.042469677
-0.04114726
-0.03592755
0.009311687
-0.028792694
-0.021911956
-0.010926277
-0.025215052
-0.012518329
-0.03594842
-0.02660919
-0.013725294
-0.005254561
0.03308391
-0.0063426355
0.025694247
-0.027093383
-0.007437107
-0.037938807
-0.008192295
-0.012869361
0.034584876
-0.038532138
-0.036590062
0.034000523
-0.03630114
-0.007224138
0.0030760418
-0.008451811
-0.018021481
-0.03310702
-0.025917258
0.021246392
-0.025533915
-0.023476481
-0.026349323
-0.03157878
-0.031969033
-0.018375289
-0.033497475
-0.0330071
0.021505037
0.014630486
-0.008160188
0.006173542
0.016032666
-0.02260415
-0.040631313
3.4177385e-05
-0.015239181
0.02816679
-0.018393675
-0.012738538
-0.013422738
0.035243634
0.026997982
-0.020127933
0.028616797
0.016200354
0.03428898
0.017018426
-0.012584652
0.01956251
-0.040167954
0.032716528
0.03286532
-0.012702337
-0.0038610294
0.0037530835
-0.02689198
-0.040175617
-0.01610959
0.0047685145
-0.0021012402
0.009308921
0.04227997
-0.036213122
0.012395608
0.021652251
-0.023824368
0.026568787
0.024077207
-0.024012612
-0.015541178
0.0003951065
-0.02820432
-0.007684707
0.024166364
0.026377618
0.030388223
-0.036717255
-0.028240245
-0.0028791425
-0.03597723
-0.03565956
-0.02548539
0.0031067103
-0.04429593
0.016486872
0.03155947
-0.006978491
0.0023732341
-0.03675832
-0.02114054
0.0051658554
-0.03145774
0.0037727216
-0.026008554
0.019007495
0.009442908
0.010254777
0.0049131196
0.024953563
0.020784983
0.012703075
0.01172694
0.029533647
-0.018805852
0.040190075
0.022278942
0.03672549
0.028111836
0.02954714
-0.009235424
0.031699043
0.009671133
0.032294065
-0.007624144
-0.035132464
0.00341187
0.016922124
-0.006682797
-0.004905343
-0.011637297
-0.015556171
-0.010154303
-0.00620729
-0.031904195
0.0013336665
0.035489224
-0.025914025
-0.008963218
0.006804676
-0.025608646
-0.033220384
0.010042098
0.029946292
0.021530285
0.012916282
-0.028916009
-0.029932223
0.024318747
-0.036821127
0.029843723
-0.014025683
0.020020062
0.011741512
0.0040508886
-0.006155993
-0.039087247
-0.027838742
-0.010242244
0.015359674
-0.03527654
0.030757772
-0.022076186
-0.02533907
-0.020193148
-0.02446637
0.0065035056
0.030722082
0.045668688
-0.03347698
-0.018111134
0.023407426
-0.035695277
0.020729119
0.018736003
0.0055723377
-0.01343946
-0.02699491
-0.044903897
0.023975085
0.02545667
0.027583688
0.013540641
0.014284232
-0.010030591
0.013196734
0.04284256
0.018689815
0.020508299
0.024905473
-0.026104212
0.008829035
-0.008408096
-0.033216108
-0.036909938
-0.0065997634
-0.035474334
-0.037015196
-0.021537872
-0.0104146665
0.013890554
-0.009035995
0.03446082
-0.009685473
0.014173775
-0.0034638615
-0.0317161
0.034673404
-0.02044934
-0.0005620258
0.029301547
-0.008485984
0.018679911
-0.0008040571
-0.008326627
0.0038510042
0.029861972
0.022221293
0.013385337
0.015491478
0.012796795
-0.023189828
0.030977948
0.018794965
-0.009234069
0.029569456
-0.012226324
-0.014939246
-0.027688792
-0.021445798
0.035762932
0.020232672
0.026288474
-0.04835193
0.03243532
0.029903062
0.01999203
-0.0037144283
-0.016771365
0.013764074
0.018741475
0.023959082
-0.036948513
0.0025370447
-0.03920714
-0.045334425
-0.02002852
0.011547746
-0.019702341
0.020160206
-0.036091633
0.017054975
-0.032273058
-0.008587512
0.009179568
-0.016691474
-0.0103944605
-0.0018392256
0.016626107
-0.01047404
-0.02238861
-0.019014958
-0.031054528
-0.0008024666
0.03172083
-0.00025681985
-0.019635553
0.032020643
0.0009655182
-0.027822707
0.018447885
-0.025072409
0.01576603
-0.007869179
0.027371423
0.013356045
0.042711932
0.0088111935
-0.022216702
-0.033472534
0.00932555
0.023982963
-0.013075118
0.03303876
0.026368162
0.015504026
0.04733571
-0.034630105
-0.009629221
0.011103224
-0.03898121
-0.016388113
-0.040606305
0.011980478
0.012111383
-0.0061813924
-0.013060392
-0.0022389211
-0.015597741
-0.02064482
-0.031542506
-0.035726212
-0.019239252
0.026633745
-0.005458863
-0.039474875
-0.0057181665
0.019441824
-0.010270657
0.021021983
-0.022139639
0.019498205
0.03793308
0.032832753
0.042509235
-0.010035187
0.028285062
-0.02726467
0.0088829035
0.031570055
0.027986389
0.018434376
-0.007076215
0.0050058947
0.027250921
-0.034205556
0.016049521
-0.01683725
0.019545138
0.03345763
0.030791609
0.011947773
-0.0027636709
-0.03134278
0.02023665
-0.0049578636
-0.012703257
0.04435692
0.030159146
-0.0037775862
0.0021599038
0.026499946
0.0070357868
-0.0112729715
0.0023668774
0.0033756078
-0.012709223
0.0052989637
0.02340248
0.027460884
-0.034282483
0.028527265
0.032584857
-0.03298569
-0.0020910064
0.028622335
0.038292535
0.030314192
0.030146386
-0.02522307
0.042498898
-0.039122444
0.039732255
-0.012866857
-0.027584612
-0.012258558
-0.0028746186
-0.019758124
-0.028853439
0.01820727
0.020797618
-0.03246731
-0.009984446
-0.027392752
0.02365434
0.027192386
0.0084422445
-0.001651677
-0.037576865
-0.03516833
-0.027025009
0.031386748
0.033832867
-0.03692467
-0.00965517
-0.030228682
-0.025858775
0.0019865015
0.039293103
-0.029840682
-0.0030655153
0.014869506
0.028761905
0.027513202
0.039098855
0.034059003
-0.043729346
-0.045208357
0.04080296
-0.0289457
0.013622109
-0.010277122
-0.00726411
0.02052291
0.030724278
-0.0017957892
0.034739565
-0.02127938
-0.026014477
-0.029916447
0.019676493
0.012102032
-0.019913334
0.028785065
0.03143038
0.013908646
-0.0036329941
0.036535528
-0.02161647
-0.00823355
-0.002423345
0.032640833
-0.0078212535
0.035795756
0.02588756
-0.015427993
0.04250322
-0.019436717
-0.03705215
-0.0060287286
-0.014808419
0.039387994
-0.032203574
0.04583222
-0.031433616
0.021177085
0.04298923
-0.02818985
0.004039774
0.026157124
-0.00612085
-0.0297192
0.0049581006
0.01801126
-0.026710935
-0.020585518
0.0054599377
-0.030324921
0.03183138
-0.014086809
0.0019209452
0.0056145014
0.030969415
0.004143743
-0.012612404
-0.017882198
-0.0327661
-0.03065494
-0.011420964
-0.014317672
0.009360217
-0.0050098808
-0.00061372854
-0.03918935
0.013391761
-0.0029440834
0.013723945
-0.008351302
-0.025940742
0.0058662975
-0.023233257
-0.031159433
0.023897862
-0.01584202
0.009636379
0.01105891
0.010336064
0.017449997
-0.03906961
0.0040439037
-0.042554274
-0.033639435
0.0028933734
0.026592674
-0.010786257
0.020198435
0.038089897
0.015953617
0.017175283
0.03563188
0.008326867
0.019468902
-0.022545082
0.020099951
0.035165846
0.014432101
-0.023456154
-0.038522042
0.0043588155
-0.009373498
-0.011478137
0.013254603
0.018693354
-0.023793086
0.024095712
-0.0480841
-0.037909847
0.014896362
-0.029264234
-0.010652252
0.010241442
-0.02811015
0.004073791
-0.0018514796
0.006621226
-0.0075538405
0.007531707
0.039721597
0.009721858
0.015863568
0.014789728
0.01702076
0.0035173115
0.030442212
0.008811246
0.02705616
-0.033481225
0.029495409
0.025455628
-0.029004503
-0.024617182
-0.044120405
-0.018271262
0.027269961
0.0029655052
-0.020054456
0.0042504347
-0.0014580869
0.015774325
-0.008684035
0.04356873
-0.009319522
-0.009241471
0.048302148
0.022687158
-0.029272307
-0.0033536402
0.025590008
-0.014653456
-0.03555206
0.027703835
0.0058172606
0.012252729
0.025553048
-0.018492147
-0.016267229
-0.011611729
0.0077454983
-0.039662328
-0.02823988
-0.0042352043
-0.039776832
0.024955995
0.030647576
0.030167434
0.034896832
-0.02505025
-0.02977823
-0.028325526
-0.009320039
-0.0091840485
0.03896611
-0.03357949
-0.0024050064
0.038916737
0.0015787154
-0.029676223
-0.02879735
-0.006989154
-0.007829752
-0.011847965
-0.0056639584
-0.035738867
0.016903173
0.025974263
-0.0025079031
0.035560057
0.017510809
-0.017685382
0.03287866
-0.012654424
0.028875688
-0.01339045
-0.015613347
0.010714962
0.03741382
-0.033986714
-0.0049300324
-0.021341696
0.029876694
-0.013576971
-0.021803541
0.028685333
0.032284427
0.016699724
-0.005318081
0.013797843
-0.015995849
0.021478182
-0.0269829
-0.020883795
-0.004436152
-0.012766902
-0.019113688
-0.027882012
0.02999629
-0.022962285
0.044206087
-0.0375547
-0.0027118956
0.0041620266
-0.00011534618
0.01503926
-0.023751358
0.040152624
-0.015512004
0.027007664
-0.01454124
-0.020895403
-0.025983365
-0.02972291
-0.027032003
0.03681296
-0.014044163
-0.008769742
-0.034365345
0.041189604
0.014011767
-0.026432253
-0.0064461506
-0.007497697
-0.041351207
0.008203679
0.011456474
0.0061412165
0.027311409
-0.038472738
-0.021662198
-0.0040374147
-0.00096965773
0.02092435
0.022453021
0.02515123
-0.036203552
0.018829746
0.030437117
0.018503252
0.027174283
-0.0185484
0.03346522
0.01166932
-0.006052071
0.03822813
-0.008429002
-0.032346684
0.013182788
0.03453918
-0.008927642
-0.03092222
0.008199777
0.030692574
0.0013468983
0.0258801
-0.03663639
-0.023175437
0.03794367
-0.03149221
-0.023755377
-0.029154237
-0.016989036
0.021630254
0.026608827
0.033509817
0.041939404
0.02817477
-0.025794275
0.009353098
-0.04492584
-0.008872615
-0.0056056483
-0.0009660057
-0.021510545
-0.041929662
0.029843453
0.013445647
0.0012130776
-0.028415726
-0.03324795
-0.037327103
-0.023169706
-0.004489225
0.037394784
-0.0024812953
-0.0022518416
0.031208081
0.022736628
0.024455637
0.02881215
0.021191671
-3.1346575e-05
-0.042792246
0.03799455
-0.021591367
-0.013882711
-0.0076349983
-0.021304075
0.0060619414
0.02924129
0.0073081073
0.008330999
0.001894857
-0.008563039
-0.038181286
0.015665622
0.017550487
0.0074763442
0.03574892
-0.037414603
0.038941268
0.002792981
0.017384818
0.04283353
-0.014513765
0.025621202
-0.03517652
-0.03880841
-0.026575182
0.036509894
0.037057925
-0.037059966
0.01186835
0.035651058
-0.013931054
0.02634229
-0.023590438
0.027038246
-0.017644025
-0.03303097
-0.036018554
0.03988774
-0.029943038
-0.032463055
0.00874716
0.027910413
-0.02579668
-0.010078824
0.03720438
0.029350398
-0.0018168216
-0.0445399
0.032078695
-0.015468028
-0.009482237
-0.045767095
-0.005392553
0.01654244
0.0375281
-0.010249937
0.02333302
-0.039861865
-0.019838145
0.031756513
-0.014749986
0.014755927
-0.01178297
0.021861162
-0.01719418
0.0078557115
0.03133979
-0.021852408
0.0033080517
0.025451068
0.00027287233
0.029732984
0.013918043
0.027017541
-0.031136325
0.027074017
-0.03241647
-0.021000536
-0.034832925
0.023815969
0.026472557
-0.04126743
-0.010021251
-0.011362309
0.0019179209
0.034308348
-0.028693218
0.024321605
0.010774884
-0.015316784
-0.009511341
-0.0021986624
0.023784425
0.021971198
-0.015229797
-0.007360062
0.00646409
0.012980128
-0.03560479
-0.018088449
0.012670798
0.033707038
-0.012935634
-0.019188674
-0.0001614965
-0.037646525
0.015426131
-0.01592525
-0.033965316
0.032316845
0.0021254409
-0.0225333
0.0031962595
0.027975276
-0.0065466487
-0.027377421
0.016227318
-0.034472615
0.036163487
0.0314071
-0.0076468135
0.005446275
-0.016802102
-0.043739542
-0.0115431715
0.042169113
-0.031793304
0.004295505
0.007666972
0.04324365
-0.026800485
-0.020372646
0.015530966
0.019938612
-0.009079869
-0.034232404
-0.014628208
0.01569988
0.016630892
0.028198974
0.020455979
-0.0022238728
0.034041278
-0.009079229
-0.030072935
-0.028913504
-0.036381997
0.013891715
0.024230242
-0.029390188
-0.01362817
0.002406073
0.014776133
-0.029399777
0.003241786
0.0073215147
0.010704386
-0.0008831867
0.018680938
0.011274366
-0.0015090216
0.022206126
-0.04388177
-0.017249329
0.0044409875
0.012596164
-0.029909931
0.036118668
-0.045735277
0.010270516
0.033970118
-0.0038095263
0.009539579
0.025368076
-0.03272318
-0.016558303
0.037496198
0.0030366248
-0.0073984857
0.015567306
0.041660313
-0.038916454
-0.009375654
0.037068915
-0.004917487
0.014527207
-0.0031951247
0.033342518
0.021468705
-0.03749795
-0.01480794
-0.0026012703
-0.041783966
-0.007208458
0.02871278
-0.038421568
-0.033797234
-0.03247966
0.0022251667
0.04031987
-0.0047363103
-0.010680088
-0.028418528
-0.01045202
0.011677742
-0.046346925
-0.03728847
0.011008385
-5.784605e-05
0.033533357
-0.02517668
0.026531398
-0.03396571
-0.031126516
-0.024896711
0.003365204
0.0067504174
-0.013300139
0.033239555
0.022086335
-0.003509332
0.007705494
0.034604758
-0.02107778
-0.015994554
-0.03525458
-0.03330701
0.026142187
0.009693598
-0.009446421
-0.012951137
-0.023322687
-0.03109171
0.003895712
-0.0027155364
0.02197653
0.028938059
0.012119385
-0.009764264
0.01089332
-0.00068517966
-0.0039541023
-0.039483648
-0.044563208
-0.0058526774
-0.037223354
0.01546448
0.017653747
0.022964323
-0.04741197
0.02136927
-0.016287677
-0.038247317
-0.020789469
0.0053006243
0.0031480398
0.00044773513
0.03074277
0.020582898
0.03797848
-0.02465769
-0.043775793
-0.029757889
-0.032208666
-0.034907263
0.031369522
0.00075787614
-0.015382079
0.026528597
0.032364134
0.008460285
-0.037491705
-0.020902105
-0.038904406
-0.00023681592
-0.0001249513
-0.01890458
0.030881187
-0.0070241066
-0.026206337
-0.0198682
-0.03276459
-0.03075727
-0.022290796
-0.019483032
0.016255658
0.033775765
-0.0067094094
0.040968265
-0.010512269
0.0391959
-0.009979667
-0.020226026
-0.008807307
-0.007409774
0.0029401057
-0.02130498
0.02321758
0.016101899
0.01709899
-0.021904645
-0.00356954
-0.00967261
-0.004749626
-0.025718596
0.030953167
0.008329836
-0.040399387
-0.02457579
-0.012552759
0.014822285
0.03048485
0.025587741
0.033037405
0.023617001
-0.015032193
0.02535595
-9.766758e-06
0.0018984489
0.028587013
-0.008096912
0.034216292
0.0033913592
-0.03176971
0.009893752
0.02663428
0.019238628
-0.004882701
0.028823638
0.033733737
0.026513444
0.020145256
-0.02728126
-0.004437948
0.027235094
-0.01612187
0.028271297
0.039276183
0.02528544
0.026457908
-0.031123742
-0.0020270336
-0.036370695
0.00473891
-0.02651881
0.031049836
0.018712956
0.0270717
-0.02331587
0.0024935943
0.0034072243
-0.033482853
-0.0011105484
-0.03602181
0.018784367
0.017385047
0.014789051
-0.036299933
-0.016784936
0.011608965
0.009538582
0.037154697
-0.011821371
-0.015988195
-0.035147507
0.027330324
0.014896649
-0.026073156
-0.03460595
-0.014893122
-0.013452839
-0.024319349
-0.03186218
-0.0072474
-0.03032072
0.02974104
0.031237694
-0.025987795
-0.010988788
0.0043321075
0.020996142
0.023169398
0.021543754
0.015546829
-0.009121247
0.015704907
0.011262861
0.024511822
0.019835854
-0.011809798
0.029412534
-0.012028134
0.019150523
0.02175967
-0.015435391
-0.026708435
-0.017005673
0.006797386
0.00013303447
0.019965239
0.043738913
-0.0036099073
0.018194914
0.02635866
-0.0028940854
0.0011091081
-0.033615854
-0.009117818
0.019569373
0.0033151072
0.0056239124
-0.03591321
0.018161716
-0.03563303
-0.029656826
-0.023091426
-0.011867958
-0.027673656
-0.024953384
-0.011096693
0.0064994227
-0.0011615452
-0.03582894
-0.04441961
-0.031191329
-0.012999282
-0.033295054
0.03881123
0.025865374
0.03600315
-0.009443364
-0.041777372
-0.030183598
-0.025485521
-0.011887877
-0.03292333
-0.040920097
-0.026051579
0.01160712
0.037425324
0.0188468
-0.029099066
0.02300708
-0.013542692
-0.0013660997
0.016032912
0.0024959645
-0.002228633
0.0010486708
-0.017311411
-0.029839355
-0.0443748
-0.032222826
0.027962537
-0.0023398164
-0.038058925
0.014913157
-0.023773294
-0.036720004
0.02479761
-0.011147352
0.022830162
-0.025185905
-0.030113565
0.039909482
0.020471603
-0.01955434
-0.03159117
-0.025535818
-0.032978356
-0.035915352
-0.003244485
-0.021073783
-0.020905808
0.019621925
-0.013266333
0.015055378
-0.022446144
0.042585872
0.028735014
0.034051668
0.008100174
0.009824003
0.03990382
-0.024440883
0.0018851133
0.02322294
-0.01936545
0.00095731387
-0.026413936
0.03333164
-0.034596972
-0.028039057
-0.00584207
-0.03309087
0.011048099
0.015349056
-0.016698115
-0.0030377638
0.030147204
0.011577983
-0.012779434
-0.015009791
-0.03832496
-0.0053771874
0.016664524
0.014379739
-0.03350086
0.019602329
0.020148506
-0.021150775
0.016035728
-0.024475288
-0.010187132
-0.025808038
-0.016031427
-0.0013298213
-0.021472264
0.028175602
0.02085618
0.02202494
0.034253497
-0.025411956
0.0129811615
-0.028741343
-0.015402142
0.029941771
0.015234122
-0.014673556
-0.03074497
0.030361047
0.0020825495
0.0031902594
0.01967236
-0.0036906977
-0.0013955563
0.0114938775
-0.042844504
0.020667473
0.02062047
-0.0412618
0.034338214
-0.023450715
-0.0140967565
-0.03858317
0.012194423
0.0040450976
-0.003293652
0.0061982903
-0.0010861879
0.028803451
-0.03397205
0.022955969
0.028143438
-0.010315114
0.0049736556
0.040113397
-0.027835017
-0.024527185
-0.0008146441
-0.0008058302
-0.019039279
0.020661715
-0.0030365747
-0.04174855
0.03486836
-0.0048010577
0.011823838
0.033167966
0.012569437
0.018353868
0.0014788463
0.012398851
-0.032659754
-0.0005843176
0.028438803
-0.016556356
0.017935222
-0.030726917
-0.029373987
0.0121407835
-0.0013500504
-0.02607892
0.037446477
-0.020613438
-0.03380352
-0.03379391
-0.03735791
-0.04246696
0.024248445
-0.038247857
-0.04204872
0.031152485
0.0149273295
-0.012724913
-0.033572625
-0.011906053
-0.039472446
-0.04331348
0.01494591
-0.04241916
0.034858573
-0.036903646
0.035630964
-0.03606313
-0.029017432
0.001259813
-0.0037482753
0.009053666
0.035878394
0.0048380382
-0.010550835
0.019650439
0.016361656
0.0481551
-0.017820468
0.014950444
-0.0031321058
-0.027946802
-0.030130552
0.020397475
0.03166964
-0.034940563
0.02455794
-0.02826111
-0.013814604
0.032798953
0.033610374
-0.040079277
0.004520132
0.023322977
-0.037486676
-0.0056761173
0.0029585622
0.027940718
0.038772855
-0.0071403114
0.037622526
0.025571955
-0.015278939
0.0034007595
0.029370783
0.037278965
-0.011863908
-0.0065818047
-0.022543844
0.03628007
-0.02441495
-0.037295777
-0.0027776586
0.039423656
0.004030408
0.013730657
0.012670648
-0.0042608837
-0.02861853
-0.02917105
0.019853218
0.028557055
0.016796473
-0.020613017
0.023007695
-0.027690532
-0.03576821
-0.008304288
-0.028466498
-0.0032407008
0.0047642654
0.023830859
-0.03988652
-0.030250838
-0.029915517
0.008145615
0.007600296
0.0055562006
-0.0023107606
-0.023777243
-0.008466103
-0.018080814
0.022123381
0.028539367
0.0067034825
0.03593867
-0.01508409
-0.01729348
-0.019028177
-0.0093241995
0.021819007
0.013746977
0.018389348
0.0030845331
-0.022536753
0.030291839
0.021831667
0.010233941
-0.015757438
-0.011183106
-0.03513274
-0.0063881674
-0.0005329777
0.0028306139
-0.03770487
-0.022398181
0.040500905
-0.006881655
0.0128211435
0.008747676
0.019619001
0.0057411776
-0.017346252
-0.024596417
-0.03750996
-0.033323262
-0.018349642
0.0121997185
-0.043559227
-0.026823526
-0.015909743
-0.024775123
-0.034085814
-0.014019316
-0.0045035873
-0.005742466
-0.014199123
0.04386902
0.02573963
0.009396773
0.0065387245
0.0035090407
-0.02262918
0.014487169
0.008104034
0.035027064
0.025272291
0.046239782
-0.035364524
-0.0023276461
-0.006434338
0.035747495
0.043837693
0.045607086
-0.017844629
0.02232562
0.015562278
0.014532429
-0.022713127
-0.025473125
0.011799048
-0.025406897
-0.0022381314
-0.004191305
-0.020435233
0.010162494
-0.030011185
-0.043240704
0.027795563
-0.0010444187
-0.039216068
0.0036025986
0.0322197
-0.028810907
0.012877292
-0.0018909584
0.0075978236
-0.020096472
0.028665224
0.007832788
-0.034937035
-0.024385735
0.016240153
0.020100692
-0.013939588
0.0070892796
-0.034671906
0.010789931
-0.018815668
-0.02145992
-0.028113108
-0.010492169
-0.026951673
-0.013107017
0.019319622
0.026186751
-0.03653917
-0.009154466
0.037525307
0.021378677
-0.036833923
-0.0032305855
-0.00078595895
-0.036585107
0.013006259
-0.04192592
0.029868724
0.03677284
0.013214907
0.023673084
-0.016115757
0.0047842665
-0.027500482
-0.03301823
0.0036173048
-0.0021214597
-0.033035386
0.011734398
0.0005758481
-0.034509216
-0.021633085
0.009628724
0.018196432
-0.0035702821
0.03694145
-0.0010555137
0.023865957
-0.029249331
-0.01333886
0.032726426
0.013138891
0.0055967355
0.032427214
0.020586453
-0.027786119
0.008055321
-0.017610911
-0.015387812
-0.020009402
-0.039128635
0.03629713
-0.02566668
0.0027101224
0.014047913
-0.031684082
0.027846895
0.02878804
0.014733887
0.0018813508
0.020862909
-0.037047565
0.02590233
-0.01760851
-0.021541605
-0.01696931
0.010376901
-0.015048549
0.010115471
0.0028489176
0.028885694
0.009226333
-0.021368735
-0.019906878
0.03250118
0.03554578
-0.006010777
-0.03450492
0.024377987
0.03685992
0.016916584
-0.021542262
0.022758115
-0.007177671
-0.032230664
-0.009932232
-0.0051018246
-0.0041971407
-0.012626315
0.0020205851
0.00587228
0.03206739
-0.011878069
0.0057027917
0.02572285
-0.018575355
0.015240285
-0.0045494596
0.022796707
-0.02144984
-0.0029269161
0.027468126
-0.027593737
-0.020912284
0.017832836
0.00083274377
-0.039198726
-0.010797111
-0.0054035303
0.013933446
-0.0056041786
0.0018872198
0.033922914
-0.025373083
-0.029488148
-0.017202653
-0.009584492
-0.0024529798
-0.032982804
-0.018957341
0.011678168
0.036523845
0.04172494
-0.0029769968
0.0006420147
0.028950091
0.014017331
-0.03705068
-0.023032209
-0.0075053447
0.03098045
-0.028845292
0.025062952
0.015370149
-0.010276976
0.00040581598
0.010831273
-0.00879932
0.027372891
-0.0018398643
0.03351581
0.015880078
-0.023658706
-0.011089171
-0.033090487
-0.023978263
-0.023942593
0.049247757
0.013691305
-0.011869317
-0.025861021
-0.0107622305
0.023391139
0.023842083
-0.03473678
-0.013945042
0.015146001
-0.035097346
0.0019436803
-0.005752669
-0.04056771
-0.02725605
0.02556697
-0.027871022
0.005462146
-0.027372435
-0.038823187
0.017032702
0.012855847
-0.0010122497
0.030413767
0.036668893
0.0027463986
-0.029494552
0.006994299
-0.010334793
0.0025209542
-0.019031415
0.021577384
-0.0075232675
0.032270495
0.010931811
0.024331369
0.0033173237
-0.03683659
-0.026962902
0.024677576
-0.0021449039
-0.014535815
0.010006046
-0.0017323208
0.015480668
0.02711193
0.023031991
-0.011662263
0.034923997
0.022514546
0.020091388
-0.031167142
-0.003717977
-0.04552591
-0.02605773
0.0028325405
-0.00493652
-0.02344826
-0.015644936
-0.0035637326
-0.0002166354
0.017861744
0.034334756
-0.035250433
-0.018938811
0.0014460648
0.016578525
0.019628841
0.020540852
-0.03238571
0.015372472
0.022408867
0.019865835
-0.025247343
-0.040762946
-0.047336083
-0.018301986
-0.00823314
0.0060512694
-0.038351648
0.011298817
0.022188872
-0.004311107
-0.005305003
-0.019931082
0.0033812467
0.021925349
-0.0019272068
-0.016173314
-0.024102226
0.038261227
0.03540929
0.02047663
-0.014983141
0.030170191
-0.0027809464
-0.0036341322
-0.036575813
0.036335297
0.041613363
-0.025654672
-0.030424684
-0.025336387
0.026386585
0.005452475
-0.017690254
-0.0008679961
-0.0017162957
-0.02346138
-0.0064248405
0.04309729
0.0040056533
0.011886874
0.0142484205
-0.024570916
-0.03552898
0.034355246
-0.036456462
-0.038861606
-0.00333921
0.021429371
-0.045646247
-0.0008691848
-0.01869008
0.00443297
0.0019087424
0.014490452
-0.005961688
-0.014855851
-0.01985284
-0.0066742087
-0.0012325462
-0.012161166
0.013773398
0.00013211937
0.026280766
-0.011172286
0.024720555
-0.004933757
0.0100234905
-0.021990268
-0.010953779
-0.014210631
-0.04051659
-0.029346
-0.005770775
-0.009010549
-0.018788062
0.03988171
-0.0032195407
0.03247118
0.0019373249
-0.033558525
-0.03979183
0.037575763
0.012703898
0.004236877
0.03146631
-0.030908557
0.033687588
0.013264435
0.025441099
-0.031504627
-0.019954903
0.00901615
-0.022655373
0.014460704
-0.019566687
0.003641121
0.0016550627
0.020863496
0.015723618
0.015296211
0.03445727
-0.007136027
-0.004006097
0.03029978
-0.003582838
-0.037559927
0.0051397523
0.009228465
0.022786226
-0.041119896
0.00021293738
0.008258056
-0.016607258
-0.00810767
0.0013324118
-0.030880215
-0.027971504
-0.020703236
0.011709681
-0.012052953
0.002969739
0.032854732
0.040530212
0.035356957
-0.026835777
-0.011141894
-0.0031725073
-0.018758226
-0.03421042
0.03289063
-0.016614141
0.03193793
-0.02648181
-0.019922864
0.018978423
-0.036951922
0.03444218
-0.014564483
-0.018985935
-0.032576118
-0.011475276
0.0150521025
-0.006592888
-0.034151133
6.983825e-06
-0.0355725
-0.007609299
0.02143571
-0.037359763
-0.03029159
0.030545944
-0.0329628
-0.007151491
-0.033783194
0.02676186
-0.009569219
0.018823959
0.026894094
-0.020456867
0.03642523
0.01567771
0.03538431
-0.026091084
-0.019620506
0.02087457
0.011072403
0.020946179
-0.0064116414
-0.022202503
0.027146969
0.021105643
0.037339088
0.031625547
0.009289394
-0.03662252
0.014968054
0.011719635
0.025333237
-0.00489418
-0.011035116
0.0062754434
-0.026449166
-0.006652297
0.02716539
0.04285222
0.036531996
-0.041758694
0.044565108
0.032163385
-0.023744997
-0.020866979
0.04406012
-0.034840424
-0.024292435
0.045833193
0.0024132722
-0.014441754
-0.012947492
-0.006068602
0.008870756
0.0052660685
-0.013108569
-0.008206146
-0.03166312
0.03342463
0.028687589
0.005160786
0.007837294
0.036091782
0.0037226537
0.03179098
0.019529432
-0.043740384
-0.017011935
-0.013605176
-0.02660386
-0.008569325
-0.026607502
0.016296739
-0.014951892
-0.029743508
0.028213479
-0.013329329
-0.017974773
-0.02696683
-0.008992472
0.03549684
-0.014804606
0.024821345
-0.0066795824
-0.015712144
-0.027256463
0.024125373
0.032764528
0.012620504
0.023359237
0.02999948
-0.016359054
-0.035344902
0.016142573
0.035989687
0.014914898
0.014768001
-0.0023223967
-0.015252994
-0.036047958
0.011456555
0.03839763
-0.022845153
-0.025915915
0.021062152
0.019983476
0.014997704
-0.003691853
0.03006573
0.035762176
-0.024810899
0.04552652
-0.00878863
-0.024349296
-0.034264654
-0.023237966
-0.0086816745
-0.0004998238
0.04455891
0.019128457
0.007337775
0.00052710006
-0.02505743
0.017244553
0.02790125
-0.007137752
0.037281685
0.017371591
0.0018204991
-0.009936209
-0.018039454
0.043467805
0.028241096
-0.030580202
0.0253338
0.0043750945
0.020429933
0.010429261
-0.009031584
0.0180025
-0.018968781
-0.016777022
0.03710989
-0.014111844
0.027772615
0.011910795
-0.002724783
-0.0020186817
0.042305112
-0.0071715447
0.025419151
0.02297838
-0.011278416
0.017855814
0.024895553
0.040982135
-0.0041844635
0.033622667
0.009115579
-0.027096773
-0.03273512
-0.041739978
0.026457679
0.028988268
-0.04295059
0.0312705
0.0043534306
0.036448065
0.0010809066
0.03393994
0.025678908
0.0040029236
-0.008465469
-0.036426816
-0.0011685303
-0.025936464
0.0057107587
0.019675877
0.035234258
-0.020601278
0.021791095
0.03252525
0.037227925
-0.013766464
-0.021917593
0.034902684
-0.03746175
-0.037543345
-0.009371481
0.0134108085
-0.0072298246
-0.008047342
0.0022319271
0.0019359697
-0.020164995
0.04604688
0.03485768
-0.035442643
-0.03251951
0.033697274
0.02705204
-0.035967305
-0.031370528
0.006537231
0.03976006
0.016784748
0.023632208
0.015889844
0.00041202616
-0.02734837
0.029350841
0.0363874
-0.008844253
-0.0024228885
0.010308691
0.016107878
-0.0059400015
0.0020895372
0.012577705
-0.014670983
-0.014331442
-0.011495293
0.0023634569
0.010888054
-0.030566255
-0.0033386673
0.0035097806
-0.018072853
-0.021460341
0.019176638
0.0030629586
-0.0075022737
0.03033611
-0.040981226
-0.042525373
0.010369825
0.01867892
0.034176216
-0.00016314142
-0.027925298
0.0043584476
-0.03799101
-0.025505511
-0.008779763
0.036714602
0.0019038832
-0.0054591657
-0.0019209364
-0.006755247
0.043058503
0.04022848
0.02256322
-0.04443142
-0.0012320279
0.024233485
-0.035848
0.019885466
-0.03893164
0.003437853
0.003332047
0.0015778632
-0.0040171207
-0.0020436766
-0.026301082
0.032523535
-0.0023236529
0.007853734
-0.0010311505
0.018525543
-0.0023890666
0.019110482
-0.045862366
0.015953172
-0.034560725
-0.03453913
0.0076522627
-0.021740068
-0.008934781
-0.009337176
-0.040389776
0.0067972485
0.0076411525
0.02578959
0.018983725
0.016227458
-0.020831127
0.03955216
-0.012091787
0.0061848047
0.013020026
-0.0106649855
0.011815508
0.027422953
-0.033461154
-0.03630104
-0.017708225
0.011793987
0.0039949226
0.01563423
0.025492862
-0.010940491
-0.027701188
-0.012194952
-0.035970744
0.037591353
0.033200476
0.0042277705
0.033765834
0.009978616
0.031104842
-0.0056810593
-0.0067026857
0.007771395
0.037643556
-0.0018154507
-0.032481495
-0.0048357155
-0.010867384
0.019296464
0.009513799
0.010212116
0.018924212
0.01057545
0.0031229905
0.018779015
0.026934482
-0.00066048885
0.02006562
0.02527519
-0.040566783
-0.02040386
0.03382757
0.03116203
-0.031477615
0.038536496
-0.0033944945
-0.01813684
0.03700773
-0.036797237
0.0058973064
0.0076607657
-0.0008504309
-0.03010117
0.008266591
-0.03410235
-0.009039092
-0.025742775
0.014398401
0.03902482
-0.020683685
0.003896516
-0.016625622
-0.011875507
-0.04075654
-0.014194685
-0.024428422
-0.05067761
0.007078925
0.031234639
-0.02156283
-0.026636265
0.00058592996
-0.0010524278
-0.014535311
-0.04432615
-0.02224627
0.012318695
-0.011854621
-0.007141405
0.03384796
0.0074970084
-0.009164804
0.032436773
-0.02644634
-0.0052917846
-0.034557313
0.022161122
-0.0057443893
0.010144258
-0.005611794
0.0213592
0.03473828
0.013441163
-0.013116457
0.017935151
0.04082785
-0.026212538
-0.039902102
-0.019626532
0.00709459
-0.01762226
-0.017336316
0.01205277
0.024747873
-0.0049442938
-0.010953692
0.029743373
-0.00012870858
-0.010045994
0.019413574
-0.04774107
-0.038422428
0.011478466
0.017691007
0.02349163
-0.002927388
0.0039342633
-0.013226055
0.02482171
-0.015540934
-0.03155294
-0.036856014
0.035666127
0.03328048
-0.022255259
-0.012359691
-0.003419752
-0.021242402
0.018192053
-0.031741466
0.039930414
-0.0066275243
0.03387999
-0.03435047
-0.021497583
0.02315653
0.022429248
0.00080599537
0.026471857
0.020313613
0.030099053
-0.018012725
-0.024778457
-0.022742609
-0.015567562
0.0014460769
0.011430231
-0.0033745859
0.013969983
0.015972234
-0.010995173
0.006646875
0.024977935
-0.019116621
0.003346043
0.01989428
-0.02825125
-0.015054501
0.024463661
-0.039356034
0.0053622867
0.013172454
0.027988102
-0.0111998925
0.036706492
-0.032208186
0.021851152
0.030937975
0.03368327
-0.007009419
0.004276022
0.0004248441
-0.024546051
0.020211264
-0.003194432
-0.0004813637
-0.025448225
-0.029770184
-0.029615022
-0.0023931463
0.00021217266
-0.0054251486
0.03072011
0.025645021
-0.01999203
0.03176429
-0.0065768277
0.017687019
-0.018983077
0.0044607506
-0.026057102
-0.023053994
-0.009575957
-0.037426084
0.015449512
-0.019949688
0.024864802
-0.035144135
0.03377515
-0.032151334
-0.011293736
0.006505238
-0.038042903
-0.01868115
0.009904614
-0.019949585
-0.027998986
-0.024684176
0.03418754
-0.024618769
0.008800271
0.019504797
0.037022967
0.026329748
0.007866576
0.008459442
-0.012083824
0.029926876
-0.03241242
0.026297307
-0.03064103
-0.032015588
-0.009511723
-0.024413863
0.01475277
0.012101267
0.001724111
-0.030420326
0.039008502
-0.03287822
0.0053032744
0.016579214
0.039163657
0.0052420245
-0.020976601
-0.0018708862
0.03166867
0.004569571
0.0007784638
0.03160477
0.039942153
0.0022735659
-0.0031714663
-0.0091098845
0.03442676
0.014133218
0.018614745
0.01856628
0.00795767
0.02849609
0.031605408
0.011735465
0.014995508
0.0053034336
-0.0021199046
-0.024673365
0.015160877
-0.027627435
-0.0060812533
-0.0077678007
-0.014681167
0.032347027
0.022758698
-0.011596223
-0.0081143165
0.042197093
-0.0045833504
-0.017787017
-0.006096378
-0.025462376
-0.03318297
-0.038816914
-0.030731505
0.025114221
0.016579054
-0.031278383
0.023871062
0.038978446
-0.01753338
-0.0069783386
0.0056865527
0.025507791
-0.017980104
0.038866404
0.008744293
-0.011734042
0.017683834
0.016489625
-0.038763896
0.02312878
0.0094767865
-0.030591536
-0.040208068
-0.031621713
-0.0012279301
-0.012194293
0.010633656
0.0039499877
-0.011383642
-0.018416112
0.03093341
0.020064183
-0.033489782
0.01982537
0.035741508
0.018099602
0.009805271
-0.01576075
0.023419138
0.02575474
0.031489003
-0.034648445
-0.011942895
-0.04082635
0.007612204
-0.022621982
0.029774344
-0.029050095
0.04046085
-0.013173935
-0.038481575
0.030907042
-0.033618324
0.0058457297
0.042809576
-0.0060200477
0.026562868
-0.03689756
0.032265622
-0.0053559868
0.017149778
-0.037976466
0.033085186
-0.009092546
-0.017977733
-0.022828119
0.018844051
0.02463425
0.03989692
0.007606644
-0.009047511
0.0063136723
-0.016342115
0.035789113
-0.016913602
0.0050848983
-0.02875409
-0.014656847
-0.02323921
0.043214187
0.01002607
0.006759925
-0.026495822
-0.0023329763
0.034834836
-0.0398098
0.019562138
0.03786912
-0.0108338725
-0.034778863
0.0048264936
-0.0059444774
0.017900996
-0.018921284
0.044226393
-0.011264257
0.016865844
0.034565702
-0.012773251
-0.009792555
-0.027187102
-0.03026558
0.0015018189
0.01932514
0.007300551
-0.024786606
-0.0019767731
-0.0021085548
-0.009735673
-0.0023006895
-0.03714727
-0.030077195
0.012292025
-0.030113492
-0.011538725
0.04242967
0.02375814
0.024845546
-0.03251127
-0.03533592
0.011883539
-0.027002865
0.0012255734
-0.014386821
-0.0148822265
-0.00785661
-0.0010187262
-0.024704972
-0.029084373
0.022141872
-0.03636937
-0.004652447
0.0007539478
0.009379854
0.031288527
-0.0060891504
0.004657824
0.018286414
-0.00057816174
0.02612295
0.035827253
-0.012440591
0.0040573464
-0.0027611945
0.0134105105
0.0012807794
-0.0301096
-0.02305794
0.029711695
-0.022491712
0.028894925
0.020140855
-0.035502106
0.02327759
-0.029642606
-0.01140569
-0.033847596
-0.029134013
0.035876006
-0.03340889
0.027685117
-0.02443365
0.03965949
0.0056985714
-0.017484842
-0.029069655
-0.012624369
0.029810343
-0.010244045
-0.02473944
0.0012606072
-0.006599557
0.015885014
-0.013487331
0.022070598
0.0012874175
0.026247544
-0.015872033
0.035401396
-0.0038907991
-0.034773674
-0.037180543
-0.01911022
0.003354997
-0.0126878405
-0.043096524
0.011684001
-0.03253934
-0.0013753953
0.025458314
-0.020141639
0.012816079
-0.029485833
-0.0031762158
0.029505406
0.032958213
0.0025002211
0.008567015
0.03417192
0.014786564
0.0093092155
-0.035974056
0.001633938
0.03520617
0.043210834
0.027530324
0.0023192535
0.02393428
0.01206323
-0.04054215
-0.037376158
0.03295225
0.030818937
0.020330986
-0.023729328
-0.0007495029
0.03721423
0.04096486
-0.024247665
0.011982536
-0.024521874
-0.008950791
0.019034227
0.04155466
-0.029576464
0.014446338
-0.026006367
0.03565664
-0.019269215
-0.020220205
-0.03765023
0.029713392
-0.009034123
0.011914186
0.026666494
0.0030037253
0.029021623
-0.015898407
0.0032633103
-0.022215234
-0.0445328
-0.028461738
-0.031212531
0.0077441093
0.0037859555
-0.016235456
0.0006807312
-0.03287471
-0.024001217
0.041667927
0.017736165
0.02612351
0.02507116
-0.025097046
0.0049824663
-0.0019894966
-0.020816663
0.020936016
-0.028463487
-0.007474624
0.00087159645
0.037327178
-0.0040679253
-0.032882288
-0.022781346
0.016982043
-0.010820487
0.008798366
0.019911116
-0.023680603
0.032167986
-0.010333859
-0.007348034
-0.012866593
0.012814965
0.008741061
0.021176517
-0.028778948
-0.016274964
-0.03390639
-0.011960007
-0.0028077615
0.024652254
-0.03521969
0.03519497
0.017660964
0.032670133
0.023011304
-0.036939368
-0.037031908
0.019214895
-0.036235698
-0.03436334
0.014864293
-0.011725555
0.0011727712
0.0015042095
0.028947202
0.041550953
0.020557031
0.02042728
-0.003665906
0.034986332
0.031539056
-0.003334175
-0.027941806
0.034538418
-0.029010369
-0.012240424
0.03233985
-0.029034903
0.028722908
-0.035379622
0.012705576
-0.020305684
-0.028796777
-0.03431721
-0.008679902
-0.013501889
0.0043976433
-0.020412147
0.033747435
-0.020116257
-0.02766829
-0.022685243
0.0075785015
0.03586521
0.030573223
0.021467758
-0.028717345
-0.032440897
-0.025718492
0.03688224
0.017741565
0.020832384
0.017853912
0.0109403785
0.035676207
-0.010711353
-0.022149006
0.0066034575
0.042982854
0.012819877
0.0045523583
0.0011678123
0.007607883
0.0012851781
0.010988041
0.03829894
-0.034141436
-0.026537554
-0.01065791
0.028939053
-0.025072679
0.024964344
-0.0375272
-0.04140894
0.0014753498
0.03167341
-0.023289584
0.022637518
0.036618125
0.034239747
-0.01839631
0.020019138
0.001971358
-0.029645069
0.030560324
0.037187416
-0.04099836
-0.018438255
0.037976313
-0.006814437
-0.034871716
0.0011683838
-0.041713983
-0.024576586
0.022397006
-0.013011178
-0.027015006
-0.0015048854
0.0048285997
0.0004034484
-0.026223835
0.036646843
-0.005602881
0.00060228625
-0.012405464
-0.02745652
0.039348308
0.005401521
0.015909722
0.03230262
0.008213526
-0.02449778
0.002406441
-0.0050102095
0.0139028765
0.031572286
0.032374933
-0.0111741675
0.01868123
-0.027840259
-0.038496435
0.020239197
0.024371946
0.017443776
-0.038708698
-0.016899953
-0.0016598997
0.012789235
-0.008152414
0.034170523
-0.021259239
-0.025804713
-0.027949976
-0.03268065
-0.0071499906
0.00981012
0.0017645209
-0.019021835
-0.026655652
0.04081825
0.012207003
-0.008992435
0.017513454
0.0027086653
0.03681056
-0.023774024
-0.030770198
0.036042076
0.024049556
-0.002844057
-2.3502291e-07
0.025103094
-0.028493077
0.027059149
0.0038518773
-0.005741845
-0.0019169514
-0.03351386
0.008250781
0.004567587
-0.00976913
-0.03316526
0.03338164
-0.01074863
0.0036340654
-0.024790704
0.033759054
0.03300779
-0.014708183
-0.004643873
-0.026492085
-0.0013050784
-0.03772145
-0.009311868
-0.03141678
0.031479493
-0.0035661573
-0.0002744064
0.039623976
0.0075160125
-0.0418927
-0.039684683
-0.007862934
-0.039095204
-0.03297435
-0.03476572
-0.019857943
-0.013385596
0.030793576
0.038388822
-0.01730156
-0.013040935
0.019854669
-0.03413224
-0.012169181
0.014405863
0.042900827
-0.0046851626
-0.039813075
-0.0060286387
0.02250818
0.014080705
0.024587145
0.034128834
0.0014513064
-0.017201155
0.03585058
0.028679892
0.041404825
-0.04146951
-0.015914038
0.008191748
-0.028590957
0.0019170687
0.0006022193
0.021961965
-0.011047726
-0.016169967
0.02585387
0.041350313
0.01769865
0.036418192
-0.009982135
-0.018169777
-0.03450009
0.0010444802
-0.044584062
0.041028216
0.017173743
-0.009623986
0.029037815
0.0011860793
-0.018407615
-0.03855339
-0.010828652
0.011149593
-0.0106920535
-0.0042555
-0.018147672
-0.026719386
0.042696964
0.036237128
-0.002172509
-0.012243327
-0.0063797184
0.0025592318
-0.037662685
0.0028922185
-0.008566682
-0.0073302896
-0.024247605
0.02443728
0.01145725
0.032843933
0.029083673
-0.008505615
0.013322785
-0.03389409
0.012188628
0.03694574
-0.033037245
-0.004359552
-0.020421179
-0.02203951
0.036660228
0.030764025
0.03829111
0.01226447
0.031118136
0.008140575
-0.013229363
0.028251788
-0.013372035
0.013540546
-0.011527086
0.013853073
0.00506174
-0.04254024
-0.020373654
0.034385134
-0.0067289346
0.021212207
-0.034669947
-0.037945423
-0.015020474
-0.019868426
-0.03862431
0.034076836
0.028453203
0.031639166
0.03274602
0.0068601235
-0.030723637
0.03280133
-0.020262409
0.015404274
-0.008334484
-0.0118030645
0.041043237
0.0074181342
0.021686051
-0.0036669874
-0.016989924
-0.00081918936
-0.010567472
0.01031948
0.025613798
-0.033254527
0.027715536
0.027393216
-0.009794675
-0.025567027
0.032291505
-0.004962932
0.016984563
0.0037473098
0.026750516
-0.023604944
-0.008486224
0.022292314
0.027777676
-0.026024956
-0.017216858
-0.02381633
0.009813596
0.023285832
0.018054731
-0.010914435
-0.011421587
0.040811718
-0.04096235
-0.0103571415
0.0066539147
-0.02241976
-0.010183758
0.018552506
0.013888254
0.021735014
0.010203153
-0.027438475
0.0081435265
-0.00031084687
-0.0037933043
-0.011706194
-0.013070795
0.024582297
0.006250682
0.0010895899
0.0060858917
0.03468973
0.0075421645
-0.020027133
-0.017017046
-0.014433215
0.015217927
0.002607131
-0.020257076
0.029564813
-0.009491108
-0.005843238
-0.0287924
-0.042739637
-0.01777853
-0.014548462
0.0221156
0.02293616
-0.015306125
0.02522085
0.017379172
0.043033686
0.026256528
-0.009266802
0.00888343
-0.004864479
-0.018229421
-0.018612528
0.0032290418
-0.020225123
-0.037315823
-0.030338464
0.013555117
-0.010270706
-0.034103714
0.003937823
-0.011588174
0.012886775
-0.027871571
-0.013655511
-0.014837681
-0.022656063
-0.033352558
-0.019200116
-0.043116685
0.0093040895
0.011545348
-0.020880898
-0.04884822
0.010408567
-0.037903212
-0.009373383
-0.03437333
0.017088968
0.026541723
0.015709026
0.026264822
0.0050802156
0.003802459
-0.037676882
-0.018895147
0.008176489
-0.0070277983
0.005102721
0.032015923
-0.013569114
-0.029600834
0.01359467
-0.036452033
0.043940976
0.025089635
0.020991096
0.009452066
0.008634873
0.029349433
0.008515663
0.001899592
-0.02772643
-0.04498615
-0.0043960717
0.0080802385
0.03581978
-0.027166871
0.0071698595
0.02600238
0.04041253
-0.021708032
0.0023653388
-0.032382168
-0.037624948
0.008038989
0.024556566
0.036913875
-0.03819402
-0.012864496
0.027936846
0.020039264
0.03558176
0.028624987
0.020378526
0.01958064
0.02233918
0.040122487
-0.034164447
0.0033764231
-0.021055298
-0.0027481345
0.022213178
0.031138768
0.0035793334
0.018524537
0.018080765
-0.045981992
0.030499144
-0.008954929
-0.025313124
0.009849052
-0.021536304
0.033188403
-0.032751013
0.017824061
-0.0038887535
0.0334609
0.021904698
-0.037503242
-0.0068400684
0.009447251
-0.0011763454
0.034542937
-0.023843199
-0.009804454
0.029121287
-0.005260955
0.017752148
0.012001313
0.015373532
0.03709818
0.034314763
0.012427126
-0.030070784
0.022484196
0.026225073
0.018636405
0.0071741333
4.966734e-06
0.03398564
-0.014539262
0.01365917
0.020231798
-0.025924824
0.025751082
-0.0032558949
-0.027214322
-0.043482363
-0.035332553
-0.0144927045
-0.011441999
0.00071401504
0.032993257
0.018354647
-0.018641518
-0.030613815
0.016396444
-0.041836116
0.024580454
-0.0063160984
-0.02713911
-0.0088398075
0.033977695
0.0043052044
0.009962651
0.03809667
0.023048824
0.009604094
-0.03107558
-0.015949775
0.022511797
0.03869952
-0.0015533977
-0.04129601
-0.039768778
-0.04044932
-0.006701659
-0.019077621
0.036473166
0.01627717
-0.012938674
-0.040002942
-0.0032051296
0.00042716743
0.007998615
-0.027143836
0.025948092
-0.016654179
-0.0073915916
0.004419591
0.006050263
-0.03224218
0.022572482
-0.010150683
-0.004778333
-0.0098934285
0.015184748
0.0035955813
0.02011831
-0.03645435
0.031730704
0.0044471007
0.036861956
0.015390093
0.0032492615
-0.008527122
-0.00915086
-0.0055348976
0.022433372
0.022972275
-0.026460065
-0.03349307
0.023258591
0.012930699
0.02894779
0.023519175
-0.03434203
-0.019886022
0.0069987564
0.00026988145
-0.013119624
-0.025202882
0.00283602
-0.035806898
0.0064341254
-0.04016579
0.029653337
-0.036535826
-0.03075575
-0.03292547
-0.034771483
0.006572719
-0.020250332
-0.033576958
0.02778687
-0.024887877
-0.010560945
0.011686928
-0.027936494
-0.006829931
0.018472452
-0.0046542445
-0.024764147
-0.011077682
0.020238556
0.023667188
-0.044236757
0.03854794
0.008605588
-0.041515667
0.02529594
-0.01660197
-0.01509356
-0.0006992514
0.035660207
-0.004244595
-0.01825337
0.025198478
0.0064394665
-0.014171988
0.018827282
-0.026391061
0.019758254
0.009134861
0.023228334
0.012022279
-0.03555424
0.0037092047
-0.008348966
0.019896599
-0.027810916
-0.035920713
-0.015592218
0.0205361
0.03470479
0.012274413
-0.036939237
0.029547298
-0.008930183
-0.023650074
0.0048449747
0.021282744
-0.02366214
0.03078994
-0.031221524
-0.00911754
-0.016376404
0.009699475
0.0052997135
-0.028587611
-0.025365783
0.03492556
0.03442185
0.030685745
0.0076546147
0.00774323
0.011375346
0.029307583
-0.028649071
0.029753836
0.015591082
0.017852765
0.005664722
0.00837343
0.037338525
0.02682005
0.025455605
-0.01564935
-0.006844699
0.015444684
-0.009079503
-0.029869525
0.025933718
-0.00014844653
-0.003438168
-0.042069517
0.021504572
-0.015411711
0.0078008994
-0.0070802923
-0.012242022
-0.02689211
0.024882615
-0.034594867
-0.046870485
0.044959027
-0.011821956
0.025084624
-0.019844396
-0.030151602
-0.03209331
0.019152885
0.011787134
-0.0088413665
-0.034122664
0.027103
-0.020013588
-0.010358771
-0.011772998
-0.016191367
-0.028295277
0.001802517
-0.008964083
-0.023762753
0.028519236
0.034723725
0.028791444
-0.0335038
0.011469646
-0.012229694
-0.0026309995
0.008518141
-0.026821474
-0.01776042
0.020502567
0.00061259774
-0.03802734
-0.011790046
-0.02010114
-0.029089954
-0.018007662
-0.026318943
-8.170833e-05
0.03585732
0.026619306
-0.010320104
0.014127382
-0.027379446
0.010541146
-0.031410765
0.0061351517
-0.01212393
-0.030094495
0.03717382
0.033341106
0.029851543
-0.024757665
0.025389459
-0.025539085
0.018638067
-0.012253168
-0.03314534
-0.020713165
-0.015119298
-0.044512685
-6.935838e-05
0.02747833
0.004094767
0.014623544
-0.048244983
-0.018164001
0.023287812
0.02261536
-0.015944963
0.0070739477
0.029339503
0.007367554
0.041078582
-0.027540045
-0.024275724
-0.009170205
-0.00027086772
-0.033331737
0.013136798
-0.017681405
-0.042231474
0.01843929
-0.020116538
0.0014771024
0.016324569
-0.017170312
-0.036672108
-0.041096505
-0.018565245
-0.0155125735
0.034602344
0.032925583
-0.0051035755
-0.0172031
-0.023675185
0.028856374
0.0016731275
-0.031103298
0.034632817
0.03508037
0.044475332
-0.024439817
0.04227345
-0.035620496
-0.009477409
-0.022016695
-0.0123893665
0.031239137
-0.025456803
-0.03634347
0.00640302
-0.034831345
-0.020171292
0.02248492
-0.031047907
0.040941942
0.032883875
-0.026539197
0.0010277794
-0.014946379
0.022290552
-0.015319699
-0.014760623
0.016454495
-0.027291993
-0.01774081
-0.0032992135
0.0243027
0.030923752
-0.022769015
0.018071756
0.021816218
0.019756
0.008160091
-0.029524636
0.037235834
-0.027063614
-0.021183612
-0.037036996
0.018655773
0.008961663
0.008784226
0.014157055
0.024313418
0.013332836
0.039907835
0.008732779
0.012758623
-0.040931802
-0.006580669
-0.020949427
0.0017940225
0.033114325
-0.034178965
-0.025637357
0.008831674
-0.03653125
0.032651756
-0.02365599
-0.035025094
0.020364376
-0.051519454
0.011925512
0.024722124
-0.01029211
-0.05005524
0.010661193
0.012628469
-0.008858441
-0.0031482556
-0.01461377
0.0099536
0.027049923
-0.030036459
0.039323613
0.05256415
0.018541714
-0.014003096
0.02739701
0.010498323
0.015733348
0.042710934
0.03403325
-0.03263925
0.02243523
0.00807703
0.016222032
0.005466508
-0.020434495
-0.0064134747
0.020018997
0.015824271
-0.02133364
-0.0277664
-0.013776504
-0.011895096
0.023888184
0.012112146
0.051852677
-0.0014626257
-0.0015280664
-0.0016525028
0.0052825212
-0.023737961
-0.013747582
-0.024529694
-0.030760497
-0.030581977
0.01652991
0.032857053
0.0236571
-0.00851639
0.035639215
-0.040290363
-0.029027298
-0.0045773946
0.02987543
0.046945304
0.032827828
0.009488704
0.013205822
-0.037415758
-0.041398223
-0.030438421
0.024226828
-0.020776287
-0.006659615
-0.032964274
-0.030410275
0.0003474029
-0.026965812
4.9993167e-05
-0.029869907
0.025172625
-0.023988677
0.0039290036
0.0048423824
-0.005526584
-0.04424901
-0.018740172
-0.03942464
0.041366488
-0.026793472
-0.00011935583
0.0062499796
-0.0070476835
0.03524267
0.029069914
0.014521324
-0.0038592229
-0.034320895
-0.046928186
-0.035295386
-0.008234072
-0.041652936
-0.032485686
0.007346615
0.02592279
0.037946995
0.034541965
0.038915295
0.01785897
-0.007196166
0.047589876
0.04215935
-0.04257385
-0.023967285
-0.036548767
0.0044409945
0.0027219045
-0.0050520254
0.013937985
0.021742394
-0.037672214
-0.0012315809
0.035384975
-0.03712007
-0.031314496
-0.013334849
-0.024306647
0.02773204
-0.021142574
0.041665472
0.0007828874
0.0370196
0.0038743229
0.0033502895
-0.029661069
-0.017703362
0.010496563
-0.018816154
-0.029917024
-0.03887452
0.0060731894
0.01343537
-0.013412873
-0.021822628
0.020840863
0.01206246
0.041637033
0.02782223
-0.03219577
-0.034589343
0.034317195
-0.0021957294
0.035767388
0.042928353
-0.038823187
0.024667555
-0.026749957
0.0032621652
-0.012858586
-0.032024726
-0.011088697
0.023755843
0.006184886
-0.0032598204
0.03957218
0.026848419
0.038568854
-0.026269156
0.019987395
0.047531053
0.013562551
-0.019216886
0.036248855
0.012556944
0.023730006
0.013369448
-0.019489272
-0.03568072
0.037650988
-0.029727103
0.031984925
-0.017113648
0.019828232
-0.0073893596
0.03887538
0.018594248
0.007252418
0.032648325
0.0054812357
-0.041208133
0.029726412
-0.04155431
0.025451293
-0.010327211
0.014280267
-0.012356512
-0.031939927
-0.039931472
-0.012742081
0.031444732
0.036540665
-0.0008696857
-0.040593866
0.011588265
0.023917489
0.0049631735
-0.0059394976
0.03100157
-0.020922545
0.009272712
0.029329116
0.025698321
-0.0446435
-0.0019097845
-0.025262026
-0.02678301
-0.032345876
-0.009803348
-0.017565671
-0.0026430748
0.01681625
0.013159079
-0.04006709
-0.03138727
-0.035002906
0.011947639
-0.0084150005
0.017612554
-0.03585105
-0.02944741
0.03549795
-0.022113513
-0.001728169
0.027305394
-0.030694786
0.008152117
-0.020084482
0.008028128
0.013942883
0.00011067978
0.03369504
0.03643243
0.005079886
0.014111303
0.030120414
0.02672509
-0.006775529
-0.0074364333
0.005029834
0.031025434
-0.012452462
-0.04550012
0.01693213
-0.034558304
-0.0089910105
0.020945037
0.0015651423
0.02241308
-0.034234803
0.00067081174
0.007446685
-0.0071444106
0.01867217
0.006478493
0.011978106
-0.033722322
0.008327403
-0.0030760586
0.022883631
0.012409906
0.022837257
0.044136845
0.018411808
0.0411589
0.020119414
0.025355132
-0.03490477
-0.02244142
-0.033649486
-0.027912341
-0.010957199
-0.01238369
0.0051201177
-0.007733145
0.006030836
-0.021190526
0.019704504
0.007289187
0.0033442853
0.00019001882
-0.008026838
0.0073797926
-0.0070998995
-0.0055671483
-0.04760242
0.0032473973
0.03224137
-0.010538929
0.0092257885
0.027513022
-0.022833731
0.001648272
-0.036573578
-0.026853673
0.00015644444
-0.0055676536
-0.0105560515
0.043718837
0.029907713
0.024103872
0.013701232
0.017479273
-0.02529542
0.026130283
-0.0003809359
0.0010068703
0.0052335486
0.024301821
-0.021589043
-0.051452074
0.0056729573
-0.036340393
-0.02066515
-0.018292315
0.0043083928
-0.006313115
0.0011522734
0.020493785
-0.025282398
0.02291734
0.010809186
0.026390765
-0.01687335
0.0143134715
0.002265603
0.0074770497
0.0130842
0.0040491708
-0.022344202
-0.021362307
0.019942818
0.033028025
0.021737115
-0.03243179
-0.0031482826
-0.027308572
0.005098156
-0.033320993
-0.028922003
0.032732766
0.01642272
-0.034611415
-0.016198074
-0.010413384
-0.010846723
-0.021484677
-0.009544271
-0.006311159
0.001906014
0.03991409
0.034640115
-0.0034553292
-0.045674328
-0.029699892
-0.0064021833
-0.022084024
0.022020686
-0.031409282
0.010967903
0.03714543
0.030242205
0.038400877
0.03693967
-0.028996112
-0.006656983
0.017890556
-0.018363683
0.033870395
-0.014412903
0.0045091724
0.014852731
-0.01608247
0.0115317805
0.0052581374
0.004929025
0.003881159
0.013374344
0.029198913
0.03006773
-0.007293446
-0.03496164
-0.024892945
-0.01901212
-0.03724156
-0.0067546563
0.03590783
0.04191159
-0.020001564
0.016288606
0.0013011014
-0.03013327
0.016302284
0.011425158
0.02151838
-0.0020584338
0.00055203267
0.0071427557
-0.008119908
0.03815738
0.015155473
0.019417178
-0.003067554
-0.027417127
0.0020121057
-0.0082579665
-0.017063074
0.00013408424
-0.018228106
-0.0190409
-0.015394643
-0.0005978286
0.033819538
0.005914507
0.04191531
-0.020043124
0.016130392
0.03152105
0.038533144
0.021562064
-0.032856647
0.002616212
-0.031154094
0.016243637
0.016754203
-0.033889923
-0.033363532
0.016062513
0.02614872
-0.030317958
-0.009886739
-0.03773787
0.027519654
0.025273865
0.008828515
0.03588765
0.0021465244
-0.00016211536
-0.033892415
-0.04033176
0.036116727
-0.038885746
-0.024898369
0.037281267
0.0043205856
0.026663078
0.021906111
0.0084140515
-0.0023464719
0.042747173
-0.03374185
0.020836044
-0.023828806
0.015864056
-0.00527262
0.036719374
0.029515656
0.018100725
-0.018576607
-0.036408465
0.023862405
0.007784455
-0.01862985
-0.049232434
0.005222917
0.010108912
0.013966956
-0.02451445
-0.004682248
-0.024140824
0.030902045
0.03879345
-0.026849099
-0.006090784
0.006570592
0.041782424
0.03657453
-0.03663042
0.00518891
-0.036212746
-0.013947701
-0.010697215
0.02938469
-0.035429806
0.00412684
0.008279721
-0.015673434
0.0106451595
-0.018094817
-0.0067344094
0.008491378
-0.015577954
0.03111607
0.038271327
-0.0049700025
0.012904296
0.010819219
0.014528403
0.030702787
0.011112029
0.030658226
0.0063252323
-0.0028859957
-0.011078562
-0.027001932
-0.023148397
0.025131801
-0.01634
0.030866433
-0.010244495
0.010747316
0.007816123
-0.005801608
-0.0017512972
-0.02582338
-0.023847854
-0.010501192
0.018836796
0.024705837
-0.01612706
0.025258888
0.014892186
0.007380009
-0.0261289
0.014534339
-0.027952995
0.0363777
-0.008458201
0.03083368
0.0046184123
0.022347894
0.034426276
0.013057803
0.014808855
-0.023834396
0.03258858
-0.004679434
0.039020866
-0.02612493
0.0048644855
-0.005067897
0.026764432
-0.0232908
0.027591525
0.029864203
0.0059110513
-0.0147960195
-0.014342895
-0.005993939
-0.0037999912
-0.019627832
-0.023935141
0.03191551
0.0031465485
0.014676928
-0.010411521
0.032736473
-0.035063583
0.033930924
0.0027321184
0.004103152
0.004568115
0.04126564
-0.011956807
-0.0023006229
0.0055690976
0.022442043
0.037969578
7.973296e-05
-0.011275975
-0.015680121
-0.0071572927
0.01435362
-0.036931973
-0.021578513
-0.038039107
-0.015678998
0.013384857
0.0104562985
-0.005398843
0.0050677466
-0.0037025171
0.005910891
-0.043114386
-0.020899909
-0.04495152
0.00016539884
-0.032556456
-0.011674984
0.00020993104
0.02814016
-0.0037087454
0.020315366
0.015690433
0.010150252
0.01961769
0.01436539
-0.027261036
0.007866833
0.025654238
-0.017606463
0.00950524
-8.008911e-05
-0.019720672
-0.00058808597
-0.02727336
-0.020977875
-0.0035561582
0.01339875
0.033812687
0.03358599
0.007922658
-0.02576079
0.04698894
-0.013869703
0.047191784
-0.024145361
-0.012722246
-0.025374452
-0.0051377243
-0.019726971
0.041540794
-0.02034655
-0.012015745
-0.02012887
-0.03250856
0.00825337
-0.0040986626
0.054784022
0.0095330775
0.04904376
0.050583348
0.020642709
-0.0037099968
0.0004234988
0.021219015
-0.008361731
-0.037922643
0.03423556
0.03757432
0.02117201
0.015382495
-0.014086321
0.018587852
0.021006366
0.033537433
-0.019380724
0.031507768
0.038575817
-0.02107423
-0.004254933
0.04328904
-0.040208735
-0.048223853
0.0314131
-0.03737978
0.010692121
0.024690617
-0.0039184815
-0.040283184
0.032235708
-0.04657969
-0.04900575
-0.028047748
-0.01705341
0.010315283
-0.0001450155
-0.028928392
0.02308016
0.00876247
0.005857344
-0.041253746
0.015053667
-0.010118745
0.028822482
0.032640994
0.00971352
0.015759984
-0.016820356
-0.023996219
-0.023620179
0.017017048
-0.009840147
-0.011656727
0.031526018
-0.03554439
0.022964008
0.0107620675
0.017230744
0.037082776
-0.008115359
0.019492125
0.0049467185
0.0077044396
-0.02341324
-0.013768143
-0.029030457
0.028545337
0.022118678
0.032327287
-0.041953526
-0.0009494825
0.008238981
-0.016907904
0.015759686
-0.031183094
-0.020000773
0.011766868
0.029108748
0.032146923
-0.013973258
0.043648686
-0.027870871
0.045207378
-0.022692643
0.003433295
-0.0014356298
-0.0006941115
0.037066236
0.0125274975
0.040085502
0.0148812225
-0.0013862306
-0.029680496
-0.034203578
-0.027502222
-0.0074974713
-0.0035318339
0.03623396
0.040065724
0.009418927
-0.01855238
0.005500219
-0.008215814
-0.03502429
0.008375471
-0.026506905
0.005247386
-0.0023846286
0.040425908
-0.027290776
-0.007045016
0.0015748673
-0.030121671
-0.030290464
-0.024698459
-0.048980553
0.02791344
1.7311278e-05
0.024712477
-0.004909703
-0.026547749
-0.008806661
-0.028663862
0.020871654
-0.020591453
-0.04391839
-0.0030283418
0.024703188
-0.013460478
0.030041546
-0.044035766
-0.032663316
-0.026418697
0.02083737
0.023449656
-0.033941623
0.03080165
-0.027684374
0.012230158
-0.04335317
-0.024804106
0.02885903
0.003657209
-0.036968898
-0.026729923
-0.00791539
0.013889998
-0.0358112
-0.022975694
-0.01140771
0.021095479
-0.004556255
-0.008755271
0.0076536816
0.024041131
-0.015305391
0.019890634
-0.043914378
-0.0435
-0.032454357
-0.006899875
-0.032907072
-0.008284479
-0.028884329
0.0016763018
-0.01023322
0.019515296
-0.009070124
0.0025697001
0.03170958
-0.025909927
0.034294955
-0.014916149
-0.004709461
-0.011009798
0.025312524
0.032851025
-0.030823322
-0.022394786
0.00602289
0.024258453
0.012620146
0.014288312
0.0008606343
0.029947761
-0.032763325
-0.008558873
-0.009352662
-0.007599155
0.03635774
0.017714517
-0.011758365
0.02326307
0.03192487
0.032922678
-0.010731434
0.0073057483
0.005010368
-0.014415596
-0.008349669
0.0025276542
-0.05039558
-0.038336065
0.025553625
0.01847365
0.011442918
-0.0072423257
0.026452841
0.02417493
0.017095825
0.03096653
-0.005691822
0.021687133
0.0043417774
-0.015794944
0.014958681
0.009199511
0.01705761
-0.032971684
0.0067739594
-0.008714134
-0.008921494
-0.011981373
0.0027791744
0.025085548
-0.045096785
0.011089165
-0.011041572
-0.0063775843
0.032813523
0.023106255
-0.010022245
-0.020790312
-0.0039557638
-0.02983335
-0.034982227
0.022507498
-0.032654632
0.012805517
-0.030163875
-0.019414708
0.02672157
-0.050193746
0.030298876
-0.038277574
-0.03989776
-0.01217804
0.0485791
0.017030314
-0.00706019
0.017060276
0.003517486
0.040534977
-0.009641649
-0.011243413
0.02015397
-0.014257701
-0.029257856
-0.021696532
-0.0031563735
0.012193719
0.01859389
-0.026817348
-0.0033027094
0.021116989
0.041903235
0.042516526
0.044092286
0.040658813
-0.013730677
0.012080305
0.030479815
-0.03194866
-0.012923151
-0.02037464
0.02148964
-0.02539251
-0.03496953
-0.031086933
-0.01042998
-0.014697286
0.0427516
-0.03750623
-0.03691193
-0.030355006
-0.023930386
-0.031417184
-0.030634569
-0.037072584
0.02531082
0.003790128
-0.028267505
-0.018099984
0.026250185
-0.03737675
-0.015494757
0.02028207
0.04539056
-0.023356281
-0.02889284
0.02382785
0.04612622
-0.0077840234
-0.012426588
-0.028117968
-0.041207403
-0.012662865
-0.014418943
0.03699061
0.0046446812
0.049360435
0.020099312
0.03575769
-0.022068862
-0.039572455
0.03862656
0.027466815
-0.029418118
0.00060119363
-0.027228847
-0.014310173
-0.026361927
-0.0266278
-0.025275411
0.022193294
-0.0039959196
-0.015123704
0.032973085
-0.029663142
0.021288438
0.0008674033
0.019392239
0.0013383949
0.0032885585
-0.019696554
0.025243975
0.03453807
0.035122167
0.006026523
-0.024982922
0.034941304
0.0077840956
0.0048678503
0.014237534
0.03725811
0.030120565
-0.028852155
-0.01367393
0.018994065
0.029578857
-0.033968695
-0.011658246
0.013032345
0.00973985
-0.03300651
-0.009210993
0.01016945
-0.04012887
-0.00020380144
0.0062992955
0.030195296
0.033778258
0.014759596
-0.015075119
0.014140192
0.0334328
-0.014981249
-0.038597025
0.038058244
-0.012702934
-0.044099566
0.018889705
0.0010599109
0.011090935
-0.02501126
-0.011135453
0.012476359
-0.043088585
0.016092222
0.0028134466
-0.02856907
-0.03593504
-0.012201688
0.02507187
0.03957754
0.03897733
0.031452373
0.031326428
0.021930428
-0.011297192
0.0065876376
0.029754737
0.033363085
-0.0015088923
-0.027153214
0.023250962
-0.00044583753
-0.038746167
0.040599175
0.0038237455
0.0056457864
-0.007003378
-0.031077964
-0.035788514
-0.03087191
-0.02318604
-0.017515635
0.028510617
-0.0036041017
-0.028301332
0.0036252625
-0.010952255
-0.035481554
0.0003287727
-0.036718395
-0.022536024
-0.044388313
-0.032627083
0.01910315
-0.022813166
-0.013936063
0.015939139
0.019631539
0.025524983
-0.012121141
0.029065412
-0.03505706
0.0037015895
0.035319168
0.028148368
0.012991246
-0.0029785787
0.034017593
0.012483809
-0.011216776
0.040165007
0.032333255
0.028694244
0.041298248
0.009287006
0.029360417
0.0262913
0.04530827
0.014632918
0.010264916
-0.018612219
-0.002330007
0.017295301
-0.03440347
-0.02066558
-0.03748878
-0.023999045
0.0059339064
-0.03429314
0.017678032
0.0009675863
-0.016469855
0.029017836
0.012191783
-0.022515403
-0.0053063384
0.027997993
-0.030692672
0.011710919
-0.00971858
0.017532436
-0.011593282
-0.033151504
-0.030125992
0.020329284
0.00404544
-0.0061891605
-0.009152441
0.008558746
-0.038768146
-0.023544034
-0.020064533
0.005845095
-0.003476615
-0.0099459365
0.005276906
-0.0028548974
-0.01794807
0.02433535
-0.004927522
0.008488693
-0.043175373
-0.0044543147
-0.018552992
-0.0019520627
0.00047833982
0.030814962
0.03819949
0.0200467
0.034108136
0.026638133
-0.031817928
0.0021294937
0.034916922
0.019484118
0.035225008
0.04968819
0.017657604
-0.033678547
0.0007989798
0.041380048
-0.006062741
0.040939648
-0.020892294
-0.020049382
0.0051630572
-0.027299574
0.02098931
0.03385663
0.031815432
0.036133554
-0.016927067
0.009972813
-0.025673818
-0.017403167
0.027946686
-0.013780594
-0.020119917
-0.03765166
-0.056013066
0.009276697
-0.039113265
0.0034624639
-0.035670865
0.0075546415
0.0055103647
-0.01956761
-0.031936254
0.018204115
-0.01441972
-0.03549447
-0.040692013
0.0115954755
0.0066188546
-0.041685466
0.010308975
-0.028778616
0.01104694
-0.03804458
0.025544034
0.0069396975
-0.015870638
-0.027064366
0.04919071
-0.017216036
-0.0064542773
-0.022026576
0.009355504
-0.028075041
-0.008009455
0.0013021549
0.009157303
0.023102641
0.017365932
0.03925435
-0.029010039
0.026735194
0.011689822
0.004354622
-0.03401554
-0.00199919
-0.00660825
0.0019262553
0.01599914
0.03044088
0.045251504
-0.026585793
0.040523827
0.022215495
-0.020172626
-0.04167537
-0.015767222
-0.03671421
-0.0046090432
-0.032826476
0.034870442
-0.021895317
-0.007548735
0.01580785
-0.005585636
0.032594193
-0.029262463
-0.026194066
-0.023238895
0.0046161357
0.0082399985
0.02416376
0.036416914
0.025231099
-0.036711644
0.008064866
-0.035312288
-0.0017085418
0.006811538
0.029813275
-0.036941167
-0.00090621854
-0.032219347
0.012809867
0.008946403
-0.01254494
-0.0019443528
0.004629801
-0.0031589868
-0.040976927
-0.012480268
8.059973e-05
-0.031393066
0.024640549
0.031061709
0.022333965
-0.0196992
0.0304333
0.004098286
0.0053907316
-0.02592665
-0.00791515
0.007780944
-0.010375086
-0.018936252
0.023508132
-0.015038742
-0.02028475
0.036551613
0.016891805
0.017317519
-0.007204069
0.011412251
-0.011417427
0.037182525
-0.024330424
-0.013104478
-0.049830593
0.00035216834
0.02908644
0.015130867
0.022920236
0.034624632
-0.025473427
0.027005527
0.029278997
0.023848401
0.031457905
0.028160278
0.01715137
-0.04361939
-0.02334679
-0.009457806
0.029647619
0.040165108
0.03644097
-0.027587235
0.03283799
-0.016263971
-0.003937514
0.035488382
-0.036003206
-0.021979382
0.00901452
-0.015457246
-0.012301459
0.034139816
0.037655763
0.04095148
0.00256607
-0.01579486
-0.030157313
0.033740304
-0.01242775
0.022384524
-0.019862102
-0.023268368
-0.0039528934
0.036929924
0.02296257
0.00796103
-0.020360613
0.015418706
0.0059818123
-0.028085154
-0.0076590804
0.0006130407
0.008285332
0.017988726
-0.027341379
0.02016823
0.021824697
-0.0020258909
0.015875582
-4.6475725e-05
0.024638912
0.013247749
0.020930378
0.02188764
0.034404457
0.04861449
0.038672153
-0.029117463
0.02623589
0.03594823
-0.022619722
0.02014204
0.023793576
0.010249824
0.03991212
-0.0047899093
0.034518924
0.0107889585
0.034125242
-0.007967588
-0.025950337
-0.020065509
0.014869352
0.011055697
-0.039345846
0.0048315134
-0.009105428
0.037193265
0.031557184
0.01486566
0.016227324
-0.0063677127
-0.0041907425
-0.0073826886
0.039194018
-0.028598955
0.0433386
-0.014341835
-0.020904036
0.011230077
-0.00033609447
-0.016514681
0.030891057
0.03138196
0.04911855
0.02643217
0.0394318
-0.020706605
-0.026640741
0.03335723
-0.001314463
-0.03427557
-0.03680327
-0.02671723
-0.02179352
-0.0062825475
0.02788514
-0.0005188666
0.0089286165
0.0012141663
-0.0332475
-0.03559868
-0.022641035
-0.026576957
0.02854731
-0.012691379
-0.011005829
0.029799981
-0.0017825986
0.024811845
-0.031001894
0.016426736
-0.017666379
0.01960294
-0.030392783
0.017008033
-0.008612753
-0.0075321067
-0.030668894
-0.0148035595
-0.020116685
0.015116111
0.014133201
0.0037031083
-0.011179323
-0.0117626395
-0.03344224
0.016539283
0.018450303
0.03323916
0.0020175294
0.00076323695
0.020778958
-0.001766348
-0.020254808
0.0008706259
0.00488326
0.005007986
-0.02069583
0.006962589
-0.016153885
0.033531867
0.039986588
-0.0020704328
0.024983622
0.025777029
-0.03826633
-0.03518881
-0.030959276
-0.015583324
0.03145656
0.008950313
-0.016337408
-0.023923451
0.009422032
-0.03420418
0.039823137
0.004131637
-0.039312396
-0.02290198
-0.01781463
-0.020647656
0.013780538
0.031549808
0.017282119
0.009211627
0.01830764
-0.0038743473
0.005849424
0.008014909
-0.042017866
-0.005801278
0.043175604
0.034387294
-0.034279104
0.012091003
0.037875388
-0.031630278
-0.028703652
0.020635815
-0.022674723
-0.027140155
-0.033837166
0.0035187774
0.011220577
-0.03183333
-0.031980768
0.016896093
0.030340172
-0.0015435783
-0.037582386
0.0049942713
-0.0062178615
0.014307449
-0.009133317
-0.012299282
3.0797342e-05
-0.017256003
0.041031267
-0.012585311
0.017455071
0.021192823
-0.0025544232
0.010302059
0.026805831
-0.035431486
0.02926574
0.041258033
-0.03443241
-0.020075219
-0.0235531
-0.019333044
0.023697635
0.015973693
-0.0084163165
-1.0083042e-05
0.013902981
0.019121347
0.036509123
-0.0027482565
0.006968176
-0.009826129
-0.01420363
0.027623244
0.011059313
-0.0014312622
-0.009214498
-0.025439696
-0.030740691
-0.029257065
-0.031611614
0.027952444
-0.019589521
0.034052562
-0.027086908
0.031974576
0.030160198
-0.03367236
-0.040119793
-0.028297238
0.025027549
-0.0022617544
0.013275045
0.03823681
-0.00019104434
0.009599478
0.039442137
0.03661394
-0.030439032
-0.029616408
0.011512252
-0.023866143
-0.04609316
-0.025941793
-0.042180303
-0.017803425
0.0027816663
0.0118813515
-0.040464852
0.016940499
-0.020718396
0.018832764
-0.02770453
-0.011986804
0.0021932623
0.018101042
-0.030423246
-0.011247161
-0.023255691
0.013356947
0.028400533
0.018589767
-0.0056051454
-0.023983173
0.0028398205
0.007694974
0.04409567
0.033160247
0.026448801
0.01080698
0.037425634
-0.017465977
-0.036055986
-0.04148115
0.005315178
-0.026952943
-0.036638014
0.01819857
0.0067732786
-0.01645579
0.013125193
-0.02023255
-0.017273191
-0.021342246
-0.04002588
-0.030285422
-0.03202992
-0.023405818
-0.0008946832
0.029952355
-0.007949671
-0.00019617121
-0.0046155136
0.011630419
-0.040351447
-0.039970856
-0.026906574
-0.022195254
0.037054963
0.01293709
0.019928714
0.0045159464
0.011979672
0.013034404
0.04400531
0.024672816
-0.031708833
-0.019688206
0.028787756
0.0057925987
-0.012976327
-0.0074996906
-0.03792339
-0.01272119
-0.026602175
-0.034094818
0.028783944
-0.006310589
0.02547417
-0.04082559
-0.005070821
-0.012187256
0.028204456
-0.045436185
-0.050522324
-0.026531933
-0.01020244
-0.023752702
0.036248572
-0.011215365
-0.00801327
0.040794376
-0.029565347
0.017874828
-0.032179985
-0.028116873
0.013841469
0.027337253
0.0055405903
0.029309602
-0.004991711
-0.012418041
-0.04650824
0.0052118627
-0.00013954939
-0.027862072
-0.03181261
0.039003897
0.0023083277
-0.028881665
-0.010447504
-0.0061555216
0.0105877
-0.00770263
-0.017172478
-0.04313288
-0.021330101
-0.04145932
0.029384214
0.016475815
0.026513044
-0.04138161
-0.038438495
0.01062803
-0.04286379
-0.01990793
0.012659641
-0.028509418
-0.0046894923
0.0087109925
0.0033980506
0.009729
-0.00014738276
-0.020699913
0.03739547
0.03192827
-0.0061974297
-0.033299066
0.032657817
0.018205909
-0.036034442
0.03831513
0.014521306
0.041018113
0.041155163
0.040148698
-0.02322944
0.01657
0.001400318
0.016435768
0.027010433
-0.03146583
0.00084821443
-0.02184427
0.0350623
0.0068820803
0.0145457005
0.03513483
-0.024364969
0.01300552
0.04218171
0.013496201
-0.018731233
0.011711571
0.014770617
0.03804555
0.0070363223
-0.009847522
-0.041810468
0.028009275
-0.016500378
0.0018401629
0.03625103
0.013861078
0.005943002
-0.037072886
-0.012695474
0.01939842
-0.016136428
-0.003985112
-0.036921326
-0.0021636845
0.00056296337
-0.007647027
-0.03712714
0.009453179
-0.035836402
0.008654089
-0.019024193
-0.005163318
-0.04144395
-0.02198723
0.027548084
0.029998004
0.00086903916
-0.005268178
0.030921457
0.017674183
-0.029246716
-0.030496005
0.009387726
0.03109858
-0.016030068
0.026126351
-0.045745846
-0.0058114063
-0.034268823
-0.015658237
-0.025615139
0.035200767
-0.037572518
0.0077036754
-0.0010075832
-0.03009125
-0.010190762
0.037169777
0.02248771
0.03484265
0.04171276
0.011419927
-0.0021147516
-0.033545125
-0.013252022
0.0071125044
0.015333664
0.00453735
0.010411666
-0.034659162
0.024204629
-0.022446012
0.013652251
-0.045412224
0.0222868
-0.017296059
0.013600396
-0.03525637
0.024651084
0.03074059
0.033182904
-0.004543686
0.01666407
0.03259573
-0.03327479
0.018799968
-0.014980641
0.0018831741
0.03154937
0.015063215
0.034060575
-0.019223496
-0.0064634634
0.022836598
-0.036858067
0.018074116
0.012057525
0.025592284
-0.026904099
0.009372867
0.010141969
0.025126176
0.018953837
0.009000573
-0.042853393
0.00114839
-0.02785544
0.00593043
0.015220745
0.026519237
0.018822506
-0.032928966
-0.005318147
-0.029436251
0.0020607265
-0.0033290344
-0.033496525
0.035251155
0.00059789396
-0.0030115405
-0.010387538
0.050026476
-0.024610708
0.02692583
0.034268454
-0.0070760637
-0.01644611
0.025090117
-0.0008551031
0.014035368
-0.023517199
-0.015710702
-0.009518034
-0.034157738
-0.035495766
-0.011264015
0.0317566
-0.028457947
-0.024388414
0.01375663
-0.031131012
0.023525333
-0.021870641
0.0076302607
-0.037811745
-0.04051275
-0.03285167
0.017802203
0.015969565
0.03368608
0.0034968783
-0.014202794
-0.0098539
0.032978766
-0.013628272
-0.030420866
-0.016201027
0.00031206562
0.011560124
-0.0144618135
0.003389685
0.007871082
0.008823302
-0.02076247
0.012812757
-0.0071127797
-0.029201353
0.0014697823
-0.003897293
-0.0066702846
-0.008021561
0.016966008
0.0129695935
-0.027067335
-0.04255325
-0.032923646
-0.020514363
-0.043617737
0.015763866
0.0046557924
0.004223455
-0.03773842
-0.025957176
0.008719101
0.011612562
-0.015961215
0.002166249
-0.020006493
0.02820597
0.012339563
0.022984311
0.022082858
0.01236692
0.0055747703
-0.033116788
0.021683663
0.0064283605
-0.022447817
0.012101011
-0.021363275
-0.0086122705
-0.033335626
-0.043220878
-0.012686127
0.004241259
-0.023171972
-0.025236353
0.0005248977
0.048410095
-0.016894393
0.01410041
0.019514406
0.02642435
-0.016260535
0.02041919
0.024820061
0.022707703
0.023722878
0.024963405
-0.03566195
-0.0141378725
-0.032911733
-0.036701977
-0.00029871403
-0.027357826
-0.010332358
0.024177847
0.025309125
-0.02854664
-0.02034681
-0.023373367
0.03391816
-0.02436787
0.013396101
0.02483195
0.027921647
0.035902902
-0.031961855
-0.014338296
0.0061084423
0.008224196
-0.004537969
0.00537544
0.03242579
-0.034354284
-0.025281006
-0.02710543
-0.0002860172
-0.023415083
-0.0165649
-0.008928372
0.018320905
-0.020447168
-0.044604808
0.029713295
0.0010323502
0.026652643
-0.041238416
-0.024113914
-0.0032984763
-0.04437212
0.028846413
-0.04612165
0.018906431
-0.0060747224
0.031001247
0.026671812
-0.02253269
0.010819198
-0.023226159
-0.045581017
0.009551724
0.0109577365
-0.0061123623
0.0019073603
0.020911375
0.008032846
-0.006925503
0.038255572
-0.041636545
-0.022231787
0.027450332
0.014529143
0.03988716
0.0017166618
-0.012644234
0.030757412
-0.009133065
-0.043221187
0.026423564
-0.018896274
0.023231445
-0.025272598
-0.031165594
0.037653483
0.008584894
0.023328813
0.026060479
0.006221208
0.02464739
-0.009333463
-0.00725198
0.021146435
-0.034447275
-0.027323954
0.030034568
-0.025315272
0.014834499
0.041101635
0.0006971919
0.002918046
-0.029969493
0.02853146
-0.03481535
0.032194037
-0.026713401
-0.019782264
0.023182817
-0.024156474
-0.023655469
0.021128464
0.030412622
0.0005470268
-0.023279676
-0.009622495
-0.020179642
-0.041979328
0.017143525
0.012161523
-0.037365817
-0.024590224
-0.015803583
-0.026971268
-0.021638732
0.02392334
0.016460251
-0.042885695
0.0053273644
0.024519041
-0.019913403
0.00021804012
0.007896675
0.023118675
0.016324684
-0.0029568234
-0.024783483
0.01618441
-0.030402452
-0.019237317
0.027659146
0.038689222
-0.012419345
0.03241128
-0.014595602
0.038654346
-0.0024660148
-0.024784919
-0.018218292
-0.03574579
0.029370025
0.029273458
0.0137755
-0.007677934
-0.017574431
0.036998328
-0.022085818
0.025394814
0.009054208
0.039417293
0.009678122
-0.017147863
-0.031899106
-0.0260713
-0.000722492
0.021425776
-0.012580837
0.032705225
-0.0051097153
0.031254135
0.00889192
0.0138993235
0.03943502
0.030754479
0.031823814
0.036567
-0.03482372
0.0021607701
-0.030181574
0.03066389
0.024068968
0.03999459
-0.031483438
-0.026505278
-0.025469365
-0.00996579
0.006843592
0.03758003
0.009529754
0.04273794
-0.028624943
-0.01600506
-0.019539038
0.026478421
-0.04241189
0.033645708
-0.023897322
0.0213107
0.0034669645
0.042252798
-0.0048897066
0.024433881
-0.0023193962
-0.026633315
0.018351717
-0.021999104
0.0102844015
0.025177207
0.03439234
0.013387984
-0.0030800956
0.039793972
0.0054667066
-0.0032532308
-0.008043933
0.021832267
-0.017419057
-0.02120797
-0.029196106
-0.042591993
-0.031152083
0.021152666
0.032537162
-0.0016820804
-0.0020661058
-0.03258929
-0.018387625
0.0072289263
-0.036007203
-0.006796267
-0.0045758435
-0.03500491
-0.036186405
0.007744664
0.0045773364
0.033903856
0.015147883
-0.015290796
-0.03124399
-0.010283397
0.022572577
0.004375481
0.010855717
0.04555803
0.0033853636
0.0071981014
-0.005884043
0.019732919
-0.009636843
0.023356669
-0.03684455
-0.02276444
-0.026929177
-0.0443035
-0.047170993
0.03918039
-0.007010742
0.007288301
-0.005571722
0.0163991
0.035604496
0.034508746
0.024882521
-0.043212567
0.0039598607
-0.04742195
-0.01723015
-0.03829286
-0.03267461
0.0077720205
-0.038982034
0.0016013677
-0.023593834
0.012268352
0.0025829053
-0.036122248
0.0029494592
-0.02755898
0.0374991
-0.040713683
-0.0006703041
0.009022976
0.00064868096
-0.0131396465
-0.008573653
-0.0012491712
-0.037082
0.007958312
-0.023892418
0.027317109
-0.0028660547
0.0005260086
0.026524898
0.022314245
-0.036079846
0.0033152185
-0.023841852
-0.009853108
-0.010630971
0.03662008
0.01201609
0.008392953
-0.0276803
-0.04314827
0.019917326
-0.006106846
0.026719825
-0.025294192
-0.010482549
0.013834613
-0.031902
-0.024384828
-0.0107251955
0.030070538
-0.02663096
-0.012152882
-0.039467763
0.0016229606
0.021885889
-0.0056875106
0.009270918
-0.0034661407
-0.027170433
-0.024151698
0.04208785
-0.04412291
-0.032756712
-0.0105281705
-0.0092068445
-0.0029149512
-0.018532433
-0.02394468
0.010869529
0.035889544
0.031185623
0.024946308
-0.039169107
-0.05180114
0.023307161
0.014727376
-0.0027929824
-1.7179009e-06
-0.008182487
0.033907916
-0.029352263
-0.014314611
-0.0036875475
0.013551744
-0.03288461
0.04265016
-0.011288763
0.001133185
-0.03301583
0.030021155
0.04025699
-0.017634802
0.0049090856
-0.017768687
-0.0004426742
-0.047059923
-0.0023450702
-0.037292156
-0.032487813
-0.018183947
0.0003684111
0.024587736
-0.017309573
-0.025597416
-0.02673233
-0.018812772
-0.037400346
-0.020060139
-0.0010419637
0.0021545093
0.002661477
0.04059609
-0.014615088
0.037273392
0.017681064
-0.009050877
-0.028766567
-0.03490648
0.030744037
-0.012368141
0.0072038984
0.033252783
0.0037734692
0.007948295
-0.018976444
0.009822528
0.037100088
-0.038176432
0.015956549
-0.025496073
-0.028423753
0.0051877713
-0.009908731
0.010062392
0.016832456
0.016033625
0.0026687894
0.013771433
0.0079244645
-0.037576705
0.036750507
0.009617055
0.031862594
0.004472876
0.01155382
0.013564189
0.0030865925
0.009264631
0.03142626
-0.018522384
0.026503416
0.012240133
0.036861148
0.016285565
0.020477487
0.026301371
-0.010789746
-0.009735485
0.034872238
-0.027085945
-0.012392347
-0.0008407145
-0.034135498
0.006239484
-0.03311826
0.0116454065
0.021811295
0.009388073
0.021659028
0.00016818594
0.038870595
-0.010108746
0.029375566
-0.029252416
0.007558832
-0.0011733067
0.011964648
0.03991552
0.004825293
-0.02986435
-0.030326253
0.031003604
0.012387318
-0.041163962
0.007969933
0.041285537
-0.04538205
0.018723546
-0.016242566
0.018238908
-0.024603734
-0.014375182
-0.008385975
0.006713073
-0.033717357
-0.0056348722
0.037074387
-0.024469154
-0.0340766
-0.015708027
-0.0071699186
-0.022054804
-0.021787513
0.022610458
0.030894093
0.005727943
0.02362044
0.031725198
0.018414961
-0.00064840366
-0.014257387
0.01503758
-0.025406431
-0.008299711
-0.013123946
0.020627739
-0.0006961777
0.020644022
0.0074968543
-0.0009060179
0.012595679
-0.024803247
0.0014591909
0.020833286
0.02504937
-0.019230332
0.014534411
-0.031602487
-0.009712875
-0.02941598
-0.027564414
0.007953456
-0.008848851
0.0057025743
0.0061694104
-0.024843398
0.0022485116
-0.002217225
0.02539746
0.0053200624
-0.029736752
0.020217974
0.03425049
0.015831536
-0.01402795
-0.013806942
0.030290268
-0.03295608
-0.009826077
0.012567447
0.006108909
-0.004429443
-0.03091643
-0.028638454
-0.03557973
-0.0127411485
0.031049494
0.020975182
-0.006553616
-0.009005516
0.039761294
0.0394787
0.011407207
0.021766823
-0.034395084
0.037290577
-0.034569707
-0.030319335
0.04086852
-0.016317146
0.02691696
-0.013210652
-0.002184
-0.020098556
0.039960176
0.0071267835
0.006471261
-0.025186202
0.03641129
-0.0028686556
-0.0077283457
0.022620602
-0.014167797
-0.030706335
0.034456685
-0.030866597
-0.019576551
0.03954419
-0.0077912663
0.03854517
0.0050171567
0.015448885
0.0173025
0.013031298
-0.0051080505
0.008496492
0.029471142
0.026712572
-0.016748874
-0.01601301
0.016236933
-0.035644647
-0.021675343
0.03699667
0.031410016
0.044132456
-0.022627283
0.007016347
-0.012550658
0.0034162293
-0.015700493
-0.0164966
-0.038196318
0.00014689278
-0.039063502
-0.014629609
-0.024946272
-0.018329008
-0.015982246
-0.006799369
0.03808041
-0.016542455
-0.03743935
-0.030294938
0.027175168
0.029656544
0.027591784
-0.014756536
0.030579153
-0.01784962
0.037410345
0.035593327
-0.016823012
0.013441902
-0.00674749
-0.021867765
0.040800888
0.0064776647
0.010533009
0.003626092
0.04247015
-0.033961177
0.0300139
0.012187905
-0.0077536735
-0.032268893
0.025990158
0.036320265
-0.00018937304
0.014191905
0.020020107
0.037808772
0.027415806
0.015481344
0.047757603
0.009702275
0.01824958
0.032209445
0.021019295
0.0019153823
0.022252036
-0.01545331
0.025772411
-0.010310062
-0.0027920855
0.034548666
0.0108205015
0.02076716
0.013689999
0.010918967
0.028758442
-0.007752811
-0.007131146
-0.037573583
-0.022867916
-0.01029056
-0.029624766
-0.039160863
-0.0144336745
0.008916145
-0.025720375
0.03893592
0.015040649
0.0075889337
-0.0143508855
0.010882993
-0.013446141
0.03072195
-0.021702562
-0.04004083
0.0023609838
-0.014613609
0.008680312
-0.00018765402
-0.015905697
0.022400796
-0.011125786
0.034790445
0.037374724
-0.03433918
0.010559722
-0.029109528
-0.018515764
0.02034372
0.017299587
0.010250948
-0.032808043
0.04309194
-0.03100623
-0.030802507
0.04243438
0.0070292973
-0.018178087
0.016900683
0.018760858
0.02336631
-0.033084843
0.0012610082
0.017448014
0.023315359
0.035907265
0.033081826
-0.02221406
-0.009714864
0.03028147
-0.015143224
0.013170041
0.006587305
-0.016209982
-0.030092211
0.03518534
-0.030425012
-0.014913031
0.020364748
-0.031224182
0.02346329
-0.03281763
-0.012953911
-0.002720609
0.011142053
-0.027178518
0.018585386
0.0025712128
0.0072721937
-0.0002278336
0.02197591
0.034415856
-0.023697792
0.00817684
0.0358872
-0.028735476
-0.015195407
0.026032688
0.027140988
-0.02104627
0.021228276
-0.037296645
-0.02043425
-0.012857038
0.0036491377
0.023827227
-0.00419999
-0.010862904
-0.022319006
0.011994876
0.023563111
-0.028554127
0.0061385673
-0.020241478
0.029408041
-0.032893844
-8.0841755e-06
0.0383491
0.023414282
-0.0038079226
-0.02590644
-0.0047562197
-0.001106115
-0.024403216
-0.004176938
0.044869762
-0.013210049
-0.028265225
0.04186646
0.00077622937
-0.029837286
0.0012108401
0.02353386
-0.01242018
0.030358795
0.039464418
0.039968733
0.009695017
-0.01722219
0.032298353
-0.026671529
-0.00015160993
-0.002889381
-0.026501032
-0.034803797
0.043631162
0.03922321
0.035080995
0.019198375
0.010197149
-0.035958376
0.010257291
0.040293537
0.028328972
-0.043967564
0.0064362315
0.031743087
0.012900721
0.01667799
-0.03407781
0.01419926
-0.025240358
-0.017367944
-0.004808635
-0.021349147
-0.014209832
0.031574007
0.036215033
0.0014072591
0.010932816
0.01773529
0.026699329
-0.017839763
-0.011380335
0.04323923
0.03007311
-0.0017992435
-0.0029778238
-0.0278061
-0.009960969
-0.013378585
-0.02999993
-0.0039752563
-0.03568154
0.032687727
0.026837377
0.012414866
-0.020537948
0.032001257
-0.028192105
-0.007042886
-0.018593386
0.000116384224
0.03607117
-0.03207327
0.015898274
0.017685806
-0.012581989
-0.00949309
-0.010073645
0.018624378
0.027127393
-0.027996011
-0.024449911
0.028381372
0.023397265
-0.039686438
0.010096149
0.030996043
-0.0038064471
-0.034449507
-0.013771503
0.016985178
0.015237368
0.0015788337
-0.031617142
-0.022745676
-0.036375787
-0.0052082506
-0.0102355555
0.03726223
-0.038509242
-0.0019422111
-0.032358963
-0.006186528
-0.0011841251
0.01872042
-0.025683468
0.028022826
-0.03409916
0.025334196
0.008609552
-0.002276888
-0.019295245
0.020985188
-0.018561166
-0.026193641
0.0048843035
-0.032712307
0.012762369
0.01684622
0.02699406
0.033709917
-0.025889756
-0.0131122125
0.020513762
-0.02910068
0.017072618
-0.0070046354
-0.0363869
-0.036667477
0.0046777283
0.010767436
-0.001714634
0.021601217
-0.018147476
-0.037001286
-0.0019245283
-0.03589493
0.00010962754
-0.014094992
0.014927422
-0.0040263818
0.0152322985
-0.024383547
0.042394903
0.040956456
0.043738652
0.031181248
0.010783525
0.025796924
-0.039335597
0.014515838
-0.033155803
0.03155345
0.009096455
0.03627425
-0.005752523
0.011022176
-0.009297196
-0.03347611
-0.024833346
-0.01787831
0.036545794
0.02428021
0.028929166
0.02534381
0.013620173
-0.030099377
0.019348314
0.034266647
0.03604391
0.01338164
-0.018923398
-0.019620588
0.02198808
-0.022139028
0.044458892
0.013736823
0.027332166
-0.014671849
0.023085473
0.03236448
-0.017772252
0.00899003
0.028373271
0.012334001
-0.007980643
-0.009044383
0.039796066
-0.03708175
-0.007478901
0.010329745
0.042070545
4.535555e-05
-0.029921347
0.017656885
-0.004159249
0.04033457
0.0124846
0.009300912
-0.028494885
-0.031003721
0.00079606444
-0.03470392
-0.029100986
0.03995482
-0.006619796
0.024296109
0.03212013
-0.03036224
-0.02964979
-0.007951783
-0.017191742
-0.023376012
-0.01047454
0.01798778
-0.01178064
0.029910987
-0.024224114
-0.021186192
-0.010940425
0.034775168
0.00031012026
-0.028620228
-0.020413807
0.044583075
-0.017764054
0.021779204
-0.009360084
-0.010910726
-0.009553027
-0.047251936
-0.023730969
-0.008615011
-0.034666624
-0.036192182
-0.031891
-0.014229667
0.0013630937
0.03451114
0.018450163
-0.033935055
0.0033975232
-0.036769394
-0.043613657
-0.02907348
0.015216126
-0.02552521
-0.008388021
0.00562663
-0.020676054
-0.0008021646
0.023938851
-0.018867154
-0.021478387
-0.026255125
0.02345131
-0.03950713
-0.024076756
-0.022271888
0.0051226825
-0.038698435
-0.03612197
0.035039175
0.038494997
-0.027546154
0.017582951
-0.035919752
0.025777113
-0.028271176
0.0059588063
0.0038099494
-0.026114542
-0.031429432
0.0039476794
-0.04077232
-0.04196878
0.0014463107
-0.019394645
0.027824746
0.011094776
-0.027111031
0.045718186
0.03504274
0.03273186
-0.020227477
0.0006758506
-0.025965901
-0.023576207
-0.026089275
0.008128521
0.028403172
0.02116496
0.009420418
-0.0013743944
-0.018418435
0.008994976
0.0011048216
-0.010570262
0.015620898
-0.00449191
-0.013642219
-0.04074111
0.021734808
0.034515556
0.022980073
0.04351831
0.031523652
0.027237402
-0.024381803
-0.03438455
0.023384951
-0.041290767
-0.014264651
-0.032827623
-0.01769341
-0.03166164
-0.025391761
-0.008223962
0.033276275
-0.022437554
0.0018963973
-0.019686788
-0.02878002
-0.009187907
-0.046255793
-0.023777582
0.0018031998
-0.034575433
-0.02766086
-0.027426044
0.009581222
0.01852682
-0.021373382
0.005584834
0.02406207
0.036352813
-0.03755621
-0.02899119
0.044166315
-0.04133626
-0.011359995
0.00513269
0.012079134
-0.03500717
0.03952342
0.00038843846
-0.024495427
-0.032702465
-0.028562646
0.011877314
0.00096848345
0.0020558727
-0.035609894
0.011411704
0.029682549
-0.0060112597
-0.002204796
-0.007869161
0.006152398
0.008072459
-0.020371912
-0.003882357
0.02798695
-0.0034036038
0.02579577
0.0011600064
0.0042666737
0.036753416
0.04855567
-0.0146152545
-0.02501139
0.030346023
-0.033350248
-0.038452834
0.0024883884
-0.022978056
-0.0015717457
0.0122491345
-0.00023179429
0.03479797
0.020102622
0.023702728
0.0014651255
-0.009335817
0.0067753666
0.025570111
-0.017441854
0.008700034
-0.0025442743
-0.025803374
-0.013201207
0.02268278
0.024763353
0.0071969633
0.0074396753
-0.013578162
-0.019426303
-0.011618238
-0.037854813
0.033538874
0.03559372
-0.00427689
0.015827715
-0.023780191
0.039804853
-0.0007882907
-0.04144397
0.008690844
0.00906062
-0.017586038
-0.00068022095
0.0054880646
-0.0007275248
0.012595037
-0.00020388838
-0.005400529
-0.009214441
-0.031891428
-0.03182695
-0.013403621
0.030922217
-0.02775198
0.0032304921
-0.037193153
0.0027754079
-0.02318303
0.027623516
-0.026016613
-0.023745216
0.019141395
-0.026997615
0.04104454
-0.017851932
-0.005506402
-0.04699708
-0.0052485317
0.017403562
0.011571464
0.015454129
-0.0005814363
0.011545888
-0.026216034
0.03265312
0.017677153
0.030020641
0.051324774
0.03489278
0.035202444
-0.013544233
-0.02224535
0.033285495
-0.025581896
0.02314313
0.03507379
0.016371008
-0.019201245
-0.030009065
0.010664433
-0.02353299
0.04106204
0.038146548
-0.022977374
0.032557443
0.014462283
0.011521949
0.011783383
-0.038901642
-0.037288856
0.03349628
0.035760947
0.03269808
0.003491599
-0.01841315
0.0387735
0.034557182
0.003159157
-0.02587466
-0.04169381
0.0073225005
0.013678049
0.008485131
0.022490246
0.0061361217
-0.034478337
-0.025203966
-0.030621536
-0.016097272
-0.035751253
0.012224738
0.013798897
-0.027480064
0.027895834
0.0042525227
0.023394013
0.02763176
0.034590364
-0.039017543
-0.03145853
-0.006019972
0.010984667
-0.017244339
-0.023889188
-0.016403273
-0.02999346
0.013721294
-0.03100828
0.012058204
-0.043887686
0.023785088
-0.03861811
0.0075578126
0.0060643116
-0.0421547
-0.015328299
0.016877377
-0.046607047
-0.009726054
0.03426684
0.0016224418
0.009150588
-0.037465554
0.014924615
-0.02923895
0.018150652
-0.01585908
-0.021788971
0.019451601
-0.035474893
0.010491644
0.01222379
0.035188835
0.021776976
0.010759218
-0.0429274
0.034958925
-0.0036763244
-0.016491914
-0.0009931049
0.030435717
-0.04132949
-0.031361833
0.04069815
-0.020148735
-0.0057675797
0.010977849
0.044813562
-0.031139933
0.021978116
-0.0071387766
0.027955908
0.022252327
0.038014222
-0.019798925
0.02091329
-0.045736216
0.0036740648
-0.0023557867
-0.005511488
-0.012465824
-0.030665526
-0.004922193
-0.0062767495
0.034303945
0.03035752
0.009525881
-0.028487204
0.034597088
0.029864078
0.034801595
-0.03404795
0.029644782
-0.01304408
-0.022213364
0.028681675
0.0053522405
0.019487778
-0.015831195
-0.031608667
-0.0023413934
-0.009134543
-0.028534245
-0.033117335
0.0027848699
-0.016159782
0.0013725773
-0.0058828425
-0.03381101
0.01046456
-0.042229027
-0.01088919
-0.0006538357
-0.01649908
0.02835895
-0.007690556
0.0073273806
0.041925434
-0.029252108
-0.027809158
-0.009311303
0.02078979
-0.025544038
0.02058362
-0.0067492225
-0.014873902
0.043803807
0.040805385
-0.02624658
-0.027172612
-0.020877892
-0.0036123379
-0.005522449
0.01487898
0.027923528
-0.014362766
0.0173531
-0.0046394463
0.0073593603
-0.002123048
-0.027011063
-0.009657693
-0.0062193247
0.021589354
0.014948476
0.008833747
-0.009377347
0.0087174
0.015529051
-0.019586345
-0.036282625
-0.02041678
-0.024425337
-0.02658408
0.030889483
-0.030145604
-0.011277546
0.009118317
0.029569952
0.030588647
-0.012668473
-0.029723737
-0.021472562
-0.019952953
-0.016420113
-0.026587406
0.032735493
-0.035612855
-0.020359829
0.023221329
-0.005060298
0.0013067271
-0.03526949
0.029007103
0.013322371
0.0022840605
0.0369722
-0.017294528
0.0046711694
0.03658635
-0.0066347867
0.032466993
-0.024013292
-0.018914202
0.01490493
0.006431862
-0.005102849
0.010950294
-0.010030772
0.025741378
-0.03653629
0.031061606
-0.02628527
-0.022799075
-0.0022277595
-0.036653075
-0.037567154
-0.021425784
0.018658085
-0.0068429015
0.019970838
0.012603034
0.00089964224
0.0124591375
-0.016662054
-0.025075946
-0.02779482
-0.014280333
-0.033311516
-0.025373867
0.03396058
-0.013966989
-0.01919164
0.03591797
-0.013757491
0.027392197
-0.005403365
0.018896475
0.038933657
-0.036687735
-0.028486542
-0.018160878
-0.00844643
-0.028484708
0.02631439
0.0060397848
0.03783957
-0.02890018
0.015606898
0.036305346
-0.010756193
0.025011659
0.039290898
-0.028746687
-0.0344824
0.0044677206
0.0021756492
-0.003650763
0.025269868
0.016270671
0.02069207
-0.032213125
-0.022224987
-0.030948954
0.011085186
0.011987024
0.030123048
-0.039266787
-0.030828435
0.029899755
-0.008856534
-0.037555873
-0.021008862
-0.011368541
-0.045086063
0.015470975
-0.0067176046
0.024547385
0.014516808
-0.00606159
-0.030371862
-0.016570982
0.036174484
0.001094242
0.018821383
-0.02949723
-0.012537202
-0.0012858952
-0.012978962
-0.027566532
-0.028488196
-0.0013119603
-0.023541218
0.0005083493
-0.024964532
-0.025248665
0.022544794
-0.031717006
-0.024932614
0.015035075
0.03642954
-0.019025046
0.006264536
-0.035971943
0.04114505
0.040668193
-0.008956799
0.023979522
0.032721717
-0.002796363
-0.021548845
-0.017802412
0.0035422603
-0.015131807
0.012671691
-0.015228748
-0.0058790557
0.004727289
0.0075789895
0.029905632
-0.009914513
-0.03158309
0.0029348475
-0.00088362204
0.03194892
-0.02678899
-0.040810373
-0.017250806
-0.0014264357
-0.0075810947
0.002542015
0.037261795
-0.025293108
-0.03307186
0.027068913
-0.03182065
0.00070279255
0.015426066
-0.0016047528
-0.016829766
-0.0062922332
-0.0105410535
-0.00090227
-0.031875167
0.0059695197
0.01976939
0.0076898304
0.011266834
-0.015115889
-0.038373753
-0.04530624
0.026223017
-0.024754897
0.028692182
-0.015747692
-0.036291994
0.027204558
0.0071396395
-0.04360235
0.013639355
-0.039191272
-0.026605308
-0.040075406
0.013998478
0.006691913
-0.0076143816
-0.021862056
-0.028549578
-0.03348288
-0.012487839
0.015942186
-0.014906092
0.023291565
0.0066716443
0.020627562
0.014424013
0.0070303096
0.0054648244
-0.016352206
-0.0172584
-0.03839131
-0.030142348
-0.008693541
0.009554978
-0.0369189
0.035861664
-0.03210951
0.009538472
0.06518754
-0.021800563
-0.01876242
0.0045225006
0.01611114
0.025288908
0.017640151
-0.02328844
0.018626686
-0.009692109
-0.005583203
0.035777807
-0.006970817
0.017511642
-0.008985809
-0.009062908
-0.02388594
0.025115496
-0.019675875
0.022312578
-0.0018730508
0.0131757045
0.01261022
0.011311113
0.006446355
-0.04568099
-0.04073311
0.03725455
0.013589726
-0.016939094
0.0018982126
-0.002331095
-0.020713987
-0.013582169
0.03130472
0.0057561565
0.027409947
-0.03733165
-0.0129962955
-0.0076446664
-0.022229096
0.034584127
-0.027129535
0.026545888
-0.029859131
-0.0236313
0.0016661999
-0.0027823884
-0.0019260995
-0.03226927
-0.025279688
0.042713795
0.029555822
0.000523288
-0.04146269
0.0028849444
0.014561271
-0.0021281275
0.030932954
-0.015217515
-0.04196546
-0.03778589
0.026101649
-0.020092385
0.022278994
-0.018359814
-0.001387705
0.027289446
-0.004923564
0.035602357
-0.03579303
-0.013286825
-0.008796464
0.029495277
0.012710166
-0.026773235
0.0038660008
-0.0012666212
0.014727502
0.01723849
-0.016998656
0.04742757
0.014568513
0.019722972
-0.022240708
-0.0032216508
0.032843072
-0.0075468034
0.011048806
0.009922916
0.009807141
0.02726628
0.0075440644
0.0026724255
0.028312529
0.022696136
-0.03797482
-0.01958209
-0.021878358
-0.013703871
0.029158296
-0.006914617
-0.031072693
0.004783306
0.034429252
-0.032215282
-0.009052796
0.0041946983
0.030362006
0.021456514
0.00067445147
-0.014036679
0.023330292
0.03879644
0.029606167
0.016849456
-0.005111709
0.004245353
-0.007896533
0.010346318
-0.034966715
-0.00075302605
0.007964963
-0.007776733
-0.0030011905
-0.011527827
0.006888094
-0.012335223
0.037008826
-0.010116383
-0.0136056
0.03134691
-0.047824703
-0.03830307
-0.041942168
-0.009543006
0.02706421
-0.006075017
-0.0020218901
0.022159828
-0.027935179
-0.0051147114
-0.01136419
-0.028353494
-0.018596508
0.016323382
-0.031316794
-0.010377202
-0.02196133
-0.023756707
-0.043390106
-0.004620238
-0.03949394
0.018722888
-0.023735778
0.019768255
0.04789034
-0.02060729
0.0044466653
0.023443647
0.011405224
-0.040490024
-0.023991432
-0.0072721103
-0.030315487
-0.0070211957
-0.034300096
-0.017872004
0.018248737
0.027426768
-0.032283932
-0.0023937176
-0.030381462
0.03612259
-0.03732724
-0.0306758
0.037875313
-0.025258197
0.045607485
0.041925892
0.004813135
-0.0025084298
0.012819892
-0.021677969
0.013730817
0.029654127
0.019533843
0.033251856
0.027063191
0.039135914
-0.033368062
0.020512503
-0.010720807
-0.032926165
-0.0151392585
-0.035870496
-0.020297635
0.016780272
-0.0384555
-0.019658023
0.014278321
0.0011863599
0.012051807
-0.001674447
0.020944223
0.008694256
-0.03379394
-0.007788743
0.029231112
0.01813688
-0.028001007
-0.039504923
0.0354365
-0.013393736
0.013652512
0.02151891
0.02569333
-0.03091775
-0.044112846
0.0002090285
0.0061711012
-0.0069061476
-0.027205031
0.03785851
-0.030296935
-0.03364629
0.03127481
0.03175996
-0.02559556
-0.015811449
-0.02588703
0.016656471
0.026798012
-0.037841287
-0.032565515
0.009915449
0.03558017
0.027665012
-0.018132182
-0.0301851
0.029565727
-0.019880986
-0.0061560553
-0.02019342
-0.020918267
0.027112668
-0.00452574
0.02241358
-0.031412445
0.00128744
0.009310997
-0.048152443
0.038571265
0.039303526
-0.021307519
0.033600956
-0.028552892
-0.039785087
0.0019770684
-0.025178578
-0.031090401
0.0077517764
0.014406883
0.016501674
0.04731813
-0.009663431
0.022942454
0.01746412
0.02571477
-0.01499392
0.009595418
0.0058345385
-0.037915967
-0.0035771185
0.009093366
0.015557708
0.028834471
-0.009862282
-0.030051103
-0.0284235
0.011803514
0.0070451605
-0.033517927
0.024560055
0.016791513
-0.035237473
-0.024414498
-0.025086062
0.037910756
0.010699233
-0.01811957
0.0036725572
0.038841248
-0.025633683
0.021119054
-0.000510563
-0.0057889135
0.009067382
0.006782782
0.037490204
0.0046793744
-0.040415477
0.025081133
-0.028562408
0.035986684
-0.026086275
0.032211866
0.016225602
0.011497785
0.0195546
0.0044973902
0.0035599945
0.034590427
-0.028635824
0.037617814
0.0035917487
0.016146524
-0.009654824
0.030817356
-0.016932722
0.024376066
0.03752131
0.00019080986
-0.031586118
0.013716248
-0.01798593
0.043561716
-0.016747382
0.015848376
0.021863852
-0.017274136
-0.028401509
0.023584533
-0.041576825
-0.02379802
0.028620025
0.008433804
0.0193486
-0.010525894
0.0075565907
0.0032418743
-0.022426056
0.019877896
0.03189008
0.02315661
0.040198795
0.014239303
-0.036016848
-0.035222374
0.008663124
0.031043876
-0.03532123
0.00988381
-0.015130141
-0.0026619006
-0.040857416
-0.014217312
-0.0013491934
-0.0079003135
-0.0012573163
-0.030576102
0.032170363
0.0040969774
0.008606271
-0.00045593106
0.01954718
0.040871333
-0.023511333
0.031147478
0.004607028
0.02586958
0.016797533
-0.029459067
-0.009682889
-0.03687846
0.011004968
-0.041487616
-0.031938218
0.028890096
-0.023756938
-0.025956143
-0.01734344
0.0064440197
0.018023366
0.00474739
0.0220352
0.013528
0.009656028
-0.008086089
0.039962888
0.005865829
-0.006081142
0.0038084977
-0.026449634
-0.03383271
0.004610734
0.014260627
-0.023319589
-0.018145412
0.007058567
0.007480434
-0.03025863
-0.028349102
0.0018416744
0.0113471
0.017853074
-0.035996262
-0.023055831
0.021123327
-0.0205693
0.039561614
-0.04017561
-0.03725227
-0.012571798
-0.020847237
-0.013864012
-0.008188359
0.01770772
0.037619248
0.013011136
-0.01904966
0.021004448
0.025758216
-0.015603377
-0.030770836
-0.019721435
0.04048937
-0.020109974
0.01424831
0.0082272785
0.01973358
0.037901502
0.002004279
0.042615917
-0.038954906
0.01612559
-0.036456745
-0.020151665
0.0008960034
0.032955788
0.016171217
0.0022051143
0.03753641
-0.030797157
-0.014249937
0.033338156
-0.0046336097
0.034054052
0.01452652
0.027150825
0.02205463
-0.008040997
0.02626714
0.026075825
0.03833831
-0.019986784
0.04057486
-0.035695955
0.023808759
-0.022081794
0.009223072
0.031353403
0.022661762
0.005557056
-0.0076208133
0.036838546
0.037496824
0.00043283217
0.007363932
0.016724907
-0.041358236
-0.03269253
-0.00799905
-0.016834492
0.032596976
0.009277449
-0.024620611
0.012980463
-0.028101875
0.01268919
-0.0037433256
-0.03322791
-0.0046060653
0.020166025
0.00669093
0.0012207325
-0.017021155
-0.03630463
-0.004479135
-0.015204357
0.015244283
0.025558138
0.010804745
0.018875692
0.0162828
-0.03056394
-0.0058406084
-0.016480412
-0.019008461
0.018402392
-0.004970615
0.039410517
-0.012900868
-0.04120804
-0.010791829
0.03228635
-0.006050406
-0.024831472
0.012739701
0.011672971
0.02411549
0.0053100046
0.033622894
0.021751372
-0.0116176745
0.023765884
-0.03148543
0.027181517
0.025386648
0.020361787
-0.0029677448
0.0065570697
-0.010029949
0.021332232
-0.023826482
-0.010372564
-0.01956963
0.007109467
0.018104274
0.027752759
-0.029439442
0.01828903
-0.036870766
-0.03294487
-0.019658227
-0.00662642
0.02417549
-0.006659189
-0.035205226
0.038199466
-0.017234154
0.015928969
0.005351169
-0.0317816
-0.0074347584
0.0265928
0.016302068
0.006577089
-0.030699618
-0.029918263
-0.033843555
-0.030385245
-0.040859547
0.026659207
-0.0006845353
0.010957389
-0.039119486
0.028501349
0.009081379
-0.016036302
-0.0030871395
-0.010780566
0.044952165
0.031037174
-0.02052419
0.028703585
0.03174697
0.03676714
0.02956432
-0.031372435
-0.03599123
0.020225698
0.017747855
0.016741768
-0.004205608
-0.03717953
-0.019347345
0.009385444
-0.013126112
0.012668431
0.00925217
0.041254908
0.04285763
-0.038170356
-0.041566763
-0.028928872
0.03376052
-0.00076446205
-0.034341406
0.04232597
-0.008248265
-0.015173955
-0.034999914
-0.014884467
-0.03607668
-0.005843686
-0.006295553
-0.022571499
0.017114125
-0.017705
0.021233572
0.022406409
-0.0367901
0.016394863
0.02431525
-0.022206424
0.041326385
0.02848224
-0.011998893
-0.038474772
0.029194305
0.02201605
0.009099924
-0.018339679
0.03866667
-0.014006822
-0.039741203
-0.0136108715
-0.01073568
-0.0126402825
-0.00041869108
-0.0075617647
-0.023256738
-0.019347865
-0.014031092
0.027508825
-0.010421836
0.0024030982
0.03951747
0.027768929
-0.03204298
0.007345134
-0.0075683366
-0.004869203
0.012657366
0.025205864
-0.019087113
0.032208975
-0.0047511305
0.006063295
-0.0206652
-0.019100973
-0.037749927
-0.0062815547
0.0012774079
-0.037146263
-0.026696192
0.019925436
-0.022783138
0.0067086574
-0.017750667
-0.016096836
-0.008004073
0.014541015
-0.033038355
0.029945176
-0.019280871
0.042413585
0.004767556
-0.03423703
0.032646995
-0.01216054
-0.022992438
-0.046864368
-0.0028448533
-0.030383242
0.019699512
0.016117224
-0.016430743
0.010839713
-0.016523682
-0.01457614
0.0004213696
-0.03712879
0.020871941
0.015428936
-0.034815
0.04323524
-0.022756707
0.01485499
-0.028499642
-0.004893132
0.031366598
-0.018425144
-0.02240348
-0.0035305286
0.003928045
-0.0100924885
-0.014379876
-0.036503196
-0.017898392
0.0075855753
0.026264863
0.042632096
0.03184075
0.029449567
-0.011772547
0.0073939036
-0.014680673
0.013480111
-0.037663225
0.033064656
0.003911919
-0.035672683
0.035789993
-0.011726384
-0.014270748
-0.009152488
-0.011083286
0.03659426
0.035846237
-0.024888212
-0.013213419
0.032886587
-0.044733733
0.0044815266
0.0010414164
-0.04088264
0.034833398
0.039096326
0.015009453
-0.024401836
-0.022713333
-0.013744018
-0.0022308861
-0.014826047
0.0029099516
0.035171624
0.025525616
0.036448486
0.03407722
-0.011339558
0.028718082
0.010492241
-0.028444808
-0.018897448
0.025038697
0.012144416
-0.03501872
0.031349722
-0.013522042
-0.034036152
-0.041708466
-0.045744408
0.03840167
0.018764915
0.025796669
-0.031883724
-0.026815683
-0.015604559
0.017024303
-0.006005304
0.03364918
0.0026271984
-0.014924136
-0.012575641
-0.026684223
0.03172674
0.039600473
0.02278137
0.032019354
0.025518551
-0.039557844
-0.018220834
-0.022943005
-0.018357195
0.00028749785
0.036762074
0.028521795
-0.035235066
0.0312611
0.008263385
0.016789902
-0.031535394
-0.034731206
-0.007862301
0.029069193
-0.015029973
-0.015327326
0.034526628
-0.0326971
0.008947592
-0.021806262
0.020895284
-0.032955397
0.03538312
0.042628463
0.039141312
-0.012759795
0.023899361
-0.004330399
0.0248686
0.017677989
-0.009289776
0.0010594745
-0.020103935
0.039204367
-0.004306695
0.0026240502
-0.026182188
-0.0050945203
-0.009696822
-0.0038428407
-0.009414983
0.018488824
-0.016147742
-0.0126837995
0.007799999
-0.020713905
0.025965251
-0.0057498817
0.0023046716
-0.03950393
-0.031108445
-0.022692636
-0.038081203
-0.035159223
0.018293878
-0.037582114
-0.023210526
-0.02587966
-0.01746634
0.036536347
-0.026485678
0.011234542
-0.023288514
-0.030371059
-0.032657858
0.01864665
0.014782396
-0.017759826
-0.020615587
-0.0043605524
0.02474919
0.027415862
-0.023213124
0.03332486
-0.029184414
0.007585066
-0.04012006
0.032438625
0.017018365
0.004192813
-0.017064635
-0.000463108
0.012196686
-0.020697283
-0.010229243
-0.008077889
-0.023350626
-0.012118821
-0.038387578
-0.0067676757
-0.036300857
0.029058168
-0.042255662
0.016778538
0.02041541
0.014023651
0.025965165
-0.0003919184
0.00482028
-0.021471249
-0.018352833
0.027040912
0.020787224
0.012874113
-0.021123659
0.030041127
-0.020219527
0.013141041
-0.024322413
-0.0037458572
0.03421553
-0.0042952397
-0.024627838
0.0040150583
0.008023425
-0.0359381
-0.01667823
0.03908016
-0.037452195
0.024521329
-0.015389114
0.028816024
0.043408845
0.04020882
-0.019701479
-0.036481623
0.027512057
0.016266322
-0.012249909
0.029761262
-0.011030755
-0.00022364166
-0.0056606284
0.021081867
-0.0016062687
-0.030172773
0.037118644
0.011394034
0.040842712
-0.021347372
0.0029805794
0.012275886
-0.022319267
0.009839122
0.019981204
0.012196538
-0.014726894
-0.032970402
0.03581609
0.024773965
-0.040505826
0.021862732
0.017097127
-0.021721039
-0.0060526505
0.0018157286
-0.0024544762
0.0019713165
-0.02134667
0.026598236
0.014230822
-0.015504303
-0.01692681
0.023675589
-0.045275338
0.028939249
-0.017739143
0.02643196
-0.034803994
-0.01738054
-0.018380396
0.041525424
-0.02334272
7.4153473e-07
-0.013316658
-0.034288865
0.019004736
0.035530407
0.028287457
0.031184545
-0.0017787514
-0.017859686
0.015060263
-0.010820009
0.0068779113
-0.016311675
0.027874675
0.0019283779
0.01301841
0.025921324
-0.006826691
0.030908763
-0.029564051
0.031038053
0.004732713
-0.027399579
-0.002373287
-0.02486767
0.02006603
-0.000756621
0.021231545
-0.035266608
0.010988912
0.0038691093
-0.032279775
0.012138922
