0.039474215
0.037249785
-0.057541076
-0.049749505
-0.0049399645
-0.0136734685
0.041375805
-0.04410879
0.027159045
-0.00933512
-0.001040958
0.028390355
-0.014474008
0.027253432
-0.04573444
-0.029694539
0.025689041
-0.019993527
0.03660345
-0.0018488495
0.0264628
-0.0077485763
-0.03905814
0.008746303
-0.04343812
-0.04046911
0.042995125
-0.035136692
0.012891721
0.023997914
-0.011916083
0.027417589
-0.05677707
0.046985604
0.057422705
-0.04883351
-0.026248727
-0.007689225
0.0020578043
0.05239
0.0037655742
0.024276854
0.05883336
-0.034409344
-0.056255512
0.058241855
0.03224112
-0.06351895
0.011274373
-0.049136776
-0.0042891004
0.04395195
-0.043601546
-0.018390538
0.036489718
0.031439524
-0.014151757
0.030763965
-0.04943166
0.06045234
-0.031256314
-0.051833797
0.01676188
0.042162664
0.03534569
-0.021488888
0.050275832
-0.042889092
-0.031946726
0.00636672
0.060124304
-0.059484508
-0.054769136
0.039693985
0.031784624
0.023089275
0.0045499066
-0.029349994
0.016300349
0.015764534
-0.04342014
-0.0559797
-0.046490654
0.031111147
-0.025168044
0.010055621
0.059839554
-0.044191435
-0.04458177
-0.031121016
-0.0026690566
-0.026867062
-0.056746334
0.033902083
0.016462503
-0.033926804
-0.035585325
0.01309718
-0.009584655
0.049020264
-0.036173485
-0.02876117
-0.03809245
0.012481314
-0.020787068
0.01977155
-0.055649288
0.0611437
0.029089624
-0.011501153
0.009479083
0.008868174
-0.01088861
-0.036223195
0.048110317
0.019096078
-0.0050768526
0.0019306007
-0.05524744
-0.0444997
-0.0026913015
-0.013645728
0.020156978
0.013077599
0.034105927
0.040116813
-0.021931533
-0.015967125
-0.04609768
0.04571392
0.036222577
0.0007089565
0.056670934
0.037421457
-0.016434157
-0.0016668891
0.034388192
0.0066908156
-0.006306751
-0.039255828
0.009138635
0.011216518
-0.015506833
0.022833262
-0.010668596
-0.04682257
0.032172766
0.045418654
0.01608274
0.046453122
-0.05156747
-0.046894584
-0.0008093364
-0.034550488
-0.043571223
0.04222402
0.014785237
-0.01830983
-0.040510014
-0.0246102
0.00966641
0.02968885
0.033067778
-0.02740095
0.0026808043
-0.002086979
-0.03312581
-0.009216332
0.014353621
-0.0034340383
-0.042581685
-0.016116682
0.027705073
-0.010734995
0.0022072373
0.046746716
0.029373055
-0.038389426
-0.02335316
0.022730617
0.050312288
-0.04290122
0.025978046
0.058203883
-0.027255468
0.04938837
0.036767874
-0.044324942
-0.008118676
0.03859171
0.015059322
0.03189373
0.023434237
0.030704984
-0.05538687
-0.014412845
-0.016838804
0.055429187
0.029278683
0.031643827
-0.022569958
-0.014661631
-0.012306217
0.030438207
-0.01431366
0.006236159
-0.00019049863
-0.018216942
-0.015558775
-0.04453956
0.011551446
-0.015449375
0.060009535
-0.037273668
0.013353294
-0.006136337
0.023616435
-0.048401788
0.054590687
0.026188413
-0.004739352
0.02545727
-0.05796919
-0.007066469
-0.014655626
0.026742036
0.011514747
0.038669918
-0.024536027
0.0024795462
-0.035587333
-0.04383601
0.023228945
0.024722751
0.03736152
0.02842133
0.02345627
-0.04471797
0.0018506348
-0.039751094
-0.0541672
-0.032584876
-0.010250473
0.016944336
-0.005553392
-0.027010469
-0.022985425
-0.0034992364
0.028497458
-0.044738382
-0.023891343
0.0012240753
0.023017488
0.02189693
-0.03461483
0.008775682
0.059417803
-0.0018213087
-0.048031252
-0.008413797
0.023955544
0.03241423
-0.03216855
0.034112018
-0.05567027
-0.03398527
0.055362444
0.027758656
0.009647643
0.06049555
-0.008372072
0.0434799
-0.048291065
0.017386666
-0.024992319
0.050579537
-0.03441507
0.0029057073
0.008115024
-0.044556316
7.080708e-05
0.011959911
0.056548987
0.04885751
0.026504548
0.038965836
0.042460054
0.05467445
-0.029310474
0.033591654
-0.0012173704
0.023813864
0.012312744
-0.015809251
-0.056861244
0.043699794
-0.00029313195
-0.033294644
0.046319045
-0.0034751592
0.027392006
-0.02513303
-0.05295285
0.0053481273
-0.015347268
-0.02725666
-0.00531785
0.034265324
0.02831448
0.021254066
-0.02734193
-0.035957694
0.041832976
-0.045003936
0.009474902
0.0061024874
0.026484828
0.024729569
0.0009434647
-0.030246912
0.011030269
-0.012929913
0.049821217
-0.016800396
0.013344074
-0.04445655
0.030989429
-0.0025029667
-0.06123328
-0.02518037
-0.045317333
-0.023722172
0.047837634
-0.0059995065
-0.0017136859
0.038731527
-0.04228313
-0.024733631
-0.030085338
0.0027586455
0.003940424
0.033249795
-0.00050890906
-0.058155555
-0.039449237
-0.0036752764
0.03573871
0.0013259129
-0.02963906
-0.06366945
0.028903354
-0.0012410845
0.04047336
0.011534496
-0.0754418
-0.012085132
0.0099505605
-0.052920617
0.026651502
-0.021329433
-0.0067921295
-0.010724088
0.0035973229
0.012703907
-0.02064301
0.053192914
0.027513018
0.053208727
0.03913992
0.037619323
-0.035566095
-0.008442215
0.033458155
-0.011519003
-0.019440899
-0.01088611
-0.03946898
0.04521707
0.005500603
-0.0338446
0.008977944
0.02359853
-0.046021402
-0.0049051093
-0.008240391
-0.0077140876
0.061118606
0.032686733
0.053882115
-0.040893547
0.04115979
0.0075615314
-0.040942915
0.034484524
-0.009192779
0.04972488
-0.020923536
0.060323704
-0.04844531
0.060204733
0.06205337
-0.043703075
0.025349887
0.010098909
-0.0020476216
0.0068796035
-0.05002232
1.1162244e-05
0.0049910103
-0.00061448175
-0.05146858
0.03604505
-0.03550317
-0.03821253
0.0073502013
-0.034818552
-0.056280207
-0.03700042
-0.045522537
-0.030425515
0.018298082
0.061160803
0.032181922
0.007361448
0.05575621
0.028633352
0.051471863
-0.050317537
0.0519291
0.046476904
0.04947893
0.057357453
0.025525594
-0.050533175
0.045266047
-0.027857142
-0.060438447
-0.025500838
0.042231504
-0.05934032
-0.055123206
0.040550854
0.02358242
0.0126254065
-0.032013435
-0.003665709
-0.0053668167
0.042115737
-0.051896386
-0.013652209
0.025296206
0.013834455
-0.051763136
-0.02049661
-0.05719525
-0.02302113
-0.0323776
0.007744934
0.005041055
-0.043496966
0.011971689
0.025952086
-0.010923161
0.03685593
0.045860257
-0.0040814015
0.013250591
-0.009860106
-0.0071947463
-0.047928184
0.03939651
-0.006090565
-0.033761643
0.0028741688
-0.04282798
-0.030805357
0.032726258
0.034218624
0.038514476
-0.04571094
0.05822092
0.053743895
0.04223014
-0.008242013
0.026360642
-0.009086346
0.039514095
0.04685103
-0.009645716
-0.042632442
-0.051248644
-0.029323641
0.06627837
-0.025462829
-0.00852326
-0.014979749
0.005132557
0.039322175
0.04563822
0.040510044
0.0026584745
0.060033787
0.026929101
-0.027288841
-0.025600746
-0.0073294826
0.010851169
-0.026984679
0.020849084
-0.03165375
-0.013570582
-0.040307205
-0.027407654
0.053702775
-0.01583607
0.015573808
0.043701403
0.05249166
0.014744078
0.035042908
-0.03679357
-0.04092187
0.03737266
-0.032531742
-0.014002727
0.011864757
-0.044984248
-0.041468855
0.021363469
-0.020137288
-0.021485634
0.020736752
-0.055324633
-0.019570323
0.019033018
0.04605522
-0.06068074
0.024137557
0.006195761
0.04920745
-0.0332482
0.058247883
-0.031867426
-0.031814035
-0.038039897
0.009763064
0.024004001
0.060183387
-0.024833336
-0.024039268
0.051216714
-0.068502314
-0.008619871
-0.0100589385
0.036819965
-0.021574954
0.049347166
0.030864285
0.042514578
-0.00885998
-0.024428062
0.035338707
0.014251353
-0.0021140764
0.0438014
0.043296695
-0.034324594
0.05404173
-0.027618784
-0.008627888
-0.0012110937
0.02877161
-0.047900975
0.011814537
0.040514324
0.041221835
-0.010189062
0.007162716
-0.0044977954
0.049247142
-0.030873464
-0.05232001
0.014531268
-0.0061053373
-0.0525398
-0.026211794
-0.028875854
-0.060211718
-0.0010957305
0.015050505
-0.011379417
-0.00027914802
-0.008797712
-0.04971201
0.039851345
0.047496174
-0.05031288
0.0016967047
0.018127153
-0.051822837
-0.05267188
-0.023259582
0.026240198
0.026454888
-0.030884307
-0.0019005514
-0.042569507
0.043298468
-0.022510862
0.060715783
0.04525472
0.0047560614
0.0021566716
-0.010262281
0.05899736
-0.020177871
-0.02015641
-0.008719576
0.052922174
0.008711201
-0.04011808
0.05105374
0.05069346
-0.030355753
0.016118301
-0.009250116
-0.053235207
0.016075505
0.014069356
0.008299852
-0.030858012
-0.006460271
-0.005012954
0.030920086
-0.037761305
-0.03171767
0.060323745
-0.023230204
0.060896974
-0.02035368
0.04154678
0.025111893
-0.036432322
0.010412071
-0.010296398
-0.0153397
0.036376633
-0.028279582
0.001021807
-0.008784674
-0.015038651
-0.0038471322
-0.023295224
0.03464101
0.041273847
-0.013112392
0.050849315
-0.011973472
-0.0057293335
-0.05592864
-0.014954215
0.0065792874
0.032174308
-0.057020508
-0.045477718
-0.0048000137
-0.022563573
0.019567968
-0.0007786697
-0.0027201718
-0.05321351
0.030499874
0.028135674
-0.02050094
0.014076397
0.028818525
-0.02326298
-0.025807267
0.040801402
-0.010136075
0.03859547
0.050372932
0.04125868
0.01694352
0.0025809444
0.0037682953
0.048399508
0.017539822
0.025023647
-0.013350656
0.034877762
-0.0070305383
-0.01499061
0.059605114
-0.034190975
-0.024259789
0.054624043
-0.017942322
-0.040386118
0.04048346
0.05188282
0.0038388232
0.06316391
-0.0013215914
0.027102318
0.06026581
0.031085141
0.0061231395
0.03937913
-0.032507423
-0.007964745
0.023691427
0.005247157
0.020311544
0.03809498
-0.019879771
0.040092524
-0.00067264127
-0.051882915
-0.0027751944
-0.009232486
-0.03923605
-0.039880548
0.049268343
-0.009680871
-0.036082588
-0.05337928
0.032469355
0.028257446
-0.015593982
-0.049555533
-0.05934578
0.0012930395
0.019738482
-0.02267705
0.045836575
0.015540847
0.022231188
0.04757002
-0.039890174
0.003916546
-0.031134607
0.057221007
-0.003509658
0.04255051
-0.00093340053
-0.051876884
-0.024944697
0.0060258983
-0.07314037
0.040614177
-0.014425999
-0.030870711
-0.049078904
0.035283163
0.011168263
-0.03770992
-0.006913999
-0.050258383
0.026880687
0.005182421
0.007761425
0.0032507754
0.043263894
0.018793123
0.039727267
0.00016899647
0.02516013
-0.037464306
-0.03901891
0.02554569
-0.03464403
0.023169592
0.010670692
0.002145403
-0.0043009087
-0.0031620057
-0.0400837
-0.040856365
0.05419802
0.028547056
0.015613095
-0.04389706
0.008509967
-0.065319166
-0.029782178
0.0016127427
0.04652883
0.049574405
-0.0577044
-0.032623466
-0.029026907
0.025193334
-0.059696015
0.04904434
-0.026559945
-0.056042783
0.04149076
0.0152991265
0.00036904094
0.06466619
0.015552696
0.018186178
0.025320828
0.00846256
-0.0111371
0.0503609
0.010834663
0.044076223
-0.024413288
-0.00758637
-0.028385047
-0.05364212
-0.016784856
-0.040057562
-0.05162363
-0.013181326
0.044889495
-0.03718414
0.011371335
0.0033872498
-0.03360704
-0.011413812
-0.041011665
-0.05947
-0.051562227
-0.03261827
-0.033697
-0.010313949
-0.01328046
-0.047972366
-0.0011933678
-0.016195564
0.016102958
0.05048454
0.035997868
0.006456935
0.006145972
-0.04749637
-0.020816917
0.057175126
-0.012936966
0.036587268
0.028874472
-0.05025989
0.017924314
-0.05140779
-0.007498844
-0.046338428
-0.040032916
-0.012070478
0.0069785924
-0.04388614
0.0030054082
0.0050537693
0.06100938
-0.054031763
-0.043952513
0.058331497
-0.03720739
0.026883421
-0.022546671
-0.03222272
-0.008494086
-0.051649433
0.011027146
-0.038824055
0.026077358
0.032222293
-0.021951811
0.010149506
0.03696645
-0.009076787
-0.03893169
0.023556618
0.048589416
-0.01917819
0.018172886
-0.016097207
-0.033110145
0.02032038
0.017822787
-0.011272752
-0.014485955
-0.030532768
-0.04527222
0.045235585
0.008810879
0.03759454
0.047746602
-0.035213817
0.034846824
0.034740947
0.014031533
-0.01175733
0.05779517
-0.03585256
0.052731637
-0.005263434
0.0016866168
0.04331114
-0.022426693
-0.046392847
-0.04573229
0.040545557
-0.03556505
-0.029768908
0.04085071
-0.025648393
0.024100937
-0.020696795
-0.012691266
-0.04798796
0.015298818
0.039298423
-0.046295766
0.013106832
0.021377007
0.04666836
0.022034962
-0.00082876085
-0.0366052
-0.023355147
-0.008843631
0.022831127
0.00944155
-0.030830156
-0.06459884
-0.028058788
0.041901655
-0.06581855
-0.03783241
-0.008189171
0.026012657
-0.0050882697
-0.039067153
0.01851663
-0.015723744
0.023150686
0.027081685
0.037211433
0.053252965
-0.026434675
0.053510316
0.045928184
0.020768505
0.015542185
0.0092024915
-0.019114746
0.024674278
0.041817993
0.02941235
0.054592956
0.026794601
-0.04383713
0.04145514
0.017912863
-0.013674135
-0.0506159
-0.030243913
-0.045770783
-0.031117424
-0.030591117
-0.027448358
-0.042581934
0.002218813
0.039801423
-0.04720721
0.00648253
0.010231604
-0.013284715
-0.02149352
0.02674412
0.020209173
0.0063016973
-0.03367827
0.011765455
-4.6855494e-05
0.023084689
0.061655805
0.04720183
-0.050268613
0.0076762433
-0.05067075
-0.037201524
-0.052549712
0.034634735
-0.037467677
-0.046828914
-0.0052811177
-0.04629068
0.0027456784
0.004298416
0.00031739692
-0.044913758
0.001850713
0.017381525
0.03188345
-0.010559748
-0.022528403
-0.033900812
-0.04302779
0.023872139
-0.014081633
-0.020507168
0.014432528
-0.045122646
0.0089031365
0.021809142
-0.0016196482
0.01184832
0.030855104
-0.05378481
0.05763527
-0.030368779
-0.022106186
0.063090995
-0.027777748
0.057702336
-0.03618861
-0.03931124
0.042073093
0.023664458
0.06447659
0.029179193
-0.0465741
0.036062285
-0.016163087
-0.022194782
0.03850457
0.023883272
0.01893753
-0.061248437
-0.013977841
-0.020265797
0.05335014
0.0028851074
0.007704856
-0.002901381
-0.061389714
-0.0071352567
-0.028582295
-0.025322437
-0.04519619
-0.051078606
0.021421745
0.04644699
0.025351902
-0.056107316
-0.0069981054
-0.026970964
0.0048653455
-0.009691795
-0.016167615
-0.051800705
-0.02409015
-0.014507056
0.029900374
-0.03969595
0.009041559
-0.015467713
0.042085726
-0.029898955
-0.009449315
-0.05356183
-0.040364355
-0.004657994
-0.017364107
0.060731437
0.048977196
-0.022798497
0.006519108
-0.05233827
-0.010917266
-0.050198972
-0.025173832
0.011678691
-0.0069875447
0.05432067
0.010404414
-0.04890059
0.041269924
-0.036418684
0.021391092
-0.04468957
0.011525596
-0.03264683
0.019279294
0.057848565
-0.00027525032
0.059416138
-0.03352924
-0.047347367
0.03127169
-0.039191388
-0.027619407
0.06788391
0.010789174
-0.03477297
-0.054999296
0.042363547
0.040731892
0.0061308895
-0.011215729
-0.03248356
0.04663999
0.006199265
-0.0052367477
0.02255435
-0.008773595
0.046448655
0.0037758953
0.008783613
0.00601261
0.013913026
0.04636847
-0.04254346
0.031918876
0.017353838
0.030242952
0.043824818
0.024891455
-0.04970351
-0.035296932
0.0053453906
-0.046103086
-0.014710448
0.012140218
-0.0017102006
-0.027254067
-0.026364304
0.04110159
-0.036444217
0.024683729
0.009843311
0.022827102
-0.03773912
0.0066126473
0.017451694
-0.039860375
-0.0041681975
-0.049771514
-0.031702258
0.04394756
-0.011464568
0.036111098
0.04811109
-0.0036958433
0.03469018
0.03375045
-0.042459212
0.021993417
0.045095075
0.027652856
0.024255963
-0.04960235
0.0120349
-0.031442255
-0.020969803
0.03147071
-0.022989234
-0.02185265
0.000113376664
0.0063855867
-0.012842337
-0.020390892
0.006969628
0.058063786
-0.029313272
-0.04618026
0.02134253
0.025291173
-0.04550997
-0.00687768
-0.049510542
0.04348164
-0.051602308
0.035993207
-0.03769806
0.012238589
0.046367917
-0.0032846113
-0.035588242
-0.03396003
0.010812764
-0.04855598
0.02337082
0.043237872
0.026233453
-0.01427052
-0.013628
-0.026109615
0.02454619
0.029835643
-0.0039985413
0.06673368
-0.037383493
-0.027466258
-0.015140901
-0.051094044
-0.028744927
0.0131042795
-0.039811447
-0.029870182
-0.019994117
0.0015973513
0.0047704387
-0.01704845
0.04387376
-0.03572724
-0.015573194
-0.028517498
-0.050902303
-0.052940376
0.065333255
-0.04385734
-0.0016749938
-0.008866305
-0.023986738
-0.032131203
0.04004598
0.022418361
0.031381596
0.006318269
0.0022416161
-0.034831326
-0.02200953
0.030425088
-0.011994028
-0.0075721038
0.004734924
-0.014714277
0.021353932
0.05562646
0.0257051
0.014689169
-0.014540651
-0.03367392
0.048068896
-0.03731846
-0.06341216
0.021310642
0.002292366
0.016343879
0.00081897195
0.005479892
-0.023186613
0.022679219
-0.046728678
-0.07034972
-0.04146572
0.018427
0.024765711
-0.026735857
-0.03892246
-0.0132203465
-0.03366869
-0.047272906
-0.0577168
0.014623186
-0.0010186594
-0.0026092813
0.029537564
0.048518136
-0.059891477
0.052538406
0.011810338
0.022491984
0.010668969
-0.025881197
-0.046873033
-0.008523548
0.04876701
0.0025263154
-0.016180014
0.02568478
-0.0117550595
0.06506191
0.048128255
0.068244085
-0.016464993
-0.0050625466
0.022337673
0.035509955
-0.050492946
-0.0050050337
-0.014947054
0.06492373
-0.032997265
0.047232304
0.06450391
-0.05545521
0.046575997
0.048900887
-0.014451684
-0.028617706
-0.00021340446
0.0058376123
-0.03574038
0.0043146187
-0.06445256
0.053524867
-0.030153228
-0.04578714
0.006876669
0.043956917
-0.018475624
0.073522456
-0.019020995
-0.06760116
-0.036660258
-0.00070579647
-0.010919014
-0.0047633965
-0.040953808
0.024455873
0.028594833
-0.024145974
-0.014984118
-0.051027726
0.040395927
-0.020271564
0.04960831
0.0054005166
0.055779368
0.033935033
0.020144584
0.0062631033
0.047243673
-0.02766915
-0.0149667775
-0.00827106
-0.029614488
-0.028372284
0.02785872
-0.0059875594
-0.02049263
0.0074426387
0.01737946
0.029356832
0.053489573
0.05281595
0.059021946
0.0023845567
0.05213041
-0.03570399
0.03599862
0.046915893
0.028856324
0.0026344052
-0.028575338
0.022395212
-0.006830941
0.04262256
-0.033998698
0.017158391
-0.04545839
-0.06851668
-0.046944655
0.051352173
-0.043807063
0.03483635
0.0045614894
-0.018431833
0.024439849
-0.02426826
0.042177834
0.058341976
0.044117775
-0.008405481
0.0005364689
0.028915837
0.040491436
-0.054254342
-0.049145926
-0.027471114
0.017503355
-0.006316807
-0.01867761
-0.02062884
0.034273818
-0.02086596
0.024108125
0.012773335
-0.018410014
0.013925942
0.03642606
0.046631612
-0.027322266
-0.020748839
-0.023694616
-0.030007172
0.018281886
-0.03310566
0.03904454
-0.033087004
0.008048805
0.038691476
-0.01665297
-0.033099763
0.058455367
-0.02345297
-0.025036147
0.05715438
-0.0246585
0.002360619
-0.012085829
-0.023458857
-0.020355245
-0.0031348325
-0.024019087
-0.03450248
0.05427139
-0.010508472
-0.031157685
-0.030325525
0.022472043
0.035652224
0.058072448
-0.0423797
-0.06947194
-0.04127095
-0.004906534
0.033338353
0.050390337
-0.06471181
0.0025782085
0.008143036
-0.029029325
0.0019967707
-0.004470467
0.055208832
-0.035692126
-0.01266613
0.06466143
-0.025828011
0.058466274
-0.0022040107
0.016837554
-0.03948289
-0.02721255
0.029545072
-0.0147782145
0.0283849
-0.0611372
-0.00500314
-0.018726682
0.0020375745
0.00653386
-0.0064021307
-0.038950596
0.044845577
0.07098152
0.043512486
0.01912033
-0.033704374
-0.014445082
0.044732265
0.021560384
-0.053004205
0.037750937
0.02663715
-0.05511884
-0.046008773
0.038475182
-0.014490758
0.035307925
-0.010734229
-0.032213878
-0.053477656
0.029049823
0.023468807
-0.037197303
0.009446814
-0.022113055
0.013038715
-0.055432934
-0.055664092
0.04582532
0.03492546
-0.017798387
0.00018448534
0.0052424385
-0.044582456
0.024008565
-0.0005063444
-0.053192228
0.04355348
0.0031900522
0.020614121
0.026558032
-0.014123661
-0.031480215
0.013071855
-0.028320663
0.04686816
0.015359385
-0.040139347
-0.026484003
0.04491326
-0.026752377
-0.026753206
-0.026418455
-0.051535882
0.03445674
-0.055127602
0.016564999
0.03808091
0.015342666
0.0068915756
0.040010482
-0.01176627
-0.049655605
-0.0051735486
0.004484552
-0.0037037735
-0.04231015
0.015582598
-0.029526912
0.027637992
-0.029208565
0.0050683054
0.05572731
0.040451407
0.0006316868
0.0042447527
0.039639648
0.04523947
0.02464564
-0.049971394
0.040372334
-0.052565098
-0.050814945
-0.005366746
-0.041199706
-0.03087378
-0.022709033
-0.03351778
0.06426645
-0.041931923
0.049465526
0.0024640146
-0.035309117
0.017006611
-0.028765405
-0.016637735
-0.007892496
0.020582542
-0.01819367
-0.047056068
0.045015257
-0.044015944
-0.03719538
0.04783654
-0.047768112
0.019928545
0.0408902
-0.033994514
0.0049897726
-0.05491506
-0.018291606
-0.03574278
0.025857754
0.034796454
-0.039584972
0.052856326
-0.015334912
0.03318809
0.028085994
-0.04169053
0.033401813
-0.01616816
0.034655627
0.05563302
0.04857146
0.06170739
0.030345617
-0.026839048
-0.014992126
0.0070929425
-0.028880881
-0.046140075
0.042088047
0.010954059
0.05229516
0.0540179
-0.007646455
-0.03278993
-0.040456228
-0.0325031
0.024327453
0.008894183
-0.009852924
-0.02981682
0.0047363034
0.043442804
-0.03853663
0.004875047
-0.0050498727
-0.018322736
-0.041166447
-0.0373971
-0.02719097
-0.049387015
-0.043715853
0.0019157502
0.040411018
-0.04633505
-0.053119287
0.019109534
0.045584604
0.044958796
0.03719041
0.02403921
0.0034633547
0.020391194
0.017890597
0.0044593383
0.014183255
-0.0645837
0.018927153
-0.006859256
0.061335947
-0.005803707
-0.001337051
-0.0038914715
0.010381319
-0.0053958944
0.0369682
0.04964459
0.0022272808
0.044833004
0.018395303
-0.014266127
0.009041828
0.05561992
0.036732003
-0.007275749
-0.00934763
-0.014672029
-0.034625158
-0.02423521
-0.043398134
0.020535327
-0.0012905573
-0.018456893
0.044804677
-0.049387697
0.026096722
-0.037418913
0.042929225
0.037034
-0.00013859414
0.036828905
0.030565878
0.03593555
0.04680775
-0.05199842
0.03331458
0.04740403
-0.047379717
0.05705854
-0.0056572785
0.03984622
-0.014255645
-0.044255596
-0.014412931
-0.046709355
-0.026531238
0.050528955
-0.050485756
-0.008453108
-0.0016947855
0.008419102
-0.029831184
-0.04412615
0.03101806
0.03451389
-0.0024869144
0.0014872534
-0.028121091
-0.056490492
0.024686327
-0.015786229
0.045321286
0.027963571
0.03463514
-0.03461685
-0.0022536416
0.0029641776
-0.0013366102
0.0057750917
0.022768222
-0.027198015
-0.030402048
0.031183759
0.006167947
-0.04298303
-0.03316058
0.018544678
0.004061602
0.01184232
-0.038683
-0.01452521
-0.07151774
0.0065858276
-0.00834982
0.004057797
0.031206848
-0.0033505694
0.034197588
0.021025922
-0.013406627
-0.027172804
-0.03106377
-0.01955832
-0.025074799
-0.0344474
0.010360551
-0.00293531
-0.0007241832
0.054664455
0.0631306
-0.0052500768
-0.026593948
-0.03990245
-0.014184675
0.040605243
0.037042305
-0.020852497
-0.010960066
0.021585573
0.038123567
0.036052752
0.026384424
-0.02561599
-0.05389503
0.053078737
-0.023841085
0.060860895
-0.013471373
-0.006528662
-0.029232861
0.042715207
0.024400834
0.020890681
-0.02521969
0.029081326
-0.058825858
-0.06265211
0.0097447615
0.0069224034
-0.03179234
0.025224458
0.040471047
-0.017805556
-0.0037251406
0.058560695
0.04152336
-0.035554945
0.037973568
-0.0027786307
-0.022476528
0.039177246
-0.030228632
-0.03995489
0.055918783
0.020979391
-0.011273599
0.02682603
0.00962314
0.020848297
-0.019783776
-0.0073341024
0.02824794
-0.04227607
-0.057210997
-0.011418689
0.05153927
0.048058864
-0.020890584
0.022081621
-0.020686978
-0.044596374
0.020248393
-0.041444503
0.048542235
-0.043053973
0.040415928
0.0280899
0.009551754
-0.053429842
-0.043177284
0.017765488
0.028666338
-0.025248488
0.0015488148
-0.011621264
-0.0021700265
0.0069072787
0.03380246
0.05380995
0.059939917
-0.013658434
-0.0034653244
-0.02525865
0.044756543
-0.045510262
0.009446128
0.021662032
-0.025145436
0.036981776
-0.045269947
-0.03193638
-0.026228616
0.0144954445
-0.05531263
-0.045534506
-0.01468652
0.029723445
-0.050459675
-0.01710423
-0.05703304
0.025618369
-0.047517233
0.019831588
-0.009790971
-0.010276341
0.03818921
-0.010546229
-0.015274236
0.05570664
-0.04583037
-0.023356058
0.01034682
0.023503749
-0.040122736
-0.017012294
-0.054400366
0.010769959
-0.022346592
-0.059872545
-0.028386287
0.04889387
-0.05020134
0.029386133
0.048599556
-0.05611221
-0.023883453
0.022572672
0.022176094
-0.016595377
-0.056062624
0.002534547
-0.045772664
-0.029229423
0.044325065
-0.061035745
0.035550456
-0.030828532
-0.004568155
0.009355428
0.02429001
0.04668897
0.010373457
-0.050980352
0.052607022
0.0317272
-0.019078868
0.036672898
-0.03381411
-0.022393186
0.014709472
-0.04213822
-0.018739404
-0.06307631
-0.032820724
0.048393704
-0.049290363
0.009045711
0.04033457
0.035312623
-0.02798503
-0.020021746
-0.020573467
0.0008423187
0.017034344
-0.033036746
-0.052011587
-0.028409183
0.036113843
-0.010882092
0.011658091
0.07399612
-0.0023618487
-0.02077318
-0.016484454
-0.04550287
0.011035144
0.031490564
0.009011544
-0.02914337
-0.038801212
-0.044079322
-0.009218419
0.023138369
0.042704534
0.033367224
-0.00040298133
-0.054402556
0.02985129
-0.00564266
-0.051344704
-0.022427414
0.041515067
-0.014615427
-0.06594377
0.03835277
0.040835235
-0.04950609
0.009224076
0.0018769528
-0.017482365
0.030411165
-0.036920257
0.0033820507
-0.0632898
0.019627482
0.039276425
0.018494807
0.023822706
-0.0490779
-0.0020486987
-0.033320677
0.017677767
-0.06818872
0.03988232
-0.036432914
-0.020532897
-0.029824978
0.023385743
-0.025886519
0.0253799
-0.016066527
-0.048698954
0.051128227
-0.021606611
0.05462496
0.02363164
0.046647552
-0.05408055
0.018980673
0.022628235
-0.037023675
-0.042265475
-0.00075163424
0.004259956
-0.012224309
0.024784695
0.018666532
-0.04244374
0.05408123
0.046981
-0.053710416
-0.008590011
-0.0060089175
-0.037038468
0.014756039
0.06575969
-0.02831253
0.0089787245
0.03372116
-0.021372441
0.020434115
-0.034358036
0.02074376
-0.007541922
0.027164297
-0.04597588
0.054475296
0.0034804551
0.027862264
0.031554602
-0.001996223
0.033752512
0.03165829
-0.003936656
-0.03326113
-0.0020880038
-0.025186103
-0.04407554
0.03832262
-0.02647373
-0.06011153
-0.03522141
-0.037486874
-0.03732112
-0.021358963
-0.020183891
0.042770553
-0.028721025
-0.054424703
-0.016842041
-0.0627092
-0.009035047
-0.0027589935
0.051099278
-0.042052828
-0.03185774
-0.018565377
-0.0048226956
-0.03869874
0.014477427
-0.052152216
0.019331586
-1.37779125e-05
-0.056720886
-0.0056295297
-0.03889431
0.002309829
0.016002137
0.035411067
-0.002399734
0.006447378
0.01113399
-0.052874133
-0.053588938
0.004142848
-0.05915097
0.02058733
-0.046441626
0.00403304
0.005179871
0.00793271
-0.002389068
0.030419504
0.04941616
0.019310633
0.022346392
0.043342393
-0.0016975501
0.05326677
-0.041978702
0.03520154
-0.0041716993
-0.032493595
-0.03911353
-0.008941418
-0.05030387
0.06012531
0.057803832
-0.058834914
-0.039638206
0.029685102
-0.0033215615
0.050893985
-0.0528785
0.014685224
-0.029648533
-0.037668828
-0.023531819
0.0515621
-0.0346852
0.017869603
0.05122286
0.024350584
0.05334286
0.047881067
0.038715936
0.024219133
-0.055514656
0.011673294
-0.025829164
0.019933516
-0.052548736
-0.012572178
0.0037389102
0.032688443
0.02994276
0.02820615
-0.036604773
0.055955403
-0.016195025
-0.051422086
0.023148984
0.023020536
7.620592e-05
0.03114951
-0.033134487
-0.006453045
0.035311352
0.0020488529
-0.04992328
-0.03690339
0.040258903
0.0052212127
-0.032367278
0.034755774
0.014058323
0.017375102
-0.0315144
-0.021568155
-0.0032611808
0.018990321
-0.025034329
0.023438562
0.03807424
-0.04796881
-0.0005723095
0.043888677
0.023477929
0.028872391
0.0053060255
0.04292289
0.048792627
-0.057754785
-0.007843314
0.030035203
-0.01990218
-0.062385626
0.039362818
-0.058132574
0.009897789
-0.0121289
0.0426321
-0.056639284
-0.01758337
0.0029427412
0.035449114
0.018468123
-0.025272613
-0.054876406
-0.03134109
0.036417127
-0.029705286
-0.022775473
0.021368725
-0.017751379
0.022631407
0.0057799146
0.0024096179
-0.031936932
0.044094495
-0.013457533
0.026116397
0.0010734114
-0.022867445
0.052465633
-0.029492225
-0.025892217
-0.022637358
0.05107946
0.005982677
0.034212366
0.025874844
-0.002620258
0.03819778
0.008565302
0.046896048
-0.040235452
-0.050966643
0.025174009
-0.065484025
-0.07318893
-0.015546393
-0.037525985
0.012277645
-0.023240875
-0.056749877
-0.05080581
0.018572934
0.030518187
0.019669488
0.010491164
0.034987163
0.059076842
0.008581836
5.0281433e-05
0.010068059
0.011913436
0.023932446
-0.035572488
-0.038304467
-0.027001992
0.02665975
0.008274233
0.026390007
0.021008004
0.05844305
-0.015371031
0.048068933
-0.0029138422
0.047994584
0.017710615
-0.033341415
-0.0013114805
-0.03660549
0.01289447
-0.012218023
-0.04278241
-0.025974864
-0.03673952
-0.017757472
-0.036795657
0.041255087
-0.04647659
-0.03126281
0.044648957
-0.041097436
-0.023997108
-0.0048858714
0.016948111
-0.0056493487
0.033269793
-4.3671396e-05
0.035204783
0.041232705
-0.02392268
0.005771753
0.0150140505
0.032500934
-0.053825203
0.0014542916
0.03496953
-0.029057462
0.0039003682
0.0026463966
-0.025577221
-0.032481983
0.041794267
-0.016236708
0.047560062
0.039714858
0.054224055
-0.046470776
-0.0049465955
0.0153447
0.039986614
-0.04464928
-0.034936175
0.020501142
0.02225438
0.017819118
-0.014867145
0.018241743
0.023116915
0.041660827
0.051681325
-0.02048969
0.011565248
-0.04319742
-0.04507882
0.031193461
-0.009765496
-0.04700359
0.06500482
-0.042940844
0.043975677
-0.034406926
-0.055821937
0.026802724
-0.02710137
0.04053928
0.011663627
-0.025298757
-0.026944866
0.008795016
-0.05519608
-0.038397916
-0.052104488
-0.025983896
-0.019760102
-0.02502743
-0.010311306
-0.019292412
-0.032682385
-0.058497284
-0.045276765
-0.0031974427
-0.037653282
-0.025416523
-0.032639608
0.045968093
0.01556676
-0.027883999
0.046738915
-0.016556326
-0.030198947
-0.044023402
-0.030980654
0.028771421
-0.033040248
-0.044095308
0.043041874
-0.00527604
0.0047891554
-0.040354952
0.0111831
-0.02563432
0.013424097
-0.039328292
0.01807378
0.00045048204
0.0006992348
0.041304644
-0.036218297
-0.036087755
0.044460732
-0.060987677
0.017187074
-0.039565355
-0.055895843
-0.020337984
0.046176575
0.030644616
0.054687157
-0.03708585
-0.04206162
0.021487359
-0.0749749
-0.044671226
0.024576984
0.0156143755
0.040814325
0.054791354
-0.026914308
-0.032230992
0.034978304
0.017231602
-0.004380202
-0.0018005888
0.051139664
-0.018915467
0.003017319
0.022080038
-0.027742289
0.026915062
-0.025220206
-0.04398766
-0.027213799
-0.038972575
0.03987759
-0.043971162
0.03808927
0.036413692
-0.03340191
-0.013473343
0.017394038
0.008338682
0.052587617
0.030865923
-0.017596724
-0.013228402
-0.028091388
-0.0036820623
-0.028893797
0.054385584
0.0009052823
-0.044475596
0.038201578
0.06181698
-0.020628482
0.016466562
-0.0038884291
0.011050176
0.017250633
0.0012237485
-0.010389943
-0.0071316813
-0.046375465
-0.060003363
-0.03354387
-0.014611927
-0.045911476
0.008154043
0.01349591
0.007915975
-0.02056285
-0.035539847
-0.028936075
0.052810088
0.044916425
-0.0195352
-0.017647566
0.03433677
0.050776564
-0.05981228
-0.0017305042
-0.0028235044
0.041645963
0.030976024
0.04031678
-0.044199098
-0.027322026
-0.04837152
0.0034814465
0.046523415
-0.016182441
0.037292786
0.049699202
-0.02304372
0.007340989
0.00013959278
0.033911284
0.055962674
-0.015967375
0.013550716
-0.0492696
-0.030975787
0.05484692
0.00938566
-0.07066466
0.0036849086
0.021988625
0.04757785
-0.047841523
-0.043824412
0.040913902
0.0051210476
0.01411251
0.038067054
-0.01227671
-0.008052187
-0.01527638
0.028377695
-0.06192942
0.014065984
-0.05477849
-0.013265629
-0.04600828
0.053041108
0.06179245
0.05227883
0.039788343
0.034319606
-0.056007095
-0.04328767
0.013342066
0.03231607
-0.055535384
0.04576757
0.033336595
-0.030889798
0.031763986
0.03707034
-0.014930345
0.039521474
0.011216914
0.024954354
0.042355604
-0.008369754
-0.02364005
0.01304379
-0.04617282
0.03554822
0.026600124
0.02980307
-0.0106464485
-0.018709196
0.043389015
0.018909391
-0.053886242
-0.003733243
-0.045357455
-0.064574346
0.045044437
0.0018532476
-0.014601012
-0.009132735
0.008248941
0.011661392
-0.0018640306
-0.0475458
-0.018103631
-0.057045635
-0.041771866
-0.02458471
0.02785555
-0.042855233
-0.008247263
0.064494096
-0.002580661
-0.007141585
0.028857043
-0.030095205
-0.04717767
0.008404478
0.013438829
-0.050145246
0.03968695
0.03501027
-0.010327119
-0.046762303
-0.018150287
-0.049653593
0.007958736
0.014578702
0.032114886
0.02639067
-0.05036639
-0.051174007
-0.0083016455
-0.021774372
0.026808953
-0.04088812
-0.023574471
0.061318267
-0.001444314
0.023665756
-0.0037987863
0.017033942
0.036867168
-0.05394848
0.048412062
0.037692204
0.0118955765
-0.016803509
0.063071616
0.004501216
0.05904838
0.048037674
0.021900503
-0.027293868
-0.021238487
0.05097312
0.040116686
0.013059361
-0.020136464
0.038681198
-0.04403282
-0.016577952
0.04759648
-0.03241785
0.018507035
0.05460533
-0.03975002
-0.053379115
-0.04658857
0.03909697
-0.02155711
0.025834149
-0.042239904
-0.022499105
0.036781795
-0.016146284
-0.029056286
-0.01641285
0.002789906
-0.037056968
-0.00031995814
0.022701683
-0.024476111
0.0050179316
-0.039571065
0.044623483
0.03098805
-0.025468122
0.0119130965
-0.0032854879
-0.0039501484
0.022140097
-0.023938378
0.03744701
-0.034426942
0.028920293
9.2672206e-05
0.009063377
0.04192318
0.0022683698
0.025178496
0.013261694
0.016950393
0.008971847
-0.030314248
0.012056491
0.057726722
0.055640332
0.041784838
-0.0040580747
-0.055461865
0.013060766
0.02610748
-0.0259554
-0.008676822
0.026389074
0.0463473
0.022163931
-0.05862608
0.011893459
-0.040715445
-0.04761925
-0.028207524
0.04895616
-0.02395958
0.0028360318
-0.05678482
-0.04516016
0.02533164
-0.006145873
-0.040187493
-0.05579297
-0.029150778
-0.021826027
-0.010677174
-0.0058619822
0.031241812
-0.014140035
-0.036174197
-0.05877509
0.05872119
0.046576887
0.0388006
0.01629286
0.0382643
-0.013428396
-0.0075775683
0.02414235
0.029329887
0.020951625
-0.009652712
0.045040574
0.036363248
-0.043592058
-0.016204908
-0.0029308046
-0.04906073
0.02576271
0.032812163
-0.060587738
-0.037454925
0.035640765
0.017700084
-0.0077717532
-0.022352029
-0.046270076
-0.003666604
-0.0058180154
0.0486857
0.06741416
-0.06270314
0.02990175
0.012975024
-0.051104974
0.051939104
0.06284257
-0.024180582
-0.0072846278
-0.040626828
0.076047234
0.0064949584
0.0431996
0.04742333
-0.036809288
-0.04040776
-0.026468746
0.047179878
-0.009589418
0.054363374
0.0023607216
-0.050861333
-0.020335456
-0.050002515
-0.058298845
-0.029344657
0.020801282
0.052484505
0.047067218
-0.033437405
-0.0067394515
-0.014528322
-0.028066838
0.0446329
-0.0054155337
0.033318225
0.035565812
-0.01713338
0.03267824
0.026905654
-0.018086828
0.040282473
-0.028427098
-0.0053202533
-0.0017064511
-0.039848763
0.011445631
-0.027450828
0.0074885814
-0.04057457
0.007332724
-0.02755206
0.00978856
0.01626593
-0.011033733
0.025806466
-0.020365927
0.024092067
0.042684138
0.010379504
-0.05089704
0.046718452
0.028799765
0.008845113
0.008424891
0.028460633
-0.007896621
0.035673242
0.018129487
0.04014699
0.0057126256
-0.053909734
-0.057384875
0.0024225519
-0.044231776
-0.045984235
0.00016303793
-0.0038546894
0.00999089
-0.04100908
-0.01434083
-0.0219
-0.026178526
-0.04290059
-0.057696458
-0.01825946
0.020503435
0.036886163
-0.028921919
-0.03329004
0.0016515673
-0.022638608
0.055356193
0.037061878
-0.036471553
0.03073528
0.03012232
-0.001371922
0.025364192
-0.0026201024
0.06259224
0.028906347
0.0014559075
-0.0023758884
-0.0006811762
-0.04105173
0.023211945
0.035739634
-0.01038073
-0.005266291
0.0034871274
0.047853317
-0.024360374
0.022493646
0.0024165185
0.007038159
-0.035987094
0.060510732
-0.015352606
0.016133253
-0.011768882
0.021705814
-0.015110084
0.007859641
-0.043800794
-0.015334168
-0.008448479
0.0329079
-0.06392966
0.0298765
-0.059569377
-0.025798911
0.024942627
0.04638017
0.016553199
-0.05118231
0.04636738
-0.0040374016
0.0003021621
0.026240392
0.037305295
-0.03419952
0.010291648
-0.036879845
-0.004286718
-0.037347328
-0.0017307395
-0.04500136
0.049020283
-0.026566375
0.06623785
-0.037726108
-0.023521965
0.046466157
-0.058535986
-0.0008377702
-0.00401439
0.04584252
0.031619374
-0.017262535
-0.05269715
-0.024145616
0.04956328
-0.051617503
0.020583378
0.042469744
0.034862377
0.0042040995
0.003783851
0.052753758
0.045634802
0.029898532
0.0061346567
-0.021744393
-0.0032248087
-0.009513969
-0.00229564
-0.009526289
-0.02054321
0.049138628
-0.048730806
-0.007094241
-0.0024321696
-0.047555577
-0.058338597
-0.04770529
-0.012874633
0.031884294
0.05215542
-0.017098695
-0.033871744
0.02787231
-0.05262703
-0.03934172
-0.026325999
-0.0049936143
-0.031355005
-0.010000185
-0.0013648771
-0.0057954346
-0.04276043
-0.06267303
-0.010305888
0.030831702
0.031140469
0.04577033
0.014594596
0.04076723
-0.017094027
-0.046892315
-0.020569116
-0.013799559
0.012203656
-0.011094973
-0.025662577
-0.02751166
-0.035680156
-0.03894997
0.037236642
0.012827307
0.018100537
-0.014586332
0.027283456
-0.0017533659
-0.038040746
-0.0056671477
-0.04989756
0.027199682
-0.058314096
0.039844166
-0.023390412
0.0016722163
0.001822694
0.03096058
0.020171361
0.038365584
0.015462255
-0.037543163
0.044547006
-0.037926003
-0.05064502
0.048538905
-0.017538602
-0.028644701
-0.0010129797
0.039436437
-0.0504283
7.455664e-05
-0.03627522
-0.00023076459
0.04040327
-0.043118317
-0.007355314
0.064737275
-0.06271737
0.024897097
0.0037190658
0.012029679
0.03550898
0.039027628
0.012050712
0.02666998
-0.06825462
0.023998111
0.012904273
-0.04765858
0.01859397
-0.01574804
-0.010027791
-0.047700994
-0.02503566
-0.035755724
0.04152246
-0.04870323
-0.027823625
-0.02810996
-0.050516713
0.027894862
-0.01738567
-0.0029617827
0.03408624
0.038248435
-0.011494519
-0.0527744
0.05442935
-0.005533316
0.035669744
0.00092301983
-0.0028828827
0.045251086
-0.02973713
0.043945853
-0.025998846
-0.044873767
0.057310056
-0.037772946
-0.05497676
-0.05361372
-0.058531243
-0.0044264323
0.04418811
0.00019163608
0.013231825
-0.051460017
-0.0075729904
0.042848874
0.016314596
-0.050498698
0.020899866
-0.029250171
-0.025833264
0.022703413
-0.048269164
-0.060282648
0.038042698
0.05940929
-0.055955455
0.02901017
-0.03971617
-0.030594273
-0.022978785
0.020393634
0.03438568
-0.04508935
0.05935992
0.026965655
-0.039260264
-0.041909184
-0.050477292
0.0013531819
-0.02327822
0.0130886305
0.0091699045
-0.016273646
-0.04162112
0.003526977
0.05065444
-0.008043734
-0.039947536
0.06008588
-0.03475225
0.045700215
0.032117654
0.056020826
-0.0057338057
0.04407442
-0.054423183
-0.008594776
-0.06092555
-0.02207185
0.045403592
-0.005390451
-0.038675405
-0.009968865
0.03668052
-0.031921558
0.06204996
0.045151476
-0.051852014
0.026004871
-0.053253446
-0.05200523
-0.049600955
0.019441944
0.022934675
0.019474505
0.052619115
0.05929918
-0.020375088
0.03755157
-0.031317193
-0.010373177
-0.002437759
0.016411878
0.050801236
-0.00218189
0.04113949
0.03436406
0.01908493
0.019637417
0.013240089
0.013139668
0.032409634
0.025935939
0.05506551
-0.011822685
0.04318853
0.020904964
0.0032905636
0.0031877428
0.003952311
-0.0022454192
-0.02273733
-0.0001534696
0.06406762
0.04417414
0.004801009
0.0036201987
0.049560588
0.049510367
-0.004992429
-0.028636776
0.03005407
-0.023922555
0.030748509
-0.007899957
-0.06276117
-0.025623485
-0.059037223
-0.020956565
-0.05302078
0.054445885
-0.042827383
-0.04423786
-0.003983065
-0.019080916
0.020314092
-0.016884519
-0.011836218
-0.05409917
0.051746752
0.018488703
-0.047485568
-0.0060140677
0.009476791
0.042953476
-0.024470285
0.0026696168
0.05270313
-0.017123977
-0.04201365
-0.020426806
-0.0072558103
-0.0011291117
-0.0058276434
0.042162187
-0.033069395
0.036793295
0.00047541285
0.0016453041
0.030490804
0.03247479
-0.03351917
-0.02160776
0.0704777
0.058907997
-0.048750874
0.029721662
-0.028227722
-0.035998818
-0.0555526
0.023130579
0.02415105
-0.024065992
0.033067618
-0.0026607923
0.049157508
-0.033907034
-0.028519863
-0.009772902
-0.023208847
0.044070747
0.03776551
0.023338605
0.03598226
0.05673798
0.052562907
-0.021608632
0.06121769
-0.038297996
-0.055863753
-0.019828767
0.042234585
0.020842072
-0.023064025
0.051033
-0.06824466
-0.008070153
0.02124537
-0.04406109
0.0023724472
0.02109597
0.0105432505
0.0001873955
0.046688452
0.0100671295
-0.05533469
0.004834029
-0.017637102
-0.0026180535
-0.036861673
-0.0485782
0.037447922
-0.059398662
0.019382939
0.04274604
0.043448728
0.044601616
-0.040886287
-0.048547916
-0.0040784995
-0.04549306
0.002063987
-0.02699525
0.047685493
0.018727904
-0.054286066
-0.038465336
-0.01412206
-0.006230447
-0.02206236
0.03678499
-0.043538116
-0.0058749807
-0.050962355
-0.025525253
0.033400904
-0.035291944
-0.05125998
0.03064569
-0.006052516
0.04942197
-0.0041318685
0.040246885
-0.053897817
0.013734133
-0.0025908898
-0.007423004
-0.036880333
0.044966314
-0.005773554
0.052443847
-0.047271375
0.051138774
0.047871087
-0.03956745
-0.009440428
0.046528853
-0.043366846
0.043246236
-0.054675885
-0.03520862
0.00033924778
-0.027106531
0.00037985208
-0.025002481
0.0032623673
-0.030357234
-0.07087188
-0.054558076
-0.016814576
-0.011286476
-0.005993589
-0.019876411
0.031114012
-0.0032505451
0.043348543
-0.045109507
0.008214156
-0.0070590656
-0.0031451175
0.020135248
-0.021831498
-0.055455193
-0.011438703
-0.046720427
0.052839074
-0.010494553
-0.031442326
-0.0049822265
0.021868756
-0.035881124
0.022159275
0.031139906
0.007897096
0.00011701401
-0.007336735
-0.05026757
-0.0006124919
-0.018574381
0.0040225596
-0.055025276
-0.03559547
-0.028367361
-0.0015914856
-0.014658544
-0.05518159
0.035665333
-0.03790209
-0.0013981933
0.03369547
-0.052026153
-0.018794257
-0.039302498
0.055333197
-0.028970774
0.04566496
-0.004078489
0.027146094
0.043402117
0.00090710394
0.023465734
-0.019337768
0.03669652
0.045248516
-0.026288936
0.019885825
-0.010377371
-0.039909497
-0.028704505
0.05717176
-0.032114215
-0.06451229
-0.007904238
0.025834115
0.016278872
-0.03155836
0.0500693
-0.042538844
0.050234113
0.03825273
-0.0020037645
-0.03369487
0.022160219
0.063565135
-0.032061778
-0.033332508
-0.019633587
0.044883493
-0.010197152
-0.05717535
0.022940898
0.0012049939
0.005427664
-0.03642735
-0.04634528
0.0101345945
-0.050655007
-0.03029746
0.0011096378
-0.019764245
0.027573392
0.053616192
0.05403459
-0.039308995
0.010640218
0.045813046
0.033840332
0.03169699
-0.03824084
0.022092072
0.04629359
-0.015976451
0.049797185
-0.010044168
0.052212562
0.032380737
-0.0567252
0.019336538
0.029591635
0.031449012
-0.014375876
0.015052029
-0.054672703
0.008232351
0.0275067
-0.049460422
-0.05058914
-0.05148044
-0.0027285763
0.008972372
-0.037648737
-0.06323437
0.05203967
-0.010240231
-0.031214347
-0.03420881
-0.0298075
0.058392853
0.04032661
-0.013696747
-0.017847866
-0.019718487
-0.04080378
0.032778386
-0.009549494
-0.0564
0.016778678
-0.0051253946
0.050734922
-0.045922644
-0.034107044
-0.0058993264
0.03823136
-0.01639379
0.016048832
-0.0100908475
0.05691814
0.004077226
-0.03143596
-0.033545285
0.04657801
0.04243337
0.011489143
0.05096649
-0.027819665
-0.009007321
-0.004954926
0.037506253
0.05946423
0.031194286
0.0030607386
-0.030410215
-0.024802122
-0.03344848
-0.025804937
0.011968297
0.065157294
-0.016291039
-0.037378997
-0.00933401
-0.0073630502
-0.046413764
0.01477382
-0.025027515
-0.03563604
-0.018647444
0.017146077
-0.0089536505
0.024640884
-0.055825498
0.019283507
0.044886883
0.0045315986
0.014312882
3.7410613e-05
0.0067918757
0.022733523
-0.028078184
0.055892188
0.04056684
-0.026176602
0.0461551
-0.024761183
0.04919618
-0.004396398
-0.030084064
-0.039530028
0.038362052
0.049487587
-0.04969149
-0.03744449
-0.05088115
0.059524674
-0.03600708
0.042669225
0.032901537
0.0028983927
-0.000923918
-0.01765289
0.008883899
-0.008658572
-0.034969654
-0.012484632
0.021505488
0.035306685
0.037053958
0.010685146
-0.045906484
-0.042059265
0.047195196
0.0388744
-0.01848401
0.03115792
-0.059486955
0.021318676
-0.04775675
0.0102748
-0.006007701
-0.047788214
-0.009575169
0.0042959205
0.038347274
-0.019949768
-0.051541943
-0.013625446
0.033746496
0.03414503
0.04697934
-0.046061907
0.012424015
0.0018214049
-0.027578581
-0.04749586
-0.04443597
-0.062891625
-0.001046015
0.030991403
0.04451526
-0.020698493
-0.008512912
-0.04124747
-0.059451938
0.011757095
-0.022868572
-0.012338865
0.0005433087
-0.0028718333
-0.028304148
-0.04368759
-0.044324063
-0.03703748
-0.015821476
-0.025437243
-0.016290497
0.046737656
-0.0036678547
0.05341539
-0.008113876
0.058105458
0.026964417
0.051063154
0.047208305
-0.038196564
-0.009878452
0.06653564
0.032308355
-0.0032395746
-0.008336027
-0.054892756
-0.0041747787
-0.016892103
-0.061977148
0.02415636
-0.056689087
0.001931125
0.036629234
0.004466499
0.027144453
-0.00946595
-0.010365199
0.051242825
0.031639908
0.02253937
0.0077283154
-0.011592034
0.002870403
0.05581398
0.050959926
-0.060167443
0.04121932
0.030717602
0.019322626
0.023385845
-0.043610957
0.061993152
0.039603554
-0.0524833
0.0641693
-0.022494582
-0.024320709
0.050483983
-0.03037679
-0.006872424
0.016649054
-0.026900817
0.039092388
-0.035587456
0.01931619
-0.012124328
0.03508476
0.008500272
-0.024886424
0.04718503
-0.018116945
0.028110236
0.049283102
-0.055401128
-0.021406159
-0.032340113
-0.04389382
0.0035810717
-0.040926054
-0.019025361
-0.001998888
0.05904946
-0.0038747988
0.055640474
0.050585497
-0.040009744
-0.03428764
-0.054783814
-0.054826714
-0.012132603
0.0233207
-0.032005142
-0.022108171
0.043363955
-0.03055709
0.015512505
0.028606968
0.019428406
-0.023092112
-0.052449018
0.007816542
-0.058232173
0.017186008
0.018167991
0.0448702
-0.035398144
-0.030189142
-0.0007766706
-0.041363318
-0.031626943
-0.033176377
-0.04069764
0.047788743
0.0001583241
-0.0076107876
-0.010614615
0.045599993
0.015867602
0.05719217
0.061944637
-0.042801842
0.0008124035
-0.039191455
0.020775367
0.058963303
-0.048266202
-0.014891033
0.012092187
0.008881093
-0.020442268
0.033351008
0.05873576
0.02867197
-0.027526386
0.0072927284
0.045534678
-0.053891294
-0.044748757
-0.017021565
-0.034261134
0.006260336
0.013711555
0.06124932
-0.039142422
-0.023882065
0.061870605
0.061731987
0.0016898465
0.005204445
0.026979586
-0.05008888
0.041136898
-0.02335528
-0.032954637
0.031463917
0.02211551
-0.06690588
-0.04100762
0.040241014
-0.04333513
-0.06096116
0.00018667782
0.00054007216
-0.04527759
-0.021095216
-0.04991126
-0.034156527
-0.012432776
-0.030138765
0.016767517
-0.050187074
-0.014692347
-0.032850645
0.002514847
-0.010818913
0.0077613904
0.03258459
-0.055164397
0.015222332
-0.055557095
-0.033916034
-0.050625883
-0.0030310303
-0.03514738
-0.014478556
-0.04219078
-0.014361232
-0.051953055
0.026666813
-0.056062363
-0.013657919
-0.019006176
0.036131065
-0.039569173
-0.047380276
-0.0073739234
0.0067503513
0.0313184
0.026555225
0.038078938
0.055173617
0.0351557
-0.019649759
-0.01720529
0.047602773
0.0080278
0.029075261
-0.02724235
-0.06122064
0.023384102
0.018522426
0.014065912
-0.060566016
-0.059324555
-0.03293931
0.041363243
-0.06387426
0.012638311
0.053522963
0.034562033
-0.031331696
-0.007620377
-0.009911241
0.008132194
-0.012677582
-0.015174453
0.036499977
0.003333124
0.045514554
-0.006412482
0.011607063
0.015939793
0.061014216
-0.0109646255
-0.038556714
-0.0077817524
0.024418456
-0.067930184
0.051695216
-0.023361718
0.009839165
0.009170793
0.04793614
-0.03818415
0.030562395
0.047833193
0.054466702
-0.05092718
0.018116046
-0.03404514
0.023145104
0.019188125
-0.04757731
-0.011839899
0.019932475
0.006407532
-0.005588119
0.029623708
-0.044757955
0.03178826
0.0062702904
0.013919586
-0.054505065
0.040160198
0.027469244
-0.024433969
-0.024061881
0.04096079
0.010874148
0.0074875993
-0.05314054
-0.020385748
0.040935278
-0.051112812
0.048217468
-0.059000283
0.03795735
0.031168548
0.031289842
-0.027889302
-0.029618038
-0.0125779705
0.020146001
0.038751364
0.008695173
-0.023398822
0.052873723
-0.017151957
-0.03896032
0.036004238
0.010706592
-0.062545866
-0.0032396598
0.030429674
0.03640823
0.010194261
-0.03981294
-0.024099696
0.048818383
0.06737033
-0.0024886616
-0.016646616
0.027847022
0.02932425
0.003609476
-0.009043035
0.048427787
-0.036641225
-0.037553202
0.00081228453
-0.009293775
0.023699885
-0.0013947032
0.026087346
0.043102458
0.005705159
0.044614106
0.03697744
-0.044288766
-0.042125564
-0.027965816
-0.016129646
-0.026844867
0.039011326
-0.014961876
0.019883895
-0.004163619
-0.044609696
0.0030252011
0.023868611
0.0645226
0.003895397
0.05728253
0.0014695514
0.05641561
-0.03424435
-0.043559756
0.021252627
-0.03621813
0.022634503
-0.008638648
-0.005732674
0.012895021
-0.05188473
0.02282304
-0.03541939
0.05619689
0.023767538
-0.023499897
0.02120747
-0.01678617
-0.048885807
-0.03581011
0.024799125
0.027677905
-6.0512644e-05
0.0042940476
-0.051303577
-0.013880911
-0.0460465
0.0075390786
0.018461417
0.030529112
0.004724917
0.03700045
-0.034795146
0.047342483
0.026038548
-0.0037771761
0.015249368
-0.043982755
-0.027721927
-0.05039674
-0.048690505
0.01225407
-0.05414743
-0.028492361
0.007049138
0.033004593
-0.05236495
0.032449573
-0.028164847
-0.0034390923
-0.008268236
0.0064403284
0.030686576
-0.005570369
0.062064137
0.027083123
0.027354075
0.042109676
0.055108503
-0.049616326
0.023589196
-0.03798108
-0.0052886032
-0.032028135
-0.019722145
-0.004308755
0.031943813
-0.036366068
0.0039598104
-0.029493734
-0.006019093
-0.012561139
-0.010370823
0.036858544
-0.025998143
-0.054965165
0.007145027
0.04714633
-0.010125239
-0.010555459
-0.023808362
-0.0194378
0.032297436
0.0009806225
0.031089185
-0.0058844127
-0.05585977
0.042333275
0.044067536
0.005978608
0.00486292
-0.016600829
0.008641047
-0.034159824
-0.007285353
-0.02008866
-0.04116112
-0.026611274
-0.034849267
-0.007258172
0.004194805
0.053651243
0.03172405
0.04443503
0.045236927
0.026980469
-0.03330618
-0.042472333
-0.00887519
0.021189848
-0.028892089
-0.036275733
0.046280283
0.0592356
0.012942203
-0.04651226
-0.01136325
-0.047281623
0.012295028
0.00066322275
0.049651798
0.041549426
-0.044115596
0.038985472
-0.021682253
-0.023963714
-0.019581022
0.030780055
-0.027601318
0.04955754
-0.05156435
0.024498649
0.007932843
-0.03397071
-0.032365482
-0.04938753
0.02566096
-0.050266232
0.018364402
-0.064927034
-0.05006842
0.007369368
-0.053630736
0.009648656
-0.061905827
-0.026842004
-0.004863256
0.03155524
0.024396705
0.043118045
-0.019266158
-0.01810916
-0.023913758
-0.042592537
-0.046303887
-0.040059447
0.012160317
0.022032095
0.009774523
-0.05249956
-0.029005773
-0.025812153
-0.039681535
0.014033151
-0.038708415
-0.025016766
-0.04417576
0.03988592
0.003314773
0.0057344516
0.0029337297
-0.03675823
-0.0050332746
-0.014744834
0.0036997283
0.007841163
-0.06088477
0.021246228
-0.053743765
-0.035844874
-0.028282313
0.034755845
-0.02766828
0.061626177
-0.0549917
0.035955094
-0.05889501
-0.018354097
0.05312999
-0.015851742
0.015753767
0.006186424
0.03346807
0.02223965
-0.011884665
-0.037513133
0.004695042
-0.0005505145
0.0007952766
0.057081647
-0.008838997
-0.01684712
0.0052075475
-0.029260408
-0.007619127
0.0313261
0.0036118024
-0.026673172
0.002000124
0.012674762
-0.021121208
-0.037852697
-0.007048475
0.039539654
-0.016226195
-0.018078115
-0.015648603
0.037709184
0.055542532
-0.041461658
0.046986967
-0.009571461
0.011404952
-0.01674297
-0.017571982
-0.007724806
-0.043023948
-0.058125183
0.02787314
0.0069438796
-0.019122707
0.04338736
-0.015751855
0.046276778
0.038059093
-0.048315234
0.04183396
-0.031449106
-0.052170023
0.033698577
0.050434843
0.051491104
0.042809803
0.036630258
-0.018691601
-0.020793624
-0.010369235
0.010349172
0.0423928
0.015491171
0.064737454
0.046177458
-0.026745506
-0.035384797
-0.027228756
0.005956129
-0.003609508
0.037560847
-0.032847874
0.025844233
-0.004167134
-0.05269994
-0.019605622
-0.06054659
-0.003958997
-0.028741587
0.012797888
0.03402999
0.037058298
0.059126295
0.012596129
-0.0435522
0.031568043
-0.008154956
-0.01326679
0.0073939664
-0.05358161
0.010235572
-0.034824908
-0.03718904
-0.007109265
0.02331568
-0.03870571
0.027787236
0.005227093
-0.008068149
0.038991924
0.0036665031
0.01218821
-0.049886845
-0.013448817
-0.0060608075
-0.016545603
0.0050532375
-0.03469762
-0.058003902
0.02127892
-0.07306091
-0.008554173
0.05735305
-0.002168791
0.029693296
0.003353319
-0.009165917
-0.033616632
0.038653478
0.03164206
-0.03779503
0.029671181
-0.035965733
0.022670284
-0.009029574
-0.021343095
-0.014661354
-0.05391543
-0.034174576
-0.012838506
0.00848398
-0.02306922
0.030129861
0.036344606
0.017834337
-0.016805662
0.01810403
0.02125856
0.033512782
-0.04376814
-0.044690397
-0.013054886
-0.023981592
0.00920449
-0.019475717
0.011744428
0.02070007
0.041838136
-0.039257042
0.0019843052
0.0043341573
-0.020224603
-0.02610876
-0.039257523
0.047083788
0.0044530923
0.0656473
0.03732662
0.016602008
0.05457192
0.011475986
-0.0046391846
0.033352397
0.006374247
-0.009460644
0.04400435
-0.0055462364
-0.04904784
0.03965123
0.020756334
0.060582094
0.021015452
-0.018681543
-0.036452424
-0.06428413
-0.04263509
0.028217131
0.037907775
0.03181782
0.055593144
0.026872475
0.03717748
0.024091762
0.03024713
0.057441663
0.010854925
-0.024699902
-0.017514654
-0.045565333
0.047648918
-0.013175015
0.028264344
0.042604778
0.029495899
0.0060514566
-0.02832902
0.004260526
0.025841923
-0.04567483
0.03575365
0.013507383
-0.040442087
0.026661232
-0.042763464
-0.030826151
-0.05104254
-0.02803792
0.028621607
0.04228253
-0.034321804
0.027059883
0.010725066
-0.045920197
0.02240217
0.0135919945
-0.019228607
0.05408206
0.0011713216
0.022372093
0.06157132
0.04319356
-0.06077065
-0.040116053
-0.0076347548
0.035895173
0.027573317
-0.018932786
0.045363396
-0.0007836869
0.044163965
0.026289035
0.0018266115
0.019204583
-0.05126111
0.059958074
0.008984559
-0.020320619
-0.04193101
-0.0073560216
-0.05690398
0.029111048
-0.0150466
0.029241899
0.008363778
0.013598648
0.017595664
0.017068246
-0.029447725
-0.0028185644
-0.007936553
-0.022304809
-0.012183823
-0.015240043
-0.0010266579
-0.010399451
-0.04964766
0.043877974
0.012351808
-0.044666428
0.022267872
0.032739934
0.019380057
-0.043266296
0.029011142
0.026024038
0.025460385
0.004288293
-0.04699836
-0.047770966
-0.02596286
-0.030125417
-0.04054729
-0.029506024
0.026653608
0.02442108
0.03606958
0.017780833
0.052428823
0.045896493
-0.013548669
-0.05854102
0.013050475
0.020842843
-0.0033314906
0.023396965
0.001284408
0.04443797
0.018080892
-0.024760816
-0.0048102904
8.8096895e-05
-0.03782175
-0.005303712
-0.00085541053
-0.010365263
-0.0054464648
0.040968265
-0.050267436
0.029917853
0.0058163907
-0.018870145
-0.05395512
0.0062048817
0.052884318
-0.024799567
0.023006948
0.059893813
0.047164306
0.020269869
0.002338017
-0.052739844
0.053179983
0.021982016
0.03254528
0.002144536
0.013922727
0.023487803
0.022318356
0.00022621981
0.03426785
0.03215924
-0.018386222
0.034705803
0.025124887
-0.025313836
0.022278864
-0.022694651
-0.006334157
0.053853665
-0.032008007
0.026598362
0.03233354
0.04973633
-0.028534546
0.038309574
0.043660134
-0.007052065
-0.0032910341
-0.019740669
0.023870353
0.028943969
-0.01554112
-0.044760346
-0.039867956
0.029850133
0.049937513
0.048217535
-0.04795587
-0.013269311
0.016808331
0.023063606
-0.056428052
-0.013271832
-0.015366656
0.0016449194
-0.02001816
-0.0062417397
-0.0049228063
0.05002727
0.03455991
-0.026393836
0.049593426
-0.041679148
0.010644008
-0.04656092
0.035657562
-0.049632743
-0.03141932
0.050715875
0.038512617
0.040366143
0.03183204
0.04927735
-0.0047898307
-0.012978392
-0.0056665214
-0.05963481
0.038043994
0.007834705
-0.025409121
-0.004981027
0.0011962348
-0.03038736
0.033882633
-0.019498484
-0.045935944
0.00789203
0.060108226
0.01793087
-0.03175758
-0.054543424
0.012430073
0.0134262405
0.02870609
-0.00085377286
0.0065694926
0.05339854
-0.027705327
0.04515279
0.021326171
0.038691524
0.044431232
0.014826844
0.0076179663
-0.0016779284
-0.027963148
0.014598729
0.007726544
-0.039820246
0.01673127
-0.022377446
-0.031025136
-0.026697008
-0.03709536
0.025450284
0.017798644
8.793902e-05
-0.032067884
-0.04297578
-0.035819005
-0.0414426
-0.03630947
0.03126286
-0.026189322
0.04671132
-0.0022008491
-0.045135275
0.031035213
0.05312304
-0.057290383
-0.013682086
0.001957473
0.0119546335
0.034916464
0.03528348
0.023147028
0.019602183
0.0027575027
-0.012735309
0.028019413
0.014896439
0.030201798
0.017874125
0.014196934
-0.047978446
-0.00983406
-0.006810515
-0.023822786
-0.02189318
0.023478758
0.051725306
-0.0381562
-0.023208182
0.047469206
0.028928518
-0.002527355
-0.032735426
-0.036557857
-0.0018509246
0.05101829
0.04752479
-0.016967172
0.017143222
0.03889003
-0.05400859
0.0015033461
-0.014413452
-0.048104484
-0.02942422
0.040967666
-0.01215227
-0.018153958
-0.026163109
-0.04294552
0.030314773
-0.03447257
0.05371454
0.028136006
0.018053252
0.030376446
0.017673573
0.037274227
-0.042385064
0.053796243
0.045597523
-0.050061397
0.009808114
0.00021110545
-0.04855852
-0.028040322
0.032162357
-0.03441217
0.004458744
-0.040450845
-0.047897805
-0.020552294
0.032830216
-0.047430433
-0.060126122
-0.036854357
-0.05549734
-0.004921528
0.060206268
0.041403428
-0.012016062
-0.016688572
0.03294216
-0.0024010602
0.04586594
-0.016687661
0.0044147433
0.051801436
0.043101598
-4.9654725e-05
-0.010776254
0.028711706
0.036157962
-0.008970801
-0.01136748
0.025633322
0.033566423
0.013314498
-0.0132817915
0.04920101
-0.044903293
-0.030529635
-0.025606638
0.010150784
0.014381873
0.030157687
0.061985437
0.008081131
0.031062257
-0.047716007
0.034755748
-0.053676557
0.047532544
-0.04459339
0.02273094
-0.031548012
0.028232493
0.0011617593
-0.057726145
-0.008200426
-0.02175672
-0.0059740623
0.049422313
-0.020732382
0.040084094
-0.017539067
-0.028965468
-0.061088882
-0.0041042813
-0.03840345
-0.031681895
0.062089097
0.03389881
0.031797014
0.061967857
0.03277378
-0.019137079
0.03851756
-0.029425507
0.018237025
-0.041543562
0.03144394
-0.0057488163
-0.0025794755
0.0072528995
-0.040596582
0.0016994547
-0.046019576
0.04564649
-0.031274505
0.025593886
0.024321465
-0.0042580403
0.017498711
-0.018426014
0.027600817
0.029030923
0.02727574
-0.008227503
0.05315965
0.04694517
0.027494043
0.004682611
0.048640344
0.02919727
0.05024511
-0.029714502
-0.021554194
-0.0118895555
-0.009894911
-0.020999718
0.038897265
0.056126136
-0.033737056
0.02097019
0.05292171
-0.018290622
-0.009553619
-0.015935555
-0.040630057
0.021372875
-0.056745276
0.024743762
-0.019397156
0.020858902
-0.05237923
-0.029934041
-0.0003279734
0.014758765
0.050985128
0.01855321
-0.0511373
-0.006308562
0.003973083
0.029325329
0.038554464
-0.044877302
-0.004949111
0.05702075
-0.04511471
-0.04119687
-0.01780402
-0.043247182
0.014969226
-0.027892204
0.043805264
-0.0030474004
-0.01496794
-0.020114081
-0.0095692845
-0.051113393
0.03643716
0.004966005
-0.030795705
0.046457987
0.0016723528
-0.011389408
-0.04207776
-0.034607705
0.052251313
-0.0060819164
-0.011914879
-0.016871022
-0.049772542
-0.05058556
0.053223442
-0.056049682
-0.055671923
-0.024389854
-0.040897094
-0.043315317
0.009722932
0.024442254
-0.011770684
-0.037358955
0.041724127
0.021044824
-0.046925344
0.06287186
-0.002284848
0.011532351
-0.032705978
-0.02927631
0.04346014
0.012134887
-0.02785785
-0.03306853
-0.04418069
0.048324108
-0.022193305
0.06452656
0.009153287
0.0040802993
0.04849851
-0.037735276
0.048626486
0.05589696
-0.008109479
0.019451657
-0.058078554
-0.02951156
-0.03376407
-0.058518637
-0.054053977
0.036151405
-0.0520571
-0.034142844
0.019716082
0.050636463
0.05300738
0.01843142
-0.033415936
0.034088273
-0.027325997
-0.00613869
0.043495223
-0.045450088
0.022926755
0.013035134
-0.04978513
0.052096467
-0.05127084
-0.02287201
0.024938772
0.003921925
-0.04588642
0.002543826
-0.02555206
0.02043473
-0.021997586
0.0140237585
-0.029267713
0.023797454
0.053616326
-0.010236087
-0.004075855
-0.04534117
0.0038472654
0.026451863
0.059721563
0.06163999
0.039757725
0.019344237
0.044366907
0.056393538
-0.025937077
-0.0032046195
-0.030691914
-0.061875395
-0.006615372
-0.036173098
-0.04417277
-0.04061233
0.04041648
-0.05115514
-0.0060979654
0.023445262
0.023808908
-0.035705563
-0.023161475
-0.02448795
-0.04425108
0.019476205
0.029406669
0.0044522714
0.053101238
-0.046226293
0.0055503515
-0.057533648
-0.0507486
-0.016888954
-0.040480327
-0.022964833
-0.038264934
-0.03622915
-0.018528292
-0.007896071
-0.032219023
-0.032686934
-0.062054403
0.02086144
0.01329271
-0.0286474
0.057171766
-0.012772979
0.0060464665
-0.0009820126
-0.0038107461
-0.069640905
-0.039177097
-0.043043394
-0.018232604
-0.019548217
-0.053042404
-0.06970935
-0.044960972
0.041946042
-0.026035778
0.012404484
-0.014137245
-0.037917398
-0.043862816
-0.017312432
0.0033948382
0.061162353
-0.059000477
-0.015495007
0.04166448
-0.021377789
0.036560886
-0.030371752
0.0040578307
0.012579892
-0.004258761
0.0051531657
0.010928367
0.010006404
0.020848852
-0.029930482
0.06164876
-0.004927189
0.04138227
-0.040334
0.05353402
0.036541004
0.038751036
-0.00065381563
-0.04930303
-0.0036664733
0.044544987
-0.01064108
0.038882572
0.008456576
-0.06316448
0.042616267
-0.030566376
0.014448267
-0.009174497
0.027062047
-0.051718913
0.021546558
-0.050386686
0.056124926
-0.014655358
0.01879968
0.0070359325
0.054828316
-0.01634415
-0.016292505
0.019988988
0.026686985
-0.032532718
0.010195055
-0.0016042044
0.03543909
-0.044783253
0.00064044766
0.023982937
-0.020299636
0.011221102
0.039059184
0.044184517
-0.013106562
-0.008664379
0.060369268
-0.039866306
-0.059337117
0.0019262407
-0.029780181
0.044208754
0.028523797
0.019041507
0.00051261357
0.05537857
-0.031269986
0.012751882
-0.01976508
-0.01416262
0.044442277
0.0045026434
0.02648087
-0.023512533
-0.025008697
0.010972224
0.018119799
0.037814844
0.04327251
-0.030298904
0.051328685
-0.0376941
-0.00028653644
-0.040404692
-0.0333604
9.863432e-05
0.034813866
-0.04153692
0.01671839
-0.03311433
-0.043942086
-0.008628869
0.0137555655
-0.055298477
0.012229779
0.048002165
0.033267558
-0.028172476
0.03987296
0.053672325
0.031112902
-0.0059793433
0.033283606
-0.010568584
0.034074202
-0.01982951
0.05581274
0.04181523
-0.0044251266
0.0048750364
0.051866293
0.03840293
-0.026277008
-0.039913844
0.014568906
0.027746266
0.056041878
0.0055814744
-0.007115072
-0.010463372
0.0020719257
0.016742183
0.032857757
0.04464313
0.045082834
-0.02471348
-0.04018998
0.0021519025
0.011670155
-0.015327729
0.029734109
0.060093228
-0.033033896
-0.0016960845
-0.034144443
-0.046985477
0.009282721
-0.049656086
0.031165075
-0.02284789
0.018613923
-0.042114973
0.029057417
-0.0123200435
0.023311041
0.040280636
-0.007876257
0.0010779005
-0.035627794
-0.006607322
-0.053438455
-0.015803933
-0.02810604
-0.058634356
-0.02367094
0.041889843
0.02391942
-0.032728527
-0.022673149
-0.016507883
0.0042191776
0.033293024
-0.015250576
0.013809968
0.010233829
-0.056490596
-0.019847507
0.05787191
0.0004066173
-0.03010004
-0.025491383
-0.04177163
-0.00020643622
0.0045824074
0.027041242
-0.025508663
-0.047667515
-0.022202743
-0.022809453
0.029758487
-0.04800849
0.002553019
0.041596174
0.007210078
0.017640393
-0.003500926
-0.060904223
0.032326557
0.042396344
0.044843398
-0.0095163975
0.021965252
0.0034375915
-0.008419781
-0.0027087817
0.036746982
0.0304116
0.033505682
0.0056768777
0.063604526
-0.024206165
-0.004887952
-0.0027875358
-0.013074677
-0.02684913
0.057656165
-0.00610404
0.0055116434
-0.039663844
-0.013309597
-0.016118145
-0.010176079
0.056150902
0.019342884
0.06153825
-0.030019032
-0.030822314
0.044522427
0.05855318
0.023290737
0.053639762
0.023784315
0.0091957
-0.034220334
0.019115446
-0.03584084
0.04934997
-0.024120692
-0.018518444
-0.020450698
0.025445037
0.057296652
-0.058387037
-0.027393168
0.01574387
-0.05695264
0.052650843
-0.025747735
-0.004459098
0.013611879
-0.02476056
0.0465472
0.05024982
-0.005342378
-0.025472876
-0.028538758
0.04101085
-0.018346863
-0.051356614
-0.021760365
-0.03150315
0.029706616
-0.018143522
-0.02139554
-0.01805051
0.050459318
0.021075323
0.04099111
0.04360668
0.0018486202
-0.015149675
0.004311805
0.015218982
0.023693293
0.017754698
-0.034876663
0.046993077
-0.029888995
-0.03504436
-0.022349471
0.027115064
-0.035627928
0.014901124
0.052297715
-0.01613509
0.017274009
0.04841817
0.010249852
-0.038376324
-0.0030227166
0.02782688
-0.03947346
-0.015682222
0.009393927
0.029912766
0.016265446
-0.05228354
0.011070908
-0.002031003
-0.039465737
0.00828509
-0.041179493
0.06439137
0.048286654
0.003715399
0.050178923
-0.017384784
0.055899225
-0.030271519
-0.03333632
-0.056529626
0.011572901
0.02941912
-0.011256489
-0.008064977
0.0061361
0.04154041
0.0111447945
0.043749705
-0.044734173
-0.034350913
-0.006931208
-0.006082356
-0.04289102
0.003324274
0.034686565
-0.041895702
0.010509241
-0.006993498
-0.043319993
-0.047147006
0.03102816
-0.045159716
0.0010979836
0.008991743
0.026076274
0.002437141
0.015740193
-0.044941794
0.039159823
-0.052664142
-0.01543521
0.047203016
0.02549055
-0.022838563
-0.032864567
-0.03885097
0.033842407
-0.014288393
-0.0516
0.03317777
0.00840316
0.034017406
0.014671767
-0.036564264
-0.054283503
-0.01882301
-0.023590194
-0.019003741
-0.0059929355
0.01684366
-0.01893262
-0.057826042
-0.020034904
0.042056493
-0.034734264
0.032780524
-0.029263653
0.02210995
0.05733175
0.002510972
0.01300145
-0.0348829
0.037214097
-0.032137215
-0.02248592
-0.04176621
-0.030489977
-0.0071051735
-0.0031240685
0.049651917
-0.052516676
0.04805458
-0.04326751
0.039074462
-0.062432718
-0.009982311
-0.03340167
0.03861499
0.018394314
0.047745597
-0.047304116
-0.008516563
-0.023176119
0.009657338
0.049519043
0.018187935
-0.0025489293
-0.05020732
-0.067054786
-0.00057420734
-0.026849722
-0.010288417
0.032616828
-0.001077134
0.046999108
-0.03272376
-0.04410301
-0.027281292
-0.05522721
-0.0026523496
-0.029478818
-0.033895947
0.023803074
0.04729802
0.005966856
-0.05275442
0.056570865
-0.045511283
-0.04296923
0.03693898
0.0042264126
-0.046422347
-0.04803495
0.029966958
-0.034316022
-0.050045725
0.033914004
-0.03758531
-0.051274095
-0.023506071
-0.046260454
-0.053365026
0.030497855
-0.042083323
0.015598382
0.03370212
-0.054914452
0.00549067
-0.0549705
-0.043770537
-0.013185375
-0.02279802
0.06373049
-0.013164975
0.014385697
0.0567099
-0.03856059
-0.033361346
0.040355176
-0.03360637
-0.015433534
-0.0520233
-0.077652305
0.056651466
0.032323282
-0.021146603
-0.013736041
-0.047423672
-0.032811627
-0.0635111
0.05258594
0.025480421
-0.0055276575
0.0079079345
0.024169596
-0.005328689
0.013168148
-0.01170966
-0.035627946
-0.062070247
-0.0017024857
0.010046179
-0.04645762
0.03423301
0.07284632
-0.008480747
0.026123602
-0.05202084
0.035598215
-0.06325925
-0.03374095
-0.004546473
-0.02465045
0.045053028
0.029071
0.04515663
-0.013347623
0.02278655
0.025210178
0.014781753
-0.052831866
-0.008745407
0.023463156
0.04541281
0.054992933
0.037706677
0.019592214
-0.0021672414
0.031547364
-0.04574541
0.009313156
-0.03679538
0.0002048076
0.043578923
0.045512058
0.010835718
-0.040281355
-0.011223474
-0.0341194
0.018103633
-0.015450299
-0.032715328
0.017355952
0.05338326
0.00920909
-0.022027368
-0.037223194
0.008004889
0.050722122
-0.030366506
-0.01911647
-0.03752851
0.0080371555
0.03767051
-0.057449292
0.050428987
0.043995723
-0.041984268
-0.010739938
-0.024850097
-0.013139053
0.009579602
-0.045218073
-0.044327166
-0.01822221
0.060860682
-0.002262115
0.030568296
0.06427517
0.04244766
-0.049610272
0.04931345
-0.02875029
-0.02099106
0.0031865505
0.03328556
-0.011400598
0.048786465
-0.0505671
-0.012164814
0.005584418
-0.03128879
0.05625869
0.055462807
0.049422532
0.050929714
0.028881023
0.0490432
0.019466612
-0.006971154
0.045276336
0.01979824
-0.037434693
0.035190854
-0.037360772
0.04425044
0.022780102
0.030656062
-0.01420526
0.017139114
-0.04448714
0.0069504804
-0.049586102
0.06250436
-0.012996215
0.0517421
0.028792987
-0.04906481
-0.03329679
0.058340527
-0.038021896
0.0009702952
-0.016673476
0.0011539463
-0.04062344
-0.045808755
0.041030783
-0.06425507
-0.049500935
0.023915853
-0.041705906
0.044722278
-0.014323501
-0.021678962
0.00606541
0.019930337
-0.022926815
0.040063467
-0.035580456
-0.004345805
0.031704165
-0.027318519
-0.026657121
-0.016325433
0.047130022
-0.024511755
0.028126512
0.010894314
0.040073074
0.03877148
0.010337139
0.01412036
0.017867059
0.011146742
-0.06427534
0.04510352
0.060996793
-0.038979232
0.008704714
-0.047476187
-0.022622334
0.011098712
-0.051166594
-0.031829588
0.030669453
-0.03904898
0.025024515
-0.006123441
0.022466345
0.041390054
0.028912522
-0.011014954
-0.035281852
-0.0043880306
-0.027468082
-0.008253483
-0.008488907
-0.012766658
-0.01366182
-0.018763667
-0.04353531
-0.02294457
-0.04856229
-0.014460773
-0.03460372
0.021554668
-0.049003135
0.018607259
-0.053470775
-0.02146387
0.039872747
-0.021877779
0.0114990035
0.046607573
0.060190387
0.014933759
-0.019394781
0.05773077
0.016903693
-0.036355983
0.031396866
-0.03514205
0.026921172
-0.052741796
-0.0007389061
-0.046271313
0.04754259
-0.011126529
-0.06510934
-0.013729111
-0.004670747
0.01907677
-0.011243743
-0.0065601715
-0.032672882
0.005542371
-0.008944163
0.03130821
-0.0055497074
-0.013373495
-0.03038365
0.032414734
0.034964014
0.05249337
0.03845871
-0.046327088
0.0257507
0.024533149
-0.030566141
-0.02311296
0.03264873
-0.04140195
0.017204152
-0.038239934
0.007526165
0.025139065
0.033780288
0.03981006
0.03243759
0.05661675
-0.018187623
-0.060112257
-0.030696033
0.029413208
0.019527884
-0.043222602
0.06703402
-0.039636374
0.05262911
-0.05998044
-0.028224844
-0.0017648384
-0.021354882
0.032708853
0.02796631
-0.049411904
-0.0069997795
0.04867765
-0.019471511
-0.05711023
-0.026670763
0.012513748
-0.050381273
0.011874392
0.02266239
0.05018929
0.03761185
0.0105466405
-0.063443705
0.039404225
0.041709416
0.0013276553
-0.03257135
0.06203443
-0.024638927
-0.039013837
0.010092381
-0.02909828
0.054196652
0.0337327
-0.04849531
0.008329951
-0.008288235
0.029087806
-0.033802953
0.03949579
-0.0069397385
-0.015417199
-0.00963925
-0.019338215
0.00061781553
-0.0047048903
-0.019795083
-0.012815231
-0.04512363
-0.03329598
0.03185031
-0.008687706
0.008975973
-0.026168697
-0.009383285
-0.018405443
0.045308474
-0.05117653
0.046731796
-0.0013634658
0.030317418
0.012557754
-0.041548327
-0.043501124
-0.047094736
0.065412775
0.0045024
-0.0037282063
0.029278317
0.035319176
0.017939977
-0.02684669
0.00076552737
-0.033709817
-0.030991068
-0.027356002
-0.030455647
0.0028845605
-0.016596185
-0.036194507
-0.0014411595
-0.014133904
-0.039737668
-0.011452693
0.042828627
-0.024529688
0.023592327
-0.021729037
0.022789788
0.03304815
-0.037835952
0.04890354
-0.0065923063
-0.019906744
0.013784685
0.07126777
-0.052571375
0.03493654
-0.019798947
-0.014150728
0.0010219411
0.038122892
-0.024766855
-0.022569034
0.022876538
0.0044389297
-0.040729456
-0.049419306
0.038322587
-0.04487592
0.060736384
-0.052599493
0.026235694
-0.030441001
0.037581887
-0.06274705
-0.010165636
0.03293148
-0.009375567
0.0606884
-0.018415524
-0.030186422
0.05535598
0.046327963
-0.028764198
0.031656105
-0.043407932
0.041181326
0.039757356
0.05230323
0.028108425
-0.0045156414
0.014593377
0.0016072897
-0.025896218
-0.035429228
0.013519865
0.024451418
0.040276684
0.0010492
-0.047561023
0.011952933
0.016076948
-0.0051217726
-0.038068596
-0.03409883
0.056330808
-0.01053423
-0.020017447
-0.039728127
-0.0062404736
0.029751942
-0.047036584
0.058868255
-0.049970493
0.017869314
-0.0013482827
0.0016671887
0.0065117264
-0.016297236
0.060528003
-0.04789893
0.048922345
0.016862797
0.062341716
0.0042008767
-0.00041032778
0.016715432
-0.059183974
0.0004457844
0.011088109
-0.031177333
0.04715813
-0.032368034
0.022070786
0.031225279
-0.049751524
-0.022115758
-0.05364871
0.019162202
-0.0038627225
-0.040012542
0.025308546
-0.029492864
-0.043407977
0.045880247
-0.00084542576
-0.052281037
-0.00986126
0.013079798
-0.021360893
-0.010140506
0.023481615
0.03258357
0.047134507
-0.03539264
0.024530848
-0.047878217
0.051003873
0.03697729
-0.014134993
0.05099692
-0.060980003
-0.042056464
-0.046138886
0.044694036
0.0014567677
0.004260811
-0.038882893
0.017848352
0.028686564
0.03900112
-0.011879548
-0.0058457833
0.026047112
-0.036404416
0.0009024931
0.017688265
0.05145905
-0.019046154
-0.017364817
0.010533077
0.03103716
-0.026059285
-0.0003693302
0.016685365
0.020913135
-0.0062943385
-0.027622191
0.05196212
-0.0077250577
0.045524966
0.0020379128
-0.050729766
0.034276996
-0.008944397
0.039318204
-0.04692259
0.009870265
-0.058235668
0.048597842
-0.06313912
0.026881672
-0.019180242
-0.0016236459
0.060615145
-0.020597693
0.0059340526
-0.025026593
-0.02115123
-0.03478022
-0.020806149
-0.021645507
-0.035640687
0.06481553
0.021710273
-0.050481223
0.035471033
0.041569557
-0.052792117
-0.042514894
0.037524488
-0.04164836
-0.027121263
-0.028735822
0.014619207
-0.04767115
-0.021677827
0.026139792
0.015659444
0.023974711
-0.018392662
0.0292781
0.06442958
0.049649615
0.054615404
-0.015022473
0.0029382287
0.067763604
-0.018496403
0.006114903
0.0048845485
0.009961324
-0.013755329
-0.0012616579
-0.05540934
0.03172359
0.045480367
0.025798535
0.036165144
0.04872986
-0.0076897824
-0.01240644
-0.027605876
0.009031377
-0.06755782
0.03849286
0.05199931
-0.060210187
-0.018415486
0.016809508
0.032884773
0.008212764
-0.021770064
-0.0138501385
0.060052156
-0.020045975
0.030410947
-0.024363846
-0.053566758
0.033593096
-0.011269135
-0.0493674
0.015888171
0.03205247
0.036226194
0.04391175
-0.01545378
-0.025171788
-0.0014073581
-0.0046299784
-0.0016530035
-0.049285725
-0.03177135
0.024272371
0.034215614
0.038237955
-0.03956771
0.036395837
-0.00055160804
-0.021256963
-0.019469084
-0.044413336
-0.018722948
-0.0056843027
0.031037912
0.006314669
0.023187747
-0.009325003
-0.036276948
-0.042203203
0.047277965
-0.037314035
-0.03727801
0.008760487
0.015434914
0.009115225
0.041861247
0.049359906
-0.047269233
0.045538504
-0.010958254
-0.060846698
0.05493691
-0.054617886
-0.01474129
-0.035158563
0.013636461
-0.03292557
0.043060593
0.016216079
-0.024399187
0.056935225
0.031239564
0.010043402
-0.041391183
0.050868902
-0.06560808
0.0070808236
-0.022911523
0.010383212
-0.017871663
0.047066256
-0.025626864
-0.024769956
0.0013048158
-0.013932959
-0.0056114807
-0.029646331
-0.0037459899
0.0494302
-0.03499634
-0.04476029
0.06370121
0.054106515
-0.056220755
0.013556367
-0.021398693
-0.002407979
-0.0050308
-0.006510634
-0.028325757
-0.02304408
-0.05244433
0.056054294
-0.035491854
0.008278226
-0.042604383
0.04540074
-0.044026695
0.038411707
0.051498406
0.006297702
-0.045672152
0.055187073
0.031205619
0.013446635
0.036518667
0.013986412
0.041947708
0.02980477
-0.044260003
-0.058171164
0.007347304
0.024003133
-0.05324548
0.023132486
0.04364114
-0.023873137
-0.04395277
-0.0067208307
-0.052427433
0.011032447
-0.04781571
0.011240297
-0.040140428
0.016829686
0.06100114
0.004395993
-0.03021162
0.0272915
0.052897118
-0.031842973
-0.022076037
-0.027037498
-0.07299014
-0.01831082
0.023236921
-0.04414308
-0.056571648
0.0074859075
-0.059892107
0.030128669
0.029138833
0.048107825
0.032163337
0.017671399
-0.024420694
-0.024236877
-0.04778482
0.039362166
-0.0018730509
-0.05286016
0.009869169
-0.01926818
0.03464291
-0.0048761545
-0.06464182
-0.045806322
-0.007328046
-0.0037136716
-0.018645635
-0.015715044
-0.022610914
-0.02855789
0.00033123957
0.008117745
-0.020773482
0.052366514
-0.043420136
0.026744608
-0.055140335
-0.020932822
0.018318264
-0.048897233
0.022029106
-0.054435737
0.009787707
0.033275835
0.053363837
-0.0010427308
0.035899356
0.029717488
-0.039701886
-0.05291012
0.017165778
-0.036871854
-0.046942577
0.0005195144
0.037296563
-0.04034027
0.054317188
-0.0013266294
-0.023951596
-0.05495718
0.0121075045
-0.007277251
-0.020772714
0.024854451
-0.024666093
0.024999049
0.023891337
-0.021255868
-0.051162
0.035065494
0.013405202
0.0004243115
0.0072939517
0.036280386
-0.04092689
-0.011340605
-0.0042580725
0.042705454
-0.026691554
-0.05754293
0.014579064
0.023534046
0.02623596
0.049172923
0.032956827
-0.056799997
0.039526213
-0.027302146
-0.03750042
-0.016188836
-0.023584636
-0.046459597
0.047143053
0.04426304
-0.025219006
0.053181984
-0.004974363
0.037634198
-0.03779165
0.020735852
-0.053408332
-0.04202031
-0.0064987396
-0.03467267
0.0060791145
0.044752035
-0.031811416
-0.030193124
-0.03324714
0.04931495
0.041974153
0.0045210407
0.0012859533
0.056611635
-0.028721271
0.0060132635
0.043462586
0.054904316
-0.038103122
0.006393788
-0.037535194
-0.011357199
0.051247936
-0.019704066
0.031775616
-0.035128143
0.056404945
-0.059924196
0.061687607
0.018850684
-0.03894807
0.044134613
-0.008595577
0.008736767
0.02550996
0.010533058
0.0014796876
-0.0060540684
0.033206113
-0.00938713
-0.0038153813
-0.054198835
-0.0067791212
-0.03017601
0.047273215
-0.03745939
0.00896951
0.040032387
-0.0059816465
-0.025173834
0.053570673
-0.0011365212
0.055421017
0.023711637
-0.04020043
-0.045197003
-0.018793717
-0.035833962
0.052272398
0.053301126
0.029318996
0.04772282
0.05526072
-0.0006493449
0.013478596
-0.052270003
0.021717662
-0.05027596
0.053750575
0.018561477
0.05405634
-0.01681226
-0.042372573
-0.027471762
-0.04635562
-0.0028021603
-0.028260412
-0.058703978
0.004330561
-0.036714293
-0.053068653
-0.014690164
-0.05478764
-0.014947241
-0.038100183
-0.027251374
0.053895317
-0.027244454
0.040076472
0.011121878
-0.03729509
-0.036847804
-0.0077086384
0.013940847
0.055121094
-0.025987819
-0.05599296
0.052279547
0.05398688
-0.053709548
-0.003776881
0.005790136
0.009012618
0.020877743
-0.034798637
-0.0023474542
-0.048458893
-0.04078268
0.03278009
0.0029125945
-0.016550003
-0.05922882
-0.04318488
0.04124198
0.006361915
0.048356548
0.02016444
-0.04729397
0.016992575
0.006094136
-0.006587232
0.036229767
-0.04591043
0.0010959875
-0.024765778
-0.025860235
-0.0324241
0.011957015
-0.037540793
-0.039911397
-0.034465816
0.0317349
-0.008260088
0.030344253
0.012229007
-0.044069905
-0.0053920797
0.035794232
-0.0041478523
-0.028981337
0.001505449
0.03458262
-0.001340545
-0.043480847
0.01050289
-0.02302977
-0.017373275
0.021874798
-0.03155932
0.03411691
0.017749384
0.0007864988
-0.01288786
0.02429731
-0.0449256
-0.049920846
-0.011400348
0.019729326
-0.005997019
-0.04863397
0.050834667
0.013537707
-0.058813386
-0.013051184
-0.052520495
0.021328727
-0.047933977
0.0024058882
0.013467722
-0.017100507
0.045454416
0.0502339
-0.027577827
-0.030767094
0.030206423
-0.054721482
0.052283876
-0.034478616
0.01513808
-0.017316107
-0.008623833
0.030699208
0.05478519
-0.021183461
0.03009737
0.02570343
0.019136205
-0.04346736
0.04057406
0.021836307
0.052388057
0.04651494
-0.0422207
0.026916489
-0.01267398
-0.033480424
-0.025415448
-0.051666982
0.01547277
0.044073112
0.04438088
-0.01715495
0.0058772913
0.0365961
-0.035160456
-0.042802162
-0.051070392
0.02807701
0.0022630051
0.01718042
0.040735733
-0.031996228
-0.01832467
-0.0004082318
-0.0051310454
-0.0016373253
-0.060864907
0.047628738
0.031135093
-0.015931781
0.0033435617
-0.015588418
-0.011172029
0.04875821
-0.039800126
0.021943823
-0.036702275
0.05968459
-0.009457244
-0.0478233
-0.008731776
0.0040368126
0.03625533
0.018421099
0.0030123403
-0.008972786
-0.005174871
0.012219289
0.0373443
0.03513923
-0.010139247
0.059404254
-0.03669443
0.029061493
0.023598779
-0.02882246
0.03461342
0.03706057
-0.014049972
-0.06692388
-0.04948107
-0.029189713
-0.039258756
-0.012899112
-0.04583103
0.04325185
0.005954266
-0.03839993
-0.0036534804
-0.01941687
-0.0013519404
0.02774242
0.00863133
0.027973577
0.0354584
0.055074368
0.053012565
-0.04026299
-0.016896041
-0.03216848
-0.02709161
-0.051746406
0.0043824976
0.03776726
-0.061440658
-0.016216235
0.020037623
0.038983732
0.005836011
-0.034366816
0.06576745
-0.04309144
0.0064224713
0.004870389
0.0019961246
-0.04868839
-0.020900799
-0.026814148
-0.036619116
-0.03329319
0.00837914
-0.04734826
0.05424007
-0.005643507
-0.054109327
-0.014148475
-0.007950185
0.016791107
0.008695727
0.045668215
-0.0050128317
0.045374844
0.03235331
-0.049922306
0.0044009383
-0.0049067675
0.012768243
0.018747656
-0.0032281082
-0.0155427065
-0.0460594
0.034445066
0.027313026
0.041177657
0.042020928
-0.040589314
-0.033060808
-0.018914862
-0.055897977
0.0003420223
-0.033193108
-0.023411859
0.063709594
0.029391335
0.03790176
-0.050650973
-0.027035503
0.016154725
-0.03433007
-0.029986534
-0.06440648
-0.015612461
-0.02358571
0.038302198
0.056512903
0.024758702
0.02325917
0.045520615
-0.018738165
-0.047660165
0.027737753
0.008918604
-0.041361585
-0.017088404
-0.008632512
-0.046316765
0.034788724
0.013500274
0.04071402
-0.011989359
0.057277486
0.017151441
0.007966089
0.025554895
0.019426152
0.022600438
-0.04016826
0.042771384
-0.05298588
-0.019145746
0.009051114
-0.01103745
0.029315772
-0.056684464
0.034289353
0.0068921284
0.032642834
-0.061697047
-0.056220904
0.03824703
0.050275743
0.04864039
-0.04437533
0.060485188
0.047677834
0.010030885
-0.0045206826
-0.055955693
-0.0073026884
0.032728765
-0.042551298
-0.049267
0.022266867
-0.05338363
0.0029275143
0.03777592
0.001395302
0.010888339
-0.027278129
0.03837527
0.041079886
0.054259237
-0.02660953
0.023376279
0.02741586
0.008143171
-0.060146376
0.05276803
-0.02479536
-0.003119396
-0.050264664
0.030269304
0.033311594
0.042762462
-0.013075459
-0.027408978
-0.028075743
6.057458e-05
-0.02325848
-0.019109476
-0.027187964
0.0032983478
-0.032818343
-0.03013485
-0.020488838
0.004140316
0.013972495
0.041125216
-0.010786509
0.018691503
0.057300594
-0.060955726
0.024462106
0.037620187
0.02520986
-0.019524302
-0.05549565
0.054908592
7.491948e-05
0.010556969
0.015839085
-0.029570779
0.048009798
0.041357122
-0.039891146
0.044743698
0.011381855
0.029416746
0.057956014
-0.0022179538
0.024520054
0.052248992
0.009614315
0.038916513
-0.047305793
0.013927228
-0.058245465
-0.010020069
0.02268896
0.030630192
0.013837462
0.054332316
0.005133255
-0.04841967
-0.008327226
0.019961774
-0.03089335
0.0712427
0.000903879
0.039629176
0.040470332
0.02037783
0.007540152
-0.030233148
0.008367164
-0.028336179
0.022436215
-0.015463353
0.016965847
-0.036501568
-0.038056247
-0.01508647
0.002311066
0.017933263
-0.047336966
-0.013563953
-0.034405142
0.04714196
-0.037459284
-0.037371513
-0.029542077
-0.005456209
0.023524743
-0.0076159313
0.02638448
-0.049786642
0.016492818
0.05388871
0.036820993
0.046796005
-0.010063048
-0.048978053
0.025647622
0.030140013
-0.0071543385
-0.007279927
-0.02113655
-0.046479993
0.0143352505
0.055829793
-0.0034393973
0.017863087
0.007013964
0.0075015887
-0.011844461
0.050232787
-0.048642322
0.020660859
0.01901255
-0.03225973
-0.028570037
0.010179139
0.015994737
-0.027132245
-0.0002928039
0.028913617
-0.050365347
-0.004060517
-0.02516269
0.05107507
-0.009233083
-0.055144325
-0.04334492
-0.028211746
-0.033910424
0.02305926
0.017782148
0.03989688
0.043995056
-0.053385206
-0.052275766
-0.028477933
-0.036585983
0.05319707
0.06652646
0.013223955
-0.0071503357
-0.05080671
-0.0011710079
-0.005675979
-0.014481175
0.013356703
0.0055722008
0.0015962346
-0.045147233
-0.036595833
-0.027279409
-0.029255943
0.007503883
0.008449409
0.03656674
0.026440626
-0.05337325
0.0038516654
0.04194957
0.040978245
0.0075277034
-0.059553638
0.0076451926
0.046857674
0.05419846
0.028605593
-0.012446784
0.03052255
0.0022271115
0.00010329733
0.03657934
0.041781288
-0.042969946
-0.057576645
-0.013336892
-0.015710304
0.0388322
-0.01812589
0.018378833
-0.06948314
-0.03251893
0.056910016
0.045083664
0.028699692
-0.016389802
0.019737497
-0.033408936
0.008482533
0.030378358
0.04226538
0.015105838
-0.026078304
-0.0054016258
0.03579053
0.057657532
-0.0091718575
0.0018771773
-0.029720433
-0.054670133
-0.02505293
-0.055005666
-0.060979158
0.03913707
0.04308749
-0.014688212
0.0050933757
0.037985913
-0.026531115
0.05208139
-0.023454105
0.039624
0.01317661
0.020163959
-0.030124545
0.0037648345
0.014841409
0.010659694
0.053524718
0.019432299
-0.03659447
0.006367312
0.056689527
0.020989383
-0.011263955
-0.024479486
-0.0021668123
0.026301121
-0.018583756
-0.0582686
-0.005157337
0.053675387
-0.026036516
-0.001361023
0.03021092
0.03183636
-0.035603456
0.002850448
0.019810457
0.023008417
-0.032346983
-0.028940635
0.04589318
0.027052214
-0.025827475
-0.05029317
0.047972616
0.030689666
-0.041683476
-0.008776535
-0.06118585
0.05697375
0.0466216
0.06268516
0.015138924
-0.037020262
0.018777516
0.00081764744
0.026083918
0.03722005
-0.026772784
-0.014226935
-0.03604048
0.054822594
-0.019131567
0.025501223
0.034935437
-0.015538385
-0.047461305
-0.009278581
0.001388025
-0.04525443
-0.027062418
-0.0039101513
0.004295196
0.008548266
0.0197087
-0.02848912
-0.050208468
0.006454755
-0.05496785
-0.0112671815
0.02058132
-0.049114037
0.044919748
0.032883115
0.03430975
-0.0450139
-0.011149623
0.006895864
0.023049165
-0.015536283
-0.061978236
0.025209632
-0.037554547
-0.060020484
-0.017818058
0.013058439
0.019297889
-0.011130904
-0.017646937
-0.054134004
0.053325806
0.0039077625
-0.018112969
0.017751737
-0.05844314
-0.031997655
-0.0027923612
0.020080503
-0.056328394
0.03479563
-0.013945496
0.023963597
-0.013237676
-0.041146185
0.0470815
-0.008424041
-0.02911215
0.022618284
-0.0002396681
-0.00107537
-0.0115127405
0.01272279
-0.05491565
-0.017205773
-0.04282801
-0.04626938
0.030643765
0.0131778885
0.030242184
0.04581841
-0.006399459
-0.02403949
-0.0071427366
0.020867957
0.0012188312
-0.05324306
0.015403696
0.0358632
0.029641163
0.041337784
-0.029906409
-0.044802286
-0.020080544
-0.0074005323
-0.0005406578
0.01831309
0.036124773
-0.045515645
0.011918867
-0.004364621
0.03394805
-0.051026203
0.05272965
-0.058249213
-0.0011766198
-0.04064721
-0.010187964
-0.03563682
0.009415957
0.027609602
0.008731605
0.043170348
-0.0394307
-0.0067528044
0.03040303
0.028524684
0.038569454
-0.03935719
0.057319123
0.0049253693
-0.010504153
-0.017978944
-0.05311155
-0.013083193
0.014635652
-0.00848055
-0.05999162
0.030827383
0.011912268
0.008617885
0.0055114324
0.05853342
0.0120207295
-0.028003046
0.043036222
-0.020802205
-0.05750944
-0.0058031585
-0.057398982
-0.042051055
-0.03806144
-0.04995988
0.046346925
0.021529425
-0.057595365
-0.014358511
-0.056192175
0.030207608
-0.034970954
-0.01261818
-0.03560407
0.023203386
0.014153675
-0.06347068
-0.038031925
0.05734983
0.0072898646
0.02057553
0.013252765
-0.037769943
-0.051043335
-0.0028058481
0.030714618
0.04259015
-0.0064250436
0.03735999
-0.033055663
-0.039114
0.0726328
0.04266729
0.033160906
0.0006212512
0.006407425
-0.010850352
-0.037008513
0.011228383
0.016673403
-0.008052352
0.044299204
-0.053905357
0.032887395
0.009579149
-0.01664114
-0.029980393
0.0389881
0.047989093
-0.016166296
-0.02173799
-0.017810395
0.05919486
-0.040103514
0.04693107
-0.015873572
-0.015766453
0.043825734
-0.0056847194
0.019839657
0.010915621
0.013072248
0.053784538
-0.001674333
0.026319066
0.016022667
-0.007866712
-0.034349818
0.016582781
-0.0011050816
-0.04426602
-0.05399084
-0.03735504
-0.05022125
0.016178107
0.015176236
-0.02920478
-0.0030544582
0.053811148
-0.009837217
0.026249764
0.056620147
-0.04022336
-0.039197315
0.0065467986
-0.015811644
-0.017222425
-0.015073574
0.02785696
0.024848606
0.035691027
0.010949315
-0.02897862
0.0039048162
0.026223605
0.019805899
-0.03113569
0.05255119
0.021380594
0.009852034
-0.038568337
-0.026791442
0.053508006
0.05306197
0.029024636
0.012971318
-0.014118099
-0.0072217896
0.014547686
-0.038722556
0.011639533
0.005971727
-0.056871615
-0.02542777
-0.047309913
-0.0018718287
0.0021557475
-0.047633655
-0.04272218
0.009505838
-0.03248503
0.023999427
0.028312793
0.013816703
0.049137972
0.012357389
-0.037211016
-0.0038490167
-0.02361906
-0.041053195
0.009034339
0.051573087
0.04885661
0.050762158
-0.03546869
0.023183992
0.026977494
-0.047029745
0.008447273
0.014234095
-0.04141066
-0.029618632
0.04372236
-0.04315422
-0.05289794
0.04224127
0.008363243
-0.028640734
-0.01016693
0.013161108
0.0065200995
0.034182325
0.061640497
-0.004232086
-0.023615872
0.03204196
0.010411972
-0.057594046
0.05672673
-0.026412135
-0.009276
0.022685928
0.004544965
-0.045655284
-0.0019954392
-0.054930042
0.007972155
-0.044739835
-0.023729132
0.001629634
-0.034710683
-0.0077699125
-0.004773694
0.045614038
-0.021234822
-0.016950479
-0.040310897
-0.04528647
-0.008779916
0.039892744
0.020116614
0.0025964712
-0.007624496
-0.02934628
0.011444786
0.042404667
-0.032031436
0.05329544
-0.044799596
0.042907264
-0.005911796
0.007107797
0.039167948
-0.00047831435
-0.047171228
-0.04991276
-0.004902398
-0.051112153
0.029763289
0.02601086
-0.041800115
-0.005363489
-0.048883636
0.031217188
0.0118426895
-0.0104905395
-0.03679931
0.025052574
0.016438523
0.026763657
-0.009538009
0.019933237
0.030077605
-0.051385384
-0.023122996
0.0532224
0.025724966
0.043402195
-0.010413258
-0.05424197
-0.00048815986
-0.042355735
-0.048052914
-0.050725702
-0.050616596
0.0030975188
0.03804902
0.003414969
-0.0040152045
0.044281576
-0.03410131
0.060802344
0.03953502
0.024506444
0.006910544
-0.023750184
-0.002459687
-0.047815334
-0.002525549
0.048247095
0.042305503
0.00081318757
0.050694726
-0.027882176
-0.039083153
-0.029742079
0.0007223281
0.016610747
-0.05312062
-0.007123188
-0.008031148
-0.03706059
0.0011683728
0.032354824
-0.03275676
0.045974325
0.03427258
0.013755846
-0.029165382
0.048657358
0.019593073
0.004160414
-0.03339465
-0.015672805
-0.009019185
-0.039847612
0.010344745
-0.0062232297
0.028379336
0.02474558
0.038664855
-0.029093454
0.04891367
0.028973147
-0.037774432
-0.009574233
-0.04329384
0.010532082
0.0012795011
-0.010305026
-0.041468073
-0.050673433
0.017151162
0.03536017
-0.028839316
0.05304849
0.03131106
0.051046573
-0.023749487
0.051167935
0.04812502
-0.04144067
0.027620615
0.022079254
0.032292917
-0.03357643
-0.012013072
0.017571064
-0.058705833
0.028633129
-0.04272051
0.026502345
-0.00024453868
0.025247512
0.008711717
-0.033840694
-0.050015897
0.014118409
0.022013605
-0.0106312875
-0.05230598
-0.021034144
0.019061757
0.056444973
0.02660077
-0.05632848
0.023592943
-0.015098961
-0.03652985
0.013376728
-0.038213246
-0.063260436
-0.019125108
0.049733836
0.025584025
0.021284686
-0.02722044
0.052680254
0.0447522
-0.053432122
-0.029853266
0.012837213
0.04378596
0.00046213265
0.016575595
-0.0090205725
-0.039442964
-0.018575698
0.0642619
-0.026193127
0.0122684445
0.035415366
-0.029079143
-0.024418328
-0.02914002
0.06116201
0.04499222
0.047137916
0.03891034
-0.038010936
-0.0069878153
-0.00838834
-0.009603807
0.03284057
0.0259185
0.0015501748
-0.00659895
0.014093339
-0.047542535
0.014165746
-0.042773265
0.017795205
0.01823243
0.0356376
0.050022904
-0.02581303
-0.05068559
0.020222962
0.004931088
-0.037232064
0.0046310397
0.017308487
0.024801858
0.047570232
0.015997468
0.015878275
0.064316325
0.04033863
0.048801772
0.021811133
-0.025876667
0.004281729
-0.048010547
0.03574004
-0.05568252
-0.04101874
-0.04652486
0.034020834
0.055250872
0.03470713
0.0370551
-0.027637519
0.006797737
-0.0060789236
0.02820361
0.0090671955
-0.031030703
-0.02538497
-0.02652488
0.021370241
-0.016071513
0.0076689157
0.040372215
-0.02976537
-0.03360295
0.02091708
-0.024910003
-0.015629817
-0.034973685
-0.05613025
0.046649713
0.015012888
0.05164903
-0.015717287
0.0397842
0.0036077355
-0.050161686
-0.010342459
-0.024706507
0.014462709
0.006127436
-0.05269061
0.008753351
-0.0028580027
0.010552085
-0.05710061
0.017556945
-0.021392314
0.03890395
0.03934455
0.03629139
-0.02487527
-0.045523178
-0.015941598
-0.044819802
-0.052762564
0.041497428
0.015524507
-0.06437034
0.0141050955
-0.027033685
-0.015386226
-0.023128007
0.03579625
-0.03323348
0.028714703
0.04218772
0.0023567304
-0.03506775
0.046867296
-0.055729225
0.03508102
0.027762687
0.004558143
-0.041597087
-0.00089868583
0.03538142
0.020928258
-0.040499933
0.048747137
0.03721006
0.028354403
0.005440718
0.03672458
-0.015515572
-0.059882388
0.033173773
0.022811454
-0.02122948
0.006601149
0.016997041
-0.0012137693
0.03874506
-0.049099814
-0.05395478
0.02317383
0.010543587
0.052745376
0.020321187
-0.022296885
-0.01790494
-0.0057691894
-0.0032906744
0.05093529
-0.043347597
0.044758268
-0.06560348
-0.053432293
-0.026481306
0.0023003928
0.006853751
-0.03138932
-0.048217263
-0.06531383
-0.037269156
0.024067847
0.047312874
0.017015152
0.012911318
0.014578536
-0.007445576
-0.027556403
-0.050418768
0.025299959
0.014607747
-0.049187113
0.02608285
0.0031870627
-0.012202543
0.050198324
0.010740398
-0.049590643
-0.039044302
-0.04722505
-0.031230576
-0.0012945717
0.02782613
-0.01355811
0.007048032
-0.03631541
-0.047073636
-0.055885896
-0.029309213
-0.035122123
-0.033171248
-0.04319502
-0.015034431
0.04283491
-0.028322168
0.022647955
0.044044178
-0.0063157757
-0.0022290961
0.038812816
0.045763377
-0.010787608
-0.0054363986
0.0436634
-0.02572219
-0.061781846
-0.021058569
-0.054804176
0.0024329533
-0.028266888
-0.038242225
0.028749485
0.04771106
-0.047827788
-0.01731249
-0.03904966
0.007797193
0.041521795
-0.041577194
0.019507013
-0.021290913
-0.037479892
-0.0045493143
-0.00070654997
0.052809257
-0.01536385
-0.001029419
0.019900816
0.043534804
0.029520182
-0.027486974
-0.055759482
-0.005868368
-0.03279818
0.04470624
-0.040363986
0.008959307
0.012770342
0.007510314
-0.024508711
0.007682061
0.021521827
-0.014481171
-0.03210079
0.019068388
0.039251313
-0.00032287114
-0.048592143
0.0019260132
0.0009518333
0.022912873
0.0014010803
-0.009154751
0.03171426
-0.051525705
0.033989046
-0.050379775
0.04181185
-0.04093184
0.06468202
0.04916242
0.043454878
-0.013255742
-0.026004821
-0.008381959
0.021483473
0.0056757107
-0.027664991
-0.00011776172
-0.042737246
0.050146326
0.05736321
-0.04766669
-0.038800035
-0.0031107508
-0.018448783
0.030139001
-0.06051224
-0.014118832
-0.052816857
-0.023926856
-0.025581343
0.054523934
0.021137087
0.0124913445
-0.06177593
0.025523799
0.041945845
0.008447347
-0.009266243
-0.04481779
0.035694305
-0.04248028
0.042911366
0.03805174
0.021415384
0.04636924
-0.04095225
0.06326497
-0.00010877378
0.032405876
-0.0168648
-0.0056660403
0.04736825
-0.029668333
-0.015020849
0.031846587
-0.04277761
-0.004015303
0.023666415
-0.056787778
0.015731584
-0.041991048
-0.040291987
0.009277881
-0.060800247
-0.022148052
-0.010146747
-0.023939004
-0.0012464826
-0.050299283
-0.036811657
0.05064073
-0.03055744
0.031956915
-0.027968165
0.034416404
0.010679176
0.032433618
0.028454442
0.020104274
0.05011323
-0.0023094898
0.005525441
-0.0133276
-0.037252296
-0.017869761
0.019037297
-0.025238689
0.019248828
0.033217818
-0.017199531
0.019905027
-0.023601068
-0.019815285
-0.022859666
-0.0072926166
0.010967661
-0.055589963
0.009146443
-0.049634572
0.044743184
-0.051882513
0.044290446
0.011146803
-0.045002356
0.021308538
0.033665065
0.043522943
0.022551386
0.008338437
-0.0022288724
-0.04444922
-0.027354985
-0.059188727
-0.05843751
-0.0312906
0.056263536
-0.05138515
-0.00917943
0.04582119
0.055119105
0.007021398
-0.04809026
0.01174816
0.028930452
0.022074591
-0.0039111422
0.03399339
-0.035978634
-0.05987418
-0.05140121
0.028572856
-0.042986732
-0.03477205
0.009571831
0.0093523
0.0028965084
0.04091778
-0.042506114
0.027686128
-0.02860508
-0.04736642
-0.051536556
-0.044580076
0.054593675
0.051801037
-0.04343008
-0.037021
-0.038092867
0.0055720713
-0.036721177
-0.060984336
-0.023512358
-0.021893818
-0.037188325
-0.02779556
-0.047115587
0.020770572
-0.026004001
-0.037840936
0.030416293
-0.010188414
-0.051895324
-0.019276721
-0.01582117
-0.03322134
-0.052665677
-0.012779055
0.030206375
-0.047794905
-0.06446162
-0.002947602
0.032767158
-6.24729e-05
0.01705891
0.025908524
-0.047129657
-0.017343966
-0.03603828
0.0417521
-0.039130487
0.0023576599
-0.047001597
0.017977083
0.06007035
-0.00078401156
0.03759406
0.032881573
0.024009688
-0.00020210865
-0.024110196
-0.026663244
-0.03803364
-0.011669604
0.06977289
0.009210974
0.025375223
0.011883484
0.018338526
0.0067801694
0.0013381145
-0.011430947
-0.042753406
0.042928744
-0.00027946205
-0.016876234
0.030417403
-0.0047352985
0.005645061
0.030749511
-0.035469543
0.014715363
0.014321959
-0.01652514
0.054128375
-0.04002421
0.04424691
-0.006904092
0.05390246
0.027540505
-0.03369344
0.0034282408
0.008121031
-0.024741165
0.004719734
-0.03797996
-0.007534689
-0.057901677
-0.054592844
-0.026755622
0.017545648
0.006974839
-0.033836454
-0.071856596
0.030565483
-0.06956169
-0.027658213
0.010973222
-0.0629071
0.009619731
0.038801417
-0.03968429
-0.05979291
-0.020624245
0.0349066
0.05113019
0.002771144
-0.028376728
-0.019775793
0.013420489
0.04943537
0.0338223
0.017392974
0.010303293
0.013075038
-0.022337496
0.043923967
-0.028468782
-0.04421348
-0.034615364
0.03663616
-0.0006169799
-0.030241942
-0.056159902
0.016039152
0.0037999016
-0.02150468
-0.013419774
0.033619132
-0.029415242
-0.031475607
0.025472894
-0.05580005
-0.011735837
-0.003015332
0.011087954
0.04651663
-0.050798856
0.028564502
-0.0062229075
0.05094126
-0.011675144
0.0064703654
-0.011882474
-0.00063804
0.047201443
0.054133244
0.026892403
0.005397658
0.01793594
-0.03697254
0.041621935
-0.0017282603
-0.05664162
0.030192832
-0.036029957
0.010984432
-0.00856106
-0.03460911
-0.0067823115
-0.017356846
0.0095228385
0.021577625
0.0051727667
-0.018602327
-0.013530697
-0.04229707
0.0578032
-0.037618548
0.025306964
0.01656731
-0.00045154282
-0.030858785
-0.03036099
0.04730136
-0.015170158
-0.058534067
-0.043893665
0.00047315133
0.01340031
-0.04197913
0.0147164455
0.042149883
-0.06425591
-0.043872282
-0.006355141
0.020546822
0.053725217
-0.045846112
-0.025693126
-0.039315134
-0.013050942
-0.026757136
0.03701602
0.008500903
-0.0101189595
-0.0073085106
-0.026513655
-0.058538496
-0.027455315
-0.0027093538
-0.041941654
0.008962424
0.021436272
-0.019253308
-0.0060402085
-0.019173129
0.027132846
-0.022087127
0.024955258
-0.01829244
-0.035480995
0.03336834
0.0474669
0.05028727
0.02709937
0.004898302
-0.015373128
-0.07106258
0.034938175
-0.044678163
-0.06596116
0.0074755107
-0.013419517
0.037149828
0.035531662
0.04076242
-0.07444596
-0.023109863
-0.03686957
-0.0017897864
-0.021902697
0.02141057
0.02515819
0.025741959
-0.022376485
0.046970498
-0.028713683
-0.045006312
0.054923747
-0.053388923
-0.014224114
-0.025334813
-0.04945917
-0.032681618
-0.013377229
-0.07273856
-0.048308056
-0.00015850257
-0.012401032
0.045910563
-0.03466391
-0.067848325
0.04471407
-0.038170453
0.044434916
-0.012886967
-0.03908828
-0.042031534
0.0453206
0.029263828
0.045609083
-0.022639535
-0.013065993
-0.0025139612
-0.06064328
-0.030524066
0.026724424
-0.0070681064
0.055090647
0.0077620703
-0.045705903
0.009402072
0.04402359
0.03626469
0.0716484
-0.008720345
-0.022592021
0.043858662
0.024908004
0.03945495
-0.0074458104
0.0018405181
-0.005094955
-0.032836527
-0.036711335
-0.022963464
0.0633375
0.00023710492
0.027802154
-0.03686938
-0.03099596
0.045196388
0.048886366
0.020273505
-0.014069402
-0.038918965
0.012325445
-0.024394443
-0.004644692
0.0042750663
0.011754992
0.043550238
0.038315676
-0.033098612
0.041075524
-0.054191127
0.036832646
-0.011853684
0.036396805
-0.013065121
0.01888248
0.03933879
-0.037103534
-0.0022792732
0.0012674675
-0.044182353
-0.011274234
0.010343378
0.030596107
0.051672425
0.054307904
-0.060591638
0.046924796
-0.04605556
-0.049873915
-0.005817693
0.014445583
0.04668649
-0.058333617
0.004592812
0.043177072
-0.021574304
-0.039130084
0.04819839
-0.008558001
0.020605542
0.028220974
-0.00040094007
0.011614916
0.03249108
-0.020695282
0.023980265
0.04725468
-0.033214595
0.022218231
-0.021784438
-0.022039432
0.017589023
-0.007417763
0.0011588552
-0.026361465
-0.043710615
0.0026837324
0.0326146
0.0013187261
-0.007842507
0.04822186
0.03173263
0.038023848
0.005084527
0.029731942
-0.04999075
-0.023681782
-0.011454513
-0.046766136
-0.0573611
0.010189994
-0.028317213
-0.018117106
0.014694929
0.029013682
-0.0028163153
0.044967666
0.009824809
0.0034419668
-0.0040591653
-0.043246746
0.0013444736
0.021776307
-0.039361
0.048659462
-0.025164789
0.035573803
0.044956546
0.02129774
-0.028965916
0.016368138
-0.019997044
0.059728503
-0.059192065
0.048432305
0.041217603
0.011423103
0.029981712
-0.007813899
-0.002107198
-0.04549754
-0.03343546
-0.03477852
-0.030955834
-0.0062993933
-0.01988436
0.0035186028
0.026793482
0.05116834
-0.05292884
-0.0076198024
0.008269098
-0.043120954
-0.051473245
0.0020545947
0.044441737
-0.01713945
-0.0517761
0.00602262
-0.033353057
-0.019055378
-0.05637088
0.015614476
-0.002280192
0.04071956
0.027039118
-0.042071007
-0.023704749
0.04811191
-0.016272983
-0.013616519
0.039329186
0.04594544
0.034373533
0.027218586
-0.009368524
-0.028372472
-0.004059463
-0.042392537
-0.042355433
0.047879107
-0.054090075
-0.018473037
-0.024487924
0.009318257
0.032864984
0.058751382
-0.0027692653
0.039898437
0.05315608
0.0178823
0.028265461
-0.053521615
-0.051876996
-0.044899423
-0.014925317
0.036589358
-0.03010865
-0.06721213
0.028548948
0.06494421
-0.0078005823
-0.008858226
0.064624235
-0.028257333
0.043460827
0.0009202777
0.0017048001
-0.010179237
0.017909478
-0.03415117
0.0046103583
-0.024013823
0.05647251
0.05239512
0.0028073012
0.0026826581
0.05129607
0.013661395
-0.041395105
0.037887994
-0.00036215223
0.013292723
-0.055809278
0.027202653
-0.03331376
0.0010090274
0.053122774
-0.027947236
0.029034719
0.034285214
-0.036669336
0.000997597
-0.05265188
-0.043197446
-0.019519914
-0.0147480965
-0.054809567
0.030439993
-0.048671465
0.02152029
-0.027555803
0.041302565
0.0010249192
0.03609481
-0.0169908
0.03487778
0.036635235
-0.02132195
0.007893311
-0.04885465
-0.00470077
-0.010388867
-0.033180963
0.041611426
-0.033423763
-0.009045869
0.03440947
0.03156311
-0.00047045303
0.006655129
-0.03189614
-0.0022083318
-0.005886463
0.03711858
-0.038151186
0.029187799
-0.047815386
0.016122185
-0.024746215
-0.042168144
0.02121055
-0.012629983
0.012348535
-0.027462956
0.033187527
-0.014183678
0.043875836
-0.014173114
0.02737085
-0.06344517
0.0012236111
-0.030270802
-0.0026777778
-0.034036238
-0.05734173
0.04174615
0.03010916
-0.036400665
-0.02422466
-0.017097857
-0.016045965
-0.021242013
-0.034923643
0.015850786
0.056354716
-0.028286064
0.027273465
-0.03929231
-0.03640376
-0.005873544
-0.050133094
0.022243412
0.030668026
0.004492879
-0.020423805
0.07365377
0.01692707
-0.019174837
0.07531698
-0.01409661
0.046412136
-0.020116774
-0.030443257
0.0020709082
0.054563913
-0.03681288
-0.015616384
-0.03402475
-0.054962575
-0.010711893
0.035048775
-0.024666082
-0.026613986
-0.030162707
0.03824533
0.021509975
0.01657452
-0.007867821
0.035712205
-0.0020274709
0.039420705
-0.017389545
-0.03174169
-0.0036098368
0.030480303
-0.016501937
