-0.021036725
0.001704086
-0.014792642
-0.02861682
0.022770062
0.012626888
0.007952958
0.026301185
0.028208995
-0.009460248
-0.015274472
0.0261614
-0.008041648
-0.0069542
-0.009688418
0.014268643
-0.0113140615
0.012103303
0.013865506
0.0033889054
0.00035459144
0.00823966
0.021304315
-0.025515448
-0.0027980686
-0.0053968295
-0.0060765166
-0.01606338
0.017599486
0.019236015
0.00074913126
0.02300204
0.027932694
0.028721916
-0.022389028
0.013477333
-0.019413851
-0.026346726
-0.028193621
0.003422203
0.023415698
-0.0076771323
-0.026356434
-0.019388715
-0.024456091
0.006484579
-0.0052795946
0.016438039
0.00084856607
-0.0059828144
0.0278952
-0.015631549
-0.02103544
-0.025095653
0.015293612
0.01386748
-0.007956293
0.022187646
0.02305455
-0.027092991
-0.021794632
0.022666505
-0.019008996
0.006808358
0.023519583
0.020000687
0.026953707
0.006612782
0.0063289083
0.02753728
0.010412862
-0.006654272
0.025311407
0.0049771387
-0.006200921
-0.027452825
-0.018825201
0.022266375
-0.001981818
0.0031947587
0.0049369615
0.016024966
0.027701491
-0.012867218
-0.0067976387
-0.0043712477
0.00031395184
-0.005887744
0.01625493
0.006509603
-0.02303013
-0.023514615
-0.0013725159
0.021599157
-0.010232882
0.013903455
-0.015962308
0.023170762
-0.0048137773
-0.018261274
-0.009300765
-0.023609601
-0.013288998
0.012569805
0.01049292
0.02822409
-0.020710958
-0.027575055
0.023856219
0.0009966358
-0.024464916
0.028155006
0.016599892
-0.026289538
0.0049022157
0.021434564
-0.007265403
-0.0076093716
-0.024612017
-0.013924327
0.020935945
0.025992127
-0.0094796475
-0.018628549
-0.010091193
-0.0079001775
0.013073414
0.016537327
-0.008373563
0.022832334
-0.004983129
0.0050761746
-0.011666179
0.009290282
-0.007767187
0.0031783266
0.0051848697
0.0013304361
-0.016154462
0.003496565
0.028386189
-0.008697173
0.020690346
0.005144889
0.027876183
-0.010196556
-0.01168316
0.00025454938
-0.019083364
0.018170645
-0.01662708
0.01438081
0.01293053
-0.011484588
0.02206916
-0.014041948
-0.0017962679
-0.017924273
-0.004721946
-0.0103732
0.007823025
-0.005676437
0.0030532312
0.019180415
-0.008118736
0.025592038
-0.0050570355
-0.022120183
0.014873888
-0.013348016
-0.0008231241
0.016922267
-0.011871498
-0.015027643
0.0024735488
-0.02077337
0.00424185
-0.009017489
0.023050815
0.008712426
0.02413667
0.0053758626
-0.0012549725
0.008790168
-0.014970521
-0.0076164105
0.008877192
-0.02767112
-0.014330888
0.017155917
-0.015450782
-0.0121592665
0.010197488
-0.026264701
0.023601089
-0.020878762
-0.0013330819
-0.022355631
0.023588274
0.00042715692
0.024749208
0.021536503
-0.010838272
0.011100222
0.019826543
0.007237557
0.01196317
0.017618153
-0.02362974
-0.0019834808
-0.007851126
0.021414367
0.017987164
0.022697236
0.019875921
-0.0061473823
0.02410424
-0.0065822117
-0.020151304
-0.023158783
0.025217308
-0.026022397
-0.027539143
0.0277024
0.00070016587
0.0058536413
-0.021802094
0.0023048075
0.006261653
-0.004463088
0.028314864
-0.004584713
0.0013719327
-0.0056422055
-0.0041884854
-0.0222849
-0.026005726
-0.025266206
0.024187468
0.014734573
0.02783912
0.004397649
0.008577503
-0.018913679
-0.025181457
-0.023369405
-0.018767176
0.0102516245
-0.0006856338
-0.024913188
-0.008642561
0.022303818
-0.024734188
-0.025454085
0.004159756
-0.002472897
