0.007625453
0.042152252
0.0060576163
-0.084306754
0.1373673
-0.06491726
0.046900142
-0.044093523
-0.046707693
0.026301164
-0.037919145
0.08948473
0.008991777
0.10275537
-0.078091465
-0.07675684
-0.0016308967
0.082356155
-0.031981
-0.006696402
0.08779932
-0.07780932
0.033282302
0.065577455
-0.08497549
0.09113988
-0.12951449
-0.0053513614
-0.04851673
-0.11432439
0.0801994
0.053854972
0.089350626
0.03098194
0.10486394
0.018649165
-0.08231875
-0.091538325
0.06955021
-0.08018037
-0.014226792
0.05419696
-0.026173448
-0.017881949
0.06367136
0.050720047
0.09912786
0.058939632
-0.0460143
0.115855925
-0.038364906
0.06364541
-0.13297737
0.08808873
0.046978585
-0.07617741
-0.004141142
0.035369903
0.008707059
0.11845826
0.012111698
-0.033471417
-0.04750293
0.03795915
0.047550302
0.06686937
0.14703996
-0.06860615
0.00060898013
0.0380254
-0.026769822
0.05198456
-0.03508811
-0.0018216564
-0.10635357
0.046280447
-0.054743286
0.039077837
-0.088648275
0.05285084
0.0051844236
0.11063301
-0.05779597
0.0010552413
0.12154728
0.0457743
-0.019176658
-0.0024510953
0.042057756
-0.044448197
-0.030376678
-0.108186424
0.0495381
-0.09014015
-0.054198783
0.042541087
0.07315128
0.0060685896
-0.11839094
0.005804111
-0.07069739
-0.08319993
-0.0778726
-0.043028727
-0.09032749
-0.09123776
-0.061459467
-0.0031478999
-0.05284602
-0.031603396
-0.06861629
0.060330573
-0.035769578
-0.05240776
0.04432067
-0.024973856
-0.019716071
-0.011822335
0.021446511
-0.0010732419
-0.00308044
0.047784463
-0.12005951
0.021686135
0.09926362
0.029377494
0.0107690375
-0.0033522877
-0.039258484
0.14471085
0.074268
-0.08855122
-0.08297878
-0.0016435515
0.09103607
0.059269525
-0.116916195
0.11471372
0.09268014
-0.030024113
0.09695685
0.06909528
-0.023344848
-0.102854006
-0.00979563
-0.048712526
0.02541146
-0.13764432
-0.14190689
-0.016983852
0.041611176
0.086053304
0.06884033
0.08810917
0.10597965
-0.0057571055
-0.09765695
-0.030090373
0.03418901
0.1378515
-0.002721478
0.02389049
-0.08962941
-0.04062231
0.028536547
-0.067597136
-0.008397377
0.0123766735
-0.053142756
0.046705723
0.016406689
0.027184235
0.11272439
0.15154909
-0.007951316
0.086064756
-0.072859585
0.20973304
-0.025352871
-0.036302753
-0.03980427
-0.06373458
0.09205069
0.08377061
-0.04225969
0.10766857
0.063897856
-0.057174787
0.060705617
0.11837633
-0.07089016
-0.05174221
0.06723042
-0.0028118258
0.011635287
0.092024885
0.058204833
-0.032605957
0.06341228
0.11104348
0.052250117
-0.039915737
0.06809012
0.018468741
0.018059352
0.13655408
-0.036469113
-0.012115768
0.08349701
0.013858704
-0.13014235
0.001114912
0.09160771
-0.07036912
0.041411735
0.08134459
-0.021783348
-0.02191551
-0.062001973
-0.006975255
0.041337416
-0.07427078
-0.14325222
0.034282878
-0.04049508
0.086607516
-0.035716742
-0.0047946405
0.027373163
-0.07567203
0.12150274
0.039725807
-0.029923568
0.056487292
0.006557819
-0.063452706
-0.035022434
0.006917185
-0.05593113
0.07744998
-0.025628455
-0.06094684
-0.0075286888
0.08592829
0.018953186
0.068316095
0.110542685
-0.12259456
0.017982606
-0.02062715
0.012861808
-0.06172299
-0.049636498
0.025747374
0.10164018
-0.0627128
0.06315998
0.05788437
0.048566256
-0.032437768
-0.06270642
-0.016861169
0.07941521
0.05934663
0.030414354
0.11059415
0.026889343
-0.08059264
-0.09218783
0.09484149
0.019619584
-0.06224145
-0.08338928
-0.0884359
-0.008983358
-0.06085807
-0.06878315
0.105355546
0.012984445
-0.047478948
0.0061557177
0.072070286
0.012255097
0.12405074
-3.4344568e-05
-0.029434368
-0.03241301
-0.06552325
-0.084396176
0.01616988
0.026528649
-0.033480342
-0.07611939
0.017898886
0.12238061
-0.0724594
0.0024090528
-0.048674993
0.049991984
0.011654552
-0.056617867
0.045326237
-0.046929624
0.084428035
0.043150764
-0.061299916
0.010621168
-0.01953445
0.048623063
-0.00071063923
0.05910121
-0.013874068
-0.03027161
-0.01503345
-0.11311561
-0.016862597
0.07271617
0.08855001
0.08108802
-0.01510739
-0.04482824
-0.033896342
-0.04093511
-0.15355076
-0.05906957
0.004693247
0.020592544
0.010626733
0.0019477651
0.115513235
0.12079101
0.050043512
0.00751592
-0.018090326
0.12613404
-0.087211184
-0.047236852
0.015310378
-0.0065893806
-0.012816736
-0.01750544
0.0046516666
-0.03773346
-0.08548094
0.1191362
-0.099826306
0.021830214
-0.026529374
0.045132317
-0.05188706
0.16115315
0.002652745
0.14852278
-0.010089176
-0.10824368
-0.05059993
-0.10112135
0.0799007
0.08010254
-0.06475083
-0.04487787
-0.059599377
-0.06894358
-0.00534885
0.007876983
-0.107045844
-0.07351053
-0.060769808
0.05072401
0.0036159868
0.026346665
0.08078765
0.013175638
-0.0008358266
0.081072725
0.030302325
-0.060298912
0.027280588
0.0127241295
0.011278405
0.115325876
0.025066998
-0.0939511
-0.02958494
-0.12743174
0.057966027
-0.027166903
0.038593747
-0.058478434
-0.08617452
-0.05291685
0.12437155
-0.043529004
-0.0011588471
0.06880822
-0.08152391
0.08197688
0.043046467
-0.090357594
-0.06333103
0.11996121
-0.043048896
0.040519867
-0.08267447
-0.053839635
-0.06975933
-0.05718308
-0.068766646
-0.04252772
0.031398028
0.009980797
0.04386698
-0.033800993
-0.09372997
0.06506512
-0.013011864
-0.041913282
0.0928216
-0.054108452
0.076120876
0.03242093
-0.012414995
-0.06825768
-0.03479707
-0.1373557
-0.008455031
-0.02967186
0.12064608
-0.040833946
-0.08513819
-0.010585344
0.0060463045
0.11045892
-0.018861718
-0.097501814
0.0267944
-0.07329483
0.15608108
-0.08339822
0.0025218565
0.004657065
0.012700647
0.12828454
0.050481457
0.015762996
-0.02901282
0.014148831
0.15729669
-0.038144253
-0.08079132
-0.037383925
0.066302955
0.11777519
-0.061144236
0.100458026
-0.14006585
-0.0685999
-0.015785784
0.19393258
0.101129375
0.060916044
0.095646515
0.056042604
0.050716884
-0.07056843
0.071216315
-0.014426432
-0.06580875
-0.0054458543
-0.031753942
0.051905487
0.1326338
0.15773354
-0.04613211
0.09651949
0.035102766
-0.06303531
-0.048835594
-0.035246536
-0.01783597
-0.10668541
0.08685575
-0.06148249
0.07715318
-0.05887596
0.084437914
0.070456095
-0.01800154
-0.053036783
0.002875358
-0.024937348
-0.09531278
0.06228891
-0.016353404
-0.04228713
0.10968151
-0.029280102
-0.051089287
-0.0941785
0.080322914
0.02520775
-0.013529058
-0.116560064
0.026318004
-0.018682519
0.081750445
0.14235353
0.06081199
0.029496396
0.005307148
-0.027617797
-0.09041628
-0.06716121
0.01889648
0.044418942
0.15264075
-0.014632381
-0.085988276
-0.062819876
0.15119317
-0.12489043
-0.036613952
-0.06804231
0.091873385
0.031624783
-0.13406873
0.064914346
0.11915418
0.045452204
0.010565309
-0.08087421
0.027417712
-0.0477616
-0.04123339
0.04794085
-0.032887883
-0.04231575
-0.07087919
0.021373253
0.0102174105
-0.08150658
0.018886294
-0.037637636
-0.046495125
0.009869279
-0.08126822
-0.042267196
0.088746145
-0.04562364
-0.09292362
0.06317105
0.06472796
0.012811938
-0.046078872
-0.069748685
0.10355426
-0.0022865462
-0.029762803
-0.06856788
0.017214905
-0.043697044
0.071702205
0.060260028
-0.032052394
0.08165676
-0.002062223
-0.082821704
-0.036424108
-0.0083343955
-0.015304569
0.08818408
0.020288242
-0.05153671
-0.060867295
0.041881397
-0.13541216
-0.09183524
0.0087773
0.0610391
-0.005976537
0.0910286
-0.051842593
0.059321065
-0.0633653
-0.05340912
-0.15752557
-0.054917462
-0.07193713
-0.124812216
0.0951194
-0.0070219506
-0.0139836
-0.10305338
0.017623467
-0.03295026
0.07336586
-0.006327848
-0.04127666
0.04856486
-0.04399902
-0.06132918
0.16941358
0.05772277
-0.024087306
-0.030107565
0.03283186
0.04290187
-0.018056653
0.077898875
0.009305899
-0.06613499
-0.06823007
0.1562718
-0.13651885
0.035387512
0.002779954
0.064559735
0.11059392
0.05536967
-0.059256896
-0.050317097
-0.09566882
0.07887817
-0.08236401
0.06330235
0.036316898
-0.087819405
-0.071326956
0.093216
-0.025136419
0.07792652
0.122527055
0.08558015
-0.085089765
-0.027335918
-0.022871582
-0.015497321
0.00045522896
-0.001186404
-0.043789458
-0.007871633
0.16729102
-0.18616407
-0.13758335
-0.0769191
0.16250028
0.028302962
-0.025694482
-0.032246497
0.058822062
0.022776322
0.11740171
-0.054402836
-0.020967746
-0.07081117
0.041004606
-0.042365137
-0.019061046
-0.08379863
-0.05868429
0.10881263
0.037232075
-0.06564301
-0.14163443
0.0014047879
0.12980585
-0.11822141
-0.09316854
0.02923607
0.07792284
-0.01251759
0.16542247
-0.005279314
-0.09977272
-0.08140523
0.054244056
-0.04256735
-0.033519287
0.032875568
-0.08990542
-0.08507669
-0.037495118
-0.08226308
-0.06615233
-0.051976148
0.13424632
0.009678039
-0.022789937
0.017426373
-0.056743693
0.049068525
-0.06695803
0.030123116
-0.064126946
-0.04874034
0.10868713
-0.04466539
-0.015834935
-0.110185154
0.036335018
-0.07704573
0.062560566
-0.03616722
-0.06248818
0.12616257
0.07653576
-0.083291344
-0.09503344
-0.09825673
-0.075863175
0.032955047
0.03525993
0.12130341
0.0051244926
0.032261327
-0.029698199
-0.09007219
-0.06735208
-0.081102446
-0.09603495
0.05710906
0.023322482
0.011861595
0.1504834
0.053019922
-0.031127438
-0.09543627
0.008637799
0.07826824
0.020787222
-0.05379482
-0.07749099
-0.04769188
0.14586152
0.043234788
0.123710185
0.009926432
-0.005466441
0.010582465
-0.0040476853
0.075456455
-0.018947123
-0.024293846
-0.0015934717
-0.06292346
-0.07437409
-0.044698242
0.004714782
0.04284103
-0.0046892837
0.013085621
0.051250994
0.0014538778
0.02019337
-0.032047834
0.1019822
-0.00094143307
0.09864121
0.14256266
-0.030575216
0.11488126
-0.081699654
-0.015362851
0.09333733
-0.00072757556
0.015242635
-0.007086381
0.08863809
0.12278175
0.010193147
-0.016635727
0.011458741
-0.082434274
0.054229002
0.057701554
-0.09707709
0.04458408
0.13096868
-0.0466027
-0.05987919
-0.00952066
-0.028681267
-0.06962264
0.054730132
0.07090659
-0.042785272
0.023218224
0.04289714
0.016551169
0.048850473
-0.03695921
0.011086284
-0.03506459
-0.014701624
-0.030610284
-0.07028957
0.0563614
-0.034157883
-0.06445065
-0.010099285
-0.073105544
0.031696238
-0.04657939
-0.014729379
-0.042595066
0.05553955
-0.006823751
0.08072683
0.05072362
0.07092062
-0.06563585
0.06001302
0.07326735
-0.054182842
0.0012186887
-0.08201304
-0.028389005
-0.032652568
-0.05281267
-0.0018061354
-0.08010299
-0.005184036
-0.09488604
-0.047647644
0.12749775
0.009185014
-0.052884817
-0.047287323
-0.00797126
0.09969132
-0.031805307
0.13517098
-0.07003281
-0.071835905
-0.02708178
0.04676861
-0.002926829
-0.06251336
-0.021636449
-0.08939579
-0.06475582
-0.031222953
-0.046610452
-0.0015494509
-0.015521502
-0.04103345
-0.00022724
0.021495577
-0.07989317
-0.08432068
0.09882189
-0.056860868
0.02709996
-0.052747097
-0.061126012
-0.04355439
0.00037656416
-0.013071135
0.04199459
-0.09626978
-0.015593066
-0.06850829
-0.070132725
0.12665384
0.070169546
0.12715332
0.055369277
-0.0610205
0.059586473
-0.06142478
-0.003941445
-0.068238564
-0.030656504
0.057482775
0.08333026
-0.04019432
0.103932306
-0.075005144
-0.036554683
0.030038906
-0.055152677
0.0100556435
-0.017941168
-0.09836888
-0.041825745
0.014093182
-0.045823768
-0.058671728
-0.078109056
-0.009347159
0.008843595
0.04752596
0.050198827
-0.045713324
0.039293703
0.05328121
0.10478389
-0.008516848
0.02918564
-0.056895386
0.05562216
-0.030632202
-0.13306944
0.029237306
0.023369143
-0.066144064
0.0016026262
0.005698114
-0.069716744
0.016735278
-0.03069029
-0.018641373
0.06548859
0.039015498
0.09257081
-0.061643373
0.010547999
0.09837611
-0.031086404
0.015769001
-0.028794846
0.0034658036
0.07099723
0.034767028
-0.007992984
-0.004017909
-0.087792076
0.0043968256
-0.002759503
0.01019839
0.17560624
-0.012820322
0.14037997
0.051501364
0.07418949
-0.03743089
0.10194911
-0.095518254
0.0063829236
0.057782006
-0.07646373
0.011824395
0.10136519
-0.02669883
-0.046194464
0.015013298
0.093679376
0.01587887
0.017027704
0.1171875
0.06586996
-0.04563434
0.071266234
-0.06134812
-0.0074892743
-0.042505216
0.15176977
0.0405782
0.0025156515
0.04676545
-0.08851569
-0.05490838
0.06662696
-0.040313467
0.072075345
0.06395801
-0.056172766
-0.004274192
-0.032582514
-0.0034819378
0.09166196
0.077392496
0.11022382
-0.098935224
0.11095439
0.00010263273
0.08689945
-0.032232936
0.042612743
0.06259573
0.044345915
0.1369352
-0.020453187
0.05335909
0.004098824
0.04656296
0.05920604
-0.014729118
-0.022201817
-0.058607705
-0.078041926
0.0640267
0.07364537
-0.038939826
-0.03565145
-0.03463432
-0.04438671
0.00063135807
-0.05248349
-0.022517059
0.048733972
-0.08048227
0.026048344
-0.048594218
0.0015861266
0.11828157
-0.011791282
0.05788158
0.071319744
-0.045244202
-0.079236746
-0.0700404
0.025824467
0.08976076
-0.07800343
-0.056124486
-0.025523696
-0.09667532
0.10378334
0.036960002
0.086532705
-0.022477534
-0.07029677
-0.04444149
-0.07271099
-0.040191386
-0.054243583
-0.11267562
-0.054554466
0.05210073
-0.0049327635
0.069035776
0.09156852
-0.01923283
-0.057733536
0.095017724
-0.07934465
0.06050292
0.05015696
-0.02686651
0.022962334
0.089891575
-0.08200469
-0.07239673
0.051417377
-0.017610366
0.021542236
0.00027848894
0.110719785
0.13103318
-0.07757605
0.046541877
-0.06215854
-0.003433445
-0.083158314
-0.03347735
0.022402717
-0.10399232
0.036450393
0.046821106
0.01610032
0.10227428
0.04753632
-0.06884784
0.07613871
-0.0087752845
0.07391982
0.006877908
0.071981825
-0.048400052
-0.041722637
-0.102001235
-0.09464268
-0.027638875
0.06559619
-0.015828492
-0.02926975
0.106082074
0.06660946
0.09855972
-0.087368034
-0.110865414
0.057025943
-0.06559422
0.0009354772
-0.007571081
-0.027058017
0.068782784
-0.1030401
0.02469247
-0.07663497
0.018498255
-0.02315175
-0.06946274
-0.13961051
-0.04326122
-0.07842866
-0.07468682
-0.060206644
0.06745792
-0.050395813
-0.015558828
-0.062677786
-0.031852875
0.0091928495
-0.08879261
-0.13005407
-0.062350605
-0.08186617
0.13049148
0.023222627
0.019766811
-0.0069719027
0.03881378
-0.022988994
0.013600019
-0.08580328
-0.02191331
-0.014941531
-0.1133618
-0.0022632838
0.03395695
0.07462105
0.067809105
-0.020469988
0.050209373
-0.050450206
-0.0108188195
-0.067977995
-0.10717182
-0.044283476
0.020210363
-0.061295908
0.08545685
0.11377144
0.05007879
0.07677602
0.06441889
-0.007317004
-0.057283007
-0.0923809
0.1483743
-0.10120294
-0.059709575
0.03295524
-0.12002488
0.012403066
-0.052978702
-0.099702656
0.08439538
0.0057692323
0.0064874175
0.045161497
-0.11072543
0.1703414
0.009826665
0.011382204
-0.1314869
0.07298213
0.040891852
-0.034985088
-0.010337157
0.08364449
0.11095428
0.0123819215
0.14278483
0.20077437
0.105036534
-0.025081687
-0.010045463
-0.0043907524
0.14595886
0.03858627
-0.107056685
0.0010739756
-0.05700799
-0.10530648
-0.088796794
0.060094807
-0.014644554
-0.013845207
-0.015181604
0.08082269
-0.0014622831
0.02077556
0.027577352
-0.042113356
-0.059729867
-0.13431701
0.00061321113
-0.09637211
0.030549532
0.0195913
-0.04192149
-0.001220058
-0.1266149
0.0024276923
0.004519119
0.09882668
0.056492876
-0.07591614
-0.086891666
-0.121368915
-0.12575527
-0.08992907
-0.026117131
0.1321985
-0.042928398
-0.04652263
-0.060860265
-0.04429231
0.045913875
0.065362476
-0.030500649
-0.043764077
0.12229793
0.06397072
0.003220653
-0.05271368
0.058952376
-0.034677688
-0.108636305
-0.035337307
0.12587161
-0.033981074
0.10068829
-0.012583997
-0.11175438
-0.105352774
0.038875755
-0.0797697
-0.015807945
0.0381858
-0.05798683
0.15314315
-0.027691048
0.07481634
-0.007396089
-0.011233821
0.02484264
-0.05161922
-0.08788557
-0.07108468
-0.08662535
0.2870054
0.012997871
0.07312674
0.09837129
0.022921877
0.002848216
0.113075405
-0.047062904
0.10438402
-0.06433047
0.05098274
0.116218664
0.03223701
0.04603447
0.16246146
-0.0136473095
0.0024646204
-0.034708098
-0.05599007
-0.1071592
-0.06271775
-0.024585556
0.07684646
-0.0033060282
0.10963009
-0.012355447
-0.069391534
0.097520635
-0.006368064
-0.08893469
-0.11128128
-0.0652321
-0.051817734
-0.01149572
-0.07039306
0.1447065
0.030048087
-0.04095857
-0.055951726
-0.07369156
0.12270991
-0.0025589482
-0.0443926
0.06159807
0.036920615
-0.12291629
0.1316899
-0.06402165
0.064653225
-0.01782621
0.0020663387
-0.005925433
-0.15009476
0.1456115
0.0063298363
0.04486291
-0.15166833
-0.037687477
-0.12295276
-0.04411749
-0.040861864
-0.08172491
0.07458296
0.014053534
-0.11612464
-0.06371213
0.10165695
-0.13034207
0.15113802
-0.05367594
0.05566294
0.09914329
0.08776123
-0.10941629
-0.12982194
-0.03400263
0.03791444
0.06893429
-0.07301616
0.060513087
0.021019738
0.11253382
-0.026501225
-0.059669677
-0.047354512
-0.022122508
-0.03049718
-0.05958901
-0.021514585
-0.08214624
0.03635557
-0.03949048
-0.005418951
-0.09186429
0.10689859
0.052394334
-0.113316394
-0.04006905
0.0347591
-0.0561974
-0.01060164
0.13573374
-0.03633977
0.039057475
0.0077144983
0.07226446
-0.06993344
-0.03745097
-0.053958636
0.05430959
0.083884895
-0.044252276
0.20239487
0.023989657
-0.041491095
0.03820662
0.0060868673
0.015798727
0.023276974
-0.1054937
-0.02616003
-0.042481653
0.060759936
0.035469662
-0.057818227
0.15096067
0.09476842
0.061842784
0.04917674
-0.111220255
-0.1360225
-0.096255794
-0.1542533
0.020714989
0.13439131
-0.066916734
0.007792938
0.112562135
0.062659174
-0.03661851
-0.060855005
0.047245484
-0.13894105
0.046816524
0.02460858
0.2017453
-0.053954415
-0.10104305
0.062117457
0.004821819
0.08142223
-0.049217615
-0.059028868
0.022895418
0.0751192
0.0096635
0.11418665
0.024653448
0.11559501
-0.1211946
0.01038769
-0.14746508
-0.041266613
-0.082305215
0.02993258
-0.1889764
-0.011237264
0.055783316
-0.006702615
-0.037741277
-0.119784765
-0.015063642
-0.0071112793
0.015427553
-0.08433662
0.022324305
0.059667125
-0.017137608
-0.11035801
-0.015398894
-0.08050853
-0.058237247
-0.06322834
-0.043763805
-0.056340955
-0.08656288
0.070845425
0.1002257
-0.123446144
0.10852697
0.028571522
0.05325133
0.07394131
0.07105732
0.022336114
-0.02116595
0.072914876
-0.1336657
-0.0342485
-0.089939386
0.0025356507
0.009978736
-0.0024146156
-0.052154154
-0.047796305
-0.10483315
-0.063849814
-0.107132785
0.016568962
-0.088786565
-0.14695941
-0.121829465
-0.010021022
-0.054094497
-0.09325211
0.022679137
0.09959905
-0.037803896
-0.056853097
-0.026167162
-0.013805367
0.055478398
-0.027233195
-0.0029011315
-0.1577371
0.0149129955
-0.084139496
-0.08917768
-0.014282577
0.054865368
-0.06708289
0.08759868
-0.0036586437
0.018685708
0.058552347
0.07843601
0.0067924876
-0.06216069
-0.13871232
-0.023205843
0.055134393
-0.017500538
0.058879152
0.056347452
0.014548855
-0.09747285
-0.015674492
0.08928188
0.05205749
0.12611873
-0.050728615
-0.12964654
-0.12592775
-0.07131349
-0.022238914
-0.004414933
-0.06584899
0.010773475
0.027726304
-0.09257909
-0.0968416
-0.04673958
-0.046944797
-0.052426443
-0.07660158
-0.031404637
0.0035137685
-0.058937363
0.02965637
0.025927255
0.025060276
0.026252016
0.107635945
0.06088308
0.034447078
-0.08674346
0.15077393
0.10729618
0.040094085
-0.15674269
-0.13762927
-0.083655104
0.035338987
-0.06492764
-0.08660077
-0.032389548
-0.039439935
-0.0350106
0.016352335
0.085375525
0.004748189
-0.03995931
0.087925486
0.10943214
0.03262619
0.0051330742
-0.04574381
-0.083433606
0.066304706
-0.09995742
-0.04517304
0.06753597
-0.04109429
-0.103811964
-0.025374083
0.06677028
-0.0053284247
0.036731105
0.10672004
-0.073529676
-0.030963242
-0.048051227
0.031115156
0.108325906
0.11195218
0.07570453
-0.05685879
0.04529853
-0.030819545
-0.07432879
0.07519945
-0.034968782
-0.030486524
0.012991145
0.041955434
0.09454205
0.059910502
0.0009031846
0.03112059
0.030687094
0.0045553804
-0.006314546
-0.0152974175
0.06118894
-0.046423122
-0.04622054
0.00838642
0.0019733168
0.03290089
0.06792933
-0.099911034
0.01179415
0.027196217
-0.030667212
-0.06841533
-0.034142263
0.004187432
-0.03106391
0.04085501
-0.06717381
0.0159885
-0.0053090733
0.11601672
0.08610066
-0.072772466
0.12520066
0.03651777
-0.012622218
-0.056531418
0.007599866
0.051076062
0.06112031
-0.030326124
-0.0915048
0.053303987
0.09448479
-0.047332782
0.04311364
-0.010026546
0.03419375
-0.060054675
0.0076543684
-0.018672682
0.027928142
0.15195419
-0.052395638
-0.049258374
-0.039532915
0.011460203
0.08168786
0.07567205
-0.10659252
-0.061049633
0.024046991
0.056819197
0.076759964
0.11082554
0.03536594
0.01950664
-0.0073364605
-0.1361016
0.11485709
-0.052548233
0.074462555
-0.018410403
0.09316282
0.13917598
-0.042928357
-0.11130016
0.037607905
0.046057966
-0.020652268
-0.06386685
0.020587647
-0.041289233
0.05112425
0.0051349592
-0.08762458
-0.001047722
0.019224484
0.06350121
0.009374754
-0.0055934554
0.037679035
-0.056009587
0.032844104
0.044836435
0.0006460424
-0.0453964
0.06853896
0.010308121
0.01919
0.03629507
-0.027656568
-0.056074247
-0.013670926
0.011014371
0.12720218
-0.0039559505
-0.0050068856
0.07818835
-0.017123217
0.035218194
-0.06856857
-0.01714389
-0.091028675
0.12395617
-0.024914874
0.020553023
0.036565892
0.046660386
0.1103913
-0.09510069
-0.057357863
0.02616299
-0.047106463
0.097980134
0.0765214
-0.016265495
-0.013640825
-0.053939283
0.049577393
-0.018886527
0.104085915
0.07806176
0.106858514
-0.0064854133
0.05828101
-0.054796614
0.0070359455
0.0357312
0.10422689
0.04608179
0.030349836
0.06835927
0.08288794
0.09133124
0.0042397548
-0.055344872
0.016296268
0.028067218
-0.010726128
-0.0005586691
-0.00400196
0.016903633
-0.0577061
0.07072355
-0.04705897
0.006915301
-0.008365351
-0.023304867
-0.048174735
0.0088200765
-0.03130272
-0.025781414
-0.08439626
0.1693852
0.027790667
0.086341955
-0.039097838
-0.12264723
-0.10080717
0.04631714
0.13088024
-0.07169632
0.040436592
0.038689185
0.062359944
-0.08040698
0.088215895
0.10077981
-0.12582672
-0.018089645
0.09410477
-0.012224782
-0.07678144
0.06518855
0.03199092
-0.04748776
0.074428886
-0.10163243
0.026903905
0.057811134
-0.03045333
0.015490453
-0.11273783
0.05827877
-0.030413654
0.08807724
0.031858735
0.026371974
-0.0407887
0.047204528
-0.038089342
0.008308961
-0.02854952
0.03710012
0.025083236
-0.026999902
-0.10620428
-0.057262138
-0.048896197
-0.10125548
-0.025184128
-0.11558334
0.0547578
0.08811713
0.025307553
0.04143886
-0.052708544
0.09383576
-0.05408516
0.0071066795
-0.106692046
0.00059217465
-0.036654416
-0.06639109
0.029086638
-0.063741066
0.050476555
-0.074263476
-0.066488616
0.013969909
0.0047675325
-0.063952476
-0.025203193
-0.099936746
0.051091287
0.010794964
-0.084937006
0.10079603
-0.035064455
-0.106952645
0.06642156
-0.012622724
0.05908113
0.10855727
-0.0822808
-0.0073582316
-0.077860095
0.06491778
0.003492126
-0.080595285
0.10959719
-0.013982476
0.03144903
-0.0243747
0.108481996
-0.0072606807
-0.017242054
-0.027246185
0.16396917
0.037061114
-0.095603555
-0.03310219
-0.07170133
-0.0023416325
-0.050233208
-0.13541847
0.024640009
0.04533101
-0.08789599
0.061451796
-0.059489157
0.10741338
-0.075348064
0.04162325
-0.09675251
-0.099313475
0.12734571
0.123551756
0.05699679
0.05129501
0.14064467
0.038392235
0.009095435
0.015663587
0.08243212
-0.068131864
-0.06172964
0.008195043
0.014892375
0.1121129
-0.0180999
0.03312603
0.024424454
-0.11359669
0.017974066
0.08202595
0.019057715
0.14246173
0.07729856
0.1567115
-0.07121383
-0.010382609
0.03470795
0.0965684
-0.12114701
0.21659333
0.0037818602
0.031194823
0.11333703
-0.030203333
0.13207725
-0.02759726
0.021080256
-0.00789108
-0.055587538
0.010323592
-0.050955813
0.053980447
-0.017292613
-0.007635688
0.004223751
-0.0723674
-0.10928972
0.038501333
0.067765355
-0.12762213
-0.0023419217
0.07930366
-0.064181685
-0.1028905
0.08829119
0.091082335
0.05630554
0.058061473
0.012850625
0.14544374
-0.08753745
-0.12435979
-0.09665433
-0.062986694
0.09428087
-0.078118704
0.009407679
-0.07547117
0.015421745
-0.08491942
0.036384717
-0.07994993
0.027928218
-0.032251295
0.09771965
0.09521412
0.030850146
0.064359106
-0.027733503
-0.013794165
-0.0011263518
0.031281497
-0.021517007
0.11176626
0.030689048
0.035590645
0.0059091393
-0.042044327
-0.071674496
-0.051897526
-0.045440596
0.05321116
-0.010364906
0.09466416
0.089548476
-0.061792124
0.10044787
-0.07692241
-0.030135198
0.11176377
0.018743683
0.1754125
-0.12822942
-0.0800251
0.046914462
0.0049613616
-0.1393614
-0.049565475
-0.071474284
-0.0704254
-0.096860655
0.08836287
0.045427762
0.06554072
0.08588625
-0.05041119
-0.037400585
0.025409201
0.07008579
-0.028358866
0.041464712
-0.00082268514
-0.106578134
0.04839145
-0.091524065
-0.022704015
0.007795966
0.029793052
0.007862737
0.02950786
0.019514868
-0.06561714
-0.14091499
-0.02398357
-0.0066367057
-0.023777256
-0.0015499331
0.048007023
0.027990656
-0.09685467
0.003449194
-0.035644498
-0.03511649
0.058851577
0.060748737
0.048141476
0.099782646
-0.07402347
0.09299183
0.0011673196
-0.15412723
-0.07993966
-0.09930465
-0.015192751
0.021358876
-0.086480424
0.12371489
-0.091010004
-0.006587448
0.05089354
-0.18301171
-0.029962681
-0.089029364
0.046024665
-0.09110661
0.00010269096
-0.023955429
-0.05654325
-0.012816647
-0.01891887
0.050643906
0.08987825
-0.056631275
0.048502322
-0.093401894
-0.10491342
-0.019162666
-0.029021591
-0.03901528
0.084409334
-0.094222255
-0.040566012
0.13151143
0.0034769846
0.11424913
-0.12530917
0.04064009
0.035362065
0.023062747
0.063348226
0.038100854
0.13604514
0.085255004
0.13793804
-0.100684725
0.042345863
0.08108408
-0.018678011
-0.060806945
-0.067706265
0.13978845
-0.08948875
-0.08031381
-0.03450456
0.010627306
-0.019644527
-0.09432191
0.02007948
0.06397722
0.0451851
0.059621405
-0.111908376
0.124037676
0.111315385
0.004822731
0.09431198
-0.069342025
0.0010370808
-0.04057148
0.104807355
0.006499249
0.08933928
-0.10628749
-0.055184305
0.109455094
-0.0006331878
0.07474078
-0.058674805
-0.11870324
0.029522462
-0.08987797
0.037734933
-0.1135448
0.080320306
0.02050333
-0.015380963
-0.008427377
0.061033413
-0.08183225
-0.017966915
-0.035161767
0.08033866
0.14712644
-0.0052711465
-0.00053231395
-0.03300878
-0.07500629
0.04015439
0.059153188
0.024307817
-0.14538197
0.096308574
0.017559819
-0.010359912
-0.08709504
-0.12814242
-0.0056028953
0.12646258
-0.037731316
0.00014473186
0.10545371
-0.07599544
0.12715529
0.08766704
-0.018291112
0.08621976
-0.05558585
-0.060442895
-0.04220751
0.015203453
-0.005165958
0.03971722
0.107509285
-0.05470907
-0.030414071
0.09341305
0.05272453
0.06060831
0.040158883
-0.001966606
-0.026635787
0.09533422
-0.112793
0.06703908
0.06026512
-0.06916694
-0.06371562
0.0069360486
-0.0502162
-0.05800061
-0.03964967
0.14438468
0.091313004
0.09101151
0.078958556
-0.0337908
0.09322495
-0.07474362
0.044901513
0.00835137
0.056919567
0.028147247
0.099321954
0.06912046
-0.07144944
0.05091989
0.046801373
-0.10016147
0.035325237
-0.10239186
-0.063474745
0.04321909
-0.025581198
0.12280768
0.08025745
0.007184936
0.0415573
0.12846147
0.061757468
0.049670536
0.11031515
-0.06295874
-0.0788481
-0.014934292
0.16272591
-0.0010391001
0.08257582
0.1171332
-0.09652213
-0.07315317
0.08374575
-0.0119162705
0.06034299
0.083831064
-0.064650565
-0.023134647
0.07711479
0.05832983
0.12428976
-0.03623828
-0.094482556
0.12907577
-0.049830418
0.026965844
-0.07906859
-0.00095397903
-0.02580944
0.055279683
0.052661423
0.0006524292
-0.040782005
0.04352705
0.09593492
0.035955038
0.056978427
-0.039324697
-0.026723793
-0.027908988
0.029973943
-0.10629116
-0.14749141
-0.027603075
-0.06416584
0.08231951
-0.04223602
-0.107356496
-0.023473019
0.046111967
-0.07843223
0.004610153
-0.1211107
0.019756338
-0.12497143
-0.03358391
-0.05353425
-0.046003155
-0.04766559
0.053242173
-0.041191876
0.012971999
-0.004204579
-0.06961991
-0.047791466
-0.011381185
0.046970632
0.018594122
-0.050705753
0.036085967
0.041800518
-0.12815782
0.026885321
-0.05064048
-0.12288751
0.026912421
-0.040067203
-0.015887622
-0.008951681
-0.0571158
-0.007249582
-0.053486474
0.00902927
-0.037597977
0.004738312
0.08250846
-0.046758726
0.048120752
-0.01893799
-0.11636083
-0.10559701
-0.13081072
0.031167353
0.060703482
0.04054595
0.01072037
0.0960771
-0.08323171
-0.08337862
-0.060623392
-0.03810572
-0.08250932
0.06820998
0.03816828
0.09221201
0.09411985
-0.019882327
-0.20508182
0.114132285
0.008745781
-0.067361124
-0.06473539
-0.11144374
-0.08265105
0.06207164
0.029117942
0.0363391
-0.00042387916
-0.019562405
0.013624086
-0.060858995
-0.08521728
0.12416272
0.014648175
-0.0030956909
0.008436561
-0.10786063
0.001279531
-0.0147002535
0.027707571
-0.046696816
-0.10095799
-0.11019946
-0.04909677
0.16985781
-0.047389127
0.0743137
0.12832806
0.034851972
0.16638906
-0.08557155
-0.12016327
-0.006034036
0.07194106
0.09410942
0.07316582
0.035235777
-0.075606436
0.032247968
0.11024869
-0.10454145
-0.043780122
-0.038034137
-0.10179885
-0.035172895
0.061333384
-0.013399477
0.06801301
-0.010785937
0.0011035276
0.011772215
-0.07359885
0.07980977
-0.020569883
-0.06348322
0.01355099
-0.052427076
0.08785661
-0.027191201
-0.010497578
0.048306372
-0.0072626984
-0.07020136
-0.06549166
0.08899599
-0.015422683
-0.008555637
0.01612403
-0.11146987
0.03532299
0.03721697
0.10268473
0.0072069815
0.020822663
0.017679922
0.01422061
-0.0014459972
-0.11116125
0.08543689
-0.06568894
0.010247449
0.16765969
0.11311806
-0.008579088
0.02582424
0.008387639
0.021293236
-0.081136346
-0.03209467
-0.035102963
-0.01932862
0.029325493
-0.083026506
-0.07816147
-0.08674358
0.007857012
-0.04295847
0.11496943
-0.058428004
-0.039269976
-0.049997196
0.00621339
0.07700616
0.051494073
-0.07602716
0.03531128
-0.09407775
-0.05834592
0.06891386
-0.013290644
0.052186076
0.01651995
-0.07399084
-0.015127534
0.07005506
-0.054395556
0.08059305
0.038264856
0.046217773
-0.03035921
-0.06541193
-0.053865034
-0.05420524
-0.017509893
-0.051838245
0.078828126
0.11477448
0.026979506
0.0044471715
-0.044950053
-0.08046276
0.04149462
-0.034388006
0.04594218
-0.01765003
0.1129643
0.066974245
0.0328748
0.021276176
0.058022626
-0.06587278
0.04622757
-0.08261873
0.037394214
0.08087071
-0.017838545
-0.055778112
0.099096216
0.032625347
0.026141752
-0.030334268
-0.004814086
-0.07853472
-0.029895717
-0.07327675
-0.06084861
0.086218946
-0.03099249
-0.08132474
0.088998325
-0.039469477
0.01610049
-0.042569302
-0.070800416
0.0493095
0.071407706
-0.07089683
-0.07689526
0.0018628074
0.078717805
-0.05055809
0.04331072
-0.012480023
0.10237423
-0.0500911
-0.028610729
0.04857538
0.0462245
-0.010657997
-0.052066755
-0.064664006
0.017470637
0.031060597
0.008799478
0.0086105075
-0.0074587166
0.041456096
-0.009660809
0.028122876
0.029828297
0.0046864483
-0.06182218
-0.016892642
0.02768982
0.016354667
0.015408571
-0.035470497
0.025332363
0.04964268
0.02931602
0.14100587
0.037816618
-0.09546307
-0.04990453
0.024445653
-0.054817803
0.032394297
0.043507773
0.049450498
-0.08226649
0.00049076334
-0.06281154
0.11700784
-0.08368261
0.045457993
-0.05521306
-0.045441784
0.0963113
0.1094028
-0.080787405
0.04292386
0.119995564
-0.0430314
0.09727011
-0.008136984
-0.032507192
-0.019118225
-0.06573174
-0.04812489
-0.10445953
-0.020488776
-0.0063015665
-0.04168424
0.12093262
-0.008651102
0.07486951
0.011224905
-0.020421633
0.01399647
-0.06359408
-0.09214428
0.05090829
-0.058664948
-0.019696085
0.03408276
0.0057415687
0.06941182
-0.062646136
0.047042362
-0.020499986
0.02045973
-0.016190734
-0.020333124
0.04710773
-0.064343184
0.07828201
0.07197435
0.016853428
0.10829123
0.031237708
-0.008781612
-0.01207062
0.034944218
-0.08459864
0.05487578
0.097841516
-0.00475295
-0.0019022257
-0.036433164
-0.0188819
0.018508462
-0.042214073
-0.018952008
-0.07670662
0.055079937
-0.050744884
0.023475725
-0.005343319
-0.07013078
0.04640517
-0.0412428
-0.0431398
0.08605846
0.05237879
-0.054841466
0.05665057
0.03803899
0.056470808
-0.03281858
