0.001510649
-0.0022192397
0.0016987772
0.0057301093
0.004101786
-0.005655665
-0.0029854712
-0.0007797323
-0.0015734293
-0.00079033663
-0.004171208
0.0035213174
-0.001560081
0.000734083
-0.0049387813
-0.0035732838
0.0036869731
-0.00054382114
0.004194088
-0.0029022216
0.006178125
0.0061098617
0.008816966
0.008798994
-0.0049417876
0.003389522
-0.0015575447
0.00029719612
-0.0023995442
0.00033220078
-5.5532328e-05
-0.0009587953
-0.0042066313
-0.0006048676
0.0013295534
0.0015401775
-0.0010290572
0.009776963
-0.0085951
-0.0013969863
-0.0013471117
0.0013559952
0.0045011076
-0.0064647733
0.0022683477
-0.002223381
-0.00932944
-0.00021711201
0.002295792
-0.008980031
-0.0028646307
0.0007454037
0.004208247
0.019889576
0.001370039
-0.007904019
0.0062008617
0.0053581316
0.003028703
-0.00049835886
-0.00499688
0.009419791
-0.0005702922
-0.0015062157
-0.0035519076
0.0040145293
0.0025893345
0.008822669
0.0036922083
-0.0011973067
0.0011568251
0.006044129
-0.0038509364
-0.0033081593
-0.00018407193
-0.008174037
0.0025431006
0.00043667157
0.0029594742
-0.006590714
0.00038484714
-0.0016573763
0.005852757
-0.00723544
-0.009535772
0.0050973077
0.0027244824
0.002019403
-0.009481947
0.004190617
0.007931853
0.0062935245
-0.0018460796
0.000620264
-0.0021040575
0.004753667
0.00038962654
0.0012225716
-0.0013338398
-0.012261887
-0.0010135164
-0.0021301878
0.0024990644
-0.01012921
0.0015109596
-0.0009047909
-0.0007568351
0.00018772841
0.0015356339
0.00062453904
-0.004106949
-0.0042672446
-0.0020160598
-0.012081116
-0.00077753136
-0.0044995635
0.0060281754
-0.005110074
-0.00041574583
0.0019630382
0.0030861502
0.0031158777
-0.0027327926
0.006339142
-0.0141114
-0.00096653623
-0.003253063
-0.0064321617
