-0.0005802477
0.0023964415
-0.0011920106
-0.007910857
-0.004068829
0.00038576135
-0.0043702107
-0.0012558699
0.0047174366
-0.0018233296
-0.0048636105
-0.0063893143
0.003402895
0.007154286
-0.003642174
-0.008391765
-0.0013389218
-0.00053641235
-0.004159328
-0.004263823
-0.004806197
4.2501775e-05
-0.005132705
0.0021814932
-0.0073023546
0.004674778
0.002742879
0.0068243206
0.001681478
-0.0030802009
-6.117413e-05
-0.0018127245
0.0006138903
-0.010571715
0.0018294555
0.009925564
-0.008581558
0.0003170635
-0.0040356745
0.0012262882
-0.0038752803
-0.0060290094
0.0011204339
-0.00576757
0.00021649295
0.002320942
0.0037303425
-0.001585894
0.010056453
-0.0108618485
-0.0016660078
0.004267206
-0.0013927122
-0.0074431747
-0.0050128996
-0.0041679745
-0.009997608
-0.0034947267
-0.014809828
-0.0012441704
-0.0034640448
0.0046920856
0.0026020645
0.0061966176
-0.007755533
-0.005913175
0.00450962
0.0029745356
-0.0035340062
0.0011592886
-8.716259e-06
-0.00011415203
-0.005821359
-0.003358099
-0.0048400294
-0.0031992763
-0.0011678389
0.0014447635
0.0072312243
-0.0053476393
-0.004064492
0.0024407266
-0.0031523143
-0.008163663
-0.0011752696
-0.007865768
6.125189e-05
-0.005162795
-0.0025768867
-0.0043787053
-0.0021969043
0.0030668338
-0.0021543982
-0.007087395
-0.003506503
-0.0058687665
-0.0069276313
-0.010432446
-0.0064205793
0.0019882922
0.001138389
-0.0052137496
-0.010376055
-0.002392946
-0.0010260259
-0.0048114154
-0.003503133
7.197256e-05
-0.0029865413
0.0017830138
-0.003072858
0.0039994097
0.0021031024
-0.0003544014
-0.005409566
-0.0034446612
0.00016575117
-0.0033797268
-0.007227664
-0.0018136423
0.0006935435
-0.006232971
0.0024606735
-0.0070705013
-0.0074576344
0.0071224216
0.0023505676
0.0054348283
-0.0012610474
-0.0007971287
0.009217344
-0.001650099
-0.0058546322
-0.005338749
0.0024151397
-0.0016182214
-0.0052265874
0.006382815
-0.0031783874
-0.0016239851
-0.001781992
-0.009381548
-0.008083477
0.005839608
0.0046314825
0.002737118
-0.005317974
-0.009300005
-0.0065621147
-0.0016603625
0.0026395884
-0.00091590843
-2.5833775e-05
0.0067136134
0.00037784255
-0.0024424228
0.0039485656
0.009600542
-0.003989999
-0.0004888126
0.0028364977
1.6516127e-05
0.0015582353
0.00086496305
-0.002421734
-0.0039053187
0.0014750783
0.0053336965
-0.00076728984
-0.009394208
-0.0012315089
-0.00041851224
0.0028943866
0.0031558555
-0.0030835085
0.0073873103
0.0025296318
-0.004682134
-0.0049166214
-0.0029931779
-0.009112955
0.008662707
-0.00025418462
-0.011264989
-0.010443084
-0.0062534767
0.008204779
0.008374825
-0.01085389
-0.0034035812
0.002177459
-0.0074320505
-0.00096070603
0.0007221457
-0.0045727487
-0.0021624248
0.007865976
-0.0066530956
0.0030637018
-0.0022942438
-0.004782748
-0.010498216
-0.000590132
-0.005156559
-0.0025016933
-0.004881144
-0.0076378835
-0.003307667
-0.0031187842
0.006590431
-0.008096004
0.015435961
0.0027995252
0.00052721874
-0.0033950591
0.0016799003
-0.0002828836
-0.0038209255
-0.0066007366
-0.0035641058
-0.0005106063
0.0072957715
-0.008332127
0.0008943214
-0.007825108
-0.0075466875
-0.0037592368
-0.004471249
0.0047400435
-0.005013578
-0.0010305151
0.0059461063
0.0048591285
0.0019656648
-0.007857339
0.0047692657
0.0074293427
-0.00073266606
-0.0020332
0.006121415
0.0011799377
-0.003980722
0.0013990501
0.00040628025
-0.0026770341
-0.0028504452
0.0014989567
-0.0071561495
0.0041339486
-0.0051447046
-0.007228901
0.002923472
-0.0026027276
-0.0027052984
-0.012233208
0.0041074613
