0.002212405
0.001713661
0.0036250204
-0.0035503756
-0.00019394486
0.004055803
-0.00128277
-0.0016965509
-0.0028428661
0.005235251
-0.010969362
0.002459986
0.000438025
-0.00083994126
-0.0018833462
-0.0069752834
0.0007976024
0.005610267
-0.0048491973
0.00053959346
-0.00092655676
-0.00711977
-0.0069091646
0.0024146414
0.0033165803
0.003860801
-0.00026689138
0.0052395165
-0.0038584517
0.00056513265
2.4059816e-06
-0.006263659
0.00080953306
0.00014129755
-0.0039787693
-0.0013502939
0.006227796
-0.0023817641
0.00051446364
0.004852671
-0.008603026
0.00195713
0.004124964
0.0011545967
-0.0007497506
0.0022572752
-0.000777617
-0.0011192696
-0.00061340135
0.000664766
-0.0078004133
-0.0010018928
0.00021292547
-0.00095133507
-0.00094850914
-0.0040196544
-0.00062068214
-0.00048931263
-0.009679079
-0.0006147286
-0.0019760225
-0.0008097956
-0.0060835807
-0.005043614
0.003992298
-0.0034679405
6.827303e-05
-0.0033879878
0.0029938878
0.00023705685
0.00044434812
0.0004908062
0.005790179
0.0006215678
0.0009016682
-0.0005640475
-0.0010489646
-0.007986639
-0.008988416
0.00017244977
0.0009708441
-0.003605526
0.0025084552
1.7051516e-06
0.001231222
0.0014343054
0.0014976698
0.0037673614
0.00048398206
0.0012701936
0.0009017412
0.0017916159
-0.0091715185
0.0013296059
0.0026944883
-0.0002088716
-0.0027287179
0.0051321834
-0.00038979988
-0.006155651
-0.005351451
-0.0023553597
-0.00080598664
6.465162e-05
-0.0010329288
0.00049321516
0.0010210094
-0.008769974
0.0053099943
-0.0069811707
0.0029397663
-0.0038816181
-0.0020881754
0.0060466495
-0.0030218004
-0.0055262996
0.0011158532
-0.003745913
-0.0050967922
-0.007655578
0.001308876
-0.0063217347
0.0014824874
-0.013021283
0.0011696102
-0.007843377
-0.005702785
0.0012639848
-0.0022612812
-0.0011919419
0.0015986933
0.0008538596
0.00567806
0.00016163268
-0.004113192
-0.0020307815
-0.0006023624
0.00096075196
0.001272491
-0.0051658396
-0.0076746824
0.003369376
-0.0038255467
-0.0075620282
0.0032234958
0.00069768657
0.0017149586
0.002607165
-0.00054164167
0.0046850075
-0.0078359945
0.0017967921
0.0055544362
-0.0049702046
-0.00074677524
-0.0011543648
0.0030627798
-0.004447314
0.0033304216
-0.006114703
-0.001640376
0.0026819126
-0.011325696
-0.0036157374
-0.012285011
-0.0013390108
0.0014521017
0.0062487274
-0.0033763924
0.004849811
0.0078082005
-0.004988012
-0.0012873239
0.0020485271
-0.0010623931
-0.011079343
-0.007069081
0.0045849364
0.0020618688
-0.0071409964
-0.0041407733
0.00039633273
-0.00016312672
0.0012642101
0.0020576671
0.0008858091
-0.005011208
0.0014011798
0.0044925665
-0.0072691576
0.0041154516
-0.002760554
-0.0005522685
0.00044050228
-0.0009691606
-0.0061753113
-5.8829803e-05
-0.0012668109
0.0019054468
-0.00017017974
-0.0014735345
-0.001682975
-0.0018330297
-0.0007061292
0.007417834
0.004241449
-0.001431209
0.0051687104
-0.003292752
0.0020369892
-0.011300994
0.0006286978
0.0036859768
-0.00055236305
-0.008844401
-0.0054098414
-0.0028846962
0.0053467117
0.005977609
0.0034763552
-0.0041346303
0.0020511514
0.0008601229
-0.0005240284
-0.0054105707
0.0008062758
0.0020262317
0.0052080685
-0.0003530264
-0.0012431084
0.002682413
-0.0057482747
0.0029837582
0.002619231
0.0051678503
-1.3916887e-05
0.0043852413
-0.0040468196
0.0025215405
0.0035374956
0.0033934421
0.002965292
0.0018454863
-0.002447695
-0.005294327
-0.0019698609
-0.0014388309
-0.0021221782
-0.0017843874
-0.0061883093
0.00075421017
0.0043942826
0.00514768
-0.00058470207
-0.0014606285
-0.0037750143
-0.0028194292
-0.0074986066
0.00061414595
-0.00446422
-0.000112287096
-0.00036017376
0.00038207317
-0.0037101218
-0.0068625202
-0.003537026
-0.0043628616
0.0009871718
0.0033923513
-0.0010998218
-0.0005843741
-0.010496325
-0.0027914837
0.0046111727
0.00060040684
0.00052267103
-0.00033879693
0.0063257474
-0.0043548597
-0.0004488804
0.0028263873
-0.00077997247
0.003845987
0.0021009296
0.00121449
-0.0048977905
0.004422111
0.0050604534
-0.0005234349
0.0036841577
-0.0026364883
-0.0031949072
0.00027004135
0.0022813387
-0.0046533365
-0.0033219252
0.001576944
-0.0029969164
0.0050008707
0.0047411025
-0.001587114
-0.0011560558
0.00040619372
0.0021602188
-0.003205834
-0.004257263
0.0034838263
-0.005049341
0.0018861146
0.0011200716
0.004485606
0.008178019
-0.0005167904
0.0032938612
-0.0031404214
7.292924e-06
0.0040215678
0.00031966856
0.002901336
0.0029266288
0.0057693888
0.00043511836
0.00071547716
-0.0198633
-0.0031599028
0.0010539567
0.0074672196
-0.0017721201
-0.0031632632
0.0046204193
0.00018203957
-0.0021752985
0.0018998098
-0.00693225
-0.005211278
0.0029872041
-0.0021117004
-0.0008254752
0.00080830057
0.005735116
-0.009687771
0.0029199305
0.0019155442
0.0054291035
0.004258236
-0.002068001
-0.0076385755
-0.000826533
-0.0031834345
-0.007697336
-0.0013560726
1.3106695e-05
-0.0017668223
-8.31152e-05
-0.00030755537
-0.0026594955
-0.0030967703
-0.0013088954
-0.0019760437
0.003644749
0.0012516332
-0.0008058555
-0.0002066113
0.0035786617
0.0047955965
0.0077860807
0.0017431477
-0.008321057
-0.0025471014
0.002295307
-0.006359238
-0.001139605
0.0002829284
0.0030668385
0.00077843026
-0.002848569
-0.0007373477
-0.011688829
0.0014603945
-0.0026299276
-0.003943959
-0.0027191155
0.0021067252
-0.0021261727
-0.0028744668
0.0021254965
0.0045519746
-0.0026983384
-0.000521301
-0.0033489193
-0.0018917101
-0.006501926
-0.004423469
-0.002825551
-0.003046819
-0.00084971735
-0.00011143888
-0.004568849
-0.006766814
-5.7836794e-05
0.0010745601
0.0013923943
-0.0012231567
-0.0040354193
-0.0007229035
-0.00053384894
-0.00010246455
-0.0001703614
-0.001764396
-0.0017659249
0.002255272
0.00057337084
0.0045177946
0.002099323
-0.00033626988
-0.0013727361
-0.0033493245
0.0017666721
0.0002220677
-0.00201571
-0.0021931469
-0.0027016678
-0.00964483
0.0007478163
0.0021125616
0.0008111358
0.00020710712
-0.0021770028
-0.0041721663
0.0043828003
0.007077294
-0.00064086186
-0.0013997215
0.0014050845
-0.008261371
-0.002882717
-0.012905055
-0.0054899603
-0.00020652029
-0.0041872696
0.0015389799
0.0052355994
-0.0015311767
-0.0037691235
0.0014376126
-0.002383015
-0.0053011
0.0017908561
0.006351881
0.00022772883
0.0003377376
-0.0001440457
0.00225836
0.0039663333
-0.00032768887
-0.0011074811
-0.00100485
-0.0013858895
0.0012711186
-0.0011935986
-0.0026759645
-0.00991207
-0.005009369
0.0003472855
-0.0011917525
0.005430419
-0.00059277914
-0.00035795278
0.0006699287
0.00465575
-0.00442343
-0.0047750603
-0.0048675286
0.0038338848
-0.004585863
-0.005261622
-0.00013430066
0.0009461406
-0.006934248
-0.0030751508
-0.0066295587
0.0018954978
0.0004481261
0.005191111
-0.0047566984
-0.0001751574
0.001057132
-0.0012606158
0.0021903259
-9.062328e-06
0.0010153527
0.009285387
0.0021529424
-0.0013390932
-0.0032165435
-0.009585539
-0.00094355294
0.001927281
0.001980279
-0.0016133456
-0.00031775597
0.0030541467
0.0032954307
0.0072249444
-0.0055862297
-0.003594119
-0.0009153936
-0.0016875225
0.006739552
0.0006631678
0.0062739733
-0.00016845274
