-0.013165961
0.024072034
0.0069076503
-0.006517345
-0.021400549
0.022320714
0.01272249
0.021456394
0.018055059
0.025055042
-0.00317469
0.013363438
-0.008588407
0.0055388235
-0.0087837465
0.027842766
-0.016606858
0.017756352
0.025778359
-0.026967214
0.026629498
-0.02846612
0.012957453
0.019083332
0.023020612
0.0021860525
0.014341475
0.026521312
0.012868394
-0.028582517
-0.00947404
-0.023673914
0.0083429925
0.017259259
0.020450689
-0.0136759225
-0.02773767
0.0065228175
-0.022909032
0.019767068
-0.014461463
0.0012505692
-0.01816351
-0.0024468133
0.0047809365
0.025763508
-0.011279237
-0.02212114
-0.027319793
0.02570492
-0.003137483
-0.0054981243
-0.011654061
2.3077799e-05
-0.025302866
0.017044388
-0.021241914
-0.022330558
0.0011415549
-0.010961244
0.016096495
0.027412904
-0.01813628
0.018774731
0.027279215
0.024075504
0.01672862
-0.015239262
0.015828962
-0.0015798657
0.019653004
-0.02629605
-0.012968377
-0.025755603
0.0114084035
-0.024611339
0.023134355
0.027171543
0.025690792
-0.02095616
-0.014828489
-0.02543686
-0.016480869
-0.01722794
-0.011369092
-0.00991533
0.0062262756
-0.0011649844
0.028156621
0.0037943902
0.025044575
-0.024133474
-0.008273135
-0.02465011
0.018481813
-0.0040757605
0.012497319
-0.014272283
0.021276535
0.016339313
-0.026704885
0.006061098
-0.02529214
-0.021920385
0.012833742
-0.026704634
0.0058815917
0.028589748
0.028132271
0.013054761
0.015454572
0.026431939
-0.023255983
-0.026495012
0.018831855
0.018149287
-0.0026778786
-0.026314966
0.027766334
-0.024648933
-0.01348126
-0.002939368
-0.01777139
-0.01993802
-0.010862855
-0.026692124
0.00074431294
0.018474607
0.01110501
-0.021395458
0.017927982
-0.011512201
0.00832662
-0.028056404
-0.020055834
0.0012787598
0.019089889
-0.0005276019
-0.018054586
-0.009075674
0.024134431
0.014079716
-0.014604089
-0.019097745
-0.020566503
-0.019676747
-0.015270591
-0.008323238
-0.0038968197
-0.0119843865
0.0066306377
0.0077276328
0.0064216023
0.0043063257
0.026446773
0.02604515
0.01645702
-0.020423722
-0.011963577
-0.026973937
0.018674906
0.014196764
0.02832591
0.021482306
0.013390211
0.011619231
-0.0064206305
-0.026008133
0.008338696
0.0033517508
0.013580761
0.02794116
0.00023697177
0.010827924
0.0073624817
0.028673222
0.015780395
-0.018828645
0.018255867
0.010716806
0.017620413
0.004495886
0.016077744
-0.0045175543
-0.01969182
0.001640146
-0.027565587
0.01756538
-0.00952984
-0.010887659
-0.011320741
-0.016087098
-0.026107669
0.0007356223
0.026530566
0.022852212
0.011125288
-0.012881329
-0.028584216
-0.011439687
-0.02658119
-0.0054711886
0.008326029
0.019732162
-0.017950712
-0.022149881
-0.011874023
-0.023874028
-0.015253281
-0.008887321
0.009197007
0.008872962
0.018209677
0.01920279
0.0008658646
0.02077872
0.0024320497
0.0004921339
0.008152145
0.005084032
-7.532834e-05
-0.00062323635
0.0005294818
-0.013291174
-0.012095233
0.0038681142
0.004898576
0.012083592
-0.0029159694
0.023619289
0.016983688
-0.0038371705
-0.011272304
-0.012046779
0.020019924
-0.01903656
-0.018636134
0.02118365
-0.019144462
0.0083576
0.013562377
-0.007189998
0.005296346
0.022793325
0.0038462533
0.021594502
-0.02688663
-0.0050334833
-0.027342763
-0.012069016
-0.018328844
0.0012942838
0.008261944
0.017527694
-0.016642798
0.025639111
