-0.011740961
0.026334917
-0.029650623
-0.013112781
-0.036382455
-0.029388193
-0.041226353
0.019938244
0.00789212
-0.038516298
-0.033841975
-0.014078019
0.025616197
0.039840788
0.03858109
-0.0142281
0.014761239
-0.011513192
-0.03915276
-0.02969657
-0.003576102
0.019605368
-0.0021988617
0.009016986
0.04050417
0.035873774
0.029788155
-0.024835868
-0.0132224895
-0.014288687
0.02987108
0.021557271
-0.017280882
0.025256585
-0.0060348175
-0.044687666
-0.037849933
-0.03220433
0.025009146
0.029460296
0.010324488
0.0044491757
0.007155968
-0.014684984
-0.03761131
0.0037489203
0.0037512213
0.039473176
-0.03937588
0.02006467
0.023591796
-0.029456018
-0.0394234
0.024016036
-0.015278926
0.029883325
0.024969177
0.02351025
0.027936928
-0.035572298
-0.02050877
0.035942823
0.010898107
0.00064309844
0.015497127
-0.032884546
0.01660052
0.010799755
-0.031846404
-0.029067079
0.010500614
0.012003483
-0.02807266
-0.0009931171
-0.010631468
0.04327872
0.0056013362
-0.030840548
0.026756637
0.015260213
-0.008997777
0.03061072
-0.0094154235
-0.0075737825
0.033810906
0.031113675
0.018451877
-0.032792978
0.0074247504
0.022315266
0.033253595
0.027874067
-0.024508124
-0.034888037
-0.014246526
-0.004211477
0.035851292
-0.012596956
-0.03692098
-0.03327761
0.023880938
0.017189464
-0.035187062
0.014387262
0.03981254
0.019849433
-0.024020296
-0.00035299108
0.013573475
0.03570543
-0.022291658
-0.016369598
-0.040109802
0.009944955
0.033959042
-0.035291493
-0.0338381
0.02176706
-0.01133853
-0.040791783
0.0017735085
0.0154755805
-0.013262947
0.0114207985
0.028848106
0.009690513
0.038015094
-0.025258284
0.029115008
-0.0074625416
0.025123505
0.0023776188
-0.032981943
-0.024399493
-0.027592305
-0.008672827
0.020491593
0.03152084
-0.011881037
-0.029062651
0.011812192
-0.013757103
0.032383773
0.02087804
-0.031470187
-0.011602315
-0.03974308
0.025350446
0.021041933
-0.028885938
-0.015065783
0.010969577
0.023582969
-0.038693536
-0.03822093
0.003667987
0.024666
0.00515504
0.020808907
0.006642874
-0.040371403
-0.021307446
-0.011918726
-0.028511975
-0.0063748723
-0.0345694
-0.025919996
-0.00837119
0.036094777
0.036969
0.01957012
0.03317778
0.026517168
-0.028919592
-0.04163959
0.008304606
0.013595228
-0.018031413
0.020588312
0.012322041
0.008615286
-0.015718708
-0.016809685
0.021855848
-0.030536268
-0.041751143
-0.002714961
-0.036339667
-0.0014064708
0.025442775
-0.0203447
-0.012322187
0.015196572
-0.019140255
-0.043071073
-0.0063092904
-0.039685912
-0.038561013
0.014813145
-0.010192072
-0.010844747
0.02156684
0.005154572
0.031017495
-0.021769904
0.028824037
0.0028487504
-0.026862932
0.011936989
0.010001127
-0.028265081
-0.027959138
0.003235667
-0.014770941
-0.016706279
0.010798039
-0.010029608
0.028918043
-0.03698646
-0.013130776
0.02005932
0.021629555
-0.03393959
0.039655037
0.016205098
-0.03515081
0.032777265
0.0071699205
-0.019447474
0.024644975
-0.032434124
-0.012264485
-0.026348034
-0.022667715
0.028304378
0.037468582
0.002542105
-0.01397177
-0.020885037
-0.042266037
0.002960247
0.023034303
-0.0055946605
-0.029828409
-0.013965991
0.024960568
-0.039879534
0.025667638
-0.015008512
0.021700477
0.0073817247
0.00800333
0.004194212
-0.018270798
0.008880089
-0.0044706757
-0.0076307035
0.0210569
0.016999578
-0.0053548655
0.013706418
-0.028077586
0.0075172526
-0.009110315
-0.027741164
0.036577664
0.0029743381
-0.017475963
0.026852388
-0.024377493
0.03994118
-0.015833568
-0.023837298
0.029416073
-0.011192962
0.0013268471
0.021015529
-0.027197275
-0.03478901
0.00014651725
0.031418104
0.039094962
0.027962953
0.009571686
-0.032266732
-0.0036092852
-0.0022605918
-0.02689103
-0.0025089104
-0.026306951
-0.046769835
-0.031203382
0.019504398
-0.008141951
0.015379177
-0.01959528
0.024428831
-0.014309452
-0.029604988
-0.00023023864
-0.014353236
-0.033109687
0.027602598
0.03793271
0.016303996
-0.035049453
-0.037986677
-0.030278863
0.018026197
-0.040762775
-0.016327428
0.0028690784
0.008038984
0.017749077
-0.016617604
0.024947377
-0.042282585
0.036584053
-0.014708451
-0.042048298
0.029061394
0.014082476
-0.014664143
0.0151868705
0.016302908
0.0061277794
-0.018896192
-0.025103888
0.031034844
-0.005088925
-0.0012114376
-0.028279781
-0.02536874
0.013160235
-0.004919914
-0.013041315
0.0036441986
-0.024858678
-0.031143801
-0.004432808
-0.003165937
0.027361931
-0.03535844
-0.011068471
-0.02286939
0.02319523
0.03521178
0.04205261
0.033960734
-0.00068036123
-0.02972641
-0.0026789769
-0.042161804
0.0028482706
0.0032700233
-0.024276571
0.008088932
-0.04176604
-0.045064874
-0.008588261
-0.04268645
-0.020424861
0.0027693165
-0.015133494
-0.027776469
-0.026873743
0.010399093
0.033049535
0.030483129
0.032327652
-0.032466114
0.023252571
-0.0036996412
-0.041242633
0.0042383205
-0.038468596
-0.009587449
0.005787288
-0.0034148474
0.03075946
0.0013611151
-0.03587247
0.007330453
-0.008087263
0.020554064
0.011035683
0.009512329
0.0067633097
0.0047211125
0.0026863422
-0.020814314
0.01087941
-0.004657728
-0.020382274
0.012912551
-0.010766504
-0.030150263
0.013493192
-0.029916616
0.040520847
-0.02651048
0.029174214
0.028881682
-0.014408852
-0.01326312
-0.033500873
0.021366347
-0.028750336
0.021579616
0.03999895
0.021615729
0.0041260445
-0.040142447
-0.027525634
0.029102333
0.032959495
0.023478312
0.0251783
0.042564612
0.0074472013
0.008387224
-0.040532656
0.008202087
0.03249573
0.02457804
0.013297197
-0.021653695
0.023360604
-0.0336517
0.022163162
0.027941057
-0.007886725
-0.020044269
9.522486e-05
-0.012439824
-0.032478753
0.020148613
-0.03233821
-0.0364952
0.002274674
0.016369259
0.040161517
0.029191652
-0.04495383
-0.012665313
-0.0028873577
-0.015297392
0.039135043
-0.0199508
-0.033109233
-0.01448309
0.017752022
-0.021509584
-0.023054438
0.0010598685
0.031239802
0.026964085
-0.012307073
0.0017664754
-0.00015397588
-0.015142401
0.008368996
-0.026425857
0.006733331
-0.0037428925
0.004659613
-0.0070904656
-0.011688409
-0.03293847
0.019357486
-0.008115103
0.01344349
-0.03406032
0.010220587
0.0056057107
-0.030788617
-0.0138535015
0.029613478
0.019386848
-0.0045556594
-0.01607566
0.037746347
-0.030688299
-0.010975429
0.03425348
0.007843828
-0.021474224
-0.025346192
0.02731636
-0.031642564
-0.032998588
-0.03729825
-0.03315125
-0.013713191
0.022207104
0.006126519
0.034531377
-0.030256556
-0.01615199
-0.026047638
0.0020745057
-0.03734945
-0.015957357
-0.034361836
0.0037263264
0.027174944
0.03084258
-0.010843842
-0.038855042
-0.0125058545
0.034714077
-0.0058200518
0.02982604
-0.024276141
0.017827852
-0.008692197
0.040241487
0.009673496
0.0055118375
0.035707377
0.034313682
0.011079767
-0.02133208
-0.031170493
-0.015959727
-0.0064025056
0.032650325
-0.030778412
-0.014027077
-0.017058
0.035534333
-0.0071317945
-0.03812088
-0.041869704
0.012594443
0.021930523
0.04033133
-0.009804591
-0.03342692
-0.034483623
-0.017670836
-0.0074055395
-0.011277994
0.030970246
-0.017783783
-0.03974682
0.032184042
-0.02833647
0.033883266
-0.018915648
-0.011517608
-0.012351048
0.031752452
-0.009345368
0.03311254
-0.008895557
0.021162584
-0.04213774
-0.013442165
0.012742877
-0.007900149
-0.022747304
0.011921242
-0.01687196
0.029077975
-0.021048862
-0.010994119
-0.026502583
-0.025920793
0.02922728
0.02554494
0.02816911
-0.037736528
-0.028035559
-0.007118593
-0.036366496
-0.034836937
-0.035100218
0.031745803
0.037276637
-0.017274726
-0.02836153
-0.016568994
-0.004689489
-0.023294725
-0.014407141
0.027905516
-0.03399693
0.0024755371
-0.024945496
0.017966751
-0.041739546
-0.014543694
-0.037914757
-0.029114211
0.025880374
-0.020914165
0.021786693
0.013162896
0.010682972
0.005087611
-0.042834286
0.027757157
-0.010755532
-0.016398143
0.018740179
0.0348782
-0.000877685
-0.010104751
-0.03337701
-0.014183395
0.013360683
-0.035053756
0.016308375
-0.021422483
0.032028362
0.014975349
-0.009521955
-0.03190215
0.01082927
-0.045681786
0.027804177
-0.028705293
-0.041043393
-0.01973602
0.008648135
-0.01889132
0.015335638
0.017903361
-0.046103965
0.024686193
0.030767342
0.0075176843
-0.031622928
0.0018179026
-0.0069563244
-0.026680466
0.019990124
-0.033173423
-0.011379147
0.021410862
-0.03469964
0.02505891
-0.040007543
0.022153853
-0.00039453394
0.03631103
-0.036849298
0.026141372
0.0059277066
-0.009966753
-0.02648617
0.011546187
-0.014067121
0.020932231
0.024078516
-0.013212433
0.012735961
0.01762536
-0.043553557
-0.03727038
-0.0072617256
0.032408584
0.0131627945
0.0037186877
0.029595451
0.026687315
-0.026505042
-0.024050029
0.044151045
-0.031609885
-0.021410828
0.019503593
0.02377043
0.020720785
-0.017803535
-0.019534634
0.0032639129
0.030226726
0.015309687
-0.03977804
0.0016564413
-0.015837224
0.029430375
-0.026922718
0.023674173
-0.0120788785
0.010287806
0.023816638
0.011835504
-0.0014646419
0.009786428
-0.041230023
-0.0056799212
0.034097772
0.011614562
0.01701873
-0.03965948
0.032322187
0.00089758576
0.02144647
-0.008251492
-0.0009413374
-0.03737288
-0.02697115
-0.007371579
0.034546163
-0.042335354
0.026825536
-0.008274895
0.02795492
-0.024293398
-0.004941786
0.008980108
-0.025419181
0.035378538
0.024584886
-0.018419567
-0.038003433
0.0076112254
-0.02668164
-0.016357066
0.008095212
-0.0021092445
-0.02159908
0.026793076
0.03841512
-0.003995721
-0.027315825
-0.0202932
-0.03820219
-0.024846468
-0.010130054
0.03548953
0.03917216
-0.0027988232
-0.029758573
-0.0062660086
0.02974934
-0.030739335
0.020280184
-0.0014382383
-0.034816995
-0.008016728
-0.006733474
0.0044616936
-0.033733524
0.0067775375
0.032451436
-0.0021141854
-0.00064003543
0.021340206
0.004406669
-0.022217102
0.02977001
0.028519325
0.021450803
-0.021602526
0.008245168
0.038478628
-0.034969732
-0.008637804
-0.041290846
-0.04467437
-0.0084400335
-0.014414348
-0.015117718
-0.015958732
0.00947466
-0.01308428
0.0065439427
-0.00455173
0.012135363
-0.030238952
0.0022307814
-0.035546858
-0.032826792
-0.0054311333
0.0131044835
-0.0186049
-0.02476395
-0.043310393
0.012113622
0.03535334
0.025857119
-0.026729582
-0.00426127
-0.009758542
-0.03216891
0.036132228
0.009186157
-0.035328306
0.0043954714
0.019973177
-0.023817977
0.019697865
-0.027594289
-0.006359275
-0.003804801
0.032576934
-0.008987372
0.009333877
-0.027642973
0.008481763
0.019492343
-0.020355903
0.022629445
0.0150864255
0.0069026295
-0.015579661
0.007761718
0.018301265
-0.020166397
-0.02744868
0.008966563
0.035381198
-0.0118156215
0.0324072
0.009799366
0.018125903
0.00044260302
-0.0078488635
-0.007873099
-0.017456368
-0.01763235
-0.03150643
-0.038484573
-0.011444818
-0.02544625
0.011219033
0.025366718
-0.032597166
-0.03442232
-0.03425492
0.032065555
-0.007017276
-0.014540865
-0.025604993
-0.03553966
-0.017630873
0.028932434
-0.006275743
0.0001732127
0.031426072
-0.028994266
-0.0071652248
-0.019159168
-0.03134229
-0.0043649063
-0.034985494
-0.004854421
0.02894049
0.02250181
0.017943574
0.032608572
-0.0021014162
-0.017083185
-0.037910476
0.03411867
-0.0068678535
-0.012116716
-0.015953412
-0.01738535
0.02487098
-0.03415478
0.0022821461
0.038833603
0.019747995
0.012447511
-0.018765941
-0.018696586
0.021151453
0.018787527
-0.041598305
0.021821646
0.014604078
-0.011209522
-0.025576098
0.012542827
0.024545915
-0.010335628
-0.038582288
0.03670325
0.031645626
0.02701285
0.014678888
-0.038196467
0.010598489
-0.008495464
9.575564e-05
-0.008749138
0.02334209
-0.04584813
-0.03825696
-0.022530941
-0.014464205
0.022735145
0.019375699
-0.037722327
-0.031845614
-0.02437
-0.025004933
-0.0013551234
0.0069058957
0.03243681
0.004109661
0.013586417
-0.037294064
0.011200934
0.033244543
-0.002470618
-0.031969473
0.028750366
-0.037609894
0.029562954
-0.026443247
-0.022459365
0.0033036973
-0.019854935
0.020574715
-0.024437455
0.00564127
0.022750396
-0.029254125
-0.022097368
-0.005622403
0.00537825
0.036750108
-0.010800575
0.021526
0.02591623
0.037418287
0.036834463
-0.013496067
-0.013415983
-0.0009994204
-0.013797583
0.020739382
-0.0027708942
0.006624103
0.01812097
-0.041356664
0.042595685
0.023081344
-0.023802113
-0.028879212
0.0007514945
0.014711258
-0.014926922
0.020434514
0.018827828
-0.03014827
0.008003116
-0.019909881
-0.03990684
0.030366419
0.0026549257
-0.029965691
-0.008899349
0.013501096
0.029872516
-0.019021763
0.032308236
-0.028512184
0.014017871
0.022941738
-0.009945345
0.0132016335
-0.0106204655
0.027517658
-0.028141418
-0.039465167
0.0368591
-0.022527603
0.019049086
-0.01794008
0.023592282
-0.014674749
0.019513039
0.029448375
-0.010704524
-0.026848791
-0.031686902
-0.016093789
0.030546496
-0.0075024655
-0.0038684283
-0.007581165
-0.027288558
-0.043629225
0.010552596
-0.017450877
0.014489251
0.016504815
0.035553783
0.012309319
-0.0048400443
-0.022650784
-0.033053752
0.012694699
0.04012415
-0.005556646
0.011977076
-0.015556786
-0.029151004
-0.017748665
-0.010873556
-0.01606164
0.019346206
0.022697719
-0.009964437
0.023049366
0.016222553
0.0062295035
-0.02331016
0.035468265
-0.008634794
0.010733976
-0.04118358
0.008010804
0.030371424
0.00063682074
0.029115599
0.040711217
-0.011608096
0.022016646
0.023538655
0.032331772
0.02599581
0.020651419
-0.015248932
-0.0023209907
0.038895655
-0.0023579956
0.019412128
0.010698714
-0.031145997
-0.0019541956
-0.040841665
-0.035974097
0.0029071118
-0.024994206
-0.04134539
6.5060165e-05
0.0095946295
-0.03298833
0.031613983
-0.021557376
0.03188474
0.024531098
-0.009630043
0.0038010837
-0.040428314
-0.028710898
-0.023591546
0.03138987
-0.01868735
-0.0056089484
-0.033257764
-0.04152871
0.010956373
0.00017352815
-0.035166446
-0.02852048
0.022814635
-0.03978076
0.026696
0.03579389
0.027960012
0.020001989
-0.027862547
0.030697675
-0.031115187
-0.0020149283
-0.0037876598
-0.027773986
0.0021965061
-0.0202338
0.02851972
-0.036188357
-0.022719791
-0.038182493
0.0049191853
-0.03232705
0.0130540235
-0.03300316
-0.0021273787
0.024315614
0.008073075
0.025645316
-0.028075896
-0.0055747493
-0.032085042
0.03324575
-0.009695199
0.034331545
0.0054636505
-0.021962646
-0.030387942
0.021150365
-0.0043387134
0.039566208
0.033796016
0.027791984
0.010764301
-0.03341341
0.033428047
-0.0034242063
0.022391248
-0.035731204
-0.0017410255
0.02263946
0.029351112
-0.0048619113
0.00048530646
0.0033581848
0.0043669506
0.020737758
-0.018807255
0.040057518
-0.023926701
0.033219893
-0.014672522
-0.043109607
0.0022777899
0.008709522
-0.02783244
-0.0072731213
-0.027301438
-0.034981593
0.018782413
-0.0035449998
0.011915977
0.009229375
-0.03562782
-0.028071485
-0.031209098
-0.0029552556
0.010900782
-0.031937998
-0.03995042
-0.016296703
-0.004465367
-0.044361066
0.033993475
-0.047613516
-0.011289084
-0.024635108
-0.019044736
-0.032964658
-0.006767329
-0.022472393
-0.015933823
-0.02618029
0.021212913
-0.03751211
0.021996778
0.0043689264
0.014509604
0.030681115
-0.026220076
0.023658834
-0.020334842
-0.040357728
0.020195512
0.036677334
-0.03603581
-0.030864982
0.010426656
0.027172375
0.002344078
-0.016937982
-0.001440519
0.038312502
0.003702825
-0.023150703
-0.0004545316
-0.010981283
0.032075416
-0.013216374
-0.02240749
-0.039059415
0.03515097
-0.026146112
-0.020577671
-0.00812047
0.005695924
0.0016807886
-0.033102397
-0.0415096
-0.031702038
-0.026449757
-0.02532947
-0.024452658
0.035275605
-0.007659748
-0.004702198
0.014279316
0.025523724
-0.026521306
0.0073765474
0.03057594
0.007805091
-0.011002258
0.027831256
0.0010934054
0.014746797
-0.010243685
-0.0022322405
0.03158574
-0.005167404
0.01959574
-0.04210672
0.003929264
-0.008654127
0.021340527
-0.004891289
0.023901474
0.038572077
0.030130569
0.025514135
0.026869085
0.019639917
-0.037904937
0.0071168873
0.026005551
0.020079194
0.009795733
0.015393557
-0.018701183
0.022986243
-0.022778278
-0.025029639
-0.0106741395
-0.029876811
0.02385078
0.039034076
0.028617684
-0.03634265
-0.022088818
-0.037561297
-0.007952814
-0.008151259
0.032685608
0.0075690756
-0.0122915525
-0.040131226
0.0020430712
-0.0035987399
-0.028029723
-0.017494084
-0.04072503
-0.012356078
0.020239597
-0.025139276
-0.011661545
0.03446414
0.028170234
-0.0032909652
-0.006774249
-0.021025376
0.007086367
0.019178081
-0.026218427
0.023291528
0.008103031
-0.03539167
-0.032543365
0.018883105
0.002372752
0.007721527
0.021282064
-0.0015838456
-0.032459784
-0.0247799
0.00084729155
0.012931632
-0.024369001
0.017316109
0.04322376
-0.028148822
-0.018291833
0.03188393
0.015466479
-0.028282203
-0.004234398
0.03577463
-0.015067224
0.018312044
0.013917475
0.032767404
0.017481064
-0.03009842
0.0045027644
0.010578465
0.006739064
0.030384915
0.013584294
-0.024162382
-0.010868687
0.012863557
0.03378194
-0.03601051
0.019361526
0.016486667
-0.021727314
0.020818723
-0.005327311
-0.04511542
-0.038208675
0.02330304
-0.021524966
-0.0037147629
0.003655058
-0.023438059
0.0069946777
0.016168304
0.03497532
0.0008750755
0.020124527
0.025004223
0.029446475
0.00714771
-0.013649786
0.038650274
0.0007108126
0.004501658
-0.004715709
-0.030669048
0.003202166
-0.0070590307
-0.011019311
0.01909761
-0.018794453
0.0355444
-0.043989424
-0.007851694
0.031964052
0.01383138
0.023003599
0.01917973
0.024618812
0.014418934
-0.003982315
0.02122668
-0.0038596333
-0.019828236
0.033056695
0.02885147
-0.025033431
0.004636649
0.019275982
-0.037296247
0.009208156
0.032233294
0.026845608
-0.025615085
0.0030147617
-0.016923163
-0.010072446
0.029853137
-0.01831977
0.012291327
0.0038055456
0.027973872
0.02293071
-0.024368774
-2.2911812e-05
0.0065005277
0.027016226
0.015271627
-0.012231213
-0.034628794
-0.018122891
0.035976455
0.011639319
-0.025468066
-0.0152207
0.03800875
-0.030414173
0.029044906
-0.035009064
0.029643752
-0.040938146
0.016462754
-0.023173273
-0.04301144
-0.037163638
-0.0115728015
-0.0052520437
-0.010304162
0.028653203
-0.022773571
0.03761764
0.016108857
-0.0117846485
-0.012490658
0.023664283
-0.023896232
-0.00028026194
-0.021138676
-0.001894249
0.0353187
0.005601217
-0.006154899
0.04016278
0.008331139
-0.009544555
-0.03326973
0.012346352
0.012895083
0.0046053906
0.029337894
-0.013981132
-0.017400343
-0.03854787
0.0073450417
-0.017205859
0.018609563
-0.026556762
-0.03199864
0.037266385
0.026724607
0.020974463
-0.005705032
-0.012094855
-0.008714015
0.0012066943
-0.005899183
-0.016738214
0.005410864
-0.036344588
0.0082623735
0.020145483
0.03974969
-0.020123985
-0.021324629
0.03464029
0.007472705
0.023076676
-0.0037220616
-0.03038435
0.005393206
0.01723502
0.0062258313
-0.02155382
0.021433283
-0.00234055
-0.026731756
-0.035176788
-0.040538296
0.030653976
-0.0290249
-0.014131155
-0.014278782
-0.0009212082
-0.027736625
0.022010347
0.017856723
-0.015859915
0.0017546263
-0.030386396
-0.009263611
-0.0076741916
0.025784139
-0.028978804
0.03476379
-0.030879779
0.0198645
-0.043422308
0.0118201915
0.004826154
0.017458243
0.033524543
-0.022238806
0.014883093
0.0302181
0.024521455
-0.0018218586
0.010860763
0.033439122
-0.014357186
0.0070154895
-0.042110957
-0.026654914
0.021226889
0.008562409
-0.009544664
-0.03258558
0.00019841193
0.0016170372
-0.037564024
-0.02609779
-0.016654423
-0.017229829
0.010305953
0.0015358555
0.012653609
0.0055357795
-0.009569878
-0.044770066
0.022448897
0.0012417588
-0.02660896
0.021860966
0.01573196
0.017045166
-0.0028203723
-0.024936413
-0.016096594
-0.011419689
-0.034135286
0.013587672
0.015220187
0.021458145
0.014167093
-0.005716697
-0.041971814
-0.04138049
0.01268797
-0.024090594
-0.04122105
-0.028905489
0.015973112
-0.031172697
-0.017906617
-0.036040954
-0.027374262
-0.031421613
0.010555876
-0.028781323
0.00011251258
-0.01816016
0.017173314
-0.023874182
0.034104425
-0.027963279
-0.03091311
-0.02742809
0.022204693
-0.013661219
0.0035842801
-0.0012756088
-0.001107666
0.032527845
0.003765077
-0.020244962
0.0037719004
0.004984812
0.04023397
0.03335335
-0.035432838
0.022402035
-0.023782728
-0.042026564
-0.027764274
-0.030892517
0.036173437
-0.0032282013
0.0068830294
-0.028619926
-0.005051094
-0.046237133
-0.041381475
0.03270099
-0.012208439
0.02439962
-0.017054925
-0.026744207
-0.01727693
-0.0176648
-0.006918466
-0.04011527
-0.03692453
-0.006566002
0.0008146587
-0.03204317
-0.015176939
0.021592699
0.02283673
-0.018175706
-0.026027875
0.0013559021
-0.014496147
0.02552459
0.037765775
-0.036189955
-0.021284815
-0.038259305
-0.0277841
0.014851455
0.007731379
-0.00978038
-0.04011482
-0.022618623
0.027223155
-0.036195252
0.01439986
-0.009339781
-0.030403817
0.0024867728
-0.013307002
-0.03790769
-0.027851183
0.021605395
-0.017544856
-0.03247871
0.009550586
-0.020898998
0.02908882
0.039691698
-0.034615457
0.016731828
0.03558913
-0.020934919
-0.012455991
-0.0034286275
0.030583529
-0.013050468
0.010001262
-0.008470146
0.01181275
0.032045662
-0.010870585
0.001727095
0.0034323807
-0.0025984657
-0.01514675
-0.012184223
0.028772183
0.010946935
0.03545667
0.0037533462
0.004205192
0.030147633
-0.04235584
-0.0150429495
-0.03362419
0.018594367
-0.002459536
0.028466385
-0.017646415
-0.00971306
-0.026587822
-0.012719761
0.0072504333
-0.032195594
0.012903207
-0.007288855
-0.039929055
-0.031541348
-0.011975107
-0.010657127
-0.00914114
-0.025724137
-0.041189138
-0.038171016
0.0076747634
0.019066395
-0.030379912
-0.014900588
0.020376932
-0.043051712
0.0075128013
0.037864693
-0.018595513
0.022378823
-0.033935446
0.030806413
-0.015927898
0.029157296
0.038000107
-0.0017165457
0.018023768
-0.030163212
0.039377436
0.034412883
-0.025252901
0.00034145394
-0.018776447
-0.0244948
0.010536937
-0.021729326
0.021386785
-0.008969869
-0.011420331
-0.029150588
0.020170733
0.031445377
0.029488495
-0.007544419
-0.013206973
-0.0053514144
-0.015421717
0.031920545
-0.03906058
-0.01647231
0.014303008
-0.03459262
0.0266036
-0.008543412
-0.029234208
-0.03688937
-0.039873477
-0.04463574
-0.025112111
-0.014271304
-0.013147981
-0.019798182
-0.016225291
0.0016770116
0.0063403966
0.018764125
0.040268682
0.034122117
0.009435358
-0.021187447
0.029661115
-0.025234237
0.0060537383
0.01130005
0.010760761
-0.008475201
0.017066997
0.012386089
0.02397908
-0.01874254
0.0055150297
0.0077043823
0.006010256
-0.029003391
0.015789565
0.020168386
-0.0010461294
-0.03346687
0.006534746
-0.01696835
-0.026293145
-0.0073096575
-0.010298967
0.011283451
0.003595198
-0.012691885
-0.03154953
-0.039458692
-0.0059692003
0.0074307546
0.00093718397
-0.029326329
-0.00054888416
0.021056015
-0.0019627314
-0.0024535765
-0.019378407
-0.03946239
-0.010534207
0.01085813
0.010108988
-0.032053243
-0.022158794
-0.009835018
0.007959764
-0.01565236
0.03579146
-0.036173448
0.0368974
-0.030510616
0.005540118
-0.04260919
0.02209331
-0.010502523
-0.030780857
-0.042011216
-0.033198357
-0.006817549
0.003162458
0.0013311381
0.0051008086
-0.032128014
-0.039192647
0.015174383
0.042571433
-0.004054839
0.019802487
0.020364758
0.0025893503
-0.036150265
-0.031325534
-0.004190559
0.019635193
-0.02239026
0.0040482827
0.02736379
0.008512003
-0.03542926
0.03845849
-0.034465354
-0.033271644
0.0064540477
0.03431116
0.03441364
0.00019969611
0.030392725
-0.03068127
0.018298356
-0.023549646
0.036701497
-0.011909513
-0.02636817
0.024631035
-0.03136752
0.015205045
-0.030895324
-0.03169127
-0.028264336
-0.026621932
0.013884009
0.00836922
-0.016955748
-0.036416948
0.020093549
0.034253087
-0.02017959
-0.0034378304
-0.03523569
0.0026613353
-0.023802456
-0.024632303
0.01123651
0.012893801
-0.034227002
-0.037135348
0.02409561
0.025185796
0.033378318
0.004261804
-0.01732156
0.022239225
0.03184723
-0.028252779
-0.008629628
0.030944211
-0.029747576
0.013638074
-0.023237178
0.003288894
0.024651097
-0.03218069
0.018910779
0.032616686
-0.00972464
0.00086404616
-0.025495065
-0.040897842
-0.003905772
0.011800667
-0.0024379282
-0.0014780168
0.02306894
0.039035257
-0.041257218
0.024548797
-0.03704432
-0.042627107
0.0032776608
0.03530295
-0.040190935
0.03657828
-0.0022878828
0.027143506
0.009120913
0.03997562
0.034445662
-0.022190139
0.018146874
-0.032867715
0.0031633375
-0.0080486
0.0008500045
-0.0046632756
0.007402399
-0.022058494
-0.03955211
0.011142584
-0.0005050249
-0.037393413
-0.027786637
0.023534574
-0.047944885
0.02797407
0.032956287
-0.034592412
-0.0071658175
0.016248789
0.022732845
0.016627833
0.009673818
0.013334338
-0.0104306
0.009800571
0.02654083
0.009422224
-0.038130525
0.031215655
-0.038860332
-0.03612123
-0.013377071
0.025816735
0.028149696
0.039776184
-0.036643814
0.016545428
-0.000323827
0.012460901
0.02936214
0.026236873
0.03315497
-0.026253613
0.019700816
-0.03206652
-0.011280424
0.035100874
0.00090385566
-0.044731304
0.00074314896
-0.012526082
-0.026523564
-0.00464669
0.028756665
0.00034118164
0.0026239364
0.03683472
0.011489452
0.010244263
-0.003766794
0.03385341
-0.009728179
-0.040755507
0.03129339
-0.0066004833
-0.011357324
-0.007957042
-0.013634969
-0.0022776672
0.009886427
0.0045653274
-0.008679077
-0.0036117302
0.034378685
0.017084692
-0.00990922
0.022869961
-0.0034067663
-0.02167451
0.038028806
0.03315284
-0.03319495
0.02969947
0.030813396
-0.009845619
-0.024770578
-0.0064489827
-0.0059588943
0.03459929
0.035989035
-0.0044688587
-0.02080717
-0.025909841
0.005805743
0.0046081254
-0.01104388
0.03191986
-0.031217227
-0.0108309975
0.025429763
0.014232846
0.037795175
0.01777687
-0.039924074
0.025899049
-0.03514905
-0.008216943
-0.03269868
-0.020026492
-0.015647119
-0.026312865
-0.008301504
-0.019214388
-0.034330677
-0.015077422
0.020966668
-0.0044242567
-0.03904139
-0.018297145
-0.0075758365
-0.029371677
0.029545361
0.0350829
-0.02533464
-0.03350499
0.037541647
0.025472954
0.033415925
-0.025411787
-0.025646787
-0.025285736
0.004253478
-0.00095577334
0.030047081
0.012746501
0.008367341
0.030820932
-0.019680936
0.032986626
-0.011493688
0.015462154
-0.04041101
-0.04340318
-0.014468221
0.031694423
0.012879678
0.02438222
0.023931101
0.0065737832
-0.04485608
-0.03225021
-0.028830325
-0.00042536505
-0.030411782
0.029272469
0.00639264
0.032247487
0.031126508
0.0020522494
-0.032004047
-0.033059314
0.01789407
0.028092252
0.037592202
-0.037604105
0.026335128
0.010512928
0.028564053
-0.038433783
-0.0054335524
0.03976912
-0.0052312776
-0.005951354
0.003625027
0.0064900503
-0.0020324849
-0.016403139
-0.033718836
0.015041959
0.0339529
0.025923982
0.0022787363
-0.012527013
-0.026411667
-0.02879268
0.0063200966
-0.024836352
0.016391126
0.029835686
0.03673793
-0.02384202
-0.0135850785
-0.027117528
-0.031931404
0.007323022
-0.028200654
0.026131226
-0.022001408
-0.032001335
0.028244276
0.0020354993
0.028107472
0.034386553
0.034585446
-0.011542059
-0.016584547
-0.0120041855
-0.012726269
-0.033465955
0.019066941
-0.03977885
0.0313626
0.0067320336
-0.010085562
-0.019756755
-0.013503066
0.00039900586
-0.017075328
0.027805915
-0.011717608
0.034932744
0.027305739
-0.02179176
-0.005101075
-0.0019401097
-0.02758347
0.04262437
0.015760884
0.00853366
0.0008887931
0.0346807
0.039268553
-0.0356752
-0.010332047
-0.020067954
0.026154922
-0.031558707
0.0031953242
-0.044865612
0.028363314
-0.010134997
-0.029171383
0.019279325
-0.013916965
-1.2148787e-06
0.026230369
-0.04290736
-0.031497575
-0.019479198
-0.008879776
-0.02941524
0.032316864
0.03228519
0.03851434
0.020076478
-0.024015961
0.003398251
0.034575064
0.014226327
0.035086226
-0.036829725
-0.025017891
0.0027286843
0.018996852
0.016746592
0.018137323
-0.019999716
-0.012650692
0.013274208
0.03453236
0.014762521
-0.022673506
-0.028094642
0.013533002
-0.033504017
0.023260366
-0.0064925365
-0.03874645
-0.011406169
-0.04056776
-0.024278264
0.03421938
-0.011108936
0.00028448642
0.032103516
0.023487654
0.038671434
0.0063342922
-0.0027809993
0.025632815
0.022781119
0.0349662
0.0146229165
0.025235618
0.0105140675
0.02211085
0.008900141
-0.0063498737
0.015227732
-0.006937301
0.011316955
-0.025136136
0.032502353
-0.034756273
0.031698026
0.00933081
-0.03280455
-0.0070681158
-0.027445974
0.01424656
-0.0063976888
-0.03763561
0.021719206
-0.000557546
0.020382663
-0.04093565
-0.039535686
-0.0009955065
0.027560906
-0.039204482
-0.0068260003
0.0006817763
0.01800482
-0.01785704
-0.025432708
0.013461172
-0.011294495
-0.042761505
0.022972781
-0.010024959
0.020534394
-0.020564744
0.028110282
-0.017564127
-0.0021097446
-0.036418423
0.016433295
-0.032688785
0.023554215
-0.014922505
0.03541326
-0.004698683
-0.0052177454
0.0053004795
-0.021601079
0.033388622
0.0051100496
-0.026152363
0.025517523
-0.006701183
-0.03864335
0.006792102
0.01365589
-0.029970093
0.020189801
0.014363931
0.01756382
0.008583793
0.0015622961
-0.011984027
-0.022621425
0.041532945
-0.00062510354
0.033211205
0.02096919
0.030036926
-0.024865009
-0.0006656399
-0.017858513
-0.002864517
0.019696735
-0.025237368
-0.01513529
0.011736472
0.03325925
0.016897326
-0.023844475
0.039595123
-0.03196174
-0.01760061
0.0040657083
-0.019287437
-0.027672078
-0.037000984
0.010655255
-0.02516548
-1.3411041e-05
0.02268801
0.029186701
-0.00069612084
0.0039555477
-0.013104072
-0.011617758
-0.018538514
0.020119393
0.036858574
-0.006215626
0.019854711
-0.01591291
0.028365446
-0.0012088915
0.02856385
0.013695602
0.025664296
0.037308443
-0.008608823
0.03307621
-0.026331639
-0.035822567
-0.01451096
-0.033237226
0.024461683
0.01693819
0.045408174
0.0037252747
-0.022777647
-0.03448426
-0.026500057
0.014076839
-0.01811258
0.041345164
0.008006998
0.0166013
-0.023823822
-0.017503377
-0.0013400315
0.007003563
-0.031821318
-0.03340159
0.015978858
-0.030371802
-0.006027132
-0.011100016
0.016334135
-0.0025437733
0.0020205716
0.005219062
0.02515947
0.021974979
0.029042458
-0.0173223
0.0061569544
-0.013117666
0.03787669
0.011478634
0.025554819
-0.0031679552
0.029801546
-0.01684264
0.047862604
0.018255131
0.024189603
0.006461783
0.02324369
0.005341094
0.02805708
-0.004460749
0.0007509431
-0.0072535905
-0.03247141
0.019468017
0.0047962917
-0.04404382
-0.029609248
0.030200738
0.02840545
0.013622159
-0.0102032395
0.0061836992
-0.015409246
0.00021000186
-0.019556858
-0.0014694047
0.016875336
0.025733761
0.00628327
0.003908906
-0.040313482
0.037138432
-0.010999356
0.0072527593
0.030559706
-0.015776047
0.03160197
0.023873731
-0.00758763
0.007238074
5.725415e-05
0.02248848
0.0058775735
0.020922756
-0.027445817
-0.026097994
0.024001352
-0.019331045
0.01628551
-0.01035128
0.016393613
0.03223564
0.01355418
0.04425826
-0.019425835
-0.004328534
-0.0137478905
-0.028835377
0.00023139035
0.01862076
-0.0072039757
-0.0016309154
0.03961143
-0.014282498
-0.0315365
0.042159017
0.02831024
-0.02774857
-0.011430479
-0.02463621
0.010021543
-0.028721243
-0.040122706
-0.030440455
0.03164914
0.030843245
0.03344603
-0.032006145
0.029822515
0.010552732
-0.02319255
-0.01360624
0.03582102
0.0027805117
0.021904089
-0.0031886406
-0.018136824
-0.005536383
-0.040838443
-0.005446159
0.014281112
-0.01918662
-0.02710734
0.04383235
-0.012270099
0.005515132
-0.011170881
0.023044556
0.03545497
-0.016303755
0.017348811
0.044945315
0.013410165
-0.042063385
0.009317104
0.008360575
-0.026007438
0.009987258
0.022929428
0.030351905
-0.0050729313
0.011705411
-0.000597012
0.025510017
-0.00846503
-0.024515621
0.0036211063
0.041503806
0.0026745985
0.012450709
-0.032578897
-0.006286309
-0.027700283
0.015411603
-0.013488164
-0.021115316
-0.011265551
0.017158177
0.029547865
-0.033074602
-0.016110983
-0.02319369
-0.026682159
0.003620282
0.0064192493
0.04157235
0.0024252571
-0.035385743
-0.029962666
0.0136004565
-0.016513327
0.025382867
0.001635833
-0.0011647595
-0.012301171
-0.014500853
0.02085628
0.006443276
-0.023098728
-0.024421804
0.014729864
0.035596512
-0.0016247093
0.03279502
0.021752853
0.029166292
-0.042763993
-0.0070406673
0.013291887
0.030884335
-0.035411
0.030817091
0.007977642
0.015894162
-0.005738843
0.0334917
0.008347466
-0.030695006
0.035795547
-0.017618092
0.0270969
0.030036418
-0.035247426
-0.0036781598
-0.027956925
-0.026782261
0.002297629
0.012599853
-0.009880084
-0.018148163
-0.030475257
0.0024733716
-0.008417585
-0.027287131
0.032453816
0.006491997
-0.015906604
-0.030545147
0.0140801165
0.011917319
0.030085228
0.0377562
-0.031192161
0.0078015244
-0.022363614
0.024459757
-0.039520323
-0.040785898
0.0031256622
0.022495423
0.01406199
0.015444087
-0.014112174
0.02975074
0.02372113
-0.038620725
0.0055292705
0.036582716
0.027201183
0.0024343526
0.03847908
0.019634947
-0.0035391569
-0.014181503
-0.034337237
0.027202547
0.00531131
0.010455814
-0.041569777
-0.029053353
-0.0046698363
-0.002988142
-0.02099271
0.012515683
0.018900989
-0.0018287512
0.012743417
-0.010573381
0.016212119
0.0084883375
-0.0026371395
-0.013646251
0.018902102
0.012964849
-0.03310907
0.019794468
-0.023958247
0.026601288
0.03453837
-0.008812989
-0.014726848
0.035387024
-0.024033803
0.005798404
0.031387463
0.039004996
0.020838283
0.02203565
0.009048126
-0.031222047
0.0044364063
0.0059377044
0.021955596
0.0010593238
0.03223632
0.021379901
0.036377493
0.00024660493
0.02386197
-0.006652224
0.025541658
0.02280499
0.013622912
0.003504728
0.0055923527
0.040128123
-0.017581938
-0.02757361
-0.02355195
0.003414168
0.019109039
-0.019576212
0.014058777
0.010689912
-0.041270826
0.006423475
0.037920035
0.01721503
-0.007854495
0.00067714986
-0.019657074
-0.02450795
-0.00320236
0.027578672
0.0034770798
-0.02225369
-0.02261554
0.049349144
0.0072021144
-0.017945163
0.0247891
-0.038289417
0.026964946
0.032697264
0.0007541813
0.03484357
0.0054127793
0.019900832
-0.046516865
-0.015146365
0.0044854577
0.00558171
-0.016736243
-0.035141453
-0.042118542
-0.051184904
-0.0069053313
0.038155314
-0.020386798
0.039228037
-0.010229063
-0.030062053
-0.031111874
0.033365466
0.013920809
0.03385675
-0.017680097
-0.029305952
0.021976879
0.005539472
-0.009239914
0.009404982
-0.019737389
0.010603328
-0.009727297
0.00085287215
-0.025419507
-0.035045233
0.03972851
0.034692857
-0.04637769
-0.025200961
0.004716762
0.017127356
-0.03776614
-0.0168174
0.018101588
0.007125079
-0.03251155
-0.0028278797
0.034137275
0.017410409
0.025500385
-0.033198673
0.018730681
0.019849468
0.02689852
-0.03033555
-0.0013645614
-0.03313475
0.02297565
0.008084254
0.00016669951
-0.022004783
-0.011121334
-0.03430476
-0.017562814
-0.02631894
-0.017422237
-0.015173519
-0.045225333
-0.02386689
0.022671757
-0.03211907
0.024032094
0.018233834
-0.012488659
-0.029172597
0.032384194
-0.024731137
-0.021668872
0.014591928
0.04550306
-0.012107279
-0.036748733
0.03606782
0.029390756
-0.0050432365
-0.0033358342
0.013221796
-0.024087887
0.035658807
0.028874194
0.011998682
0.028093643
-0.014731925
0.0075747888
0.039568376
0.01523382
-0.004325687
0.0044753808
0.04159042
0.009438001
-0.013388507
-0.032315366
-0.025711378
-0.005763253
-0.0126224235
-0.020062655
0.01900906
0.0070466176
0.019435035
-0.014197401
-0.0381615
-0.022916913
-0.007147071
-0.022185981
-0.00070489617
-0.0123153655
-0.0033228057
0.024803769
0.04468603
0.01560114
0.017891767
0.01955935
0.004361582
0.013740882
-0.021557232
-0.01977967
0.02736229
-0.015582539
0.0372614
-0.027902046
0.0122508295
0.03872471
0.03706611
0.04649994
-0.0053956304
-0.03296035
0.007901827
-0.030715581
-0.028807877
0.03415161
0.02536188
0.033786725
0.0323245
-0.021904863
-0.01485821
0.012788983
-0.015197025
-0.015898371
-0.01895416
-0.020077625
0.0006843969
-0.040826917
0.0005565155
0.022029541
0.028194806
0.030626813
-0.019932596
0.0141948685
-0.02844666
-0.037231844
0.018601604
-0.033309814
0.009951546
0.019655373
0.009258653
-0.019807208
-0.038081974
0.0030121133
-0.010337321
0.0051769456
-0.0034594606
0.041630615
0.008616068
0.01220066
-0.024544494
0.0064942595
-0.030665806
0.021305654
-0.030793292
0.030709475
-0.014320815
0.00806681
0.033558786
0.029777914
0.013003409
0.028317174
0.021542562
0.018223902
-0.03560332
-0.0268733
0.020112487
0.015236916
-0.037863005
-0.007101998
0.029399782
0.02300813
0.029465346
0.014490955
-0.046349186
-0.0376723
-0.017640764
-0.003749976
0.029377097
-0.020848595
0.018911466
-0.0028253882
0.013969233
0.05101495
-0.02480913
-0.017639868
-0.0042811353
-0.020039639
-0.010686229
0.0141104935
0.004467277
-0.02327872
-0.03990225
-0.027550071
-0.029690739
0.018137673
0.023151563
-0.021921746
0.015075341
-0.008370698
-9.177871e-05
-0.007137609
-0.03114827
-0.045964584
0.049401324
-0.036951266
-0.03734185
0.020763695
0.028207984
0.027494254
-0.0013636191
0.0011705486
-0.023611536
-0.02448108
0.014645998
-0.006378748
0.0034135066
-0.043618
-0.036269847
-0.0013143216
0.008824306
-0.038384832
-0.009643104
0.0089607
0.034543786
0.02989522
-0.0060149203
-0.034163017
-0.028632436
0.027018186
0.03676457
-0.026912943
0.019634275
-0.038975272
-0.013757251
0.016477406
0.002292542
0.0152566945
0.038933955
0.031704776
0.027045218
0.027511401
-0.03883196
0.014062733
-0.034184787
0.0076209973
0.03290472
0.019130286
0.022153473
-0.03703685
0.0013940566
-0.019454148
0.0366662
-0.029988784
-0.011780703
0.012894615
0.03243499
0.025648283
0.03442499
-0.0015290057
-0.025777305
-0.033646155
0.0058903554
0.014365814
0.0008564043
-0.04104452
-0.012495467
0.023555562
-0.017563058
-0.0063802702
-0.019994102
-0.019201871
-0.033499084
-0.02812416
-0.009828946
0.004527354
0.029443817
-0.0022689432
-0.0022018575
0.035782434
-0.0005219343
0.028171021
0.04533147
0.0068074455
-0.020372761
0.020747025
0.0010913205
0.018884657
-0.004169133
-0.011046734
-0.018738791
0.015524046
0.010360413
0.04323869
-0.029733844
-0.018773384
0.019432982
0.009189821
0.044355486
-0.032572098
-0.04198405
0.021236435
-0.036840614
0.009506644
0.03259624
-0.02037541
0.014086299
0.035426203
-0.02845888
-0.030906755
-0.024800295
0.03130458
0.0092769135
0.013572114
-5.4292796e-05
0.023612667
-0.04179311
0.019164266
0.004239587
0.000913806
0.0061504855
-0.0024829304
-0.0241271
-0.005510005
0.034855198
0.026512945
-0.021437552
0.011955214
-0.031820145
-0.020500101
0.012012059
0.044733465
0.038255185
0.017477967
0.03276554
-0.014961666
-0.008510511
-0.017459169
-0.0097347265
-0.010581854
0.005345653
0.018797953
-0.011136775
0.004869302
-0.035204407
0.033330943
-0.018567627
0.029202249
0.028238194
0.0024880297
0.030376479
-0.021958228
0.0390873
-0.0351035
0.044990316
-0.005668234
-0.004880791
0.033739224
0.027384583
-0.019074569
0.028323255
-0.026013406
-0.008165779
0.03557034
-0.039309785
-0.0136443805
-0.03536576
-0.03499489
-0.015034876
0.009089025
0.0052173734
0.027459098
0.040906668
0.013936298
-0.023395212
0.036007818
-0.012811514
-0.009021014
-0.00796823
0.035074305
-0.023658147
0.020799853
-0.026708994
0.018710226
-0.024268262
0.03013928
0.035006296
0.042419598
0.0179418
-0.030543964
0.014968239
-0.017016783
0.023596799
0.030039398
0.024031134
-0.013861869
0.029102571
0.012283862
0.003655448
0.034716975
0.0063287322
0.0043894406
-0.010502596
-0.039641142
-0.0061886795
-0.024037324
-0.016935404
-0.031333566
0.03330607
-0.008713668
-0.013360763
0.021268234
-0.0064048013
0.027621472
-0.0014096308
0.022470389
0.030152658
0.030961547
-0.035826415
0.041582357
-0.01361791
0.009238913
-0.003606274
0.018433513
-0.026588207
0.010240373
0.013512552
-0.040005695
-0.027384179
-0.011914127
0.025477597
0.018883914
0.043854654
0.006022761
0.0044464497
-0.007314709
0.0007564804
0.007580741
-0.010681051
-0.04205118
0.023578685
0.022604473
-0.036161173
0.002221117
-0.025191946
-0.01994323
0.0268043
-0.023552708
-0.011533823
-0.0053487257
0.01974546
-0.015341496
-0.011786298
0.008584996
0.029175509
0.034867402
-0.03480377
0.05194075
0.02082336
-0.0031570718
0.041830868
-0.011883687
0.020125763
0.007015084
-0.02874917
-0.0020187707
0.007514683
0.015376078
0.004508532
0.020475503
0.0393046
0.01993196
0.02894117
0.007445462
0.004390321
-0.01405938
0.028477881
-0.01705986
-0.024499167
-0.03508862
0.024267437
0.032954685
-0.028086955
-0.0016757618
0.02560684
-0.024190435
-0.035137758
0.0064478656
0.00078512536
-0.00386162
0.007971344
0.045516398
0.024925701
-0.019121591
0.013472152
0.039521843
-0.004344382
-0.014478594
0.013376894
-0.040539745
0.017004842
0.043512113
0.018812766
0.025363445
0.033977497
-0.027714945
-0.0011596949
0.04114943
-0.03115666
-0.019619728
-0.03691274
-0.02796451
0.024108239
0.01703825
0.042714935
0.005857605
0.041675486
0.030180061
0.023705116
0.03502127
-0.0015800481
-0.020112602
-0.027413385
0.031037183
0.03335514
0.0035597389
0.040645078
-0.02246393
0.0076125697
0.030243877
0.026993407
-0.032380078
0.02877171
0.037822485
-0.00600572
0.029075276
-0.021473184
-0.02808349
0.0023418972
-0.02717033
-0.024856186
0.0058642295
0.019388603
-0.0056215837
0.004156686
0.0056175175
0.0062224185
-0.034431558
-0.025620552
0.008616206
-0.033539627
-0.015573221
-0.026322858
-0.0036533203
-0.00428505
-0.03201927
0.017702986
0.047541626
-0.01387063
-0.02530626
0.007364148
-0.031779718
-0.03334913
-0.004356668
0.0037908263
0.008223982
-0.019564241
-0.033742417
0.0014942304
-0.029140916
-0.007910941
0.027999178
0.034862388
0.02825231
-0.0019881576
-0.01537667
-0.0032673418
-0.009832948
0.0046945247
0.034369107
-0.028745035
0.03424347
0.001317586
-0.011023845
-0.003711104
0.005774251
-0.033145867
-0.035467856
-0.0037137761
-0.024467608
-0.03235227
-0.018830756
0.011390486
-0.029872049
0.0020590313
0.033620447
-0.036037575
-0.026546031
0.028415322
-0.017277222
-0.038328532
-7.548577e-05
-0.03411418
0.035713162
0.03340811
0.025551869
0.043526314
-0.013024664
0.029924981
0.0027660842
0.0021827982
0.016992884
0.033086646
-0.02304323
-0.015445528
-0.010061492
-0.023408055
0.0021615315
-0.03452736
-0.00078432483
0.014237567
0.04018326
-0.010182458
0.006237512
0.009420231
0.0019492065
0.014081093
-0.024323655
-0.04027024
-0.034212645
-0.012826748
-0.03982382
-0.010270387
-0.032273356
-0.03329564
-0.046497688
-0.017683301
0.03104212
0.035731196
-0.02198063
0.016765924
-0.024276495
-0.008941694
-0.0038047305
0.016599847
0.016849816
0.005477373
-0.03892414
-0.015337697
0.016744852
-0.026979113
0.015418804
0.016783731
-0.028990518
-0.0036977725
0.03437665
0.007817564
-0.021848468
0.009002578
0.021985164
-0.0027273411
0.034460362
-0.03591004
-0.029582191
0.03245088
-0.029646823
-0.004658699
0.010151625
-0.028020725
0.023652898
-0.03676088
0.022418989
-0.03429071
-0.011710606
0.032008573
-0.019326713
-0.025438823
-0.021497844
0.042906314
-0.019123483
-0.018269602
0.011384293
0.0014941928
0.034767598
0.02088649
0.024839977
0.026642267
0.008867956
0.0155560775
0.011591104
0.053369638
0.047620427
-0.034516014
0.024215303
0.03285418
-0.026856106
0.0113946535
0.04501797
0.03187843
-0.033202168
-0.016860092
-0.02149261
-0.03478742
-0.006984761
0.028472614
-0.051583037
0.013124802
0.04062401
-0.0028933785
-0.012010769
-0.0018025574
-0.03158703
0.004495813
0.01962044
-0.029253354
0.008259487
-0.014032983
-0.017131446
-0.016605133
-0.025248008
0.027365346
0.0195178
-0.031769484
0.020216199
-0.035165217
0.013812764
0.035675794
-0.002013904
-0.0018187084
2.214728e-05
-0.0050391923
-0.025329717
0.012004079
0.020881513
0.0015968163
0.003485138
-0.028904818
0.0083882455
0.02985476
0.040042225
0.01929082
-0.020558976
0.021893349
-0.037824925
-0.03133738
0.038388
0.01603501
-0.009874332
0.035833083
0.023577442
0.0127777355
-0.025835073
-0.009342406
-0.0004771054
0.02380498
-0.023143234
-0.019758342
0.030779494
0.031005885
-0.021000752
-0.028596027
0.007909846
0.003922229
-0.015929345
-0.02879409
0.0030750523
0.0052475715
-0.00021424051
0.008515769
0.018002663
0.021272758
0.034419063
-0.024198461
0.03679327
-0.01851444
-0.02404647
0.017155949
0.016182236
0.017152853
0.016685955
-0.012250549
-0.019685166
-0.019230725
-0.024159718
0.031098807
0.043597113
-0.008011458
0.011387077
0.009770742
-0.008935432
-0.026699837
-0.024656117
0.014926046
-0.026670685
-0.020667912
-0.036807895
-0.033612367
-0.029822743
-0.029757082
0.02300274
-0.009086309
-0.017117433
-0.013852749
0.020196503
0.004367708
-0.035147615
-0.029492278
-0.010263717
-0.04786015
-0.0067618536
0.021635603
-0.031665303
0.019430645
0.004274694
-0.035435334
-0.033309676
0.023798166
-0.004419135
0.01999339
0.018152937
0.021312427
-0.011903902
0.02122377
-0.022909617
-0.02208233
0.013811987
-0.039094627
-0.024487931
0.024688713
-0.010364719
0.009650907
0.016704455
-0.03301378
0.020609127
0.03936562
0.017122732
-0.013639571
-0.00070509256
0.031913478
0.0093955705
-0.0018269254
-0.0038757834
-0.012761699
0.027874188
-0.029962962
0.020280836
-0.01413124
-0.027655683
0.005318095
-0.020761147
0.026258586
-0.020810407
-0.022836182
0.0021736142
-0.0031282713
0.01268224
0.027335817
-0.0053458163
0.038579617
0.017963786
0.007151679
0.015065205
-0.02458998
0.035298515
-0.022778492
0.036558483
-0.0067965547
0.03304767
0.01728011
-0.03264131
-0.008520049
-0.023909377
0.040962465
0.009600304
0.006692426
-0.018811401
0.04335748
-0.0339296
-0.0047432147
0.028833086
0.040312883
-0.0434485
-0.0024440133
-0.00985951
-0.028424323
-0.017769063
0.027882433
0.02494251
0.039868712
0.017250739
-0.03345175
-0.0050282935
0.00027160035
0.006294736
0.02806645
-0.024692044
0.03382887
0.011921507
0.026574522
0.033097047
0.033239663
0.0013435832
0.0063559157
0.02391943
-0.023579007
0.0026093153
0.0035119827
-0.025711287
-0.024396408
0.017201059
-0.030168746
0.0037980103
-0.008122948
-0.018581457
-0.013278684
-0.018178256
0.021643564
-0.025644489
0.040590025
-0.047957357
0.0036402852
0.0051402417
0.008748876
-0.014434335
0.01052158
-0.042038683
0.04458375
-0.033812348
0.022158453
0.025796313
-0.04519897
-0.012618801
0.019329403
0.033804614
-0.016463002
0.046534404
-0.036883384
0.020711863
-0.023714326
0.0018556603
0.031413086
-0.037814584
-0.0067674117
-0.02049134
-0.035721067
0.030296534
0.03255155
0.003670539
0.0026291106
0.003810906
0.02949944
0.024240158
-0.020156441
-0.019672634
-0.016225431
-0.003937418
0.0033540975
-0.021500595
-0.010686272
-0.0011284947
-0.005922832
0.026824225
-0.02238013
0.015046568
0.00906477
0.03502593
-0.032327406
-0.025611151
-0.0011245636
-0.019681005
-0.011617626
0.017979654
0.01902799
-0.013975317
0.011932444
0.040345773
0.040275045
0.012371656
0.028539354
-0.033906322
0.023098111
0.0014935246
-0.017264094
-0.025184873
-0.031736683
-0.014100436
0.017136626
-0.015661726
0.041666392
-0.03923138
0.03734826
-0.008026392
-0.01727702
0.0024259293
0.007578935
0.033696547
-0.037537556
0.02904303
-0.0148028135
-0.023097944
-0.03017545
-0.027433787
-0.026591018
0.011506296
-0.01554198
0.025903754
-0.041057833
0.004055146
0.008949564
0.032688327
0.036092266
0.017684594
-0.031836957
0.0068898955
0.0057347245
-0.011936977
-0.022059528
0.0056794775
0.011459118
-0.0033454471
0.026451055
-0.02156247
-0.015474534
0.034524634
0.00010125882
-0.011309498
0.02184763
-0.026790196
-0.015207453
0.022092307
-0.029530099
-0.0044525224
-0.037855774
-0.02907646
-0.014397877
0.019556098
-0.028229607
-0.009652927
-0.007524094
0.022032456
0.020386038
-0.02157097
0.017284544
0.018877862
0.025415584
-0.025742456
-0.0040348023
-0.03093973
-0.014656251
-0.040752705
-0.005570791
0.015112762
-0.012595381
-0.026113523
0.029752275
0.011403964
-0.014170817
0.024747478
-0.020447869
-0.028933287
-0.017576654
0.0035237
-0.013379843
-0.038894575
-0.0283119
0.018332507
-0.03277168
-0.01735423
0.033539724
-0.033593163
0.0045502763
-0.015766755
0.0019083688
0.032237925
0.028948316
-0.035020497
-0.03484642
-0.02087784
0.0381162
0.009516776
0.047426585
-0.027459068
-0.024985207
0.024288848
-0.028902227
0.0033487072
-0.02859816
0.02347844
0.013894706
-0.044092834
0.026212977
0.04566867
-0.043257173
0.0018075282
-0.03462075
-0.03431969
-0.014892648
0.0017604199
-0.00873482
-0.019362153
-0.030874424
-0.017760642
0.008532807
-0.024456207
0.029062733
-0.021218218
0.034868397
0.016689094
-0.025575027
-0.02201213
0.003610275
0.027817057
0.009544857
0.01950813
-0.006833223
0.0064528827
-0.040168352
0.02648538
-0.016129712
0.011393263
-0.031019349
-0.004320929
0.022712609
0.011781456
-0.02936501
0.034104932
0.011674647
0.0033048245
0.023062423
0.037612345
0.012746543
0.02534368
-0.014683625
0.028836092
0.019725904
0.011757917
-0.021946462
0.030596089
-0.027985053
0.011954534
-0.033436358
0.014536785
-0.0057732705
0.016388254
0.02752292
-0.024786407
-0.021434773
0.037823636
-0.018296793
-0.014512273
-0.02044494
0.008102104
0.012658648
0.01944267
0.010724428
0.00807316
0.0020124542
-0.015528158
-0.03376859
0.0033847748
0.023288058
-0.019640915
-0.0014910137
-0.017573591
0.030436948
0.012431326
-0.009489635
-0.007502495
-0.010011944
0.024038091
0.027181363
0.027846927
-0.00020253594
0.00047765713
0.015777377
0.0002272515
-0.025477298
0.008360596
0.0036422284
-0.021323504
-0.009568043
-0.016334107
-0.035100505
-0.011242256
0.039489347
0.013315614
-0.027411228
0.001233023
-0.036547463
0.002883326
-0.0025468767
-0.00019708203
-0.032724988
-0.011545525
-0.02566916
0.012482502
0.0029891317
-0.007891975
-0.008420023
0.009550779
-0.012639968
-0.0212666
-0.022727534
0.018175976
-0.00089238794
-0.0028065918
-0.0031749082
-0.0336483
0.0018183124
0.008319549
0.03232186
0.0024569859
0.043164097
-0.0032160955
0.0037580337
-0.027655924
-0.0027366763
0.0016185942
-0.00600121
-0.02624323
-0.011824679
0.015293298
-0.0018792518
-0.040983118
-0.0038625887
0.020830367
0.014160551
-0.032505877
-0.010345009
0.038080975
-0.02214955
-0.017263955
0.029842148
0.0336569
0.015501991
0.0006574353
0.02999647
0.011553069
0.012363773
0.02845092
0.017951788
-0.0002545393
0.0043577417
0.009199692
0.026619226
-0.0008845604
0.01568288
0.030929733
-0.03131367
0.014057013
0.025386294
0.024325458
-0.03465276
0.011047179
0.010395109
0.0022063788
-0.02931057
0.018069603
0.007960502
0.003643209
-0.037419338
0.0068832547
-0.01287818
0.012173077
0.022066617
-0.03640096
0.031925388
0.014767075
-0.033732455
0.02049563
0.0028960193
-0.009325767
0.04548502
0.0342297
-0.020683266
-0.012826884
0.02478598
0.0102113
0.052751597
-0.021618195
0.037846625
0.005218871
-0.008791843
-0.01867496
0.026966993
-0.0030627504
0.022802917
-0.01369646
0.015270678
-0.009359929
0.017102294
-0.01664124
-0.008393103
-0.015395778
-0.009338568
0.015837574
-0.033135332
-0.036589183
0.011594567
0.001074297
-0.002607969
-0.0024421776
0.02071232
0.019524518
0.024939088
-0.003280957
-0.03988404
0.0006133175
0.023850206
-0.012398437
-0.0354125
0.016669704
0.03279893
0.03632928
0.039274484
-0.020278404
0.037300628
0.0043048584
0.03494707
0.024478033
0.003061804
0.0036600498
0.028844075
-0.008888055
-0.01672443
-0.014804238
0.04718168
0.03008188
0.03329028
-0.0008492414
-0.03820109
-0.015464807
0.033883683
0.0038941095
0.031730685
-0.03202985
-0.04627291
0.017665317
-0.014393185
0.01661833
0.017640054
0.020906419
-0.01902485
-0.008460806
0.040896546
-0.03293895
-0.028238803
0.035068396
0.017742364
0.0149803525
-0.025625313
0.019298913
-0.0019925344
-0.03328995
0.009811162
0.002875558
-0.0078193825
0.042744115
-0.0009768973
0.008507115
-0.03437738
0.019970568
-0.0034791965
0.011075733
0.012617951
0.0012513368
0.016964968
-0.042143293
0.011258014
-0.02115025
0.040657848
0.032831967
-0.02966978
0.021277301
-0.03429754
0.02346178
0.02558817
-0.003103723
-0.0033333306
-0.02048295
-0.009567093
0.009481772
-0.0026974187
-0.03792113
-0.03549216
0.034550037
0.0156235
0.03536816
0.020379867
-0.0048709232
0.008133817
-0.037160143
0.029848183
0.019278461
-7.235493e-05
-0.034091193
-0.013506988
-0.03934449
-0.021618785
0.027392305
-0.028723393
-0.031057484
0.04161712
-0.031654928
-0.0057631987
-0.039632555
-0.037481852
0.010586253
0.029532332
0.0060688276
-0.010679593
0.033849996
0.03753635
0.035845015
0.029839216
0.03391766
0.022501824
-0.0037715328
0.01549786
-0.0083506
0.011111467
-0.025882056
-0.00014887782
-0.04165617
0.021357095
-0.043886878
-0.03671251
0.023662765
0.013264909
0.0076667876
-0.0060572946
0.018675106
-0.015239887
-0.029976144
0.02455423
-0.025353456
0.030299153
-0.01080724
0.031858306
0.006436161
0.020722955
-0.015740009
0.020009303
-0.00073999824
0.008126863
0.015514865
0.014960679
0.036969848
0.0136498725
0.049670734
-0.016742587
-0.013917548
0.019245276
-0.03213597
-0.030646786
0.031563915
0.02006902
-0.040028192
-0.016470727
0.017838975
0.033251353
0.04559865
-0.02960522
-0.028368922
-0.011967124
0.008581915
0.030381829
0.0327784
0.009065791
-0.045477573
0.010170278
-0.017904747
-0.011737524
-0.03239767
0.011218903
0.016208468
-0.0325198
0.029252568
-0.009281004
0.012410537
0.020335821
0.035237417
-0.0006918514
0.0210874
-0.04316775
-0.032144014
-0.051441215
0.009518188
0.0009836166
-0.021538394
0.03229697
-0.022541242
-0.01529519
0.008975794
0.032504458
-0.019658938
0.025597703
0.021225976
-0.031324457
0.00025493576
-0.0067265374
0.0006816308
0.0026932838
-0.031477123
-0.0266642
0.044254698
-0.0011659724
0.0058859717
0.011923199
0.02749943
-0.011976085
-0.015647043
-0.009767624
0.030932602
-0.01921521
-0.016441649
-0.037815418
0.0050360863
0.039787576
-0.018879997
0.016315926
0.022923509
-0.022546418
-0.015672863
0.039099324
-0.0075052576
-0.016084695
-0.029355371
-0.0073309983
0.018427532
0.012164763
-0.023435928
-0.002244808
0.026278311
0.025819886
-0.0034028806
0.035401464
-0.011093753
-0.028166903
-0.0026527585
0.0074327816
0.018644622
0.011011415
-0.007387571
0.006793722
0.04301732
0.0053826487
-0.0074277213
0.010662578
-0.0431715
0.004566365
0.036711965
-0.0502695
-0.0046608187
0.03704256
0.0178928
0.03345403
0.03008957
0.0070456867
0.026606772
0.03552572
-0.038025886
0.03888451
-0.037371304
0.0030852398
-0.030638322
-0.022894114
0.02751987
-0.0043996014
-0.008689414
0.037015375
-0.0011097689
0.0034303805
-0.008082946
0.0072743646
0.03492975
-0.0022353383
-0.046119004
-0.022349332
0.023144258
0.03616395
-0.024138063
-0.01548088
-0.024938757
0.010309208
0.030107446
0.036351074
-0.01622578
-0.00039916125
-0.03321367
-0.041689023
0.010930343
-0.032793287
-0.004726859
0.01475813
-0.011139408
-0.027973168
0.04314875
0.026764343
-0.022675935
0.003621723
0.02854078
0.019967971
0.0023148993
-0.034107838
0.01326689
-0.0013224859
0.032480933
0.020772107
-0.014334178
0.028224299
-0.02043792
-0.009343518
-0.012619167
-0.019324029
-0.011030436
-0.027217096
-0.008140986
-0.010610805
0.010267338
0.03881212
-0.006141515
-0.015087948
0.0069538797
-0.004208889
0.035803534
-0.010990802
-0.014627399
0.032303356
0.009681189
-0.038418252
0.03211026
0.013446357
-0.017302837
0.005625184
0.009525143
-0.014446125
-0.019884326
-0.02296625
-0.03252674
-0.0063983644
-0.0040657097
-0.009963273
-0.025621051
-0.027938522
-0.004653494
-0.0022764676
0.038492113
0.008330335
0.0007177646
0.01965635
-0.042507213
0.01321666
0.028281864
-0.02781278
-0.007649436
0.054792278
-0.019748162
0.0055212006
0.022709982
0.02567252
-0.029871894
-0.0026692748
-0.0384883
-0.004190863
0.002518572
0.025490405
0.029156743
0.026257949
0.013205437
0.007646764
0.009916041
-0.00868098
0.03653477
-0.017044244
0.03283825
0.028377794
-0.04336861
0.012038457
0.020952078
-0.0071722325
0.03819855
0.04815531
0.038749207
-0.020790903
0.02518161
0.03472427
-0.016455673
-0.017627642
0.015316211
0.031885374
0.046755224
-0.030652478
0.02962564
0.013098758
-0.0033385665
0.028047033
0.0077260854
0.010349762
0.022290563
0.024932543
0.024517316
0.029263224
0.036039427
-0.025401358
-0.03373672
-0.03807248
-0.011923546
-0.032493647
-0.03490096
-0.034963377
0.017928293
0.0057383548
0.032124117
-0.038220763
0.001600666
-0.006005294
-0.045550134
0.025789935
-0.011425269
-0.027777992
-0.016199658
-0.0034438542
-0.020017738
0.044038005
0.010228363
-0.020699367
-0.032609127
-0.003923754
-0.026901145
-0.015169791
-0.016885687
0.025006875
0.015450999
0.026818544
0.012436356
-0.022477549
0.010521332
-0.010579572
-0.013354901
0.03450314
0.01368963
-0.040304136
-0.01274195
0.020749288
-0.0026761917
0.0012541275
-0.017178742
-0.019535515
0.0011076044
-0.013214646
0.02910677
0.008583616
-0.022296133
0.013602031
0.002057375
-0.047741514
0.011180079
-0.039029438
0.0032106787
-0.014888022
0.037415724
-0.0047180415
0.0059437547
-0.0284152
0.039435867
0.040469434
-0.033683628
0.029766768
-0.0010829658
0.028389808
-0.041408736
-0.04531018
-0.021330254
0.0076066833
-0.047061153
0.01819627
-0.029810334
-0.007342085
-0.019238967
0.01598771
-0.024676515
-0.023124948
0.033581287
-0.0057632653
0.0065258243
-0.022893153
-0.031549804
0.018455552
0.026882691
0.037337158
0.036687177
-0.044683777
0.003952166
-0.0021203833
0.0071013947
0.0013352287
-0.0069353003
0.006911698
0.04731474
-0.030765492
-0.043441813
0.024077877
0.0018020862
0.028686617
0.046880953
0.0054291757
-0.015015028
-0.001799092
0.031311247
-0.0054354556
0.021316402
-0.008101309
0.009744829
0.025505528
0.008602722
-0.041035652
0.02800649
0.011042825
-0.005187155
-0.03267073
-0.007956425
-0.021464556
0.012285161
-0.022937959
-0.018722896
0.018259615
0.022030612
-0.044601537
-0.009286273
0.006197981
0.0023163806
-0.03432819
0.015556686
0.022335406
0.03296316
0.021761252
0.032077666
0.020401279
0.017637048
0.026762893
0.03144901
-0.008319623
-0.011161512
0.018002821
0.0062697832
-0.040285893
-0.023978485
-0.027607456
-0.04817195
-0.0023783993
0.04535793
0.017939033
0.03098515
0.008546835
0.024117356
-0.0018403016
-0.0013415986
0.04061679
-0.026601568
0.008383994
-0.005767672
0.038180277
-0.02366647
-0.0154705215
-0.03370964
-0.0051827147
-0.008076621
0.023355803
0.016117146
-0.0047702068
-0.0058348356
-0.0373546
0.009075297
0.015627274
0.02305764
-0.042707972
-0.026149195
-0.015340885
0.013496159
-0.019069003
0.03416865
0.004611188
0.0322434
-0.019534364
-0.024792455
0.016532272
-0.009132581
-0.025490707
0.011010978
-0.0030888207
-0.020355571
-0.008113691
0.027756937
-0.035426755
0.001555642
-0.022486957
-0.04497506
0.024870085
-0.010697172
0.011185868
-0.020228537
0.01133428
-0.023488393
0.0343758
0.006700757
-0.0292402
-0.0048492057
-0.023752207
-0.0010007707
-0.020301238
0.02880716
-0.04049858
0.0077073197
0.027451634
-0.0077689267
0.012420519
0.011506274
0.01571063
-0.032879338
-0.029984795
-0.021938447
0.023495957
0.0048055327
0.005946834
-0.007210745
-0.03591481
0.017288044
-0.003536155
0.028811287
0.019730112
0.038976204
0.013829895
-0.021343919
-0.019835424
0.00033596755
-0.008287632
0.008163219
0.0074680913
-0.0002846613
0.010757571
-0.0088531375
0.026595946
0.03345342
0.028714402
-0.034121983
0.018143851
-0.025482912
0.041003663
0.020620437
0.046060354
0.0068612266
0.0018666395
0.027822023
-0.03305904
-0.0040936717
-0.014040147
-0.019365555
0.028146684
0.02796721
-0.0041967183
-0.018525738
0.021212166
0.016048858
-0.03780726
0.03477829
0.03513323
-0.01079725
0.047853664
0.0268872
-0.017609091
0.018070512
0.034998383
0.023050347
0.007701526
0.037359063
0.003185188
-0.043000277
0.03938019
-0.008748476
0.01700865
0.004621672
0.027086
-0.0044634044
-0.015872642
0.009871567
-0.023698265
0.015654234
-0.010175238
-0.027725479
0.00045542602
-0.0050480277
0.01807099
-0.009955019
0.006912651
-0.033505738
0.016537601
-0.032916434
-0.034751207
-0.006205959
0.03098292
-0.008074397
0.007828598
-0.031807564
0.021365775
-0.02752151
0.033246957
0.036534484
0.027665045
0.0019064539
0.039125014
0.037636194
0.016535148
-0.0123943025
-0.024708286
0.0063864994
-0.042275473
0.013793302
0.022687487
-0.008213498
0.004647726
0.043873567
0.014351344
0.035392523
-0.029433018
-0.0034047528
-0.0008583383
-0.026350843
-0.02196935
0.011973153
-0.027744982
0.020200072
0.02608305
0.029387094
-0.0437804
-0.028545681
0.0050204555
-0.031891055
-0.032307643
0.015626153
-0.0019248064
0.008116248
0.033642337
-0.027302703
-0.037636407
-0.013398918
0.002543448
-0.02150061
0.035447396
-0.010892934
-0.004678172
0.017213017
-0.03431951
0.017100401
-0.035453115
-0.04280701
0.01451365
-0.034501094
0.00045124243
0.013460093
-0.026490299
-0.0182308
-0.010479752
-0.00318076
0.032828875
-0.0023175087
-0.0038909453
-0.035562947
0.023482893
-0.0050220843
-0.019674657
0.0070168804
0.027922938
0.026963959
-0.043357633
0.031257585
-0.018899443
-0.026900558
0.03340188
0.024435302
-0.017265849
-0.031146336
-0.017167969
-0.0023907905
0.0045771427
-0.016231447
-0.01597284
-0.0056059263
-0.024605503
0.0267498
-0.022534482
0.030735355
-0.020742914
-0.011055214
-0.03690194
0.022495797
-0.044302564
0.0019906142
0.024659455
0.0010440995
0.038927168
-0.02732637
0.019075505
0.027365694
-0.0017989062
0.02362431
-0.00620625
-0.037210178
0.0060814875
-0.020382766
-0.023561558
-0.014365631
0.0040622964
-0.008282781
-0.0008830436
-0.03627206
-0.01424827
0.043452937
0.031147148
-0.02889788
0.021081677
-0.03781953
0.002751624
0.019014582
0.003585129
-0.024834188
-0.03926338
0.040505487
0.037439678
0.0037692375
0.03823314
0.015265918
-0.005140183
0.027937321
0.0152347395
-0.024875581
-0.0038550678
-0.037847303
0.018577034
-0.022813525
0.043440156
0.028428832
-0.028459337
0.0048699323
0.028232325
-0.017579738
-0.020680305
-0.006548278
-0.0141745275
-0.007260095
0.014516875
0.03215602
-0.022217037
-0.018970788
0.028105801
0.02775701
-0.031829607
0.01885756
0.020072144
0.011792637
-0.032670498
-0.001401452
-0.03096384
-0.02067773
0.019685114
0.032266
-0.0013193544
0.027579509
-0.038677394
0.02578752
-0.010214876
0.011088741
0.018460441
-0.028439125
-0.007523462
0.026542962
0.011187376
-0.0056180563
0.031110048
-0.03971045
0.033512723
-0.007851615
-0.0012820555
-0.01698495
0.032791216
0.00737475
-0.0014735622
-0.022524437
-0.015263372
-0.029562518
0.02626605
-0.0059304545
0.0027464114
0.03287074
0.014212685
0.006526084
0.022424283
-0.017616302
-0.030187484
0.010500064
-0.045865424
-0.027360052
0.036219858
0.015069788
-0.010067411
-0.012207611
0.007396728
0.041093804
0.004567532
-0.03034567
0.024335252
0.02085602
0.0039329585
-0.0068286033
-0.02877857
-0.020871555
0.036906995
-0.029348912
0.024308154
-0.0068357834
-0.0150437355
-0.007442101
-0.02008483
0.03280596
-0.028041882
-0.03561376
-0.0193527
0.00586812
0.000841842
0.02990753
0.005825634
-0.0027097734
0.03140031
-0.03386475
0.02117841
0.029896082
0.031259652
-0.045254808
-0.03791233
-0.0016683763
0.015613491
-0.036903296
0.01104743
-0.027913693
0.03779847
-0.003761885
-0.042226683
0.004450242
-0.032290775
-0.0037077689
-0.014520991
-0.03511082
0.011724201
0.02741043
-0.0387538
0.031563487
0.01672186
0.014131432
-0.030223787
0.03142558
-0.040843442
0.02532869
-0.015728923
0.015900128
0.008240056
-0.010617473
0.039849937
-0.02967566
-0.010161306
0.03431101
0.028795676
-0.0026951805
-0.031038944
-0.0041962136
-0.021634217
-0.027611218
-0.010709822
-0.0047546574
0.034373194
0.042845815
-0.013971519
0.025611809
-0.008425026
-0.030346397
0.038407404
0.01404007
0.035794772
-0.008237838
0.013470022
0.017188773
-0.0053275526
0.0040127994
0.019087631
0.032736853
0.015400337
-0.014501957
0.014082925
0.024592945
0.02902786
-0.010472976
-0.042016685
0.017654886
-0.015500877
0.03779841
-0.019522397
-0.0431191
-0.030217849
-0.036103096
0.00825933
0.030453112
-0.024714494
-0.026492223
-0.029366042
-0.010179088
-0.011046767
-0.015089806
-0.0037252663
-0.008578789
0.044692088
0.0051922244
0.024172233
0.047359306
0.00510367
0.039500773
-0.016459145
0.011660469
0.009467153
0.00062013726
0.0022010389
0.003008581
0.029555943
-0.019014264
-0.0036895073
0.005723514
0.020360572
-0.047296297
-0.01943795
-0.017670406
0.014353544
-0.01108108
0.017251581
-0.037148423
0.005192722
-0.025843399
0.019364027
0.02219874
-0.0077709137
0.025448503
0.006612489
-0.034813266
0.009842573
-0.016959777
0.007686565
0.014564349
-0.00035852395
0.03503416
0.03285411
0.006218416
-0.030668987
-0.040669188
0.0040288055
-0.016919501
0.010999509
-0.022986196
-0.040432487
0.017713446
0.01082729
-0.028807547
0.00501011
0.01502878
0.013331665
-0.023680525
-0.027869346
5.5811393e-05
-0.012811211
0.0010089312
0.0060021114
0.0010630403
-0.025920259
-0.0072537605
-0.019020854
-0.015121832
-0.0050912094
0.001719614
-0.02134054
-0.033406086
0.005556024
-0.0095794955
0.032422982
0.022467162
-0.014228752
0.021571446
-0.036262147
-0.01594933
-0.036401324
-0.021980356
-0.035174143
-0.012004824
-0.018853312
-0.0059563774
-0.017409917
0.023316072
0.02286992
0.009239388
0.0009587928
0.02213196
0.025347259
-0.006924569
0.017744713
0.023145076
0.0024713394
-0.014952364
-0.036995668
0.008512208
-0.0037924147
-0.017955976
-0.038169295
-0.027386343
0.022537488
0.015857257
0.02016127
-0.03872178
-0.00906407
0.015298748
0.004799335
0.011759894
0.0051604686
-0.0029416594
0.03703189
-0.037483044
0.0075221616
-0.018476872
0.0018215023
0.025837502
-0.036786113
0.02338128
-0.045833282
-0.010280727
-0.012253913
0.020395752
-0.044847187
0.03624319
0.004173781
0.038051017
-0.0022418755
-0.039344456
-0.0012812987
-0.021470815
0.014236242
0.026649984
-0.0123899
-0.041259218
0.019856948
-0.02922936
-0.010992038
0.019538295
0.042181794
0.032364946
0.013484076
-0.028350404
0.025791315
-0.007439866
0.028923135
0.015941733
0.028051635
0.03673246
-0.000817306
-0.008132344
0.001063989
-0.037890293
0.036491215
0.029138312
-0.03711379
-0.035357572
0.005293387
-0.005146842
-0.013780815
0.0016098635
-0.007010031
-0.0065494394
0.009407605
-0.048777133
-0.019344572
-0.023125978
0.03651663
0.014926798
-9.00991e-05
0.0051119574
-0.032933764
-0.0012009316
-0.023945825
-0.033053517
0.036669612
-0.0036802816
-0.039203387
-0.016136836
-0.044092
0.026921306
0.03608381
0.0038981014
0.031712197
-0.024017848
-0.028110271
0.028739568
-0.03771911
0.0009994144
0.010386537
-0.006950442
0.0061146794
0.00294815
0.0190866
0.012227551
-0.020842476
-0.0060960287
0.017724829
-0.00450306
0.022613313
-0.012813739
-0.039759595
0.002986008
0.03718983
0.036705777
-0.0039682714
-0.036799714
0.017195474
-0.01022369
-0.042298064
0.017811663
0.028796734
-0.02263039
0.023244329
-0.0058810213
-0.0145736905
0.02999668
0.024101024
-0.03889111
-0.01869401
0.012097726
-0.03243523
0.0055811144
0.00445319
0.0142209465
0.0032352752
0.025633378
0.024292432
-0.035087183
0.020699482
0.03180085
-0.032982506
-0.036085464
0.038901646
-0.01053088
-0.020661378
0.0131002
0.015988441
0.009282442
-0.02483858
0.040013693
-0.03043937
-0.019252304
0.028393807
-0.027484909
-0.024288945
-0.012590741
-0.029394656
-0.025226405
0.015947323
0.02162595
-0.042552665
0.008038043
0.0136598535
0.011165926
-0.032567963
0.03701618
0.028800977
-0.033406563
0.040665578
-0.020164242
0.036926053
0.012453105
-0.023746911
-0.0003148801
0.023740113
-0.0211677
-0.02923499
-0.0032781146
-0.00047196215
0.027876616
-0.03061103
-0.04521557
0.021693824
-0.025086097
0.028528918
-0.010282192
0.034305558
-0.023053417
-0.03739525
0.0018605379
0.020593783
-0.01875899
-0.021719316
0.022345671
-0.03545593
-0.029804222
0.015691957
0.015893403
0.030207522
-0.041868847
0.033408213
0.03679678
-0.048009828
0.009507379
0.04197675
0.028783532
0.026363222
-0.0030081298
-0.028763372
-0.025147967
0.005825328
0.006281783
0.0057842913
0.019401735
0.0025476965
-0.007974504
-0.028508985
-0.017620813
0.0063568563
-0.017726535
0.003923373
0.0010885682
0.015000138
-0.014951848
0.0023416502
0.034171287
-0.006703722
-0.01983286
0.032228217
-0.026279226
-0.018498424
-0.001252587
-0.0070122746
-0.00829905
-0.03157761
0.014028017
-0.022754468
-0.01688928
0.002061869
0.02551019
-0.016042827
-0.01186469
-0.016941894
0.033562735
-0.022359325
-0.010773394
-0.01111808
0.020747451
-0.021270026
-0.0055955215
-0.0056752386
-0.0097483
0.0149265295
-0.03034303
0.02877186
-0.032791317
0.009191466
0.020846177
-0.041514013
0.003187254
-0.035658702
-0.028022632
0.009934195
0.042569105
0.037838746
-0.015038211
0.0040322435
0.017561985
-0.008811221
-0.029050216
-0.008180938
0.030763207
-0.03859046
0.00027865678
-0.010233982
-0.041591376
-0.034651615
0.0079565
-0.03261706
0.025568286
0.013757166
0.030639367
-0.009353051
0.030459078
0.014075557
-0.042530715
-0.011574708
0.017759537
0.008340927
-0.020717598
-0.018257119
-0.003199462
-0.01236543
-0.00016158396
-0.013415669
-0.0034639917
0.00504953
-0.0059268447
-0.015024613
-0.0326336
0.020032214
-0.020591648
-0.042212654
0.010013314
-0.035736367
-0.032389354
0.014965549
0.014514557
-0.0073526152
-0.005772723
0.0137263285
-0.04373876
0.03834953
-0.019898048
-0.027646756
-0.032657463
-0.0072180205
0.028562468
0.032873776
-0.024744228
0.0015991646
0.028759986
0.020658333
0.013937637
-0.015270603
-0.0076796003
-0.029509123
-0.03479452
0.0021253158
0.025750615
0.0419785
-0.009961905
-0.010230586
0.03010986
-0.03453956
0.022532472
-0.023121204
-0.0062440494
-0.02124072
0.037590597
-0.018071985
-0.03304117
0.015075687
-0.016069997
-0.02687341
-0.03027921
0.022796758
-0.040363356
-0.03169433
0.007939855
-0.009153617
0.0032180955
-0.02977528
0.0115183545
0.011052353
0.02187248
-0.012754795
-0.007266144
0.00701984
-0.02232428
0.0029882856
0.010984939
0.019664397
-0.02854846
0.024702318
-0.015623114
0.010507789
0.012519785
0.023915572
-0.019518748
-0.0067771752
0.034866773
0.03897826
0.039317667
-0.010340431
-0.00837553
-0.00045025992
-0.019970475
-0.01892075
0.016054766
-0.03357076
0.034332886
-0.019107504
-0.00044592455
0.030346746
0.03551444
-0.0026500763
0.0061169057
-0.024061602
-0.032402664
-0.024073962
0.019522166
-0.03049481
-0.016683256
-0.0019928128
-0.0021210006
-0.03791575
-0.017925182
0.012098776
-0.024433052
0.027915182
-0.036026783
0.03808881
-0.03903781
0.011804205
-0.0075412407
-0.036037937
-0.02420867
-0.022258408
0.023322878
0.009048124
-0.005998547
0.016353449
-0.042227533
-0.040238798
0.030620629
-0.008286507
-0.017464481
0.026495406
0.009398731
-0.023612598
-0.010081078
0.002600653
0.025347132
0.015731875
0.0291256
-0.010238132
0.03148624
-0.004113639
0.018734261
0.0013265408
-0.0049201315
0.024783323
0.010728393
-0.008162689
-0.032165058
0.037170034
-0.00044179684
0.0072121825
0.004315482
0.02031676
0.026149025
-0.029904138
-0.0018563132
0.044488084
-0.04077656
0.021613041
0.020544931
0.035772994
-0.0059977127
-0.012504537
-0.034228493
0.02820239
0.04272222
-0.022459723
0.011368933
0.047332358
0.017812189
-0.009295926
0.017566638
0.027409673
-5.8614045e-05
-0.014648967
-0.028901733
-0.024330435
0.013544011
-0.029775102
-0.0073677446
-0.02269299
0.020267533
0.0026818502
-0.014763133
-0.03346201
0.020715984
0.005018608
0.01690514
0.008183402
0.00961107
-0.012829887
0.026415354
-0.0077696047
-0.030482769
-0.009676444
-0.014559387
-0.0052211755
-0.010626516
0.027265977
-0.0144476555
-0.0418607
0.006178011
0.012929757
0.0025698459
-0.019194074
-0.014472471
-0.0066298796
0.0108795995
0.023511993
-0.015546952
0.032079753
0.035861235
0.026859365
-0.03231382
0.019220296
-0.010976241
0.0015753785
-0.0032464578
0.0027420917
-0.042720523
0.028871937
-0.04326789
0.009066379
-0.03644154
-0.027298896
0.022015713
0.030455496
0.017503295
-0.023380596
-0.029348318
-0.04234453
0.031359646
0.01847483
-0.04257248
0.032067824
0.03364157
0.022918457
0.03922149
-0.0103766555
-0.021133007
5.0629118e-05
0.0022194104
-0.036389224
-0.02330139
0.03405275
-0.017596364
0.0077201477
0.022681892
-0.045920193
0.021711748
-0.007290278
0.025421122
0.008076262
0.00020718265
0.027258445
-0.034600448
0.0011324967
0.001609015
0.024364438
0.031590212
0.021596197
0.026755637
0.017392926
0.015525446
0.024870398
-0.029825825
0.034281146
-0.040573735
-0.00033835918
0.012530281
-0.03997231
-0.034679424
-0.033770524
-0.033493374
0.026983486
0.035435066
-0.022661561
-0.038208485
0.004894969
-0.044866852
0.017936943
0.014203429
0.009378973
0.030900137
-0.031133613
-0.037965804
-0.031178629
0.020315537
-0.003519569
0.0052978355
0.03734421
0.016402407
-0.029794907
0.0016455787
-0.030781584
-0.039494563
0.031531077
-0.007714872
-0.022543335
0.021006752
-0.043975823
0.003767537
0.03499787
-0.036031693
-0.011981166
0.03767675
0.03051574
-0.006142286
-0.03712555
0.031367958
0.023410844
-0.010966827
0.009420813
-0.027004337
-0.03923223
-0.027715834
-0.017361324
0.03178411
-0.03361442
-0.04141306
0.03142603
-0.017323613
0.017643457
0.020415924
-0.033105448
-0.011304079
-0.033210795
-0.035890937
0.034564577
-0.012078919
-0.025632912
-0.017176649
-0.01603521
0.0328208
-0.030518014
0.022028988
-0.0062149004
0.01534847
-0.004366887
0.025994627
-0.039581336
0.00402037
0.013062974
-0.01612075
0.022056548
-0.010314304
-0.011199198
-0.0014316749
0.020956615
0.0051588947
-0.0057725776
0.027545229
-0.03288525
0.032614145
-0.012165009
0.0147548
-0.019937675
0.005269689
0.0005835288
0.0058483416
-0.009032163
0.008440997
-0.014370719
-0.010116875
-0.017403372
-0.014342624
-0.03769937
0.026760291
0.02949677
0.0113908155
-0.0008645094
-0.039173365
-0.03206703
0.027512146
-0.006680418
-0.0053341966
0.026497487
0.028779723
-0.03603082
-0.004020615
0.0026856787
-0.013495236
-0.021225488
0.043950852
0.01950419
-0.0056424323
0.046274588
-0.026250811
0.026456647
-0.03417099
-0.030093193
-0.006380218
0.011244182
-0.0016926009
0.013823158
0.026240963
0.03885755
-0.014970985
0.025562206
-0.022427537
-0.023336902
0.011762061
-0.020344678
0.026719572
0.010610465
-0.008303606
-0.027129788
0.026948126
0.034085408
0.02590221
-0.01883542
0.02723261
-0.014233027
-0.0101032965
-0.007849078
0.033659514
-0.0063279066
-0.0489671
0.01303963
-0.03611368
-0.008194914
0.014537556
0.025057469
-0.0037779398
-0.030259434
-0.013385551
-0.014795592
0.02578643
0.033421367
0.02781615
-0.019429684
-0.0049047577
0.0077560702
0.008199784
-0.016412554
-0.02524748
-0.043404788
-0.009653547
0.004251988
-0.031565137
0.017102256
-0.017301345
-0.0044064275
-0.04131863
-0.030986456
0.015651837
-0.00814168
0.021984335
0.027313137
-0.027714968
-0.0021157337
-0.0004163167
-0.023531675
0.017587656
0.003543771
0.016785828
0.0138202645
-0.0153328115
-0.0028060721
0.009463619
-0.008724698
0.029654637
0.047207903
-0.011870816
0.027972994
-0.01164812
0.020526476
0.004936456
0.020382527
0.0056719645
-0.01676313
0.011266836
0.0038867171
0.007649046
-0.004130407
0.023280857
0.01953233
-0.015489213
0.01379568
0.022770949
-0.033045802
-0.035765007
0.01997526
0.0042260354
0.00022996031
0.032974575
-0.026751412
-0.0039788377
-0.03758294
0.012837932
-0.04577976
-0.008215935
0.013175293
-0.05321976
0.02390695
0.02447035
0.018553492
0.014336484
0.03148192
0.019629091
0.027032014
-0.022511093
0.015396679
0.02557768
0.02745159
0.0033064664
-0.028549481
0.010816614
-0.004367048
-0.019591194
0.026164277
0.00058110704
0.017232515
-0.006779547
-0.044425227
-0.0041756304
-0.020077419
0.033621717
-0.025400119
0.03419134
-0.020839069
0.022889797
-0.03578052
0.013174477
-0.030526575
-0.039165325
0.022171441
0.0025762971
-0.039510023
-0.024101913
-0.0025390512
-0.03294874
0.028396385
0.021714745
0.011106738
-0.0113251405
0.03964645
0.027212415
0.007642867
0.020297017
0.011796468
-0.012264531
0.020633964
-0.0021761972
-0.02327521
0.023741663
0.020278888
0.035459064
0.022388197
-0.011057981
-0.00094811973
0.017840357
0.030721266
-0.0123492405
0.023841167
0.013306473
0.026683375
-0.02776095
0.020966778
-0.028619746
0.021473465
0.0012088458
0.034716118
0.0037124874
-0.023303641
0.024624895
-0.002915884
-0.018040735
0.023153273
0.043529406
0.03579835
0.039206583
-0.036410276
-0.017415356
-0.034051757
0.0340283
0.0252731
-0.036410272
0.00757663
-0.043053098
0.018505594
0.038121294
-0.011104206
-0.008149071
-0.0076263566
-0.0103673
0.039142713
-0.00236477
-0.023243055
-0.016588697
0.02862588
0.0031425413
-0.004858021
0.03822592
-0.02709143
0.014252213
-0.03611599
0.026385179
-0.012272053
-0.0079691475
-0.017845215
-0.0025309557
-0.0023949095
-0.00029471028
0.037879724
-0.040682502
0.014480464
0.02923688
-0.026642555
0.031895455
-0.023376286
-0.0065815076
0.027259862
0.0049243607
-0.042917743
0.016039232
-0.0103157
-0.0071993205
0.037704494
0.030863743
-0.028147409
-0.021665527
-0.026991434
0.022005506
-0.030114267
0.019195601
-0.03113617
0.018453294
-0.038846128
-0.0025862926
0.019726379
-0.028074717
-0.0027386092
0.028297065
-0.034672655
-0.026486667
-0.03240776
0.007704779
-0.03686025
0.007225479
-0.023658555
-0.039234377
0.02754308
-0.013749693
0.0016840863
0.018998379
0.038311783
0.04242685
0.023900189
0.0013206076
-0.009267172
0.012218707
0.009783477
-0.028564736
0.013417419
0.005674095
0.037561107
0.022265075
0.028391412
0.03587194
-0.004398604
0.012448213
0.016409647
-0.03001735
0.03911848
-0.034164134
-0.031973638
0.03443196
0.020252757
0.017570404
0.019905256
0.025266914
-0.008008538
0.032758992
0.022471225
-0.0108358115
0.0020071536
-0.007362411
0.014187859
0.013676608
-0.020831723
-0.017193006
0.02964001
-0.042545438
-0.03505103
-0.0032946165
0.010063484
-0.008290138
0.019023618
0.021959886
0.019464742
0.0298909
0.026610103
0.0034963496
-0.0012823982
-0.03232713
0.012564554
-0.043388505
-0.03271052
0.017331686
0.030733837
0.008169762
-0.037157353
-0.022668555
0.012861514
-0.0035351792
-0.018237883
-0.019761419
-0.012286154
0.0103145875
-0.010828414
-0.005431693
0.019572603
-0.04493365
-0.043403365
-0.0069103083
-0.041598286
-0.039103918
0.0042984574
-0.027600117
-0.036170777
0.01813043
0.016333124
0.021057224
-0.021938128
0.028165556
-0.03364168
0.025561726
0.010423966
-0.02377833
0.013324298
-0.036875386
0.02596246
-0.03422626
0.020400984
-0.011726104
0.019818267
-0.021029942
-0.012818899
-0.030536296
9.516003e-05
0.0053380937
-0.025269462
-0.0026530614
-0.024464175
-0.02360004
0.005545008
-0.042852964
0.014192057
0.037625622
-0.020782977
0.010940931
0.043580025
-0.04391973
0.030492239
0.03767628
-0.0003937778
0.013255097
-0.029306836
-0.014111926
-0.03639165
0.012056984
-0.023497766
-0.016296934
0.0037703703
0.021017822
-0.022656672
0.029039465
0.013736983
-0.013462798
-0.025798064
-0.029664624
-0.021534767
-0.036825977
0.014878388
0.019519722
-0.018964142
0.033238173
-0.010486402
-0.017104432
0.032576002
0.013406892
0.018549958
0.02283388
-0.04180573
0.020897375
0.013339399
-0.042625096
0.010429296
-0.027003484
0.02307188
-0.03118693
-4.347021e-05
-0.026779432
-0.035856206
-0.021225523
-0.037899006
0.020026406
0.031074235
-0.0465621
-0.038339194
0.0131890625
-0.026561698
0.0042754207
0.009885275
0.036111075
-0.01624429
-0.02416175
0.008018892
0.0027532417
0.027276713
0.027033525
-0.00536774
-0.040212683
-0.007277579
-0.0030268375
-0.020500131
0.018998675
0.005432193
0.018625377
-0.040051207
0.005470543
-0.032333016
0.0060755904
0.0038517916
-0.0131789055
0.011033188
0.014880903
-0.04642621
0.017663954
-0.014406625
-0.022176232
-0.04343972
0.034648933
-0.007892448
-0.030505694
0.021518454
0.010203204
0.037092704
0.044650618
0.0015429438
-0.02175805
0.016829997
-0.003897341
0.033841196
0.03612045
-0.011722129
0.02330906
0.010653579
-0.028615948
-0.032107353
0.025469108
-0.02026286
0.012816773
0.040954173
0.0069253636
0.022172276
0.012652092
0.030143451
-0.030778663
-0.0012965876
-0.038248062
0.038759477
-0.022849571
0.028707916
-0.026107924
0.0015985986
-0.00562156
-0.010786319
0.046502933
-0.027645722
0.013435585
-0.02681814
-0.0060374406
-0.026827913
0.025539301
-0.008068326
0.008658511
0.0003740065
-0.020012872
-0.0093215965
-0.036236364
0.01529301
0.021906964
0.011434504
-0.0038085228
-0.022123303
0.01343197
-0.016772455
-0.016559962
-0.03640752
0.0067851404
-0.008877274
0.014858595
0.035903428
-0.011010447
-0.0017714204
-0.012831444
-0.005384243
-0.04652179
0.007560283
0.028222978
0.013093437
-0.0002397573
0.0120955
-0.016161712
-0.006359069
-0.049277734
-0.036686275
0.025735691
0.016272236
0.035334043
0.0012000719
-0.009182537
-0.015034193
-0.019433437
-0.02142302
-0.03938043
0.039671496
0.003009022
0.027959343
-0.029896988
-0.02988106
-0.04036601
-0.005083143
0.00082492415
-0.034787487
-0.020054465
-0.0339722
0.03536347
-0.017707527
0.005096879
-0.0187132
-0.008724364
-0.0045182155
-0.028979156
-0.034326274
-0.024140488
-0.019391863
0.013258528
0.011224281
0.039230604
0.026245967
0.0077207014
0.00076948525
0.004521786
-0.003776552
-0.030735495
-0.037438463
0.013618814
0.015563563
0.011666127
0.011997378
0.016723108
0.0109631205
0.010019043
-0.027108017
0.0014389055
0.020272836
0.027985578
-0.043028794
-0.0037462027
-0.018411523
0.036648527
-0.024683066
0.011411577
0.026002653
-0.029559592
0.034673173
0.03312672
0.047608808
0.027146146
-0.01525312
0.03516597
0.012360616
0.014528573
-0.0351621
0.023348125
-0.012929385
-0.027020693
0.015884819
-0.03963423
0.025255375
0.03227345
-0.0047107837
0.015570855
-0.0220767
-0.02939782
0.0062003355
0.0013569717
-0.0041580806
0.026558861
0.006922375
0.015127957
-0.027077481
0.031811018
0.0073009916
0.006548146
0.03424777
0.02115254
-0.005866795
0.024710976
-0.016413366
-0.0052632266
0.021750923
-0.034469653
0.008563886
0.008778176
0.03598893
-0.040969737
-0.0028449388
-0.016684094
0.00924303
0.014139135
-0.012562825
-0.027088035
0.035594918
-0.01962326
0.022249972
-0.0031414523
0.003693325
-0.04240689
-0.017021164
-0.033704463
-0.033733178
0.012464404
0.010232491
-0.019733796
-0.0028475344
0.027301252
0.016735028
0.000986623
0.017612498
-0.013676453
0.037213042
0.023563419
0.011116462
-0.04083509
0.03483068
-0.011328933
0.024005879
0.029880239
-0.009558233
-0.02863667
-0.02398131
-0.03408335
-0.041629225
0.020723082
-0.012357038
0.028507834
0.012139098
-0.030589972
-0.020547742
0.037469164
-0.029704902
-0.014913193
-0.029389024
-0.006756291
-0.027877813
-0.041016027
-0.0043527405
-0.01052408
0.014990397
0.015354146
-0.0029863177
-0.008294401
0.0037864633
-0.0021347124
0.0076359753
0.015206348
0.023720648
-0.017251013
-0.047683347
0.0010488306
0.036234263
-0.0130839795
-0.027228575
0.024881728
-0.020197423
-0.030753376
0.037899427
0.0036630186
0.029073747
-0.006329575
-0.0028655017
-0.026486576
-0.0035171094
-0.042743154
-0.038823936
0.00081428466
-0.017490996
0.02012555
-0.02736381
0.009752026
0.019265877
0.032080803
-0.031861633
0.039453454
-0.017300291
0.01589315
0.036122408
-0.00865373
0.022492008
-0.033142146
-0.011543936
0.0065788925
0.030664599
-0.00338515
0.026324509
0.020176876
-0.011490233
-0.004042278
0.0103604635
-0.04131906
0.043483976
-0.014058252
0.010402932
0.003877617
0.03376424
-0.0012109806
-0.010323839
0.0073554246
0.011204763
0.02906026
-0.02786949
-0.009978492
-0.01972608
0.031550206
-0.03295695
-0.0017373767
0.0064972877
-0.027198026
-0.009740218
-0.028850142
-0.033072647
-0.01808913
0.032103617
-0.009681769
0.02129157
0.03797712
-0.034210436
-0.011509458
-0.02429377
-0.00094248273
-0.034234673
0.029520152
-0.015315657
-0.045132812
0.03235895
-0.021551298
-0.007061486
0.019243618
-0.017892767
-0.017062305
-0.034090124
0.028505608
-0.036093872
0.032842573
-0.03888715
0.01462557
0.0030327872
0.027702156
0.016150977
-0.04584232
0.011253129
0.0045038243
-0.012347034
0.0223691
-0.028172363
0.009729174
-0.008164391
-0.0050785057
-0.0118600065
0.0034474384
-0.042267308
-0.0012525201
0.0036100606
-0.02966357
-0.031262793
-0.03204477
-0.0036776867
-0.030841243
0.019521862
-0.0009879931
-0.028862309
0.009210361
-0.0021730105
-0.0015935214
-0.020040495
0.008496678
0.030535717
-0.038498737
0.023755422
-0.02952561
-0.012545464
0.008250036
-0.02043552
-0.030362494
0.009779901
0.025710905
0.014434582
-0.021200158
-0.032515
0.013527712
0.015250541
-0.031016558
0.03229232
-0.03524182
0.009277619
-0.015988791
-0.003284381
0.02931439
-0.0075512202
0.024240572
0.05344281
0.023191392
-0.021790618
0.034067966
-0.028272245
-0.02676323
0.004963317
-0.0006577639
-0.007677245
-0.002343983
0.014522392
0.0012956084
0.0029484804
0.037488904
-0.010239309
0.003603401
-0.015530284
0.004830754
0.02024352
0.009851376
-0.002968427
0.005866719
0.0017558711
-0.016933631
-0.026546761
0.0045998967
-0.01444332
-0.010691001
0.0042140866
-0.019153351
0.025517242
0.018994402
0.02829469
-0.004313796
0.027250005
-0.0010517057
-0.032569002
-0.035729863
-0.03031441
0.02658665
0.04588584
-0.0025872455
-0.036768705
0.017101923
-0.030383367
0.039685555
0.025751168
-0.035658766
-0.021285614
-0.008609767
-0.01735462
0.021881651
-0.02388122
0.012861507
-0.030904377
-0.0124207055
-0.045334093
0.03413106
-0.029844038
0.017278383
0.0065071015
-0.028860422
0.025114112
0.044869218
0.006442224
0.022185555
-0.026805134
0.021146
0.0019266285
0.00045490032
0.0025711332
-0.006012409
-0.002828095
-0.023789052
-0.018214593
-0.0078109694
-0.0011777442
-0.008220618
-0.00222061
0.025657663
-0.026897915
-0.04020161
0.012046655
-0.024564084
0.01580141
0.003072988
0.005724306
-0.036222395
-0.018072678
0.033464774
0.004130501
-0.03957917
-0.00040272635
0.008897092
0.03830571
0.020414412
-0.039786126
0.028388906
0.03608993
0.018431254
0.007052048
0.031736054
0.008694871
0.0146832
-0.017959924
-0.011691804
0.0028652016
0.01762306
0.01708978
0.023085209
0.03636503
0.021831488
-0.03571742
-0.02996538
-0.016799632
-0.0188314
-0.035862427
-0.0022161226
0.037118144
-0.011739189
0.026389418
0.0075198617
0.0032544504
-0.026105208
0.0007480755
-0.020347811
-0.010745273
-0.033994813
0.045922797
0.013064002
0.037547104
-0.0164296
-0.006242217
-0.00011272396
-6.636883e-05
-0.023176223
0.023578629
-0.023075076
0.00026922702
-0.003069867
-0.02174708
0.029861715
-0.018594828
0.010547617
-0.017431458
0.022194453
-0.038137313
0.010375456
-0.024357684
0.021972572
-0.038623728
-0.005634896
0.03298601
0.000685129
-0.044539064
0.0012034771
-0.023979666
0.02013804
-0.01127852
0.00066073425
-0.027960438
-0.016382826
-0.04671264
-0.018153453
0.032189697
-0.021545272
-0.019607542
-0.04549962
0.03242193
0.04468213
0.010672455
-0.03681402
0.04472256
-0.042109583
0.0014507074
0.0020961983
0.0014599295
0.004643125
-0.032805078
0.020225275
-0.0240128
0.03404405
-0.021629652
0.034692883
0.01532658
-0.033925973
0.03759166
0.019092701
0.009593071
0.018549405
-0.0063344687
-0.04220602
-0.04459831
-0.040398233
0.00910558
0.028425163
0.032814827
0.0055688447
-0.0066228006
0.029198384
0.02116197
-0.009092723
-0.024797125
0.0008259339
-0.032430705
0.019671349
0.013565587
0.009979194
0.03244696
0.003942959
0.038555767
0.018194137
-0.0040245876
0.028330429
0.014353757
-0.015580098
0.0023140495
0.011972735
-0.014680422
0.018541161
0.02695582
-0.033027053
0.010082844
0.021620113
0.010230064
0.0075188004
0.020376295
0.002814674
-0.011911013
-0.001757167
-0.03965945
0.018451016
0.0019365452
-0.019679068
-0.0411536
-0.023198202
-0.037512273
0.011773308
0.01630889
-0.00425927
0.019470403
-0.0011383367
-0.005062192
0.01940889
0.014422944
-0.023194212
-0.0024899067
0.04012691
-0.027100738
-0.02785816
-0.012535331
0.03712901
-0.004855273
0.002164511
0.03680224
0.018819718
-0.0018615024
-0.008051167
0.0050699976
-0.0076699196
0.013936475
0.020655468
0.025591977
0.008893862
0.026035808
0.0050226953
-0.030279731
-0.011839696
0.024761073
0.013484409
0.026965544
0.0059179426
0.023900116
-0.017441342
0.0017613347
0.026149886
0.033244517
0.003015016
-0.014955581
-0.02578828
0.036892105
0.023600899
0.010551007
0.015963823
-0.031949993
-0.0056725554
-0.00800773
-0.014564025
0.022880025
-0.003919771
0.0054898537
0.026263671
0.0056856675
-0.004655972
0.05253996
-0.031249756
-0.028821338
-0.02497635
-0.026561901
0.0271059
-0.011820913
0.020479584
-0.017740475
-0.022908365
0.0059615546
-0.012526457
-0.033131626
0.02930291
-0.0025229799
-0.019139847
-0.03728251
-0.052292235
-0.025407482
0.022546
-0.051874194
-0.034941744
0.027616572
0.017832015
0.026672425
0.013051916
0.014857522
-0.03773254
0.016092515
0.025004458
0.02227332
0.013663643
-0.030121636
0.005394394
-0.001179784
0.025840558
0.028067019
-0.0011601973
0.03218969
-0.039647233
-0.006285565
-0.027663281
0.020198414
0.01415817
-0.017146757
0.0012088307
-0.0010702771
0.020257268
-0.015816415
-0.0028561745
-0.024048876
0.032225795
0.03854253
0.003427024
-0.017396532
-0.016027112
0.023715384
0.032054465
0.006798662
-0.021995014
-0.010088898
0.016221158
-0.036925577
0.025666753
0.040076416
-0.01781549
0.025462706
0.0040072277
-0.017141035
0.026234496
-0.009018205
0.017709443
-0.025091333
0.025520556
0.028530523
-0.0067235865
0.029539125
-0.027087605
-0.007770444
0.0051459097
0.03584183
-0.035950445
-0.007587088
0.02535637
0.017124325
0.020481622
0.040749513
-0.040851142
-0.011471589
0.010418169
-0.032470018
-0.019549198
0.023429474
0.02660217
0.036708184
-0.0006637354
-0.009218053
-0.03139605
0.010258233
0.0027485066
0.01832601
-0.01822757
0.020768201
-0.018126175
0.021813987
0.0173142
-0.043579396
-0.03229144
0.022755718
-0.043628577
-0.0056035044
0.020314248
-0.009956129
-0.02294215
0.028654154
-0.0166956
0.023669519
-0.01421056
-0.040901028
0.030404888
0.028052902
-0.028622271
-0.03261428
-0.04652776
-0.038922284
-0.0035220094
-0.029027423
-0.00601729
0.021316977
-0.019243667
-0.0045549353
0.021658551
0.014988459
0.025431667
0.033845447
0.0018833772
-0.028762465
-0.0049391887
-0.001408059
0.016700631
0.039280735
0.013515305
-0.028349934
0.019002946
0.033782855
-0.03708299
-0.028908754
0.015641658
0.031821694
-0.036070745
-0.021740157
-0.0012226336
0.01015666
0.017895708
0.022725802
0.026345083
-0.0024307147
0.037329018
0.025171153
-0.0072608646
0.005288737
0.014409191
-0.022385646
-0.019257212
-0.013694064
-0.0064473753
0.0122868465
0.003789686
-0.032205205
0.036204096
-0.011869536
-0.014235159
-0.037756376
-0.020770099
0.009583204
0.02341942
-0.016790394
0.004058755
-0.025926791
0.01103096
-0.024234705
0.011998816
-0.0022623837
-0.015778517
-0.019791432
0.028408116
0.034695882
0.01805095
0.010606961
-0.01587644
-0.028479135
0.026432728
0.016493395
0.046433162
-0.017649073
0.026171405
-0.0076948246
-0.009889489
0.021123508
0.0012292827
0.03662611
0.024249803
0.008671944
0.010122858
0.037917405
0.016313283
0.01793249
0.030790282
0.03954266
0.024097223
0.03467517
0.0025115714
-0.0039148694
-0.022841379
-0.037740536
0.0034829355
0.01427635
0.013439527
0.020504385
-0.04369944
0.020621192
0.046082247
-0.017642854
0.03216388
-0.008222192
-0.009240072
0.00515006
0.034790985
-0.01769603
0.007823266
0.022898277
0.02929058
0.0019029039
-0.036116656
-0.040079545
0.035107154
0.026243208
-0.03446579
-0.039099116
-0.04128397
-0.034110866
0.01115006
0.017678581
0.0034691421
0.01930334
0.005673479
0.002624568
-0.017361134
0.00775734
-0.009280773
-0.010071698
0.01295917
0.016250512
0.0025896295
0.03882048
-0.028295515
-0.022553643
-0.033581592
-0.026412359
-0.011459998
0.039558765
-0.024509821
0.020546472
-0.0054531023
0.016360104
-0.021975793
0.038083646
0.030505408
0.017829228
0.010737434
0.02792624
0.0074217557
0.021893278
0.012835852
-0.02156728
0.039630707
-0.013614403
-0.0033824015
0.0082306545
0.005130421
0.0069705304
-0.02882983
-0.029706994
-0.028501768
-0.010951027
-0.030121889
-0.0153624555
-0.0069169593
-0.040660735
-0.040277246
-0.029368583
-0.0059076627
-0.010364549
-0.025315408
-0.03304896
0.031241661
0.0077917655
-0.01507452
0.022454256
-0.01907321
-0.0020734149
0.01501123
0.012196408
-0.02722984
-0.0119004715
0.016853828
0.009631383
-0.019488815
0.03939808
-0.029976597
-0.0059001846
0.02618951
0.0126238335
0.024883807
0.023427796
-0.026575442
0.0043260283
0.028192034
0.01147946
-0.008837117
-0.005949188
0.013623804
0.017145868
0.014007658
0.01964761
0.031213224
0.04211079
0.029763367
-0.00782373
0.008890386
0.024403127
-0.036628358
-0.028292935
-0.013802323
0.01824367
0.010209723
-0.026333587
-0.024760684
-0.0017163925
-0.0117343115
0.020880975
-0.03393269
0.03196632
0.038121793
0.01719917
0.0012756649
0.0051046093
-0.02085694
-0.03550606
0.0355096
-0.038474783
0.0135857
0.016502006
0.012782336
0.016264038
-0.0026076636
0.009023094
-0.039312743
0.019222923
0.028119965
-0.01505356
0.012166971
0.014497161
-0.007555889
-0.029780844
-0.013383141
-0.025080696
0.0029461668
0.00096916396
-0.030561863
-0.030036991
0.027806832
0.0011116421
-0.034239713
0.027394865
0.02643231
0.014823441
0.0075595872
-0.028168084
0.030258691
0.03966412
0.0037102445
-0.01205946
-0.030475399
-0.016592696
-0.021489356
0.044426557
0.020889416
-0.031220235
0.040817454
-0.023633305
-0.02502282
-0.019702371
0.004767453
0.027313722
-0.03782801
0.023541663
-0.015211078
-0.033586208
-0.03496898
-0.032680195
-0.013707595
0.036954712
-0.041358538
0.038206708
-0.032190647
-0.036588788
-0.0025564309
-0.039944194
-0.024918579
-0.003625973
-0.019639114
-0.026045285
0.03227236
-0.040207196
-0.01798534
-0.033885404
0.03795612
-0.008748577
-0.031500693
-0.010385778
-0.03295097
0.031396367
0.02561387
-0.017906608
0.02365629
-0.0051399074
0.029829279
0.029974429
0.028735794
0.018404104
-0.005670581
0.002397449
0.026477972
-0.018514339
-0.015862582
0.0041927723
0.04021193
0.019444779
0.00295695
0.013853228
-0.015742477
0.013633665
-0.011950063
0.00042952228
-0.009302748
0.011166953
0.015693555
0.024032187
-0.036966156
-0.012548596
0.03451421
0.024521561
0.004022096
0.043623794
0.011748313
0.019720338
-0.00053914037
0.03263479
-0.00951039
-0.024539256
-0.0033054126
0.012374741
0.038935095
0.041217636
-0.04088671
-0.027059939
0.0030232505
0.02170598
-0.02220723
0.006479855
0.016369587
0.034280166
-0.01846277
-0.0008025845
0.018031003
0.0046275333
-0.013116661
0.0011309417
-0.04294538
-0.003922546
-0.010971753
0.0228451
0.03508656
-0.021673772
-0.0061786044
-0.018536666
0.040790528
0.020308828
-0.007998289
-0.033022482
0.005393941
-0.03626712
-0.036473393
-0.0065927855
-0.008137678
-0.040916782
0.035677683
-0.009361265
-0.017419457
0.041529328
0.022654202
-0.017628731
-0.022470217
0.019725233
0.022446288
0.025372598
-0.015230571
0.017223047
0.023883943
-0.04006636
-0.03319663
-0.024303785
-0.031707004
0.0030314082
0.018002992
0.014273365
0.00607565
0.019261925
0.007884205
0.013127566
-0.019504411
0.012517659
0.019126885
-0.04161663
0.006477648
0.016095333
0.018570544
-0.03216259
0.044352796
0.022940984
0.031408545
0.04197899
-0.014059386
-0.01395086
0.04330829
-0.024552014
0.016284615
0.033934526
0.013743712
-0.007786078
-0.0035619305
0.039865326
0.033685733
0.04007363
-0.02035393
-0.019414607
-0.0007448098
0.017400414
0.011244478
-0.020947754
0.024542479
-0.010688186
-0.029540112
0.031306468
0.013120631
0.033107772
0.00052607077
0.027417758
0.02456515
0.024904866
-0.032400366
-0.023367189
-0.037294496
-0.009205323
0.0278967
0.022847775
0.0414291
-0.028098375
0.007694912
-0.038994685
-0.023909396
0.021174895
0.0009987936
-0.02845042
-0.009074432
-0.016836764
0.00014346943
0.030844929
0.035015017
-0.032221947
0.007993993
0.019892262
-0.010867582
-0.026464837
0.0173948
0.019570606
0.010054754
-0.039122377
-0.02433223
-0.012712451
0.010161521
-0.030134108
0.020426592
0.017770676
0.0067267106
0.007359657
-0.0063796747
0.010016099
-0.010808394
-0.031469353
0.03889427
-0.026668768
-0.012402862
-0.013589158
-0.017125484
0.031138502
0.029208515
-0.014861123
-0.009648581
0.026586533
-0.0046745623
-0.03167799
-0.021783605
0.008588697
0.03654798
0.03718313
0.039461344
0.029800637
-0.03218177
0.015424272
-0.018984085
0.0119806435
-0.003819191
0.013747101
0.04071761
0.019656561
0.033672474
0.01037946
-0.031813364
0.0064977077
-0.03127475
0.022419322
0.022454299
-0.03683885
0.030398283
0.004554981
-0.0013778033
0.03958604
0.03490546
-0.02901927
-0.0192171
-0.015363179
-0.028169343
-0.03163992
-0.035288855
0.010238072
-0.0018735714
0.03548935
0.0014885906
-0.022778172
-0.0076546217
0.028186204
0.011582802
-0.003456433
0.02629232
0.022384806
0.029879944
-0.039508913
0.013791011
0.019275308
-0.022058122
0.012702371
0.0297188
-0.015900811
-0.0349798
0.011065648
0.017095001
-0.026640564
-0.013993879
0.024705023
0.01050781
-0.029697003
0.033339817
0.016891642
0.007855394
-0.020242196
0.03710278
0.022527147
0.03699174
-0.020139942
-0.022419987
0.022830429
0.010581442
-0.04205441
0.0057924315
-0.03728266
-0.046897333
-0.0074957744
-0.009466276
-0.039087024
0.0023347742
0.031398103
-0.03450665
-0.026492594
-0.0262661
-0.017748704
-0.034155164
0.03546085
-0.021998286
0.021539515
0.009952617
0.008019523
0.020318363
0.032246206
0.018965455
0.010124033
0.030065086
-0.021818431
-0.0415104
0.03547452
0.008101383
0.022192623
0.033918668
0.022574743
0.02804203
-0.028554853
-0.01239414
-0.0447985
0.0020667193
-0.036529735
0.026051132
0.027263386
0.027431505
0.013694088
0.037952404
-0.026169
0.023230981
0.024252571
-0.019081466
0.010710609
-0.02200849
-0.0012471712
-0.035921596
0.016011572
0.02986875
0.001036465
-0.025220795
-0.041252855
-0.012585785
-0.03271479
-0.006791767
0.009743832
-0.02570254
-0.019487157
-0.008859681
0.021455605
-0.03718629
-0.03813935
0.03474699
-0.013220567
0.00024189198
-0.012045619
0.0060299058
-0.027138997
-0.0145296855
0.028352195
0.021939464
0.0039043003
-0.022934077
-0.01684344
-0.0024649699
0.00592809
-0.012757187
-0.025677653
0.0028995264
-0.0214129
-0.01626187
0.0021944325
-0.0027584361
-0.045573194
0.008809596
0.01687387
-0.03157606
-0.028805995
-0.004471936
-0.03244293
0.029754324
0.030014744
-0.020707285
0.028643038
0.020907229
-0.008424792
0.0025941494
-0.0002763543
0.026082883
-0.028528776
0.015735097
-0.006452082
-0.0021374612
0.008253803
0.011340578
0.024658952
-0.038753953
0.036674287
-0.009901471
-0.026420476
0.022845171
-0.037894975
0.0032185544
-0.023985753
-0.015099051
0.014984625
-0.028293334
-0.017636497
0.0026509336
0.018078692
-0.0059267883
0.014730935
-0.0016288122
0.01544146
0.031046415
0.035909243
-0.019653808
0.020637076
-0.010877944
0.035600007
0.0117464345
0.025649803
0.024195705
0.025342964
0.029865269
-0.038950134
-0.007236457
0.02410818
0.0067455745
0.006848954
0.009784229
0.004586006
-0.0044909352
0.008950836
0.02231833
0.011701898
-0.03508149
0.03379315
0.0268461
-0.020180987
-0.00039337526
0.0069990135
0.030230168
-0.010273501
0.013133325
-0.036832474
0.030058507
0.0016537989
0.005859205
0.015183495
-0.0028979706
0.017221125
-0.0017753165
0.039799515
0.037152488
0.034278404
-0.02513366
0.0035793725
0.010316176
-0.013893715
0.0037800972
-0.01930753
-0.039128084
-0.026346676
-0.0011980454
0.020216357
-0.021364134
-0.033404723
0.035635654
-0.014217879
-0.0037244335
0.03609554
0.01623966
0.03520638
-0.01663327
0.040926855
-0.040491614
-0.030875307
0.0196407
0.016418984
0.03935952
0.050584555
-0.039976396
0.022142792
-0.04351499
0.03315017
-0.033955645
0.040556148
0.011949121
-0.020212818
-0.018439958
-0.026329698
-0.0026779214
-0.006497796
-0.0155258635
-0.015523659
-0.028723557
-0.0015523419
0.02011422
-0.017845765
0.023267271
0.03502526
-0.021009568
-0.010085593
0.032249104
0.0022248188
-0.020613702
-0.037326425
-0.04737371
-0.016725222
0.0014406205
0.021225706
-0.012726066
0.0070703947
0.030364657
-0.03461724
-0.021253768
0.014224254
0.026449036
0.018053051
0.005864303
0.022681871
-0.013992293
-0.0063130343
-0.025359584
-0.010799202
0.0231205
-0.0053337603
-0.033373576
0.033254437
0.0013133532
0.004459085
-0.03427461
-0.01601188
-0.0061602416
0.023204101
0.011687541
-0.014843134
0.009559079
-0.0038507883
0.009523034
-0.001318032
-0.04398005
-0.0011438533
-0.01678337
-0.04394982
-0.026926259
0.051451474
-0.030409142
0.023995154
0.051337093
-0.028376445
0.025617432
0.03072239
-0.030618146
0.023580788
0.011087772
0.024112228
0.014533828
0.0054315794
-0.033560283
-0.03103514
0.0022250584
-0.010039869
-0.02445771
0.025501855
0.02302105
-0.03579528
-0.019286094
0.014535411
-0.007497785
-0.002360692
0.031719845
-0.029371468
-0.011891045
0.010235613
0.020353032
0.0064770007
-0.026532436
-0.028200453
-0.0374363
-0.014036546
-0.005686525
-0.0024479546
0.022327112
0.039057966
-0.023590235
-0.023580072
0.0042051296
0.022012051
-0.007021315
0.03669316
0.019406503
0.031580593
-0.025108127
-0.024441013
-0.03168436
0.019105587
0.04643713
0.020866152
0.004397117
0.0021468813
-0.044633728
-0.011009068
0.0037318112
-0.0070856223
-0.022634562
-0.03719109
0.035057288
-0.012114131
0.03245066
0.022761226
-0.0287961
-0.007877871
-0.033758555
0.034183368
0.017265748
-0.003887038
0.038413133
-0.015125208
-0.00076980225
-0.0007258498
0.042342853
0.03297914
0.02659554
0.013699912
0.011418149
-0.037026778
0.026475094
0.0070673856
-0.017927852
-0.016507369
0.02106785
-0.043203402
0.018641803
-0.037695672
0.035697076
-0.005118265
0.010837965
-0.014634679
-0.033811256
-0.042803586
-0.027446106
-0.018349743
-0.01752841
-0.02258174
0.031589877
0.031034924
-0.038310878
-0.004281399
0.006700269
0.024474459
0.014249812
-0.0035413092
0.04102941
0.005698354
-0.0058562816
0.018785994
0.028660063
-0.013337404
-0.0056893094
-0.01954116
-0.01588796
-0.0253232
-0.014559706
0.0078139845
0.04144397
0.0026191166
0.03707867
-0.03362587
-0.022290464
-0.014792648
-0.027166931
0.02842281
0.008608542
-0.022619724
0.03548695
0.010986873
-0.02846987
0.01394805
-0.0061849477
0.01579401
-0.034114756
-0.013035514
-0.040324703
0.035905212
0.031500038
-0.034199093
-0.019549666
0.014704636
0.0051382175
-0.01632645
0.013080148
-0.00658535
-0.014554792
-0.00592545
-0.016352883
-0.005536243
-0.04079633
-0.026123194
0.015900811
0.016569579
0.019663183
-0.02776564
-0.043774717
0.023958793
0.041748293
-0.016020207
-0.021330912
0.017838622
0.024395483
-0.0050098062
-0.030119283
-0.022047155
-0.004549576
0.042245016
-0.016361373
0.015510082
0.02975143
-0.023241064
-0.037219368
0.026491266
0.0073812557
-0.033263747
-0.027951837
0.0028870434
0.029385071
-0.013185212
-0.024927383
-0.027610982
-0.02246918
-0.026125105
-0.017175078
0.010060398
-0.04427938
0.020659573
-0.032047547
-0.029380396
0.0023287514
-0.018219862
-0.015577148
-0.0048908014
-0.019844688
0.032763913
0.0023087126
0.028378565
0.03234151
0.010250059
-0.017847462
-0.041093037
-0.016275011
-0.032182917
-0.02889492
0.018897235
-0.0037089789
0.04089119
-0.003382501
0.028591186
0.030525438
-0.020037536
0.0064951642
0.028311722
0.033538572
-0.044445798
-0.038578905
-0.019199338
0.015075821
0.038178705
0.00047221553
0.0081495335
-0.016748643
-0.034299444
0.0073848185
-0.03864385
0.03618616
-0.038590584
0.018741755
-0.042548798
0.034980092
-0.033055495
-0.036977094
0.0027808507
-0.034949407
-0.036801286
0.010031892
0.0118049625
0.011149781
-0.032691393
-0.028952027
-0.025347449
0.042434245
0.004344162
-0.044863053
0.017123247
0.019228922
