-0.031918645
-0.044726532
0.06154978
0.015872989
-0.103598416
0.00025931714
0.058549367
-0.037707426
0.10437883
-0.04271533
0.04055653
-0.097376436
0.031804163
0.04614347
-0.10818153
0.069968
0.0383209
-0.041419003
-0.015493345
0.05657046
-0.009937771
-0.017811783
0.008931179
0.0013294525
-0.043442022
-0.0034750393
0.01933787
0.08394087
-0.045559667
-0.011730841
-0.058038935
0.016447647
-0.08544445
-4.1658244e-05
0.004152543
-0.0691338
0.083667554
0.10168351
0.01961142
-0.0324424
0.051606715
0.016613018
0.007530437
0.05196364
0.020303305
-0.035317715
0.034242906
-0.025839956
0.04349989
-0.016557481
-0.05805736
-0.041569103
0.00078210945
0.034879856
-0.0824959
-0.09457096
0.0391649
-0.03232697
-0.0052107526
0.03633573
0.04029963
-0.064899266
0.042097457
0.017571714
-0.046325076
0.06746761
-0.06822337
0.10545328
0.05996126
0.017473293
0.032763515
0.05849106
-0.015248627
-0.022676334
-0.015886169
0.013970991
-0.036155395
0.0063471394
-0.002107411
0.051944457
-0.034427017
-0.042568408
-0.07513929
0.050252154
0.05362221
-0.12084308
-0.0545335
-0.02395512
-0.05521893
0.06310581
-0.06995376
0.00030541923
0.0053815553
-0.025700195
-0.040539965
-0.033398774
-0.031047367
0.04128939
0.005226154
-0.008573004
-0.039672825
-0.0034827653
-0.059573226
-0.01607104
-0.010079523
0.028722096
-0.026326995
-0.0124029135
0.100100294
0.050319955
-0.027654203
-0.1622
0.0260276
0.0042353543
0.07657739
-0.07737694
0.032970555
-0.012746054
0.011592931
-0.047442093
-0.14648078
-0.054365292
0.0074724876
0.14448798
0.029704854
0.018609723
0.06672449
-0.049520794
0.029221758
-0.056807242
-0.04152365
-0.00032957655
-0.032503903
-0.05899558
0.053926438
0.04455582
-0.054755908
-0.09785678
0.023675375
-0.06761102
0.0022607283
0.08554015
-0.004584333
0.07111045
-0.057722513
0.030384623
-0.052916206
0.04679537
-0.030418864
-0.024208913
0.071452565
-0.040757515
0.04080773
0.06893839
-0.01356918
-0.0051781614
-0.02920267
0.05173048
-0.024604749
0.031622097
0.027842347
0.01357221
0.06837148
-0.08023949
-0.12732227
-0.0302109
0.031410474
-0.052699387
-0.072425105
0.032517925
0.03750224
0.023384003
0.050824627
-0.0599303
-0.0046505868
0.09259707
0.019575907
-0.088829
0.058982454
-0.029665902
-0.022960147
0.008366655
0.019932037
0.023364399
-0.0030365782
-0.023049131
-0.054067712
0.016469773
0.0405943
0.06804453
-0.09400112
-0.002250287
0.0692481
-0.09751842
0.051599365
0.07669228
-0.031144796
0.054213814
-0.028661728
0.107510954
0.016549923
-0.04072054
0.008002408
0.05983224
-0.045815818
-0.0058981576
-0.058385007
-0.005253226
-0.0125576975
-0.0070077064
0.04254645
-0.018495714
-0.03653002
0.034498572
-0.009155074
0.045935612
0.09930233
-0.009182684
-0.047421858
0.09670932
0.0016656896
-0.05094973
-0.018810108
0.019320257
-0.07046042
-0.037846602
-0.0041950676
0.042501025
-0.046587944
0.02556434
0.0684199
0.044063937
0.0017599742
0.08657096
-0.007676829
0.016309306
0.022568697
-0.055729028
-0.053331386
-0.0039394093
-0.011306504
0.052953474
-0.035315834
0.0005037315
-0.034214314
-0.022010786
-0.035377074
-0.08027892
-0.0071883895
0.024894523
0.009928522
0.02841931
0.09767277
0.06595977
0.08385494
0.08486559
0.03151486
0.052402344
0.038514253
0.038721427
-0.03862544
-0.0061894585
-0.04801572
0.06904618
-0.019526096
0.02461013
-0.01890178
-0.0190574
0.043695252
-0.035282668
0.009507681
0.09398335
-0.057285886
0.07964031
-0.003090943
-0.055325307
0.04984021
0.053777345
-0.08970609
0.054160863
0.055164643
0.000756609
0.02380664
0.021288553
-0.015565555
-0.06238982
-0.08477094
0.03416198
-0.027637117
0.06035727
0.06878432
0.021425968
-0.009637412
-0.061364852
-0.029843785
0.0068026995
-0.024105342
0.066226326
0.09371998
-0.040882267
0.03440543
0.053232953
-0.09223275
-0.05087569
-0.024504319
-0.07820049
-0.048994992
0.07632393
0.044852052
0.024547312
-0.048370734
-0.07940759
-0.016123906
0.07040542
0.037028305
-0.06813362
-0.044869382
-0.060128257
-0.018964024
-0.06899214
0.0016193843
0.028469834
0.0036035492
0.016456947
-0.04214943
-0.009150896
-0.022200692
-0.055873767
0.07845162
0.018347718
-0.05401719
0.020526955
0.06868935
-0.07393086
-0.037003353
-0.032323427
-0.07429663
0.04711468
-0.014272161
0.006690817
0.07767332
-0.006136828
0.0030464726
0.055928983
-0.017301003
-0.031722285
0.06362056
-0.024233958
0.057549745
0.029005243
0.008777154
0.07666204
-0.041989878
-0.054540034
-0.0615859
-0.08342441
0.09030145
0.020790491
0.0055981274
0.11557832
0.051111106
0.03691156
-0.10413665
-0.09760328
-0.065249525
0.03826397
0.061804727
0.080998115
0.00070303737
-0.036753546
-0.04339471
-0.04418403
-0.050952956
-0.0016204661
0.02115435
-0.06655736
-0.041835133
-0.013286888
-0.0623897
0.071388915
0.006663332
0.007064399
0.09481812
-0.047006253
-0.057031643
0.052692562
0.03328482
0.08301275
0.00920893
-0.09035811
0.09258178
-0.044680122
-0.04139636
0.08137524
-0.01580094
0.010199992
-0.05475649
-0.02132086
-0.014895818
0.025501393
0.0141987875
-0.060130898
-0.011756208
0.018170075
-0.01756919
0.044480626
-0.048715033
0.07010662
-0.042108703
-0.039311204
0.012798806
-0.053978987
0.039493337
0.015141704
0.10078764
-0.08302015
0.017645907
0.082782455
-0.036024727
-0.00033994805
0.08109437
-0.009119565
-0.039817933
0.020932673
0.06720145
-0.03696566
-0.0006535692
0.029817324
0.009250153
-0.006083412
0.051781353
-0.012526535
-0.0538721
0.0069367825
-0.04372394
-0.09588625
0.010845552
-0.03592188
0.024154058
0.09175302
0.030882776
-0.012116746
-0.08352846
0.067667976
-0.07192074
-0.016267398
-0.040565133
-0.07067882
-0.029981606
0.03370783
0.05885037
0.046089437
-0.03216934
0.04204638
0.035772692
0.007997996
-0.004293555
0.0074907583
0.055245567
0.03750613
0.022113867
-0.07775021
0.011682556
0.0543231
0.050074145
-0.03112751
0.11699065
-0.051376928
0.06401906
0.07350252
-0.06636073
-0.04941412
-0.064394034
0.034962695
0.024410762
0.09022398
-0.04032797
-0.032398753
0.031095525
-0.050636616
-0.005797895
-0.06702234
-0.016165111
-0.057729382
0.015257297
0.047328915
0.026457258
0.040008817
-0.14308609
-0.00024191085
-0.006612657
-0.021963578
-0.054927472
-0.048367664
0.08821008
0.037119534
-0.042787015
-0.10473857
0.05751581
-0.0030065007
-0.063593194
0.042466708
0.0296826
0.09298631
0.027684696
-0.05522065
0.001416957
0.01690955
-0.030635674
0.055717953
-0.022040473
0.05892731
-0.05009898
-0.06488588
-0.06944454
-0.017625526
0.059374634
-0.079277456
0.035230294
0.023844901
0.014613042
0.037395097
0.050584845
-0.00803838
-0.00486048
-0.043882664
-0.110293955
-0.028864784
0.010593191
-0.051363364
0.073194794
0.011219824
-0.03483943
0.020991784
0.04696768
-0.06785333
0.03886618
-0.06340016
0.056202713
-0.057353258
0.0334616
-0.024556424
-0.013541339
-0.013568203
-0.07263972
0.04708981
-0.025670601
0.028494053
0.036883388
0.0053983005
0.020493971
-0.065974206
0.072802074
0.0016202067
-0.09994854
0.08536521
-0.046748865
-0.06477727
-0.035763472
0.047035847
-0.012179098
-0.050975922
-0.00086529594
0.015343648
0.0072241747
0.05325806
-0.012068143
0.038978405
-0.09503294
-0.055927295
0.013412065
-0.06253453
0.033899013
-0.05792041
0.0067719314
0.07807786
-0.054433182
-0.018187802
-0.002144384
-0.07307263
0.07116539
0.021900421
-0.09390975
0.0362546
-0.039418545
-0.011511144
-0.0011774033
-0.028572138
-0.054965906
-0.0470131
-0.022486392
-0.008011295
0.02648136
-0.057134133
0.016990468
0.037200145
-0.01913797
0.0651862
-0.062768966
0.004299006
-0.03669898
-0.08785502
-0.040981214
-0.07565525
-0.014640799
-0.09255437
0.015614796
-0.058872912
-0.05038458
-0.022637045
-0.008407479
-0.054789744
-0.01844158
0.05466132
-0.061068527
-0.013215902
-0.014135732
0.06075039
-0.008667153
0.027577918
0.027583396
-0.038617898
0.029750103
0.016501399
0.020263435
0.072811805
0.07483502
0.027059205
0.06369325
0.090246096
-0.07874949
0.037073016
-0.0681167
0.046176262
0.037298787
0.056370363
-0.022667022
-0.03980254
-0.052610874
0.007586405
0.0528928
0.02326407
-0.01753967
0.037509464
0.007911617
-0.05786905
-0.03965452
0.062050164
0.01618209
-0.0040879967
-0.05465726
-0.05793872
-0.06400271
-0.008631895
-0.057245627
0.06373002
-0.040410552
0.01968788
0.12283925
0.020480053
0.03170232
0.0013733202
-0.041519612
-0.07392468
0.09221259
-0.04577087
0.029851783
0.05456162
0.051220763
0.042012114
0.0382102
-0.0172592
0.059625577
-0.0049526296
-0.012047103
-0.07344835
0.09298908
-0.06480193
-0.08902648
-0.012195168
-0.060921315
0.030257657
0.0580802
-0.11081379
0.11750653
0.03350862
-0.03135128
0.07582547
0.047869932
0.016927805
-0.014195458
-0.09032023
-0.019964185
-0.012676796
-0.026557244
0.015871042
-0.0019206811
0.047315948
-0.018917458
0.0640039
-0.03912622
0.06912941
0.086683534
-0.038321566
0.076583624
0.07028351
-0.05851062
0.08473421
0.02847966
-0.06496325
-0.010076044
-0.002740257
0.008715452
-0.017268395
0.08111331
-0.06580377
-0.06350099
-0.04846306
-0.026409512
-0.06734903
0.057707615
0.022966871
-0.04651845
0.018503131
-0.06977855
0.0317283
-0.016642028
0.028533738
0.05007924
0.046308547
0.057997975
-0.023614168
-0.013464203
-0.07546733
0.04044176
0.0058502415
0.014970305
-0.061600164
0.07793754
0.11130739
-0.05017618
0.017751263
-0.039417937
0.03210954
0.015083228
0.033212338
-0.08738564
-0.04425875
0.013888285
-0.04726559
0.030630508
0.014439538
0.00029971683
0.004166386
-0.055087794
-0.026648218
0.08677794
0.042134333
0.0378643
0.05997154
0.11601167
-0.051741548
0.071929015
0.04488636
-0.004356971
0.031802207
-0.070060655
-0.015771005
-0.0027701668
-0.020649971
0.0046848925
0.035089694
0.028142877
-0.0066907485
-0.053371828
0.00088743144
0.049512185
-0.043196805
-0.03399499
-0.05858035
-0.053790666
-0.04558977
0.068644315
-0.06790559
-0.05371913
-0.034261577
-0.046243608
0.020459466
0.033386417
0.03140262
0.013046805
-0.06462429
0.06815724
0.08011801
-0.07146302
0.06268811
0.101974174
0.037419632
0.0925452
0.01941548
0.05670094
0.03827893
0.03767235
0.047530208
-0.03575147
0.05814898
0.029556232
-0.044288795
0.036460225
-0.06586331
-0.048475124
-0.0063123275
0.08040159
-0.03143438
0.0036199056
0.08507539
-0.06580509
0.0046897903
-0.017377641
-0.028314414
0.054475557
-0.034490068
-0.018867113
0.08153668
0.039694257
-0.001218054
0.06783433
0.05226432
0.007225573
0.050019305
0.042918738
0.023202816
0.021491982
0.0014623101
0.042361423
0.054063242
0.04207423
-0.059772614
-0.068117425
-0.02637057
-0.050205287
-0.02637085
0.014667174
-0.04369153
0.054679383
0.082949355
-0.01765501
-0.048270606
0.05765649
0.07223068
-0.088545464
-0.006240623
0.034261964
-0.07431109
0.02313349
0.027362915
0.022827558
0.037876096
-0.014636729
-0.010549654
-0.019883687
-0.027614849
0.045836978
-0.044709012
0.045310713
0.067432866
0.0072767367
0.07140828
0.089289665
0.0745028
-0.026680829
0.10221947
-0.03281154
0.037208572
-0.038291402
-0.054346886
0.07214101
-0.012679114
0.049141604
0.025484413
-0.08558508
-0.063249886
0.035739925
-0.011009512
-0.054573406
0.016283322
-0.06205098
0.032218244
0.04987032
-0.019643608
-0.045971334
-0.046898488
-0.064668976
0.02048478
0.03624428
0.01158326
0.06821926
0.012383864
0.050838217
0.01618747
-0.0741177
0.051903725
0.054643616
-0.038513277
0.013883542
0.02608134
-0.083308704
0.035386804
0.01704531
-0.007571065
-0.058175165
0.033887584
-0.016042205
0.0011604236
0.04671948
0.027981145
-0.041083653
0.041311037
-0.04106014
-0.071721256
-0.063861154
-0.031270575
-0.014945647
0.003915984
0.014098348
0.0064724907
-0.047889292
-0.12282978
-0.08465648
0.046573218
-0.046730924
-0.00899736
0.030907257
-0.022615125
-0.0739134
-0.024126217
0.067668825
0.047652178
-0.036781892
0.052664157
-0.043953873
0.012639791
0.007893701
0.0069370763
-0.055491757
0.044646464
0.07566519
0.0919247
-0.04000062
-0.043529257
0.0808722
0.022184903
0.05557649
0.059703883
0.021605596
-0.03239648
-0.07729398
-0.023371845
-0.05346195
-0.06629236
-0.053835787
0.004511769
-0.04937945
-0.0043601203
0.06683567
0.053779997
0.06828047
-0.0545126
-0.044437647
-0.015073594
0.028842261
0.013437513
-0.028817676
-0.023915503
0.06900672
-0.049223784
0.019942472
0.0693914
-0.08055563
0.038068973
0.07416459
0.07040967
0.06059553
-0.061951965
0.016634813
0.042293757
-0.057379037
-0.06201299
0.02850774
-0.103025615
0.063449964
0.04817145
-0.03879619
0.029076006
-0.020928623
-0.06361131
-0.04370633
0.02779578
0.0038498368
0.007098145
0.10073552
0.08718771
-0.031291503
0.031782046
0.009894222
0.044842046
9.4415795e-05
-0.020653997
0.030826746
0.0235334
0.09275206
-0.08905787
-0.031899117
-0.030626174
0.06589109
-0.040079605
-0.027037952
-0.022498008
0.065117486
-0.029905485
0.0014862613
0.0044925744
-0.06738422
0.013998109
-0.021553235
-0.0063282726
0.08150223
0.02190696
-0.011339948
0.087940715
0.008621558
-0.087649256
0.06500498
0.045649983
-0.0627391
-0.060119987
-0.010453237
-0.04430738
0.057654634
-0.017191688
-0.032804042
0.010298942
-0.05025347
0.08713904
-0.032661874
-0.061034508
-0.04971495
0.064178936
-0.0011154924
0.06513424
0.051850982
-0.03983621
0.008307444
0.09655871
0.008696667
-0.0577169
0.022881584
-0.087175444
0.03252693
-0.03669018
0.0018263671
0.031358637
0.08245626
0.0356728
0.044859745
-0.046658028
-0.06331017
0.015433887
-0.078747906
-0.053765662
0.044416603
0.0023740889
0.026957314
-0.060687676
0.019051729
0.0038387203
-0.011871843
-0.047389846
-0.047794685
0.011376021
0.0805789
0.064213894
0.06001556
0.07678379
0.057096243
-0.06043078
-0.04253367
-0.026835177
0.038279973
0.06756678
-0.00058177504
0.02173193
0.06949788
-0.081806965
-0.029777242
-0.019926354
-0.10669522
-0.012745002
-0.028122963
0.019340625
0.053713
-0.04044702
-0.035017226
0.01560828
0.059506506
-0.0029317592
0.031430632
0.029117795
0.110288754
0.03648494
-0.06619416
-0.0011041088
-0.052583452
-0.010449269
-0.02740108
-0.06063923
0.099568695
0.06980366
-0.053128596
-0.07356949
0.009687637
-0.0562351
-0.06731706
-0.090862036
0.013554801
0.021026172
-0.0594627
-0.037093993
-0.03730557
-0.023048053
-0.0027041729
0.011727148
0.057495475
0.010567236
-0.018564451
-0.13827148
0.035982665
-0.006632704
-0.08594309
0.035442196
0.031439908
-0.09234577
0.063431
0.06459032
0.03203528
-0.037815113
-0.029905682
-0.0428683
-0.029849552
0.035029873
-0.014793032
-0.027066562
0.008775933
-0.029588329
0.037505697
0.035887364
0.0634654
-0.059462275
0.04232481
0.015358417
-0.009043674
0.01916144
0.06174055
0.032592505
-0.05746112
0.046135698
-0.10276586
0.02323311
-0.012295389
-0.03796292
0.06661489
0.056138948
-0.03276777
-0.0152807515
0.060676098
-0.04169131
-0.0019003199
0.0947878
0.062597506
-0.057566162
0.02485345
0.054056868
-0.034454647
-0.0027082704
-0.026624845
0.013315972
-0.008206308
-0.06792715
0.08227204
0.061437566
-0.006900918
-0.011864562
0.08167354
0.04556718
0.08229092
0.07800998
0.01653675
-0.013697217
-0.050163735
-0.041551266
-0.00056706497
0.008535407
0.048206765
0.00308528
-0.06303056
0.009588227
0.06497289
-0.062171236
0.0360297
0.050362498
-0.00050432974
-0.05066659
0.02513724
-0.053560503
-0.060037978
-0.069225416
-0.011028469
0.042893082
-0.036076114
0.036710322
0.039437827
-0.04777839
-0.013512591
0.030085506
0.04604189
0.100426085
0.0076767094
0.12908141
-0.033853695
-0.051482044
0.061717756
-0.020720506
-0.055613194
-0.0019471605
0.04788065
0.06047088
0.0060505564
0.016883591
-0.028740471
0.06642991
-0.05394796
0.0047206823
-0.02940642
0.012780801
-0.059234306
0.026403159
0.02198751
-0.06282268
0.06060198
0.029144218
0.012614761
-0.09744801
0.0022902659
-0.056807134
0.027059004
0.063889325
0.022666018
0.031379044
0.099752545
0.038947925
-0.06440136
-0.058912452
-0.0021778562
0.054954853
-0.038418848
-0.009089043
-0.0011275364
0.004345558
-0.049950957
-0.014431151
0.004825558
-0.114628874
-0.06779797
0.08143703
-0.043764014
0.024647783
0.08249822
0.059020724
0.094836235
0.0098676905
-0.07364432
-0.013302009
0.015037412
0.052031733
-0.012639845
0.07530028
-0.013007063
0.029005088
-0.016226223
-0.06797451
0.036312878
0.044761807
-0.040912017
-0.053030603
-0.0034990793
0.043137193
-0.008322793
0.038826317
0.00405383
-0.0890064
0.033043817
-0.020187804
-0.07689434
-0.049930833
-0.04118734
-0.05620679
-0.001250766
-0.0381835
-0.06863829
0.08499016
-0.009697448
-0.05931337
0.03278199
0.026671575
0.017082468
-0.057416327
0.053355485
-0.0018896234
0.056627993
-0.06744754
0.060309738
0.057048775
0.025322115
-0.09732025
0.10200709
-0.003943954
-0.10024931
0.10066379
-0.033607755
0.033318687
0.03751049
-0.037768517
0.08474026
-0.02053159
0.016105589
0.08876589
-0.09488706
0.0048409114
-0.0351874
-0.019106593
-0.06971174
-0.01619203
-0.012266812
-0.015853636
-0.04382273
-0.05204003
-0.011497419
0.021449687
-0.031227281
-0.040427964
0.004881162
-0.027579695
-0.06348477
-0.015590254
-0.05233246
0.012794551
-0.050188057
0.032092728
0.028343689
-0.033753738
0.039572444
-0.041864593
0.062724635
0.085736
0.09033545
0.05700461
0.06189489
0.0068512037
-0.021168511
-0.040298916
0.03551056
0.05455742
0.030799786
-0.012965703
0.056788627
0.015815657
-0.012041931
0.041096754
-0.109799266
0.07120107
0.036538627
0.028796403
-0.06983302
0.046071243
-0.08833298
0.014392536
-0.08356384
0.025146184
-0.07297964
0.049057744
0.028425472
-0.09752716
-0.053365797
0.0346013
-0.00015353272
-0.054342896
-0.016145308
-0.043260396
0.042038456
-0.005390008
-0.045622353
0.0028336048
-0.026828999
0.03167798
-0.014340777
-0.042672426
0.08031633
0.065271765
0.06523892
0.09334226
0.06393012
-0.05746133
0.045234744
-0.09134606
-0.034542512
-0.103312135
0.022088077
0.043871883
-0.07663373
0.02736445
-0.011140578
-0.035434507
0.018362107
-0.017699067
0.008337464
-0.020188617
0.025331687
0.025950583
-0.04406643
-0.0042105857
0.028152334
-0.0062986254
-0.08997559
-0.015710551
-0.0010419973
0.02625835
0.00065616396
0.10246592
0.00022484128
0.00093092694
-0.017209603
-0.15766822
-0.06861392
-0.046851333
0.06348544
0.07671758
0.012477444
0.03202771
-0.015690612
0.031258684
0.06509854
-0.027912647
0.04149824
-0.0468103
0.011368141
0.03464954
0.03942867
-0.069691665
-0.032906022
0.041095763
0.02312558
-0.04283813
-0.009505342
0.031224756
0.047087386
-0.022821052
-0.0016184691
-0.047194842
0.06264512
0.067628056
0.0041440874
-0.012825137
0.072567604
-0.078260124
-0.04291459
0.03496597
-0.049326133
-0.025074065
0.05782716
0.05833073
0.008449594
0.0105432505
-0.01859816
-0.047165588
-0.050964013
0.013900464
0.08351586
0.043207634
0.009728765
0.032725066
-0.004207625
-0.03721953
0.08297247
0.038753744
-0.035199184
-0.09733102
-0.08467101
0.06326433
-0.05051172
-0.060682084
0.06428288
-0.09386695
-0.078805834
0.0019411102
0.0039583566
0.035588674
0.066994816
-0.015873611
0.05250841
-0.051763214
0.020734778
0.0616446
0.051293302
0.049200255
-0.029749783
-0.020746045
-0.03042734
-0.10905326
0.04218677
0.04621459
-0.06357652
-0.052602734
-0.10727172
-0.07305424
-0.044089563
-0.028739698
-0.0024646295
0.04703576
-0.017750975
-0.008422915
0.0008497715
0.058749195
0.052599102
-0.049577378
0.0022872284
0.011863372
-0.037136327
0.050848123
-0.0047785467
-0.08950072
0.043196477
0.015861664
-0.11276666
0.058729947
0.056715876
-0.047101248
-0.023800755
0.0881842
-0.039868798
0.03170725
0.05247342
0.00908944
0.033985406
-0.0328311
0.06502378
0.053022865
-0.013874442
-0.004204607
-0.06789356
0.008242266
0.017422039
0.009048143
0.03383874
-0.020621123
0.024267709
-0.05722672
0.041791473
0.0006518897
-0.0030990723
0.038152542
0.057693444
-0.010292937
0.06751315
0.107956134
-0.061400406
0.004442509
-0.0743461
0.028981473
-0.036692005
-0.023833469
0.04998631
0.04299018
-0.04704679
0.06759428
-0.053997792
0.03523677
-0.0119116455
0.045405425
-0.009437686
-0.062760815
-0.018099686
-0.009318349
0.056544386
-0.023112692
-0.11248698
-0.041406382
-0.03942386
-0.03177113
0.026166592
0.07680675
0.034900747
0.10498708
0.03712915
0.087860964
-0.10567387
-0.089397304
0.035294645
0.035834506
0.023845851
-0.053077012
0.034572214
-0.036430705
-0.010003842
-0.0101256985
-0.00448388
-0.008225578
0.04375411
0.0013980779
0.0020821744
-0.06188228
0.05104936
0.041327346
-0.009720833
-0.008056836
-0.010270605
-0.015152965
0.042536072
-0.06658512
-0.040086117
0.04798222
-0.0007154516
-0.06849021
0.051184736
0.0007697846
-0.06734534
0.053489592
0.047985777
-0.055316422
0.059478745
0.030492507
-0.05584918
0.04283331
0.06845144
-0.033527683
0.039478965
0.045478445
-0.06379191
0.08616194
0.08431348
0.04180676
0.110235155
-0.046888094
0.075028665
-0.033484817
0.044699483
-0.061822638
-0.035037506
0.031987447
0.07304878
-0.06094127
-0.03582831
-0.026872728
-0.045059636
0.036775235
-0.0068812435
-0.023938783
0.06266566
0.045737226
0.051210865
0.011666008
0.03721849
-0.011290476
0.02942788
-0.01774119
-0.04747074
-0.05516496
0.02009752
-0.073889196
0.093655385
-0.0047362545
-0.060632546
0.12689513
-0.025709236
0.04611205
-0.058175053
-0.0130091505
0.06328364
0.05318496
-0.022009483
0.041796684
-0.06386379
-0.07167061
0.06902176
-0.03540718
-0.019639215
-0.02919824
0.011073337
-0.061509702
0.049909044
-0.06645117
-0.0014419575
0.0060211867
-0.04307954
-0.047301706
0.038884047
-0.042409383
-0.039167702
0.032578934
-0.0004602717
0.06678696
0.030121706
0.0641805
-0.041993663
0.072353415
0.07912128
-0.06279694
0.012399642
0.0378283
-0.07961639
-0.014720527
0.015943183
0.06857989
0.057513826
0.0477012
0.050068147
6.234855e-06
-0.019058088
-0.020691017
0.06773559
0.013836066
0.09634512
-0.033915527
0.09076246
-0.019279905
0.011013321
0.057564966
-0.027924886
0.09827671
0.07743765
0.10011028
-0.023023998
-0.040205818
-0.07647516
-0.057195272
-0.042557642
-0.07581708
0.00052443176
-0.009763451
0.02930015
-0.0010628244
0.06568768
0.047728617
-0.014241327
-0.05555286
0.04134351
-0.004739867
-0.08970347
-0.058167707
-0.015301824
-0.082404025
-0.024196602
-0.029793536
-0.015310157
0.060700074
-0.06722208
-0.080703124
-0.055258483
0.021792432
0.043974765
-0.04622223
0.0022576072
0.06165103
0.05087345
-0.045969456
0.06803111
-0.01084187
0.02461957
0.011006694
-0.05528425
-0.017414149
0.063946955
-0.043530103
0.115278214
0.024514943
0.0057445066
0.07849031
0.07343011
-0.00086812954
0.028948773
-0.040089127
0.00257534
-0.018580738
-0.087702796
-0.020384025
0.07787487
-0.05082831
0.10306835
-0.0014931569
-0.0167666
-0.04687306
-0.0338788
-0.043045677
0.058500223
0.019545669
0.029878974
-0.018014353
-0.021843951
-0.0026755845
-0.02471699
0.024381345
0.043623455
0.060999703
0.030059362
0.070544794
0.07011146
-0.041889157
-0.02348556
0.06879862
-0.073097125
0.042254593
-0.040327627
-0.0800011
-0.062926926
0.013536738
0.03289162
-0.034029506
0.0127167255
-0.056665555
0.041235495
0.032108184
0.008767698
0.020660553
0.055232085
-0.02504976
-0.047529023
0.021258537
-0.04371103
0.04000362
0.066938475
-0.00902649
-0.08188829
0.044286948
0.030127386
-0.057320792
-0.0578691
-0.047282245
0.030108916
0.043505885
-0.075968824
0.084487855
0.0072466293
-0.07758758
-0.00039358993
-0.07292581
-0.052535646
0.008797093
-0.010922992
0.040099204
-0.052972928
-0.062132366
0.0021527521
-0.042529926
0.014235225
-0.019971874
-0.052676566
0.044370033
-0.022975214
-0.06371448
-0.061188422
0.044321485
0.053457197
-0.04163308
-0.07096243
0.010024029
-0.07677477
-0.013215469
-0.033789527
-0.094467096
0.044152234
0.06391974
-0.05431516
-0.029208273
-0.05656259
-0.016957926
0.05203765
0.056562994
0.06083221
-0.022946328
0.046676487
0.02131458
0.08605437
-0.012652538
-0.024634548
0.06639429
0.04671862
0.035607874
-0.01308193
0.037041076
-0.04437795
0.08528313
0.064683214
-0.042136617
-0.035081394
0.011045701
-0.07280554
-0.03444589
0.011245946
-0.07170903
0.022189558
-0.021684745
0.054084696
0.051553193
-0.033287846
-0.04994562
-0.016795466
-0.040491916
-0.0025606565
0.058352258
0.03584363
-0.047873657
-0.022363188
-0.033020254
-0.0761012
0.07485357
-0.0876803
-0.05458021
-0.08288464
-0.011584795
-0.077225864
-0.024840454
-0.025865443
-0.03698285
-0.008737397
0.010976669
-0.03060951
0.012164205
-0.021926217
-0.0062649436
0.058589987
0.025388652
-0.03255815
-0.02646019
-0.010828781
-0.06771487
0.016766528
-0.080521226
-0.027367424
0.030401627
0.009373394
0.018952418
-0.05285372
-0.011770504
-0.055307224
-0.005663567
-0.08249336
-0.0041871658
-0.0139030805
-0.08186445
0.0510476
0.09588467
-0.081751
0.048115212
-0.04231111
0.0059230323
0.06768109
0.023226287
-0.010798608
0.016345108
0.043748762
-0.04112921
-0.067697085
0.088001005
-0.038490962
-0.05274012
0.019342985
-0.04569975
0.016786663
0.05299396
0.031752944
-0.035666768
0.026990969
-0.049187526
0.06574134
-0.041881066
0.007014258
0.069164395
-0.008090122
-0.095635705
0.018775174
0.009493143
0.035814527
0.032420292
0.025207004
-0.02000459
0.063452914
-0.0041883825
0.04027808
0.036283106
-0.052765787
0.0066209254
-0.03315279
-0.09083493
0.03418543
0.00030654453
-0.092009634
0.021815555
-0.032061815
-0.013481107
0.1212076
0.10359799
0.07091749
0.07152155
-0.022918815
0.07836434
-0.011106062
0.06394652
0.05538752
-0.06636193
-0.02248691
-0.06428126
-0.015056973
0.01655586
0.003453007
0.01012851
0.04205615
-0.03182582
-0.051594954
0.037384626
0.04607017
-0.042476885
-0.021154527
0.07061876
0.00959894
0.033060797
-0.09391724
0.021800421
0.0007963974
-0.017444368
0.07198116
0.073721185
-0.04058363
0.023459088
0.089523606
-0.05517653
-0.06862838
-0.023601092
-0.068730965
0.06688074
0.06412963
0.06457255
-0.026672896
-0.02362613
-0.023622423
0.0019812598
-0.008054125
-0.035833567
0.021205287
0.074264914
-0.079100505
0.076454
0.086633585
-0.069402896
0.041629113
-0.033373382
-0.019640552
0.07191603
-0.06362881
-0.03813361
-0.044869225
0.027056344
-0.030188305
-0.014304364
0.056457322
0.046759833
-0.057217747
-0.0011782147
0.040310558
-0.0587825
-0.004227296
-0.009391918
-0.09601525
-0.078064345
-0.05566505
-0.04271681
-0.02516017
-0.04089078
-0.07583848
0.07318676
-0.00880859
-0.037383277
-0.0532229
0.044076167
-0.010689427
-0.0005156983
0.09143248
-0.06394671
0.0487669
-0.009570396
0.051137947
0.023206571
0.06786135
-0.014259133
-0.028940156
0.008262244
0.024120752
0.054535694
0.02201497
-0.046126314
-0.054317717
0.039660383
0.07393173
-0.049177285
-0.03909416
-0.008222179
0.08683994
-0.07608591
-0.004244269
-0.085852645
-0.05789343
0.07354876
0.016128846
-0.047416847
0.08160001
0.048088927
-0.0020389888
-0.023921574
-0.06600253
-0.03224465
0.062108856
-0.009016346
0.042853564
-0.043236222
-0.014087008
0.07796018
0.035521064
-0.012911952
0.061541565
0.04851299
-0.062148087
0.033402473
-0.03909036
-0.074483566
0.05395025
0.04553963
-0.017451039
0.006936
0.00833844
0.04387965
-0.021686725
0.05885966
0.031774797
0.017401941
0.035921574
-0.00291767
-0.054154225
0.02001186
-0.042889275
-0.06720801
-0.06731289
-0.018520951
0.0074681086
0.01731563
-0.022309493
-0.06907305
0.010405244
-0.039024737
0.044468906
-0.08019938
0.042680856
0.0071674096
-0.060056873
0.1042042
0.03482799
0.013262342
0.09930507
0.022046769
0.020575283
0.096556544
0.029721703
0.018123524
0.041847065
0.035502933
-0.068686195
-0.04250785
0.03736301
0.020978551
0.024367344
0.0055013667
0.04974194
-0.038015217
0.027209649
-0.01776495
-0.0773891
-0.031026011
-0.034511164
-0.054076888
-0.021229193
-0.06817065
-0.04245523
-0.100024946
0.07046623
0.04570773
-0.048504148
0.08992486
0.105241634
0.020487944
-0.044281516
-0.03550802
0.06312905
0.059806123
0.026053088
-0.029862959
-0.03321183
-0.007865389
0.03648881
0.06672969
-0.0009617155
0.029354522
0.06695044
0.039076697
0.06733122
0.03600684
0.07234891
0.019254338
-0.045393288
-0.09304787
0.055333164
-0.010478953
0.012312084
-0.034357384
-0.061343227
0.048871774
0.034957234
-0.022615304
0.03262604
0.028384525
-0.035514787
0.031728618
-0.06042013
-0.066416316
0.059015665
-0.0534318
0.035063136
-0.08011288
0.04856728
-0.020220947
-0.028194923
-0.04016726
0.011942172
0.046406884
0.092052005
-0.08867591
0.0071734176
0.014185597
-0.11848548
0.06558735
0.089732274
-0.04513751
0.01211394
0.058490645
0.056403123
-0.04412966
-0.0039192573
-0.046324875
-0.01999502
0.02841666
0.043330994
0.0011695293
-0.045722794
-0.041872412
-0.043209817
0.051996373
-0.023615267
-0.017779112
0.093064494
0.010304903
-0.033782054
-0.012162331
-0.040767882
0.07421686
0.08082985
-0.080666386
0.05648317
0.04126826
-0.09514025
-0.012178859
-0.02894408
-0.04397846
0.00438177
-0.01956461
-0.041939907
0.0339401
0.008451703
0.04401314
0.014324862
-0.11384401
0.04127277
-0.05859935
0.0014041854
0.07937978
0.04832381
0.017576514
-0.0285272
0.08925931
-0.01349789
-0.026205122
-0.07790452
-0.024368158
0.015135434
-0.07179986
0.09138708
-0.05141286
0.09150494
0.011618007
-0.062300127
-0.05711542
-0.04973895
-0.04383754
0.02794035
0.066847615
0.037923966
-0.008272721
0.026869582
0.054344986
0.01285113
0.0335478
-0.0121443
-0.0839567
-0.019943079
0.010342956
-0.08399253
0.049116176
-0.053106606
-0.08076045
0.012904244
0.07361487
-0.09687179
-0.03365559
-0.045221798
-0.037966657
-0.009487289
0.054659948
0.030781263
0.0361349
0.0069081723
0.0007782259
-0.009689306
-0.015645077
0.057029683
-0.0016679632
0.123727344
-0.060761232
-0.08684155
-0.012603465
-0.07554783
-0.043124273
0.043873213
-0.016006645
0.056164045
0.00035026204
0.089310415
0.06862727
-0.10726134
0.073919535
0.005270487
-0.03738863
-0.059705775
0.046603404
-0.04959153
-0.052616764
-0.04507398
0.049512457
-0.03605002
-0.030098066
0.005810807
0.020723404
-0.043876965
0.054069817
-0.024348382
-0.0794263
0.077612884
0.0077700047
-0.072914384
0.070681736
-0.06984582
0.06456993
0.08227169
-0.038057912
0.035920765
0.05620006
-0.027224997
0.045534477
0.013387217
-0.03981661
0.041295175
-0.03858552
-0.020260248
-0.06603522
0.015574499
0.0047660563
0.06437159
0.002963593
0.008008228
-0.0025081697
0.019776175
-0.05018432
-0.022909008
0.023353089
-0.011548194
-0.036866985
0.08018333
-0.036197778
0.036863375
-0.03668492
-0.102247015
-0.06810474
-0.032252375
-0.06531376
0.046758194
0.037595734
-0.08182276
-0.052922618
0.023873085
-0.05017579
-0.005643534
0.009542074
-0.0040436424
0.02485641
-0.0058828057
-0.0378694
-0.017571837
0.04848853
0.05246839
0.012282858
-0.04679527
0.044727493
0.07204815
-0.14029552
-0.061870866
0.06040653
0.014108519
0.036141817
-0.01977545
0.08304442
0.007986161
-0.019388353
-0.16121317
-0.08341678
-0.048616737
0.04878909
0.04622547
0.042078137
-0.02849826
-0.02327589
0.020260323
0.013516605
-0.027168687
-0.066487074
-0.04466026
0.010247161
-0.078136794
-0.02924396
0.039482962
-0.057461716
0.05032508
-0.06848872
-0.09212436
-0.06725386
0.028541513
-0.029169377
0.031992905
0.031369127
0.03639867
-0.06448751
-0.041864682
-0.0134197315
-0.007462109
-0.051739387
-0.008553001
-0.024879688
0.014039036
0.04277133
0.0391911
-0.0199146
0.031165926
-0.01654521
-0.009483825
-0.042423774
-0.07213094
0.08225498
-0.034610007
-0.10117207
0.052766707
0.038120613
-0.056388464
-0.015575048
0.1003493
-0.057649266
0.0015647575
0.064046174
0.05109185
0.040526796
0.052665886
0.058269475
0.009624802
-0.01412582
0.027829042
0.052465886
-0.041899167
-0.05221694
-0.008650858
0.06969844
0.02772514
-0.108758755
-0.00426576
0.05021039
-0.09904341
0.08278902
0.061607562
-0.07975334
-0.10352285
-0.037276458
0.055287976
-0.021141266
0.051866308
0.039570764
-0.0037758506
-0.061050456
-0.00017490571
0.017452465
-0.015463538
0.0047421763
-0.056994148
0.06025931
-0.016568162
0.023623817
0.05584044
0.026026119
-0.09262184
-0.01361711
0.061827336
-0.05516008
0.007758021
0.0881655
-0.081601925
0.03072963
0.04284095
0.073061
0.07628734
0.013046834
0.0452291
0.02907359
-0.060894623
-0.0027503564
0.0701672
0.012184541
-0.028544892
-0.033785585
-0.012656661
0.026323399
-0.0681682
-0.0060456824
-0.05733542
0.055359043
0.0043847216
-0.02552112
-0.066450745
0.0661925
-0.009726441
0.07557447
-0.005725982
-0.082464576
-0.024079802
0.01200139
-0.043530304
0.020095961
-0.055949625
0.013306511
0.027477855
-0.12212282
0.056689464
-0.090902574
-0.09597285
-0.03904316
0.061665006
-0.06146297
-0.06474688
0.046256457
-0.047528367
0.02586524
0.007745095
0.01620153
0.086303025
0.0049265367
-0.015563761
-0.00940439
0.006479206
-0.080950424
-0.0065222406
0.07178738
0.06632172
-0.062080473
-0.08846541
-0.07353066
-0.008543158
-0.0785308
-0.110995196
0.040881306
0.126323
0.13007471
0.018508017
-0.031105347
-0.05464648
0.028237268
0.024307478
-0.0668756
-0.011611358
0.020852558
0.066661425
0.027442064
-0.027227363
-0.01220538
-0.048871983
0.029245762
0.006035337
0.014580562
0.04949489
0.08061049
-0.03930168
0.016690541
-0.08047263
-0.06555677
-0.037245817
-0.067154124
-0.04845791
-0.0581423
-0.1031132
0.0019091632
-0.04633025
0.005608118
0.063103795
0.015043351
-0.005440144
0.041609168
-0.0628745
0.0158473
-0.05284816
-0.082499534
0.05516987
0.02832287
-0.0063022473
0.028170649
0.054028325
-0.005723154
-0.060738917
0.058132857
0.005532762
-0.10397054
-0.018936994
-0.10892687
-0.033303335
0.019064784
-0.097299054
-0.046679184
0.05127339
0.01724806
0.05212836
-0.033254188
-0.03885267
0.049202755
-0.04673754
-0.012516358
-0.038564004
-0.032560933
-0.044627722
-0.0021755076
-0.031867865
0.071739204
-0.06143379
0.06851264
-0.048629683
0.031671174
0.08207193
-0.040411923
0.0767577
0.06298995
-0.08748146
0.07837953
-0.046436265
-0.10248555
-0.06358862
0.015782733
0.054499045
0.0034528894
-0.059692662
-0.044927455
-0.041485883
-0.065578505
0.0037885313
0.03888088
-0.044013172
0.07701448
0.025018455
-0.07101869
0.094951436
-0.0040147053
-0.07620997
-0.039925218
0.052512273
-0.038216144
0.056903757
-0.03051069
-0.01217975
0.08878332
0.055439897
0.07650806
-0.0076015447
-0.05897693
-0.0078209285
0.018872717
-0.025650436
-0.038115337
-0.017792147
0.056192674
-0.055322688
0.008995912
-0.03770522
-0.049281757
0.052582767
-0.081347264
-0.09086907
0.008261663
-0.06721027
0.03793411
0.021003993
0.084128045
0.053204414
-0.009800974
-0.041458383
0.03675839
0.016575618
-0.07987878
0.056222025
-0.05986195
0.02788515
-0.055353854
-0.006417618
-0.06254276
-0.061050016
0.015525214
-0.037114214
0.041233797
0.002006959
0.050623
0.06256709
0.014394683
-0.009440755
0.051688906
-0.023012578
-0.08446877
-0.030467734
0.07610153
-0.06356464
0.023211965
-0.05251055
-0.060083516
0.010248442
0.016581286
-0.07273533
0.0017363295
0.045343082
-0.027377697
-0.015010332
0.049565855
0.026772078
0.038016755
0.0034938059
0.007826628
-0.014284389
-0.05438103
-0.06940387
-0.03797744
-0.005108482
0.012507419
-0.048588857
-0.035280507
-0.032866467
0.00092022406
0.020049535
-0.056482002
-0.016756076
0.10568143
-0.049640704
0.046003155
0.053042956
0.04421042
0.07915054
0.107149564
-0.0013091614
-0.06958645
-0.021873722
0.020990077
-0.009413685
0.037135463
-0.044650428
-0.034242544
-0.06361083
0.043150753
-0.0894827
-0.019210853
0.034318916
-0.024656216
0.092176795
0.017879989
-0.031618435
0.076904066
0.039492078
0.03344794
-0.008022312
-0.007992228
0.030307563
0.039811384
-0.009396401
-0.05398449
0.08656313
0.06581259
0.004521733
0.049450208
-0.059985027
0.010149496
0.033175293
0.0020147385
-0.019501364
-0.06631426
-0.01531214
0.064361416
-0.063591726
0.01858382
-0.03486863
-0.0047161933
0.06537536
0.03225611
0.06290646
0.0242563
0.082865566
0.049217913
-0.049685672
0.036679648
-0.08047859
-0.080053076
0.09983748
0.016834758
-0.044347394
0.052970916
-0.023815317
-0.0013025254
-0.06752021
0.066371106
0.0445732
0.06181272
-0.051082272
0.049185786
0.063888386
-0.017213516
-0.03681209
-0.020854412
-0.08830224
-0.07167173
-0.055801284
-0.06723586
-0.045753326
0.05755499
0.09391251
0.02406415
0.05864806
-0.0019068668
-0.040360264
-0.025129372
-0.052363254
-0.031211585
-0.038426317
0.02443273
-0.0014445997
0.011969313
-0.043701462
0.051114395
-0.019737342
-0.04753615
-0.02287807
0.008909868
-0.007841476
-0.020811316
0.04765111
-0.03828953
-0.02247593
0.050971568
-0.017140422
0.09445021
-0.058185715
0.06234747
-0.07742958
-0.05940196
0.029416295
-0.06655638
0.063568845
-0.037964027
0.12169859
-0.032779902
0.06457995
-0.03757696
0.028091077
0.0046250676
0.04997625
0.007912596
0.06392784
-0.020833619
-0.0235793
0.090737924
-0.07895312
-0.08586957
0.09401206
0.013479495
-0.08590121
0.02896318
-0.043790206
0.029127358
-0.058986474
0.004692789
0.023655508
0.012108256
0.06828407
0.075577594
0.04010549
0.015584002
0.05914426
0.06361999
-0.01550972
0.02288858
0.0018415817
0.024569513
-0.0092809815
-0.03327994
0.021063691
-0.054533593
-0.074074
0.068576254
0.022086263
0.03997654
0.08616311
0.056391384
0.0279172
0.06893948
-0.10667898
0.020202752
-0.05351401
-0.055898983
0.018586904
-0.039695088
0.052689895
-0.0027766502
0.05887016
0.0530454
-0.056816213
-0.011830335
-0.031173341
-0.051797424
-0.049765874
0.035017233
0.026046013
0.014876335
0.011451745
0.059053157
0.008117197
0.045647603
-0.03341529
-0.009201433
-0.04888926
0.023880173
-0.016710378
-0.036669113
0.09133897
-0.096589565
0.0476114
0.060135197
-0.03154107
0.081165075
0.073620215
-0.042111114
0.04986243
0.034301385
-0.020101698
0.021727966
0.05460799
0.049094375
-0.02481257
-0.061643668
0.047698572
0.03659415
-0.06295874
-0.011090097
0.02633729
-0.0678322
-0.061995752
-0.051091574
-0.00025950588
-0.0835453
0.04437059
0.004045318
-0.014715669
0.090018764
0.057469897
0.043301277
0.08205263
0.027736519
0.033547107
-0.0097745545
-0.06625502
-0.04455189
-0.03149509
0.008728127
-0.060641494
0.00025431538
-0.05990628
-0.045758132
-0.0024565535
0.021923399
0.03297022
-0.07487096
-0.007890109
0.012622663
-0.022772849
-0.053898625
0.021976132
0.05507505
-0.02473092
0.02907496
0.10194667
0.07927213
0.031640876
0.09213971
0.07128836
-0.033365037
-0.048131544
-0.024265135
0.0038385524
-0.04043756
0.0031365238
-0.0151420785
-0.018066736
-0.035797674
0.021251515
0.066896975
-0.07468033
0.073358364
-2.9877723e-05
-0.031751253
0.041318607
-0.03936462
-0.06384896
0.038214114
-0.0484915
0.081274636
0.0071505145
0.027689947
0.1030718
0.04681557
0.00039554833
0.09075413
0.012745327
0.015912252
0.012916358
-0.065140635
0.004509047
-0.014797281
0.025369659
0.06933524
0.030613476
0.02358774
-0.008117886
0.042740937
-0.084573016
-0.02833989
0.06575103
0.007931791
0.007014919
-0.06893508
0.00012053293
-0.020455
0.029530676
-0.03290648
-0.052035186
0.09728551
-0.031158397
-0.068141535
0.060360804
-0.05634755
0.052518073
0.021641737
-0.03436705
-0.00610799
0.0063040373
-0.012850962
0.036634672
-0.016463483
-0.019584194
0.04262118
-0.0032156573
-0.029416392
-0.010129225
0.049561623
0.019031188
-0.05153989
0.028779393
-0.04674731
-0.007431586
-0.017871844
-0.08306144
0.031857472
0.00973524
-0.1017489
-0.009431908
0.08395388
-0.08752664
-0.058521286
-0.01170632
-0.033206385
-0.009291012
0.025305485
-0.04387643
-0.009837945
0.047784667
-0.031818308
-0.017307201
0.07121683
0.055559848
-0.058173887
-0.02853891
-0.0046956227
-0.09303848
0.021318711
-0.06413074
0.037445687
0.009138346
0.043038376
-0.016417267
0.10842041
0.048372205
-0.01630504
0.017013399
0.07440369
0.0050293007
-0.029754587
-0.04117243
-0.06772932
-0.03772743
-0.05843619
0.028381962
0.009696127
-0.04799279
0.0068642204
0.048279606
0.11726056
0.041516095
-0.06602809
-0.05667069
-0.078201875
-0.094629
-0.08334376
0.089063495
0.06235779
0.13786569
-0.00063050404
-0.055401437
-0.0070336983
-0.060522433
0.05235255
-0.10066475
0.003979332
-0.003911288
0.021521248
-0.008511713
0.06685176
0.031316992
0.031667057
0.011343501
-0.024107056
0.067561395
-0.07130029
-0.017646307
0.021377396
-0.07952202
-0.034166276
0.10029335
-0.01934523
-0.08324987
-0.0752229
-0.028548026
0.0015436476
-0.062131736
-0.022767017
-0.003142858
0.044191774
0.09884386
-0.025676461
0.03138776
0.054643255
0.06858683
-0.059502702
-0.026220549
0.029600423
-0.059159137
0.06590365
-0.06254931
0.031895164
0.0462766
-0.102314286
0.038550355
0.07602205
-0.075130574
-0.0692017
0.055955175
0.049688697
0.032378722
0.049084887
0.007695717
0.050507516
0.043200452
0.064042136
-0.058072697
0.025928034
-0.012672215
-0.05741903
-0.008552951
-0.05287286
-0.03580764
0.06135562
-0.04926562
-0.06754877
0.022322185
0.019961808
-0.048126116
0.058472455
0.017288083
-0.07669878
0.037591923
-0.0011063666
-0.12025584
0.06927101
0.062982894
0.05673176
-0.045399085
-0.0071067917
0.036272123
-0.01675543
0.04958206
0.08400427
0.06932705
-0.061609227
-0.03331698
0.059988104
0.03715036
0.048782174
-0.0077685653
-0.024385937
0.054261707
0.01630513
0.033336062
0.07315811
0.04602881
0.08796021
-0.056572955
-0.022050476
0.02021209
-0.060442265
-0.07043161
0.0846934
0.01010648
0.0825375
-0.015895534
0.07735212
0.09322439
-0.053157184
-0.0052099507
-0.04716342
-0.0904251
0.010753453
-0.037429888
-0.059520703
0.008438881
0.0023104865
-0.020815969
-0.03944542
-0.022320792
0.035606947
-0.02652392
0.010791549
0.013291298
0.009822849
-0.041648176
-0.06612143
0.003823145
-0.04025705
0.026725871
0.09151068
-0.064819254
0.041173078
0.03450132
0.021914989
0.0738355
0.099287994
0.01847652
0.055949803
-0.05066464
0.06684595
0.03819091
0.016046513
0.021179043
-0.05646032
0.02319159
-0.025965657
0.06499192
-0.045353126
-0.008239392
0.0019597805
-0.042950656
-0.063264854
0.053531844
-0.010142416
0.017927337
-0.002172462
-0.03327674
-0.023894714
0.012914624
-0.065923765
-0.0606608
0.076154254
-0.07521028
0.0404569
-0.01930555
0.0027626434
-0.038112637
-0.0037599932
0.050658848
-0.026143761
0.036899112
-0.02240376
0.032737836
0.044159755
0.077441104
-0.028024023
-0.052524887
0.059555564
0.07625553
-0.044236712
0.066569194
-0.0026684043
-0.04620357
0.06786924
-0.04992046
0.048673823
0.03894735
-0.04803607
0.012377166
-0.044145804
-0.042534098
0.049434613
0.02962822
0.06950991
0.038734067
-0.007843988
0.06126026
0.005932632
-0.057520665
-0.028606595
0.0089222845
0.07231701
-0.0042234343
0.0065836892
0.108022824
0.005555573
-0.025290327
0.08113684
0.02329633
0.081002474
0.02978794
0.024737485
-0.05395702
0.04567381
-0.05705644
-0.081971966
-0.031315938
-0.045563467
-0.013213668
0.01644223
0.0010284539
0.017459994
-0.014233454
0.023712542
-0.007683018
0.018447408
-0.06763721
-0.0050085117
0.05032995
-0.022185078
-0.07008404
0.077715196
-0.009730197
-0.04355663
-0.010837202
-0.08297337
-0.03779018
0.0695074
-0.040962063
-0.007213233
0.07996991
0.060914513
-0.0604178
0.0075531173
0.07171345
0.016306605
0.021618968
0.031201381
0.04864789
0.052448306
-0.031942233
0.011077469
0.042124692
-0.024756307
0.048135832
0.07124924
-0.089997195
0.009971757
0.04558528
-0.083172664
0.06474529
0.019778121
-0.059339017
0.04374027
-0.06420108
0.02439105
0.016151525
-0.028301286
0.04083048
0.06007289
0.052854795
0.10137847
-0.066707574
-0.020171097
0.041339096
0.0007318197
0.041247927
0.057095923
-0.051179983
-0.013127894
-0.047016874
0.00045271264
