0.016024668
0.013728937
-0.019250048
-2.6455278e-05
0.0075474144
-0.007841672
-0.01829512
0.003809638
0.0014914459
0.01593421
-0.006718692
0.017080905
-0.015653681
-0.0054095625
0.008653624
0.019089991
-0.0030767086
5.580568e-06
-0.018016484
0.008882549
0.006830458
0.020341616
0.014924917
-0.01265787
0.015909472
0.0075675244
-0.014836688
0.014313094
0.008253337
-0.0098274285
0.011215582
0.012998709
-0.0023575958
-0.006916147
0.016053716
0.01361834
0.017057385
-0.016932042
0.000498708
0.012397934
-0.0058854274
-0.018543877
0.0031850438
0.015895901
6.629103e-05
0.0097399475
-0.0052441633
0.0031989054
0.010315638
-0.009298605
-0.015430174
0.0075029726
0.008489924
-6.186827e-05
-0.009677816
-0.002394507
0.015798269
0.020362178
-0.018827587
0.008596279
-0.005470014
0.015246162
-0.0003894193
-0.0091025885
0.005111994
0.012881221
0.0108475685
0.013289392
0.020342879
0.012984546
-0.0012241083
-0.005440487
0.009257895
-0.01980793
-0.0119838
-0.008583238
0.009255928
-0.013652593
0.016507925
-0.0021224185
-0.0043456824
-0.0012185094
0.014445787
0.015743777
0.008074453
0.0057074493
0.0103213675
-0.018171057
0.019305537
-0.008967327
-0.016735313
0.019144492
0.011514367
0.0013977258
-0.0021155993
0.007939189
0.0024898201
0.00018259254
0.017039537
0.003095811
0.017594317
-0.008418563
-0.0018651392
0.011546853
0.010583629
0.00081851636
0.014709187
-0.0031086735
-0.017304508
-0.016229777
-0.008463185
0.01932336
-0.0028381064
0.012045133
0.006469165
-0.020190595
-0.0070597115
0.012024552
0.0015540292
-0.0065655997
0.01149279
-0.014116678
0.0066458243
-0.013051678
-0.018725203
-0.0096074175
-0.012301346
0.013066989
0.006019545
0.015223499
-0.019456128
-0.00054184586
0.0023303083
0.007521338
-0.017238107
-0.013430711
0.020344594
-0.017489083
0.004955913
-0.0042651007
-0.0015630681
0.0048282146
0.009205248
-0.0064259367
-0.012815104
-0.015866028
-0.013345816
0.011969113
0.019453337
0.01169748
0.0049679517
-0.01774313
-0.014106909
0.0152725745
0.0020246056
-0.010743456
-0.020069666
-0.004737769
0.0034465299
0.015941447
0.009916034
-0.019546974
0.013850107
-0.0016255504
-0.01973241
-0.0013619438
-0.0017836996
-0.0012977
-0.00318548
0.006592835
-0.0028093832
0.00685889
-0.0114552835
0.0050378977
-0.00094711734
-0.0057729296
0.0016506272
0.009627731
-0.013575168
-0.011394961
0.0033347844
-0.0049025496
0.019758863
-0.015035916
-0.007573032
0.013815539
-0.01735551
-0.020113584
-0.008727704
0.011518225
0.01766517
0.017604414
0.013553886
0.017825814
0.01424434
-0.018322745
0.0036233615
0.020061212
-0.0026349386
0.0023859777
0.014468845
0.0080848215
0.013236914
-0.01812826
-0.010603077
-0.01829111
0.015471335
0.007227972
-0.0009179043
-0.010915098
0.013437343
-0.015084116
0.0003015144
-0.0039360537
0.01410293
-0.019470423
0.014906543
-0.009308081
-0.0060292394
0.0057982244
-0.010679099
0.008761636
-0.0039663427
0.0039085606
0.016284175
-0.004746224
-0.020278411
0.006069352
-0.00982135
-0.014221221
-0.011503085
-0.010035156
0.009877101
0.016948706
-0.007842252
-0.006644491
-0.008716809
0.012061373
-0.0065524657
-0.0050780447
0.0025536937
-0.012334281
-0.01425408
0.009834862
-0.0032096028
0.019452093
0.0075825434
-0.015868692
0.017715659
-0.015336333
-0.014946765
-0.014179868
0.0034588508
0.004421998
-0.017503671
0.0077605904
0.004329366
0.0146679785
0.003033808
-0.0025911524
0.0029856756
0.019304909
-0.010214469
-0.004483133
-0.008396856
0.0015233584
-0.0047059213
-0.012769375
-0.01353719
-0.01655894
0.0017406506
-0.007157265
-0.0018661685
-0.013495626
-0.01105642
0.013716459
-0.003956695
-0.009849116
0.0014136921
0.01797979
0.0053257714
0.017882556
0.012813281
-0.0015398102
0.0018630117
0.001694035
0.01982816
0.015476516
0.009640593
0.009150591
-0.014267378
-0.016070854
0.0009112387
0.0053415718
0.0153650725
0.0026998026
0.007382437
-0.015849901
0.0115978345
0.018453378
0.014500023
0.01656731
0.007044824
-0.008739843
-0.0015950849
-0.013006126
-0.014630151
0.014144956
0.005606286
-0.0113925915
-0.007859995
0.017318238
0.006799769
0.008014193
-0.0092849005
0.00785443
0.020286793
0.014855721
0.008168845
0.013308917
0.011779284
0.0022546302
0.005367649
0.01945364
-0.009015697
0.0152875455
0.018782567
-0.012332782
0.014187193
0.009665593
-0.0065985685
-0.0030051502
0.007130152
-0.012208364
0.013039266
0.0137649635
-0.01586286
-0.009144091
0.0033240973
0.005101998
-0.006138217
-0.001718954
0.0025606072
0.018292302
0.0020792442
0.012425582
-0.0045703603
-0.020107051
0.016070563
0.0020595258
-0.016665477
0.019366192
0.0056577614
0.00262774
-0.0024396833
0.00056813954
-0.01732374
0.015386454
0.008712132
-0.015880559
0.008482497
0.013682212
-0.019420251
-0.019049019
0.012610726
0.0056921467
-0.011044748
-0.010661981
-0.018828366
0.004363595
0.004470395
-0.010156373
-0.010950806
0.0044604884
-0.0004043655
-0.004860401
0.019479051
-0.008072515
-0.01745187
-0.005513413
-0.010196393
-0.010517238
0.017068544
0.017343055
-0.01853268
0.008565815
0.011878015
0.0023635959
-0.02034093
0.008946037
0.019951295
0.02006918
0.014181397
0.010393658
0.017715406
0.008780719
0.013278291
-0.011085403
-0.0005813755
-0.016425828
0.01667202
0.005546638
-0.013618541
0.0076426133
-0.0033659905
-0.008893501
-0.014309088
0.020341432
-0.0032542013
-0.015161304
-0.0065552685
-0.017930891
0.018012822
-0.004752296
-0.010722113
0.0188165
-0.009601883
-0.014880229
-0.017007994
0.0017510772
-0.0011478525
0.0020465387
0.0018916524
0.013071285
-0.007855668
-0.008198212
0.019540228
-0.011492842
-0.008677912
-0.015854856
-0.01607157
0.01618703
-0.018382674
0.0048411773
0.015057202
0.00348311
-0.0112525225
-0.013826012
0.0007182529
0.006960631
-0.013840208
0.0092017725
0.015955977
-0.009839074
0.014049099
-0.01605503
0.0019181083
0.01448071
0.003976391
0.004006927
-0.004521847
-0.007256539
0.003422337
-0.005753237
0.006289948
-0.009447527
0.00013232691
0.0053279833
0.0056432127
-0.011106007
0.01877272
0.010008928
0.01897778
-0.01929693
0.01402593
-0.009855157
-0.017326334
-0.019879315
-0.0056838924
0.013684677
0.014454529
0.018593712
-0.00035933073
-0.016116222
-0.015625801
-0.009019265
0.013601916
0.008828246
0.012723323
-0.0006664818
-0.009672629
0.0010351158
-0.019654159
0.012499331
0.0006312663
-0.0011702408
-0.017816136
-0.006667381
-0.013319498
-0.017862946
0.0038671254
8.886075e-05
0.011652551
0.004359701
0.012800969
0.0031419876
-0.01812064
-0.016624086
-0.0063926307
-0.008734051
-0.008367205
0.0052143824
-0.003141483
0.005337901
-0.0048812106
0.012316448
-0.003511449
0.012266734
-0.0032097383
-0.010040245
0.009466285
-0.0021335913
