0.102225006
0.044928268
0.14057668
0.18601313
0.12225982
-0.18817721
0.008680257
0.05327283
-0.11320872
-0.027403042
0.17202468
0.13358454
0.04788432
-0.13751243
0.120356135
0.093101844
-0.0014995123
0.10861419
-0.10256243
0.08357937
-0.050144937
0.08427303
0.1861085
-0.12870197
0.11767326
0.065064885
-0.040202234
0.05081984
0.15114406
0.17165945
-0.11940164
0.14854398
0.12625843
-0.14085189
-0.022976873
0.11916193
0.017216178
0.03525981
-0.10926293
-0.054480243
0.18750939
0.16059735
0.14349589
0.12282925
-0.09826976
-0.015739074
-0.16910839
0.18691975
-0.10658954
0.05350689
-0.08308531
0.05454296
0.011203751
-0.12588823
0.054362964
-0.13254403
0.17844069
-0.086657785
-0.14526261
-0.06650304
-0.09436598
-0.14212297
-0.00077303575
0.12970248
-0.12633865
0.08039729
-0.063690625
0.1323789
-0.18633279
-0.08188476
-0.058626924
-0.022872442
-0.08386587
-0.15905382
-0.12956277
-0.07751363
-0.013873685
-0.16271703
0.055499423
-0.17657746
0.05443416
0.15994686
-0.08499766
0.16631044
0.061605416
0.08111545
-0.11848447
0.15885355
0.068665385
-0.061783012
0.16014826
-0.11966047
0.11132738
-0.12463219
-0.024881268
-0.18402904
-0.15301323
0.085737795
-0.16081993
-0.13436438
0.13949794
0.14337169
-0.071536645
0.07892391
0.10222823
0.17341797
-0.022408195
-0.12105844
-0.056496117
0.109748825
-0.053861104
0.11580258
0.04360216
0.025217801
0.17480068
-0.15015882
0.16178778
0.03574241
0.18349154
0.12414866
-0.17832221
0.10761268
-0.1644955
0.04814435
0.014175995
0.06342317
-0.1258821
-0.019840656
