0.016301602
0.09786601
0.04385906
-0.072737575
-0.027031118
0.013320174
0.08537626
0.019182043
0.017232642
-0.023999546
-0.027997747
0.03825651
-0.025112042
-0.016552512
0.052256044
-0.044451684
-0.10582916
-0.06184059
0.03530524
0.008147218
-0.03232758
0.033298362
0.039832357
-0.014491706
0.044142146
0.008744291
0.023203813
-0.01750128
0.011687098
-0.020889789
-0.031546228
-0.043369655
0.04224197
0.045460664
-0.022777226
0.046602473
-0.061299775
-0.011224181
-0.07755491
-0.040894866
0.11932713
-0.02411393
0.04498335
-0.022089915
-0.04578851
0.009095334
0.046489276
0.038619474
0.028704053
-0.00041473666
0.032347158
-0.049244553
-0.016231995
-0.07964205
0.04161502
0.04668258
-0.0011801486
-0.030561661
0.10868592
-0.078550145
-0.06543897
0.021972049
-0.07875131
-0.015974872
-0.031062901
0.0032277703
0.061444115
0.064176835
0.055190478
-0.0345882
0.05013457
-0.033537872
0.025373992
-0.052156996
-0.039796717
-0.034266043
-0.029909052
0.032917503
-0.0020254592
-0.004618457
0.023416996
0.033537533
-0.012104563
-0.016067753
-0.028244108
-0.014095466
-0.033345014
-0.022452584
0.10986293
0.0025742878
0.0056519993
-0.051936276
0.009928101
-0.03367551
0.10682493
0.004282029
-0.016603341
0.0109481895
-0.046781827
-0.025474852
-0.012451574
0.080065675
-0.021607662
0.03512917
-0.028570296
-0.05328091
-0.015391615
0.05385733
-0.02297127
-0.05402123
-0.00416548
-0.047895566
0.054128088
-0.049853813
-0.0059689702
-0.069257274
0.06890466
-0.023260513
0.0026445296
0.039303087
0.028119247
0.018035024
0.05212066
0.046541635
-0.04316044
0.030766746
0.042813197
0.0055340836
0.04864158
0.0259221
0.04875916
0.04549761
0.031581122
0.045017466
-0.04458679
-0.03461038
0.029406508
-0.022257816
3.4428525e-05
-0.05089577
0.02472831
-0.024782542
-0.0897014
0.0847059
0.030334245
0.09416416
0.076709606
-0.00042465286
-0.03200665
-0.019029519
0.015216918
-0.03961438
0.09173451
-0.017747702
0.011531367
-0.04204835
0.043717157
0.077518746
0.005923199
0.011983827
-0.053311404
-0.0024054197
0.053062983
-0.0014914379
-0.088916145
0.034514822
0.0064254454
0.04856676
-0.03908105
-0.013375247
0.018336195
-0.035058964
0.051527947
0.041490536
-0.07053963
0.013791549
-0.045666836
-0.012877225
-0.055867434
0.001999269
-0.054189455
0.011220575
0.011189156
-0.020000793
0.07807108
-0.009837778
0.0021779821
-0.022856014
-0.05284476
0.010012647
0.10779443
0.010161945
-0.029901791
-0.029752327
0.05422896
-0.004399876
-0.011569419
0.0073695322
-0.034251943
0.04163073
-0.022186255
-0.029736763
0.05829733
0.02344131
-0.040318
0.042002972
0.010564041
0.1624185
-0.00057963456
-0.037919063
-0.029453833
-0.0014704855
-0.010492054
0.059081677
-0.02936487
0.05213685
0.029871013
0.06599457
0.025199478
0.0084365
0.02280623
-0.026358664
5.86415e-06
0.0026649823
0.05142008
0.007956944
-0.009403261
-0.02768356
0.007088432
-0.03363103
-0.025727814
0.06315179
0.061853718
-0.05613033
-0.028152509
0.09258958
-0.036729094
0.07882299
0.0045720404
0.044112127
0.019229494
0.09661343
-0.04078255
0.04245551
-0.011406048
0.028812988
0.024254857
0.09208115
-0.018515205
-0.0012735297
0.06371576
0.027274914
0.10190155
0.05694046
-0.043805495
0.016842008
0.014988146
0.029339278
0.023740983
-0.052821986
-0.00329532
-0.025936041
-0.012474534
0.05349983
0.080525815
0.014596383
0.0072091767
-0.054048866
-0.03648077
0.05140432
-0.038544606
-0.0583795
0.013284784
-0.037621234
0.0066712815
-0.001981624
-0.034416173
-0.03084813
0.038668826
0.018677447
-0.056135908
0.03616913
0.07163791
-0.023453258
-0.044767637
0.016975872
0.017105186
0.006871119
0.011299087
0.017099308
-0.028281763
-0.010357812
0.0230016
-0.021721954
-0.081355564
0.01337925
-0.04671195
0.083061494
0.07965264
0.04720319
0.024831032
-0.06315429
-0.041448817
0.049525317
0.019320477
0.050161023
0.05668169
-0.047495067
-0.041017644
0.014191408
-0.02367705
-0.03211607
0.027334664
0.054913834
0.016051784
-0.015707523
-0.045956504
-0.038800407
0.064941026
-0.015427625
-0.025913373
-0.02901745
0.06530006
0.075343
0.0042726896
0.036271006
-0.024267407
0.03560167
-0.06418104
-0.034706
-0.015001133
-0.026641795
-0.03275422
0.10441578
-0.0020178843
0.04977175
-0.0117614735
0.01514033
-0.0065663066
-0.01520544
0.018830298
-0.0032827049
0.060843796
0.022240466
0.03951439
0.031885456
0.0056352546
-0.087717056
0.0012078348
0.10435672
-0.017005058
-0.05851465
0.013742115
-0.0015673792
0.022190941
0.053069595
-0.0005031786
-0.019844802
0.043746244
0.02465886
-0.0029796336
-0.041454986
0.009300361
0.025206529
0.05490247
-0.016352
-0.036942948
0.091947034
-0.0397143
0.0073895995
0.09828608
0.02557066
-0.0016851567
-0.015592873
-0.028292567
-0.020180136
0.004433313
0.059429403
0.06963664
-0.023088852
-0.0274713
0.014713474
-0.0035470587
-0.011939904
0.028460113
0.0056781205
-0.060434464
0.042775184
-0.03648314
0.026083024
0.0028140286
0.007980843
-0.10484859
0.04445839
-0.015743036
0.023482788
0.06022351
-0.04964737
-0.056458283
-0.036832985
-3.0262006e-05
0.04792297
-0.014871463
0.02950373
0.0102488715
0.070499726
-0.045583602
-0.031686313
-0.0440035
0.03341583
0.0015334496
0.009998087
0.0725095
-0.07513292
0.037760865
-0.032190874
-0.02109407
0.021792252
0.06830665
-0.060049452
-0.008667611
-0.08841207
-0.012271885
0.09752257
-0.0043166275
-0.073345676
-0.021719594
0.0015717131
-0.06375465
-0.0504665
-0.025684359
0.0018527712
-0.03138374
-0.07553531
0.012824901
0.005773114
-0.026113197
-0.05378779
-0.025043994
-0.027361415
-0.011656508
0.026104672
0.005638005
0.037255175
0.06894262
-0.031077536
-0.005440632
0.022326585
0.010191923
0.04418226
-0.021683406
0.052858
0.03691699
0.0020341394
0.0689646
0.0018954083
0.0005533392
-0.035317305
0.031539693
-0.028932322
0.071866766
0.07266585
0.03440557
0.028878372
0.012992603
0.0610862
-0.0034436805
0.027320726
-0.07409044
0.015043691
-0.09784092
0.013656876
-0.021354845
0.020232035
0.03137727
0.034679886
0.01823077
-0.061259203
-0.03895295
-0.0045792456
0.14414124
0.07900303
0.03989584
-0.04062244
0.030406142
0.03695611
-0.066474855
-0.0395943
-0.01700767
0.060198758
-0.051038966
0.0068749026
-0.028425084
0.0209565
0.039029095
0.052248634
0.028519833
-0.020644484
-0.024748579
-0.06873
-0.059024483
-0.042155292
-0.058757704
-0.068185836
-0.022190291
0.045088764
-0.03569654
-0.0149743585
-0.039824363
-0.017141966
-0.035695065
-0.038572814
0.060277306
-0.0531457
0.030916067
-0.08851453
0.017856142
0.046998307
0.038196784
0.017366357
-0.014938775
0.025882129
-0.048780706
0.047143355
-0.030817626
0.0473207
-0.0055489712
0.0072953645
-0.053394567
0.042657137
0.029521618
0.0072810203
-0.033192806
0.001003491
0.029693548
-0.035144955
0.016722202
0.06696636
-0.04700076
-0.016134817
0.068197176
-0.034614854
0.018566815
0.08539739
0.07578568
-0.043851484
-0.05774128
-0.06197006
0.041888192
0.036129113
0.03040041
-0.032559823
-0.025945205
0.10560056
0.011581812
-0.017812947
0.07011251
-0.03419537
0.044724092
0.0032209973
-0.058549106
-0.0037756965
-0.043910146
-0.040246386
-0.058217082
0.04040717
0.054642003
-0.01819661
0.02076639
0.06182173
-0.06728892
-0.017382959
0.028519934
-0.043260485
-0.023164624
-0.0029728482
-0.057385217
-0.015408933
0.034723952
0.0049353945
-0.010693539
-0.011755457
0.041798707
0.013233645
0.03659008
-0.00884354
-0.020529365
-0.06270467
-0.023119997
-0.0071771513
-0.022629624
0.087565355
-0.03161245
-0.06649325
0.08037748
-0.008770189
0.04429746
-0.005333063
-0.01585288
0.050840624
0.038297284
0.062451888
-0.057133783
0.027633382
-0.076763764
0.021223377
0.036656823
-0.008461132
0.016282836
-0.029664146
-0.007597469
0.0037764327
-0.025414305
-0.035978645
-0.0010099648
-0.029862242
0.053198837
-0.033880293
0.043637954
-0.03286457
-0.04307283
0.05840973
-0.015099381
0.0012005727
0.03732723
-0.0128075965
0.049890634
-0.03249514
-0.0055468893
0.049712785
-0.009050171
0.035113957
-0.017534489
-0.08592168
0.07064969
-0.0360403
0.0129164765
-0.030733718
-0.027379343
0.0906034
-0.026494388
-0.00077702926
0.035508215
-0.036567383
-0.04096541
0.052002583
0.00580969
-0.015401356
-0.067215115
-0.051478226
-0.028403953
0.011701258
0.04574882
0.012309921
0.027062876
-0.019345677
0.030952573
0.09693222
-0.023234112
0.03687674
-0.004724675
0.018855508
-0.066552185
-0.03352896
0.010070142
-0.029994218
0.0026343465
0.040320776
0.070570186
-0.01547589
0.025769124
-0.035063718
0.041674666
0.041067082
-0.013250949
0.02326887
-0.069023326
0.019370882
-0.025311522
0.050357796
0.020317523
-0.03648371
0.02365035
0.038922213
-0.026912417
0.08172286
0.051928874
-0.035130166
0.020883864
0.0074101887
0.018598584
0.029803185
0.15408434
0.03520923
-0.05022282
0.04744605
-0.04106217
0.01671512
0.010762205
0.07973691
0.07249504
0.009315417
-0.008988445
0.06822229
-0.037153568
-0.06069972
0.0029769097
0.0051388964
-0.007102153
0.0019241794
0.043373995
0.07206876
0.013325432
-0.020662857
0.05470493
-0.06200236
0.024212884
-0.045296047
-0.075174354
-0.028623762
-0.012867616
-0.020842005
0.023718698
0.0579521
-0.02877677
0.010530656
0.021724021
0.060991343
-0.055195697
0.01649518
0.04864666
0.003149869
-0.037497073
0.053557727
-0.051216796
-0.014430123
0.051924855
0.012300454
0.010601462
-0.0414721
0.035034478
0.0862384
0.0081386
0.09497087
0.07680729
-0.0069183223
0.05205192
-0.0028982724
0.0150807295
0.04139916
-0.0042701857
-0.02471726
0.048276473
-0.06633454
-0.014562419
-0.023084695
0.019834507
-0.013814529
-0.018451719
0.05261757
0.020015167
-0.0025179842
0.015420667
0.055107743
-0.0080638565
0.07957802
0.015342008
0.096725926
0.024648309
-0.024866665
0.055251684
-0.03456266
-0.06486775
-0.018179774
-0.023262069
0.0049964897
0.03557592
-0.03820991
0.011530495
0.006676511
0.027375003
0.036545828
-0.027826732
0.068688326
-0.0064574042
-0.040288508
0.01813132
0.018736916
0.004571023
0.1208329
-0.03478302
0.0009903935
-0.018354818
-0.012595799
-0.067540735
0.028599884
-0.04268657
0.032411154
0.034987167
-0.04463279
-0.010233986
0.043077447
0.039153256
-0.06866537
-0.07591237
-0.04005028
-0.039037235
0.085538834
0.06696247
0.052039057
-0.022977518
-0.058894306
-0.023599617
-0.0034264217
0.052027743
-0.055564806
-0.00085064996
0.035010047
-0.009696044
-0.053026814
0.009635358
0.01747825
-0.0019494212
0.016334113
0.0007537646
0.07641873
-0.08120606
0.016727393
-0.037794393
0.0033440948
0.04241023
-0.002056636
-0.07218079
-0.023059525
-0.019072805
-0.04798278
0.001707985
0.0063171173
-0.018804736
0.02091854
0.005884338
0.016184317
-0.04828803
-0.034970123
0.042519007
-0.05743802
-0.05127199
-0.06469805
-0.074637525
0.12266101
0.047342855
0.0729641
0.0053335256
-0.007004162
-0.02687461
-0.007987975
-0.007584713
-0.027482769
-0.06525975
0.043580472
-0.08030984
-0.0006635785
0.02108512
-0.031750783
-0.017809449
0.08146579
-0.01138096
0.004846317
0.073839754
0.045298558
0.077079505
0.010384654
0.05780084
0.033946425
0.05824373
0.012181161
0.019565089
0.0023319756
0.023487043
-0.05087411
-0.016462184
-0.050396927
-0.0467666
-0.03463306
0.07956441
-0.062342346
0.055112593
0.038467802
0.03673827
-0.051100656
-0.060331564
-0.059185337
0.029947815
0.006636076
-0.06831217
-0.032081172
-0.026227694
-0.05624037
-0.0042705946
0.06381516
-0.0013617796
0.08224409
0.09605336
-0.03676057
-0.017920446
0.0041405438
-0.05950203
0.0023186768
-0.025326008
-0.024674727
-0.043496795
-0.0022390643
0.030432237
-0.04399979
0.024857
-0.076517284
0.028538827
0.07798117
0.0028059233
0.030629871
0.021296395
-0.040434744
-0.0020014455
0.0023050252
-0.027887266
-0.026480438
0.094671264
-0.030381331
-0.030165095
-0.005169925
0.07513315
-0.029650636
-0.05255118
-0.025028275
0.057080004
0.04207364
-0.044560734
-0.01823519
-0.024454542
0.004018726
-0.011775202
0.048224527
-0.031607136
0.078781195
-0.009091955
0.0026453787
0.09131842
0.0013887008
-0.02844796
0.027317546
-0.017015511
-0.011528724
-0.06817013
-0.02023839
0.07142163
-0.00039039194
0.0012138061
-0.023017274
0.066268794
0.04593338
0.042285953
0.0067336224
0.02318231
0.040008817
-0.08052092
-0.051111136
0.007416377
-0.036243025
-0.014227391
0.00948536
-0.044250324
0.07533642
-0.056860533
-0.010723172
0.003328859
0.027572993
0.02116264
-0.01150382
-0.014645681
0.049329847
0.0303898
0.06609425
0.00054953643
-0.004506048
0.018334491
5.891742e-05
0.012303339
-0.04745905
-0.006269689
-0.0022478586
-0.045599278
0.011857439
-0.06307483
-0.02698459
-0.04296841
-0.006031409
-0.03901678
0.09439746
0.018681332
0.053279676
0.052847836
0.0079718055
-0.021554586
-0.03801174
0.039802637
0.083318934
0.0785875
-0.067218944
0.069760785
-0.06466707
-0.07240705
-0.02550512
-0.035082582
-0.062199716
0.0004014971
0.07097187
0.03429184
0.07498705
0.022085896
0.010871776
-0.012106633
-0.05960256
0.022980938
-0.04371557
-0.049575027
0.11060486
0.015754873
0.027784685
-0.07223378
-0.05279534
-0.07012518
0.021633772
0.009806254
0.046171416
0.041048355
-0.043908488
0.079638086
-0.025974015
0.05537185
0.029232638
0.028427
0.01921373
-0.049524125
-0.046045776
-0.048623238
0.013476228
-0.08302933
0.01455796
-0.07764299
-0.0055529894
0.06126478
0.03139496
-0.023097787
0.019562647
0.0150926355
-0.032325625
-0.00857256
0.06372774
0.050379105
0.040256836
-0.0015483156
0.006328744
-0.00024532076
-0.009449236
-0.060558658
-0.0734954
-0.051981132
-0.044047218
-0.022298617
0.06272543
-0.02513573
-0.0680562
-0.060795948
0.019919023
0.009437081
0.015249504
0.003057032
0.0032063357
0.043911573
0.01397262
-0.047525775
-0.05412787
0.06114549
0.033265315
-0.034810506
-0.009173242
-0.059006654
-0.010652681
0.07860657
-0.048005115
-0.037144173
-0.010534505
-0.009937075
-0.069709755
0.015575978
0.05397137
-0.013616555
-0.03467942
-0.059604052
-0.012888553
-0.014077406
0.033388123
-0.07703572
-0.061194696
-0.04901107
-0.017565152
0.042639714
-0.05326208
-0.0664007
-0.08426697
0.07859918
0.057691257
0.05712161
-0.025199521
-0.02993702
0.02225385
-0.06416277
0.064587176
-0.09800961
0.030998372
-0.010731008
-0.043996997
-0.041635796
-0.07259657
-0.025761658
0.047790173
-0.027145041
-0.045664158
-0.002213791
-0.06904786
-0.025891377
-0.040713567
0.008224028
-0.02596432
-0.0015048699
0.051530726
-0.021894222
0.064245425
-0.06741423
-0.04321785
-0.016450534
-0.086805046
-0.08527401
-0.035643212
-0.07885414
-0.08634217
-0.036558826
0.028296499
-0.049119078
0.018470272
0.101981714
-0.035038188
0.028497804
-0.023827963
0.0010258894
0.05162483
0.07397657
0.011677568
0.010171878
-0.07700132
0.026563063
-0.061847776
0.073209904
-0.080248035
0.036500223
0.02670436
-0.030012378
0.0038967435
-0.048713785
-0.06002758
0.009056087
0.022885444
-0.016779473
-0.00087665813
0.059091713
-0.06628055
0.07208066
-0.031468693
-0.00018822281
-0.03540874
-0.04653593
-0.011917629
-0.055345077
-0.075175546
0.08669554
0.023664858
0.051660966
-0.014177346
0.067400165
-0.057078026
0.10498914
-0.06485176
0.016894657
0.034026768
0.088919714
0.017726708
-0.07063601
0.0036102412
0.020578168
0.089785226
-0.07929029
0.030240856
-0.028098864
-0.008736321
-0.07651472
-0.019093351
0.0013715313
0.057637434
-0.01411707
-0.030991055
0.008111587
-0.089364134
-0.019000338
-0.025270384
0.05812024
-0.0678001
-0.021454617
0.0653588
0.038042836
0.024050497
-6.981797e-05
-0.021314029
-0.06900776
0.03250272
0.10816228
-0.0116523
0.00793684
0.014164353
-0.014468813
0.07655993
-0.029395182
0.05678433
0.039493408
-0.06701137
-0.063653775
-0.012877856
0.06992742
-0.01693914
0.11219437
-0.07622772
-0.052505728
0.045431707
-0.032158706
0.005754764
-0.016252123
-0.062277805
0.0070528043
-0.08564554
-0.10425344
-0.017019238
0.06738254
0.0054985005
-0.027399566
0.0029815221
0.105686136
-0.03435671
0.055766005
-0.0074629467
-0.038095493
-0.07987592
0.058699183
0.049862836
0.016755763
0.0058772573
0.0795876
-0.00078587444
-0.00859906
0.04548617
-0.0036625785
0.025715105
-0.025504207
0.02067416
0.014465628
0.058035098
-0.024523994
-0.035787325
-0.008555617
-0.046694715
-0.045164466
-0.083627276
-0.0066129076
0.004335018
-0.023214934
0.14077201
0.0067833522
-0.06533757
0.11117957
0.015676286
-0.05971432
0.020884154
-0.035777584
-0.0041896803
0.0033085297
-0.013819622
-0.007899244
-0.04858468
0.02991122
0.05263165
0.01466842
0.09897643
-0.006029832
-0.02548774
0.043891855
0.013793539
-0.031825878
0.09471557
0.038831186
-0.013558641
0.06745364
-0.03801426
-0.02201675
0.05661205
0.08522383
-0.01856959
0.09364222
0.09302629
-0.016309433
0.02220613
0.053023633
-0.037677083
-0.05824399
-0.03466646
-0.0002534893
-0.07046288
0.077263825
0.01946974
0.0021829163
-0.019773839
-0.05449413
-0.059735283
0.011673001
0.0822258
0.036575977
-0.043986566
0.06538892
-0.058399577
0.04614992
-0.04101083
0.0053502726
-0.04589097
0.030614717
-0.015493038
0.0741637
0.007499777
-0.018215662
-0.004997631
-0.048253816
-0.083371356
-0.029475259
0.054338336
0.060245126
0.028940288
-0.0059246873
-0.056622315
-0.040996224
0.04921477
-0.008310749
0.013283444
0.045794323
0.09357041
-0.032526366
-0.080584794
0.017334621
-0.00463835
-0.012867006
-0.061965294
-0.020974375
0.0065494208
-0.017294232
0.002186343
0.102623925
-0.0024398344
-0.00914201
0.019145066
0.04354826
-0.011579139
4.4903234e-05
-0.035523474
0.0027494975
-0.024897188
-0.045736182
-0.008426767
0.056262303
0.014275231
0.018049236
0.051199082
-0.0044524446
-0.051568713
-0.041191928
0.059577774
0.0028883917
-0.08779282
0.0052413554
-0.033276275
0.02685817
-0.07457598
-0.064890064
-0.020659557
-0.032249082
0.0048675262
0.044359267
0.008058378
-0.031971794
0.034924522
0.031240406
-0.035933644
0.004248049
0.05476415
0.016862223
-0.008763705
0.0060362387
-0.09146412
-0.08074748
-0.015337454
-0.038851876
0.061317377
0.03349055
-0.057765417
0.016180053
0.007944513
0.036205985
0.014097669
-0.10731354
0.020485707
-0.08292064
0.045703124
0.02760486
0.014791714
-0.04710335
-0.04399851
-0.004642948
-0.01072097
0.035175305
-0.0018385665
-0.0025518327
0.041262653
0.039700475
-0.03113294
-0.0657035
-0.021342454
-0.035937857
0.076843835
0.0009557922
0.003271489
0.019507166
-0.06593587
-0.046507593
0.04432012
-0.033450134
0.04204496
0.059610955
0.04660881
-0.13122249
0.015737139
0.072503515
-0.06694168
-0.019603333
0.059747767
-0.07938008
-0.069165364
-0.12176509
-0.055996325
0.0319019
-0.007733414
-0.023420606
-0.029162813
-0.048395343
-0.03069435
0.007089833
-0.102930956
-0.05765504
-0.048906576
-0.047994807
0.053096917
-0.008342087
-0.075876765
-0.038501773
0.0152854705
0.07397625
-0.058343332
0.03589094
0.03095171
-0.04373372
-0.0017080201
0.021937314
0.063341685
0.04630643
0.038040966
0.0388515
-0.031689502
0.00282951
0.0017305042
-0.0024844175
0.014962359
-0.07294184
-0.02905052
-0.030179838
0.010882355
-0.04402826
0.11678628
0.020777464
0.0446765
-0.054009017
-0.06330528
0.04129845
0.03498388
0.06402907
-0.022507114
0.025101032
0.0025858267
0.022851847
0.02822799
-0.03292742
-0.059131116
-0.014686636
0.017520126
-0.050694883
-0.013169131
-0.0049780193
-0.022598527
-0.027473802
0.08101211
0.032468792
-0.036052786
-0.04775789
-0.07008865
0.0013171767
0.041834485
-0.06653619
-0.10632507
0.06260285
-0.05784157
-0.01674527
-0.045056753
0.0010152027
0.015023896
-0.0423447
0.00096735073
-0.021458747
-0.04631858
0.048095737
0.0022847697
-0.014554571
0.04893741
-0.04796167
0.042671178
-0.082443595
-0.08695177
0.0084671
0.06907192
-0.039964266
0.00848761
0.066394456
0.031544577
0.0697878
-0.018156985
-0.020986162
-0.026610475
0.020027798
-0.0490729
0.022242995
0.009710121
-0.030553296
-0.025858944
0.012047566
0.021424627
0.019923583
-0.020533992
-0.051781703
-0.053404596
-0.015245095
-0.0315145
-0.032858077
-0.015367434
0.036136027
0.035350353
0.07185572
0.051197913
-0.044865157
0.026645012
0.011475442
0.013685978
0.037634548
0.061577916
-0.008839769
0.037862495
-0.025604896
-0.021556964
0.048042513
-0.060991894
-0.031441852
-0.014078164
0.05488202
-0.044661753
-0.0060113044
0.006848033
-0.05479201
-0.058370434
0.010283094
0.01226924
0.020585306
-0.06877439
-0.06502323
-0.05371276
0.039941322
0.013651229
0.032431997
0.007664733
-0.056325037
0.0077953753
0.03658922
-0.037208986
-0.011821557
-0.023635168
0.017505191
-0.049180232
-0.05375985
-0.04795937
0.054439977
0.030332256
-0.046656787
0.074354626
0.02450447
-0.003553909
-0.007504325
0.08889551
-0.008195972
-0.0011026989
-0.018827766
0.07185654
-0.058138806
-0.0010061786
0.01473751
-0.038506955
0.06333399
0.014778216
-0.05535466
-0.030628722
0.0982754
0.023307728
-0.014848153
0.0054029003
0.06474932
-0.011263167
0.07433421
0.018654566
0.027005587
-0.01773668
-0.020684524
-0.024887292
0.03642553
0.033108167
-0.050447326
-0.03516736
-0.008302732
-0.0870271
0.03565215
0.083221264
-0.013663964
-0.013744359
0.0106122885
-0.03210603
0.02040773
0.0005353809
-0.017387142
0.010672891
-0.03374334
0.047323026
-0.026292827
-0.012092745
0.041218147
-0.037170738
-0.0064055137
-0.039095838
-0.054974727
0.04469404
-0.027661042
-0.022633629
0.033283956
0.027129637
0.057074256
0.021619603
0.03942961
-0.020576324
-0.012965166
-0.027909052
0.06623482
-0.009223369
-0.02669061
0.06864172
-0.0036505405
-0.012101039
-0.038839515
-0.015814835
-0.04444768
-0.020149937
-0.024654198
-0.012923575
-0.074770086
0.009847248
-0.069665186
0.016912425
-0.04500835
-0.023738805
0.00351494
0.0052631777
0.029363556
-0.0066898977
0.0201039
0.031047015
0.010522403
0.0035800568
0.052910358
0.037424248
-0.0042786924
-0.019924719
0.055749178
-0.051354475
-0.030531257
-0.05791868
-0.052431695
0.050334252
-0.042707756
0.023778602
0.041555766
-0.048480365
0.0332329
0.02548504
0.023308633
-0.06457564
0.013919995
0.0029971332
0.027506787
0.03737674
0.027454816
-0.06664225
-0.055877227
0.08096662
-0.01587992
0.023268895
0.08431833
0.028525913
-0.009472503
-0.071217746
-0.010916488
0.100912884
-0.056839705
-0.029352635
0.03600223
-0.0060828864
-0.009741041
-0.018413572
0.013315173
-0.039445795
0.019917885
-0.009430515
-0.06271142
0.060249865
0.03679113
0.015103009
-0.077706985
-0.0067631863
-0.044401884
0.016134406
0.02470654
0.044561397
0.034301914
0.04187911
-0.062289335
0.08492354
0.049145937
-0.05261653
-0.00022830343
-0.035006758
0.07373129
0.013002443
-0.03265689
-0.041202568
0.058127575
-0.0704703
-0.058302358
0.068196975
-0.033817932
-0.015632221
-0.01882352
-0.0012915768
0.05561941
0.0669216
-0.003941158
0.043846823
-0.011341499
-0.009143989
-0.059577126
-0.04178606
0.013622457
-0.036646493
0.017929558
-0.009687602
-0.016106002
-0.042883582
0.00863621
0.06278472
-0.00731315
-0.015846565
0.018884644
-0.027674472
-0.030391112
0.061743088
0.03935498
-0.048558265
0.04387623
-0.023549875
0.020546457
0.058491547
-0.00047645002
0.028496752
0.07087954
0.03241939
-0.06224856
-0.007263013
0.032534294
0.046769753
0.021843247
0.04792386
-0.04038468
0.02293244
0.000674952
0.0018764642
-0.013088562
0.05389402
-0.016246725
0.022042261
-0.017065272
0.018163066
-0.075661406
-0.01891151
0.03448947
-0.016892575
0.0696982
-0.08247986
0.039161842
0.008476194
-0.035158046
-0.05673842
0.021371989
-0.023802549
-0.011144793
0.01059405
0.038532212
-0.049634214
-0.0458527
0.055999774
-0.05096348
0.037485015
0.0430342
0.055261154
0.010953202
-0.045440942
0.04669664
-0.018357245
0.011876169
-0.03344022
-0.0073761637
-0.027338387
0.06327389
-0.037472058
0.08114785
0.012151089
0.046601404
0.00012571368
0.026281184
-0.000593389
-0.0051067444
0.03091032
0.058664273
0.00056619686
0.047845308
0.04262465
-0.023178674
-0.025723716
0.03785401
-0.0070087733
-0.034557693
0.070279956
-0.021993967
-0.0636489
-0.020521795
-0.024518091
-0.047749482
0.028416742
0.042529456
-0.041652292
0.0147564
-0.014165064
-0.018449519
0.03354053
0.020559307
0.010580551
0.02803624
0.058452986
-0.04967504
-0.02901498
-0.022733256
-0.038743135
0.094785124
0.059682384
-0.025040187
-0.00082067214
0.0047673625
0.036676627
0.02967616
-0.014628642
0.021656668
0.0052776416
-0.051301286
0.033391155
-0.01934323
0.056468233
0.016854102
0.014155335
-0.037063014
0.0048668566
0.06400444
-0.035388697
-0.015214075
-0.028536296
0.027407732
0.028424546
-0.044068217
0.05336711
-0.037083406
-0.018669592
0.015876744
-0.024674803
0.042278465
0.042065363
-0.003266003
-0.00778059
-0.034545682
0.021501599
0.023636471
0.058350444
0.029406728
0.05192441
-0.0005785979
0.06898965
-0.0011223123
-0.051985953
-0.063961826
0.015764413
0.040419362
0.02929563
-0.035741333
-0.026258137
-0.05497838
0.047236025
0.028962843
-0.034212764
0.024865258
0.014474318
0.02937406
0.045031216
0.012834852
-0.03469318
0.045233037
0.01343631
0.02212644
0.026835818
0.026326343
-0.035719596
-0.012082761
0.03436554
-0.064478025
0.003945509
0.034195878
0.025761245
0.007872285
-0.021994649
0.007610413
0.010105524
0.01972514
0.028620098
0.09144626
-0.0030498498
0.030411465
-0.047196135
-0.0051690876
-0.0905084
0.01908853
0.013487584
-0.060263276
-0.02764023
-0.05565074
0.05348093
0.029015072
0.03688004
0.05046331
0.029364511
-0.019873096
0.0026914228
-0.026276285
0.055625584
0.053032566
-0.0070653805
0.035993673
0.023450075
0.0121384
-0.045843996
0.011720746
-0.020709159
0.00077862706
-0.0116629405
-0.0037448497
0.057256743
0.045528404
-0.02858382
-0.0319903
-0.005763696
-0.005974429
0.058057662
-0.017122757
0.012758775
-0.020707157
-0.042783108
-0.00013295842
0.024417058
0.003320446
-0.07957023
0.022703653
0.07535229
0.05462513
-0.021062195
0.03376755
-0.056871995
-0.02512916
0.07745886
-0.0149162235
-0.007920722
0.05139697
0.045787334
0.036937222
-0.04401561
-0.02683235
-0.025907712
-0.014619875
-0.06504648
-0.004366713
-0.033425093
0.0019600026
-0.03927573
-0.040781975
0.09490448
-0.015026827
0.07072683
-0.009249281
-0.082702875
0.06678278
-0.059243124
0.15596153
0.08288127
0.047996745
-0.038030587
-0.06795668
-0.004455395
0.0061749653
-0.10261236
0.070589624
-0.01252511
-0.00985757
0.05579521
-0.06426694
-0.0012582632
0.0010909145
-0.044626296
-0.032482136
-0.021909228
0.06723541
-0.055964947
-5.542369e-06
-0.0275062
0.09954238
0.05166035
-0.032041132
0.03322738
0.08961043
-0.008127215
-0.017611101
0.0115496125
-0.026196284
-0.0053295894
0.034281086
-0.009892475
-0.027447423
-0.08055128
-0.020459931
-0.0664076
-0.06351311
-0.064627156
-0.04012545
0.043341488
0.09728344
0.030572144
-0.006914443
0.10231254
0.057739083
-0.034367315
0.0453225
-0.07118469
0.0052181934
-0.029314179
-0.0049571036
0.111471444
-0.05053029
0.080147654
0.017210148
-0.010947746
0.011582929
0.025692442
0.0028672116
-0.009677906
-0.0003013899
0.007535923
-0.031602222
0.065378144
0.0354827
0.08584484
0.0055911355
0.006930002
0.083398126
0.10752455
-0.04842744
-0.03391311
0.06326687
-0.014704541
-0.04368338
0.024992205
-0.017905261
-0.025095912
-0.0667709
-0.0151457945
-0.042921036
0.015968962
0.034290053
0.01289581
-0.039976384
-0.022743993
0.019503733
-0.015959818
-0.010666701
0.06859264
-0.022694536
0.054072708
-0.06762737
0.036132935
-0.0488585
0.0245091
0.061589904
0.024238255
0.026860217
-0.034921665
-0.0060574044
-0.09315715
-0.037756186
0.11069782
-0.008361774
-0.023262238
-0.024838809
0.010431685
-0.01289405
0.06338819
-0.021931937
-0.012699544
0.09983523
0.06269135
-0.04192215
-0.032610416
0.11147596
-0.04236029
-0.027553739
-0.059858143
-0.10793175
-0.014630377
-0.021691594
0.061294135
0.066353105
0.04858899
-0.044058505
-0.04144399
-0.028946739
0.008262658
0.05011468
0.0066463565
-0.016647292
0.010893279
-0.060124807
0.064694375
-0.03379128
-0.015010233
-0.0005619225
0.038040187
-0.021097107
-0.02865287
-0.03602664
0.029844394
0.016971262
0.04236294
-0.05148395
0.0246823
-0.06590391
-0.05706196
-0.012639278
-0.009489273
0.03523484
-0.04938412
-0.086183384
0.0533105
-0.004101087
0.028700087
0.018425422
-0.06515326
-0.029997068
-0.055812255
0.048530582
-0.0022502039
-0.06870502
0.0733186
-0.022585202
-0.0092406785
-0.03490718
0.01959792
0.046885077
-0.075454526
0.021432763
-0.0383256
0.09652021
-0.010765224
-0.020624204
-0.059904348
-0.08631241
0.010694616
0.010008194
0.036266018
0.005699818
-0.07182564
0.11076449
0.029324764
-0.063003674
-0.09138475
-0.020621136
-0.074627526
0.026743772
-0.058685377
-0.03336849
0.00467596
0.10394684
-0.073184766
0.015056143
0.0010554014
-0.036096368
0.010650851
0.01261347
-0.06633469
-0.032260347
-0.03058193
0.0700483
0.050297692
0.06260043
-0.047951423
0.027506135
-0.08007084
0.032494698
0.16976188
0.0875601
-0.036322337
-0.04840572
-0.029018404
0.013064281
-0.06511609
-0.053642243
-0.053491294
0.009728954
0.020767758
0.0037187578
0.0020958898
-0.030021433
-0.09113572
-0.0146327885
-0.0561504
-0.0020180896
0.0534839
0.0440922
0.039983492
-0.029160371
-0.025966765
0.056654938
-0.04557747
-0.051260874
0.0074993363
0.031502943
-0.023969911
-0.03214799
0.013004249
0.033097398
-0.04914318
0.0549185
0.02848011
-0.07513757
0.08097332
0.046847764
-0.011100068
-0.046521
-0.030628193
0.010270392
0.024879934
0.0333495
0.050393283
0.051218253
-0.019113401
-0.034542494
0.001371262
-0.042268615
0.02514586
0.11011814
-0.02135566
0.075792864
-0.026203442
0.014867224
-0.03487504
-0.044613086
0.04353643
0.06452597
-0.021180227
-0.016089918
-0.03116618
0.006562789
-0.09470689
-0.012668941
0.00854466
-0.04162166
-0.013305477
0.02980709
0.08765756
0.044661827
-0.013758642
0.014582439
0.017889377
0.010433803
-0.037012592
-0.09745877
0.085289165
0.026765749
-0.05538729
0.04542342
0.010670091
0.007429189
0.040325988
0.013885891
0.07455082
-0.05974971
-0.017753523
-0.009343653
-0.0027879796
0.09692616
-0.016692929
-0.06887188
-0.06343155
-0.09700109
-0.0217311
-0.0081156725
0.019495837
0.10555318
0.034694027
-0.048146516
0.045797735
0.029026285
0.065165736
0.06180735
0.025592104
0.035968848
-0.022682885
-0.035808045
0.02671186
-0.0015907504
-0.0384617
0.037543382
-0.06638003
-0.03590106
-0.011841625
0.07492722
0.054928586
0.027519677
-0.030022709
0.014766274
-0.082954295
-0.005064265
-0.016873136
0.07963298
-0.05768496
-0.0052502477
0.0055049383
0.026153216
-0.044969153
0.0033203748
-0.045688562
-0.07973191
-0.02647227
-0.08134141
-0.007072685
-0.051289383
-0.059907984
0.013964315
-0.0041237734
0.016865076
-0.06434929
0.036872342
0.08513869
-0.027398428
-0.035574604
-0.03355859
-0.0048171147
-0.021213314
0.0769332
0.014951684
0.002134674
-0.06997979
-0.01280765
-0.062970236
-0.047034975
0.051322382
-0.033868987
-0.076799765
-0.020796003
-0.0644292
-0.017814817
-0.0316149
-0.056171633
0.048740122
-0.024780815
0.022077382
-0.0541319
-0.015645418
-0.057994064
0.050932225
-0.05758748
-0.023379188
0.070369594
0.054341167
-0.0030459508
0.00048780037
0.030660251
-0.02842888
-0.0147704035
-0.029860377
-0.033890873
0.06856028
-0.04306368
-0.012518241
0.00028955846
0.059183642
-0.039503448
0.003977335
-0.042070463
-0.07493432
-0.021783529
-0.046142682
-0.005545449
0.087054536
-0.01851518
0.0591485
-0.013619415
-0.038856413
-0.058995437
0.017082673
-0.014626169
0.023410194
0.09797525
0.0039240634
0.06387146
-0.03359123
-0.034871534
-0.044744976
-0.06450173
-0.015670063
-0.044297114
0.06753642
0.008920517
0.03499113
-0.046242777
0.04424201
-0.03315631
0.015430238
0.06647891
0.01540007
0.005673198
-0.06286005
-0.015205261
-0.049312316
-0.06831299
-0.038778752
-0.021722494
-0.0045603006
0.05620279
-0.030035809
0.0014989716
0.05861989
-0.02303207
0.013449841
-0.061202593
-0.013363804
-0.030559463
-0.0046493956
0.082989104
0.031146567
-0.059553497
-0.02455449
-0.06641478
0.031175414
-0.052621774
0.0046986444
-0.021525111
0.018773565
0.09012374
-0.04140398
-0.075359814
-0.039823867
-0.0067890803
-0.06439155
0.06222427
0.06970539
0.07742071
-0.011238779
0.045067716
0.06823534
-0.0014679962
-0.009871735
-0.08839892
0.0009364606
0.027225364
-0.03394458
0.11331935
-0.025738314
-0.036220584
0.0023205199
-0.046127968
0.021615881
-0.0065731225
-0.063393116
0.08956384
-0.0361508
0.007280192
-0.017361153
0.001363433
-0.045936957
-0.016228495
-0.04289748
-0.028534904
0.054931115
0.022584898
-0.0713171
-0.02729553
-0.029321048
-0.08767796
-0.0680151
0.029895796
-0.092582196
0.063027
-0.08858311
-0.04160814
-0.06596234
-0.038174346
-0.07909722
0.0020975051
-0.08464601
-0.03773758
0.0028716729
-0.017661981
0.0427381
-0.050426986
0.023841383
-0.07180327
-0.0068163765
0.0947739
-0.10277445
0.026641471
-0.01721407
-0.04744474
-0.02990927
0.044934474
0.057246316
-0.004876536
-0.035479613
-0.04030567
-0.108510144
-0.019576069
-0.010664024
0.05582003
0.00041596298
-0.0234013
-0.058893103
0.015931122
-0.099062875
-0.08187384
-0.08199665
-0.003496964
-0.03416914
0.060604393
-0.01540325
0.009474801
-0.070980504
-0.08284225
0.09833334
0.03443727
0.018113663
-0.0071346187
0.036240038
-0.08244382
-0.021667177
-0.03606943
0.008159915
0.039403424
-0.049316622
0.020587085
0.0015607001
0.025586484
0.08726932
-0.076605
-0.0068853158
-0.06291474
-0.08258247
0.030583568
-0.031444464
0.018455451
-0.06594602
-0.040237147
0.0350985
0.0035128316
-0.029416291
-0.024397496
0.10558641
-0.04807801
-0.07804806
0.037842646
-0.011428195
0.049931176
0.038373437
0.08282845
0.005880331
-0.026456
-0.035573825
-0.018542103
-0.07119858
-0.024027249
0.059442237
0.02162524
0.01266473
-0.029808227
-0.028193785
0.017231753
0.042811632
0.031156683
-0.035698943
-0.10000618
-0.009759812
-0.107158504
0.005864217
-0.026878806
0.021351576
-0.019765548
-0.026825475
0.0072120894
-0.044374738
-0.017495286
-0.0035260706
0.021693947
-0.012656242
-0.057922576
-0.048353855
0.08564382
0.045934677
0.011948354
-0.01466917
0.039070655
-0.022413442
0.009166964
-0.03361415
-0.06425209
-0.0066659926
-0.05927661
-0.034937188
-0.12423347
0.020407053
0.049244698
0.04097553
0.0042057987
0.053457353
0.020765765
-0.02753345
0.001932193
0.033409588
0.08519879
0.08797464
0.0227863
-0.017712982
-0.10606163
-0.08607788
-0.030788384
-0.0052751396
0.038711328
-0.025454199
-0.040504888
0.010875636
0.022708066
-0.080053195
8.983834e-05
0.015246261
-0.008157593
-0.07407116
0.035627052
0.08728904
0.08002518
-0.021901447
0.03645105
0.06945387
0.037781194
0.062026963
0.069658965
0.016134901
0.009903638
-0.104515016
-0.05988927
-0.13959403
-0.060971383
-0.002995515
-0.096365236
-0.065324225
-0.001916825
0.02931018
0.0055428175
-0.01647905
0.09158729
-0.023915198
-0.059504814
0.026529793
0.024530336
-0.00292806
-0.08538502
-0.07022855
0.027051171
-0.057288527
0.112468384
0.0064580934
-0.031658396
-0.06638441
-0.039954938
0.048800133
-0.01763153
-0.0076101753
0.056875724
-0.020997701
0.024210522
-0.07051577
-0.0048539555
-0.072215915
0.05078461
-0.0539983
-0.054160167
-0.081551775
-0.08891652
-0.06806211
0.054816075
0.040938534
0.054139316
-0.020159507
-0.005691835
0.033156972
-0.026303913
0.005760262
-0.009464533
-0.12861045
0.010596915
0.0068609444
0.024692893
0.071699396
-0.065583624
0.032622106
-0.05198564
0.04067059
-0.05940359
-0.017443165
-0.049766447
-0.06870316
-0.09048535
-0.0031985461
-0.0128525635
0.0037895003
-0.093235515
-0.072589725
0.054815996
-0.034204476
-0.065163404
0.0037326738
-0.059943188
-0.033405624
-0.01601555
-0.049537007
-0.004295222
-0.041642793
-0.033892047
0.051160138
-0.02101342
-0.114368446
-0.09529127
0.003168045
-0.05828373
0.021086095
0.026199654
-0.120614894
0.050881952
-0.035140764
0.008132482
0.025587989
0.076080084
-0.03002662
-0.08424209
-0.12053234
-0.03618008
0.05579753
-0.04985391
-0.014557799
-0.09403659
0.09287854
-0.03887305
0.012743571
-0.06927155
-0.013299976
-0.04043939
0.023393821
-0.08919307
0.023180233
-0.06478931
-0.0011016418
-0.108641334
-0.04891073
0.015523388
-0.059438452
-0.046924755
0.079968505
-0.032932777
-0.06757027
-0.055188283
0.009154468
0.0109404465
-0.09489942
-0.09049382
-0.056465525
-0.033025276
-0.007834245
-0.013107098
-0.057764687
0.09742322
0.0007646756
-0.008275808
0.040384054
0.048941802
0.03433576
-0.048085067
-0.07164841
-0.04934757
-0.090444334
-0.009608677
0.013582373
-0.09903455
-0.015436423
0.015127014
0.035473604
0.011110114
-0.0061295056
0.023614362
-0.01978538
-0.041012503
-0.07721769
-0.018772125
-0.08049138
0.095467255
-0.04577191
-0.043005846
0.042867396
-0.09960262
-0.015686419
0.022195369
-0.02558012
0.07987999
0.0284717
-0.023095125
-0.027145727
0.025192998
0.025390731
-0.004342698
-0.09240633
0.017105283
-0.07355765
-0.023647653
-0.016963998
-0.031304583
0.0160922
0.08714155
-0.0654168
-0.0031310318
0.052013684
0.03865501
0.041624013
-0.05232559
0.12126038
-0.06598558
-0.032382295
-0.0075553153
-0.072243005
-0.053006288
-0.0160756
-0.042905807
-0.028899498
-0.033565186
-0.010155199
-0.029787818
0.09922567
0.0488089
-0.053892978
-0.05582868
-0.044240642
0.008921279
-0.06964654
-0.027094426
-0.019137047
0.029612232
-0.06703988
-0.06288972
0.06835248
0.097299755
0.04036727
-0.043567944
0.027976256
-0.07221634
0.019944137
0.020084571
0.050332177
0.08783584
0.008518715
0.057198375
0.104074754
-0.07102142
-0.057611477
-0.015641747
-0.037271794
0.0057421667
0.08256811
0.04472014
-0.025860995
0.048832662
0.0067959414
0.04484086
0.018199934
0.042840112
-0.05167766
-0.008892203
0.008747055
-0.06924095
-0.028828647
-0.043897286
-0.04778949
-0.04817178
-0.039444942
0.02113823
0.088329956
0.026018813
-0.07492208
0.037950937
0.039673436
-0.047601838
-0.09626467
-0.007877975
-0.112722576
0.028215185
-0.029410936
-0.079041615
0.05053064
0.011675756
0.01308456
-0.08289303
0.056851193
0.00079221907
0.02376494
0.009055943
-0.036010336
0.09586719
0.08189259
-0.08090778
0.09367057
0.09782273
0.049858954
-0.08477697
0.032263312
0.064301215
-0.09360586
0.04219762
-0.061830487
0.06917363
-0.02901368
-0.066786885
-0.016282544
-0.08206614
-0.042326566
0.023876673
-0.034010913
0.027231006
-0.046350185
0.007152162
0.07200421
-0.008146483
-0.07627802
0.010782069
0.016149743
0.035963215
0.052703794
-0.081986986
-0.01010708
-0.007990188
0.043619655
-0.09702027
-0.024908073
0.022785004
-0.02118013
0.031500358
-0.029220056
-0.07057847
-0.032220207
-0.034787744
-0.009937917
-0.07286084
-0.041615803
-0.009255773
-0.06225385
0.0033676105
-0.018417465
-0.039744787
-0.04955246
-0.086764686
0.018649483
-0.07458543
-0.012986946
0.023946352
-0.05153784
0.024362274
0.045590803
-0.041873857
-0.06529033
-0.02507431
-0.0008160446
0.0057781395
0.06814038
0.022430437
-0.016929606
0.0319415
0.04337933
0.01737394
0.015793834
-0.0246646
0.0003048046
-0.07586969
0.046027645
0.045671176
-0.076992944
-0.021584056
0.06791347
0.06272265
0.0050991103
0.01479381
0.04703768
-0.041165993
0.0327874
0.025721489
0.012129393
0.01760378
-0.023929654
0.021544907
0.04647447
-0.03660604
-0.045832943
-0.03676745
-0.040403288
0.022241883
0.06805625
0.024677759
0.013594749
-0.028974408
-0.014875701
-0.03198139
-0.019387782
-0.010710859
-0.012978577
-0.029367063
0.042556733
-0.006870859
-0.04480428
-0.06282574
0.036558602
-0.007063443
-0.008346819
-0.053716462
0.08201457
-0.019552564
0.065808
-0.008036266
0.03234493
0.05318879
0.09338319
0.08178081
-0.005298129
-0.007674355
0.03527338
0.04845269
0.037109256
0.056986164
-0.028821874
0.014226
-0.024451468
0.008412778
0.02577989
-0.007557826
-0.026851062
0.044803318
0.064040765
-0.046030425
-0.046736356
0.0055474127
0.042109884
0.047508802
-0.0016051872
-0.035887886
-0.01496808
0.016136723
-0.008763432
-0.013436924
0.059792716
-0.014848448
-0.015159552
0.04962496
-0.04249902
-0.017967498
0.01676274
-0.00067057036
-0.010889276
0.013524141
-0.027298307
-0.005728929
-0.073277526
0.0030110173
-0.042116705
0.036470164
-0.0013379032
-0.05354155
0.022234058
0.061226595
0.007704512
-0.027359433
-0.017479818
-0.05018416
-0.027744312
-0.05877397
0.013671133
0.07019286
0.05310446
-0.0631755
-0.009971888
-0.012196779
-0.004481653
0.06576115
0.017409781
0.0028078873
0.056759514
0.083892815
0.02421669
0.07589105
-0.031940877
0.027713347
-0.010259627
-0.022892242
-0.00299731
-0.011473597
0.03725499
0.0074329153
-0.0016932536
0.0015030701
0.0679796
0.030797878
0.023459185
-0.05957663
0.048386987
0.06554415
-0.013888766
0.02495458
0.016088465
0.05010254
0.037425954
-0.0061047673
0.02989506
0.043918893
-0.06770066
0.023331286
0.005533291
0.028047955
-0.020276729
0.062196303
0.04342246
0.010151197
-0.046413735
0.0037796085
0.05580634
-0.01729789
0.05910763
-0.017047513
-0.021057745
0.016776484
0.016789315
-0.009540869
-0.015792662
0.023567786
0.036167238
-0.017414587
-0.009355078
0.038247265
-0.06503939
-0.0048670545
-0.07563382
-0.04413511
-0.039864473
-0.0232522
0.0071805017
0.0019134247
-0.014603966
0.014220155
0.048302863
0.038292587
-0.024730662
0.020384017
0.055627085
-0.0072274017
-0.023693882
-0.0014922929
-0.063520305
-0.006272902
-0.02274946
0.013604682
-0.05943152
-0.03871557
0.022292618
0.057773855
-0.019020833
0.032771602
-0.011553087
-0.02317048
-0.03927519
0.03450217
-0.033022452
0.034523107
0.02351708
0.0011130454
0.058636658
-0.021038486
0.015740784
-0.03561737
0.0398827
-0.009715991
-0.013960644
0.052250657
0.020662624
0.038877066
0.008843624
-0.02512168
0.0036873592
0.029875884
-0.06302409
-0.019552208
0.0031457648
-0.007110013
0.003825323
0.04272629
-0.0078054755
-0.053477775
0.07460228
-0.008657948
0.08785073
0.011916076
0.02092059
0.05795727
-0.06487013
-0.025606606
-0.052734707
-0.010654746
-0.028504925
0.050254863
0.057595734
-0.034621116
-0.023725923
0.049131237
-0.00085518975
-0.030552981
-0.023002516
0.09015302
0.075702004
0.005029825
-0.031875793
0.010632586
-0.0064878417
-0.010674725
0.037198756
0.0022509915
0.03769224
-0.044399083
0.07333204
-0.033438824
0.02135036
-0.08828544
0.034192007
0.06352494
0.09879171
0.07249828
-0.013907206
-0.010951477
0.032347634
-0.008112624
0.04130911
-0.049262676
0.057370935
-0.022669988
0.00087843573
0.09346469
0.012873244
0.01722355
-0.047702625
0.054128524
-0.018366994
-0.023677919
-0.03134911
0.04326378
0.01415675
0.052718963
-0.034356885
-0.01785277
0.024352605
-0.049923617
0.063145794
0.0038194647
0.019993102
-0.027725829
-0.0020496116
0.06417051
0.023141278
0.034147784
0.06455526
0.01468437
-0.0039012444
0.09823145
-0.010153611
-0.079532266
0.08473223
0.00991245
-0.025296884
-0.027448356
0.057889655
-0.0503555
0.033118997
0.031745534
-0.018951219
0.062576555
-0.031080633
0.03220865
-0.0131678255
0.027616853
-0.07039729
0.075443886
0.04413506
0.008689529
0.07575063
0.10183296
0.031278074
0.026774518
0.0010135501
-0.010514497
-0.007896442
0.04431245
-0.024062643
0.05004697
-0.0413746
0.02620086
0.026254151
-0.00029789968
-0.02140974
0.056984425
-0.042635854
0.06922662
0.0050762547
0.03734632
0.0025797703
-0.07453921
0.016029568
0.046852704
-0.02214576
0.02550533
-0.0032826154
0.046987813
-0.03665252
0.027321631
0.048786253
0.051589854
-0.031525597
-0.02711496
-0.012134505
0.04793521
-0.0078090224
-0.044436447
-0.03903843
0.0075097345
0.04543839
0.10219336
-0.04598232
0.04089547
-0.005396659
0.045270685
0.057644103
-0.013596176
0.0007159733
-0.03224627
0.021250613
0.022619886
-0.037679564
-0.001354459
-0.036664072
0.048359018
0.086222865
-0.004212713
0.025742937
0.004335998
-0.0005594262
0.05353582
0.03554034
-0.0028955042
-0.013399521
0.0021529777
-0.064486034
-0.072286874
-0.038725693
-0.051142953
-0.0056056585
0.01864439
0.011832457
-0.0072490415
-0.013205732
-0.031479266
-0.043519262
-0.050300233
-0.038475085
0.056288812
0.03310361
0.013771704
0.007407701
0.05980472
-0.028068705
-0.040704798
-0.037260078
0.03108193
-0.051723756
-0.08197408
-0.019225482
-0.05693155
-0.041093323
-0.039296355
0.024961947
-0.04644852
0.0335747
0.024490405
0.013561712
0.051898688
-0.00019268505
0.011358491
-0.030197436
-0.028487649
-0.0009558307
0.028035937
0.030636797
-0.035702657
0.022275006
0.091846086
0.0010963179
-0.032305952
0.10550533
0.03552093
0.06008263
-0.020258022
-0.050445456
-0.024282536
0.019544324
-0.0459091
-0.036103293
-0.05260648
-0.041705187
-0.049844224
0.009142037
0.05282699
0.03052826
-0.020851178
-0.038140804
-0.009465435
-0.05518085
0.03453185
0.07865508
0.05052099
0.085302114
0.008766045
0.037383363
0.013640066
0.026059968
-0.053605113
-0.030635834
0.01982343
0.037212417
-0.05947193
-0.021299524
0.08784606
-0.04747979
-0.04598291
0.037593435
-0.018849527
0.016966635
0.03669437
-0.025306169
0.0053761206
0.006302793
-0.024022166
0.03694468
0.011030852
-0.00880971
-0.03823625
-0.017085336
-0.0364852
-0.041542947
0.02661182
0.041142244
-0.013698969
0.008342518
-0.037854657
-0.037688885
0.021970853
0.01683789
0.0210905
-0.043666266
-0.013097668
-0.0012488093
-0.03773873
0.033137213
-0.0020955505
-0.03907685
0.023138937
0.044669945
0.0007195
0.017649217
0.015997663
0.07217405
0.009221193
0.017413588
-0.064254016
-0.054461095
-0.016858118
0.031944152
0.0134062385
0.058385715
-0.011100501
-0.040361956
0.05082491
-0.02052835
0.016710747
-0.019975154
0.031061616
0.04666516
0.07465674
-0.07681413
-0.05569073
-0.0008024022
-0.053473752
0.016623646
-0.024802085
0.04842666
-0.036917772
-0.008299436
0.025235498
-0.014166766
0.06828566
-0.0006180074
-0.0115784835
0.054859646
-0.00045751093
-0.0019812614
-0.046077438
-0.07601072
-0.067898564
0.0669479
-0.06576733
0.007804782
0.03154094
-0.04100804
0.0325471
-0.017000504
-0.048931714
-0.056431692
-0.018540418
0.030657519
-0.049200162
0.023237515
0.05584248
0.06916447
0.05821243
-0.047196914
-0.041614775
0.05456576
-0.08463027
-0.020046646
0.079751134
0.016256943
0.04888359
-0.07050612
-0.07167002
-0.033738896
-0.012044676
0.022719566
0.003297773
-0.0049964543
-0.025703963
-0.038097806
-0.046830505
-0.005293351
-0.034482267
-0.077247806
0.04909468
-0.03480979
-0.046203263
0.034315784
0.08733131
0.047147557
-0.02608919
-0.039397296
0.0017473046
0.04635163
0.00075609225
0.014963138
-0.012106552
0.07418822
-0.007425744
-0.1096155
0.06089285
-0.06507307
0.09777366
0.022924295
-0.05006445
-0.038714662
-0.0017605971
0.048449
-0.016850185
-0.049571406
-0.030749435
0.00311901
-0.0033849606
0.015359318
-0.048289385
-0.014173549
-0.016659224
0.055930953
0.034197066
0.05815572
-0.0059020454
0.012951936
-0.05375636
-0.014079434
-0.008901821
0.015952652
0.017112793
0.12207041
0.05680573
-0.054740217
0.023890097
0.012049913
-0.04438728
0.018382272
-0.06381947
0.01337012
0.065905176
0.056224477
-0.06561457
0.06516436
-0.020499514
0.017821074
0.03417569
0.06120114
-0.014246778
0.054032877
0.011137098
-0.038734075
-0.022788908
-0.0566647
0.029429205
-0.048900615
0.087418884
-0.058274034
0.025868114
-0.022758061
0.08920003
-0.012745776
0.046794254
0.043121405
0.04207033
0.08419857
0.041420996
0.016034508
-0.068498984
-0.012264496
0.018445648
-0.060691223
-0.038979176
-0.042860366
-0.029824525
0.021401096
0.02760178
-0.059443362
-0.0352869
0.110840656
0.07985606
-0.01305921
0.07268972
-0.050545488
0.009751405
0.00856065
-0.011021825
-0.0068536787
-0.05882522
-0.0036717707
0.014532569
-0.030048411
0.010974467
0.0120165525
0.050379053
-0.071985185
-0.070534274
-0.044642568
0.007869712
0.069923274
-0.018509692
0.07703815
0.080423556
0.045351878
0.026072148
0.020910364
-0.053031184
0.048282485
-0.033266596
0.0972204
-0.070929736
-0.01906636
-0.020104716
0.01692095
-0.035277836
0.09498106
0.095314644
0.058556557
0.021995502
0.01595896
-0.023701476
-0.038542923
0.06277473
-0.027679997
0.040370528
-0.0069114263
0.0950856
-0.07525514
-0.08057605
-0.033505972
-0.011268126
0.007765548
-0.025844725
-0.016855236
0.010149506
0.014761336
0.049246922
-0.006633401
-0.0651116
-0.022828043
0.042084556
0.11616977
-0.040252946
-0.07462789
0.0682351
-0.07430927
0.055889264
-0.022762682
-0.027741728
-0.030001042
-0.04808138
-0.037452295
0.006873676
-0.040599298
0.10175484
-0.07200013
0.048520427
-0.0011657738
0.059206046
0.04754997
0.023196602
-0.03177115
0.0037756609
-0.051686544
0.00949743
0.0051393183
-0.06070695
0.042473454
0.011536995
-0.04048974
0.00840673
-0.010785861
-0.051842026
-0.004065352
0.058541194
0.09924144
-0.05045733
-0.07812586
0.04696241
0.079243995
0.07292828
0.033192296
-0.056717508
-0.025710179
-0.03979409
-0.012652036
-0.05823671
0.07424806
-0.008798096
0.0113102775
-0.0017731581
-0.050092746
-0.016358916
0.008852453
0.07793911
0.08202227
-0.051742837
0.023724247
-0.02981186
-0.022028591
0.00867639
-0.059116494
-0.0822055
-0.009665301
0.015404453
0.01736822
-0.025163166
-0.021026276
-0.0425627
-0.07459267
0.049658757
0.042277075
0.009251212
0.00053129275
0.013858642
-0.02393115
-0.033626772
-0.05470565
0.029921116
-0.06562025
-0.0034707347
0.014177609
0.027130708
0.096221246
0.008894199
0.03764577
0.022084381
-0.031001443
0.02457678
-0.026607465
-0.008086
-0.044139132
0.013296949
-0.015564701
0.0066390447
-0.04721332
-0.011553405
0.034806002
0.000682247
-0.01981405
-0.03042711
-0.02225
0.089844294
-0.010643062
-0.06833588
0.04894935
-0.02535374
0.04948998
0.015651638
0.019906001
-0.021163661
0.11800569
0.07244552
0.017287275
0.008438169
-0.014765512
0.009372168
-0.04488659
-0.062712245
0.05382168
-0.02810836
-0.024466602
-0.05763372
-0.060715064
-0.016914768
0.087194614
-0.0170234
-0.06473529
-0.044728726
-0.024308756
-0.09453819
-0.047106676
-0.010830313
0.043232113
-0.024589684
-0.07277287
0.07621339
-0.055443104
-0.024937192
0.021322565
0.021248419
0.019113561
0.048225217
0.05524785
-0.038250733
0.024546852
0.038155675
0.02225853
0.01627026
-0.02679221
0.013503456
0.04845409
0.011092874
-0.017209409
-0.024221238
-0.018098524
-0.055252254
-0.069864176
0.058208145
0.014086798
-0.056213688
0.014344986
0.00622152
-0.011464035
0.045738917
0.00057315675
-0.0032920109
0.02594285
0.05673593
-0.028952574
0.10299492
-0.0059294673
0.0930194
0.08312907
-0.05199665
0.05273125
0.017022058
-0.07047594
-0.010872275
0.07752543
-0.020960828
-0.004022367
-0.030243682
0.049828175
0.027234785
-0.06538722
-0.045494024
-0.031047624
-0.09624712
0.04504822
-0.051495206
0.0016022583
0.06019854
-0.03113108
0.025234973
-0.07777447
0.027629806
-0.07146145
0.11386718
0.061799776
0.00075838197
0.008020959
-0.020340022
-0.019496713
0.03962139
0.0017804687
-0.032388546
0.057220466
0.0039912225
-0.035599846
-0.024392819
0.008940641
0.06017837
0.03212609
-0.07460992
-0.027261036
-0.00032576165
0.0138839325
0.052243583
0.013471404
-0.023609512
-0.05673339
-0.024091775
-0.013381765
0.061390482
-0.043968733
0.03913331
0.051919244
0.023825943
-0.028491708
0.02780158
0.012289712
0.017276447
0.019836467
-0.07610386
-0.097592816
-0.017908772
-0.04714251
-0.021579018
0.05702256
0.017311636
0.016938454
0.01341438
0.05979157
0.031277146
0.03066416
-0.0015430682
0.023285704
-0.011637474
0.039218612
0.010962556
-0.084348306
-0.04964796
0.03506968
-0.07981932
-0.05877958
-0.066187024
-0.00931765
-0.019236352
-0.06135766
-0.047969777
-0.003288547
-0.00029202685
0.031989146
-0.03757749
0.06562345
0.020565268
-0.0069630407
-0.046483472
0.14661607
-0.06992544
-0.055616867
-0.031386282
0.080816455
-0.0025936062
0.09685924
-0.004544639
0.004748224
-0.0036841424
0.04262429
0.02125962
-0.022687463
-0.07427058
0.092618085
0.00094780646
0.030493403
0.14076927
0.036178116
-0.008858
0.09565911
0.0012984056
0.07440931
0.057481024
-0.06528057
-0.02680581
0.017657796
0.0660724
-0.050018024
-0.01568502
-0.030403437
-0.030485636
0.077103525
-0.035532303
-0.028063487
-8.571753e-05
-0.0044162143
-0.013086519
-0.0008718727
0.0046366397
-0.031470627
-0.010053518
-0.042422697
0.062446855
-0.0014774511
0.06674013
-0.04704179
0.0039530415
-0.012885894
0.024914237
0.02018415
0.008900608
-0.045952156
-0.009819034
-0.026641415
0.07128871
0.07238546
0.056103952
-0.05769484
0.009803582
0.054238975
0.06642295
-0.014045381
0.034255315
0.0130124455
0.062479313
-0.025454836
-0.08302999
-0.027001131
-0.0042438577
0.06965725
-0.0631503
-0.04286638
0.0012286372
0.0005494569
-0.06948783
-0.06488362
0.047886603
0.028263247
-0.044493463
-0.02836833
-0.0022505196
0.041124705
0.064156495
0.039791495
0.09316205
-0.006869879
0.09293893
0.012841018
-0.06345405
0.005425864
-0.009354264
-0.0542775
0.0010581316
-0.0013658819
0.002339339
-0.025832465
-0.04844012
-0.029445823
0.024521485
-0.041994587
0.03764457
-0.017725691
0.04923128
-0.02846855
0.065810084
0.048909467
0.08760552
0.059683688
0.047652904
0.07202544
-0.09155572
0.117400855
0.06750255
-0.04546653
0.003884277
0.07427801
-0.0057464954
-0.036928274
-0.114179134
-0.024089316
0.060149547
-0.05640956
-0.049030565
0.110110916
0.04799335
0.034126323
0.0039991764
0.015440837
0.03607056
-0.06300329
-0.032311678
-0.043355163
0.07780532
0.001746843
-0.03478431
0.031624913
-0.047966823
0.034790486
0.023230264
-0.056862123
-0.053775754
-0.029743388
-0.0776521
0.011728406
-0.013099617
-0.050497483
0.036434546
0.032080553
0.013750873
0.0010160762
-0.067908555
0.062061343
0.052378766
0.023459388
0.06655426
0.029626621
0.027221803
-0.0003909433
-0.059537448
-0.016907442
0.06923624
-0.017808879
-0.020727128
-0.046675954
-0.013012786
0.0055710254
-0.03914994
0.07985664
-0.0217316
-0.07213303
0.03515788
0.07091854
-0.0650613
-0.05109781
-0.016026223
0.057679437
-0.057266403
-0.0461212
-0.06888583
-0.06114382
0.05073973
-0.041568685
0.008668926
-0.030371843
0.070756204
0.048996612
0.018958334
-0.012651758
0.020301916
0.05100839
-0.083472475
0.011968333
0.04301548
0.056479122
0.02614306
0.014087731
0.05060824
0.025536636
0.006568817
0.024619408
-0.039493024
-0.017046466
-0.008422582
-0.031201186
-0.0152744185
-0.0330627
0.008532508
-0.059295956
-0.01798247
0.056169845
0.047830015
-0.026155068
-0.040335264
-0.07614617
0.06113612
0.021216894
0.012000525
-0.034115568
0.05558163
0.0103344135
0.038856566
0.049737833
-0.006515176
0.032082804
0.049795706
0.067570195
0.07129579
0.016824033
0.06390255
-0.068327434
-4.5188855e-05
0.055826455
0.04571713
0.009651551
-0.06177638
-0.017635344
-0.038556203
-0.029412381
-0.02632457
-0.10560353
-0.047893897
0.04369423
-0.032447487
0.09827117
0.037715804
0.030147323
-0.014290957
-0.010616076
0.029939365
-0.055073943
-0.022730855
0.04183728
0.081360295
0.014191185
-0.038999263
0.004671532
-0.08144793
0.07756421
0.033166092
0.044621915
0.059884276
-0.0033009101
-0.02604402
0.051171824
0.025300788
-7.301713e-06
0.091661885
0.07888988
0.023325201
0.07670299
-0.039381273
0.03832113
0.050788365
-0.01168401
-0.03368097
0.0396624
-0.01401111
0.005236536
0.0039333324
0.04959564
-0.030784262
-0.04192835
-0.039596602
-0.025557874
0.033789825
-0.028689308
0.025900664
0.015600883
-0.03423746
0.021588486
-0.023587255
-0.022224138
-0.014671383
-0.06794838
-0.047287174
-0.022300472
-0.11763498
-0.039288126
0.0106665585
0.035698365
0.038214326
0.034987405
-0.024121463
-0.039911263
-0.049018122
-0.012204543
0.05897016
-0.0015437276
0.019584123
0.04079175
0.04845185
-0.00088446244
-0.016619215
0.023240846
0.024679242
-0.06964163
0.0027491127
-0.00032414295
-0.041318145
-0.028528376
0.04459512
-0.008709111
-0.046987236
-0.05461204
0.10022014
-0.04150292
-0.01618167
0.03193412
0.07390527
0.026685597
-0.06904118
-0.037249755
-0.10519959
0.06636059
0.005913239
0.03928344
0.034774106
0.020233443
-0.023074707
-0.06715083
0.075196825
0.01044094
-0.002692688
-0.0863264
-0.056907825
0.037088763
0.013896299
-0.08716219
0.012004641
0.03419039
0.06656297
-0.021594409
-0.032182805
0.15236685
-0.042914633
-0.019613108
-0.007265913
0.04952053
0.010841414
0.028078122
0.0451233
0.0001323838
0.089545645
0.038777735
0.06372721
0.05867898
-0.064552054
-0.0046769273
-0.10404915
0.015470933
-0.021981921
-0.059155762
-0.044726234
-0.061948176
-0.043189228
-0.02586199
0.06875797
0.0435324
-0.005274655
0.01747437
0.031346295
0.030706313
-0.0075664865
-0.021557014
-0.025604635
-0.039062005
0.049215123
0.033213224
-0.05414563
-0.03741309
0.0069939555
0.01902747
0.07347359
0.028274793
-0.025102342
0.0056497916
-0.024935903
-0.0066964603
-0.034081504
-0.072565936
-0.060281858
0.010495566
-0.04360492
0.014616545
-0.08236704
-0.04859758
-0.045139987
0.02629604
0.061509054
0.036184464
0.011891687
0.028787022
0.07328274
0.04007372
-0.07361673
0.011911055
0.005448467
-0.022768432
0.033320706
0.08072165
0.027588923
-0.0543316
-0.0077891313
-0.032093517
-0.071453795
0.0860442
-0.03490731
-0.07774119
-0.0035054756
-0.027844043
0.07703311
0.074800394
0.049147774
0.04010204
-0.033558328
0.023182193
-0.02232663
0.038815722
-0.0038218691
-0.010120557
0.024418605
-0.007027984
-0.068749286
-0.06147871
0.034877542
0.0035704575
0.048286512
0.004304136
-0.05228822
0.0017417108
-0.028562767
-0.030787095
-0.06918305
0.037238594
0.04875504
-0.0479419
-0.043509144
0.008646692
0.019949093
0.0485946
-0.018236034
0.041303832
0.028197018
-0.0715779
-0.027942685
-0.011456404
0.077867284
0.016292473
-0.038711812
0.034802735
0.023991836
0.013575414
-0.045755118
-0.018341864
0.035846733
0.06311393
-0.022553276
0.06860559
-0.079228744
0.04967622
-0.071074806
-0.02759435
0.053906254
-0.02090976
0.060309034
0.041712724
-0.007642503
0.008119613
-0.071187094
0.015845368
-0.0024788007
-0.059834316
-0.017700706
-0.044898517
-0.022342527
-0.093875326
0.08037181
0.045270983
-0.026471758
-0.047609925
-0.07687807
0.019873844
-0.04861234
0.06510569
0.030720694
0.036546253
-0.016574645
0.041415438
-0.09914477
-0.025078248
0.052347083
-0.008730622
-0.065231554
-0.124640085
-0.11872189
-0.054421883
0.092057794
0.07773572
0.02012083
-0.04578488
-0.03383132
0.0063156052
0.0394332
0.017881483
0.012200456
-0.02129161
-0.038311794
-0.0035942162
-0.03079957
-0.05753673
0.06126099
-0.028319614
0.014169093
-0.02259172
0.07003597
-0.015224742
-0.0040841023
0.050526675
0.019940816
0.01186823
0.01289236
0.028297184
0.04018387
0.085739836
-0.007536357
0.006547609
-0.048650634
0.07974902
-0.023724161
-0.009647761
-0.049104825
-0.015569346
0.051389575
0.0054782825
-0.04584141
0.006195069
-0.055503245
0.042037033
-0.037504513
-0.021957835
0.13671295
-0.019795686
0.013501785
0.023572596
0.10370246
0.025550313
-0.015316498
0.027293358
0.042108465
0.038253427
0.01967953
0.032641415
0.008728076
0.050114837
-0.021571355
0.03309138
-0.032209728
-0.026996236
0.052947834
-0.009821644
0.030283391
-0.049740035
0.005324609
-0.0067722127
0.06260665
-0.050233793
0.06732051
-0.004186518
-0.03810524
0.0861915
0.0602802
0.063702665
-0.0026121682
0.06983347
-0.04154665
-0.031639077
-0.06152475
-0.022486385
0.0142738065
-0.028549328
0.0097115
-0.045633335
-0.0026872323
-0.052748624
0.059701387
0.06365421
0.030617228
0.06586968
-0.047383692
-0.03539093
0.02714036
0.053172953
0.028997932
0.003830828
0.038234133
-0.0069977497
0.015033677
0.027891563
-0.053640984
-0.053320255
-0.06829495
-0.03873275
-0.010586773
-0.014863599
0.00316348
-0.010547743
0.026372315
0.026564762
0.047310654
-0.00032694155
0.05975343
0.07172897
-0.01995981
-0.044754446
-0.035332166
0.034952227
-0.019865546
0.0067386352
0.003966499
0.0051117404
-0.047521107
-0.053814765
0.037095763
0.022856291
0.0430932
0.042786617
-0.037644416
0.028730612
-0.034588035
-0.027081123
0.04838837
0.028292872
-0.0048804926
0.046082478
0.04904341
-0.032497935
0.022245176
0.050809752
-0.04056089
-0.0010325942
-0.05772659
-0.007916295
0.042908475
0.020212876
0.03547513
0.03464535
-0.016206242
0.05095375
-0.077328525
0.027328994
-0.024118543
-0.038056057
-0.012997947
0.019505292
0.01482772
-0.029601615
0.047210496
0.009302175
0.050370254
-0.06845208
0.021920932
0.034867283
-0.044214547
-0.044618804
-0.055766955
-0.04507705
0.04745586
0.042389125
0.04723267
-0.043875843
0.030167194
0.051095296
-0.039129343
-0.041401498
-0.029453909
-0.0571479
-0.03876235
-0.029230455
0.070066035
0.08161872
-0.041611083
0.010073049
0.059336293
-0.009455551
0.0023415876
0.003945542
-0.030103954
-0.0060313726
-0.04153116
-0.00847433
-0.0556583
0.029616341
-0.026065875
-0.04779032
0.012873547
-0.034731437
-0.05023059
-0.043323167
-0.022770457
0.03600682
-0.026006682
-0.007391679
-0.042993713
0.07834413
0.01495475
-0.02672552
-0.014949136
-0.035359904
0.009662169
-0.036642574
-0.02338113
0.026088173
-0.033378832
0.031752147
0.020747926
0.02033049
0.0074756835
0.074779004
0.032279193
0.008403044
-0.0410168
0.028891325
0.046619974
-0.03480459
-0.03322804
-0.0075808833
0.020629179
0.021540364
-0.019933553
0.009465535
0.024737883
0.052831344
0.052261915
0.0009772705
0.0089242505
-0.046442747
0.00460099
0.046202563
0.01764042
0.025890693
-0.024822455
-0.039218284
0.036528945
0.061451316
-0.029464625
-0.010375852
0.004149606
-0.0054571507
-0.0059427815
-0.0058295242
0.011885837
-0.016430037
-0.00986709
0.041468073
-0.05061147
-0.067328915
0.022594627
-0.010790602
-0.0012210348
-0.0075344443
-0.0459749
0.07279585
-0.012360505
0.043023672
0.015021457
-0.02003511
0.028741734
-0.03824466
-0.048788514
-0.011233732
-0.033169948
0.057619672
-0.031721447
-0.011426907
0.032009378
0.05327344
0.019736454
0.018613309
-0.01765021
0.03905279
-0.019970344
-0.016621113
0.030737946
-0.0014288193
-0.023371803
0.052028753
0.014195682
0.01833484
0.00479717
-0.04491529
-0.055723514
0.009220893
0.009416356
0.007285394
0.08090021
0.018363852
-0.029120475
-0.03696035
0.00082167285
-0.029907608
-0.010817321
-0.012375456
-0.013666171
0.016195852
0.015234861
-0.03875933
-0.027358811
0.027298331
0.015709301
-0.022645812
0.0042399773
-0.06378686
-0.05480944
0.019029701
0.014500805
0.04035608
-0.07045103
0.048032235
-0.015701843
0.03742602
-0.007050661
0.016780421
-0.04309539
0.016980289
0.055874474
0.01689307
0.028891519
-0.05037624
-0.0075711254
-0.00070026086
-0.032328926
0.021078339
-0.024486236
-0.04295329
0.059323285
-0.061859254
-0.027474416
-0.007825612
-0.034399323
0.0043706405
-0.04304708
-0.027782336
0.0028472585
0.032592304
-0.057954032
0.008726594
0.071164
-0.038095225
-0.045523163
-0.05988524
0.06537293
-0.011901102
0.0077566234
-0.049807422
-0.053165536
0.04959965
-0.048713554
-0.038466312
0.02938693
-0.034118325
0.0359377
0.007909218
-0.03790797
0.028835075
0.016493192
0.018340653
-0.023109827
-0.050956305
0.038951248
0.07252554
0.06651992
-0.007071203
0.062749155
-0.031826746
0.058343954
-0.015703129
0.012634962
-0.024748757
-0.040426023
-0.032399084
0.02676345
0.03204556
-0.0055356664
-0.04253894
0.049644522
-0.019361302
0.0010782732
-0.013207522
0.021218298
-0.038301233
0.016992735
0.0017335692
0.0030478046
-0.02923448
0.0066810837
-0.00026009482
-0.037522547
-0.024268767
-0.019302865
-0.026262527
-0.036684822
-0.0613691
-0.057223152
-0.011042946
-0.057197854
-0.026487155
0.07846789
0.060556743
0.0018831226
-0.014361637
0.020759007
0.0042769145
-0.0073781544
0.024161676
0.0122836
-0.013914165
0.03479455
-0.021796914
-0.04498043
0.0052297763
0.02299417
0.048811875
-0.033404026
-0.026900552
-0.029589863
0.008538411
0.0071957614
0.048222557
-0.04626708
0.078511916
0.00067300076
0.032769997
-0.036594138
0.06159505
-0.03046097
0.045939926
0.043275278
-0.05740512
-0.036483068
0.030776322
0.01072114
-0.041343078
-0.011412506
0.00010168615
0.030612515
0.046452336
0.007283874
-0.033122953
-0.03532243
-0.056331974
-0.0121876225
-0.059033453
0.036646094
-0.045463953
-0.035712067
0.07384575
0.040033408
0.029938128
0.009838609
-0.060743134
0.0674772
-0.0013014665
-0.034849957
0.0638928
0.048930634
0.0523966
0.0005583845
-0.033141974
0.007280208
-0.049519278
0.005446819
0.021677846
0.012683724
0.015032826
0.01461858
0.0608976
-0.0035901507
-0.0011163988
-0.03324171
-0.03247386
-0.048676014
-0.01779899
-0.03346639
0.07936596
-0.01921174
-0.0056174113
-0.06504499
0.091747895
0.029145697
-0.010047187
0.07058485
-0.08234344
0.11086492
-0.017270846
0.011768107
-0.004829073
-0.002509337
0.04364396
-0.01678656
-0.051951237
0.032854166
-0.04582817
3.090283e-05
0.00982539
0.03498576
0.07132344
0.029773774
-0.046813805
-0.015139839
-0.07007517
-0.029516894
-0.032979224
0.009838504
0.06707218
-0.02678952
-0.023010312
-0.044358242
-0.02082569
-0.013331456
-0.061711952
-0.033476446
-6.261949e-05
0.073252134
-0.05960598
0.043466378
-0.038217913
0.096922256
0.047942877
0.053194072
-0.03618165
-0.038991824
0.040949374
-0.006892025
0.01182599
0.022866301
0.015178745
0.0519794
