-0.0017189719
-0.0049052224
0.02916757
0.0284126
-0.019787764
-0.0075802025
0.0022789591
0.009702245
0.012676949
0.012954661
-0.008857921
-0.0037937295
0.010983509
0.009962532
-0.007932247
-0.011411448
-0.005248436
-0.016407473
0.0011816152
0.004876272
-0.009997067
0.015886385
-0.00667796
-0.04419422
0.0036268514
-0.016839493
0.006156263
-0.027609427
0.002524536
-0.03781882
0.023675945
0.024969632
-0.011388853
0.018677173
0.023481863
0.016771117
-0.026586045
0.004086867
0.0065487074
0.032415085
-0.010108376
-0.011541956
-0.010047025
0.026241895
0.023136754
-0.0347851
0.024139825
0.0021491447
0.0053411527
0.0041367747
0.0077082915
-0.023249304
0.0019536905
0.026859986
-0.016520195
-0.001438841
-0.016971422
0.00045975187
-0.007505822
0.015244575
-0.0032120473
0.0019718083
0.0043074056
0.023888955
-0.018529708
0.035333388
0.006824119
-0.02508676
-0.0042161704
0.043058086
0.0095089255
0.0048757535
-0.017493179
0.0038657044
0.027364744
0.0039108912
-0.004292703
-0.0029512723
0.018021407
-0.008179309
0.0073147602
-0.013191292
0.03296272
-0.0073795333
-0.013570205
-0.020477267
-0.016731331
-0.0062875473
-0.005661388
0.0002093709
-0.0049414756
-0.014568331
0.007816611
-0.01933349
0.026181804
0.0002926904
-0.009300751
-0.007585518
-0.0027177744
0.040322922
0.030387966
-0.039758965
0.015814656
0.0052436264
0.03403242
0.0017647384
0.0012008927
-0.0055148783
-0.02684757
-0.012860682
0.031840026
-0.020612665
0.01765373
-0.027722063
0.01640479
-0.0017140366
0.016809616
0.0033932398
0.019330004
0.027098112
0.011209278
-0.034039743
-0.04255145
0.019089183
0.0007273312
-0.00020267854
-0.019550472
-0.039570317
