6.6774606e-05
0.006290745
0.016551198
-0.011868149
0.012308959
0.0037841965
0.0066886423
0.0041883197
0.0027421496
-0.0038752924
0.015308151
0.008981767
0.017706156
0.012731258
0.003277325
0.01928314
-0.01418735
-0.0038003516
-0.00217389
0.00936642
0.0013388566
-0.010451233
0.004552215
-0.005108882
-0.015329209
0.0019466053
0.002605555
0.00090985425
0.016016278
0.003990699
-0.014542218
-0.031596478
-0.016637065
0.0011576727
0.014135883
0.0067393333
0.006661223
-0.0040783472
-0.0042804247
0.009885636
0.021995356
-6.6343375e-05
0.0146888625
0.006667753
0.0039347108
0.003948474
0.0083548995
0.008115291
-0.0024272024
0.0033651646
-0.0017144128
0.0069647687
-0.004367945
0.008315691
0.009065262
0.01646675
0.005889788
0.0012648565
-0.00019894
0.00234072
-0.015942859
0.010468075
-0.021323033
0.004077528
0.016173778
0.0066498835
0.010272393
0.0017252481
0.0050465735
-0.0084546665
-0.016828485
-0.014162068
0.018841483
0.00282772
0.0012802072
0.008999267
-0.0022374801
0.0135317715
0.01169099
4.908976e-05
0.00080615695
0.011722641
0.004077058
0.0023620236
0.00042674763
-0.020857047
0.010137048
-0.015268744
0.013194901
0.0031845616
-0.0076647955
0.0143360775
0.011359408
0.02043456
0.010335857
-0.0024017317
0.0051479856
-0.023750031
0.010912265
-0.023178212
0.024145769
0.0036931145
0.007412109
0.011152145
-0.012918624
0.0054234196
0.020799601
0.007941235
-0.010943693
0.0123546105
-0.014221224
-0.025225332
-0.003031461
0.0011017213
0.0059601455
0.009735467
-0.024160653
-0.024767417
-0.0064884587
-0.008946894
0.019850364
0.005966179
-0.011146832
0.011696456
0.0065653543
-0.0075987005
0.0066435183
-0.038245942
0.0053541586
0.009062964
0.021143204
-0.008849046
0.013210841
0.0022350661
0.008109984
0.017670954
0.00918753
-0.0060875467
-0.011799465
-0.020449752
0.008486779
0.0025041765
0.01047364
0.013616306
0.018246584
-0.0130753685
-0.004132777
-0.0031913803
-0.01781051
-0.004652618
-0.0021586644
0.0027783278
0.0037217203
-0.028204782
0.016503938
0.007017943
-0.0011496803
-0.016235078
-0.010925802
0.008826324
0.0030573974
0.025523663
0.007919946
0.019331085
-0.0035607403
0.013942753
0.0014893945
0.008946437
-0.00728586
-0.0032202196
0.010121201
0.0011107083
0.00011326815
0.019652234
-4.9091224e-05
0.005710905
0.023298625
0.021003425
-0.015919685
-0.0050790673
-0.007079901
0.020352662
0.0067017428
-0.001183381
0.020442778
-0.012345748
0.010008572
0.0032538623
0.013274151
-0.0112338
0.0014158885
-0.012379186
-0.032115355
0.0045986874
0.018724589
0.011429472
-0.0077120517
-0.0039475053
0.017453497
0.020477837
-0.015527506
0.023087025
0.006172461
0.010294619
-0.01616716
0.005911423
-0.0009728138
-0.006702387
0.0019599665
0.0135598425
4.0390278e-05
0.0060044457
-0.019575693
0.0114633255
0.019210141
-0.019126227
-0.0055522397
0.008454395
0.013267487
0.0076082624
0.00076843397
0.013779371
-0.0043279063
-0.00082599814
0.008022389
-0.010322142
0.0016055915
0.0006428768
0.010081956
-0.007444473
-0.004290676
0.013717243
-0.021665048
0.004984892
0.014829429
0.01672373
0.031885598
0.025807392
0.008303719
0.027626712
0.0023994646
0.00804481
-0.008177665
0.0159991
0.009469775
0.007060229
-0.009627459
0.014492258
-0.0007839979
-0.0030588496
0.009029698
0.012839537
0.01795138
-0.037717484
-0.0033226933
0.012789811
