0.05191759
-0.036444355
0.015202109
-0.046891954
0.09040283
0.023811635
-0.00371556
0.038774934
-0.024816988
-0.021261405
0.0373559
-0.03986256
-0.10181674
-0.019752715
0.050444793
-0.09577313
0.06086067
-0.06298053
-0.0011933516
0.0945783
-0.06931804
0.05001964
-0.09039452
0.076907106
-0.01718943
0.056670517
-0.08087794
-0.057375114
0.08260359
0.011807959
0.028938591
-0.07230592
-0.002142671
0.02533847
0.046198107
0.06691025
-0.1205372
-0.0863374
-0.0073417104
0.015568563
0.06442388
0.008976886
0.01299529
-0.033184502
-0.045986295
0.0751986
-0.08530802
-0.040900752
-0.009374025
-0.0616772
0.03969442
-0.054924
0.0023383307
0.04790677
-0.071447685
-0.0519101
-0.029521717
0.004553785
-0.026248686
0.038772233
-0.07275591
0.018695228
-0.027596645
0.03752723
-0.09865523
0.060070295
0.052139368
-0.01440463
0.051988367
0.071528435
0.05600505
0.009763935
0.00026232933
-0.11932734
0.0021118151
-0.024890395
-0.09319673
-0.0071220472
-0.024150189
-0.06566822
0.10198268
-0.14036916
-0.040234383
-0.108734794
-0.0899896
0.043287512
0.045459986
-0.06591221
-0.0035163106
-0.080340266
-0.06294769
-0.05871281
-0.008048771
0.036245946
0.008839608
-0.02057856
-0.057062026
0.03104809
-0.0906667
-0.008507508
-0.06863427
-0.1097022
0.020244222
0.0022763198
-0.034605127
0.035741143
-0.03218788
-0.011591557
0.07538705
0.030894615
0.076846115
-0.10795103
-0.08403956
-0.021857796
0.0030859748
-0.09026294
0.04886486
0.075413
-0.12662086
0.06416067
0.027464047
-0.03703832
0.039448176
-0.03434835
-0.07665434
0.07457911
0.04267902
-0.07052509
-0.032375775
-0.048815306
-0.012249075
-0.04071751
-0.053535003
-0.040958393
0.06765323
0.023271535
-0.017768279
-0.031150598
0.07965891
0.054002736
0.045266632
0.012145878
0.0010292832
0.024265815
-0.047623552
-0.030898524
0.03315402
-0.07064445
0.06789646
-0.029766686
-0.110717535
-0.03646858
-0.031141156
-0.063137315
-0.05886368
-0.0125913555
-0.09062639
-0.05013822
0.024907012
0.02253441
-0.10510506
-0.0326112
0.016568512
0.007196732
0.06717635
0.02927128
0.07483042
-0.0016490787
0.048832767
0.012859196
0.08266569
-0.028199732
-0.03334849
-0.050639987
-0.0027611852
-0.033041406
0.016932381
-0.045521043
0.015414182
-0.05016049
0.0573964
-0.08134774
-0.08811482
0.05317994
0.082261175
-0.0051127113
0.04567453
0.01213824
-0.0899573
0.034381714
-0.029071195
-0.09149084
-0.054235827
-0.048543163
-0.011433308
-0.0075556887
0.060263056
-0.012824089
0.0028237212
-0.039367802
0.07486741
0.04393689
-0.029361527
0.070077606
-0.09833823
-0.05911323
0.04923
-0.0522296
0.06894019
0.11281768
-0.09342839
-0.02125766
0.08357335
0.081676774
-0.027452458
0.041967116
0.048115052
-0.056542687
0.02374646
0.0010665812
-0.018009298
0.08450677
0.01805934
-0.08854615
-0.049652245
-0.10551197
-0.06542187
-0.033926073
-0.09760199
-0.08680568
0.09768866
-0.0388695
-0.06286142
0.03650538
-6.0480743e-05
0.004128431
-0.02758223
0.035820626
-0.10612457
-0.055568784
-0.010699036
-0.043798264
-0.087750465
-0.01619858
-0.09165648
0.11159873
0.061987408
0.03860087
-0.039486866
-0.04226559
-0.031701114
-0.09198689
-0.015312911
0.00505606
0.004857203
0.013950534
0.09373548
-0.0643106
-0.07921168
-0.08631493
-0.031359043
0.082656026
0.08596651
-0.053100083
0.02485816
-0.07180963
0.053856373
-0.033644352
-0.036752857
-0.0620001
-0.10947716
-0.050901793
0.043764792
-0.051232412
-0.052307934
0.13477136
-0.050389614
0.08122456
0.094995424
-0.018854946
-0.088080384
0.09910512
0.09481104
-0.107882686
-0.03134611
-0.007715152
-0.071332216
0.050740857
0.092506155
0.0068436977
-0.06586999
-0.04843136
0.06229245
-0.04682319
0.0022635278
0.013007331
0.020632334
-0.09286895
0.045529388
0.09336148
0.055467427
-0.009010792
-0.035062358
0.009499405
-0.059392277
0.07011198
-0.0042932876
0.05823593
0.014882669
-0.036730196
0.017177613
-0.026335478
0.026371252
-0.06848588
0.06830593
-0.06385812
-0.009732512
0.07870585
-0.040049363
0.06911073
-0.06497531
0.064682804
-0.07351319
-0.02001448
0.01858822
0.015619007
0.10022182
-0.041958418
0.08587696
-0.073955126
-0.010019584
-0.07321856
-0.04655811
-0.054650903
-0.013160446
0.079549305
-0.05352118
0.022739597
0.020192139
0.0038113452
-0.05330594
0.0076708985
-0.060904138
-0.05733905
0.025502883
0.044171866
-0.08652833
0.009519592
0.04360738
-0.060464036
0.041475028
0.024792422
0.02363714
0.094635226
-0.00943478
0.03274179
0.0041161627
-0.04799808
0.03964507
0.069972254
0.06255665
-0.078262635
0.1302093
0.062310178
-0.042646706
0.07107708
0.017985653
-0.083861664
-0.004948451
0.031228451
0.09586281
-0.046106365
-0.047625653
0.08936632
0.075229384
-0.05369331
-0.083061576
-0.041094627
-0.11006977
0.011312941
0.07179557
-0.07448985
0.0017547703
-0.08022921
-0.06421687
-0.05887176
-0.06340154
-0.12332955
0.040128764
0.02057551
-0.039836135
0.06949995
-0.004216772
-0.03407988
0.053577017
0.08772443
-0.09333582
0.051841825
0.050539874
-0.06757226
0.066304214
-0.06471503
-0.052532073
-0.06600416
-0.0047507104
0.0804906
-0.018843323
-0.09195107
0.015268595
-0.052329097
-0.01506641
-0.010878828
0.06702814
-0.035949204
0.026898833
0.097426094
0.028602067
0.08992568
0.08246375
-0.040799357
0.048256226
0.11488578
-0.026587872
0.10857679
0.087475985
0.052588314
-0.026378723
-0.059682615
-0.03446078
0.053112246
0.042103972
0.06245159
0.046679173
-0.050561137
0.082011804
-0.077333115
0.08372137
-0.06768965
0.043388907
0.048899274
0.0019820775
0.04792704
-0.022317054
-0.06800394
-0.01912698
0.049443305
0.018155085
-0.0071554203
0.002351235
0.073383756
0.02434178
0.028448844
0.0051277946
-0.041874446
0.067640215
-0.07132101
-0.11018772
-0.118260354
-0.031964287
0.0598035
0.009485581
0.09274197
-0.010074322
-0.09681714
-0.06957909
0.02959974
0.03438922
0.028816674
-0.078190565
-0.026903737
0.06815374
0.0031659272
-0.060373858
0.08641986
0.09261261
-0.06057914
-0.10771084
-0.07334351
-0.07491963
-0.085087225
0.019471182
0.053839564
0.027313545
0.052785303
-0.0057347077
0.008485594
-0.09442527
-0.030708354
-0.09606236
0.06795349
-0.080273226
0.026686335
-0.049654935
0.019159408
0.030442536
0.0721589
0.019796629
-0.035680957
-0.025651975
-0.0896619
0.018494094
0.10590668
-0.059956364
0.05909771
0.061225556
-0.04836279
0.06886545
0.02769848
-0.053259328
0.03616277
-0.09127048
0.023436135
0.009075894
0.055913605
-0.07736787
0.018906683
-0.048977748
-0.050113402
0.014969581
-0.07678478
0.074511714
-0.003934968
-0.0211425
-0.085938014
-0.049296107
-0.0830068
0.07684757
0.05598446
-0.04772137
0.009345992
0.085293174
0.024706483
0.05715473
-0.04430959
-0.09686366
-0.09394601
-0.005340887
-0.076313384
-0.054874163
-0.08849142
-0.08772558
-0.08458515
-0.065353945
-0.024027687
-0.054222465
-0.08369359
0.01781362
-0.01647065
-0.1055304
-0.05193354
-0.055582047
-0.0014952701
0.08189565
-0.021674655
0.0036004686
-0.011495654
0.07290379
-0.09276382
0.059257764
-0.04283421
-0.099333666
-0.0677833
-0.052892145
0.02930312
0.09557223
-0.067847624
-0.07644272
-0.00483936
-0.030767053
0.077923626
0.029911168
0.04281622
-0.066560335
-0.09253601
-0.0940423
-0.06516047
-0.088363655
0.0184345
0.08635333
0.07937417
-0.006950154
-0.030357413
0.06257358
-0.054457482
0.040401857
0.01819278
0.012309282
0.024763878
-0.06115486
0.04750282
0.06454539
0.01152402
-0.06881122
-0.07242069
-0.026973268
-0.016316524
-0.07325082
-0.067805275
-0.08856989
0.01332358
-0.07367586
-0.07748516
-0.016184447
-0.019469626
0.033179097
-0.013727238
0.055517558
0.100656815
0.007367636
0.027361225
-0.11264216
-0.089678675
-0.08439689
0.07070388
0.09482669
0.040941186
-0.03892925
0.06878093
-0.03697285
-0.07557507
0.062011413
0.052964315
0.06425372
-0.04397644
0.059158828
-0.06585431
-0.0672037
-0.01124355
-0.108237974
0.003029284
-0.011764842
-0.021856846
0.06776789
0.0037335316
-0.079866566
0.036801696
-0.034224294
0.007188926
0.061807215
-0.039509997
-0.018409597
-0.032006357
-0.01976817
-0.046530593
-0.030613448
0.057977095
0.040703736
-0.0015086362
0.12958851
0.11135973
-0.09078251
0.035816263
-0.07561424
0.030847317
-0.04652904
0.021585375
-0.052465275
0.05783861
-0.06948537
0.05046927
-0.088459946
0.03510253
0.02535398
0.032304708
-0.016484028
-0.074204504
-0.0891457
-0.08180513
-0.05688446
-0.0019069107
0.020366712
0.08288703
-0.05005624
0.021020854
0.058380004
-0.052199252
0.0039526513
-0.047643173
0.02486864
0.04693616
-0.09366752
0.021349559
0.065345205
0.010983458
-0.036546405
0.0823396
0.0900238
0.041861746
-0.0038677058
-0.10053223
0.07206342
-0.04043171
-0.10727159
0.071602285
0.010556714
-0.05504992
-0.05998402
-0.04525805
-0.0217106
-0.09053267
0.040600304
0.040621202
-0.06957607
-0.06254308
0.07537214
0.041566633
0.007620226
-0.029101036
-0.04713666
0.043914184
-0.03326854
-0.0005758903
-0.058519255
-0.11064772
-0.06121235
-0.015497986
-0.08827863
0.061526954
-0.025845416
0.0028835142
0.019018492
0.0136242295
-0.13289379
-0.02363111
-0.07155006
0.06259862
-0.08753569
0.03901879
-0.0079087885
-0.09154524
-0.095447555
-0.02277319
0.013377701
-0.03702146
-0.08655741
-0.08396462
-0.035413466
0.059011832
0.055203717
0.06374025
0.048939455
-0.01376311
-0.09191926
-0.016945232
-0.079714954
0.08285217
-0.01734519
0.033984516
0.06467189
-0.072336756
-0.052062266
-0.0075078933
-0.02899545
-0.054685026
0.074657544
0.053844914
-0.014667555
0.042727523
-0.1067823
-0.08019945
0.016815752
-0.0883781
-0.08956633
0.09937312
0.021713115
0.032148663
0.06754039
0.088622265
0.05604203
0.024308631
-0.03494227
-9.120937e-05
-0.09955974
-0.022295538
0.012279559
-0.035334047
-0.07589197
-0.06273587
0.07255464
-0.03518611
0.06421378
0.07059002
0.08558127
0.06967987
-0.007656588
0.07614018
-0.06391042
0.0012599792
0.068223685
-0.09453194
-0.0507148
-0.025543034
0.08595293
-0.0069712074
-0.03899387
-0.05128147
0.06391373
-0.025688058
-0.023725014
-0.07496417
0.05268881
-0.030868117
-0.013077045
0.06699586
0.06910487
-0.019061474
0.0021577792
0.06894254
0.07053455
-0.09751202
0.020112013
0.09771989
-0.04308073
0.07196619
-0.032409266
-0.056267507
0.008269602
-0.037745364
-0.011724937
-0.02048857
-0.05305369
0.08077166
-0.03087234
-0.07219429
-0.108280875
-0.12141517
-0.025943456
0.0801204
-0.07227221
-0.056663286
0.00015733801
0.09757049
0.081746675
-0.084868126
0.058248524
-0.011742486
-0.114218995
0.041551
-0.0028103488
0.022892259
-0.088460214
0.090087466
-0.093972
-0.10938975
0.033806425
-0.0100175375
-0.13557641
-0.0073992573
0.06027784
-0.052976478
0.05911096
-0.05599982
0.06852348
0.09149143
0.022329083
-0.06411418
0.08030266
-0.08043284
-0.0004664362
0.090523206
0.08928396
-0.09707581
-0.02965299
0.08219185
0.11062618
-0.06390266
0.08167029
0.0018522992
0.0797983
0.101497434
-0.062914945
0.06408383
0.04975079
-0.003888491
0.08596137
0.03522206
0.08372534
-0.028122263
0.030786417
0.015122789
0.065435335
-0.08313084
-0.0643129
-0.05630573
-0.02904558
-0.0732118
-0.07796852
0.03587418
0.04336771
0.08196649
0.109955385
0.0027244643
0.020789819
0.012219467
0.039385926
-0.069982655
0.05444501
0.0038880317
0.08824446
-0.075563334
0.05638614
0.08370773
-0.08678657
0.0033992534
0.0012731965
0.058993902
-0.0796118
0.026904767
0.08932045
-0.065139346
-0.10597722
-0.051459905
-0.07283538
-0.10452858
0.093978636
0.09056418
0.08151022
0.08489875
0.088419996
-0.02083157
0.095874295
-0.06500052
-0.074476935
-0.056167137
0.050642192
0.018584445
0.032826845
-0.13454333
0.012053283
-0.016772646
-0.021789337
0.06688525
0.0007646489
0.027273929
0.07746106
0.06270595
-0.03825175
0.008732496
0.022124961
-0.034576636
-0.018101264
0.020943403
0.03339828
-0.018865673
0.02354467
0.08959068
0.030336346
0.006054902
-0.009920941
0.03696091
0.0033136653
0.061032888
-0.012029005
-0.029800307
-0.04901022
0.10279673
-0.11058512
0.09474348
0.02637953
-0.04319379
0.06738728
-0.027709447
0.048265696
-0.0026658676
-0.080287166
-0.054562945
0.010226277
0.0739687
0.037600357
0.08202285
-0.01158775
0.014859168
0.019840324
-0.07410514
0.009307919
0.0076364367
-0.05750077
0.08286681
-0.09400135
0.014907536
-0.0031518135
-0.012002871
-0.061357316
0.066622846
-0.03970389
0.011555777
0.056598693
0.034288477
0.098190755
-0.083139464
0.10318133
-0.029852137
-0.015791908
0.025460836
-0.072514564
-0.050446134
0.0055423295
-0.05410047
-0.08707088
-0.06405501
-0.035451308
-0.07198142
0.039091952
0.00622773
0.027422143
-0.12515716
0.07705178
-0.07179943
-0.040703733
0.039642517
-0.06568243
0.03989789
0.018265828
-0.022525921
0.04537368
0.07776291
-0.027053213
0.08494974
-0.0010718106
0.061094657
-0.0986402
0.0076771374
-0.054291192
0.0641617
0.07472184
0.0742246
-0.030674797
0.0078070196
-0.050333437
0.07142679
-0.016720789
0.025569327
-0.08393092
0.10130046
-0.04532337
0.0712467
-0.070009924
-0.05686349
0.05670923
0.019987702
-0.0022989896
-0.06446742
-0.10093069
0.023017371
0.0836069
0.013860667
0.10634258
0.08490416
-0.07261049
-0.03652967
0.019969264
0.014604553
-0.021393567
-0.085746504
-0.022433812
-0.071541995
-0.027394649
-0.01532432
-0.005730793
-0.018856658
-0.05201511
-0.014227827
-0.051441424
0.067830816
-0.021030746
0.02524979
-0.07214302
0.062567845
-0.027469302
-0.08002257
0.08797361
0.053156223
-0.006554862
-0.059373442
-0.06449927
0.083410814
-0.07277013
-0.047870956
-0.053404354
-0.005939479
-0.0050941664
-0.012023137
-0.0596162
0.020317253
-0.054599825
-0.05152276
-0.044389684
0.06447086
0.06880595
-0.030080074
-0.0973329
-0.108921364
-0.045510795
0.039570075
0.02478561
0.086542055
-0.011155743
-0.013942235
-0.07874586
0.036120098
-0.092186466
-0.084538236
0.04074548
-0.032347426
0.063261464
0.03116465
-0.1059688
0.042289373
0.015410515
0.037450265
-0.07048666
0.08423601
-0.06401672
0.10181692
-0.04449896
-0.066243015
0.076241
-0.10389108
0.06045283
-0.02875225
-0.04513154
0.01330416
0.074611634
-0.09397769
-0.05711707
-0.009374902
0.0018444282
-0.11669042
0.07855978
-0.07656437
-0.012419868
-0.10879236
-0.07516149
-0.023672562
0.03159926
0.073701784
-0.008399339
0.021052813
0.040887665
-0.07160661
0.056823213
-0.058228258
0.024306709
0.031991616
0.0030098364
-0.056365877
0.057897396
-0.024398638
-0.020224798
0.014749761
-0.014034805
-0.0031496438
-0.08120861
0.09331553
0.08715323
0.013024282
0.07706781
0.062533066
0.04722507
0.056581028
-0.08218957
0.005034827
-0.021146936
0.12415738
-0.069402866
-0.05347938
0.07662231
-0.07712594
0.06816434
0.082381286
-0.04662331
-0.08759014
0.07102561
0.0002980748
0.061375547
-0.11554609
-0.0055533093
0.01358859
-0.005101462
0.03336008
0.03253304
-0.024860036
0.029838772
0.03949687
-0.04011815
0.06732271
-0.018149018
0.00055242074
-0.026678095
-0.035391904
0.013534628
0.012244909
-0.05763065
-0.07018643
-0.0061932537
-0.059757676
0.04539831
-0.09401524
-0.043899335
0.030844491
0.038454544
-0.046263725
0.037774306
-0.0055881646
0.0773751
-0.08612899
-0.011224546
-0.01354897
-0.096853405
0.022009116
-0.023852874
0.048152834
-0.03795587
-0.04487356
0.0011652121
-0.04251403
-0.015795207
0.06556349
-0.013478271
0.017728208
0.10678171
0.03257994
-0.10734942
0.034729566
-0.024641821
0.020321203
0.03637155
-0.09655119
0.09152458
0.056435686
-0.047791354
0.09099397
0.04783264
0.04567807
-0.0018120558
-0.06606956
-0.078627616
-0.08552799
-0.0074209827
-0.06399902
-0.010643299
-0.02163267
0.08317971
0.014035711
0.07350408
0.056934092
-0.03537634
0.0067836163
-0.10008143
0.04870966
-0.046395965
-0.07880151
-0.005859438
-0.08771385
-0.054872602
0.08657135
0.08007436
-0.035238642
0.040541805
-0.04671589
-0.06663093
-0.042688284
0.06334658
-0.07084498
0.029419415
-0.04655491
0.03468113
-0.030397031
0.07796326
-0.055935036
-0.11164195
-0.017835528
-0.0027329163
0.09457023
-0.038982302
-0.029640906
-0.058332033
-0.010917217
0.049842454
0.039790444
0.015134814
-0.103069805
0.06822533
-0.058201864
-0.08661041
0.027956033
-0.06793184
-0.06041414
-0.019293789
-0.02276383
0.01765385
-0.004502168
0.031005077
-0.07143183
-0.056970894
-0.02032348
0.023230841
0.01032996
-0.0030228407
-0.12097692
0.062323242
-0.0085311355
0.037145644
-0.057645105
-0.057661477
0.087565646
0.06450749
-0.06506776
-0.047813315
0.07553497
-0.05659614
0.040601324
-0.08409884
-0.13412558
0.07160559
-0.06108363
0.060100462
-0.037382137
-0.022349127
0.07522404
-0.044592053
-0.02413412
-0.075712405
-0.06160709
0.11677864
-0.07342458
-0.042231616
-0.10443803
-0.015814524
-0.05336649
-0.09543143
-0.10931317
0.010849965
-0.008602035
-0.077551715
0.054194342
0.041911617
0.042791016
-0.015939984
0.0012502015
0.017393176
-0.119937845
-0.090354376
-0.07384755
-0.025036996
0.0008395167
0.07817318
0.10494462
-0.0029948335
-0.02692657
0.033472903
-0.09580084
-0.08112888
0.07063258
-0.02318612
-0.07382667
-0.08463042
0.07898813
0.07730666
-0.0136542935
0.0380644
-0.09445112
0.06540924
-0.074551165
0.013352196
-0.094761916
-0.002642447
0.06519301
0.042252444
-0.015938094
0.108135596
-0.06416336
0.04497361
-0.11284114
0.006961015
-0.10113235
0.008467205
0.011729728
-0.0376579
0.0474434
-0.040529706
-0.0088567175
0.04583126
0.041583512
0.003960405
0.058981743
0.035756353
-0.059470993
-0.005094446
-0.045371145
0.034527164
-0.075926945
-0.07254936
-0.0036668037
-0.06938634
-0.07854669
-0.08419298
-0.09068472
0.031954795
-0.06534826
-0.08325631
-0.052568473
-0.036566507
-0.04169082
0.028127681
-0.020056004
-0.09621089
0.011858053
-0.041272484
0.067442544
0.09933508
0.022635868
0.044059116
-0.062110957
0.08998841
-0.076476425
-0.103572436
-0.061801556
-0.023266288
0.084388815
-0.032094818
0.09357079
-0.05091445
0.018811923
-0.05808405
0.09083325
0.056955025
0.020251142
0.07551392
0.037024654
-0.10830038
0.027480816
0.07882702
0.025788397
-0.08068972
0.04743325
-0.074087955
-0.021454101
-0.009323702
-0.0135094365
0.09288412
-0.021668488
-0.03861749
-0.08929467
0.0013485122
-0.0008138941
-0.020017948
0.0062112617
-0.07202658
-0.045016695
0.009043406
0.009323257
-0.06464955
0.08524526
0.058343653
0.0066549974
0.06647378
0.04683005
0.005217428
0.061279446
-0.088594
0.03233764
-0.084240206
0.061241966
0.069507465
-0.034112222
0.04186116
-0.014158408
-0.08378256
-0.08109625
0.04164196
-0.030706596
-0.021339094
0.06915614
-0.048846867
0.06096604
0.06426427
-0.048781488
0.0055108983
-0.029673249
0.028763575
-0.009051521
-0.0169934
-0.019424839
-0.109709375
-0.046093617
0.09786384
0.037275784
-0.0072154584
-0.080279194
-0.01626916
0.0064699207
-0.08083006
0.065560475
0.08156825
0.0023286915
-0.058427487
0.08086232
-0.030763589
-0.10283426
0.007630626
-0.07794155
0.013520985
0.071638376
-0.051077284
0.07846632
0.082641564
-0.06905417
-0.06314572
-0.031053891
0.033803854
-0.02115318
0.021083066
0.10254896
0.03520327
0.02786197
-0.012804795
-0.05345049
0.050127342
0.05990646
0.034365084
0.06808702
0.002208969
-0.015110318
0.09386466
-0.0885462
-0.039507005
-0.008286939
-0.07635197
-0.049513433
0.056345537
-0.094825774
0.015674682
0.031586
-0.005248111
-0.009200083
0.0722544
-0.047906384
0.07317913
0.10034535
0.058366153
0.0017430541
-0.045316577
0.0062136985
-0.00030664954
0.08116375
0.04299009
-0.101519845
0.054307427
0.085062094
0.06275504
-0.049291786
-0.091297895
-0.00041609755
0.034423638
-0.07088892
0.027190015
-0.06332617
0.04674785
0.037710596
-0.07781177
0.047439948
-0.059770998
0.08350985
-0.0075715478
-0.025182884
0.05116155
0.04215148
0.11306365
0.07153907
-0.0237362
-0.09374178
-0.10507522
-0.035845716
0.045773193
-0.05082694
0.09450634
0.03331316
-0.10929689
-0.038924143
0.10976876
-0.055240624
-0.025761498
-0.014256041
0.09049379
0.08876454
-0.06201231
0.09831009
0.06969415
0.060743045
-0.02884695
0.018990027
-0.020322716
-0.013189307
-0.105481185
0.09914521
-0.09214862
0.08655668
-0.057971038
0.05409457
-0.08745021
-0.092365116
-0.028086806
-0.06812703
0.08123364
-0.048269518
-0.09685218
-0.027755436
0.035669547
-0.09500153
-0.076367304
-0.008949281
-0.015252509
-0.019520395
0.07155645
0.036945976
-0.05090815
0.04427189
0.025941115
0.06626279
-0.07921999
0.030641379
0.05176435
0.059098218
-0.063298464
-0.031091057
0.018390939
-0.07373522
-0.03840199
-0.015928887
-0.017509129
0.007549626
0.085483335
-0.061935358
-0.051224824
-0.042651605
0.060299587
-0.070905715
-0.03683891
-0.11285433
0.034728836
0.083546385
-0.10054886
-0.048931785
-0.058583084
-0.01493611
0.064239554
-0.10260477
0.0027903009
-0.054579213
-0.05430619
-0.065442
0.033274915
-0.12144475
-0.06341907
0.0053642835
0.03437213
0.01546273
-0.04636802
0.04567707
-0.038307976
-0.03359402
0.07049505
-0.070673704
-0.108647235
-0.0047910316
-0.08682668
-0.0051062526
0.012593046
0.06851484
-0.04586707
0.08295569
0.09090382
-0.11219225
0.05249498
-0.09643132
-0.008655726
-0.055963084
0.028931972
-0.098252974
0.09653261
0.07823976
0.0011060507
-0.08356539
0.032586824
-0.10417335
-0.037263792
0.06995905
-0.069947965
0.07358597
0.06519324
-0.054985207
-0.04086325
-0.046822242
0.10660992
-0.08835042
-0.032468665
0.09077596
-0.04224728
-0.09089692
-0.05017286
-0.03929626
0.068323165
-0.016517011
0.069263175
0.0039985315
-0.020351095
0.07813615
0.105868645
0.070630476
-0.09809294
0.043777272
-0.014999806
0.03193056
-0.002993452
-0.07016291
-0.048168294
0.07064628
0.07256944
-0.025229478
0.025315955
-0.03985723
-0.07091747
0.0491812
-0.06426915
0.05406615
-0.10107275
-0.07061622
-0.0038507613
-0.048955835
-0.04551008
-0.09050338
0.077089086
0.05193385
-0.072813265
0.050616205
0.061040267
-0.04556976
0.0027433767
-0.07822714
0.0062839757
0.04410366
0.03955956
-0.033167705
0.06950709
-0.0521352
0.07025138
0.04417902
-0.0678761
0.014389843
-0.014285517
0.10957328
0.07849124
-0.061739814
-0.07948246
0.087708995
0.06715961
-0.007547514
-0.07876871
-0.04638395
0.07136118
0.07822271
0.009013751
-0.0045678886
-0.09224059
-0.029735481
0.05014009
-0.02263452
0.059711117
-0.07952894
-0.09845238
-0.06797452
-0.0101921605
0.07428931
-0.07474372
-0.045549147
-0.009674325
0.05953102
0.030908378
0.03151063
-0.051011108
0.11711621
-0.0052319835
0.04358604
0.0018570999
-0.06174403
-0.012216781
0.0045218077
0.022052066
0.055145007
0.10073901
-0.069793165
0.09102429
-0.024254464
0.0068047214
0.061960217
0.01052864
-0.074306585
-0.11578639
-0.010880221
0.093197554
-0.089559056
-0.020835897
-0.02410886
0.05974806
-0.016632272
0.03673991
0.05434002
0.015561555
0.007058412
-0.011956226
0.04580858
-0.08827869
-0.06450384
-0.007556179
0.048043005
0.0006582938
-0.06042356
0.050448403
0.06141797
-0.05184684
0.06720004
-0.07921066
-0.07954794
-0.0874006
0.039796595
-0.0681099
-0.05532483
-0.102009244
-0.042841595
0.09673262
-0.064904936
0.026918404
-0.061552633
0.022013383
0.044198137
0.004251832
0.0686261
-0.062090352
-0.07448409
-0.09860975
-0.02841183
0.034646645
-0.07881381
0.0471577
0.03106609
-0.10066035
0.041928697
-0.06648744
0.03497808
0.010911655
0.06312734
0.06506791
-0.011862819
-0.008429921
0.06613747
0.01663192
-0.0040274765
-0.090343684
0.019713169
0.07405859
-0.07498284
-0.025703928
0.029035162
-0.024625035
-0.05786584
-0.00057139725
0.012415001
-0.06440432
0.035153877
0.056690685
0.021294033
0.012088068
0.013579602
-0.022241978
0.07223897
-0.031663883
-0.01492696
-0.057391316
0.046711512
0.044233188
0.06818437
0.035081614
-0.12360171
0.07441677
-0.08606079
-0.05121234
-0.042662855
-0.0019026842
0.03621743
0.03686524
0.04713071
-0.06816355
-0.082824826
-0.11210838
-0.08513434
0.06716825
-0.037042998
0.038760327
0.05455282
0.042781807
0.034108575
0.04168015
0.00944249
-0.04033886
0.038055714
0.025882697
0.09809636
-0.058384594
-0.10366061
0.0039156647
-0.06909562
-0.0710747
-0.01887011
-0.033468693
-0.029632177
-0.014344542
0.031601463
-0.060797
0.017350972
0.055717073
-0.022164771
0.02858
0.0725513
-0.059505854
0.023468582
0.08525907
-0.030345894
0.0054197987
-0.04755549
0.08951406
-0.07974414
0.08187311
-0.066313826
-0.05647101
0.064166635
0.0071781604
0.09006661
0.019210754
-0.004840142
0.06175097
0.09693452
0.024212204
0.001376359
0.037006184
0.08660812
-0.09937885
-0.08044424
-0.012865398
-0.0055078818
-0.08312952
-0.011377891
-0.044100545
-0.11469383
0.024972746
0.021044547
-0.023518763
-0.03706373
0.037844624
-0.05764267
-0.06790893
-0.055252247
0.07916337
0.023693893
-0.0831977
0.099154055
-0.081432424
-0.099897996
0.07140177
0.029203335
0.07320192
0.032982178
0.028239263
0.020846281
-0.057354603
-0.036368344
0.052905772
-0.09610589
0.071282774
-0.09535777
0.019045595
0.06463663
-0.117572054
-0.007115916
0.08915465
0.014433337
-0.024129737
-0.052796476
-0.06996605
-0.088320136
0.00911078
-0.06504693
-0.027579196
-0.0911648
-0.009917103
0.073994
-0.057003208
-0.013345044
-0.08047344
0.07097291
-0.04919877
0.039716817
0.08733292
-0.05636016
0.06815229
-0.08071834
0.032849513
0.013418934
-0.0066794665
0.043817274
0.06543966
-0.019767039
-0.06666856
-0.07005307
-0.08565957
-0.020076267
0.07891632
0.09969873
0.09600707
-0.018116657
0.07195664
0.032874227
-0.048524387
0.02922843
0.03737056
-0.09249386
0.050864104
0.047704037
-0.019195758
-0.009407976
0.089176685
-0.0917298
0.10285137
0.10262386
-0.060083225
-0.090345636
-0.012653259
-0.05210326
0.06808494
0.014502918
0.05768539
0.015779492
0.007882185
-0.1098833
0.023647286
-0.051027466
-0.059858993
0.10665678
-0.018168695
-0.019425806
0.02741763
-0.05418246
0.06561283
0.100243606
-0.02306467
0.05995353
0.021293823
-0.025864733
0.029159566
0.02752304
-0.042047497
-0.044773202
0.07014638
0.07929488
-0.047739115
0.010364234
-0.0029442909
0.08074183
-0.09020295
0.039105788
0.08213281
-0.018050322
0.051012047
0.036667775
0.025765123
0.089164145
-0.06417384
-0.06949937
0.0541478
0.030827923
-0.05943953
-0.0010043615
0.023628637
0.09486165
-0.08415666
-0.11077939
-0.018342033
0.009053789
-0.11259936
-0.04052966
0.08317278
-0.03392309
0.0031781108
-0.08603376
0.062522665
-0.039690677
0.09910075
0.015915444
0.07927614
-0.03348728
0.014711221
0.06321757
0.086428344
-0.10476845
0.06971953
0.048538208
0.020656867
0.08350399
-0.090528645
-0.054371905
-0.0016752887
-0.06886705
0.018155217
0.010967011
-0.049799796
0.06324767
0.05129899
-0.048236113
0.030582033
0.06873747
0.06403734
0.07000042
0.054243337
-0.03524527
0.08246745
0.09872137
-0.0737013
0.029873889
-0.098564096
0.05438172
0.020081732
0.015605706
0.07121831
0.09024052
-0.022812895
0.073218666
-0.0391543
-0.038368355
-0.017933497
0.049082946
-0.05343958
-0.078176565
0.05271895
0.06682663
-0.0077687027
-0.079374634
-0.04732939
0.05281015
0.04513094
-0.08490148
-0.05797433
0.02643235
0.08597624
-0.0028349047
-0.10231579
0.12512702
0.066434905
0.07941848
-0.02800959
0.021179382
0.040485326
-0.01154827
0.07288005
-0.044301104
-0.0867619
0.127853
-0.084669776
-0.060110234
-0.053743854
0.05248808
0.04930458
0.013661828
0.002400412
-0.07922883
0.104796074
0.03614942
-0.0017334499
0.08562759
0.06920254
-0.09663896
0.054694775
0.006827275
-0.09384769
-0.068258464
-0.042290762
0.047660835
-0.081732035
0.013963337
-0.04054663
-0.068189375
0.05323225
-0.011591441
-0.0064655845
0.03164892
0.04370153
-0.087757215
0.030562246
0.03153297
0.097151265
-0.07783027
-0.017774375
0.044197347
-0.09521997
0.066949785
-0.017773716
-0.033518314
-0.046646416
-0.11272962
0.07925678
0.00042629385
0.05197579
0.09120857
0.067133814
0.038338818
-0.023991363
0.0013405101
0.037772313
0.053961106
-0.08615648
-0.114627175
0.083032936
0.068349265
-0.041101288
-0.023309702
0.08030665
-0.0017263199
-0.05366343
0.013327858
0.109746374
0.040589046
-0.109101996
0.04641497
0.11518854
-0.07737731
0.0031437648
0.011647842
-0.034578595
-0.091607496
0.011435808
-0.045396406
-0.03758183
0.04284952
0.08385282
0.012083609
0.08435953
0.051568262
-0.08852725
0.10201549
0.048568945
0.027125888
-0.07273338
-0.049646713
-0.05915073
0.028488412
-0.04593852
-0.0228775
0.047828797
0.09416433
-0.0034737717
-0.034460504
-0.036598586
-0.07413411
-0.09027558
-0.020250427
-0.06300122
0.07438029
-0.07133168
-0.081349984
-0.04108702
0.043067627
-0.050574623
-0.07153399
-0.0399182
-0.021954978
-0.08312361
-0.08279687
-0.026329264
0.074348964
0.07813715
0.034899686
0.10506163
-0.06975547
-0.04196417
0.02031163
0.0873074
-0.030770555
-0.042776175
-0.015742222
0.0468892
0.05425301
0.065106615
-0.102478154
0.09897485
-0.051525716
0.027793016
0.0051830187
-0.054633703
0.080444984
0.0014359715
0.020400846
-0.10559932
0.048580337
-0.0015117085
0.039296936
0.06259261
-0.069876105
-0.001047389
-0.06196983
0.011584156
0.06263016
0.07532443
-0.07836732
0.055809535
-0.08185105
0.022958634
-0.037067126
-0.05057028
-0.023166358
-0.009791829
-0.096434824
-0.05265277
-0.0517486
0.048550308
-0.050824706
0.06266315
-0.09102291
0.011776081
-0.041345287
-0.048195224
0.0694175
-0.08365705
-0.05693521
-0.07872031
0.0117874965
0.062034667
0.021482628
-0.052896343
-0.004362076
-0.04693529
-0.013627366
-0.042485733
-0.05066171
-0.021151964
0.027752241
-0.058796145
-0.10043813
-0.08620591
0.03652998
0.014172275
-0.09333204
-0.027008113
-0.053400822
-0.048727226
0.042556982
0.084984414
0.051748563
0.031211773
-0.07298899
-0.051341876
0.03018754
0.0133129675
0.021935357
0.06360476
0.07705451
0.07043424
-0.042691346
-0.049010474
0.039688975
0.101636216
-0.10625508
0.06338473
0.03746457
-0.050577965
-0.07102243
0.029401017
0.018538557
-0.025197225
0.022788977
-0.06787543
0.029240932
0.082168974
-0.044981636
-0.0808633
-0.0025311331
0.02090527
-0.0878212
-0.015040907
-0.064344615
0.06603561
-0.030002747
0.09069939
-0.028119411
0.09858428
-0.07271418
-0.09044086
0.056758653
0.05548152
-0.0019467203
0.049860995
0.04584286
0.031131335
0.031233603
-0.039216172
0.081398405
0.0022638363
0.11210005
0.0023477902
0.06679761
0.018294856
0.001504776
-0.068422325
0.055678595
0.020092577
-0.049276873
-0.0840768
-0.051672965
0.100684255
-0.00875569
-0.11746341
0.007926985
0.067516424
0.019067956
0.04355904
0.058430184
0.05173743
-0.085298896
-0.035202295
-0.01561057
0.02499552
0.08144793
-0.0029681511
0.106769085
-0.031969137
0.026255678
-0.00884753
0.08260771
0.023083998
0.09359654
-0.11048716
0.047202915
0.06512458
0.043663412
-0.038166333
-0.032067962
-0.075039744
-0.07096056
-0.08624918
0.096242934
-0.06637686
-0.028797269
0.08184093
-0.1015905
-0.04685483
-0.03761613
-0.09955755
0.036840323
0.01654045
-0.10153691
0.050462734
0.077494435
0.06681812
0.040289074
-0.0009158973
-0.08971661
-0.08198469
-0.029955326
0.070411004
0.018264951
-0.06645211
-0.08979408
0.096057445
-0.022266405
-0.05498181
-0.0013983296
0.009578503
-0.06366892
-0.009882907
0.0727026
-0.014715011
-0.086587906
0.03604813
-0.086989775
-0.045667164
-0.09288167
0.013933568
-0.07594455
-0.059697196
0.0030658732
-0.11237738
-0.017066019
0.05057941
-0.10530832
-0.08062204
-0.044230018
0.06702431
0.02211666
-0.019350246
0.09046611
0.026604215
0.07562654
-0.058669996
-0.011417823
0.08037646
-0.07746643
-0.047217764
-0.06697665
0.07273905
-0.024993388
0.040588323
-0.061608005
0.07033794
0.07674164
0.057775393
-0.025817454
-0.020017669
0.059780147
-0.11985235
-0.030858228
-0.026196178
-0.09094806
0.039428923
0.063002415
-0.079267286
0.038488388
-0.015519634
-0.018944908
0.073921196
0.0078024147
0.110204145
-0.094200775
-0.039142694
0.024127442
-0.0955923
0.04075202
0.08871666
-0.05488078
0.012437283
-0.029145557
0.020294225
-0.050055422
0.018090397
-0.044962045
-0.04364303
-0.09985639
-0.021012396
-0.109476686
-0.104720116
0.07688914
-0.021348251
0.07363938
-0.043422624
0.007721887
-0.0015174849
-0.05615778
0.03780351
-0.04172125
-0.052350976
0.05198037
0.042144388
-0.06463232
0.03021344
0.073815145
-0.09843025
-0.048108995
0.015373388
0.074541956
0.007785757
-0.020444
0.061220568
-0.015604095
0.042947527
-0.11264416
-0.10440083
-0.05264533
-0.018817592
0.02515303
-0.052490138
-0.091271706
0.038334653
0.026875464
0.056480873
-0.06357813
0.06596729
0.0654255
0.067146294
0.021843495
0.0043384745
0.0055074
-0.053975657
0.07341088
-0.09680482
0.049437877
0.043954283
-0.053084843
0.036276102
-0.03503645
-0.024197023
-0.092983484
0.09321633
0.06381533
0.030843465
-0.041279033
-0.021343682
-0.12287803
-0.022659287
0.024064366
-0.10470218
-0.014513624
0.056621563
0.07068414
-0.050822947
-0.11902403
-0.038629025
0.011124008
-0.036094844
0.09588939
-0.036585722
-0.07150734
-0.040134616
-0.04761748
-0.05952918
0.016400069
-0.06419655
0.09531057
0.09971296
-0.06606446
0.058726437
-0.002041634
0.061429985
-0.0028465337
-0.023966616
-0.06478965
-0.006960629
-0.09450694
0.09719622
-0.064079516
-0.08205302
0.017337104
-0.066608675
0.022177812
0.07579014
-0.03161048
0.06480697
0.08165693
0.025780972
0.0900109
-0.056869864
0.008984982
-0.092111215
0.04130383
-0.021201735
0.08281824
-0.016466962
-0.00047616338
-0.026446914
0.07983675
-0.02104888
0.08599653
0.024119133
-0.02048788
-0.07922552
0.09343086
0.018030798
-0.08568696
0.0238753
0.05615166
-0.076798774
-0.00079857616
0.097132094
0.07483206
0.023001641
0.06613182
-0.033659283
0.006951974
0.023322703
0.00015972348
0.019598223
0.09297193
-0.081538945
0.0369011
-0.035095
0.049024586
-0.07667878
-0.09594886
0.005493398
0.095740534
-0.027819121
-0.08949259
-0.070597015
-0.048796978
-0.11012742
-0.0025732426
0.036369905
0.028665543
-0.026507746
-0.084238276
0.014384785
-0.03128878
-0.034237966
-0.03201997
0.07785802
-0.07338241
-0.013268207
-0.023701971
0.044593822
-0.098043025
-0.088833936
0.08105278
0.117661
0.008204799
0.041504536
0.024462312
0.057262003
-0.07234823
0.0015589314
-0.13076346
-0.03152685
-0.024741625
0.020498944
0.020188095
-0.029874254
-0.029073633
0.039708167
0.052375108
-0.08722986
0.08252154
0.06966025
-0.0104764765
-0.07908934
0.063056745
-0.10076551
0.09832177
-0.004995059
-0.045807734
-0.056632888
0.046486244
0.022682121
-0.06442543
-0.033010107
0.027360443
-0.021073615
-0.11677302
-0.015742976
-0.028565917
-0.06757071
-0.09383848
0.0009905279
0.06774122
-0.043568753
0.05569089
-0.01652844
-0.10405903
0.058946777
0.012139423
-0.011058792
-0.07260003
-0.084901564
0.012322911
-0.01789755
-0.014901112
0.05087646
0.05920915
-0.028330484
0.04596523
0.07608459
-0.025441913
0.033129748
-0.02467173
-0.040683072
0.03986875
-0.06143305
-0.010608244
-0.020496678
0.07272288
0.0043568183
0.11655019
0.006121001
-0.062498204
0.029680902
-0.062391948
0.07628528
0.0687165
-0.024758887
0.068182
0.08150216
0.054105774
-0.014025503
-0.053222507
0.085712045
-0.047629256
-0.04057891
0.052523337
-0.060605925
-0.108240426
-0.039884202
0.00017313844
-0.06498384
0.05321012
0.037303682
0.024903866
0.013743619
-0.006530938
0.020957462
0.10941658
0.043658134
0.008668638
-0.07014005
0.02936718
-0.04520927
0.060404964
-0.084452726
-0.10621301
-0.087008424
0.014688957
0.003813199
-0.06026914
-0.047960486
0.021893464
0.08490316
0.08113057
-0.06466471
-0.01722423
-0.002482967
0.062592514
0.09762559
-0.021585597
-0.08782714
-0.09422021
-0.026166122
0.010211149
-0.04874471
0.072707504
0.12669301
0.009308537
-0.037175577
0.01499471
0.07720649
0.0045211194
-0.0016378058
-0.0051645613
-0.021161303
-0.09022285
-0.062286723
-0.04871722
-0.0039040775
-0.044698086
-0.05422876
0.030046454
-0.043628212
-0.06204152
0.062565275
0.07032295
0.037783973
0.05880155
-0.005727492
-0.011764023
-0.09994364
-0.008316027
0.06458947
-0.023500184
0.05611656
-0.0022617222
0.035625264
-0.018690644
-0.044439733
-0.06783026
0.024347246
0.06435548
0.039665725
0.12168451
0.052434687
0.012343116
-0.015644323
0.09383891
0.09010344
-0.05654678
-0.070361406
-0.014826639
0.03701385
0.06385171
0.02464908
0.023101501
-0.04096561
0.095863886
-0.024098985
-0.06267904
0.1251259
0.005638747
-0.06561787
-0.102180034
0.05259111
0.004394877
0.033667203
0.050232768
-0.073340945
0.08341376
-0.07196908
-0.011845704
-0.08778507
0.10902604
-0.015585225
0.079403795
0.067364
-0.029026825
-0.04975062
0.0838677
-0.043146927
0.110693574
-0.08113483
0.0070049823
-0.031017141
-0.07229235
-0.003215994
-0.07608746
-0.013995789
-0.008255856
-0.009145608
0.04749349
0.09485635
-0.02045691
0.09302147
-0.099457726
-0.025190799
-0.09937856
0.032427475
0.035357133
-0.045107815
-0.0037469154
-0.063161485
0.088971354
-0.06231461
-0.029984277
-0.036062952
-0.050772674
0.0114167435
-0.026781177
-0.001048545
-0.034272086
-0.10120252
0.0045959475
0.018947933
0.084008425
-0.008059829
0.030205578
-0.0800472
0.084514245
-0.078609
-0.0295277
-0.08458951
0.08538225
0.0033191987
-0.0029462175
-0.06538266
-0.07802913
0.046764765
-0.08774723
-0.0490361
-0.046154678
0.047683463
-0.07605505
0.03832885
-0.08122335
0.056125425
0.0072172503
-0.04281823
0.03097892
0.041222066
-0.047269866
0.11052811
-0.052648436
-0.04869392
-0.091482274
-0.048379123
-0.0707337
0.101220354
0.022922978
0.052180354
0.039152566
-0.049557943
0.09619854
0.04297729
-0.07793843
0.067982405
-0.01857972
0.07620216
0.027438305
-0.046835884
-0.11146174
-0.056272745
0.02200447
0.0012013438
-0.06450022
0.06448036
0.0606201
0.06593982
-0.12198073
-0.07118488
-0.0564776
-0.02588599
-0.0073520914
-0.04690681
0.039105784
0.027986774
0.039480884
-0.098135084
0.02929178
-0.09454124
-0.037018016
-0.023962177
0.08145545
0.08758394
-0.055251095
0.05035534
-0.011532545
0.021975588
-0.020040834
-0.014624627
0.10150338
0.055034988
0.09043128
0.004540512
0.008860367
0.02132449
-0.063526675
-0.04609431
-0.036347225
0.0058489265
-0.06200249
-0.12022251
-0.008395857
-0.027236147
0.05892292
-0.048854638
0.04590308
0.010223984
0.015583298
-0.05167603
0.07567354
0.056513622
-0.027476046
-0.03470445
0.017098267
-0.040902887
0.092459716
0.019224677
0.038755123
0.052470632
-0.008448384
-0.013845146
-0.043186914
-0.08557077
-0.1086915
0.012281804
0.07861806
-0.06332476
0.0016644321
-0.01773025
0.044368897
-0.05432578
0.053593934
-0.08941219
-0.03564016
0.017491275
0.09076207
-0.060310464
0.1042565
-0.09820109
0.047177833
-0.03356614
0.11652477
-0.08961104
0.071326874
0.007327013
0.06708297
0.094468355
0.06175952
-0.05320158
-0.014084688
0.019443078
-0.0616043
-0.018982718
0.005681297
0.077274285
0.080583856
0.07157859
0.07668064
-0.00072516815
-0.003504167
0.007535452
-0.09693778
0.05284309
-0.040774774
-0.08816673
0.0855711
-0.008912417
0.050443735
-0.015999055
-0.0048465147
0.048949674
0.047094513
-0.0145674115
-0.023582296
0.071958154
-0.046129387
0.06209336
0.025406448
-0.03009713
-0.07659477
-0.07276954
0.0086565735
-0.09993726
-0.119010456
-0.02701212
0.056113742
0.024199499
-0.024342475
-0.049564544
0.053486936
0.04189578
0.044544023
-0.056957893
0.058480743
-0.03420961
-0.10068976
-0.086093016
-0.105152085
-0.02739976
-0.075034335
0.053413127
-0.060202625
-0.01226953
-0.07882046
0.06423384
-0.017489826
-0.02632614
-0.04290648
-0.1070772
-0.043644104
0.09101132
0.033546884
0.080476396
0.08737387
0.034633398
-0.07456262
-0.07306424
-0.034363233
-0.047886442
0.07525193
-0.08800299
0.06943295
-0.035548303
-0.048875857
-0.032912716
0.052156605
-0.0015981678
-0.054038204
0.012318193
0.01750714
-0.0005907242
-0.063097246
-0.026832903
0.043459848
0.04850627
0.072217815
0.06455047
-0.107358694
-0.04908673
-0.044736087
-0.015796842
0.06454934
0.08997043
-0.024438616
0.022579983
-0.098408006
0.08283093
0.09150189
0.07910832
0.088023216
0.057594176
-0.08665874
-0.054103132
-0.065150894
0.01771925
0.0030621677
0.048817173
-0.04117903
0.047796413
0.036326956
-0.050453022
0.0298918
-0.053893607
0.12978843
-0.043609593
-0.014977269
0.035685483
0.04383882
0.08077482
0.007089137
0.023556253
-0.013278732
-0.0535587
0.00095812173
-0.0517264
0.036671128
-0.064270556
-0.025926998
-0.051588282
0.02450499
-0.05517122
0.024241373
0.07738464
-0.087885365
0.07011255
-0.07371415
-0.0839693
0.06034567
0.0029237564
0.08716364
0.085842565
-0.023318231
-0.07047797
0.046291955
-0.11521688
0.0070198355
0.07095094
0.08092382
-0.053858656
-0.10829854
-0.014170857
0.059966788
-0.07786068
0.06208652
-0.056352828
-0.11015386
-0.07342166
-0.07300223
-0.07725324
-0.033636596
0.10033546
0.042419873
0.057137266
0.04626636
-0.055304702
-0.043196104
-0.05238605
-0.03772682
0.025685472
0.10727468
0.05767164
0.091595866
-0.083497375
0.00071088545
-0.06935479
-0.055390913
0.046075944
-0.010080193
-0.077370904
-0.05464188
-0.016769588
-0.11936776
0.037533265
-0.03049537
-0.11707529
0.012887402
-0.06634354
0.008274071
-0.08789105
0.033774387
-0.060090385
-0.069416076
-0.023968352
0.07148924
-0.0743205
-0.07098847
0.06189392
0.054833636
-0.033976756
-0.021684913
-0.10075468
-0.06776039
0.039202996
0.08704154
0.060145874
0.062090263
0.027764805
-0.07104244
-0.06347505
-0.05292437
-0.055034272
0.019371489
-0.037681025
0.06865675
-0.008170983
0.091663755
-0.09859963
0.08551857
-0.046739295
0.080991216
0.003624634
0.0019159553
0.0048735947
-0.014003502
-0.03252487
-0.027364714
-0.042592842
-0.057503466
0.07963037
-0.01791728
-0.10284187
0.060386106
-0.023931671
-0.023571195
-0.001987983
0.013691152
-0.047111552
-0.01852687
0.0054669897
-0.087971635
0.09832016
-0.07459959
0.09592595
0.056423668
0.033873726
-0.0028383785
-0.03330424
-0.07674107
0.015300248
0.0055743963
0.07745396
-0.0742834
0.00066902826
0.06738372
-0.060968634
0.10838073
-0.04179197
-0.069310434
-0.09457718
-0.037287176
0.0065986374
0.0024334514
-0.016887816
-0.044392336
0.026802504
0.047528535
0.03619442
-0.06701674
-0.05305091
0.07854303
0.07483051
-0.035960108
0.04203007
0.016464273
-0.0017802092
0.026357519
-0.01250888
0.08032731
0.0013606118
0.005542157
0.052862514
-0.07637051
0.014313112
-0.020684462
0.041438315
-0.0056078187
-0.03760231
0.08712554
-0.00623734
-0.0708048
0.035698052
0.005169691
-0.08672693
-0.06935834
0.073058136
-0.040718947
-0.089698896
-0.058478683
0.07671984
-0.035690498
0.108226694
0.078954294
-0.025631981
-0.015002417
-0.027227612
-0.044972725
0.08097019
-0.024879772
-0.005494973
0.01699203
-0.020240922
0.032757167
-0.029605357
0.0061932686
-0.08040471
-0.071634874
0.0005878217
-0.009907918
0.107872866
-0.092236005
0.058858804
-0.06957484
0.057604987
0.053328555
-0.082487024
0.07719355
-0.044518314
0.08222816
-0.0050450373
-0.017498974
-0.00420238
0.08260484
-0.080427796
0.041490212
0.04610852
-0.023484971
-0.03827665
0.07164773
-0.114427485
-0.009790821
-0.073982604
-0.09592457
0.05521894
0.07946384
-0.09425748
-0.07168252
0.007866094
0.06554365
0.024081957
-0.082752645
-0.040038776
-0.07728257
-0.052154128
0.0726134
0.08907043
-0.0694295
-0.0017378038
0.053532183
0.10439428
0.04580811
0.009179756
-0.058396067
-0.008772105
0.08489463
-0.08360015
0.011937475
0.08138018
-0.078139484
-0.12017058
0.05093411
-0.089907
-0.043244112
-0.048558436
-0.11406841
0.08802615
0.08146518
-0.03725587
0.03769552
-0.075487874
-0.030371973
0.053289898
-0.051312085
-0.052826945
0.046121042
0.04122815
-0.011817235
-0.09986237
-0.08669698
-0.05033856
0.032860585
-0.07687621
0.06847457
0.083753064
-0.04913722
0.088229135
-0.015877763
0.07935881
-0.02011261
0.07144448
0.092704214
-0.06848577
-0.075788245
-0.06348641
0.07800453
0.09415621
-0.045841284
-0.051262826
0.006737194
0.03521244
-0.059018888
0.0005245809
-0.01448755
0.03804251
-0.044135217
0.03718248
0.038473606
0.10491591
0.0045056464
-0.06884398
-0.04508228
0.010643283
-0.08402089
-0.078975625
0.07631329
0.032564323
-0.045384966
-0.07000411
0.050076943
-0.09202885
0.007952114
0.080907576
0.06621917
-0.0850349
-0.007776953
0.04205834
-0.04996285
0.041921865
0.07668649
-0.051053602
-0.031119712
0.014607035
-0.08270854
-0.009208282
-0.03496531
0.010905912
-0.0051401462
0.06306744
-0.0009935057
-0.10983154
0.10804342
0.005391008
-0.04502328
0.12537315
-0.037181877
-0.034056146
-0.03723562
-0.020468019
-0.06569315
-0.10681434
-0.017263068
0.06428152
0.07501973
0.019261755
0.027866965
0.01124864
-0.13252102
0.09056329
-0.030228654
0.06108871
-0.10214375
-0.078453675
0.02019459
0.028221002
-0.01648017
-0.069886565
-0.032776836
0.07454163
-0.09861607
-0.04907572
-0.017617367
-0.05153757
-0.03775246
0.02751947
-0.09205439
0.051047727
0.042714093
-0.077496685
-0.08151358
0.09736097
0.037386164
0.090223745
0.100656696
-0.027146365
0.023642007
0.07770281
-0.017346878
0.111549355
0.04225297
-0.043657474
0.065614365
-0.015664207
0.0032989127
0.05987999
0.0016221243
0.07110025
-0.043668807
0.023019394
-0.08919762
-0.083997734
-0.07911491
0.06424141
0.033396684
0.07247089
-0.08955026
0.013974628
0.075525396
0.03030617
-0.0019110667
0.020140976
-0.031366248
0.055463213
-0.04903636
-0.082903266
-0.036278903
-0.030588197
0.058382325
-0.00848454
-0.046471436
0.05778008
-0.06438324
-0.0064868564
0.014166481
0.061034698
0.051195823
-0.07229796
0.041280538
0.05868411
0.005405237
-0.115233295
0.04381891
-0.07094397
0.0092486115
-0.059023026
-0.09965076
-0.08206043
0.049679104
-0.020934647
0.06528041
0.014180606
-0.09012292
0.08093177
0.024838176
0.041251812
0.021478517
0.052524094
0.035453897
-0.077749975
-0.08425976
-0.10571319
-0.09105871
-0.05319121
-0.05024148
-0.11807058
-0.027798217
-0.09628683
0.08659706
0.032357622
0.008061656
0.044302844
-0.07089191
-0.030976752
0.038336113
0.020262271
-0.007997164
0.09409764
-0.01900256
0.08487276
0.024813833
0.06733262
-0.02242745
0.02739787
0.05788163
-0.005863093
0.015901754
-0.052574135
-0.006587529
-0.045920245
0.0231045
0.05088596
-0.03792309
0.0805137
-0.017311594
0.020394512
-0.07720396
-0.07158871
0.050605033
-0.041002914
0.09260584
0.05781569
-0.0199834
0.00611986
0.10017395
0.092776574
0.07352836
0.10847972
0.017697314
0.009312814
-0.061146323
0.05963456
0.041490033
-0.03660007
0.05920796
-0.026082681
0.03810537
0.027041197
-0.031655528
-0.09468615
0.052407626
-0.0927132
-0.05225548
0.09209749
-0.0059917257
-0.049335226
-0.052041627
-0.0979021
0.0608035
0.081962176
-0.08434755
-0.03449913
0.0014544949
-0.09799024
-0.09216227
0.010995903
0.027401147
-0.002620332
-0.07292081
-0.05709619
0.07972402
0.0587228
-0.01651763
-0.050876427
-0.082862124
-0.11905807
0.009001424
0.06758489
-0.071602814
0.0013642374
0.09442741
-0.115367025
0.025665909
0.049222652
-0.081187546
0.02631195
-0.04239406
-0.073797695
-0.03405807
0.05872064
-0.04111257
-0.033159997
-0.052351333
-0.008076506
0.047661714
-0.03751307
0.10365179
0.026282793
0.03100763
0.0103225475
0.050201353
-0.10650706
0.019546676
-0.09729267
-0.07047408
-0.080291435
0.0041236826
-0.06146811
0.03315472
-0.05344353
-0.1064843
0.07725091
-0.02873023
0.06446064
0.05416227
-0.0069324845
-0.010783049
-0.060723737
0.053141434
-0.10192301
0.07059349
-0.016158847
-0.04654882
-0.07598993
-0.08327743
-0.044835523
-0.054063115
0.012274655
0.09589545
-0.059940238
0.099623255
0.058012187
-0.054790758
0.0020747227
-0.015209875
0.04490108
0.06044526
-0.039947968
0.043210343
0.037979774
-0.02030504
0.055891305
0.06908582
-0.017337883
-0.0006170163
-0.07572489
0.013414708
0.081773095
-0.03823878
-0.012947771
0.03058908
-0.059054065
-0.085361585
-0.063784204
-0.027890218
0.093041055
0.08581752
0.0665427
-0.0066178734
-0.090335056
0.04393283
-0.100047365
-0.012795169
-0.058402378
0.0971225
0.047915608
-0.031789836
-0.03928338
0.013056016
0.05760978
0.028033273
-0.04407661
-0.03910017
0.0108571295
-0.021713093
-0.07080331
-0.037873667
-0.026193209
0.061848633
0.062442295
-0.020255359
-0.05955839
0.023769237
0.019063275
0.0069687897
0.0003639873
0.03029315
-0.013095473
-0.0583773
-0.04656463
-0.031892132
0.0898516
0.0032911028
-0.09838649
0.041162394
0.003791849
-0.07616005
-0.003298066
-0.041308887
0.090646975
-0.075851895
0.09618881
0.028837232
0.047770087
0.0052857683
-0.004324312
0.0033721551
-0.07408408
-0.02433836
0.015651189
0.027789619
-0.0058680647
-0.042577602
0.020038806
-0.008102799
-0.021395924
-0.06631991
0.04924269
-0.027163949
0.04783941
0.02699183
-0.009986208
-0.0043872553
0.10414756
-0.07576907
-0.10768582
-0.029946288
-0.047709733
0.050130192
0.09036417
-0.09616384
-0.052910093
0.018929347
-0.05078187
-0.04870336
0.024553679
0.0400375
-0.025349038
0.07958808
0.014878605
-0.04034193
0.11266336
0.05600334
0.06716028
0.07506163
0.05327192
-0.08455142
0.07384375
0.07697444
-0.041573904
0.05030838
-0.04992335
0.10888501
-0.04572069
-0.075890206
-0.06295326
0.01259245
-0.0917012
-0.028782977
0.027139982
-0.0274075
-0.05042737
-0.11701461
0.019669488
0.051097944
0.0388449
0.051764686
0.09334048
-0.097034976
-0.04963882
-0.031369668
-0.08052902
0.07223587
0.083527595
-0.020700702
0.028418627
-0.02732206
-0.016944336
-0.039886124
-0.05102745
-0.009747614
0.08167833
0.06217929
0.019033113
-0.041896544
0.082403995
0.092087455
-0.043724667
0.073549464
-0.027170127
0.06230271
0.07621146
-0.025492053
-0.030887773
0.10146848
0.05773078
0.05709117
-0.0014151791
0.078435734
-0.030376123
0.081664294
0.08379626
-0.0567739
0.032407045
-0.054890003
-0.0057700654
0.015232924
-0.014804784
0.10717924
-0.06424759
-0.0081177065
0.05225925
-0.023479633
-0.07778201
-0.04432786
0.049587704
0.05271868
0.0957099
0.015411179
0.11190726
0.06281855
0.053731233
0.0449172
0.05400919
-0.039402682
-0.05828799
0.068114266
-0.06297488
0.07124258
0.043102637
-0.0667771
0.025720255
-0.08471671
-0.07404294
0.03309291
0.10150639
0.069775544
-0.030171521
-0.11013671
-0.025106866
-0.08873021
-0.022807026
-0.071883276
-0.10853351
0.012012374
0.081164554
-0.06224932
-0.047681313
-0.018695068
0.04479324
0.022880161
0.012333072
0.07330218
0.016845254
0.030062504
-0.036934897
0.07685486
0.065256484
0.039579526
-0.08485306
-0.0607049
0.07547458
-0.010021244
-0.008093604
-0.06959467
-0.09582622
-0.07740056
-0.12772821
-0.013054915
-0.016580062
-0.05645591
0.08165894
0.059247386
-0.021722272
0.10435844
-0.047653813
0.038553096
-0.058149517
0.031312414
0.10579416
-0.092805855
-0.009762081
-0.049890775
0.061652917
-0.078120865
-0.05866477
-0.012091181
-0.030748114
-0.02472074
0.037642166
-0.104631335
-0.05594136
-0.06833633
0.10019855
0.01723193
-0.010282282
-0.09644879
-0.079967715
0.068520255
-0.08044219
0.074929
0.052682396
-0.06110352
0.0341074
0.045547415
0.05714227
0.06860727
0.07845692
0.09773254
0.11539322
-0.024892759
-0.08699982
-0.10847764
0.06837316
0.0046695503
0.045858677
0.0050963536
-0.102091774
-0.048427764
-0.098561965
-0.095377475
-0.053155005
0.000598259
-0.09486927
-0.02592906
0.10046908
0.07956794
-0.0005589067
-0.08515302
-0.054826144
0.104798
0.085889645
0.05083115
-0.028083783
-0.06636084
0.00031590465
0.11116338
-0.0009748101
0.0030146795
0.091876276
0.06499022
-0.0740641
-0.03596926
-0.01178684
-0.07756269
0.0014323222
-0.07808981
0.04391652
0.06754487
0.025633076
-0.044063345
0.007729646
0.022704003
0.061504506
-0.032302104
0.010091613
0.018005516
0.033056967
0.028848097
-0.07301766
0.032362156
0.025260167
0.08927771
-0.038986906
-0.06995297
-0.053030025
0.09000477
0.06090232
-0.05592682
0.08463181
0.038351066
0.026851136
-0.030804891
-0.03373918
-0.022039438
-0.057512525
-0.003304353
0.016679214
0.07925369
0.00211282
-0.07997686
-0.024854463
0.01513467
-0.09304705
0.007434856
0.051436197
-0.07401849
-0.05163336
-0.018356545
0.026105266
0.04576904
-0.09335067
0.013163308
-0.03885416
0.06564983
-0.04931128
0.105425596
-0.008530523
0.07299625
0.08177108
0.10407381
0.058752973
0.056477375
0.03612281
0.0141045945
-0.038038418
-0.008723569
-0.050255045
-0.07884544
-0.11101984
-0.073457286
0.077998415
-0.032501947
-0.015087034
0.023505239
0.045745965
0.03200339
0.059208956
-0.0661704
0.069252975
0.10163801
0.0069361688
0.012558684
-0.051988658
-0.051360466
0.03884411
0.008501475
0.0841756
-0.082634665
0.015167371
0.04856788
-0.017540904
-0.012724483
0.07132552
0.00013845878
0.07175097
0.056954417
0.07922212
0.090319455
0.019049687
0.06647501
-0.046557207
0.060425263
-0.06472585
0.02521923
-0.025845401
-0.018624883
0.03742751
0.06928187
-0.076174736
-0.023996683
-0.043864988
-0.091846034
-0.0022941693
-0.059447445
-0.071770586
-0.09242451
0.025545878
-0.079990886
-0.10135573
-0.08807616
0.090113826
0.05049699
0.0722697
-0.09700341
-0.06412016
-0.031728745
-0.046654187
0.08981468
0.05311004
-0.009320709
0.028527297
0.0004983091
-0.0024554397
-0.06065823
0.048801795
-0.043007728
-0.091326036
-0.05037031
0.09254493
0.08426091
-0.0626131
0.036381453
0.046510123
-0.08394399
-0.049648874
-0.060073547
-0.085131295
-0.010971321
0.059928175
0.075671084
-0.073047385
-0.051913533
-0.081865534
0.03863554
-0.032528624
0.0772289
0.008434481
0.03834046
-0.123266675
0.047935355
-0.012487065
0.075663686
-0.08915722
-0.023822075
0.05123735
-0.09007866
-0.042044956
-0.03441071
-0.056719404
-0.020598177
-0.024561407
-0.07052256
0.0068968455
0.014784662
0.0471318
0.070283495
-0.01891121
0.054564048
-0.02667821
-0.072535686
0.05677546
0.00067956455
0.07358458
-0.08017563
-0.07215062
0.002651197
0.049907144
-0.022069385
-0.04509329
-0.057863448
0.004169141
-0.08257741
-0.010169064
-0.023675183
-0.004803776
-0.06509241
0.051687375
0.06782394
-0.04238057
-0.061640527
0.022632416
0.083892465
-0.01165954
0.011811364
-0.031448662
-0.022949874
0.01779298
-0.056023244
0.058316775
-0.08934009
0.06387566
-0.095631465
0.017414998
0.12885976
-0.046285793
-0.060969263
-0.018724723
-0.023007944
0.052396137
-0.07545013
-0.058575165
-0.049096137
-0.04004169
-0.009105639
0.06720448
-0.008408484
0.04037343
-0.008214613
0.04082322
0.044947118
0.015602519
-0.030521777
-0.008623284
-0.08089178
0.03292229
-0.0048167086
0.0048023695
0.01786788
-0.019947438
0.044990335
-0.003313587
-0.026009837
-0.079826325
-0.072342016
0.044200353
-0.0104387645
0.060112488
-0.007524943
-0.0583797
0.10012054
0.05194297
-0.034188244
0.0070304596
-0.04230916
-0.0012407795
0.014323805
-0.070784256
-0.0025934845
0.07713787
-0.023387201
-0.014729057
0.09221471
0.03964558
-0.0421556
0.076304555
-0.061447002
0.0015632836
-0.045278918
-0.0017008762
-0.042979322
0.064642355
0.0593391
-0.089842215
0.11076802
0.082642
-0.052659396
0.03899798
-0.05543968
-0.07306604
0.053519655
-0.035948876
0.045136143
0.047196537
-0.014165115
0.0051185917
0.054625865
0.04055226
0.06400295
0.009886802
0.08384551
0.0051137065
-0.052221365
0.09542221
-0.020523792
-0.012732341
-0.06711717
0.027762506
-0.06657273
-0.09353792
0.06384603
0.1026951
-0.09617498
-0.017611695
-0.07211456
-0.043905705
3.0695606e-05
0.00012330653
-0.061914403
0.041166
0.08381431
0.118097454
-0.086333044
-0.08907847
0.05191025
-0.083743766
0.024738502
-0.065166
-0.020357061
-0.010214076
0.06956941
0.038315717
-0.03564386
-0.016639752
0.009497792
0.041030962
-0.043068647
0.039074093
0.065593086
0.068591304
-0.0007171753
0.08711426
0.10193711
0.12910494
-0.05075634
-0.05980916
0.061562672
0.03113488
0.038683772
0.034052953
0.050352048
-0.025746869
-0.06902304
-0.0005527745
0.07883473
-0.06492463
0.07977628
-0.095062315
-0.024697874
-0.0011957535
0.09921595
-0.03281799
-0.07559706
0.050750088
0.09229538
-0.07803476
0.005746205
0.013330113
-0.06268696
0.08932536
-0.085001856
-0.04450538
-0.08578426
0.09370406
0.10534138
-0.06606135
0.003739652
0.038872674
-0.1058919
-0.071794935
0.00028954106
0.035677917
-0.07695235
0.08164777
0.049049556
0.05883492
0.08225205
0.02070727
0.054558426
0.017227855
0.060083706
0.06534306
0.06728235
-0.016777331
-0.07859618
-0.08338997
0.043959867
-0.0255957
0.07665622
-0.057640612
-0.04490552
0.014874417
-0.057962716
-0.063013196
-0.10131584
-0.07767276
0.03840933
0.09437377
0.029172726
0.046050634
0.056099273
-0.054962024
-0.041486025
0.035215866
-0.024974901
-0.017101388
0.010733415
0.037220526
0.038153272
-0.10222199
0.009620872
0.04477368
0.019287836
-0.014933516
0.009628453
-0.030307008
-0.09714065
0.078966975
-0.08783408
-0.03152019
0.036339343
0.08058233
0.0675719
0.0757489
0.054367095
0.029453771
-0.036548357
-0.026639111
0.06146861
-0.023172049
0.013027245
0.03570001
-0.031219246
0.08782449
0.069034815
-0.038024485
0.06874643
0.091337994
-0.06734571
-0.06341055
-0.06627419
0.034622993
-0.0829775
0.042975806
0.039033856
0.07994768
-0.082636416
-0.05589725
-0.005483087
0.04627207
0.0059884456
-0.05408479
0.038394995
-0.03169457
0.056425598
-0.032777123
0.08477901
0.037024345
0.03701595
0.040052712
0.043296143
0.0062376945
0.0596102
-0.030932007
0.07598681
0.0020500843
-0.0073830327
-0.07327468
0.034399725
0.061754726
0.014141681
-0.07446968
0.020146348
-0.056414664
0.056721322
0.051972855
0.06158117
-0.0033169447
-0.07676682
0.011593621
0.037914287
-0.010859131
0.010419577
0.03902025
-0.04195163
-0.01373705
-0.03619808
-0.015591572
0.021645727
0.038104728
-0.021861551
0.07287773
-0.07528833
-0.10125942
0.06413372
0.033464063
-0.048396148
-0.0045853076
0.06488363
0.04256514
-0.09534725
-0.04507603
-0.08337114
0.03844723
0.10868908
-0.053390216
0.06502195
0.067589514
0.064670905
0.03823273
-0.04387342
-0.034786083
0.015417347
0.09135752
0.04607886
0.07509256
0.027732296
-0.034681264
0.02877361
0.031508416
0.089576714
-0.01210774
0.07200969
0.03904213
0.049074054
0.08431528
0.06923636
-0.026754716
0.031804644
-0.034059875
-0.073943086
-0.071372174
-0.05265841
0.013539241
-0.0100852465
-0.022324866
-0.03614716
0.06640988
0.008602252
-0.019243782
-0.0398615
-0.0077332268
-0.075243324
-0.022396844
0.08374758
0.0117923375
0.05348266
-0.0025001247
0.068948366
-0.09962063
-0.059379417
-0.06610673
-0.10126316
0.06635062
-0.008864908
-0.019308725
0.07127788
-0.042263724
0.039973646
0.02786475
-0.0134539325
-0.08819298
-0.049152534
0.11475538
-0.034996808
0.03836922
-0.03675603
-0.006596124
-0.035725735
-0.08821659
0.0806966
-0.11410203
-0.03641065
0.020659497
-0.048024517
-0.028649602
0.017999865
0.07382944
0.019850595
-0.07390064
-0.0643521
-0.02528093
0.04423164
0.025526809
0.013148881
0.060185377
0.05326674
-0.013799058
0.09730891
0.08745884
-0.009688459
-0.08117451
0.05699583
-0.004403395
-0.084930114
-0.040127262
0.114608526
-0.009106913
-0.068928
0.023028065
0.08931553
0.055734713
0.0069144075
0.04384798
0.044553168
-0.10743059
-0.03795304
-0.04090352
-0.007464063
-0.13563061
-0.012801937
-0.08605697
0.043357864
0.047624234
0.070510924
-0.0498683
0.014866718
0.041135047
-0.04273235
0.011765282
0.1091571
-0.019157447
-0.084645055
0.03400043
-0.018032685
-0.06989246
-0.11494513
-0.06678046
-0.063646995
-0.0024477092
-0.0125599075
0.022230508
0.08205852
-0.051824864
-0.084794536
0.05885956
-0.008531681
0.044249944
0.00055587414
0.06012805
-0.055740003
0.08802483
0.017638361
0.025534753
-0.07658067
0.035334274
0.049684655
-0.09059635
0.007192094
0.07460541
0.08161353
0.09263431
-0.009513265
0.060490925
0.03649875
-0.084956594
0.06770166
-0.01875516
-0.07359915
-0.04577405
-0.015090294
0.04021493
-0.09011879
-0.06515461
-0.096632
0.03869995
-0.07962097
-0.017377356
0.13152859
0.089050405
-0.033990193
0.0079850415
0.0067155617
-0.0010848176
0.065047
-0.07445719
-0.100308225
-0.059401598
-0.085788414
-0.04232826
-0.02721957
-0.07588718
-0.016101658
0.04646554
0.016569737
0.044043522
-0.035676915
0.083989434
-0.042066433
0.099548645
0.011729781
0.059053518
0.02367258
-0.05285286
-0.046305563
-0.085064344
0.06529399
-0.07712607
-0.11926208
-0.12272326
-0.109234475
0.040186025
0.074948095
0.066538654
-0.011711552
-0.05676457
0.07204567
-0.081660554
-0.08766155
0.08597882
-0.032649115
-0.025651038
-0.02216602
0.033266623
-0.00386432
-0.030266114
0.09708843
0.0031017389
0.031784758
0.037174672
-0.09707954
0.08774461
-0.011470756
0.06747769
-0.04548453
0.0019249514
-0.060815666
-0.00051652535
0.085070215
-0.06518047
0.04333919
-0.030245831
0.0680993
0.081109755
-0.06792236
0.110291705
-0.023022385
0.033197537
-0.08438481
-0.02444166
0.04150715
0.07936314
-0.070248865
-0.05256469
-0.02839829
0.043665912
0.016215827
-0.076508
0.002942509
-0.02219372
0.044522103
-0.020309087
0.034822382
0.090275295
-0.07676118
0.09170688
0.07673271
0.030853378
0.00043189107
0.054485347
0.048331644
0.041761734
-0.019701868
-0.038768668
0.024632629
-0.065397575
-0.046610214
-0.1146083
0.06191239
-0.0058610295
-0.000817917
-0.030302154
-0.07291773
0.030738486
0.06447263
-0.020148665
-0.0053069205
-0.069057636
-0.00029444761
0.06973762
-0.024077535
0.06519114
-0.017242521
0.03420304
0.0626285
0.082796484
0.028006138
0.101936914
-0.10168397
0.05811964
-0.08310893
0.1071563
-0.051731046
-0.059976794
0.03530499
0.05941377
-0.0033542898
-0.015494973
-0.007537579
0.03285747
0.011111688
0.06082824
0.09353651
0.049920797
0.076614656
0.10369444
0.06687379
0.014052862
0.075963795
-0.06331045
-0.01404344
0.042690177
-0.06402043
-0.03117991
0.068584196
0.028291872
-0.00070609397
-0.020526152
0.04475248
0.0035727338
0.011332547
0.06977607
-0.0749364
0.032022387
0.009942588
0.03477707
0.06751528
-0.08851159
0.09525446
0.043389544
0.042720232
-0.07779174
0.06259179
0.07197509
0.08014466
0.09395919
-0.10132478
0.071136735
-0.013851983
0.09315213
-0.05361601
-0.035656065
-0.012733203
-0.1067204
-0.07314503
0.087457046
-0.03475926
0.02511316
-0.009654462
0.044370722
0.03122776
0.08474544
0.009233074
0.07059606
-0.005335255
-0.088637434
0.018730149
0.0929362
-0.0073082945
-0.081044525
0.07979341
-0.032764915
-0.07282029
0.0780471
-0.06394635
-0.046152137
0.07246611
0.014999261
0.040888827
-0.025294771
-0.015828388
0.019117825
-0.059775513
0.027345365
0.027889429
0.081148416
-0.099369474
0.090455286
-0.07443944
0.029601954
-0.056222506
-0.00058051763
0.048934296
-0.0094412435
0.08305827
0.077803425
-0.018050928
0.045924496
0.067123905
-0.03323392
0.041378863
0.12000092
0.026640635
0.0040551913
-0.07994362
-0.057492774
0.02640115
0.03199158
0.09657727
0.0422299
0.10177963
-0.019488927
0.012030904
0.10073255
0.045536425
0.050959032
0.07274397
-0.013113006
-0.03790424
0.041042857
-0.07205086
-0.04381625
0.08382086
0.042643342
-0.0005224036
0.014622907
-0.090899855
-0.053307205
0.0545147
-0.039831877
0.069208615
-0.07056299
-0.077036224
-0.054483514
0.056395236
0.06041703
0.06254203
-0.057621825
0.035362177
-0.004746662
-0.02660711
0.0105009265
-0.0712786
0.06902094
-0.02966782
-0.11150381
0.06326629
-0.022849197
0.03760871
0.02430674
-0.084484674
0.029695854
0.032140326
0.04346943
0.018491644
0.06472435
0.037611056
-0.056680303
0.032228276
-0.11951993
-0.060802154
0.0125077795
0.017775396
0.07432394
0.018911732
0.07001088
-0.05481011
0.036427874
0.0045622992
-0.017069615
0.110997684
-0.021564238
-0.108088076
0.08710648
0.08225225
0.034316145
-0.0380682
-0.09281387
0.0044544553
0.051408984
-0.04099304
-0.021514107
0.092898265
-0.07988307
0.04157692
0.015539544
0.0006565477
0.050884325
-0.016678426
-0.03156647
0.045975916
-0.07316715
0.02521499
0.002038569
0.1021785
-0.12600389
0.07433838
0.047127992
-0.06186795
-0.045666315
0.07075107
0.051907487
0.03192032
0.059795544
-0.05799448
-0.004398227
-0.03599401
-0.0980127
-0.029486412
-0.03459976
-0.07494335
-0.053229865
0.06586588
0.026277341
-0.065405466
0.08490598
0.047553875
-0.02857609
0.029268619
-0.07526759
-0.016043276
-0.041650183
0.019631866
-0.02847631
0.04624216
0.063177526
0.017830411
0.06112341
-0.06523074
-0.09432785
0.04615089
0.043212105
-0.075640455
-0.09720415
0.002180665
0.069148414
-0.012978839
-0.06319333
0.01377926
0.062345535
-0.10971557
-0.011553345
0.035691466
-0.041524768
-0.08570175
-0.011019617
-0.04614423
0.017649524
0.05190244
-0.098395675
0.04437395
-0.0014168565
-0.049035423
-0.062015757
0.0917352
-0.06135284
-0.045541108
0.022404237
0.00928575
-0.040659033
0.020395925
0.016956955
0.058432963
0.047924247
-0.09956254
-0.12160638
0.08476447
-0.10916331
0.02061485
-0.057157613
-0.092078626
0.02368852
-0.038160197
-0.016080039
-0.068976134
-0.0114798155
-0.11902199
-0.086218506
-0.009976943
-0.031753745
0.002089745
-0.010357495
0.057166334
0.050654244
0.059799526
-0.082050525
-0.0485779
0.077216476
0.05484485
0.031794485
0.052060388
-0.11594041
0.0015527201
0.030846536
-0.08657863
0.022172965
-0.08775098
0.070333384
0.09445124
-0.02386902
-0.09924151
-0.0014912719
-0.054240298
0.01065688
0.1050124
0.06313035
-0.056593526
0.054229505
-0.012255662
0.015735153
-0.008838362
-0.0420287
-0.040407524
-0.046703026
0.017344173
-0.038571704
0.07719463
0.05991709
0.10698689
-0.048473854
0.042981792
0.028000109
-0.08130316
-0.045406274
-0.07316256
0.043840103
-0.06320047
0.069273934
0.09738779
-0.07714844
-0.046172425
0.06541008
0.07587669
-0.07794289
-0.08407077
0.08529683
0.05125955
-0.038822547
0.08662424
0.043085825
0.04199718
0.02826999
-0.05627301
0.10480657
0.08537006
0.09931177
-0.049891338
-0.0200218
-0.08071778
0.029264
0.07656619
0.06967628
-0.10076173
0.057187278
0.04580677
-0.08634206
-0.030803379
0.10084739
-0.024018673
-0.083036646
0.0020600057
0.09349674
-0.036710966
0.073128164
0.013729549
-0.07651289
0.08290736
-0.06453998
0.081817366
-0.025684118
0.06590905
0.035826728
-0.10522163
-0.07485904
-0.0047370517
-0.004268211
0.065071
0.07670276
-0.013645203
-0.0061190934
0.10865485
-0.08343779
0.043818343
0.011658429
0.098245904
-0.055494286
0.03781555
0.016242882
0.020692766
-0.09860231
0.037382636
-0.08989519
-0.020868003
-0.036038503
0.008218942
-0.05961404
-0.07764212
0.051412128
0.042549547
0.028856602
0.06765676
-0.022119243
0.08006716
0.06951027
-0.043374043
-0.05499215
-0.06279856
0.04912915
-0.0066227685
-0.044037316
0.05982429
-0.044632107
-0.08659967
0.0143206455
-0.035380017
0.08580451
0.052952904
-0.035993814
0.032337572
-0.08407019
-0.007295921
0.04584286
0.009065927
0.007060843
-0.05641925
0.06548388
0.030083217
0.05270296
-0.005678538
-0.09944023
-0.024401883
-0.078989066
-0.06318322
-0.052879553
-0.0813093
0.034994237
-0.07702693
-0.06732825
0.08772097
-0.07923654
-0.0013671074
-0.02997162
0.059926443
-0.10551187
-0.006261708
-0.06900126
-0.051704727
0.052296717
0.05777144
-0.023890065
-0.057182208
-0.037062038
-0.04685832
0.07750716
-0.13973442
0.07635068
-0.043551695
0.007770089
0.087145336
0.053056113
0.0071893013
0.07172042
0.02501382
-0.05360909
0.07105571
0.011814418
-0.019775946
0.019947642
-0.052286644
-0.078476764
0.08249057
0.0960034
0.048625518
0.009839168
0.08199639
-0.105543524
-0.041855246
-0.08300128
0.082770176
0.008291532
0.07595691
0.027682401
-0.09385683
0.0072220224
-0.067807116
0.06384245
0.024686182
-0.1213672
-0.018883346
0.08832312
0.064510524
0.023094365
0.05295528
0.044528287
0.04718316
-0.080280825
-0.049667064
-0.03651298
-0.012304271
0.029266702
0.078069046
1.2160232e-05
0.07681798
-0.012540794
0.008197292
-0.043975644
-0.0017138716
0.065290764
-0.077442
-0.08478668
0.010920503
-0.061345726
0.10791964
-0.044261098
0.06229886
-0.08137014
0.051674973
0.058755767
-0.09475386
0.030636624
0.086388744
0.06876758
0.0836145
-0.0123671545
0.027883686
0.031794645
-0.069305606
-0.033801258
0.109828785
-0.058583945
-0.018690757
-0.04889999
-0.048345633
0.0017109131
-0.08627312
0.01705729
0.049985193
0.038986523
-0.054472126
0.036579367
-0.09094325
-0.043018714
-0.008169141
-0.028214663
0.028490674
-0.016917173
0.012194351
-0.09782628
-0.027843649
0.036759708
-0.0974149
0.072196305
0.03550226
-0.046720665
-0.0844365
-0.027804203
-0.07117277
-0.052431136
0.10041427
0.007064464
0.012239751
-0.0032430035
0.03229044
-0.06255752
-0.043813113
-0.07591126
0.090138555
2.719679e-05
-0.091901064
0.05535462
0.050511178
-0.05404292
-0.0077736652
-0.041358776
-0.08707954
-0.0035160135
0.028663639
-0.017494768
-0.07414038
-0.0227842
0.018039456
0.020767497
0.0038753534
0.014098619
-0.028579613
0.041444242
0.039996073
-0.05409256
0.017613294
0.0541328
0.06088361
0.059246648
0.006581096
-0.037501957
0.0050935913
0.028131722
0.10690226
0.03351876
-0.076356694
0.023352908
0.053445946
0.026982037
0.024458816
0.055613607
-0.022000704
-0.08885837
0.009185094
0.005352308
0.076088846
0.048586182
0.00034413434
0.049228095
-0.060044512
-0.06647654
-0.04398001
0.09091718
-0.025776763
0.051767863
-0.10178642
-0.07546867
0.13639021
-0.0077169356
-0.059165064
-0.020838477
0.070537455
0.05219605
-0.055528402
-0.038119055
0.006856268
-0.054667987
0.01976635
0.090453945
0.018913042
-0.032830965
-0.0066005657
-0.037603784
0.011419865
0.079028174
-0.113537066
0.021812437
0.07981901
0.0063978024
-0.010316136
-0.027852774
-0.10299795
-0.06384405
-0.006202082
0.030782185
0.091340855
0.009898596
-0.056976676
0.073758185
-0.06280514
0.09820256
-0.03914492
0.017442767
-0.06593801
0.08968127
-0.070563294
-0.053903945
0.03070266
-0.06869477
-0.09376878
-0.0037752825
-0.025159338
-0.09573218
-0.022259826
0.072206
0.106565535
-0.040273212
-0.00080277596
0.034123506
0.088021904
-0.010538335
0.06709094
-0.04845976
-0.008492531
-0.09497343
-0.024172153
0.08329128
0.04277978
0.085099034
-0.09266695
-0.024359383
0.13114284
-0.07813286
-0.069696054
-0.10394334
-0.08074139
0.059114967
0.085401006
-0.08010847
-0.00910278
-0.06847583
-0.0075767697
-0.07295976
-0.035172086
0.005572393
0.06314324
-0.02604266
-0.060755506
0.10375487
-0.018290598
0.019265186
-0.06448454
-0.0062331343
0.08322501
-0.008234327
-0.0885497
-0.04505134
-0.0059503377
0.025378484
0.07426038
0.061476678
-0.025756693
-0.066049956
-0.074855626
-0.050427154
0.040942892
0.036581606
0.051411193
0.09168289
0.0971127
0.044143688
-0.10258356
0.08183782
-0.010066585
-0.05405438
0.08081678
0.057542775
0.024617024
-0.01767693
0.07566105
-0.044201992
-0.052654516
-0.00081877434
0.051467076
-0.0054174466
-0.046607815
0.00060414
0.029389042
0.020526327
-0.08280386
0.053816367
-0.02284328
-0.108178616
-0.044967808
-0.0149511155
-0.035436876
-0.07726572
0.090831585
-0.08208568
0.05930516
0.062937
-0.018937021
-0.044379637
-0.026975054
0.041514862
0.046615176
-0.09369915
0.085147746
-0.062849104
0.052786656
-0.072225645
0.08288399
0.061652776
-0.05729005
0.044584233
0.07360275
-0.103782885
-0.03989934
0.018045316
0.022087539
0.021656293
-0.050632894
0.0371958
0.011898724
0.082246944
-0.099710114
0.00645363
-0.018308753
0.058986407
0.009638771
0.05021477
-0.09268378
-0.072422676
-0.05219356
0.012999011
0.0955812
0.07408932
-0.05412187
-0.038312595
-0.086815864
-0.019643033
-0.054405913
0.022890484
-0.04110049
-0.09249852
0.044815265
-0.09188975
-0.03644175
-0.054037888
-0.08124533
0.043609593
-0.030595746
0.035600647
0.03188871
0.1077373
0.027936494
0.08407432
0.0629979
0.07032428
0.028900994
-0.015753208
0.019218545
-0.07241951
-0.061691754
-0.09198086
0.0014573752
0.042403758
-0.0071582426
-0.057726327
0.108580284
0.031037936
-0.034080844
0.0547705
0.018432686
0.016861537
-0.084507056
-0.06473121
-0.0020201837
0.035903238
-0.021596255
0.014814304
-0.016412456
-0.033977896
-0.11324549
-0.026673505
-0.0332255
0.091728404
0.085696585
0.071295574
0.0026198903
0.11562083
-0.07405884
0.08060765
0.07208418
-0.00059292366
-0.11475454
0.045537595
-0.06676923
0.003560745
-0.07117923
0.06403863
-0.06250607
-0.073928274
-0.014652121
-0.040609125
-0.014652729
-0.07271566
0.13173334
0.011001308
-0.099211365
0.09402346
-0.044847205
-0.07005872
0.033709314
-0.033101834
0.09512128
0.05436133
-0.054932944
0.053696908
-0.08055542
-0.0020194615
-0.072263494
0.014352329
-0.013027955
0.07311678
0.031593937
0.052696545
0.034928884
0.06289765
0.049512047
-0.08273441
-0.061658636
0.092856534
0.0809383
-0.035595518
-0.025898896
0.014023229
0.0049705445
-0.07451067
-0.10338234
0.08215551
-0.08182828
0.04780663
0.05649188
0.036202762
-0.08729793
-0.07540383
0.06175946
-0.06807469
0.024415396
-0.096043296
-0.07092244
0.012884289
-0.005866105
-0.0062428764
-0.069487035
0.013051106
-0.0554716
-0.054472603
-0.010210515
0.051747594
0.08442903
0.08623825
0.022572042
-0.02493468
-0.02256514
0.04035666
0.06548125
0.029238848
0.1185591
0.00017778634
0.03579973
-0.046206255
-0.11466934
0.08763037
0.10583596
0.023189751
0.030724715
-0.024151973
-0.09637404
-0.022644518
-0.07531575
-0.08141524
-0.0937117
0.023797944
-0.00037095978
-0.066395596
-0.000668823
0.019236006
0.060128324
0.058766883
0.025704376
-0.08928054
0.057255197
0.019046472
0.03823195
0.04988892
-0.01410478
-0.03947881
0.058347244
0.05845564
-0.073639855
-0.052875895
0.055914413
-0.031133251
0.012999257
0.051856905
-0.09106452
0.0744933
0.028556103
0.05632452
0.03541636
0.051509224
0.08282636
0.03499225
-0.102459535
-0.047932357
0.100591764
0.08287839
0.030441882
0.08319379
0.06869716
-0.06843787
0.052337054
-0.020248067
-0.08644939
0.0025757244
-0.1281128
0.019096559
-0.07612448
-0.08307448
0.07810882
0.061490968
0.09509598
0.040315617
0.07366188
-0.025819989
-0.020339197
-0.095556214
-0.042550907
0.0997903
-0.027464913
0.0028471206
0.07167894
-0.097386934
-0.08548382
0.077472396
0.06379983
-0.09363789
0.07557153
0.053743985
-0.08863663
0.08755451
-0.098470986
0.089647636
-0.04766293
0.05436708
-0.10737913
0.04229384
0.08639073
0.028174447
0.079923786
0.020694977
0.04938895
0.109119765
0.057206754
-0.0050685434
0.06455042
0.059556156
-0.101567656
0.07076852
-0.0844993
0.0034865653
-0.06937645
-0.03769736
-0.00563609
-0.0068820124
0.023781564
-0.006023104
-0.08261196
0.05173883
-0.0729782
-0.093472235
0.037025716
-0.05138819
-0.06253363
-0.08797722
-0.06464287
0.047908038
-0.054988712
0.032331116
0.086483456
-0.0057927957
-0.09063784
0.000405384
-0.008579836
-0.10794952
-0.034979366
-0.07032144
-0.031539578
-0.08957634
-0.115024045
-0.034121323
0.06913124
-0.026232647
-0.02745
0.08274644
0.06614999
-0.078774996
0.058776718
-0.024410658
-0.08247005
-0.07336404
0.051610153
-0.054627676
-0.07774263
-0.11297286
0.030589165
-0.07909308
0.070445016
-0.09381526
0.02762962
0.042977422
-0.092087366
-0.054890066
-0.072463065
-0.033409905
-0.052904725
-0.06961375
-0.040000822
0.019160314
0.00037659958
0.034463722
-0.05584342
-0.08211268
0.083524026
0.025385404
0.03732478
0.037429586
-0.09417984
-0.093622334
-0.09281866
0.057016343
0.021697592
-0.013744603
0.082162604
-0.090368725
-0.05903392
0.08437204
0.068572424
0.08065411
-0.09933162
-0.0009837681
0.09308836
-0.014894763
-0.07071828
-0.10721906
0.04838971
-0.028536968
-0.044398587
-0.02802404
-0.06424726
0.031250868
-0.045291346
-0.055858098
-0.008207127
-0.033445466
-0.07920948
-0.06905911
0.08280843
0.011722608
0.0935634
-0.0026036315
0.017058056
-0.009953702
0.0016242876
-0.01179283
-0.121950194
-0.02557484
0.03224841
-0.032705687
-0.041167475
0.0008002438
-0.04016232
0.060289234
-0.006231463
0.10661863
0.053813726
-0.07107832
-0.025959203
-0.04869746
0.02081297
-0.011794059
-0.04662532
0.03652542
0.0204848
0.08206761
0.04184024
-0.044019725
-0.02636727
0.041279826
0.025847986
-0.07471372
0.015684396
0.07918864
-0.056410752
0.020107873
-0.03803103
-0.022584384
0.040582724
-0.028776478
0.050420757
-0.0783367
-0.0915245
-0.025247596
-0.053226396
-0.03180977
-0.09561984
-0.040790163
-0.046175808
0.04953023
-0.063296355
-0.021075677
0.066004775
-0.055997748
0.0014524437
0.08252643
-0.05315497
0.098884255
0.057669304
-0.009850623
0.0522059
-0.10420736
0.053295553
-0.068274766
0.100221
0.06124477
0.050756868
-0.07692666
0.009709435
0.05031775
0.08407919
-0.035956718
-0.057283137
-0.046807062
0.091354474
0.058095068
0.071178116
-0.026122676
0.085711434
-0.083702944
0.041565146
-0.049817275
0.09306378
-0.09991052
-0.057736162
0.047775898
-0.0984037
0.032126967
-0.036985923
0.07406368
-0.08503348
-0.006562137
-0.10188418
0.022938576
0.010916831
0.05055369
0.09002168
0.10983659
0.07506359
0.002839361
0.041082263
0.006000553
0.01380239
0.07162804
-0.013803906
0.025519723
0.08560926
0.033371974
0.033342995
-0.06451504
-0.10041378
0.038719486
-0.018054966
-0.069434375
-0.0054417364
0.026716733
-0.0761374
-0.06406651
0.0727394
0.07350968
-0.074108586
0.022569422
-0.019656513
0.08004959
-0.107958704
-0.07463644
-0.06967416
0.03398235
-0.077281035
0.010451501
0.004135225
-0.087887175
-0.05384439
0.004123162
0.015578945
-0.09944937
0.07848217
-0.09400515
0.06371275
0.09570465
-0.07904777
-0.07774691
0.031907115
0.06463188
-0.03846183
-0.06945422
-0.01939331
-0.03974524
0.03892796
0.091089524
0.06613051
0.0020378155
0.019649124
0.1009529
0.00617872
-0.021981433
-0.03131724
0.010050688
0.0118003
0.0068692323
-0.00084083126
-0.020977702
-0.05381641
-0.1040826
-0.081390165
0.104248405
0.13353325
0.11505865
-0.069504775
-0.031460375
-0.035678964
0.09077306
0.005670106
-0.10389599
-0.019369677
-0.073193625
-0.0402531
-0.05909121
-0.094540566
-0.08912888
-0.08718193
-0.090854116
0.025477173
-0.08741556
0.07051468
0.052334096
0.07291394
0.038657542
-0.042714268
0.0018368341
0.0052872244
0.056115616
0.040629487
-0.05555751
0.016440976
-0.033221975
0.08789934
0.035705548
-0.06286966
-0.055957567
-0.016460877
0.03954885
-0.077986166
-0.027629785
0.015081455
-0.044930935
-0.024889227
0.061623007
0.03490433
0.022443084
-0.054673348
-0.079717465
-0.07046834
0.077674784
0.000490723
-0.08338425
-0.006739168
0.108688705
0.08440694
0.04484356
0.084446944
-0.01610874
0.084856026
0.037160907
-0.083068766
-0.056633905
-0.0044419086
-0.0071272925
-0.09584313
-0.008476642
-0.005342821
0.08131123
0.013877988
-0.0480566
0.041105513
-0.1041554
-0.034348726
-0.025955487
-0.0806037
-0.037604064
0.10557415
0.08465146
0.06057945
0.009026865
-0.067505285
0.06439499
-0.117177464
-0.08847753
0.07753851
0.015523367
0.051171042
-0.0026935893
-0.069206655
-0.032433037
-0.0395462
-0.021752456
-0.054197147
0.014468758
-0.028827926
-0.08586479
0.0048081786
-0.052313477
-0.023941787
-0.013413615
0.034003038
-0.03592342
-0.11006429
0.037595127
-0.10761349
0.06193467
0.108726166
0.06989754
-0.031672243
-0.06553584
0.025404515
0.07533191
0.083745055
-0.07613654
0.09893034
-0.1035235
-0.112795405
-0.033000957
0.051420845
-0.11051734
0.027787486
0.039773304
-0.067333035
0.08997425
-0.04783872
-0.016812261
-0.040107988
-0.066463076
-0.0389278
-0.057460852
-0.03686984
0.04742161
0.07615749
-0.06924339
0.049356423
-0.0065489546
0.055192117
0.045868058
0.01604344
0.06329599
-0.033161037
-0.0066996166
-0.05908766
0.01636007
0.053811297
0.07158653
-0.02716727
-0.00025142488
-0.07782856
-0.042936664
-0.0070497156
-0.014929078
-0.089419015
-0.045076944
-0.07976579
-0.059036635
-0.09233481
0.02553046
0.087463126
0.07187182
-0.07390481
0.08963878
-0.009757083
0.064534485
0.06759965
-0.013166126
0.087837376
-0.053114835
0.08125287
-0.0070660645
-0.020725662
0.047068074
0.081742756
-0.0788277
-0.026435742
-0.079183586
0.011670446
0.0051115365
0.05583331
0.09581323
-0.047803637
0.007763832
0.047115706
-0.016516678
0.048907034
0.08369719
-0.025718259
0.0139843
-0.023203446
0.0853702
-0.106517926
-0.07970119
-0.00089809776
0.008855353
0.010265096
0.018391933
-0.009518842
-0.10450966
0.009870262
-0.060877435
-0.02241095
0.032612048
0.06341349
-0.06717381
0.09314891
0.10985201
-0.0029051208
-0.052773003
-0.022063106
-0.07346245
-0.01221816
0.00019715476
-0.0065491716
0.082039
0.032075506
-0.018274652
-0.087495744
0.036770713
-0.002836319
-0.029175129
0.07170236
0.05315524
-0.075927965
-0.0765964
-0.06465194
-0.08424514
0.06327668
-0.03242873
0.0017049437
-0.09519762
0.08033117
0.06247095
-0.035338305
0.073217265
0.029687328
0.0076829763
0.010005797
0.10736015
-0.023318168
-0.07767629
-0.08888283
0.087077186
0.06193211
0.045481022
-0.089953944
-0.08102165
0.039968684
-0.1253191
-0.014069552
0.02054225
-0.025882896
0.043378793
-0.034242976
0.08808074
-0.10874293
0.0659544
0.065478265
-0.059992824
-0.09400522
0.08001948
0.08742174
0.004473724
0.07971863
-0.017570792
-0.08541004
-0.0060059964
0.022662407
0.0017637786
0.015865749
-0.04201004
0.06716942
0.045262776
0.028809495
0.078034215
-0.058371037
-0.008065698
-0.10139218
-0.10169901
-0.015352496
0.03469847
-0.0708297
-0.040763203
0.051870905
0.036780898
-0.07314376
0.06655749
0.039751984
-0.06460272
-0.10369076
-0.020174546
-0.07154339
-0.05690259
-0.06358252
-0.02528969
0.007124538
0.09094161
-0.08671752
-0.05688829
0.01120207
-0.10366259
0.030283047
0.031244518
-0.06186982
0.09455873
0.018187905
-0.061965052
0.0025568735
0.042644784
0.011597604
-0.004878072
0.1087179
-0.06313226
0.06810928
0.09056062
-0.040562622
0.045524977
-0.020635542
0.06438873
-0.038245585
-0.03369241
0.009154284
-0.047681574
-0.10063425
0.09300115
-0.046714123
-0.012437119
-0.0386717
0.057510782
0.057135586
-0.061409228
0.08106735
-0.041811913
-0.050943997
-0.085469514
-0.03899587
0.009405594
0.038267914
-0.13110343
-0.006323365
-0.040304374
0.04968751
-0.08017786
-0.040199347
0.07174601
0.06551572
0.047362752
0.00883805
-0.0031027568
-0.07206233
-0.019808816
0.027938327
0.062172674
0.03125614
0.011222616
-0.041674092
0.09558809
-0.07282482
0.026664265
0.010609601
0.042652294
0.030944973
-0.039411034
-0.055569205
0.03614891
0.029260572
-0.06050878
0.019802878
-0.09645391
-0.071823224
-0.03878923
-0.016682541
0.005153417
-0.0014415018
-0.08357323
0.10560949
0.062225983
0.08864213
-0.08558196
-0.07548172
-0.02554784
-0.022992777
0.0513692
-0.07723065
-0.061048284
-0.10538117
-0.03509472
-0.110365
0.008181939
-0.061945792
-0.044143353
-0.01876584
0.0031622585
0.02270761
0.06122585
-0.020713834
-0.030246843
-0.019769982
-0.02040889
-0.08404154
-0.0014253433
0.06494847
0.0835249
0.020539438
-0.057880472
-0.056651913
-0.030939506
-0.05437391
0.059455413
-0.028508194
0.06307797
-0.049813077
0.022270232
-0.03867981
0.05874208
-0.027997892
0.002859074
0.09934498
0.0045318757
0.07999818
-0.041778218
0.0734662
-0.049463417
-0.019581512
-0.033118557
-0.066058904
0.0020568317
0.066640005
-0.09193196
0.082526535
-0.092029646
0.04166899
0.087623276
-0.0133212535
0.067072645
0.028617738
-0.102761835
-0.10185984
-0.11743823
0.1185586
-0.018590342
0.021331074
0.08646845
-0.024784366
-0.0073296796
0.067216
0.06231989
-0.042877004
0.03840093
0.007243954
0.08118266
0.030458914
-0.08675256
-0.055818193
0.082928695
-0.029181305
0.07849174
-0.016479813
0.09055399
-0.06932448
-0.08230314
-0.081502035
0.0032717178
-0.10838663
-0.033160973
0.030166818
0.039727136
-0.015662884
-0.013223444
-0.04801487
-0.032738395
-0.019123785
-0.06134911
-0.068063
-0.07987671
0.00861372
0.08164541
0.044125557
-0.0036673362
-0.07207777
-0.029804435
-0.103795774
-0.030932173
-0.10359795
-0.060629953
0.109795004
0.019963669
0.10313662
0.10395648
-0.070746705
0.08082878
0.07130042
-0.028547335
-0.060130477
-0.042868085
-0.023201693
-0.03543967
0.014145458
-0.11340552
0.028004568
-0.06949137
0.06441776
-0.049312036
-0.03711189
0.050954208
0.08375338
0.06689346
-0.07011691
-0.05472611
-0.109065965
-0.08738613
-0.083625436
-0.053238556
0.061488416
-0.023943584
0.057751574
-0.014195797
-0.02371341
0.09868468
-0.00018705768
0.032894943
0.09206099
0.095394865
0.016984288
-0.03495005
0.047514856
0.030572692
0.02741139
0.051491637
0.07300075
0.017500332
-0.041803617
0.026013084
0.0030005013
0.028922563
-0.056507953
-0.05897946
-0.035100754
0.09806372
-0.01609554
0.07363396
0.07053278
-0.040327955
-0.07147085
-0.055682354
-0.065465875
-0.06085945
-0.06573931
-0.01179518
-0.040394496
-0.029752998
0.08700565
0.05095267
0.023961326
0.06642428
0.059592336
-0.11384085
0.009737294
0.07604816
0.0048445645
-0.012505163
0.09496081
-0.09378613
0.026007725
-0.029788565
-0.10808589
0.04086328
0.061139327
0.051605232
-0.06654772
-0.0012323008
0.066475
-0.06898623
0.09938849
0.023585485
0.03929494
-0.08852059
-0.029608285
-0.0008588128
-0.0028480224
0.012341524
0.024016032
-0.07262191
0.048165966
-0.07933511
0.028639149
-0.0058308435
0.009240675
-0.058455076
0.08238557
0.0395275
-0.060732055
-0.08339757
-0.017523943
-0.01408074
0.056356095
-0.087552324
-0.017444102
0.013803746
-0.0020524557
-0.0023574529
0.049119677
0.058723
0.075764306
0.028655179
0.07336946
0.08786128
-0.056926426
-0.01867507
-0.07353125
-0.098335914
0.0853304
-0.056587182
0.08758034
0.0075691333
0.016823582
0.09223572
0.06130307
0.10265147
-0.011443467
-0.0041186386
0.07070604
0.03548385
-0.04101112
-0.032208424
-0.038133178
0.032723643
-0.017330283
0.014269693
0.044035986
-0.08775076
0.0363116
0.02646306
-0.0022037907
0.09904432
0.024123808
0.025006099
-0.09889372
0.08680952
-0.06881058
0.08701203
0.05077665
-0.05746845
0.020834988
-0.06133035
0.01357644
-0.06327375
-0.027020771
0.016269859
-0.012952448
0.024954181
-0.021533474
-0.097737186
0.03523387
-0.089192934
0.053612564
0.056310434
0.043315258
0.05837004
-0.0045304336
0.08561312
-0.036271468
0.042175326
0.042057995
-0.105526514
0.08505866
0.015310115
-0.08535069
-0.08185928
-0.03151775
-0.011968313
0.06995347
0.08009581
0.003529829
0.09984005
0.03339917
-0.08146175
-0.023245033
0.008952343
-0.08415508
0.056810267
0.009462478
0.08575816
-0.102155976
-0.0052153273
-0.0639098
0.08198645
0.027688056
0.016421774
0.0010013076
-0.046030313
-0.019846737
0.0059743454
0.030522354
-0.024064923
-0.04452735
-0.06842622
-0.05136812
-0.08798534
0.026573699
0.041219622
-0.064569585
-0.09730528
-0.0031446274
0.054983437
-0.04649993
-0.00043548745
-0.025375115
0.022665292
0.020078598
-0.08769369
0.07700873
-0.052759565
-0.03670279
0.031556018
-0.010604285
-0.06599036
-0.020055218
0.058618117
0.07858762
0.070012935
0.007144764
0.066356435
0.00047694656
-0.008957116
-0.017718168
-0.02318482
-0.039187483
-0.083733864
0.013694772
-0.02218989
0.020338131
-0.046226025
-0.052303858
-0.09939321
0.025204694
-0.035274196
-0.08724906
0.005496976
-0.041745093
0.074039504
0.04721458
-0.07463575
0.07377106
-0.020179696
-0.10226735
-0.05788263
0.035870194
-0.06790421
0.094110236
0.07155493
-0.06327787
0.036339134
0.027138835
-0.0018315593
-0.031946942
0.012549248
0.08882849
-0.040847693
-0.048962858
-0.010445012
-0.009410935
0.02851381
-0.009273828
-0.08971099
0.007817496
-0.10839266
-0.042909853
0.055270854
0.08692712
0.021659134
0.036733065
-0.07750945
-0.024601197
0.06856987
0.072305076
-0.041014247
0.053302553
0.02333979
0.10972725
-0.06693262
-0.096390516
-0.061059773
0.021191237
-0.04161039
-0.07125661
0.0069111004
-0.022927422
0.0747437
-0.104294635
-0.05119893
-0.03727658
0.010537768
0.014064468
-0.023613391
-0.076892205
0.097602986
0.108305596
0.06893311
0.103067905
0.039260823
0.056329306
-0.05054684
0.0097794235
0.08302348
0.017228784
0.028284559
-0.061243676
-0.022532616
0.08664214
0.07638131
-0.010359452
-0.007355332
-0.08563148
-0.07473515
0.086759426
0.012383266
0.049590982
0.06731626
-0.018820178
-0.0410167
-0.02888816
-0.028728038
0.0072622146
-0.0038123662
0.12332928
0.037083205
0.0094407145
0.023532823
0.021076538
0.0645957
0.024074992
-0.079133846
0.013053981
-0.13089098
0.0923117
-0.00032906153
0.047748324
0.03173081
-0.026149796
0.0011008991
0.013257678
0.06371947
0.06746231
0.07923834
0.059902348
0.020996204
-0.049980786
0.02294587
-0.107837155
-0.08424538
0.0269913
-0.096699536
0.10149164
0.022297964
-0.07198345
0.0011118476
-0.041024756
0.055204295
0.049489398
0.029525245
0.029377928
-0.07247621
-0.06490894
0.05600991
0.08576013
0.0031333002
0.016073361
-0.08425277
0.05630444
-0.065530084
0.029021192
0.053029805
-0.03547306
-0.09156592
-0.028318623
0.06373152
-0.0641052
-0.06999784
0.06315133
0.021695819
0.058152523
0.06761697
-0.017046018
-0.03344989
-0.025549626
0.0066667553
0.031244038
0.0766798
-0.048975013
-0.02063189
-0.0402493
0.109993674
-0.011667242
0.027224949
-0.06314475
0.049033582
0.05271226
-0.015556062
-0.07844031
-0.04993371
-0.076396756
-0.00089666166
-0.014292455
0.09051622
-0.01578484
0.07203149
0.04312414
-0.10087121
-0.100509584
0.046063602
0.112949416
-0.041075975
-0.018500365
0.055048965
0.051464405
-0.07047133
-0.07670563
0.051835407
-0.075988345
0.087967806
0.022200767
0.032604396
-0.078922436
0.072136745
0.07436866
0.022900917
-0.058679502
-0.013995879
0.0024170887
0.102979556
0.01538098
0.013536963
-0.044281047
0.016162165
0.027008226
0.023387287
-0.014957002
-0.007965095
0.03958592
0.04704462
0.10011481
0.03227015
0.043814786
-0.06763084
0.020323036
0.046324436
0.017224317
0.044898123
0.0072989045
-0.08902196
-0.03577718
-0.08353977
-0.049174976
0.026976466
0.04959183
-0.048276093
0.033912785
-0.009541151
0.014250655
0.073429726
0.05264509
-0.03464751
-0.10355212
0.00999197
-0.016510485
0.055862755
-0.045971256
-0.07937448
-0.0747468
-0.034094647
-0.032591425
0.05492337
0.049360313
0.061878853
-0.10074981
0.025937619
0.010687417
0.050457384
0.037345804
-0.06155023
0.060786773
-0.004769817
0.07306672
-0.011318523
-0.0013417533
0.1122814
-0.10500257
-0.012770329
-0.005452468
-0.04000684
-0.004550172
-0.057105977
-0.044130042
0.069069035
-0.069543645
-0.01761011
-0.07398753
-0.024666315
-0.03814628
-0.008918448
-0.096722394
-0.05650932
0.0045153913
-0.034076054
0.011640421
-0.0038530715
-0.08259045
-0.03136699
-0.106037356
0.069176845
-0.08654364
0.07929673
0.010422961
0.04860566
0.02669901
0.009092724
-0.07440787
0.040508933
-0.07829266
-0.0598688
-0.045779362
0.04009089
-0.023982523
-0.024648417
-0.047475014
0.057615288
0.01646736
-0.004170139
-0.008977346
-0.07261962
0.0047733122
0.04608532
-0.039794803
0.0010415318
0.020247724
-0.016438918
0.017947333
0.024238337
-0.07520364
0.09765288
0.0483534
-0.016507851
0.038026366
-0.12007026
-0.062417135
-0.0028130854
0.06966916
-0.009048541
-0.028161917
0.0061210077
0.06909992
0.04723119
0.09195425
-0.086963266
-0.004521288
0.0787343
-0.07291893
0.09063632
0.10113987
-0.05991007
-0.03340951
-0.024505291
-0.012440453
0.05081736
0.055781163
-0.028519604
0.0050436
-0.12134843
0.057321813
0.07944903
-0.028656308
0.049014058
0.026758296
0.067155235
-0.09332686
-0.061403744
-0.06910504
0.06545894
0.056532405
0.04390366
0.0206085
-0.025139587
-0.0060945344
-0.010500103
-0.09234933
-0.01205574
0.0015009056
-0.034106344
-0.08111653
0.06501869
-0.06275229
0.021042008
0.085321054
0.11075136
0.008342291
0.050801262
0.098919496
-0.014689329
0.054087266
0.09871107
-0.12549387
-0.10258847
0.02788539
0.024826387
-0.08745633
-0.09619336
0.07386213
-0.06731481
-0.09976276
-0.076983236
0.052078556
-0.05354415
0.028880231
-0.05926126
0.05610104
-0.07398408
0.031011064
0.024820892
-0.013386351
-0.00865326
0.09430353
-0.09973114
0.016448122
-0.07048939
-0.03974151
-0.004542564
0.014309831
-0.050071348
0.05975968
0.09083655
-0.05034492
0.02213382
-0.11170699
-0.016643185
-0.044225987
-0.045952085
0.10518257
0.046617284
-0.018304314
0.047968242
-0.08828835
0.05479084
0.04636566
-0.04708644
-0.038156208
0.034189194
0.01035064
-0.04309695
-0.08078575
-0.0130056655
-0.024409091
0.101612695
0.01893057
-0.062784106
0.02889663
-0.020826545
0.066249214
-0.06837695
0.013652684
0.08049026
-0.028299913
0.033413045
-0.046670634
0.06367835
0.0058356696
0.040815942
0.04602479
0.010934334
-0.059643
0.0021880066
0.13540064
-0.007962999
-0.06803985
-0.050761294
-0.0800896
0.10867511
-0.063974425
0.003654786
-0.065443605
0.046430413
0.049160697
0.012334382
-0.020048343
-0.05223759
0.0030988038
0.05278974
0.04037791
0.057835836
0.027966546
-0.051984984
-0.011073575
0.020183248
0.088944025
-0.077433474
-0.008034102
-0.009352951
0.08167055
-0.07732416
-0.057591964
-0.015128209
0.031315297
-0.04104749
-0.0054261773
-0.052744932
-0.091358125
0.016960248
-0.0052667153
-0.031673446
-0.026583109
-0.044280697
-0.07045408
-0.11059534
0.07503616
0.0711054
0.085996784
-0.016243177
0.039693184
-0.090762794
0.041879788
-0.08296574
-0.062323663
0.054535385
-0.09939964
0.025583148
0.03894417
-0.08460863
0.06726158
0.08593735
-0.09197548
-0.0015591001
0.044188082
0.0027876617
-0.063320756
0.028210947
0.05762015
0.07148981
-0.08992734
-0.007722213
-0.013270047
-0.11634718
0.0063426727
0.08608476
-0.06705396
-0.07607178
-0.030538164
-0.056401476
-0.072833106
0.039609957
-0.017139906
-0.044213563
0.0006848964
0.110898
0.02636901
0.0042383135
0.026999466
0.0074447044
-0.06977367
-0.053839482
-0.058124408
0.04003382
-0.0850561
0.060752124
-0.03289064
0.05176762
-0.10301188
0.12717898
0.06421337
0.028353324
-0.059067607
0.035921715
-0.053219393
0.099550985
-0.0649473
0.007460363
0.09239147
0.0107879825
0.014123951
0.10321241
0.06366988
-0.09626766
-0.037707306
0.08274044
-0.06360526
-0.008835891
0.060633853
0.04335702
0.06512584
0.006053892
0.09404263
-0.027607486
-0.0058118687
0.0732883
-0.05384015
-0.05613172
0.094159864
0.091725715
-0.08294972
0.059043355
-0.07014321
-0.03748332
-0.043742053
0.018628685
0.005339082
0.035894234
0.06715225
0.0930224
0.058478758
-0.013758594
-0.006005361
-0.05317241
0.08842609
0.06374917
-0.08777744
-0.04711631
-0.11967477
0.0012555583
0.09573838
0.03248529
-0.11383558
-0.09407809
0.01828245
0.003484444
-0.039688736
-0.0808089
-0.0007572832
-0.071553774
-0.02266032
-0.032740813
-0.008112966
-0.048892524
0.07889212
-0.006308698
-0.031087277
-0.012554109
-0.055074543
0.09625318
-0.09908079
-0.093042105
-0.06481316
0.06789874
-0.06738427
-0.054288007
0.027516244
-0.07276316
-0.0684768
-0.053449966
-0.089141764
0.022352152
-0.025059545
0.0018268538
0.02233825
-0.05149151
0.1063379
0.031877417
-0.040838614
0.06456273
0.062573925
0.08986352
-0.05449388
-0.059575204
-0.012064719
0.03107557
0.08906737
-0.08762996
0.005749158
0.010556405
0.06780217
0.007455525
0.026694655
-0.092682816
-0.046324715
-0.037568655
0.047898162
-0.083385326
0.02584435
0.045220215
-0.048973043
-0.14111891
0.002122456
0.05712933
-0.06190215
0.062413357
0.09543888
0.060500648
-0.06383058
0.07521308
0.049595974
0.091527075
0.09190071
-0.086427025
-0.10876684
-0.00884331
0.07194807
0.060292985
0.07725246
-0.060077127
-0.059175804
0.0027772093
0.023028446
0.08141533
0.04075782
-0.11034734
-0.0808741
-0.049311798
-0.12172953
0.061354525
-0.08538359
-0.097216
-0.019314375
0.11415148
0.05594849
-0.06781131
0.03171066
-0.04110116
0.0530214
-0.10339098
-0.022038035
-0.027128866
0.08976667
-0.019183831
0.071943164
0.08583212
0.08007688
0.03233779
0.0056916275
-0.07395372
0.07109621
-0.021287704
-0.05633036
0.06031243
0.026054304
0.043496665
0.04065237
-0.027118437
0.064639494
-0.09846085
-0.0027202046
-0.050864328
-0.028375072
0.03537987
0.10131002
-0.0044628857
0.07728094
0.03376429
-0.031280432
0.0486921
0.014550753
0.09650032
-0.06315984
-0.013998428
-0.046723366
0.028866896
-0.080436245
0.07128618
-0.0144186355
-0.06819095
0.0057343533
0.03546263
-0.018598115
0.048006993
-0.026305621
0.086627044
-0.048435125
-0.004760706
0.041509956
-0.044556063
-0.049663767
-0.0143164545
-0.016898038
-0.07192389
-0.0042955354
0.044314343
0.07184465
-0.038800105
-0.065048054
-0.09118376
-0.057899922
0.07811292
-0.06864416
-0.069509216
-0.036138333
-0.055012703
0.043019738
-0.103034936
0.014093975
0.0512881
0.015057561
-0.090826266
0.038227417
-0.0031999606
0.04063824
0.052826878
-0.09757043
0.07399414
-0.022465922
-0.03312487
-0.019638797
-0.02594127
0.01123803
0.105705336
-0.07005637
0.04390967
0.0065536224
-0.05395499
-0.08093828
-0.020846784
-0.08296437
-0.009139213
-0.0048594666
-0.0053682416
-0.023810992
0.056978676
0.004470413
-0.07414094
0.014555372
-0.016004357
-0.024558911
0.032757442
0.060525812
-0.0561277
-0.055559903
0.007957042
-0.080986805
-0.00068984873
0.025133848
0.08483238
-0.039994214
0.03137304
0.052252058
0.09034409
-0.053526144
-0.0636968
-0.05710181
-0.029624516
-0.012608346
0.06808527
2.3499582e-05
-0.038729914
-0.042215798
0.053984594
0.05707512
-0.031063527
-0.08224583
0.11794677
-0.023001157
0.00047915222
0.030573258
0.04177014
0.0034598159
-0.08294014
0.086223535
0.010973352
-0.004672938
0.0056093414
0.05254137
0.05649291
-0.06789437
0.042210348
0.08475625
-0.09325378
-0.09501347
0.06285897
0.024190012
-0.049633417
0.09914076
-0.07335657
-0.011257629
0.056174
-0.039653428
-0.074324444
-0.07780736
-0.11481988
0.01146073
0.072715305
-0.011276747
0.072407596
0.076497525
0.0065451064
0.019391656
0.023987466
0.0660454
-0.116706826
-0.10107741
0.04880148
-0.08192524
0.10024546
0.06478105
-0.021568853
-0.09208435
-0.08089614
-0.009945694
0.03542531
0.054406743
-0.03722885
-0.049645606
-0.0035910541
-0.1143137
0.035532817
0.0012151578
-0.050945047
-0.02529741
0.08289211
0.02453142
0.0739437
0.07778448
0.09538514
-0.066487476
0.04056515
0.07489966
-0.016766164
0.022091327
-0.013610128
-0.061498176
0.024334721
-0.07350123
0.038005166
0.06570646
-0.07626729
0.027585644
-0.09742688
0.053808104
-0.042369273
0.043698464
0.07902125
-0.036860604
-0.10195292
-0.059819113
-0.09055134
0.01221184
-0.008798799
-0.0957195
-0.066134736
0.03876425
0.02547314
0.01463629
0.08637155
0.013370081
-0.056704957
-0.057846766
-0.0023686253
0.06622873
-0.0002964178
0.029532725
-0.08584151
-0.0025593003
-0.07924396
-0.03486157
0.020231888
-0.08788052
0.022927027
0.058737915
-0.039255176
0.018799258
0.0316616
-0.080928214
0.05829571
-0.0620109
0.009815365
0.020461177
-0.08498061
0.0020973615
-0.078288294
-0.10465194
0.05758304
0.011082824
0.104625836
0.058222596
-0.035035886
-0.013114252
0.03020212
-0.061510433
-0.10655845
0.056967422
0.052283585
-0.07617962
0.058960333
0.03474039
0.08024091
-0.04195141
0.019539272
-0.057085276
0.055698138
-0.07879387
0.022601297
0.065565474
-0.0040079025
0.038604096
-0.04186431
0.0039962446
-0.07039145
0.107393675
0.030216312
0.031100018
0.096909456
-0.07850614
0.012682671
0.054216843
-0.08797178
-0.108165234
-0.070033915
-0.012270745
0.0484594
0.12326224
0.071853876
0.0881921
0.080898
-0.0054467814
0.07410977
0.019004112
-0.021422401
0.07072856
-0.054213848
-0.010579006
0.0046001943
-0.013883903
-0.034064963
-0.0042323377
0.041654717
-0.09009396
-0.047869712
-0.06640602
-0.044079214
-0.088964455
0.0052039204
0.050776005
-0.02902963
0.05026937
0.10067562
-0.023864951
0.10203447
-0.011883819
-0.019512206
0.081737965
0.0104268985
-0.03065664
-0.03449099
-0.10524595
0.0025554355
-0.035236266
-0.023367008
0.053389695
0.05298006
0.023226503
-0.008559021
0.10099789
-0.041581843
-0.037017524
0.026628781
-0.0558425
0.050632305
-0.075909704
0.044472583
-0.015527792
-0.068154454
-0.026396701
0.115152426
-0.07212314
0.014424023
0.017457431
-0.013310346
-0.047989942
0.0048986063
0.065476544
0.05062313
-0.025356747
-0.06774261
-0.122127034
-0.06811869
-0.08441857
0.07892509
0.011095508
-0.045076925
0.059796315
0.00771877
0.014379336
0.08146682
-0.058498137
-0.046547882
-0.037248593
-0.0057383194
0.0079432465
0.055203028
-0.07820647
-0.014939133
0.08939367
-0.012999387
-0.05206137
-0.10657932
-0.012725575
0.06240256
-0.0012510765
0.06574841
0.040412918
0.02429331
0.03483222
0.086694136
-0.056197375
-0.04860745
0.08152648
-0.0058493456
0.057352085
-0.09106544
-0.085141845
-0.013775445
-0.09656242
-0.00905805
-0.039857235
0.019406212
-0.0029772215
0.042004652
0.04312844
0.061987232
-0.033367455
0.021772183
0.000963499
-0.0811077
0.07771372
-0.0045332443
0.023232266
0.07256963
-0.043812517
-0.11746345
0.019722294
0.03200778
0.01702755
-0.10398841
-0.06541046
-0.037906773
-0.038633164
-0.052366354
0.018964076
0.06935019
-0.06494425
-0.060672373
-0.055241946
-0.042771716
-0.043116227
0.09153024
0.07962327
-0.11112167
-0.02817552
0.050795324
-0.07283905
-0.010911507
0.10442044
-0.0035396887
-0.015782632
-0.07673399
0.091548234
-0.0012512828
0.059569754
0.07767316
0.04341533
-0.026004817
0.03474047
0.09819385
0.03354825
-0.019322133
-0.085775815
-0.087944254
-0.060353547
-0.0077029066
-0.016868994
-0.010749705
0.099558815
0.06306452
-0.010317207
-0.026338499
0.028228207
-0.03337062
0.047754887
0.056413826
0.05162819
0.026669864
0.020406457
0.031575322
-0.023609627
-0.10848903
0.023025798
-0.0041669994
0.084026895
-0.07005623
-0.07942246
-0.11682528
0.01684018
0.08133953
0.11255014
0.0018944752
0.074524894
0.08455343
0.084772244
-0.030999817
0.075302124
-0.037585557
0.003354882
-0.079603024
0.10819931
0.08312535
-0.058228634
0.10212363
0.061339654
0.047417816
-0.032671414
-0.020293916
-0.003174249
-0.07290115
0.063794814
-0.096422255
0.005862984
-0.06361042
0.04601149
0.118950985
-0.109178185
0.025206702
0.054650597
-0.07932792
-0.008244749
-0.07847857
0.02647514
-0.020177566
0.081937075
0.059010394
-0.005553868
-0.09442178
-0.10905693
0.083188884
0.039476383
0.043861896
-0.033268873
0.01576454
-0.017737223
0.061722264
0.11957227
-0.06752125
-0.0145973405
-0.06873721
-0.019764164
-0.03977863
0.11473789
-0.0073763314
0.06840785
-0.049836196
0.009060834
-0.06163919
0.09741176
-0.068935715
-0.020958778
0.068741396
0.055442896
0.014044408
0.015155654
-0.07534066
0.07187517
0.03713331
0.077340335
-0.036835216
-0.054932013
0.033467915
-0.07052941
-0.028117517
-0.003480987
-0.09678413
0.030856287
0.037388347
0.018153185
-0.05191049
-0.043773346
0.030611193
-0.081938945
-0.013371359
-0.07344081
0.01644018
0.05112768
-0.07171579
-0.08753567
-0.103592776
0.058286067
0.02711892
0.026577318
-0.04683028
-0.027218714
0.019649481
-0.0527136
0.110766925
0.06730936
-0.02262323
-0.083419524
-0.09368005
-0.09862943
0.026308803
-0.055263128
-0.06592918
0.09932799
-0.06518226
0.06577867
-0.014765523
0.047215
-0.10128802
-0.092945546
0.006325508
-0.041160874
-0.038279798
-0.053518184
-0.04572161
-0.090431534
0.07808962
0.042573873
0.06553143
-0.00081203075
0.00031973276
0.08076233
0.044915386
-0.036833316
-0.0775619
-0.017913602
-0.07013946
0.063034385
-0.051460538
-0.08601601
0.003038072
-0.09387406
0.07923721
0.052176923
-0.081510395
8.612257e-06
0.00028313883
-0.022663673
0.055701803
-0.077716395
0.019266954
-0.0003934317
0.089071676
0.051127486
-0.051616088
0.09551972
-0.03196138
-0.042467892
0.11220987
0.07960546
-0.10442031
-0.0386173
0.03951536
0.0649912
0.09834942
-0.0074885716
0.093424365
0.11430596
-0.02355288
0.0036574947
-0.049943876
0.03828552
-0.0037183755
-0.023195943
0.003654984
0.013655417
-0.048934177
-0.049248826
-0.013759291
0.003230821
0.08832368
-0.09141559
-0.0038471904
-0.00824893
0.026722003
0.07501636
0.02666974
0.085167736
-0.04935643
0.019256506
0.083480515
0.06461782
-0.011335755
-0.0078710355
0.06593919
0.016944025
-0.082493894
-0.035779875
-0.06024416
0.076728374
-0.006362191
0.11811025
-0.024683401
0.05242051
0.006998392
-0.011040606
-0.055987325
-0.043785464
0.04353935
-0.044644337
-0.025317298
-0.10336825
0.05830166
0.03615878
0.07805267
0.057032637
-0.107449815
0.038906943
-0.052785188
-0.05364993
-0.034631234
0.074883714
0.094935626
0.0636413
-0.09257023
