0.012278871
-0.0026016508
0.13855547
-0.22753966
-0.045594085
-0.17322342
-0.062776014
-0.01621404
-0.03422706
-0.26975566
0.013434594
0.106259994
0.026462218
-0.08996621
-0.09051555
0.04233768
0.018438242
0.16117108
0.14506634
0.026648136
-0.11973404
-0.09630944
0.26435786
0.0863267
-0.033698794
0.14425623
-0.10148331
-0.28957415
0.08414825
-0.18954533
0.062017616
0.028783064
0.07063112
0.05519374
0.123436585
0.085878335
0.2304516
0.20856732
-0.0040724557
0.10164923
-0.061832726
-0.08312468
0.01091514
-0.15816124
0.13899885
0.12396197
0.08794172
0.16694936
-0.19188178
-0.07241984
0.17184563
0.0053208373
-0.07827546
0.124473125
0.18077028
0.0307875
0.074465424
0.17851892
0.080256805
0.09433908
-0.0016522823
0.012646649
0.14618024
0.19059744
-0.06947435
-0.2399868
-0.120689034
0.014851672
-0.025579285
0.1329022
-0.14390522
-0.06190688
0.013600528
-0.16844825
-0.03267481
-0.007923387
0.08141582
0.21256794
-0.14726856
-0.08869097
0.10269037
0.16257505
-0.0014877224
-0.084051855
-0.111945294
0.10106447
0.24088393
0.013826619
-0.08993581
-0.1540109
0.050137002
-0.22392187
-0.12816688
0.070690066
0.07679666
0.19867866
-0.105438165
-0.0128139835
0.010441036
0.07609887
-0.04581048
0.17173743
0.12705815
-0.035250504
0.15969712
0.07167256
-0.029088194
-0.015695136
-0.19197963
-0.22150391
-0.021294456
-0.06366272
0.19014034
0.14805885
0.10970471
-0.14790884
-0.119900204
-0.017337572
-0.17024899
-0.08646435
0.10114498
-0.10835428
0.1576299
-0.062499452
-0.13909972
0.16430226
-0.25180063
-0.18794967
0.10193527
-0.010794605
0.09472495
0.09849446
-0.11700882
0.13723125
-0.16248529
-0.09953068
-0.108112544
0.16003427
0.11311454
0.12247054
0.15641567
0.16426635
0.08853807
-0.05769129
-0.18926135
0.15915672
0.12361806
-0.014299135
0.13611498
0.09684319
-0.009776479
0.035739075
-0.079833955
-0.25187775
0.09994524
0.2273991
-0.0118672745
-0.026319865
-0.020783853
-0.08657659
0.010856065
0.013696456
0.055635583
0.10061562
-0.29264382
-0.09974028
-0.12257121
0.070165545
0.049411036
0.08388249
0.09927401
-0.073151685
-0.03401877
0.059717115
0.13677283
0.17845447
-0.21924117
-0.09159618
0.040835273
-0.056855973
0.03959211
-0.19692916
0.021990215
0.02676907
0.2463277
0.16799589
0.052051287
-0.11304545
-0.058509953
-0.013701607
0.22664802
0.19873469
0.0221527
0.006639673
-0.07821741
-0.067062736
0.106344454
-0.1493893
0.012503163
0.10052483
-0.12153368
0.28374138
0.14167754
0.1315717
0.15942986
-0.019677714
0.07238947
0.031060737
-0.030883413
0.09016059
0.17538236
-0.12433541
-0.2413791
-0.048382845
0.018465135
-0.06678259
0.0426375
-0.05412066
0.14506069
-0.030825192
0.25391492
-0.24370384
-0.068407856
0.10743129
-0.114300326
0.3440556
-0.12491145
-0.08336574
-0.0664195
-0.06280817
-0.059660546
0.15132028
-0.15146795
-0.085463405
0.1968442
-0.31654143
-0.042873267
-0.1202541
0.06279421
0.021594727
-0.024107015
-0.12407982
0.08901913
0.07694486
0.053747877
0.2828114
-0.02543086
-0.11896617
-0.024270449
-0.1320327
0.113522485
-0.12667695
0.0904653
-0.15179771
-0.17549641
0.016258523
0.2519251
0.051578835
0.014695993
-0.068753
0.15963463
-0.061061814
-0.11528653
0.14827037
0.23298183
0.020654716
0.18887237
0.032367136
0.110479794
-0.10099831
-0.10515927
0.15976197
0.0081925895
-0.010600574
0.18898658
0.13870713
0.043759905
-0.11153791
-0.05410358
0.16682522
0.07827615
0.056956954
0.17463447
-0.17079403
0.12739785
0.037275326
0.094085425
-0.090565994
-0.10469307
-0.16784197
-0.0467745
0.10192929
-0.18465796
0.097053744
-0.015430122
-0.08813516
0.02695381
0.045203503
0.13574556
-0.034642942
-0.24062186
-0.06446188
0.13871914
-0.14109413
0.029493101
-0.041873354
0.048895344
0.06744845
-0.048440516
-0.043942798
0.20736745
0.19249263
0.12679277
0.021023802
0.052402373
0.10771898
0.16101633
0.03837487
-0.16113757
0.111079715
0.17850876
0.054168258
0.12648134
0.0705172
-0.006284503
0.17157929
0.25020203
0.043815307
-0.014144295
-0.07048743
0.05398645
0.065858826
-0.011946231
-0.15061551
-0.2421893
0.025925577
0.007849052
-0.03724928
0.11447696
0.09874105
-0.061809577
-0.08094208
0.000817758
0.10562849
-0.059878632
0.19851692
-0.16467044
-0.19492948
-0.004267448
0.142879
0.14789638
0.13751337
-0.019404775
0.07915669
-0.19204028
0.19916539
-0.23635791
0.15536234
0.08680539
-0.02969896
-0.036105376
-0.07743306
-0.14025119
0.19730885
0.12562698
-0.10074249
-0.09794518
0.09360453
0.06523368
-0.15595824
-0.20938249
0.027277863
0.0790321
0.025531538
-0.087391555
-0.053070784
-0.10638963
-0.027442757
-0.085184924
-0.09360804
0.32849357
-0.020702481
-0.0005809556
-0.10305897
0.11009075
0.124660164
-0.09520859
0.15699682
0.17376688
-0.018059533
0.1279227
0.054502763
-0.09253556
0.09737844
0.048404917
0.07680414
-0.028177481
-0.0005295332
-0.29249144
0.050105974
-0.083233856
0.04626046
0.16367066
0.011869112
-0.069748804
0.104355104
-0.053833026
-0.09696335
0.22253174
0.115039036
0.034924854
-0.087542824
0.055503786
0.04800355
-0.18537828
-0.17322382
0.14692432
0.09562449
-0.07451492
-0.13797142
-0.005521555
-0.07456618
0.14768806
-0.083295725
-0.018313121
-0.04289279
-0.067512
-0.10432121
-0.24157348
-0.096972555
-0.01328623
0.006696534
-0.23732294
0.15538149
0.08947192
-0.11879473
0.13473928
-0.13946147
-0.13364698
-0.14017393
0.15654756
-0.03631767
-0.035278786
0.010676371
-0.22430728
0.10314827
0.1974372
0.1680798
-0.073211886
0.0935905
0.13914801
0.22798195
-0.09804307
-0.07835576
0.07207343
-0.1375832
0.110840954
-0.1460154
0.06117086
-0.029536864
0.0077326153
-0.1783853
0.1788352
0.10612929
-0.1324456
0.012795161
0.16125943
0.14525492
0.021720583
0.23093213
0.05557874
0.12677115
0.10134628
-0.18353377
0.11693447
0.12255642
0.08310693
-0.15363193
-0.074340224
0.23787816
0.19890435
0.044696975
-0.1157765
0.06958518
-0.03470203
0.08748436
0.03801145
-0.21810587
-0.103591464
-0.23078501
0.053421874
-0.050417524
0.10425884
0.05673228
0.066115715
0.09580536
-0.10638808
-0.009131415
-0.060004495
-0.11689052
0.2794582
-0.12925573
0.09743886
-0.0936742
0.16577153
-0.019274713
0.18421265
-0.017053343
-0.13541618
0.1382498
-0.09872939
0.16161671
0.049409017
0.07198806
0.07146316
-0.23640156
0.2021894
-0.08039904
0.21442142
-0.09859066
-0.037999216
0.0802732
0.14083202
-0.17260273
0.21301693
0.08821239
0.09830175
-0.13985412
0.03278299
-0.11720382
0.07765407
-0.15761387
-0.01625886
0.20679368
-0.26462495
-0.000312238
-0.107645914
-0.00013886332
0.034814056
-0.16456366
-0.13333504
0.104448974
0.24798213
-0.100568265
0.08644236
0.060893696
0.027659265
0.12011526
0.13515389
0.16453086
-0.19853492
0.19219306
-0.05720737
0.07632777
0.17224929
-0.03468542
-0.061414514
0.09719029
0.04577869
0.06273323
-0.044888843
-0.2724833
-0.0892254
-0.13715495
0.076514676
-0.02718103
-0.043310106
0.08201602
0.036019944
-0.08377049
-0.10084906
0.27421185
0.1639178
-0.119799234
0.01606814
-0.09533142
