0.043671712
0.013148869
-0.04693926
0.051980097
0.017177692
-0.024606733
0.01565018
0.0023237795
-0.038524117
-0.06998343
0.014675118
-0.019768324
0.049579747
-0.045119695
-0.039498355
0.07223147
0.012502366
-0.06712359
-0.059987295
-0.037831344
0.07415295
0.05058622
0.0702958
-0.011014284
-0.052971005
0.014854235
-0.036310814
-0.052019626
-0.0077488893
0.043449674
0.038363446
-0.050329488
0.05223633
0.04084049
-0.07833033
0.05920617
-0.039801672
0.013409964
0.019572316
0.034637257
0.05722429
-0.048877317
-0.011210442
0.010232407
0.0013144658
0.0007295574
-0.030433007
-0.00093808776
-0.033097755
0.06708139
0.074502245
0.06391328
0.033015095
-0.056165736
0.014072132
0.010273111
0.009849865
-0.005352796
0.00937336
-0.02202851
-0.06172991
0.055169206
-0.0048839683
0.05563944
0.029788159
-0.011667973
-0.06103535
-0.035329632
-0.050574727
-0.003453098
-0.043794326
-0.014000968
0.061759222
-0.031150078
0.032073423
-0.01702548
0.04514173
-0.00702693
0.018607818
-0.022378689
-0.07133834
0.020648858
-0.028424045
0.02513445
-0.0061939056
-0.044546843
0.018583443
-0.037576433
0.02193494
0.032604143
0.00767388
-0.0059201308
0.006321437
-0.0384796
-0.03238833
-0.008807499
-0.07483779
-0.050121013
-0.0396121
-0.07089824
-0.05756237
-0.05008682
-0.009554999
-0.039104994
0.059625197
-0.019016488
-0.026761862
0.06764428
0.02634362
-0.063703984
-0.011559189
-0.00879511
-0.03453083
-0.046304386
0.046596162
-0.054898452
-0.01418626
-0.05086062
0.022617647
0.0628729
-0.0486772
-0.005800755
0.0042316034
0.065932594
-0.04373423
-0.06306653
0.06346438
0.048025776
-0.04904959
0.0046854448
-0.033762045
-0.041481435
-0.013137223
-0.04529721
0.06270231
-0.028951518
-0.015923426
-0.014949367
-0.051856294
-0.0686577
0.047275145
-0.0010168733
0.055724766
0.040481843
-0.020535348
0.05453371
0.027779544
0.0003218637
0.0115387505
-0.043234695
-0.051953524
0.056124385
-0.02210533
0.048547663
-0.03974345
-0.020044828
-0.056766015
0.007456816
-0.043041542
-0.054326918
0.00490565
-0.05396636
-0.049387418
0.05782263
-0.05399255
-0.04055054
-0.044377014
-0.024344502
-0.04006793
0.027011309
0.039839663
0.022484245
0.04620415
0.052220058
-0.052085634
0.020338355
0.009850601
0.007995239
-0.051829
0.009438945
0.06792321
-0.059476182
-0.0020826084
-0.05472754
-0.0467492
0.039508827
-0.02116098
-0.06258084
0.062345296
-0.07826869
-0.0010912024
-0.011939958
0.021619152
-0.016816212
-0.06922353
-0.01712589
-0.025896287
-0.03173655
-0.035162456
0.042674165
0.017344223
0.04086139
-0.06499486
0.048266288
-0.008873626
0.025460647
-0.04366406
0.026261246
0.034525715
-0.03790008
-0.061515763
0.073788665
0.033068605
-0.049267326
0.06195129
0.0042126914
0.02160897
0.0497693
0.028650882
0.008210857
0.066027805
-0.0030044722
-0.07494565
-0.03382586
0.04933765
0.05927978
0.030223483
0.027717715
-0.008482519
0.0043554874
0.014564393
-8.88876e-05
0.0060894345
0.040496293
-0.046386033
0.05282631
0.0043707397
-0.02635667
0.061505213
0.011270304
0.07615134
0.054528933
0.00967343
0.054846704
-0.02898911
-0.02716767
-0.0258294
-0.04929259
-0.052579
0.01471559
0.032507893
-0.013593045
-0.024467418
-0.081568375
0.023113709
-0.0526376
0.030231375
-0.037265617
0.030579748
0.070803046
0.04086762
0.07084353
0.05799982
-0.05715121
0.065115176
0.081315644
-0.0007384972
0.008162118
0.05504242
-0.007174489
-0.045650084
0.00047212344
-0.054859307
-0.058890298
0.007032957
0.044405434
0.06174403
-0.026243694
0.01280729
0.0066460525
-0.070563085
0.03321651
-0.012943838
-0.037224647
0.05596771
0.026914997
-0.011189649
0.064683504
0.048679177
0.05097512
-0.065619275
-0.052575324
0.021752238
0.05872207
-0.029020248
0.0060497057
-0.053292304
0.0134855835
0.037405446
-0.046981823
0.054834355
-0.030441763
-0.03580496
-0.03226832
0.0065372726
-0.018136708
-0.0609078
-0.004137544
-0.07139319
-0.04601619
0.0075028
-0.04649862
-0.05407516
-0.07117704
0.021857655
-0.010105327
0.023346586
-0.042730954
0.0042426446
-0.010156991
0.038318843
-0.008458874
0.060865745
-0.038055334
0.06744215
0.01474903
-0.03275303
0.051564235
-0.047357447
-0.050552394
0.05189864
0.04304985
-0.0068289246
0.005861628
-0.065311015
-0.012163673
-0.06298884
0.027177174
-0.018599464
0.05390087
-0.015130268
-0.034857072
0.035129618
0.059637114
0.05022716
0.0063804304
0.05386218
-0.030647857
0.045823954
-0.028903069
-0.04092319
-0.058007155
0.048123647
-0.0679872
-0.012408377
0.057326913
-0.007163611
-0.044978105
0.073987976
-0.018395185
-0.0574313
-0.05239837
0.03978618
-0.026945312
0.064126216
0.0341515
-0.056156114
-0.04075491
-0.054139357
0.05791293
0.06486395
-0.07235644
0.072172016
-0.061570834
-0.08165143
0.015007111
0.044717293
0.057974417
0.03763192
-0.04416676
0.061882395
-0.034803696
0.016889654
0.007748674
-0.036599845
-0.0635574
0.014839489
0.046034366
-0.04438384
0.03005716
0.06417297
-0.001882403
-0.061560676
-0.026851656
0.06553024
-0.013941676
0.006833981
-0.0031343435
0.01469128
0.046561383
-0.008877997
0.05269386
0.037138212
0.029729808
0.06706344
0.034601554
0.024008058
-0.0077127526
0.038078558
-0.05472131
-0.036962938
0.038901612
-0.061977923
-0.049609523
0.070495896
-0.052697953
0.042660847
0.06876277
0.03307729
-0.014992846
0.07539706
0.028980847
0.07288808
-0.039642062
-0.06835513
-0.057832863
-0.046250828
0.017116688
-0.0008964057
-0.014085125
0.01617632
-0.017076874
0.057279963
-0.07121466
-0.016545065
0.0687955
-0.012542277
-0.03881811
-0.032818105
0.0642248
-0.052254796
0.055982824
-0.024186684
0.010857023
-0.06595437
-0.033292167
0.00812177
-0.0043299706
-0.009245149
-0.024467189
-0.054225355
0.01538858
0.025267161
0.020185236
0.051535077
-0.059135355
-0.04387849
-0.013421215
-0.079402305
-0.017186958
-0.024543907
0.013282209
0.03642852
-0.011414259
-0.021746429
-0.05641108
0.06061081
-0.04978147
0.036169287
0.015178931
0.04975236
0.05143546
-0.07048776
-0.05958172
0.021461548
0.05780227
-0.048947837
0.005968023
0.002456735
0.06626238
-0.051092036
-0.0400254
0.007907455
-0.05998162
0.048456024
0.0061032637
-0.036157414
0.0020657904
0.063541494
0.0135423625
-0.0031996137
0.026848704
0.010361691
-0.037216432
-0.060090616
0.011546222
0.019917652
-0.031608045
-0.002238358
-0.066067986
-0.06910348
0.044862766
-0.073468275
0.009186157
0.016146196
-0.011974816
-0.038231205
-0.060869552
0.030985828
-0.0067201327
-0.067042924
-0.007947091
0.03180583
-0.0027439073
-0.008227324
0.009493741
0.016033866
-0.031115904
-0.034585677
-0.06802606
0.05636618
-0.020500373
-0.011390486
-0.04529764
-0.031777214
-0.067830525
-0.035336655
-0.002877816
0.02927991
-0.03828215
0.011632345
-0.050675564
-0.07192168
0.023850061
-0.0143497735
-0.020027447
-0.04634463
0.0077679507
-0.035452094
-0.027827559
-0.03253433
0.008477442
-0.019945022
0.06237589
0.03917963
-0.033715505
0.06912079
-0.053920504
0.0426018
-0.018688843
-0.06769721
0.018263398
0.009152767
-0.04444676
0.023943298
-0.05643905
0.03947519
0.02354606
-0.04862896
0.06292709
-0.0523714
-0.016150594
-0.07447989
0.004450417
0.003785352
0.044144314
0.04196844
-0.024645738
-0.07205639
0.051429182
0.007606721
-0.053995937
0.07109041
0.025978478
-0.005538206
-0.0014834923
0.008708245
0.033237297
0.054649383
-0.03876766
0.021500738
-0.0564451
0.07822251
0.0028196473
-0.07439201
-0.02498173
0.054379147
-0.0045855977
0.057507474
0.01076018
-0.040133767
-0.040777486
-0.031956345
-0.05965899
0.05014592
-0.02827575
0.040731672
0.023028998
-0.05237763
0.05399311
-0.02537575
-0.008566232
0.038040657
0.049226776
0.04755634
0.017829638
0.0029550942
0.06916563
0.030826699
-0.064435475
0.0243913
-0.049860213
-0.016621785
-0.032650054
0.011757906
0.05255524
-0.04561637
0.012952965
-0.07816579
-0.010270879
-0.057119675
0.03450965
0.062179133
0.06548608
0.0014250358
-0.025796043
-0.0045300014
0.0065508857
-0.022056827
-0.073144734
0.015436023
0.013371817
-0.02421787
-0.06620337
-0.033380605
-0.08235007
-0.009294521
0.0026688573
0.0464882
-0.038061365
-0.022440631
0.051919278
0.06594522
-0.033600423
0.017866662
-0.03595686
0.030025309
-0.06630968
-0.018290402
0.03511325
-0.04317342
0.01839611
-0.05744695
-0.011171914
0.04755619
-0.033931673
-0.05068847
-0.021014819
0.030747103
-0.0019689524
-0.064458735
-0.03616451
0.031723104
0.0030109615
-0.045337066
-0.01606371
0.055969443
0.041228626
-0.04881538
-0.016793223
0.054955944
0.031879216
0.061132047
-0.024352731
0.044963133
0.01980173
0.023606222
0.05790006
-0.027073424
0.039353736
0.017350184
-0.04416331
0.042609844
0.039428614
0.044977274
0.057523802
-0.04510877
0.05727315
0.039830305
0.019658877
-0.030424446
-0.03384192
0.06006444
-0.06390793
0.0057937014
0.043767966
0.034026723
-0.039695263
-0.0029504243
-0.06332662
-0.071922064
-0.04257827
-0.020579202
0.054961734
-0.018121963
0.015392225
-0.055498123
-0.0404368
-0.01191394
0.052268006
-0.047650583
-0.0021009888
0.0333814
0.004497409
0.06601882
-0.039430033
0.032635823
-0.052997068
-0.0559974
-0.06643141
0.05940771
0.044783674
0.015911352
-0.023106935
0.055806797
0.008453296
-0.040647
-0.04943009
-0.005654384
0.04337819
0.023984306
0.027637182
0.06425437
0.0031698968
-0.04993834
-0.0618287
-0.048955444
0.013981476
-0.040279627
0.0037013968
0.04067245
0.005592216
-0.011229876
-0.015087175
0.0611199
-0.006785679
-0.052117683
-0.012642158
-0.0026509962
-0.053558964
-0.049745787
-0.025044318
-0.04942251
-0.0035004262
0.014397508
0.007267204
-0.04075272
-0.046115465
0.013069959
-0.017936828
0.06393296
-0.0023700737
0.045012023
-0.030561693
-0.07545434
0.062298987
0.043423753
0.023531381
-0.003521234
-0.05165808
0.008116365
-0.012997539
0.055221952
-0.05133508
0.006467038
0.07147704
0.07153624
0.0074211173
0.05134544
0.064661294
0.055624273
0.038174815
-0.06604601
-0.007064614
0.034485843
-0.03432393
0.028089346
-0.061821707
0.073044255
-0.04452954
0.021745933
0.04326404
-0.073536284
0.0058311718
-0.05227012
-0.015416869
-0.045875497
0.037697252
0.037206393
-0.079481274
0.045582518
-0.014807756
0.012875683
0.07455002
-0.0072997
0.07198393
-0.045495376
-0.039663643
-0.006550895
0.028957877
0.053507064
-0.032317337
-0.033582427
0.039771166
-0.018218208
0.0057722544
-0.024807326
0.053459827
-0.057266653
0.037891008
0.03161853
0.0028652519
0.04856921
-0.017962055
-0.058541678
0.010900714
0.046508446
-0.03490931
0.034839425
-0.04726905
0.028019994
0.028260956
-0.0086219255
0.04035858
-0.023855444
0.06592615
-0.0040652384
0.056743965
0.054362822
-0.06699449
-0.057449996
0.033661664
-0.011382409
-0.039856635
0.014264511
0.053431645
-0.0022883818
-0.026309304
0.014873499
-0.014880708
-0.043720286
0.07411207
0.016666561
-0.015537256
-0.055114925
0.03922348
0.015205698
-0.016085725
0.053869076
0.06636913
-0.05288375
-0.021959348
0.04426048
-0.026135365
-0.057668693
-0.00829847
0.041921962
-0.0013721796
-0.024747541
-0.03647396
-0.03371204
-0.0071731363
-0.029783968
0.0020413029
-0.015999533
0.06433885
0.0008555603
-0.058495615
-0.050427794
-0.050304703
0.043621216
-0.056917466
-0.063820705
0.06169217
0.059418608
-0.016810797
0.04181323
0.058452822
0.019741451
0.047206946
0.022813426
0.034473903
0.014681712
-0.04882608
-0.041878417
-0.078352965
0.010273236
0.02140308
0.0404008
0.072896495
0.061108574
0.018828103
0.07239999
0.03669825
-0.060083367
0.041228257
0.030353624
-0.07013928
-0.06151608
0.041631393
-0.016251942
0.026801512
-0.049265165
0.053388476
-0.024962762
0.021608345
0.01892673
-0.054119356
0.03832963
-0.014593731
0.0007029036
-0.0013677112
-0.020589592
0.021344967
-0.04866465
-0.060541723
0.015924387
0.0320454
-0.036974896
0.028700918
0.03296196
0.065609835
-0.00819006
0.040298287
0.041018452
-0.046090458
0.06247431
-0.024237042
0.07060021
0.06546072
-0.050219696
-0.05102946
0.018609991
-0.043792587
-0.0024271912
-0.010599423
0.059933476
-0.008247285
-0.064894594
-0.031100925
-0.0031634034
0.02728698
0.0107768
0.03209491
-0.0118921045
-0.025552295
-0.042185523
-0.0072194394
-0.041636452
0.027866224
-0.036281783
-0.03661079
0.039399493
-0.05795116
0.0039806566
0.04711022
0.064396866
0.022869872
0.030200683
0.012169994
-0.012774135
0.058842048
0.013933137
-0.062840536
0.054212764
-0.0463752
0.03539524
-0.0055248896
0.022429658
0.037216738
0.07095981
0.014997391
-0.005285428
-0.029578555
-0.015552071
-0.047647756
-0.013256278
0.04370443
0.0337429
0.01858587
-0.02363181
0.065591305
-0.033552397
0.034457624
-0.046274852
0.013478178
-0.06209101
-0.0319885
0.019688888
-0.025185771
-0.017580597
-0.0014861923
-0.0026840898
-0.029996127
0.05110873
-0.007264471
-0.024873123
-0.01107421
0.02309619
0.039867207
-0.03424759
-0.057803713
0.054417547
-0.021530021
-0.0028655445
0.059407707
-0.014952573
0.004018781
-0.013367794
0.034671843
0.026062384
-0.030010615
-0.010535823
-0.032554287
-0.008368087
0.023328988
0.041166432
-0.038556013
0.008135106
-0.036309022
0.07920799
-0.045171134
0.035587225
-0.049543455
0.05467964
-0.041151367
-0.04949682
-0.01060141
-0.042400226
0.030169787
0.06970341
-0.017406045
-0.0067114015
-0.019907499
-0.064768404
-0.012921762
-0.027629226
0.033539597
0.070864215
0.023438133
-0.035976686
-0.0019910198
0.0038743773
0.01043065
0.03553893
-0.021752398
-0.033913065
-0.07158754
0.05729057
-0.0119666215
0.040141087
0.054395933
0.037543274
0.027439822
0.08487709
-0.00544698
-0.01673031
0.07174696
0.04665189
0.0047140378
-0.009488847
-0.07400127
-0.037474565
0.02860783
-0.044897422
-0.049169842
0.04534401
0.005306128
-0.07734935
-0.065119185
-0.037429485
0.0050800885
-0.020938516
-0.044093546
-0.025436552
-0.017406369
0.039077993
0.062256455
0.07550159
-0.05774859
-0.05811413
-0.0523487
-0.025721375
-0.03569834
0.0050732745
0.023611134
0.004728471
0.003291074
0.018643444
0.030197468
0.029471174
0.0045988536
-0.044938423
-0.06658003
0.007333801
-0.06565068
0.010560932
0.08811819
0.0346173
0.05696789
0.0015115297
0.06786299
0.036663927
-0.045996998
-0.019179277
0.07912755
-0.024265947
0.05734377
-0.0122172525
-0.059280515
-0.036382217
0.02118285
0.043560226
-0.067486376
0.026731888
0.034136347
-0.05160696
0.057452302
0.0021832394
-0.006025063
0.04027025
0.02635833
-0.059099957
-0.041477874
-0.060341988
-0.041901167
-0.044632725
0.010999856
0.055136092
0.053792134
0.04962934
-0.013887557
-0.0051193545
-0.053204045
0.049586225
-0.052848194
0.018447677
-0.06434873
0.034078278
-0.05715223
-0.047740147
-0.058048386
0.023237322
0.038408134
0.032830972
0.049065158
0.046628002
0.063727856
0.01993295
-0.070575945
0.04800025
-0.0105989035
0.009217779
0.034445725
0.01859426
-0.030108005
0.023992458
0.06375905
0.015104239
-0.05861695
0.02375874
0.023704011
-0.017584492
-0.04168507
-0.03734692
0.01238782
0.059133336
0.058451902
-0.038985193
-0.043925274
0.059044834
0.008499951
0.06543251
0.043659147
0.08179907
-0.013984827
0.06387709
0.012052621
-0.052368313
-0.014326366
0.014686886
0.05058697
0.018223675
-0.05177754
0.021646436
0.008066231
-0.024570996
0.051133532
0.01876594
0.05041414
0.043484375
0.02884713
-0.069549695
-0.04675818
0.016326714
0.011030101
0.019224891
0.05294348
-0.015209414
-0.053318717
-0.03785445
0.05994852
-0.060720935
0.03235313
0.02700713
-0.0482078
-0.066634476
0.01912993
0.001054237
0.03836089
-0.04314108
-0.06233386
0.054091506
0.024715086
0.045785144
-0.054086458
-0.09811787
0.0047362424
0.02559423
-0.043454144
-0.030420026
-0.0707684
-0.037592843
-0.061284706
-0.030954802
0.023003722
-0.048284296
-0.056622796
0.017349824
-0.05377428
-0.015333636
-0.083422534
0.04192425
-0.027156414
-0.046486646
-0.005976725
-0.01576203
-0.027541097
-0.041360494
3.365616e-05
0.004756733
0.056740303
-0.009089883
-0.035346482
-0.00985119
0.023130111
-0.0012617954
0.01989852
-0.0020043082
-0.054906443
0.068093434
0.03486463
0.059219394
-0.058822967
0.060556095
-0.059304122
-0.06251865
0.06471251
0.058451504
0.04629979
-0.06612552
-0.04720098
0.00821665
0.048312332
-0.06474261
-0.043754768
0.028478099
-0.03196893
0.051450033
-0.041675728
-0.030969536
-0.017945718
-0.071395636
0.029642455
-0.04339597
-0.074273944
-0.015880017
-0.02011804
0.0028779437
0.013978621
0.06825584
0.061003197
-0.045358982
0.059494875
0.03282986
-0.050001983
-0.07791127
0.015615038
-0.08146319
-0.04761591
-0.074489705
-0.039463203
0.03863068
-0.02433667
0.06846843
0.052647013
0.032663744
-0.07971142
0.04599241
0.025168046
0.05791387
0.06676902
0.043769244
-0.04601246
-0.04226897
0.032682467
0.0394764
-0.044718184
-0.0006291233
0.050046027
-0.07458425
0.0058828373
-0.05732085
0.036208093
-0.017547384
-0.03138855
-0.07966351
-0.07599462
-0.017755458
-0.005901433
0.05945793
-0.020077184
-0.021971691
0.06957946
0.0058643357
-0.055733126
0.040615488
0.054691218
-0.046172224
-0.03317538
0.05221819
-0.0025594858
0.02506708
-0.01306502
0.05947292
-0.01642333
-0.06539239
0.054392934
0.0769397
0.07695009
-0.014500013
0.012259
0.014905846
0.03951782
-0.012088573
-0.013460585
-0.016622813
-0.05166756
-0.03998723
-0.0013688308
0.04130335
0.010212807
0.048696194
0.011992406
0.014544721
0.04713239
0.05577662
-0.025802618
0.05289877
0.008874671
0.01509559
-0.038128115
0.016696813
-0.028859029
-0.059246484
0.021996908
0.0492646
-0.019363236
-0.018713709
-0.03941467
0.011672573
-0.076335914
-0.07302459
-0.008325536
-0.029528948
0.028854914
0.047515087
-0.012910336
0.019968178
0.060119648
0.040342554
0.07450345
0.055401247
0.032706708
-0.043796614
-0.05679244
-0.025515117
-0.036023013
0.044578634
-0.01656532
-0.06765688
0.057708465
-0.00915382
-0.07524961
0.015064869
-0.010137716
0.00044137897
0.06102838
-0.073719464
0.017317146
0.017286971
-0.042773962
0.04381707
0.020847796
-0.06935674
0.0016649184
-0.02801828
-0.023094827
0.04907808
-0.03003016
0.04176819
-0.05779106
0.0343604
0.044179548
0.07259725
0.07016497
0.07019781
0.036450837
-0.054302465
-0.037568957
-0.058317956
-0.062290296
-0.00020545018
0.0053330734
0.020541323
-0.045607403
0.043972116
-0.07995813
-0.013370979
-0.00092148455
0.032601517
-0.04268038
0.035807304
-0.036427885
-0.05847353
-0.032845024
-0.049818754
0.05072101
0.020619564
0.055434152
-0.059286937
0.008228282
0.05730509
0.014921048
0.013955351
-0.08271768
-0.048046302
-0.06188327
0.036988173
-0.03382421
0.058279425
-0.004374924
-0.034929983
0.040529717
-0.0464843
-0.014323431
0.0075072423
-0.045514945
-0.059951752
0.07374423
0.012601733
0.02372133
-0.005709334
-0.052439503
0.055886667
-0.020286243
-0.06677434
0.022038521
0.027929453
0.07685998
0.04696191
0.042629443
0.05021725
-0.052088402
0.02267984
-0.03341946
-0.0504633
0.06963033
-0.018872533
0.016741408
-0.03759726
0.02185787
-0.031069543
-0.059328467
-0.07463844
-0.025839861
0.022058511
-0.06408104
-0.059018694
0.019701175
0.02993561
0.05765886
-0.043288004
0.0063829767
0.027351541
-0.0091252215
0.053789992
-0.013203281
0.046217244
-0.0064103785
-0.040206254
-0.02480021
0.004329567
-0.050785262
0.014449049
-0.0035532024
-0.025556121
0.04974667
-0.04886187
-0.05496272
0.07057245
-0.046831705
0.0103736315
0.02392671
0.03806668
0.049582288
-0.037456386
-0.05002755
-0.019059159
-0.011001962
0.015016947
-0.07568796
0.0036044864
0.055264886
0.040855862
0.00096143363
0.0072887833
0.058620814
0.059367307
-0.05049263
-0.055452228
-0.049419872
0.04261027
-0.026088374
0.05822046
-0.03733122
0.0173243
-0.058882773
0.04882793
-0.04945203
0.03377724
0.05346608
0.052112654
0.07810538
-0.0041426155
0.045100134
-0.015913326
-0.017873993
0.02965478
-0.037670862
0.014720259
-0.037661042
0.006163766
0.012440078
-0.03715205
0.0029361455
0.07951424
0.07781989
-0.043180857
-0.042622413
0.011395704
0.06172079
0.06627126
0.044979617
0.07105192
0.07446733
0.030158091
0.013364549
0.018917844
0.073214516
-0.031040227
0.010526743
0.051853735
0.023436947
-0.053885203
-0.045039944
-0.03494678
0.03176309
-0.054653566
0.016747253
-0.0047146953
0.044024825
-0.02093387
-0.052694328
0.023209454
0.05890153
-0.010113688
-0.02257011
0.05033187
-0.0107996445
-0.013896171
0.046593063
0.07423523
0.07029444
0.03605209
0.03821861
0.003715929
-0.03717586
-0.01702619
-0.026777823
0.057123277
-0.007110302
-0.06820328
-0.009027782
-0.06819333
-0.070513755
0.026684128
0.06735521
0.032357324
0.0271654
0.0041008336
-0.043075174
-0.05630192
-0.040694773
-0.022047244
-0.034056127
-0.038085707
-0.012049355
0.040054776
0.04386265
0.08187026
0.044547673
0.053162
0.078795545
-0.07896699
-0.02443307
0.03247563
0.03531073
0.007946481
-0.02110905
0.022275347
0.0010554858
-0.0028014064
-0.083956756
-0.02238339
0.05777875
-0.015363971
0.024667602
0.051493954
-0.016928788
-0.021960441
-0.015866773
-0.038246084
-0.004905903
-0.0014726352
-0.0028548553
0.033830144
-0.03729393
0.04082554
0.056726616
0.05124332
0.038813382
-0.06053128
-0.020434756
-0.0628398
-0.045371465
0.02305896
0.026308578
-0.04696388
-0.045887902
-0.037586395
0.059515283
0.0043896586
0.016868584
0.04573637
-0.029952994
-0.03820701
0.07186688
0.07639994
0.06576986
0.0146908015
0.032731418
-0.043540124
-0.00398531
0.06040447
0.0007974978
0.044347595
0.035504088
0.00996092
0.006704841
-0.012157292
-0.06421825
0.063456506
0.0021317552
0.05931222
0.030619066
0.063641846
-0.06260905
-0.044421997
-0.063427754
0.0039406493
0.052970912
0.008124574
-0.03937388
-0.04733026
0.008686339
-0.045189634
0.048327684
-0.0744629
-0.031006165
0.07184796
0.01671076
-0.04003456
-0.04655399
0.014861497
-0.018184291
0.021100827
-0.032833856
-0.025830535
-0.04971285
0.00515337
0.029731063
-0.04065191
-0.040521905
-0.013912319
-0.005077118
0.041891143
0.035533033
0.023669902
-0.0686312
0.06418637
0.07573339
-0.028151456
0.03185371
-0.007914104
-0.020311078
-0.046980996
-0.034729533
-0.048380587
-0.009587325
-0.025190668
-0.04106669
0.07113308
-0.02725433
0.026042731
0.014283727
0.043459
-0.028141385
0.07954988
0.041187063
-0.053182874
0.021717167
0.04554941
0.037581608
0.062331792
-0.02696672
-0.024213897
-0.055306062
-0.023844883
0.02875997
-0.08542864
0.068764545
-0.016764758
-0.06574283
-0.015832515
-0.03475157
0.0670483
-0.053050496
0.052049868
-0.03473247
0.00987658
0.013348658
0.034045532
-0.05550009
0.039140474
-0.022921037
-0.059640836
0.027592652
-0.030638527
0.023220845
0.0064216754
0.027721832
-0.08765233
-0.015768174
-0.070693135
0.054634716
0.04329652
-0.008937748
0.0032659478
0.04759919
0.015508118
-0.04364913
-0.058663737
-0.044785712
-0.0831336
-0.087068856
0.026735809
0.025696944
0.035217457
-0.039340056
-0.009394564
0.008099953
0.018072994
0.04634955
-0.02355726
-0.057974014
-0.010699498
-0.016662627
-0.04980022
-0.06406866
-0.039865445
-0.055268638
-0.026879307
-0.039040476
0.028100884
-0.032259695
0.026325384
-0.04786441
0.0648024
-0.020497069
0.010639864
-0.015274438
-0.017603353
-0.031344134
-0.060076833
-0.057978608
0.024691945
0.0013752765
-0.0068146447
-0.06963573
0.04680747
0.0066402713
-0.03500363
-0.046299435
0.00041207287
-0.0064986646
0.02987707
0.066178106
0.053694244
-0.016231937
0.0016921568
0.003526978
0.017491367
0.053359084
0.035320114
0.020185241
0.03821397
0.05597151
-0.0058416803
-0.012731058
0.018392611
-0.040372737
0.05012102
0.040581066
0.010696189
-0.011344669
0.04305431
-0.020578489
0.060089882
0.050223343
-0.03780503
0.04879439
0.024855394
0.051927425
-0.010110243
0.038437482
0.0023601372
-0.051714562
0.040795293
-0.050927076
-0.022391835
0.041749794
-0.07081005
-0.050785825
-0.07846343
-0.026902454
0.028287986
0.053322352
0.059350986
-0.02646207
0.026096722
-0.042385515
0.033946004
0.0053637642
-0.04747758
0.030573077
0.009792261
0.026011115
0.057756376
-0.05707649
-0.046774905
-0.0048822025
-0.07677392
-0.04536545
-0.056530483
0.0067560854
0.022781532
0.04285895
0.051947817
0.066266246
-0.043449216
-0.054983024
0.0028863333
-0.059156884
-0.010852506
0.036106292
-0.024612445
0.031997345
-0.08046229
0.019492023
-0.0013135605
-0.04089541
0.017939266
0.05340932
-0.058222514
-0.0074384124
0.032913614
-0.050292738
0.032151096
-0.03135504
-0.0152078355
-0.00071795244
-0.003994883
0.019425377
0.060241614
0.005338406
0.05704923
-0.03909895
-0.037490748
-0.043069858
0.014836043
0.040448345
-0.0056593963
0.0075157452
-0.010926612
-0.049471356
-0.03189672
0.050226726
0.06266212
0.010839322
-0.04029462
0.054198913
-0.06814866
0.007817968
0.04069932
0.046894643
0.043251067
0.05022082
0.037587978
0.009877817
0.05614205
0.020927727
0.015828285
-0.035618797
-0.0029145947
-0.009433992
0.03392276
0.029269148
-0.06184672
-0.034167722
0.029925812
-0.04608365
0.017771592
0.036052775
-0.02772442
0.03793423
-0.024563603
-0.03155756
0.012236264
0.004625542
0.015495199
-0.057207316
0.05790332
0.03714651
0.055872954
0.020271651
0.03927186
0.058916908
-0.048238438
-9.4588075e-05
0.05343467
-0.03472182
0.011206445
-0.06659393
0.03308763
-0.063822664
0.018874858
0.07328429
-0.04731657
0.011853262
-0.030622726
0.051822428
-0.05013138
0.054156154
0.047108732
-0.060706552
-0.07908614
0.038108215
0.037080456
0.056576755
0.07802772
0.0066419607
0.046355117
-0.048398376
-0.021589547
0.025852073
0.008737466
-0.036652736
-0.046829894
-0.020113602
-0.00017063296
0.07533572
-0.0068313982
0.01776739
-0.053051412
-0.007856812
0.057263814
0.016418824
0.05053087
-0.03094628
0.029385377
-0.042013727
-0.04234046
0.0025872434
-0.042129625
0.05927244
-0.030824596
0.049763598
0.06524657
-0.054833792
0.053206347
-0.0456013
0.034587305
0.04547718
0.060445126
0.059287433
-0.0035195386
0.03413649
0.067169346
-0.06275506
0.017412482
-0.05914755
-0.039026335
0.04752157
-0.05520647
0.026071113
0.055367388
0.03622379
0.01832408
-0.05639959
0.060629655
0.06304636
-0.0072477367
0.05427782
-0.012786755
-0.018595643
0.017367588
-0.06931467
0.03825019
0.05635869
-0.07281771
0.05376921
-0.013292062
-0.045927934
0.020070864
-0.025642468
0.04824345
-0.010718395
-0.049994424
0.055386186
-0.06293445
0.075933866
0.038407978
-0.0026155917
-0.006996977
-0.070420325
0.03685236
0.03311109
0.02518429
0.06004578
-0.016985517
-0.06297194
-0.01057857
-0.063799635
-0.046808466
0.05444377
0.023579616
-0.047985967
-0.05527924
-0.012234417
0.010941416
-0.03435016
-0.051965557
-0.010761665
0.05646852
-0.004786244
-0.0381053
0.06303349
0.032375656
0.044047005
-0.049844418
-0.055972803
0.061078522
0.041919716
0.026015585
0.028096786
0.011965858
0.060423464
-0.036801744
-0.020319683
0.08454737
-0.0021209826
0.012507335
0.013818818
-0.033722363
-0.019312603
0.05338867
-0.01808031
-0.0075134765
0.033607174
0.047705855
0.040636286
-0.05200209
-0.054635413
-0.0010592078
-0.009887466
-0.051294915
0.032264914
0.032303758
-0.0070697917
-0.0017624827
-0.01224776
-0.043660622
0.019312162
-0.0031318858
-0.043872297
0.059286095
0.04847331
-0.03829127
0.03794024
0.021169238
0.04397238
-0.037569325
0.0041800793
0.01939494
0.04100191
-0.010205316
-0.061066132
0.04719727
-0.008072959
-0.07603356
0.063022904
0.02001155
0.042670827
0.01328171
-0.024957607
0.02599699
-0.029290535
0.024066761
0.00766981
-0.0823596
-0.0310443
0.05499127
-0.061632335
0.043079007
-0.05527948
0.024200562
0.026434448
0.012856718
-0.0299145
-0.02283471
0.03456675
0.006430451
0.03673379
-0.022475317
-0.025424965
0.012333523
-0.04326718
-0.0035431604
0.029234158
0.039729703
-0.019938515
-0.037882987
-0.042593673
0.05839064
0.0524459
0.045363873
0.0056389715
0.013337714
-0.055884007
-0.091087885
-0.038813762
0.03905375
0.008272043
-0.05251761
-0.061130125
-0.057145234
0.06499035
0.052694865
-0.04793341
0.038631532
0.0060664145
-0.056092694
-0.068152614
0.07580493
-0.01645739
0.01834701
0.05023577
0.047092408
0.070605986
-0.044350337
0.013017292
-0.061944794
0.036245115
-0.0063854596
0.00409757
0.013935653
0.06980198
0.015031149
0.027386848
-0.003398518
-0.050161876
-0.0020641028
-0.036641754
-0.004573735
0.04107807
0.004328186
0.03904502
-0.03755144
0.044237614
-0.0105978
-0.054790936
-0.01580624
-0.0020846922
0.025997777
-0.065282695
-0.028189532
-0.037136123
-0.028108723
-0.06830571
-0.05744142
-0.057908587
-0.04766641
0.018650023
-0.0060166405
0.015502756
0.01493554
-0.061963513
0.011724652
0.046701748
-0.05683915
0.023403136
0.04719047
-0.04019784
0.062856264
0.026925562
-0.059815377
0.02679832
0.06764342
-0.014855189
-0.012232041
-0.054584708
0.053912923
-0.08231947
0.069601774
-0.018684002
0.021371499
-0.014435694
0.000120937686
-0.0359787
0.01463371
-0.026135948
0.053073846
-0.009766377
-0.04884112
-0.035411634
0.010588772
0.001202144
-0.0676914
0.011089559
0.024051512
0.02383384
0.03356684
0.0016096351
-0.016963199
-0.0119290855
-0.040190093
-0.02010639
-0.03585158
0.06283449
-0.0273771
0.022584345
-0.07430912
0.0023888885
-0.023584574
-0.042801518
0.08233874
0.034314524
-0.063895136
-0.017613495
-0.022539904
-0.050720148
-0.025650833
-0.03893503
-0.046153963
0.021452982
0.026147017
0.060894262
-0.0034086881
-0.02528939
-0.043567408
-0.07700371
-0.0235654
0.011285061
0.0041617425
0.05612264
-0.0059700594
-0.019162651
0.019838978
-0.05985267
-0.026258552
-0.044938974
0.03168002
-0.050372627
0.08337914
-0.07847527
0.062306628
0.047683153
0.051793836
-0.018755391
0.011911484
-0.052688267
-0.00034641114
-0.037971783
-0.0650138
-0.015796594
-0.05564259
0.007918276
0.05524106
-0.03994489
0.050056666
-0.08409758
-0.069811955
0.042197805
0.07142873
0.049855776
-0.002328299
0.04100118
-0.04500461
0.048680488
0.0032608188
0.06605855
-0.042273182
-0.0056523504
0.011931734
0.039432712
-0.034849454
-0.0012350945
0.032046974
0.045536075
-0.019740727
0.011330317
0.057121564
0.07022667
-0.025008054
0.057335418
-0.061072502
0.030703114
-0.04622542
-0.05654366
-0.04922795
0.044040862
0.053146984
-0.042120017
-0.00623731
0.048976626
0.025172252
0.030867571
0.03259511
-0.03174119
-0.0482275
-0.023176985
-0.006027663
-0.037781917
-0.051804364
0.0009947286
0.0068726735
-0.023706377
-0.055208404
-0.060508475
0.032874126
-0.023862267
-0.051791042
-0.04863579
-0.025519788
0.0025761393
0.038203616
0.0019631747
0.030459799
0.044194806
-0.044756316
-0.034407698
-0.018140558
0.002317891
0.03759539
0.036832456
0.034283947
-0.029786207
-0.041902542
0.012268904
0.039160777
0.00096517266
0.063980825
-0.050504483
-0.04045772
0.064077236
0.060346384
-0.04290245
0.03191688
-0.030163892
-0.06395819
0.0024104598
-0.0059958342
-0.049625695
0.0063209604
0.009572826
-0.061196048
0.032766175
0.03216318
-0.059021305
-0.01268331
0.031691894
0.015697382
0.06864505
0.043233957
0.071238905
-0.035851788
-0.03310427
0.02986264
0.026204022
0.0071989186
-0.0027978376
-0.029830731
0.051477056
0.02293003
0.019529738
0.031905934
-0.040708948
0.05564008
0.010294084
-0.03473479
0.021257527
-0.045019593
-0.018076213
0.013616435
0.017891303
0.048219543
-0.050377563
-0.018504282
-0.03509543
0.07438579
0.058318082
0.049925383
-0.076321095
-0.04523334
0.021728585
-0.048370577
0.003494748
-0.05765039
0.016001737
-0.031133484
0.06318786
0.021476261
-0.05030918
0.007234603
0.07049951
0.03519363
-0.024688452
0.057105724
0.07583693
-0.062081803
0.05480033
-0.026600191
0.01762901
0.013442726
-0.025624812
-0.0075609093
-0.017856713
-0.06282781
0.050613247
0.026080836
0.01457126
-0.06359981
0.0723343
0.011118826
0.00462932
0.035896063
-0.03241026
0.07916549
0.013604336
0.0195652
0.058329206
-0.0034918874
0.058520503
-0.021981172
0.03318357
-0.06756136
0.04811308
0.016490282
-0.08324768
0.008813877
0.08216168
-0.00618288
0.0064395284
0.018199397
-0.0017971599
0.0893425
-0.027560432
0.045150887
-0.058665898
-0.011109446
-0.024267487
-0.03407131
0.053492356
0.0048262803
-0.0027494086
0.0007808344
-0.037364572
-0.06044147
0.025345873
0.049577914
0.059535187
-0.010667757
-0.012753098
-0.059183013
-0.07513993
0.029648934
0.0869656
-0.028081134
-0.002753414
-0.037421264
0.019712875
-0.032518964
-0.04898004
0.0059298687
-0.08454324
-0.027516048
-0.0006116324
0.054069474
0.04069485
0.07226031
0.008856599
-0.016386261
-0.05038409
0.02579284
-0.05311732
0.011223052
0.009254371
0.05444639
0.06750514
0.015010329
-0.039459098
-0.01571299
-0.0655759
-0.050191097
-0.0060174116
0.00062698126
0.050663713
-0.0454708
0.029278606
-0.054867055
0.047964375
-0.03322934
-0.01896713
0.07371879
-0.005725117
-0.06715924
0.0100714015
-0.00861791
0.06755927
-0.035088878
0.042492095
0.06283582
-0.06416727
-0.034757666
-0.006252158
-0.039910074
0.045696195
0.015718743
0.017947312
0.039788682
0.044661116
-0.03491275
-0.0396859
-0.03904127
-0.056935143
0.04554315
-0.042377114
0.048079405
0.020224715
0.011701412
0.0650564
-0.0056721657
0.02109948
0.006547043
-0.005691419
-0.046922043
-0.055028114
0.04894638
0.005448732
0.030542554
-0.013753577
-0.075757824
-0.06123179
0.044198096
0.021661941
-0.043769464
0.02309666
0.042140134
0.037695963
-0.02258439
-0.027481847
-0.043828256
0.016597051
0.046555534
-0.06984461
0.05870904
-0.05569844
-0.0400193
-0.008832275
-0.016388966
0.059017215
-0.017843567
0.009784792
0.034901563
0.005069071
-0.031991847
0.05781972
-0.0038294955
-0.05661962
0.06292083
-0.0676487
0.044386167
-0.04179259
-0.058161166
0.035066586
0.046317935
-0.022637453
-0.008823628
-0.03953422
0.02277615
0.02428637
-0.088633366
0.017917158
0.046397608
0.008853506
0.060163677
-0.07688914
-0.042562153
0.053957462
0.008913828
0.05063065
-0.06005864
0.06838748
-0.07195023
-0.028584229
0.059544895
-0.04101735
0.046038955
0.032681245
-0.030934965
-0.030717334
0.002764222
-0.08926177
-0.008482918
0.066736065
0.052025594
0.036200732
-0.049054813
0.005291201
-0.00015522087
-0.022202324
0.056521367
-0.057704467
0.04406919
0.03516218
-0.0047031036
0.0029282751
0.034134597
-0.053420767
0.031981174
0.0642273
-0.020325515
0.070226476
-0.004779769
-0.0456283
-0.0078909965
0.038780153
-0.032743633
-0.058971353
0.05071076
0.06469807
0.03686845
-0.05650142
-0.0009717338
-0.018413154
-0.0012482981
-0.01400492
0.044170007
0.04244102
-0.06641713
-0.028665626
0.0043106633
0.07345834
0.01918837
-0.032958277
0.051933814
-0.019896813
0.03573089
0.05081233
0.051433936
-0.036170084
-0.0053219027
-0.02846783
0.05842748
-0.038700834
-0.015044747
0.050057102
0.036367595
0.031254794
0.033343595
-0.039544728
0.0603643
0.04889425
-0.04027712
0.0618033
0.06928351
-0.059344016
-0.0353517
-0.022887805
-0.06362811
-0.00904837
-0.039115988
0.06520319
0.023372604
-0.009568515
-0.018435553
-0.020699913
0.034039628
0.06276838
-0.04090931
0.039544366
-0.021109296
0.028424587
0.03434977
-0.0013303999
0.0053670877
-0.031232018
0.059648354
-0.054512408
-0.00096636603
0.009640949
0.018835964
0.07349557
0.04003113
-0.0066405125
-0.0013328745
0.00047906864
0.06387614
-0.036539383
0.024780223
-0.0254253
0.0039734994
-0.045195226
0.022686249
-0.032992993
0.04502118
0.003175745
0.025501212
-0.027073782
0.073549174
0.044579618
-0.018482868
0.0066316715
-0.01936989
0.0064606424
0.07213313
-0.06388138
0.050573185
0.019081648
-0.020768968
0.0017822862
0.020596135
0.0074028554
0.019180655
-0.01789902
-0.015072722
0.06050419
0.0004223952
0.030899137
0.02861649
0.03728322
-0.035768546
0.01908664
-0.052858904
-0.05315602
0.0072838366
0.009705361
-0.03853469
-0.028941747
0.017088553
-0.014899029
-0.05709255
0.03340609
-0.021507874
-0.04728777
-0.031487662
-0.04013819
0.06348761
-0.020717356
-0.005136412
-0.011718847
0.0085970815
0.0363752
0.054802552
-0.03247751
0.035112556
0.006404585
-0.061753616
0.03187412
-0.0014933733
0.014081729
0.023109775
0.06534135
0.049752507
-0.023806836
0.017868536
-0.01234441
5.4151566e-05
0.02746134
-0.016087998
0.07011285
-0.04207062
0.022084609
-0.053099558
0.001394478
0.032965917
-0.06204872
-0.06789737
0.047498077
0.078487396
0.071068846
0.0018880811
-0.055170394
0.058940634
0.028100245
-0.013331863
-0.047477704
-0.014472227
-0.029746098
-0.027597103
0.005161672
0.04672034
-0.0067173857
0.0049691745
-0.007561256
0.058910545
-0.041566588
0.040831976
0.03909432
0.051843278
-0.06338363
-0.061796803
-0.051936533
0.035131853
0.056754068
-0.0673893
-0.015184394
0.032546416
0.051687762
0.04030651
0.009957985
0.043605134
-0.004128223
0.049900174
0.059936043
-0.00071418384
0.040069364
-0.012582538
-0.039304864
-0.034130983
0.051825095
-0.035946574
0.034621872
0.022243379
0.0019948247
0.018023709
0.048966024
0.051644515
0.00677011
0.0017938921
-0.048378706
-0.014395314
-0.022011746
-0.036671914
0.055032786
-0.059956327
0.02267883
0.06461585
-0.015680814
0.017885424
-0.07203738
-0.02364079
-0.0028058775
0.006226822
0.048065312
-0.03635604
-0.060231645
0.055497997
0.033034693
-0.045203526
0.023481471
0.022233691
0.043454137
0.03651057
0.029178988
0.057843264
-0.0038690858
-0.024486525
-0.06468225
0.045229293
-0.014438115
-0.053821947
-0.043871943
0.025180325
-0.046349034
0.053115066
-0.0029329362
0.04142587
0.007136526
0.0030779827
-0.030609757
-0.056963388
-0.023420805
0.017965026
-0.045722455
-0.0062843305
0.031479
-0.016554395
0.0035713196
-0.0268716
0.07599382
0.04957537
-0.025152192
-0.039594058
-0.042122014
0.05918463
-0.013891573
0.05624934
-0.005446889
0.04117457
-0.003709554
-0.042950824
-0.011829486
0.04863981
0.052085593
0.04570537
0.043982048
-0.05393383
-0.023457762
0.009881137
0.051226076
-0.009069902
-0.008374915
0.04599965
-0.051540747
-0.037668843
-6.485751e-05
0.013651911
-0.044608876
0.079417154
0.025547724
-0.024638746
0.011132836
0.0082593355
0.028722066
-0.023640353
0.046483353
0.029690944
0.06823496
0.006882115
-0.032317102
-0.018802967
-0.013639422
0.07230029
0.057911757
0.054204233
0.05216965
-0.03501482
0.050026137
-0.048034895
-0.009909353
0.043501116
0.015316577
-0.034222
-0.04913839
0.06657474
-0.009211401
0.06467585
0.01995833
0.07893308
0.04392023
0.039904308
0.019106243
-0.03010096
-0.051802736
-0.054801714
0.01987545
0.057596195
-0.009773323
-0.013323485
0.050825436
0.031375512
-0.062098395
-0.038375042
0.05738434
0.022485336
-0.014358972
0.018685462
0.03419594
0.06867257
0.0700192
-0.03997393
-0.027466385
0.003381017
-0.054617222
-0.07719141
0.018908178
0.004646417
0.04376137
0.041494593
0.028338553
-0.01219669
-0.04556537
-0.045405723
0.050216537
-0.036466323
0.072319984
0.00799321
0.020486057
0.013849675
0.05079001
-0.050841525
0.07451894
-0.018885585
-0.025094429
-0.060342778
0.05612236
0.019362355
-0.052746065
0.066385016
0.050044652
0.06661914
-0.045037873
-0.05469991
-0.0009999811
0.07620063
0.0053977063
0.06078025
0.0051949373
0.07949551
0.0066605103
0.04171441
-0.022072058
0.028688079
-0.06471595
0.013588109
-0.007722781
0.04410241
0.0034814675
0.0720644
0.00028663597
-0.01769211
0.068503015
-0.06810631
-0.05486256
0.038027033
-0.045864034
0.021062715
0.008444835
-0.01434376
0.06595368
0.022899535
0.065062664
-0.054464817
-0.022161556
-0.016014932
0.010916955
0.00731401
0.058873963
0.057653744
0.017865194
0.044961013
0.03188152
0.06569267
0.04387245
-0.008679958
0.05121737
0.050729457
0.029404806
0.07230111
-0.0038464982
0.04409163
0.05822298
0.065828234
0.062393297
-0.017746354
-0.024842871
-0.0012945508
-0.055029076
-0.041933917
0.007690812
-0.015059415
-0.008743997
-0.005926988
-0.07057337
-0.034377184
0.038673386
-0.0038679766
-0.010558805
0.027643876
-0.044682126
0.015172664
0.045628283
-0.05965724
-0.048568774
0.05923927
0.012894079
0.059587363
0.031596262
-0.042029075
0.005897863
-0.019511735
0.074427806
0.03782435
0.035394795
0.07227839
0.019661803
-0.008339899
0.038946375
0.016357288
-0.008180607
-0.04102314
-0.037123125
-0.029001128
-0.015516798
0.05469945
0.028301796
-0.048415497
0.049623117
-0.024522979
0.050027534
0.056368977
0.027270399
0.06411106
0.022373227
0.016126622
-0.0077923667
0.053209472
0.034928147
0.025096016
0.06654349
0.021710401
-0.05523463
0.008054291
2.5500507e-05
0.027734699
-0.047396712
-0.05930125
6.378664e-05
-0.034392636
0.009999386
0.037999976
0.050599806
0.014749321
-0.042127166
-0.048379082
-0.017114114
-0.042545997
-0.053875156
-0.009020191
0.05680107
0.027359853
-0.04507743
-0.02054086
0.016378911
-0.05457384
0.036660764
-0.0047916714
-0.061419554
0.07729858
-0.024657402
0.024567304
0.037603196
-0.013680502
-0.019694287
0.0386561
-0.027803883
0.04333245
0.03931627
0.0217586
0.04728424
-0.018206017
0.045577988
0.060470235
0.029671844
-0.05340171
0.023022918
-0.051010095
0.04584526
0.020675331
-0.02684967
-0.0042102863
-0.013151
-0.06583683
0.043553825
0.015848793
0.025472254
-0.023586882
-0.026257547
-0.01648578
-0.067748286
-0.053367764
-0.031467445
-0.00097336876
0.05798644
-0.04734206
0.061542008
0.0020418768
0.008235972
-0.04561694
0.01885241
0.046868965
-0.038737852
-0.07156109
0.019428518
-0.037044447
-0.05913743
-0.05693962
0.01394581
0.020298889
-0.020295283
0.016642015
-0.07327221
-0.054261874
-0.060110856
0.06735522
0.053685796
0.011334258
-0.025235238
0.06280751
-0.0479766
-0.057693873
0.022412404
-0.014404765
0.02155244
0.025335219
0.04741406
-0.021203037
0.054917544
-0.044883184
0.02785771
-0.033374704
0.056552906
0.06652855
0.03777381
-0.035941217
0.0035555165
-0.058321923
0.064744286
-0.05446623
-0.05944194
0.01624991
-0.009146885
0.011897317
0.027306909
0.04908751
-0.009433897
0.044450276
0.074290074
-0.004075169
-0.05978975
-0.043823075
-0.04194371
-0.007343547
-0.026132321
0.036124617
0.010924913
0.04998041
0.012950647
-0.0015512856
-0.075691424
-0.04810907
0.009776795
-0.03989604
0.06359585
-0.035364896
0.044634886
0.05882003
0.04431417
0.02871801
-0.006811635
0.0151293725
-0.05124511
0.046012793
-0.05476866
-0.05572524
-0.026779726
-0.039905034
-0.052948374
-0.05233522
0.037818916
-0.058708757
0.0027982034
-0.045832895
-0.0074375733
-0.015037322
-0.007473
-0.017218048
0.048940606
0.054993704
-0.04351921
0.047175948
-0.02025191
-0.014606127
0.043421973
-0.04665482
0.0066307834
-0.056188412
-0.005771943
0.014413532
0.0013358942
0.016474035
-0.022531252
-0.04317318
-0.028678792
-0.04140694
0.009266858
-0.04150138
-0.014866744
0.0017210515
0.00929703
0.03848917
-0.050217446
0.050841533
-0.0033770155
0.037867736
-0.037111674
-0.035924964
-0.024198484
0.05983494
0.056276154
-0.025283275
-0.004429527
0.039689254
0.0500583
0.06628793
-0.0009344408
0.05253235
-0.012417725
0.050773084
-0.0068985927
-0.036103014
-0.0261652
-0.020446379
0.05821758
0.02904357
-0.03335369
-0.024582548
-0.040748637
-0.03363383
0.07021623
-0.00051414483
-0.01322836
-0.036936745
0.027264483
-0.058568172
-0.012412597
0.065182075
0.023103569
0.040769435
0.023511333
0.04584379
0.06252422
0.054010425
-0.069771886
-0.047705714
0.021390138
0.073347755
-0.020377005
0.06438496
-0.07164928
0.015434565
-0.0064404868
-0.020001685
0.011748733
-0.057203006
0.056686744
0.03432028
-0.053474158
0.008681649
0.040957678
0.020693356
0.0633884
0.049879156
0.048616156
0.06626923
0.050644193
-0.012148177
-0.038017713
-0.044336457
-0.064718716
0.013756686
-0.034181014
0.005672135
-0.03482198
0.013618094
0.028628152
0.005155663
-0.0064707617
-0.019428728
0.04051283
-0.052075468
-0.014751246
-0.011325145
0.05915904
-0.052970216
0.06072007
0.029691081
-0.000985374
-0.00535422
-0.026209999
0.064285256
0.006826401
-0.050579138
-0.05418744
0.031112002
-0.042879637
-0.033167977
-0.038372934
-0.03687335
-0.056520805
-0.06663579
0.022817567
0.059491135
0.054593217
0.021942204
-0.035893183
0.07232122
-0.008161696
0.026994664
-0.046781316
0.046052124
0.011593551
-0.04689913
-0.016352152
0.0034133045
-0.054450642
0.0038031295
-0.011093335
0.034421038
-0.06335705
0.026961632
-0.017728643
0.04137092
0.062965736
0.050077062
-0.02695434
0.04497764
-0.06519416
-0.0005098397
-0.06271633
0.07287959
0.009282109
-0.06669016
0.012212876
0.05896393
-0.0148396585
0.071941696
-0.03273387
0.041649614
-0.071200125
0.044685807
0.0469396
-0.050557654
-0.05645256
-0.02315612
0.014807155
0.06567088
-0.02683674
0.00714626
0.0031940048
-0.046875846
-0.015567865
0.054692872
0.003393171
0.08643739
0.041583985
-0.008638147
0.010000289
0.029464712
0.032768086
0.0176928
0.05720674
0.057764295
-0.04944288
-0.052050933
0.063118905
0.05298817
0.057878856
-0.021708673
-0.052437734
0.04100453
0.04561653
-0.012421462
0.0050152414
-0.06021533
0.017063858
0.055860624
0.052467816
0.021923054
-0.011197655
0.024207229
-0.032859523
-0.05253584
0.02065787
0.034396835
0.012550643
-0.059275772
-0.0483149
-0.051378686
-0.07451635
0.054051243
-0.020079313
0.00095274486
0.015656365
0.04107395
-0.05011219
0.07550699
0.035537694
0.06653945
0.0046291095
0.016945431
-0.040875275
0.00019816506
-0.05258374
-0.041393306
0.055000965
-0.04629357
0.050715983
-0.01413502
-0.048559822
0.04053511
0.020901915
0.057500187
-0.020301625
0.029719926
-0.0067665647
0.011560176
0.032160316
-0.026213538
-0.035520803
-0.064251736
-0.05936779
-0.0021439195
-0.02956746
0.03398279
0.036634814
-0.045437366
0.04668914
0.02852154
-0.054157697
0.0063898196
-0.06358841
0.019079989
-0.0009393257
-0.05896492
-0.034413457
-0.07187023
0.01236163
-0.008454465
-0.019716907
0.019348674
-0.049689785
-0.038662698
0.008128087
0.06044728
0.020363875
0.0315082
0.024218418
-0.014480641
-0.049073722
0.051095273
0.039047
-0.00036047064
0.016561497
0.06331603
-0.005228128
0.060983248
-0.043676022
0.03821472
-0.062425215
0.05039525
0.046103865
0.057612754
0.010324494
0.06817009
0.004960022
0.013757827
0.040531687
0.022181865
-0.074829385
0.06471505
-0.02140555
-0.06318498
-0.04290849
0.058998335
-0.063803986
0.054830328
-0.027856654
-0.06199615
-0.022649456
0.04282956
0.022328848
0.038527604
-0.043648906
-0.0081086755
-0.0573674
0.04644285
-0.00092106377
0.037509445
-0.070932865
-0.0070984615
-0.03338948
0.031141933
0.07614866
-0.040606562
-0.009521339
-0.064457916
-0.018849438
-0.06833382
-0.0029492006
-0.019088589
-0.036260996
-0.04384188
0.014131073
-0.056917656
-0.064240955
0.06910852
0.026535846
-0.03666205
-0.0021929275
0.042051777
-0.012883253
0.025059618
-0.023743944
-0.024248697
-0.034789283
0.060158234
0.005446841
0.04918712
0.040123206
0.024459964
-0.010545222
-0.027913148
0.02465949
-0.042773668
-0.010389924
0.018194778
0.02647771
0.02867669
-0.05972597
0.056111343
0.0053269872
-0.008502382
-0.0025259985
0.05806527
0.014382189
0.02131023
-0.03263354
0.032465197
0.012762057
0.04132159
-0.06113171
0.013310834
0.009344236
-0.06284152
0.026065331
0.049996465
-0.018976912
-0.03818543
0.022312634
0.038593642
-0.052386172
0.03943541
0.022452213
-0.052679103
0.034444112
0.056746412
-0.0013487496
-0.062346518
-0.05504768
0.03733367
0.07132576
-0.039055753
-0.040001582
0.042368483
-0.067276664
0.057277773
0.042856492
0.030274453
-0.042680763
0.015245506
-0.057590645
-0.028123932
0.009925287
-0.052971818
0.06086609
-0.0011557626
0.0287478
-0.04194101
0.039994657
0.0437932
-0.0009253355
-0.06921193
-0.0115232915
-0.063301235
-0.041626
0.03924306
-0.059191972
0.06428296
0.062639974
0.042233784
-0.018374603
0.05360377
-0.043698605
0.012370669
0.03880024
-0.00920581
0.0043781335
0.075993374
-0.052493054
0.02663716
-0.011681378
0.0616502
0.024520496
0.03103945
0.0027564804
-0.031745322
0.060046155
0.04779155
0.022706132
-0.017447194
0.0115907695
-0.046612233
-0.006786595
-0.086949974
0.0037701756
0.057024308
0.053074274
-0.0660947
-0.024096107
-0.03519361
0.07397223
-0.052884493
-0.064760074
0.057302535
0.022736032
0.056392632
0.007338053
-0.010240738
-0.06108013
0.036651384
0.06381953
-0.042431753
0.013605067
0.002903742
-0.07017392
0.0026437512
-0.012004664
-0.0069287783
0.03258835
0.018136902
0.042708065
0.072126724
-0.026939064
0.006421401
0.021894071
0.0033345656
-0.058876786
-0.079231754
-0.062912695
0.021339701
0.020395502
0.06655768
-0.0050243707
-0.051310305
0.015632633
-0.0113967275
0.03484986
-0.02703979
-0.012232239
0.059706982
0.006895448
-0.01602523
0.04064387
-0.057301342
0.015637152
0.024262983
-0.06511602
-0.030752638
-0.041339125
-0.05733806
0.0023227471
0.0030439335
0.037842
0.081362896
-0.0052779163
-0.019993579
-0.000615559
0.03311155
0.04118393
0.011420121
0.027040264
-0.023372283
0.041007306
-0.040693905
-0.08030014
0.03994182
0.056074705
-0.04723584
0.021508588
-0.0072982935
-0.0656074
-0.033215243
-0.015993474
0.014440183
0.009894117
-0.006235841
-0.06643478
0.017855167
0.050630767
-0.06234007
0.046368018
0.041486457
0.0017348442
-0.012950326
-0.0042313035
-0.065141596
0.06151392
0.022043297
-0.01428049
-0.024402568
-0.04624657
0.012708055
-0.02911
-0.01338551
-0.011801462
-0.0292241
-0.05697776
-0.019950524
-0.036540795
-0.034183078
0.0036916567
0.021176161
-0.033938423
0.057829157
0.07003418
0.06125374
0.02687332
-0.02143193
-0.04775188
0.047015343
0.013558211
0.05773748
0.063759275
-0.052078426
0.035436064
-0.025462905
-0.039232284
-0.03816802
-0.06486209
0.06892478
-0.03460876
0.04705592
0.074587196
-0.033245765
0.055674795
0.0072501306
0.07671442
0.0043077604
0.07312788
0.0035989608
-0.05740837
0.06094324
0.028390436
-0.070280306
-0.010528184
0.008049426
-0.041065928
0.03973903
-0.047385678
0.019547628
0.01292095
-0.039394677
0.0064509166
-0.041771404
0.059139706
-0.04728294
-0.0154088475
-0.012533849
0.0019004716
-0.034742374
-0.030891046
-0.0556712
-0.031734176
-0.006138971
0.063356124
-0.0155075975
0.06495563
-0.013290245
-0.015734097
0.041488264
0.025304062
0.04250129
0.034686472
-0.022093846
0.03911138
-0.043495826
0.0065324944
-0.052743074
-0.053791553
-0.0058969515
0.04727915
-0.06977926
0.018736744
0.07323948
-0.030643456
-0.05662684
0.029138498
0.018771306
-0.022648359
-0.06439537
0.06286818
-0.018889695
-0.06754204
0.038304973
0.026611745
0.038439937
-0.008672247
0.0279844
0.06427168
-0.035459973
-0.060768742
-0.04653008
-0.040420398
0.018219423
-0.026715878
0.0071455073
-0.042884722
0.041061074
0.0347135
-0.06710944
0.009819069
0.043703534
0.034364607
-0.0035168428
-0.008309487
-0.04398523
-0.07165288
0.07756153
-0.04627518
0.03912436
-0.014309328
-0.0022553226
-0.057490647
0.043438505
-0.066417664
0.034312423
-0.030884607
0.055371106
-0.017443053
0.05287275
-0.035956524
0.067978814
-0.022213183
-0.06184645
-0.0154020395
-0.021023255
-0.04949212
0.042307068
-0.016171757
0.034333173
-0.043664165
0.06466096
-0.051806178
0.06399666
0.06302223
0.03688446
0.048159216
0.03715724
-0.0077964873
0.02453373
-0.0031130041
-0.016500609
-0.029722597
0.067765675
0.00992682
0.03441942
-0.009567358
-0.0638565
-0.026598949
0.055033967
-0.02791536
0.011914193
-0.06677758
-0.021168824
0.034288697
-0.05541338
0.0036449526
-0.018290887
0.04003535
0.032325864
-0.016126988
0.03725935
-0.028704338
0.010319804
-0.022298627
-0.057227205
0.051289838
0.05257138
0.031606227
-0.05164314
-0.042948715
0.057574395
0.06349626
0.07453785
0.06691824
0.056022543
0.004283954
-0.069650754
-0.06544047
-0.032871153
0.029058272
0.057276316
-0.053109515
0.022745553
0.025248496
-0.010666429
-0.056481235
0.03127443
-0.062063053
-0.054950524
0.013787747
0.044280883
-0.0058563985
-0.013835949
-0.0081477035
0.06936237
-0.023443384
-0.049582466
0.031690285
-0.06629175
0.020136295
-0.02971533
-0.029428959
-0.001305294
-0.034403257
-0.026856262
-0.05932045
0.03187045
-0.063652575
0.06108927
0.04933885
-0.07551856
-0.06540445
-0.05261452
-0.038040992
0.0047418475
-0.06735171
-0.010590925
-0.03877493
0.06947709
-0.018175758
0.0476841
0.039962642
0.057577953
-0.018966306
0.061351493
-0.044826858
-0.033223096
0.019859137
-0.024845038
0.056922026
-0.041539807
0.0326356
-0.032181676
0.009000654
-0.03471818
0.018544015
0.014381615
0.016989186
-0.0023444057
-0.057495557
-0.03246804
-0.06571248
-0.029222015
0.052636072
0.013770715
-0.060444407
0.029407384
-0.04041602
-0.06428183
0.0497359
-0.02688679
-0.038066808
0.0072704214
0.030300673
0.030031137
0.027429238
0.06715082
0.00022674812
0.033691544
0.0047578868
0.03570868
-0.041419793
0.020726545
0.005167857
0.05996739
0.069861025
-0.046243593
-0.06270185
0.04710716
-0.031673357
0.07090991
0.010674001
0.05205023
-0.022824187
-0.034733836
-0.06579759
-0.05361169
-0.06340985
0.034764558
0.067771524
-0.050078984
-0.03501808
0.04985169
0.03200833
-0.0013442751
-0.043289736
0.031711172
-0.0651248
0.047623027
0.032008305
-0.025892764
0.052316394
-0.047797315
0.037668332
-0.010298782
0.07453532
-0.02278088
-0.027795577
0.0041911732
0.054982956
0.02526752
-0.048679132
0.033160474
0.044060912
-0.05003877
0.009363959
0.03997156
0.003540427
-0.069047496
-0.01911528
0.044348486
-0.04335429
0.065130144
0.047488432
-0.016818829
-0.04276843
-0.044218153
0.02855443
0.024050487
-0.031614665
-0.047117636
0.07050261
-0.04977723
-0.031650238
0.049803067
-0.062440548
-0.010859253
-0.025583481
0.014634324
0.04991656
-0.06089264
0.06615309
-0.057522282
0.050531805
-0.04854869
-0.04123994
-0.014367074
0.012633869
0.016989686
-0.06009069
0.03846232
-0.050825275
-0.04449025
-0.016034124
0.015093393
0.038267326
0.05337369
0.030635385
-0.008499618
0.022175439
-0.024929125
-0.005470623
0.021140765
0.0012733088
0.04000912
-0.058737405
-0.044566292
0.06818842
0.04687326
-0.049522813
0.045495104
-0.036583964
0.023350755
0.051848713
0.024596794
-0.087222226
-0.0424545
0.0029849715
0.027717993
0.040531706
0.023889132
0.018666541
0.031150803
-0.037404332
-0.003007541
0.02155854
-0.055847097
-0.0075467885
0.050517645
0.054777943
-0.047937162
0.022706902
-0.05899277
-0.03300334
0.01893941
-0.043951113
0.02758283
-0.05617574
-0.021197623
-0.0077061597
-0.03897103
-0.03402333
-0.028867137
-0.048180822
-0.05314621
-0.047830977
0.015771119
-0.019361973
-0.012063214
0.043942433
-0.057874005
0.051248413
0.01939506
-0.025489246
0.06753087
-0.0099948365
0.07616803
0.072924964
-0.008612293
-0.05323357
0.030578908
0.029655036
-0.032935638
0.0047685564
0.062967055
0.041491613
-0.020349756
0.008363722
-0.042042423
-0.017789321
0.06921111
0.05829109
-0.07293277
-0.03693701
0.020702912
0.06984412
0.06415256
-0.026529646
0.058673006
-0.018410983
0.024400791
0.06150208
-0.046030946
-0.059847668
0.049842138
-0.0039953934
0.0499801
-0.0336376
0.02144934
0.026469119
-0.04751494
-0.027109623
0.07557052
-0.051646233
-0.012282327
0.03545234
0.04478655
-0.0009871647
-0.05293087
-0.02298241
0.06424094
0.04648747
-0.063629515
0.0344091
0.06635955
0.014948704
0.0035877123
0.044905256
-0.049409963
-0.06474995
0.03670061
0.0044821426
0.030337825
0.049834553
0.008266032
0.049868762
0.06527085
-0.03009564
0.05466393
0.00036433048
0.07422667
0.06913558
0.0014880822
-0.008255261
-0.012386318
0.012274682
-0.061473455
0.057953183
0.05725453
0.040288992
-0.039702658
-0.019739794
-0.04415156
0.05767984
0.06264725
0.03624884
0.015252794
-0.024076367
0.018943427
-0.06827019
0.06770304
-0.002087243
-0.07316786
-0.07543891
-0.004619166
0.007817217
-0.044952832
-0.03830863
-0.013948183
-0.03840147
-0.0071460493
-0.01429893
0.036155883
0.036528133
-0.0149065
0.005968296
-0.07285791
0.07148311
-0.051101267
0.031776436
-0.06106471
-0.044530638
0.023380714
0.07670689
-0.056847554
0.0052211857
0.015488918
-0.015849534
0.059986666
-0.055357046
0.006845616
-0.053569384
0.0037915295
0.06660634
0.08268397
0.04042409
0.0055785724
0.029617678
-0.06964993
0.008217521
-0.029930033
-0.0050927396
-0.03285631
-0.022449447
-0.0038095654
-0.014226626
-0.025449872
0.052326288
0.03794883
-0.051709887
0.05983523
-0.01608486
-0.05010951
0.041960288
-0.07911963
-0.013872241
-0.00833961
0.038757928
-0.02982938
-0.06239557
0.06593565
0.02757091
0.07259777
-0.04521269
-0.06908697
-0.014480554
0.02179637
-0.008498857
0.022683026
-0.06049216
0.034479458
0.027735662
-0.019383613
0.05074934
-0.010565327
-0.04071449
0.057331923
-0.0124660805
-0.0005097615
0.047771316
-0.026605807
0.048348416
0.04063119
0.010583825
-0.029247832
-0.06516438
-0.076192774
-0.07878416
-0.022922717
0.009172651
0.02255831
-0.04288817
-0.06319631
0.011720218
-0.0485493
-0.053378344
-0.010665643
-0.013044325
-0.043776784
0.03454692
0.047959685
0.0490222
0.041738853
-0.06304017
-0.056248114
0.061868805
-0.06767422
-0.04638682
0.05031561
-0.022183767
-0.020929545
0.055634163
-0.028647806
0.012141018
-0.029745745
-0.063216
-0.033653352
0.06308312
0.00066595094
-0.038034026
0.012163751
0.040468354
-0.048468616
0.083732955
0.0046270853
0.030902969
-0.003808385
-0.0007260802
0.052084036
-0.012514071
-0.034077615
0.03919821
0.026275335
-0.043002754
0.019145226
-0.02474251
0.026457133
-0.01731935
0.05701632
0.0010820017
0.01903879
0.011037344
-0.051862147
0.05160926
-0.058517437
-0.023088377
0.032989476
0.04208162
-0.006502564
-0.00029860894
-0.050867885
0.05983323
-0.02448134
-0.058645267
-0.023251995
-0.057639062
-0.060967956
0.00067016814
0.04092619
0.015751012
0.031613603
0.0025232667
0.00036403077
0.014727961
-0.035944805
-0.042187735
0.061144706
0.066173546
0.046191473
-0.06889976
-0.08885004
-0.055356983
0.027677294
-0.023238886
0.035162363
0.08725321
0.0057219057
-0.0020109063
-0.04417922
0.040498346
0.033003487
0.041272294
-0.020880263
0.03922306
0.01304367
-0.06798386
0.04147512
0.051525835
0.032867573
-0.010323713
-0.049449768
0.012790663
-0.0050868937
-0.04453531
-0.05294033
-0.024547677
-0.07554199
0.03592787
-0.024298776
-0.042506542
0.04863573
0.03021499
-0.05713849
0.026388867
0.013707294
-0.0073657967
0.014371779
0.0060614157
0.041260704
0.053878937
0.015431818
0.09091
-0.030067813
0.07210355
0.02297507
-0.0006210725
-0.01154041
-0.07117329
-0.026022153
-0.03520046
0.06891786
-0.054345835
-0.04109139
0.07616576
0.024065878
-0.030527072
0.031217216
-0.006276725
-0.058226693
-0.054553956
-0.05419458
-0.050985374
0.0112359
-0.03032939
0.008742488
0.06417193
-0.0018344764
-0.0064789033
0.07983606
0.03951818
0.061961737
0.036873404
-0.03459023
-0.022526633
-0.0290923
-0.030457852
-0.040074438
0.011880018
0.031857815
-0.0072760996
0.0431715
-0.059332598
0.06479334
-0.051393542
-0.072208494
0.01729525
-0.040553924
0.068593584
0.06695059
-0.018227657
0.024466187
-0.012067569
-0.055684216
-0.053404167
-0.010234242
-0.012804053
-0.02809637
-0.0076671783
-0.020582702
0.059754096
-0.04435451
-0.0058610165
-0.013637695
-0.0749879
-0.01237188
0.07697945
0.018412424
0.028606176
0.0631837
0.0033699872
-0.07578826
-0.048563164
0.03852826
0.011526045
-0.06690558
-0.020460181
0.056526065
-0.017666355
0.037279665
-0.0114680845
0.02689339
-0.046645995
-0.023404717
0.030246276
-0.0643822
0.053856906
0.015587141
0.07316022
-0.043814745
0.007020176
-0.027433714
-0.027395543
0.04685357
-0.046419606
-0.032700896
-0.025847483
0.036123134
0.045419358
-0.026515467
-0.036212917
-0.055166926
0.025377989
0.046938654
0.044597987
0.024395784
0.026620686
-0.04374279
0.021831797
-0.039702572
0.012278121
-0.03336297
-0.043822866
0.05567655
-0.05136541
0.005892371
0.041657776
-0.048856683
0.033581115
0.024911694
-0.06765203
0.051670022
-0.014589696
0.049768608
-0.05407016
-0.064537175
0.004479211
0.03503632
-0.07003796
0.014535853
0.0119540095
-0.033644732
0.05147693
-0.044304963
-0.064494915
-0.055405207
0.058966335
0.04854586
-0.026220385
-0.044341512
-0.05813552
-0.06169591
-0.0039217654
0.061115935
-0.037102327
-0.058494132
0.04825407
-0.051309485
0.04160441
0.050593235
0.061843596
-0.036460448
-0.0076098014
-0.06547804
0.0022171058
-0.0740578
0.014998862
-0.0498633
0.014141641
0.05115236
0.042230774
-0.059932694
-0.004167877
0.047059312
-0.02652939
0.07966423
-0.057692412
0.0007371851
-0.005008047
0.05197705
0.014065495
0.013397452
0.051191725
-0.06554055
0.050614774
0.034001715
-0.069893286
0.02261449
-0.0007724494
0.021481497
-0.0810324
-0.0031464114
-0.06382581
0.004445967
-0.0334279
0.00025613903
0.02250092
0.042316373
-0.066169724
0.01317726
0.031238398
-0.05548441
-0.06966826
0.013177414
-0.009774305
-0.062757716
-0.025019586
-0.018149113
-0.023797505
-0.04988544
0.04543118
-0.030896371
-0.0064683803
-0.07234932
-0.047863178
0.06405568
0.045069955
0.06056181
-0.060590483
-0.0511844
-0.05749868
0.027956435
0.031817485
-0.038250353
0.06825756
-0.0054713446
0.0020233572
0.03681748
0.033092897
-0.050982658
-0.0028997154
-0.005760418
0.04466481
0.053655706
-0.0664195
-0.01588881
0.0050432812
0.059960585
-0.006620345
0.010547126
0.031196745
-0.04386542
-0.018969025
-0.005216216
0.059365347
0.011167998
0.03540211
-0.039132826
-0.036608882
0.010443643
-0.052901722
-0.058905113
0.007894717
0.063327685
-0.0025581776
0.029139128
0.031033333
-0.05975105
-0.054861967
-0.058351
-0.06892911
0.0020334406
-0.06255581
0.011680214
0.057241794
0.01225249
0.05123763
0.00023468221
-0.059348624
0.050967988
0.008911915
0.016885227
0.04031778
0.023435535
0.026947267
-0.029809268
-0.03439421
-0.06658978
0.024907872
-0.005445564
-0.064954855
-0.053360764
-0.04774274
0.018432803
-0.028586434
-0.0761616
-0.057133656
-0.012309296
0.019529615
-0.016197914
-0.08410343
0.029962437
-0.082175806
-0.060061906
-0.032818824
0.015141515
0.034087073
0.025467971
0.009124816
-0.047419943
-0.04861689
-0.056464545
0.059283968
-0.029405665
0.024369726
0.06322619
-0.062017586
0.0039944034
-0.033843048
0.024584113
-0.044355743
-0.059556417
0.059926264
0.046875346
0.053617675
-0.035601385
0.016800942
-0.06203681
-0.046280105
0.029537244
0.043774214
-0.030660922
-0.04174383
0.0070044994
-0.06292839
-0.007473926
-0.03196317
0.066989005
0.0015553125
0.05547112
-0.039735664
-0.051126927
-0.008261058
0.03125413
0.05898306
0.0062056943
0.043835964
0.03253526
0.02295257
0.06366091
0.048490196
0.020194268
-0.016831502
-0.052334376
-0.06238658
0.04576502
0.0111723915
0.03253942
0.064516455
-0.031997822
-0.014221532
-0.0004173359
0.029499073
0.01365216
-0.035835262
-0.0016557906
-0.060731247
0.0123894345
-0.007049564
0.066981934
-0.0037500684
-0.050569918
-0.013698179
0.05789453
-0.01747832
0.027457053
0.054916833
-0.03135875
0.030207241
-0.054418746
0.02517235
0.0041504526
-0.03741371
-0.03753735
0.025880886
-0.0014605245
-0.028425284
-0.002775854
0.010262509
-0.063167356
-0.0780925
-0.014108439
-0.04533193
0.0344003
0.032062586
0.069535986
0.05641673
-0.0056516184
-0.018937787
0.061757136
-0.052065015
-0.033203594
0.014194003
-0.06408915
-0.0675114
0.04967493
-0.024207925
-0.042463236
0.026164832
-0.026955893
0.03550697
-0.0059033073
-0.030913515
0.05539394
-0.02558658
0.007620362
-0.009853974
-0.043008186
0.013374957
0.04073633
-0.024996758
0.021140872
-0.0053910925
-0.028927045
0.022605374
-0.056132905
0.047478348
0.022398679
-0.006869466
-0.08100244
-0.0074520647
0.046215873
-0.062217683
0.06251753
-0.048309542
0.061288565
-0.030272316
-0.013079049
0.0067941877
0.060434695
0.062249742
0.009689511
0.02634328
-0.021442072
-0.03272129
0.020413818
0.05340869
0.0019336275
-0.0074609206
-0.027924646
0.056206927
0.080167994
0.060804997
-0.049798455
0.0051831743
-0.01173796
-0.047606185
-0.036607604
-0.04225629
0.014202185
0.040193718
0.025525045
-0.0030077028
0.05335238
0.017402828
0.052668083
0.0028560325
-0.010859528
-0.047741417
0.07945636
-0.04421317
0.06962118
0.068201974
0.0690755
-0.00039012518
-0.026268536
-0.0055690673
0.035595648
-0.015664939
0.010294419
-0.06654484
-0.023111332
0.02222965
0.050470196
-0.0024384037
-0.017474163
0.013901216
0.027270652
-0.06462809
-0.009275547
0.062027756
-0.029879713
-0.006884363
-0.0065438556
0.06492456
0.03631888
0.013696273
-0.052272465
0.043198593
-0.010158767
-0.007305627
0.056456603
0.01683142
0.011930681
-0.037668765
0.03126887
-0.011794509
-0.070737585
-0.0094484845
-0.025989123
-0.047900442
0.051683836
-0.06567819
0.0048706033
0.014988743
0.061443485
0.057837933
0.026213925
0.022498483
0.021711102
0.05948672
0.036847375
0.054842502
-0.015711334
-0.052212063
-0.030451093
-0.057609707
-0.014670476
0.035633955
0.008231542
0.0015461871
0.054857586
0.03521688
-0.044976786
0.051396284
-0.03725502
-0.0117074745
0.009311417
-0.068210624
-0.019252121
-0.06348414
0.018808171
-0.01951903
-0.07117816
0.02665631
-0.008843846
0.02479772
0.021610074
-0.0263758
0.063285425
0.0002830003
0.0050272513
-0.008349759
-0.056424886
0.06291076
-0.051053368
0.07093719
-0.026054718
0.045262042
0.071995385
0.083252825
0.03480163
0.028946882
-0.0010185932
-0.01322079
0.016983425
0.07254678
0.05189231
0.07486651
0.020031989
-0.00022681437
-0.032200906
0.06505186
0.05743734
-0.061008662
0.023727635
-0.017908249
-0.036790095
0.03573403
0.02239934
0.0015062286
-0.027911976
0.036789596
0.057696212
0.041088317
0.02048136
0.0021229328
0.06308994
0.013694018
0.07161767
0.0084624775
0.047060627
0.056736067
0.002351441
0.04097176
0.05377638
0.0076147993
-0.05850212
0.018822804
-0.04487884
-0.07103962
-0.04959063
0.06622959
-0.024333445
0.008049928
-0.028462667
0.028047493
0.06738289
-0.041671753
-0.01708555
0.0606081
-0.03367522
-0.04705367
0.016983004
-0.0005465037
0.02994713
0.018508669
-0.052017074
-0.028247518
0.008222542
0.03657034
-0.002963719
0.011304084
0.06761391
0.0076475753
-0.031793814
-0.013096197
0.008868627
-0.027567443
0.053585187
0.006904928
0.02763641
0.05164469
0.07041219
0.06151973
-0.015786353
0.012222229
-0.003931395
-0.01089293
0.010395527
0.033729497
0.032992043
0.050973307
-0.07089249
-0.03168149
-0.06434202
-0.017384578
-0.02614085
0.052337162
0.033022407
-0.04302646
-0.02653563
0.038858686
-0.030015532
0.0026631858
-0.03914883
-0.06392498
0.01958506
-0.04116787
-0.0029874544
-0.0627515
-0.0055596726
-0.018901061
-0.032206703
-0.046516225
0.004379302
-0.01237527
0.019935608
-0.052916296
0.07524632
0.043130152
-0.032804992
0.04489096
-0.033825997
-0.04352281
0.0047347345
-0.0021951278
-0.035159215
0.0603871
0.04991245
0.02004934
0.013806478
0.03068102
-0.055231657
-0.016089913
-0.016059868
0.055938333
0.0021101004
-0.05860721
-0.016081663
0.0021504082
-0.045055453
0.01906137
-0.06697756
-0.037308425
0.009769626
-0.049166612
0.030469913
0.05288367
0.014340211
-0.055945292
0.0367132
-0.033342443
0.034062147
-0.058754098
0.013046084
-0.050475776
0.003212652
-0.04482831
0.046444803
-0.01784216
-0.073879465
-0.029316047
-0.005619096
-0.020426456
-0.02456537
-0.023686705
-0.03829971
-0.019542335
0.026209047
-0.07464024
-0.057567626
-0.06807105
0.0045301146
-0.016266381
0.04339371
-0.039381504
0.061691433
-0.05165033
0.027944019
0.034680907
0.011552648
-0.045060694
-0.027838854
0.049203794
-0.008931409
0.030247439
0.036442094
0.068021715
0.016505176
-0.056131043
0.01704783
-0.036211833
-0.02718239
0.02674118
0.03918817
-0.009206479
-0.040203486
-0.07131437
-0.06928685
0.004235807
-0.068541594
0.016042244
-0.03154141
-0.041666854
0.07139519
0.03055194
-0.065759234
-0.030871438
0.018412488
0.05442913
0.0359943
-0.023620008
-0.058357354
0.010971048
-0.059425782
0.020212825
0.045635983
0.033219196
-0.011729603
0.07939244
-0.010039456
0.013823966
0.0022903522
-0.022719784
-0.059051994
-0.057434514
-0.059463583
0.014170244
-0.021043476
-0.04620235
-0.07651793
-0.02274685
-0.06271632
0.08086316
0.041698966
0.06551453
-0.012680723
0.024257582
0.0056747766
0.05030452
0.046652056
-0.056290038
0.045176312
0.055708792
0.064583495
-0.06402427
-0.0416756
-0.0020409639
-0.06052627
-0.025814433
0.016296413
0.021975465
-0.0032848387
0.031200252
-0.007098109
0.044092596
-0.0032702934
0.029396057
0.056971032
-0.0068974206
0.014212026
-0.048026994
-0.01206123
-0.004710337
0.0596677
-0.03817326
-0.017026162
-0.016901415
0.0493239
-0.008965291
-0.025570627
-0.01209487
0.008485647
-0.018713042
-0.060880594
0.063804515
-0.026321221
-0.04169477
-0.06197547
0.06232008
-0.032668382
0.026687913
0.06656365
-0.011172255
0.0504374
-0.07238723
-0.05307403
-0.0019977866
-0.028169844
-0.043692116
-0.012101866
-0.049817286
-0.027410788
-0.00034781042
-0.040218294
0.03890941
0.0049278857
-0.014495989
0.054470684
0.051257856
0.041402984
-0.0284856
-0.00059999066
-0.019471675
-0.07558153
-0.065916926
0.034337718
-0.050974097
0.05113209
0.05424173
-0.010199558
0.07803157
0.0335859
0.030933056
-0.009035523
0.026587054
0.071054205
-0.044059698
0.018945554
-0.048520334
0.028822467
0.04950034
-0.044588298
0.04207015
-0.03232628
0.06949328
0.047759973
0.0066076675
-0.036764733
0.05893955
0.015448975
0.023921315
-0.057967417
0.03913503
-0.049591113
-0.056810185
0.017079862
-0.0030109691
-0.02673956
-0.05038629
-0.013654598
-0.021703295
0.014908695
0.067966886
0.0028732854
0.060551994
0.043243047
0.06555065
-0.012505828
-0.009725017
0.04331684
-0.022488153
-0.042425275
-0.010611533
-0.0013285638
-0.05694857
0.05034869
0.011021921
-0.027339421
-0.042880535
0.057775036
0.01087168
-0.06503477
-0.030384844
-0.033153366
-0.030659864
0.009299492
0.034979284
0.053433314
-0.0033746206
0.06334664
0.008882199
0.04054586
-0.030918697
-0.0013140499
-0.030525165
0.0032253186
0.028689992
0.0638614
0.03804758
-0.030961452
0.036201674
-0.02338868
-0.02286842
0.06830725
-0.055471554
0.06825986
-0.038585946
0.057963125
-0.03245528
0.017744955
0.015437787
-0.015271104
0.05205713
-0.048709236
-0.0040951446
0.043210175
-0.038248822
0.04878512
0.072975054
0.07492844
0.05215863
0.033028856
0.032653823
0.011978805
0.04458007
0.053753998
-0.048909776
0.006570329
0.03076334
-0.059216727
0.04293255
0.035541244
0.07239685
-0.05101731
0.015525821
-0.010732387
0.03806594
0.07486956
-0.022973781
0.05536051
0.048619784
-0.010492138
-0.059493583
-0.011698893
-0.017307362
-0.07729981
-0.037573442
0.021934927
0.02612311
0.059643008
0.0077490467
0.061596643
-0.061322257
0.009842656
0.04251916
-0.002844579
-0.007687204
0.019556856
0.005881928
-0.042606752
0.027639426
0.016598327
-0.03800222
0.028368985
-0.046923343
0.0048049483
-0.048273824
-0.039715033
0.012742041
0.04720381
0.004361701
-0.034827523
-0.06578946
-0.06926561
0.0020048039
0.0065129492
-0.018380888
0.022188533
0.043742754
0.013816931
-0.082134835
-0.073791094
-0.06554038
0.012103836
-0.020443855
-0.04772715
0.020828836
0.0383019
0.019719338
-0.00096839643
-0.0017236259
-0.034261897
0.05087279
-0.048268434
-0.0024589542
-0.028004814
-0.026189702
-0.0038371743
-0.045840964
0.012277842
0.025000533
-0.04166728
0.036326583
-0.060291238
-0.08264757
0.050764855
-0.057865035
-0.03322278
0.06184593
0.016318545
0.057334032
0.018372493
0.05595717
0.042781774
0.02168999
-0.03159678
-0.0737283
-0.044497762
0.042535357
0.08379386
-0.018517071
-0.01779317
0.00012546602
0.035178572
0.0018133223
0.00866612
0.06936658
-0.032761674
0.03883291
0.026223566
-0.048009817
0.046411823
0.048048124
0.036229722
-0.03912823
-0.03257575
-0.02904389
-0.06261219
0.064447895
0.051486153
-0.02360933
-0.030390726
-0.0048908824
0.023047268
0.016009267
-0.048185628
-0.013374132
0.008739656
-0.041439254
0.059015863
0.031409718
0.0122811105
-0.029756371
-0.034231603
0.08007254
-0.051856916
-0.055446986
0.0358504
0.0016551857
-0.040027954
0.07781353
-0.06810481
0.033423048
-0.023624385
-0.07172776
0.026782075
-0.004988893
0.066005245
-0.011413501
-0.005037456
-0.005925492
-0.0011341193
-0.037719667
0.01735698
-0.050369706
-0.016255604
0.06300981
0.0019396229
-0.019040575
-0.07326962
-0.0036811451
0.015258548
0.06740777
0.06376855
0.008766312
-0.03263679
-0.04956995
0.019240065
0.05594791
0.05729726
-0.059574105
0.07561186
-0.035464562
0.080773234
-0.056060005
-0.046158534
-0.007636303
0.00510897
-0.012803993
0.036338333
0.02442637
0.0021308635
-0.0335087
0.026504012
0.020347223
0.055056542
-0.056780912
0.055136766
-0.0192846
0.052391015
0.024071325
-0.041638337
-0.03171288
0.04449148
-0.025941554
0.06572443
-0.04162868
0.019344103
-0.089387804
-0.06686349
0.046048936
0.045473758
0.052825205
0.06734206
0.058225673
-0.030323984
0.06357707
0.0011483001
-0.060917832
-0.027854523
-0.03785067
-0.03372064
-0.006824696
0.011985567
-0.04220477
0.041096825
-0.0014397064
-0.048825566
-0.049302846
-0.001233189
0.05768991
0.015348898
0.054326743
0.032745548
0.050051227
0.06505841
-0.016348768
0.01594593
0.016465133
0.06878822
-0.053386047
-0.053958748
0.017984211
0.07434405
0.0233408
-0.059933856
0.014113553
-0.041497964
0.037554592
-0.066961125
0.005003281
-0.006431982
0.064597264
-0.006270947
-0.061839357
-0.040288642
-0.01016957
-0.08091391
-0.0012261221
-0.032883327
-0.014882621
-0.0080466755
-0.059562217
-0.058074415
0.008590332
0.06203807
-0.05488114
-0.015427974
0.006655821
0.042835776
-0.015738998
0.026516449
0.038324594
-0.04602481
0.06050196
-0.06497086
0.05906476
0.045210738
-0.020858789
0.050123822
-0.041879434
0.061012942
0.040808514
0.067074396
-0.020858554
0.04568428
0.03691345
0.037111133
-0.061350495
-0.015524891
0.0362989
0.020460028
0.03048316
0.02212168
-0.0033532598
0.0028287238
-0.04984
0.023016121
0.05227801
0.03710713
0.010547113
0.05602694
0.063748404
-0.015489008
-0.006487194
0.07677501
-0.0062386994
-0.0345168
-0.042901773
-0.07752698
-0.03331159
-0.04935384
-0.016436094
-0.00170964
0.030523032
0.06286173
-0.018204229
0.00607392
-0.00038025723
0.009024245
0.038004387
0.037415717
-0.049308024
0.04906582
0.05634466
-0.034811053
0.02299271
0.008336282
-0.07022466
0.04244791
0.049556024
0.036451176
-0.06858531
-0.046622884
0.03489865
0.062851615
-0.002825462
-0.0743287
0.057287853
-0.034932014
-0.0030722371
-0.016381336
-0.039996773
0.014344493
0.03676985
-0.046285156
-0.011822166
-0.0027736812
-0.02262021
-0.00927768
0.056373365
-0.020415545
-0.058240697
-0.01292459
0.04865238
-0.062108587
-0.0557648
0.035320714
0.0336192
-0.046849582
-0.06331413
0.018675227
-0.0007209714
-0.059618216
-0.04101512
-0.02197741
-0.011708646
0.047772
0.018348213
-0.055788387
-0.014017854
-0.0025537785
-0.027500968
0.037428595
0.033611704
0.054830395
-0.018641254
0.014863928
-0.061978914
0.039384127
-0.049520537
-0.045120213
-0.06303448
0.053405344
-0.013928292
-0.03462033
0.07277538
0.011322065
-0.074518286
-0.009185428
0.040253673
0.03807741
-0.010085321
0.01936908
0.003661979
0.0391382
0.06303953
-0.00782703
0.01800499
0.018217959
0.03271532
0.04297832
0.01082785
0.0017091571
0.0063196407
-0.07528605
-0.058733538
-0.019385833
0.0014078537
0.03153347
0.08408055
0.078022204
0.003126233
0.038553912
-0.02068158
0.02156703
0.04452576
0.042074095
-0.007594962
0.04622367
-0.06281778
-0.005538784
-0.013446577
0.022006594
-0.008276146
-0.031339113
-0.024194047
0.0064123636
-0.035728533
0.019038513
0.018044807
0.035760272
-0.02130839
-0.022052795
-0.04045485
-0.062766954
-0.0009510014
0.008564413
-0.034501754
-0.008899518
0.030990642
-0.058832325
0.0612975
-2.9306577e-05
-0.0026786495
0.03400285
0.04184742
-0.07318853
-0.05612654
-0.0090619065
-0.052262105
-0.043606397
-0.024563706
0.068988
0.036741737
0.026837386
-0.055429555
-0.037042096
0.0025287818
-0.041601863
-0.07147385
0.035213828
0.06985125
0.00028560302
-0.04737172
0.05672384
0.0024204138
-0.036278456
-0.0601691
-0.018294854
-0.034077004
0.07552731
0.06760079
0.019854175
-0.053701945
0.05770135
0.008078219
-0.048768878
0.006123808
0.030634325
0.03692577
0.05934162
-0.018741673
-0.009354033
-0.0006672201
0.05343097
0.029302323
0.056141865
-0.023466887
-0.0746578
0.027814355
-0.05682411
0.0757962
0.0657584
0.06187225
-0.02042975
-0.030103702
-0.043706685
0.06029214
-0.05191315
-0.019399833
-0.03585596
0.044012662
-0.013821261
0.06497055
0.067808844
-0.021320548
-0.046374105
-0.06411267
0.0328061
0.011445162
0.026019124
0.045156874
0.07254899
0.026695542
-0.035344318
0.072262816
0.006371981
-0.03818941
-0.02909438
0.005074044
0.07901541
0.00025617387
-0.051527534
0.049338076
0.011464484
-0.05029476
-0.0460909
-0.015824439
0.029325226
0.037718218
0.058694515
0.002259192
-0.07916876
-0.06858012
0.050421398
0.067520715
0.06515995
-0.052189514
0.003026478
0.013766422
-0.03828643
0.06772291
-0.042140447
0.011610146
0.058874384
0.029914415
0.06507391
-0.03729668
0.039070174
0.07370791
-0.04957472
0.020194244
0.038158257
0.008279948
-0.015738169
0.031036554
0.030014474
-0.0046160035
0.017635971
0.080020964
0.08596234
0.033477064
0.06003203
-0.05667266
0.047385592
0.035514828
0.03119568
0.046848156
0.06299264
0.020978171
-0.017176887
0.05376322
0.02470027
-0.016324343
-0.024917167
0.06455339
0.02682904
0.041752677
-0.01955387
-0.03160771
0.044980418
0.07889877
-0.073393404
-0.03694741
-0.05775053
0.03427078
0.029652996
0.010173529
0.017197417
-0.028073559
0.039556935
-0.04330771
-0.06607632
0.001899741
0.03966494
-0.052660026
0.0017638152
0.048650306
0.06821793
0.06496788
0.021633236
0.0076956428
-0.052305236
-0.04342565
-0.012011281
-0.015300457
0.0331796
-0.02116806
-0.021238143
0.0027183748
0.009627363
-0.02581491
0.04929219
-0.061994165
-0.02367808
0.0441172
0.04578468
0.015301341
-0.060062587
0.06098339
-0.03884096
0.06280194
-0.018760303
-0.004528541
0.058995698
0.037392244
0.058881238
-0.059924427
-0.02013751
-0.047117703
-0.03803014
0.024933882
-0.039536398
-0.009349466
-0.021366697
-0.00240118
-0.042020895
0.027938105
0.029840281
-0.022603106
0.06338807
0.044657934
-0.04015453
0.013680349
-0.012332755
-0.005311448
-0.01489567
0.047627386
-0.051762473
-0.024826728
0.09725421
-0.01275567
0.044857357
0.004660129
-0.017615784
-0.01582128
0.07249834
0.021749368
0.024596307
0.062313884
0.023388548
0.012154444
-0.023126105
-0.079197355
-0.03396298
-0.06471945
0.016881011
-0.016615437
-0.025139127
0.0468721
0.065373264
-0.05699397
0.05698516
-0.023558566
-0.060586832
0.015832642
-0.0023149783
0.02543735
-0.03762852
-0.016954986
-0.031636346
0.032303
-0.045642823
-0.026260396
0.0060667424
-0.053066514
0.026234655
-0.07002624
0.056411542
0.059600495
-0.0757859
-0.024183672
0.020093802
0.029768538
-0.06523491
-0.027405167
-0.0627344
-0.04908691
0.046794396
-0.015687203
0.024683883
-0.009509144
0.04966253
-0.050708443
0.04262834
0.049077675
0.054779448
0.025371548
-0.074078426
-0.06495624
-0.06871129
0.027766198
-0.020300167
0.042896602
0.06299432
-0.0523235
-0.049342014
-0.054618225
0.038051434
-0.009207837
-0.039029084
0.07124505
0.034626614
0.024263797
-0.043217875
-0.022548731
0.05974595
-0.013394821
-0.060281828
-0.0122293215
0.05791442
-0.009519977
-0.0005270425
0.053620752
0.03525884
0.031562243
0.0008330771
-0.010251174
0.0002058402
0.041791897
0.07126454
0.017585458
0.051575955
0.028459989
-0.063727595
-0.0642693
-0.028571924
0.018734047
0.039568022
0.015373637
-0.03003212
-0.044760644
-0.0059540956
-0.05792485
-0.05534604
-0.07364401
0.07961517
-0.018113362
0.023270197
0.04324226
0.007113396
-0.04634162
0.024060214
0.0033872416
0.0037027083
-0.0591387
-0.009512568
0.023035215
0.012055076
0.0105995955
0.059830308
-0.011841597
0.020298336
0.07788842
0.030081226
-0.064380474
0.03721461
0.027585018
0.0010153953
0.02021163
-0.0066887774
-0.026385762
0.049962223
0.06243707
-0.046231583
-0.045206577
0.035533056
0.0144973975
-0.03365634
-0.009219835
-0.014267879
-0.11005422
0.020506138
0.077157006
0.08527244
0.012122396
-0.06028278
0.056426506
-0.029816706
0.045616407
0.006642455
0.04628588
0.053275783
0.043766975
-0.07098085
0.022873048
0.035500333
0.038440112
-0.04576516
0.010761766
-0.056454673
0.067825645
0.06534537
0.06578698
0.024097208
-0.001575567
0.029322894
0.010045302
-0.0038353119
0.056202188
-0.013556382
0.034790732
0.010393668
-0.005101406
-0.03728519
-0.001450361
-0.011277009
-0.039314434
-0.03568513
-0.002017913
-0.04164483
-0.020324094
-0.03533948
-0.0007038543
-0.03472883
-0.07946816
-0.07824218
0.049604602
0.04703104
0.04919783
-0.02994846
-0.0038604927
-0.012511048
-0.040978853
0.00012139936
-0.034594096
-0.0733381
-0.06384688
-0.061566792
-0.05973679
-0.05349246
0.025396395
0.06310407
0.06568429
-0.07215395
-0.022095019
-0.026628338
-0.019444374
0.004293652
-0.029743565
0.01147438
0.018077632
-0.0072492985
-0.042160526
0.0028477646
0.043280154
0.0073831445
0.018457703
-0.0108237285
-0.067451365
-0.052451327
0.0077816765
0.055672318
0.040841613
0.014856068
-0.011686468
0.04936165
0.07782522
0.028368695
0.04961865
0.040771168
0.054422736
-0.06892701
-0.023734381
0.05419845
0.07416635
0.03908051
-0.010609463
-0.07543787
-0.028800927
0.046290122
-0.07775717
-0.039348707
-0.031565603
-0.058079753
-0.015360427
0.01678507
0.011702551
-0.05693771
0.013974208
0.019475719
-0.016512524
0.048166547
0.0345798
-0.0008713317
0.054204706
0.07480407
0.06316546
0.0033836716
-0.005461478
-0.011953222
0.029838134
0.05269353
-0.029561851
0.003363424
0.0152315255
0.01633636
-0.032016028
0.032053296
0.07158104
-0.025924748
0.036751892
-0.06452719
-0.040090952
0.031673238
-0.04331586
0.0024380207
-0.0081185885
-0.0046936185
0.03361984
0.07599471
-0.03857402
-0.019503634
-0.023619827
0.069051675
-0.007902363
-0.041908853
0.025436586
-0.05615665
-0.0024797944
0.041115556
0.03694245
0.037501264
-0.06064675
0.0045501436
-0.03510492
-0.038608637
0.045316443
0.04844183
0.016261091
0.058913648
-0.041380137
-0.048564464
0.06263207
-0.056703553
0.047705572
0.0140404785
-0.026187154
-0.062380496
-0.031138867
0.055827707
-0.07409891
-0.010842227
0.0360002
0.045638844
-0.05764215
-0.0016173
-0.020182217
-0.013491699
0.04513578
-0.019275611
0.008882426
-0.043205686
0.0051241308
-0.025907842
-0.038659476
0.04262873
0.07840161
-0.0062361397
0.0031149522
-0.030546319
-0.033910606
-0.043811396
0.081648886
-0.043557975
-0.048091
0.05409239
0.04385152
-0.05144862
-0.04046718
-0.034501582
-0.038641598
-0.064722985
0.062936105
-0.057995755
0.007688682
0.072311
-0.04935316
0.06814281
0.0478702
-0.012861916
-0.040045545
0.041737627
0.034157675
-0.031066978
-0.025345555
0.03630414
0.031728867
0.046105962
-0.012057798
-0.055435915
0.004805311
0.012998871
0.054693263
0.051853642
-0.019935306
-0.05326022
0.0733714
0.046516106
-0.050499033
-0.019462075
-0.06869898
0.056190725
-0.032861046
0.03847388
0.061311334
0.019865673
0.04735274
-0.010755266
0.027624136
-0.037334643
-0.017318573
0.022144603
0.005305184
-0.02357544
-0.014845609
0.07828474
0.052809186
0.047011223
0.055108644
0.034337603
-0.05389673
0.026381027
0.0073370202
-0.02863309
0.019979069
0.06178993
0.011521342
-0.04447688
0.021206047
-0.058872577
0.014595336
-0.040497806
-0.043169912
-0.04168004
0.044205885
0.012183329
-0.020182298
-0.0069109425
-0.025187775
-0.0052530076
0.0427518
-0.035336733
0.057092197
-0.011901724
-0.022796335
0.0032375816
0.03533368
-0.010806858
0.057710826
0.053280775
-0.03596442
0.035447113
-0.02309644
0.03886527
-0.058521472
0.040858533
-0.0469779
-0.0014445449
0.044588875
0.013675154
-0.03324686
0.022920163
0.06284831
0.032635104
-0.059799295
-0.023132106
0.05119706
0.011624877
-0.053740684
-0.004821287
-0.041048948
-0.010063154
0.029552644
0.02648965
-0.02637165
-0.062123284
0.012858079
-0.05498475
0.06065223
0.06606714
0.066235915
-0.06697668
-0.039408363
0.038422044
-0.033630062
-0.022186615
0.07431767
-9.908341e-05
0.049643893
-0.039949436
0.02019842
-0.06550473
-0.025599401
0.05506558
-0.027101249
-0.07518587
-0.05849754
-0.025191508
-0.009576211
0.007871667
-0.057498015
0.01347318
0.04195252
0.006410185
-0.0023907402
-0.081229985
0.08468045
0.02345523
-0.019647824
0.023659814
0.059504367
-0.056767486
-0.06199278
0.0072817053
-0.009377172
0.015853254
0.031201951
-0.009043236
-0.024467954
-0.0646001
0.06663846
0.032232054
-0.02471363
-0.06925393
0.057969693
0.041240837
0.052228965
-0.021538924
-0.049195636
0.059810262
0.061851744
0.03699417
-0.05328326
-0.05470543
0.029351577
-0.027929543
-0.04348773
0.06163774
-0.0030610422
-0.03373972
-0.006814934
0.0030938874
0.07297789
-0.06901159
0.05960331
0.03711182
0.038018778
0.011874742
0.0466218
0.046817694
0.00086061057
-0.026894799
-0.024927124
0.048241112
-0.04506506
-0.026712399
-0.01025548
-0.06899471
-0.007214247
0.016723974
0.024758054
0.02763971
0.010158489
-0.0204106
0.057585467
-0.06889224
0.057442594
-0.033284903
0.07866009
-0.022975458
0.00048445252
-0.023787703
-0.061118823
0.04123128
-0.0032812937
-0.06251986
0.05476621
-0.049771402
-0.035919268
0.06518482
-0.03167373
-0.03807114
-0.04059508
0.025031202
-0.07065134
0.04550695
-0.05194941
0.07238271
-0.031784628
0.056346234
0.021937883
-0.063210666
-0.027916856
0.033089772
0.024475269
-0.06631508
0.012153403
-0.06438404
-0.05240081
-0.006208817
0.05804511
0.0018647161
0.04051757
-0.0013362915
0.032866497
-0.054397754
0.01208307
0.019027043
0.0043867556
0.035985302
-0.05514907
-0.026313933
-0.026810959
0.009968163
0.051964156
0.056500368
-0.024588723
0.01843512
0.015194638
-0.05150691
0.009106645
0.0017840876
-0.028874388
-0.0633739
-0.023631042
0.08105623
-0.059092708
0.06010278
-0.00469752
-0.067320004
0.07799398
-0.0065915263
-0.0256381
-0.07252364
-0.08461376
-0.019281803
0.0025097528
-0.021687841
0.02320945
-0.06096756
0.028944986
0.009863627
0.06927494
0.047238108
-0.03913247
0.026254646
-0.045042012
0.053681117
-0.0052591315
-0.052847754
-0.057986233
-0.029305793
-0.056744535
-0.03285263
-0.014129368
0.017231558
0.025842883
0.024257535
-0.03864891
-0.022453887
0.02704378
-0.006464039
0.025630826
-0.04604009
-0.015990032
0.05169175
0.070149295
-0.05936041
-0.034274887
-0.0051443256
0.00303854
-0.030919269
-0.029349918
-0.005866766
0.06734704
-0.0025510245
-0.04972043
0.00042036778
0.029439138
0.04834554
-0.044232506
0.0069355355
0.022666339
0.06617819
0.05270526
-0.005087064
-0.008372435
-0.0014289122
0.023712449
0.04673853
-0.055498425
-0.03387233
0.061661333
0.037009034
0.0021727744
0.054008674
0.025766253
-0.06688974
0.02621346
-0.0069191735
-0.02420786
-0.07883845
-0.049287222
0.040809717
0.015835222
-0.03577619
0.014688762
-0.012810785
-0.018231682
0.06898224
-0.023941806
-0.0002373788
-0.024563856
0.040027484
0.023400923
0.0034833811
-0.04117904
-0.049369834
-0.020263465
0.0065459777
0.049464755
-0.062332906
-0.04512853
0.021925898
0.0060884007
-0.053881466
0.03531493
3.141506e-05
-0.024265962
0.054335177
-0.055652328
-0.032963317
-0.069275804
-0.025021715
0.022112602
0.034061078
-0.050200157
0.048337024
-0.04292315
0.016689144
0.05289431
-0.060924217
-0.044987787
0.06650482
-0.00799541
-0.02501585
-0.024355838
0.05186474
0.07193733
0.062022895
-0.012824877
-0.05911313
-0.004694607
0.067244165
0.02233477
-0.011461249
0.007214824
-0.0035481418
0.008611399
-0.07454042
-0.033345934
-0.02531962
-0.064451225
0.029054003
-0.043513525
0.0072056088
0.06551825
-0.008026923
-0.022542117
-0.055725742
0.0126479715
0.04534093
-0.0019089051
-0.012137199
-0.033996686
-0.03026586
-0.009515642
-0.0754877
0.06427244
0.060559135
0.03361143
0.007587562
0.014577161
-0.0027645226
0.06030223
0.04205138
0.044919167
0.059402276
-0.029302612
-0.06563626
-0.0038290413
0.019523373
0.028117472
-0.007286178
-0.030705348
-0.0040844656
0.04410542
0.07172202
-0.07276443
0.04839278
0.03875709
0.014497237
-0.048893712
0.0025361057
-0.0034184423
-0.02781026
0.012703906
-0.05692527
-0.04188361
-0.0048024994
0.036169853
0.027195841
-0.052503362
0.006221318
-0.05376234
-0.00092138746
-0.0010250423
-0.0148884095
0.015084676
-0.05019197
0.0005911858
-0.016240362
-0.010999427
0.060525816
0.019500133
-0.05512902
0.04286501
0.02899817
-0.045558076
-0.086668015
0.036051452
-0.058573887
0.049797446
-0.0023242133
0.032772675
-0.024372637
-0.019119358
0.06489876
0.049898535
-0.05771802
0.035268676
0.020533666
0.012167298
0.019894427
0.016541455
0.029068658
-0.022967087
0.047610514
-0.017755652
-0.08129732
-0.04357115
0.06252509
-0.052585654
0.03934701
-0.0030157238
0.04648399
0.037213076
-0.027608449
0.02183498
0.01743431
0.045546096
0.057813674
0.026081637
-0.0128574
-0.03206147
-0.044922262
-0.05638273
0.06262976
0.06669843
0.06064593
-0.06684152
0.009190445
-0.023621036
0.05458754
-0.06713215
-0.06950448
0.0743448
0.023292413
0.0034026706
-0.029984156
-0.0015409586
-0.004092152
0.053294353
0.005406592
-0.054672066
-0.035082735
-0.050763126
0.036965825
-0.04788485
-0.022149434
-0.04583102
-0.035538606
0.0024479034
-0.031260878
-0.068718344
0.0061473185
0.0089975735
-0.011289648
0.023346463
-0.0044053597
0.07152881
-0.02197642
-0.0036907317
0.05544341
0.054742217
0.052850462
0.05773612
0.019064574
-0.0558301
0.019257715
0.0034175916
-0.021021709
0.034142196
0.022832291
0.06475291
0.06298733
0.00822558
0.050267626
-0.0018649574
-0.02119886
-0.017987551
0.0009658808
0.002656878
-0.038555976
0.026995366
0.072392926
0.00023546787
-0.0586546
-0.046641152
0.077668466
0.014188016
-0.006458682
0.012235194
0.03980392
0.03787083
-0.038607724
0.014554716
-0.030776754
0.047813054
0.07509519
0.018333359
-0.015897304
0.06421371
0.05291446
0.015509272
0.017483825
0.037191488
0.03705486
0.040681127
-0.059726447
0.061549257
-0.050556187
0.05387397
-0.040806066
-0.06955835
0.04139803
0.01944321
0.03794749
-0.049072683
-0.07096466
-0.0136371
0.0034593963
-0.03344247
0.013317769
0.054403666
-0.033980213
0.04522276
0.035829134
0.05095941
-0.058832563
-0.052450426
-0.061791275
-0.035567865
0.07740526
-0.0024936153
-0.027475715
0.0016231136
0.04510023
-0.01886302
0.0007626479
0.064333335
-0.07009967
-0.041958082
-0.06598935
-0.010949272
0.029837687
0.037377175
-0.029895598
0.055978313
0.013333343
-0.04000417
-0.0483951
-0.036720064
0.0765231
-0.02613692
-0.044199362
0.028932126
-0.0063161976
0.04215811
0.051838946
-0.024763113
-0.0105313845
-0.02157431
0.059729118
-0.0027151986
-0.020596556
0.006343382
0.03287072
-0.05674869
0.02508387
-0.042083275
-0.056791127
0.017545411
0.016677434
-0.041334793
0.06525668
0.015566665
-0.0745248
0.026754068
-0.033593755
0.033716835
-0.0593806
0.041310117
-0.0015344039
-0.06335728
0.07050482
0.034386292
0.07599278
-0.052775424
0.018627433
0.032583702
-0.033977065
0.0017165616
0.05667412
0.059427414
-0.05808389
0.061978884
0.011629354
0.045688216
-0.03250196
0.037668984
0.038687885
0.015908288
-0.040833835
0.018747803
0.028898688
0.008583954
0.014261697
0.03972881
-0.032802004
0.037399113
0.06135746
0.010048183
0.035539318
0.021141544
-0.036375605
0.023737643
0.012415361
0.03930078
0.020034054
0.083410226
-0.02966739
-0.057448495
0.008102739
0.010153607
0.008604686
0.020893207
0.029837538
-0.060297802
-0.006019
0.061805785
-0.01669466
0.06258718
-0.036362898
0.023936907
0.0075731208
-0.0007719503
0.0067950166
0.060529713
-0.06020527
0.015815387
-0.05251697
0.0057141827
-0.03849598
-0.0024543705
-0.04988808
-0.03182835
-0.05189594
-0.054290455
0.03597954
0.0009628132
-0.044815555
-0.02316706
-0.0053961934
0.041472297
-0.010884782
-0.0054042046
-0.0712881
0.0091789225
0.047922973
0.071301416
-0.018824764
0.050495792
0.026964774
-0.023531955
0.029159995
-0.011284674
-0.051202077
0.010000556
0.04130805
0.0697649
-0.00822129
-0.050278854
0.0023373729
0.0065714535
0.067460924
0.03557326
0.05900069
-0.048521075
-0.050679408
0.0077295564
0.06630525
-0.055099368
-0.0069953664
0.024856687
0.020849163
0.084694564
-0.0051267603
-0.07650003
0.049370684
-0.016143031
-0.028450735
-0.011571738
-0.037638456
-0.063428044
0.013346428
0.009773555
0.004920705
0.021961128
0.05457562
0.07558397
-0.00996598
0.021035189
-0.06001966
0.065054074
-0.07052787
0.0424629
0.041049905
-0.05953316
-0.031320404
-0.06392533
-0.06250763
-0.019446557
0.055516228
-0.025724523
-0.03231615
-0.009011694
-0.0428462
-0.07530911
-0.050250955
-0.030879864
-0.058446933
-0.035406824
-0.0073399567
0.056382116
0.05204107
0.07514485
-0.046265032
-0.04557243
0.06491783
0.009583328
0.040753275
0.053201564
0.049663886
0.01680888
-0.04995126
-0.037332125
-0.05252368
0.01857762
0.05200819
-0.050040346
0.029201748
-0.039354805
-0.0011097859
-0.00063433184
0.06867801
0.03770088
-0.07893061
0.07860699
0.03140664
0.010363427
-0.034269772
0.029399225
-0.035470095
0.06194098
-0.0011527239
-0.020136693
0.06660289
-0.0009033862
-0.020464262
0.06894266
-0.035872873
-0.07178185
0.02489355
-0.038979013
0.044487022
0.04794184
-0.004171919
0.06438475
-0.0373406
0.0066290954
-0.0028503211
0.05043842
0.011538184
-0.04391663
-0.065404646
-0.05692396
-0.023551889
0.07432516
0.06430343
-0.019143391
0.052824847
0.012132076
-0.028434023
0.016027324
0.026912687
0.044612415
0.043595016
-0.026230162
0.0078002843
0.0005811218
-0.03037655
0.017048368
-0.0645635
0.032131106
-0.031771693
-0.03461819
-0.040600292
0.015879162
0.008449018
0.015223092
0.0055364957
-0.012734234
-0.07337487
5.5725436e-06
-0.021098642
-0.012234806
0.009598132
-0.06501132
0.041827515
-0.0028749637
0.010886285
0.020944364
0.027667457
-0.012932225
0.01177616
-0.057546772
-0.058796074
0.03430891
0.031233897
0.07083003
0.04057332
0.054883562
0.0115922
-0.05554474
-0.055440966
0.03362529
0.010771014
-0.027377194
0.04317918
0.039515544
-0.035874937
-0.07066731
0.04516116
-0.05719426
-0.037871268
0.016632507
0.010435607
0.06128745
0.0022466597
-0.028755223
-0.0118602635
0.06577036
-0.043730106
-0.050899174
0.041044418
0.025279228
-0.038020186
-0.045322873
0.009885983
-0.012817128
-0.05827753
0.024145521
-0.034250267
-0.0616708
-0.039768793
-0.044950146
0.07319434
0.003907473
0.055954058
-0.033950664
0.027381452
-0.04033593
0.02433921
0.008126814
-0.016892452
0.03549517
-0.037184395
-0.034345504
-0.01913929
-0.03727216
0.044147834
0.007947558
-0.025432633
0.028648807
-0.037042733
-0.05009748
0.00023095899
-0.04779023
-0.062673785
0.07377572
0.031644043
0.010089763
-0.029553035
-0.067936584
-0.061388258
0.046268176
0.031310573
0.04295136
-0.047593456
0.07008552
-0.00964257
0.02234464
-0.06744061
0.053446114
-0.03290845
0.042985644
0.0012414143
0.01381223
0.054112755
0.055360716
-0.063924305
0.047578912
0.048047043
-0.004412132
0.041752644
-0.023544809
-0.05487917
0.058836073
-0.01716102
0.045275513
-0.011646772
0.07403439
-0.0326559
0.042532466
0.034006227
-0.041137647
-0.0062077064
0.041788988
0.034589946
-0.013944267
0.023788108
-0.0013325601
0.021264313
-0.0515602
0.08363757
0.06324797
0.005673179
0.037183475
-0.019719092
0.004049066
-0.04136678
0.050724093
0.04945944
-0.056742392
-0.040434267
-0.0837238
-0.059352163
-0.033198398
0.055676706
-0.046094336
0.012677814
-0.0030304743
0.07370261
-0.065404125
-0.06503938
0.038172867
0.0648393
-0.0842186
0.036642812
-0.061874703
0.042887397
-0.05842971
0.042231366
0.03332378
-0.029500274
0.003555729
0.024350861
-0.0066287825
0.042494982
0.05878986
-0.055558737
0.057905063
0.028583424
-0.005355083
-0.05912643
-0.06527651
-0.014848288
-0.037869435
0.03619055
0.018940844
-0.0013333202
-0.030153738
-0.017479049
0.014865376
0.0065371417
0.0654668
0.08725084
-0.006315592
0.007523186
-0.028152622
-0.04779893
-0.038045574
0.059024513
-0.038624763
0.07749795
-0.04192076
-0.07456922
0.00054189627
-0.02218666
0.057959117
-0.026204048
-0.03075096
0.02590918
-0.05542822
-0.049193535
0.019545555
-0.01033376
0.0321567
0.015333967
0.0027857164
0.04277129
-0.0059792125
0.039033268
-0.033774298
0.05087582
0.04609617
-0.023680339
-0.041874163
0.0022366496
0.0011456195
-0.031859417
-0.019354658
-0.06084791
0.008730102
-0.01867402
0.007835453
0.044679876
0.03284509
0.017551964
0.02110689
0.020188116
-0.07613282
0.026203025
-0.02878826
0.025085744
-0.06878747
-0.05011109
-0.020803206
-0.059263896
-0.007931791
-0.06914735
0.02379212
-0.008619303
0.0013760952
0.0024839628
-0.064237915
0.033130523
-0.028944308
0.004873857
-0.0540726
-0.044268586
0.07158526
-0.029829117
-0.06551416
-0.06580976
0.01360329
0.03247197
-0.044489134
0.033268485
0.0045559667
0.020712178
-0.05433927
0.033358924
0.069331
0.03649028
0.027326372
0.019227117
-0.07172093
0.018050766
0.05773205
-0.015555161
-0.031757683
-0.043390464
0.066952206
-0.011194482
0.059758972
-0.07621914
0.0362329
-0.0604901
0.05153322
-0.06087203
-0.020570206
0.033988778
0.04441136
0.040264253
-0.006003651
-0.032897048
0.048174378
0.01046291
0.02220635
0.021506952
0.065720044
-0.0009245399
0.050632574
0.041277062
0.008387155
-0.06587833
0.019334564
0.0041124346
-0.013815884
-0.037415694
-0.06782982
0.03787152
-0.06761298
0.027934525
0.06434332
-0.00097178645
-0.012722278
-0.0277815
0.0579393
0.053625476
0.011583159
-0.04239469
-0.0074733826
-0.059474558
0.059866253
0.046592318
0.030660458
-0.06259234
0.042074695
-0.017539337
-0.029636092
-0.06304781
-0.018790405
-0.008279785
0.02421201
0.035225745
-0.07188577
0.029798781
0.0010640668
-0.048806544
-0.038341198
0.011316969
0.035982214
-0.010055851
-0.030002506
-0.04685412
-0.07577608
0.06672629
0.014995729
0.04040791
-0.020449862
0.06472379
-0.035500545
0.06076767
0.015790237
-0.053720605
-0.06681475
-0.0070405724
0.0024099557
0.041166645
-0.03205459
0.019796647
-0.04576637
-0.07045041
-0.015400928
-0.0043140436
-0.014251077
-0.021692332
0.050417583
0.008539209
-0.06349459
-0.0324255
0.0008440719
-0.027968548
-0.01966202
-0.06304996
0.032962833
-0.05405433
-0.049324702
-0.0060567437
-0.040958166
-0.04619265
-0.037165143
-0.025951382
0.045702726
0.033439297
-0.05140851
-0.0036896358
-0.041172355
-0.025683967
-0.046119604
0.016731663
-0.0394523
-0.05160152
0.004846234
0.008459891
-0.001212459
-0.0570614
0.06941847
-0.005809598
-0.0043929187
-0.051529564
0.059914377
0.04994414
0.0547374
0.035395984
0.043473758
-0.024627216
0.012327992
0.046054572
-0.05669533
-0.022323929
0.0036862413
0.02104595
0.031126486
0.058795743
-0.05736157
-0.05430229
0.067819335
0.021684414
-0.06482135
0.048595924
0.043425914
-0.05747756
-0.02169028
0.04873939
0.06360249
-0.023859723
0.0034948594
0.047844246
0.061839607
-0.00061112625
-0.061200816
0.036611374
0.020002484
-0.06373529
0.029175289
0.038486358
0.026510118
0.014342434
0.056809306
0.0474771
-0.003138172
-0.0022266726
0.04064704
0.01978946
-0.028915217
0.018299827
-0.053083133
0.039057963
0.064723946
0.001846923
-0.030364156
0.02405703
0.07381302
-0.020800646
0.039843734
0.024258073
-0.053596467
-0.03656628
-0.03270525
0.038275633
-0.020731678
0.04890095
0.042511392
-0.010464116
-0.0068235775
-0.01755818
0.046930216
-0.056856513
0.07961097
0.046802953
0.057117272
0.00016854658
0.039613765
0.040163714
-0.05796708
-0.051081385
-0.02193009
-0.012436894
-0.054589227
-0.01417207
-0.040888395
-0.03468701
0.03472641
0.0462996
-0.046087615
0.02432953
-0.019870784
0.03688311
0.045732636
-0.06860778
0.004821482
0.030088844
0.0061483034
0.054025162
-0.00051502866
-0.05761679
0.06534789
0.012813227
-0.017346788
-0.021786973
-0.07246962
0.023238195
0.040935766
-0.01213121
-0.005140536
0.007202238
0.00029832
-0.0060932534
-0.0628774
0.052300908
0.036328327
0.016611269
0.026493879
-0.025214652
0.041166622
-0.045750458
-0.06603798
-0.06994389
-0.056794405
0.06771235
-0.048117902
-0.08328627
-0.00067593314
0.05092337
0.044874776
-0.085491374
-0.017760193
-0.020485321
0.06467904
0.0139582725
-0.05585446
0.062909946
0.06784379
0.047556914
0.01616043
-0.046888582
-0.040603217
-0.0379354
-0.03734315
-0.07836332
-0.0028121714
-0.05976444
-0.022766043
0.060007405
-0.029962724
0.029417358
0.046150327
-0.058966342
-0.067552455
-0.018786319
0.06453727
0.036883067
0.06772182
-0.025891835
0.018337594
0.056238707
0.0067493017
0.055772863
0.029828932
-0.007925782
-0.048754007
-0.064546995
-0.043702513
0.041007165
0.056755614
0.0571506
0.0037147324
0.06249178
0.049662326
0.030054638
0.037366852
-0.070923
-0.051362522
-0.017553983
0.024046732
0.048058152
0.034901794
-0.039885465
0.05335921
-0.067374796
0.057363927
-0.013678384
-0.050364554
-0.004795316
-0.06435762
-0.032291725
-0.032783948
-0.06314266
-0.03485356
0.014739104
-0.015267326
0.06559676
0.044675656
0.06161107
-0.006842135
0.0396877
0.0026966599
-0.07249375
-0.06357092
-0.059249643
-0.038035236
0.002768304
0.02073878
-0.039235078
0.012846277
0.07101907
-0.03742606
0.016514052
0.061194316
-0.05667983
-0.03334385
0.065114394
0.014608032
-0.0056516067
0.045950495
0.06410548
-0.045836106
-0.049646255
-0.01498034
-0.01543224
0.04683277
-0.049506757
0.050472196
0.0145685095
0.062015124
0.021644784
0.014510934
-0.02170192
-0.017424043
-0.026669946
-0.008351168
-0.017167874
-0.011809984
0.04931483
-0.036109295
0.07043195
-0.050568048
0.078889646
-0.0005039869
-0.027126936
-0.04624596
-0.0084998375
-0.036908142
-0.049791284
0.020449935
0.064389236
-0.029121619
-0.043343082
-0.008182042
0.004170029
0.069467776
0.045003377
0.029618813
0.027529323
-0.04895887
0.011957248
-0.027722538
-0.020689301
0.02529282
-0.07551576
-0.033930823
-0.06838281
0.087249786
0.070169814
0.051847544
0.047206704
-0.047208466
-0.038434736
-0.06390829
0.03599655
-0.018889822
0.062091485
-0.055961326
-0.05619705
-0.00075089856
0.048872314
-0.062549196
0.05363097
0.04595393
0.063837215
0.05239389
0.015545092
-0.05186649
0.007779324
-0.06834018
0.05471596
-0.057858583
-0.03110423
-0.028202513
-0.027774403
-0.04725665
-0.05717969
0.03294033
-0.0016297889
0.05845386
-0.020637855
-0.028998474
-0.04716202
-0.05863353
0.049372185
0.05084724
0.056577783
0.051817503
0.0026824335
-0.044763763
0.07193682
-0.058215465
-0.029838996
-0.001352868
0.027883017
-0.05908561
0.036319308
0.06863357
0.027373474
-0.0349506
-0.041906945
-0.009898252
-0.045188274
-0.04541634
-0.059952464
-0.015621509
0.002430568
0.054109514
0.036202382
0.0063110096
-0.04176542
-0.04624646
-0.012389003
0.022489097
-0.07303831
-0.0008263776
-0.06328211
-0.050861116
-0.046035986
-0.039885517
0.037403762
0.015643757
0.07756133
-0.05617056
-0.032393854
0.011104821
0.024991332
0.026701245
0.015575793
-0.053467613
-0.07955669
0.042615205
-0.049189378
0.02312796
0.078954525
-0.044622347
0.049153693
-0.056731448
0.066206254
0.064147145
-0.056940533
0.020041911
-0.0595984
-0.0029269939
0.050819695
0.06369571
0.047206666
0.0053398735
0.051395986
0.033470064
0.027031375
0.036289524
0.015812606
0.056517698
-0.019810941
0.031547666
-0.007974823
0.05011271
-0.030942647
-0.05721654
0.033800315
-0.021520864
0.0029287622
-0.03433113
-0.021933602
-0.05988077
0.061504923
0.040867385
0.007929312
0.0024018309
-0.00021914858
-0.05342756
-0.019586785
0.043041468
0.0026464383
0.0324084
0.0138475485
0.033908684
-0.0004409575
-0.04878256
-0.05725014
0.04778632
-0.03819218
-0.036763035
0.052774504
0.007368968
-0.06484217
0.03202874
0.0050404407
0.053978592
0.05669717
0.055356577
0.058637
-0.018312696
0.06023025
0.07400392
-0.047609698
0.06291106
0.0138209015
0.013938415
-0.055335887
0.0076682465
0.046817657
-0.06868664
0.052856475
-0.08044143
-0.07126261
-0.033642344
0.045926142
0.04084125
0.007819193
-0.0188203
-0.04119803
0.017211402
0.058295604
0.058703862
0.047321178
-0.045056254
-0.066334896
-0.07263787
-0.031002603
-0.030169977
-0.019359328
