-0.033283036
0.0006215815
0.012505972
0.03055151
-0.0006696992
0.0037752385
0.034040924
-0.025760122
0.033133212
0.044221245
-0.025925614
0.013121043
0.028909417
-0.018675828
-1.926699e-05
-0.008768561
-0.009362555
-0.017936185
0.012104529
-0.002404381
0.0012265604
0.020908276
-0.0011646574
0.032088514
-0.0435799
-0.049056057
0.03302637
0.022411708
0.009028333
-0.04088347
-0.009441682
0.0016026815
-0.032146923
0.0045360117
-0.0316227
0.03226206
-0.032082535
0.04056643
-0.014492322
-0.038603425
-0.045361668
0.0062846798
0.023609988
0.04275666
0.012553985
0.040061243
-0.013804677
-0.012181284
0.026497785
0.031888638
-0.030395739
-0.030959848
0.038350366
0.004093536
-0.036027074
-0.0023791054
-0.009345474
0.008848661
0.007209478
0.02300631
-0.014275332
0.030749163
-0.045710623
-0.038259443
0.030439364
-0.027174179
0.04935874
-0.017602984
0.04047589
0.039050523
-0.01266869
-0.019944124
0.02854522
-0.049104396
-0.011624406
-0.049788702
0.043526728
-0.0023699158
0.0144379875
0.033351287
-0.03974294
0.007903991
0.0020703722
-0.02286368
-0.004390509
0.02185686
-0.03339374
0.0021680843
0.016436389
-0.04980237
0.028915884
0.04979801
-0.025245056
-0.005906392
0.04541112
0.021398898
-0.0132959895
-0.0070145885
-0.045145538
-0.035359453
-0.0033133463
-0.027571388
-0.028830487
-0.041951966
0.009473825
0.021376973
-0.0027910573
-0.009040553
-0.019264594
0.034107912
-0.045637272
-0.030950127
-0.016381213
-0.010927966
-0.031154318
0.009089699
-0.014974794
0.04359945
0.03317617
0.012783552
-0.011407305
-0.009320358
0.011060829
0.024006674
0.040247064
0.016443975
-0.02341942
-0.0020212552
0.0363188
-0.017212236
0.0023372264
0.04007056
-0.03044547
-0.03597406
0.024189327
0.04987798
-0.015916768
0.021141436
-0.02841829
-0.016159333
-0.0016170365
-0.025525196
0.016300758
0.041334275
-0.043945964
0.019214407
0.0042561064
0.0037103072
-0.030963186
-0.010248609
-0.043539576
0.045179527
0.01167759
0.009566689
-0.026238434
-0.001811018
-0.027052166
0.025846777
0.0055185542
-0.004654807
0.04600911
-0.048208088
0.04558153
0.03817478
-0.04976128
-0.02554951
-0.042762842
0.0009367439
0.028690923
0.0021999965
-0.0106130075
0.028716907
-0.021432146
0.03834245
0.022596018
-0.01778125
-0.04859236
0.026663188
-0.028409448
0.041947607
0.02463266
0.035013996
-0.030215757
0.01957961
0.00048556726
-0.016488846
0.033736367
0.0024621324
-0.04286001
-0.006232881
-0.021034516
0.005616424
-0.013372811
0.018541725
-0.033272617
0.04603358
-0.029951956
-0.0144118285
0.024006693
0.022532243
0.042649288
0.00830498
-0.015601026
-0.007873929
0.0383163
0.0063383323
0.049891725
0.033783257
0.0025712482
0.047926642
-0.02106889
0.01666958
-0.02894653
0.014523107
-0.04739943
0.03647054
0.040609445
0.04617319
-0.0151489815
-0.010321887
-0.0021995986
0.028373897
-0.014864153
0.012068816
0.004241459
-0.009624128
-0.040056862
-0.03712687
0.01740727
0.010588452
0.0031909873
-0.042850714
0.023727562
0.011466639
-0.0014086334
-0.014589557
0.033106945
-0.013342482
-0.022450043
0.032941535
0.01729689
0.023851197
0.020290745
0.03401089
0.00778209
0.008465726
0.016704319
0.02956944
0.0029361497
0.012808914
0.009323668
-0.023026794
-0.04384492
-0.011916773
0.04644468
0.04904005
