0.055086344
0.0034669847
-0.020711683
0.026693407
-0.06189812
-0.04037473
-0.054691564
-0.002357406
0.05913561
-0.005056315
-0.053415906
0.0604057
-0.06911414
-0.050831486
0.048809975
-0.023315553
0.046942018
0.016445305
-0.05513055
0.028260928
0.00041735554
-0.0024736433
0.009207057
0.005127568
-0.053063888
-0.06945933
-0.042466894
-0.06354845
-0.0614188
0.06241757
0.04597655
0.00977633
-0.031433385
0.036251307
-0.022263568
0.006465924
0.062240116
0.059254847
-0.043472834
-0.03181988
-0.04114658
-0.050567485
0.043537784
0.03719792
-0.054900307
0.023606438
0.034131374
0.040691685
0.05878528
0.06526705
0.030409684
0.046503797
-0.03838519
-0.054862276
-0.012169028
0.02221918
0.019779723
-0.049201142
0.05514093
-0.064334445
-0.0025719202
0.06432454
0.046676904
0.006862207
0.037434347
-0.0013127773
0.040419754
-0.021488892
0.032506004
0.010533541
-0.032625344
-4.637563e-05
0.05534754
0.01975467
0.019741641
0.0594189
0.0052703363
0.005588595
-0.016136134
0.04234936
-0.03787768
0.05333682
-0.026307154
0.05801106
0.047653537
0.0023092844
-0.05957985
-0.026220715
-0.037025604
-0.004783539
0.0381554
-0.06620244
-0.018980809
-0.05183799
0.07018842
0.037173558
-0.033048008
-0.044785865
0.053427536
-0.025003128
0.05364128
0.038297623
0.04176751
-0.011489271
0.027387198
0.06377816
-0.059071522
0.06327803
-0.0028012968
-6.4629014e-05
-0.03877362
0.06276974
0.061981488
0.058744617
0.059485637
-0.038242966
-0.06622425
-0.048982847
0.0246887
-0.038760662
-0.029411286
0.038680192
0.0049426747
-0.055302896
0.015858559
-0.068503134
-0.025440935
-0.033653367
