-0.03010337
0.031558704
0.1016226
0.043650977
0.05219095
-0.052491974
-0.05822699
-0.1068667
-0.028247962
0.039648827
-0.026015162
0.09061705
0.061243623
0.050657414
-0.09213939
-0.055234484
0.015387433
-0.008839448
0.00129962
-0.08820353
-0.056257877
-0.048491552
-0.04632245
0.07796311
-0.22452019
0.113413334
0.09633009
0.04541499
0.03688979
0.06749285
-0.20755027
-0.04468119
-0.11560027
0.06540248
-0.09773215
0.07466653
0.09103278
0.11288675
0.13593633
-0.031724196
0.034302548
0.026707616
0.15518564
0.095026396
-0.044389714
0.1167844
-0.015733901
0.064922266
0.07122427
0.06764026
0.055428673
0.053903904
-0.011088061
-0.013539612
0.05917399
0.12808087
-0.091403924
-0.10006595
0.1482324
-0.04419559
-0.105298534
-0.06946926
0.024006227
-0.04942912
-0.022082215
-0.003086073
-0.0859628
-0.09426571
0.009882558
-0.23106745
-0.06628303
-0.03906261
0.028918259
0.013627099
-0.030175412
-0.030618958
0.06339297
-0.049244035
0.025064869
-0.091152295
0.0689915
-0.0068629403
-0.13168564
-0.12529974
-0.189422
-0.12724765
0.0291709
-0.014824099
-0.021176718
0.108764224
-0.09319693
0.037127424
0.008510457
-0.028760266
0.08647415
0.064400256
0.11656732
0.039912343
0.04190163
0.024712268
0.058728606
-0.12546052
-0.038024683
0.044482674
-0.09384687
-0.056998618
0.03340815
0.0059914966
-0.16738509
-0.019216562
-0.16447844
0.03480284
-0.06280209
0.08647041
0.029319769
0.17924133
-0.054882932
-0.12935492
-0.0847607
-0.15477931
0.091684006
-0.008741122
0.044812903
-0.006251245
-0.008648568
-0.020453556
-0.002752101
-0.18841343
0.06288461
-0.10899612
0.023504794
0.05365561
-0.08755967
0.058094
0.025240004
-0.023019746
0.10235729
-0.056294955
-0.01211331
-0.15989274
-0.13044345
0.023013629
-0.088086836
-0.06553065
0.030432899
-0.0791739
0.05293238
-0.06734183
-0.04731081
0.00878606
0.075008884
0.09701467
0.036480237
-0.1220782
0.057310525
0.1014009
0.023927547
0.090722226
0.019914264
-0.10638012
-0.11491746
-0.065139405
-0.026766656
0.043463036
-0.117252134
0.0718266
0.0361064
0.07779915
-0.17693421
-0.0024398176
0.08947361
0.011992429
-0.0971755
0.091387026
-0.028499298
-0.14605862
0.043404166
0.08314681
0.0183798
-0.02318784
0.0031248457
0.023850948
0.0128486855
0.027865136
-0.0721636
-0.025958152
0.02383699
0.029326845
-0.0062609315
-0.022552745
-0.03550672
-0.05920303
-0.22787695
-0.03080442
0.026561635
-0.044398516
0.042218067
0.01980517
0.025381252
-0.05964067
0.03027636
0.015021834
-0.00841469
0.0025904314
-0.05849618
-0.013249507
0.06307868
0.014640689
0.015104892
0.003101654
-0.074790336
0.05658999
0.11421067
-0.025327798
0.092388
0.05293484
0.13448445
0.00984369
0.042233612
-0.022990081
0.09349403
0.0024709047
-0.18256947
0.054597665
-0.01392744
0.009462717
0.12475998
0.03490323
-0.013304533
0.048899718
0.046593867
0.07602598
-0.08703107
0.024648292
-0.027140846
-0.0068292036
-0.025840232
0.055190653
-0.022970911
-0.037418745
0.047234725
-0.010586122
-0.06974315
0.038431216
-0.08206778
-0.029367065
0.03806165
-0.037869137
0.09467666
-0.07700476
0.116723396
0.05899101
0.072652146
0.038579103
0.10027879
0.030519249
0.12652007
-0.095486335
0.0170172
-0.10562832
0.035592336
-0.05789938
0.075059965
-0.045306846
-0.0026625053
-0.111947775
-0.031496767
0.018119682
-0.06768687
0.06392634
0.09255395
0.0075720926
0.13022663
-0.05436884
0.07113878
0.12019506
0.024026465
0.036732573
0.01177847
0.029547289
-0.06998321
-0.20599441
-0.0055619488
0.09144807
-0.0033165035
0.012702531
-0.15906756
-0.09187586
0.08583677
-0.059714783
-0.08969494
-0.06531053
-0.07649798
0.09959325
0.027637629
-0.100720406
-0.01396914
-0.07020492
-0.024707796
0.048507906
-0.058522377
0.0881239
3.9362592e-05
-0.13145204
0.08824105
-0.026673013
0.01523327
-0.18182369
0.15874092
-0.055397097
0.047489464
0.028981699
0.09154836
-0.051518433
0.12864006
-0.05063467
-0.12042506
-0.045392815
0.0024958057
-0.10335071
-0.025845475
0.009679327
0.11833519
-0.04976885
0.024817657
0.08116751
0.08572331
0.0840515
0.0717291
-0.16391738
0.021195116
-0.10240907
-0.2371046
0.07656838
0.0802737
0.03933207
-0.011118986
0.009348539
0.10996399
-0.113062486
-0.020052342
0.03569496
-0.045663342
-0.11212161
0.124355994
0.03332365
-0.03010943
-0.008647507
0.012493095
0.036384493
0.020468263
0.10888093
0.088625364
-0.04584882
0.035401672
0.1323712
0.038511667
0.115095586
-0.122296974
0.0072136926
-0.06664848
-0.057855465
-0.026473867
-0.040923875
0.079605006
0.04423532
0.027038429
-0.08437043
0.112470075
-0.054425944
-0.09621243
0.09014517
0.16538166
-0.028516946
0.09373855
0.15353748
0.015378646
-0.04400856
-0.09614463
0.06111067
0.060527723
0.07572833
-0.015066285
0.07885324
0.13078086
-0.0121725835
-0.028590005
-0.07530732
-0.0035988193
0.014375665
0.022548405
-0.030188737
0.09998687
-0.015796423
0.13557267
-0.165799
-0.037567426
0.059558775
0.05036687
-0.13886274
0.053707175
-0.07396408
0.111701384
0.066611156
-0.01216055
-0.02461049
0.11412461
-0.0007140221
0.0373095
-0.050263997
-0.061405864
-0.02634601
-0.018646348
0.05649645
0.05768843
-0.063303724
0.13913007
0.038151693
0.093533695
-0.10900792
-0.038677093
0.14667223
-0.06162499
-0.033058885
0.042623293
-0.14616653
-0.03915024
0.100073345
-0.043581955
-0.07670758
-0.12965487
0.13062765
-0.0059500965
0.052662987
-0.046649154
-0.002499482
-0.104827814
0.110292
0.05604265
-0.028537488
0.041716285
-0.11438382
0.052096013
-0.01168773
-0.03509295
0.0028427476
0.039319254
0.066953965
0.06564373
0.109256215
0.09621728
-0.061070967
0.01683424
-0.09379873
0.06614687
-0.09501087
0.05973707
0.0526633
-0.02908663
-0.04126067
-0.06990233
-0.06907593
0.06350848
0.037139576
-0.003781234
0.007278726
-0.14703573
-0.11313402
-0.07769774
-0.11135768
-0.053996395
-0.14318345
0.16812763
0.017442718
-0.067763135
0.07270815
0.079192325
-0.077935465
-0.22253634
-0.018539922
0.05499264
-0.088114955
-0.07492604
-0.04080631
-0.09431658
-0.16051376
0.07655473
-0.006807867
0.117752485
-0.05824272
-0.047797967
0.12271977
0.10900861
0.0287023
-0.011806536
0.021822209
0.041348867
0.04218256
-0.03124086
-0.029159585
-0.018377349
0.097412646
0.071401596
-0.060005736
0.016025962
-0.03822235
0.049019378
-0.04412727
-0.009713011
-0.2674503
-0.08560968
0.14927715
-0.08805395
0.079367965
0.022673093
0.19199786
-0.010823748
0.08376195
0.039679457
-0.005080164
-0.06265423
-0.0578939
-0.009212715
-0.065963745
0.05374595
-0.12007608
-0.09877342
0.045048285
0.058663424
0.06969336
-0.073165886
0.0019211033
0.1030185
-0.08486794
-0.17587657
-0.057327017
-0.12340378
0.072606005
-0.029815894
0.028462606
-0.013454345
0.06530146
-0.009134034
-0.08578756
0.11332693
0.10193879
0.063539304
0.048269812
0.034683168
-0.02290284
0.088807836
0.08458168
-0.04323719
0.16030844
-0.029330993
0.077635616
0.0230559
0.004886392
-0.022881167
0.13440256
0.07598148
0.026403552
-0.021619122
0.08606945
0.11209769
-0.014629137
-0.053586204
-0.06400265
-0.06701323
-0.070702575
0.14686215
0.044162624
-0.09131685
0.010774743
0.12637733
0.030910516
0.009948973
-0.01578718
-0.042967107
0.0040494446
0.052316207
-0.0069218385
-0.2661358
0.1031686
-0.016922489
0.11773626
-0.13495725
-0.046815824
-0.010392204
-0.007899273
0.108035624
0.107827015
-0.16736083
-0.06702208
-0.0448231
0.019843472
-0.06190556
-0.010790935
0.12021599
0.08490633
0.009789308
-0.08845029
-0.08873611
0.02381221
0.049113054
0.05584564
0.01313944
0.055100616
0.058429804
0.14054173
0.0018936665
-0.03318466
0.07892696
-0.044140104
0.005477228
-0.012205994
-0.10858508
0.003552362
0.029323367
0.029395416
-0.056696482
-0.022256674
0.0056619984
0.0082856165
0.11260228
-0.12801953
0.08606454
0.077702306
0.11590739
-0.04699809
-0.06468632
-0.06734953
0.055753015
0.025182094
0.0094867125
0.028915355
0.017333427
-0.15528698
-0.057314623
-0.07236689
-0.017926468
0.056472864
-0.034242246
-0.01982922
0.015665151
0.06487627
0.07662004
0.052066155
-0.13695645
-0.06425793
-0.2350092
0.079776846
-0.03014895
0.06964715
0.10126002
-0.020613434
0.029991567
-0.099724844
0.060389806
0.045854162
0.14808682
-0.027950436
0.057778213
0.11986401
0.030296203
0.043000888
-0.1162749
-0.14559025
-0.020223986
0.08895984
0.15592946
0.11739757
0.045889176
-0.08655812
0.057550173
0.12019928
0.044879086
-0.14395586
0.11363561
-0.011501694
-0.098996304
-0.009108086
-0.073163345
0.18954599
-0.0036925627
0.006362691
0.06906059
-0.044899922
0.04579236
-0.052728698
-0.06734383
-0.1055486
-0.0074589364
-0.1206971
-0.02207173
0.14489186
0.0063884524
0.20308562
0.024512948
-0.19295238
0.032680277
0.13447307
-0.12965895
0.051839493
-0.10110132
-0.09311775
0.024697883
-0.013504916
0.013241129
-0.07142635
0.05955625
0.09096223
0.049897514
0.034265034
0.05430275
-0.0066095255
-0.12417435
-0.075725436
-0.008974738
-0.00044932246
0.020495784
0.020713229
-0.0567244
0.04462656
-0.12993513
0.05690156
0.03102419
0.09490293
-0.08063416
0.18625762
-0.121953845
-0.08972106
-0.0071020275
-0.041441057
0.13700867
0.119296424
0.03380746
0.094285354
0.061357684
-0.10135613
0.022225674
0.12860803
0.16280611
0.02482417
-0.07492407
-0.018883817
-0.018294064
0.021101285
-0.08904882
-0.047211368
-0.07601749
0.016064396
0.12289705
-0.047507696
0.03608252
-0.12514193
-0.026258636
-0.039828748
0.12500018
0.08704119
-0.068647146
0.005585286
0.011660911
0.023089116
-0.036261782
0.13121003
0.01689574
-0.08478938
-0.0041236873
-0.077727266
-0.07127077
-0.12828742
-0.20465952
-0.038763005
-0.039414197
0.07954343
0.056206338
0.04763679
-0.041993394
0.04380001
-0.03010883
-0.0096708955
0.12379959
0.109968424
0.08802346
-0.02971292
0.007123101
0.027700068
-0.038806975
-0.033701807
0.03802278
-0.073569335
-0.010823042
-0.12145458
-0.006246107
-0.06114639
0.027066397
-0.05602889
0.012522126
0.07932141
0.01395543
0.101184815
0.08704923
-0.007680648
0.04929998
-0.008989609
0.054974947
-0.061497994
-0.0652406
0.08976627
0.064895056
-0.011086283
0.032628458
0.04940497
-0.047743272
-0.045205623
-0.019485358
-0.075873554
0.0645089
-0.072672114
-0.07066693
0.05179437
0.10757882
-0.03474625
0.09548803
0.026364066
0.019485671
-0.069810726
0.071483225
-0.10629625
0.080683306
-0.030071115
0.027577294
0.006266301
0.010062152
-0.045599043
-0.0845995
0.025074678
-0.039315198
0.033080913
0.028364884
0.011664804
0.061420027
0.16381252
-0.07659516
0.048910774
0.034440115
0.04355702
0.109335825
0.012108132
-0.01912446
-0.051117506
0.07716089
0.011128283
-0.061584186
-0.027682565
-0.090042174
-0.013016075
-0.032088287
-0.026331335
0.04208348
0.123629585
-0.047890373
0.01252779
0.03051257
-0.07086747
-0.038806405
0.08845051
0.03998192
0.039957978
-0.044182688
0.023073172
0.020150576
0.004674534
0.028092
-0.08312025
0.036512338
-0.014547527
-0.0045621805
0.09146737
-0.052772507
0.011592197
-0.08749035
-0.061056037
0.08390864
0.0764289
-0.026606798
0.024739403
0.04053703
-0.06854129
0.028854435
0.0068037882
-0.05548721
0.03663502
0.12561315
0.1535324
-0.053643726
0.000119687735
0.017384272
-0.028269934
-0.11048046
-0.17244448
-0.0387184
0.019737277
-0.02772432
0.10638184
-0.031976655
0.010213237
0.10915772
-0.0723431
0.026251903
-0.047469705
0.03166941
0.007904398
-0.21302816
0.09766469
0.058670595
0.03929627
0.12472955
-0.116480015
0.09957979
0.14038375
0.035053536
0.06781327
0.06990365
0.18668604
-0.0047204415
0.041713446
0.003989645
-0.0006453323
-0.116464086
0.052452296
0.09270836
-0.003204567
-0.13127984
0.047872994
0.07417854
-0.084919885
0.013176009
0.03736427
0.13432649
0.017590396
-0.00028060263
0.08237924
-0.045951735
0.06399125
-0.101606116
0.016234592
-0.014636365
-0.024418753
-0.037079077
-0.095740624
0.08444495
-0.05680639
-0.130615
-0.057081576
0.100901134
-0.18878068
-0.07272015
0.041856542
0.1446972
-0.033582333
-0.060113464
0.0083081
0.047034603
0.08327214
-0.10376506
-0.0220508
-0.03453337
0.07581657
-0.15375623
0.11264511
-0.0032511365
-0.06575343
-0.08380941
0.09620848
-0.07451515
-0.055544175
-0.05181236
0.0046693794
0.0432995
-0.014531467
0.010330157
0.039340172
-0.16603677
-0.019209046
-0.04839744
0.07363101
0.09730787
-0.011944953
0.028808802
-0.16210616
-0.025348607
-0.06988748
0.0074965954
0.051097404
-0.005811746
-0.12943092
-0.16180764
-0.061177876
0.042475056
-0.026977316
0.08474093
-0.037051614
0.0059389556
-0.05212726
-0.012393096
-0.022720829
-0.15213525
0.006289927
-0.10085043
0.08285808
-0.050262745
0.058849286
0.12231825
-0.045586564
0.10799122
0.09045803
0.06852138
-0.032086734
0.06996584
-0.047941096
-0.013174875
0.085790336
0.09902573
-0.059733946
-0.029341107
0.10061217
-0.017928261
-0.026371663
-0.004133534
-0.032652866
0.03243149
-0.07522647
-0.046823714
-0.040767983
-0.03360388
0.022545235
0.10950902
-0.12067647
-0.2626416
0.124766216
-0.0440464
0.13816126
0.09427501
0.1108145
-0.08444491
0.13193174
0.084526144
-0.012867618
0.006563972
-0.008593551
-0.07235635
0.006671614
-0.0883743
-0.18743575
-0.091803506
-0.025886599
0.04374507
-0.028630367
-0.08180172
0.004700089
-0.20985305
-0.050411206
-0.010203022
-0.03519235
-0.044977583
-0.06585579
0.13708198
-0.09197018
0.03611545
0.03609477
-0.09534211
-0.03154419
0.012538935
0.097243376
0.096957386
0.059622433
-0.08948196
-0.027714834
0.07631443
0.0011641082
-0.025255963
-0.13911444
-0.031284027
0.09775549
-0.09409173
-0.11238526
-0.07153837
0.030152293
0.0424069
-0.0504327
0.15903366
-0.09083937
-0.023711639
-0.00572108
0.038375534
0.072540544
0.0047331867
0.0059171515
-0.056360126
0.030635146
0.028578369
-0.085231245
0.06364307
-0.024121908
0.07861299
-0.12603909
0.054181807
-0.017798794
0.010165176
0.15388606
-0.092908055
0.10012075
0.028579764
-0.02188187
-0.0720217
-0.03582644
-0.055269316
-0.11925057
-0.020965802
0.052022196
-0.04311642
-0.0489639
0.022800265
0.08036585
0.047273945
0.010311644
0.01776971
-0.019454755
0.061116558
-0.061845362
0.044940118
-0.02430663
-0.038004875
0.07995763
-0.12687206
0.060958873
0.111267686
-0.05921449
-0.15058258
-0.10756404
0.14111276
0.026976086
0.018252073
0.08477103
0.13269567
0.048076592
-0.13205634
0.038477995
-0.018911729
-0.08211473
-0.09135139
0.03183341
0.08234471
0.11105525
0.08709751
-0.068332285
0.039113257
-0.030326642
0.063614786
0.06301438
-0.013670187
0.10903581
-0.0076982165
0.054858282
-0.058769293
0.047739353
-0.036830477
0.08005439
-0.028505495
-0.043224744
-0.1492136
0.09997908
-0.043831985
0.030448511
0.060944717
0.16033474
-0.053481534
-0.029209
-0.14863233
-0.17345628
0.06657946
0.0016137908
0.00797852
0.05813311
-0.025813105
0.02691118
-0.00051432964
0.06710285
-0.0041480954
0.16354726
0.0680631
0.08573206
0.011449877
-0.042651456
0.032647792
0.03404962
-0.07198528
-0.14619368
0.06667193
0.014138993
0.07426814
0.024254706
0.07092024
-0.10496801
-0.12686576
0.005630977
-0.18389776
0.09771144
0.012942575
0.016089564
0.07238231
0.14131823
0.05360945
0.028418733
0.029184908
-0.06628529
0.0619243
0.029681599
0.14546862
0.061666265
0.028756013
-0.21853162
0.026505232
-0.12533887
0.053911865
0.06733812
0.09685908
-0.043383207
-0.13695952
-0.21634088
-0.023396881
0.102528706
0.115203455
0.11944228
0.16051593
0.017431302
-0.074934065
0.10812375
0.13370149
0.06050751
-0.014337401
0.039186183
-0.086795755
0.024955934
0.16155425
0.008660281
-0.035379853
0.0918421
-0.025400927
0.00011682457
-0.06591934
0.04981153
-0.009808926
0.05793582
-0.018110203
-0.1526712
0.111360356
-0.11951007
-0.017448578
-0.032572065
0.09067588
-0.07966588
-0.0846614
0.032522365
-0.029345954
-0.07309001
0.033620287
-0.16656847
-0.14096358
-0.0066481177
0.050375212
-0.21932912
-0.1745584
0.051026795
0.05669391
0.14975789
0.10869354
-0.092914715
0.020602018
-0.07747669
0.036122635
0.06745605
0.0019770917
0.06370613
0.12492501
-0.08558488
-0.03610154
0.098876
-0.025954602
-0.14541276
0.09954281
-0.052998014
0.02234649
0.08643295
-0.012637504
0.080318935
0.09589083
0.07799823
-0.058766186
-0.11268635
0.11916635
-0.028337244
0.18836169
-0.083319314
-0.11880109
0.010860323
-0.02076777
-0.06739921
0.22551095
-0.08323289
0.12640996
-0.0030895928
-0.037702557
0.08183027
0.08755044
-0.20540656
0.11761246
0.043269005
-0.023918658
0.06990775
0.030974563
-0.027300537
0.030630369
-0.1562065
-0.02696275
0.09622048
-0.010246033
-0.06439143
0.0030990127
0.049520515
-0.051104497
0.0008351395
-0.04210618
0.03977754
-0.054267604
0.019508833
-0.18725188
0.10934012
0.08606403
0.04435274
-0.23791663
0.059250027
0.038750675
0.10270358
0.029559629
0.12756367
0.09554889
0.12473859
0.17038694
0.013445218
0.039579913
-0.07874344
0.07144385
0.11153022
-0.08447598
-0.13243827
0.04353743
0.004229407
-0.04788074
-0.007763478
-0.13813542
-0.03590806
-0.11201658
0.023611724
-0.038719025
-0.062246945
-0.06231944
-0.1137229
-0.037985638
0.11363785
0.036136776
-0.036786046
0.109005004
-0.081561245
0.059329398
-0.037570547
0.08355619
-0.17650548
-0.017924925
-0.044875342
0.066314355
-0.085000895
0.025197526
-0.03475052
0.057387486
-0.06845234
-0.0069194506
0.044988617
0.07956394
-0.032321256
0.13092673
-0.044709213
-0.048173483
-0.121737815
-0.17321578
-0.02811855
0.017561276
0.07460991
-0.022473145
0.0454303
-0.019625463
-0.020047847
0.1241186
-0.0012822282
-0.015410522
0.026852086
-0.08136973
0.044518508
0.020994814
0.036691524
0.037287164
0.013082326
0.017174857
0.020869425
-0.027279638
-0.10063447
-0.12421654
0.064615674
0.017270595
0.02297209
-0.051168337
0.07700571
-0.0074080946
0.07182698
-0.02571045
0.086959705
0.1346341
0.04964714
-0.21860306
-0.11675384
-0.08369604
0.083169065
0.040266197
-0.062248476
-0.095211275
-0.053406246
-0.11563546
-0.0019843082
-0.09896713
-0.012089746
-0.050166655
-0.019166132
-0.08223907
0.06534972
0.08725296
0.103824586
-0.011770365
-0.029874178
0.09394619
-0.012093816
-0.16810757
-0.0748817
0.10240562
-0.014975593
0.00895989
0.022223243
-0.030391963
-0.0128553435
0.005923003
-0.029725004
-0.09465891
-0.123824656
-0.103721075
-0.045186456
-0.035328876
0.06984347
0.01939672
0.05774917
-0.057147786
0.14329752
-0.107471496
-0.04123177
0.05442686
0.11437928
0.025905715
-0.08056252
-0.016173005
-0.020389054
-0.027100835
0.0076875063
0.03811949
0.01621552
-0.053484213
0.042061493
-0.0027563844
0.1230643
-0.033631433
0.016303014
0.018358601
0.08276694
-0.087381534
0.0032383616
-0.07035585
-0.10568102
-0.09119994
0.0288372
-0.049949095
-0.034113884
-0.09607386
0.039740134
-0.018504594
0.00793966
0.0030947751
0.0029748685
-0.03292093
-0.04909262
0.011645511
-0.009868927
-0.05722123
0.032327745
-0.022857815
-0.053322222
-0.04616821
-0.061761424
-0.061806202
0.014032724
0.033728488
-0.06847639
0.036398154
-0.06111008
0.07587319
0.059918854
0.10081545
0.02627311
-0.027153661
0.039696854
-0.037969608
0.06392692
0.01987668
0.06271846
-0.05664469
0.0012908877
-0.14367974
-0.040703632
0.06123276
-0.026306622
-0.07554729
-0.079920314
0.09963306
0.118277565
0.090206996
0.056323573
0.12756422
0.08305502
-0.03941177
0.026848461
0.0018021021
0.07710258
-0.041096147
-0.024485027
0.044827722
0.0089193145
0.07794946
-0.10739171
0.03260293
0.098855816
0.014073972
0.047372457
0.058234416
0.07963197
-0.00017417117
-0.18023694
-0.12167347
-0.11257012
-0.10694279
0.053140227
-0.11706673
0.024870312
0.06682963
0.026905285
0.025029931
-0.007133645
-0.023840338
0.07948239
0.051871274
-0.06446567
-0.07744958
-0.0073665646
0.017506389
0.010937684
-0.033872444
-0.10146593
0.054320805
0.040011585
0.040485643
0.07090903
0.034926027
0.03241165
-0.08209618
0.025412774
-0.011386726
-0.035406142
-0.04782856
0.018319372
0.020128367
-0.041873783
0.010995324
0.029529722
-0.020972868
0.006906748
0.05213831
-0.047391895
0.021705918
-0.06414237
-0.01385355
0.0524041
-0.039773192
-0.029122971
-0.021502217
-0.009092712
0.030938504
-0.058428925
-0.05684444
0.11415234
-0.03869885
-0.07691848
0.0063565136
0.016567374
-0.0029663667
0.097886756
0.011010036
0.11189546
-0.06072678
-0.13695054
-0.03731675
-0.07087019
-0.028961655
0.054759737
-0.0114425495
0.038641196
0.11745617
-0.13279192
-0.105386175
0.042377856
0.0080566695
-0.051033646
0.015274925
-0.036174078
-0.0372156
0.05856516
-0.009294771
0.054808006
0.01953341
-0.061688263
-0.15977961
0.15605351
-0.13618745
0.1040159
-0.10006442
-0.13892779
0.08325963
0.093055725
-0.121110745
-0.063623674
-0.005680609
-0.08752072
0.012649158
-0.14048003
-0.08120437
0.03687712
-0.026945695
0.025370257
-0.052662425
-0.04487459
-0.0017007464
0.08525333
-0.06340434
-0.024044009
0.0007225591
0.00030596138
0.08710001
0.02352059
0.13251194
-0.043010753
0.085620254
0.040305022
-0.0035883763
0.018338067
0.06945476
0.07434834
-0.0014225275
0.052191813
-0.12633286
-0.044708837
-0.022462703
0.041444525
-0.17846477
-0.046462476
-0.027637018
0.0761191
0.110230014
0.1005299
0.09918407
-0.064753614
0.038891748
0.06638883
0.035345923
-0.036941487
-0.092220604
-0.08272224
0.075632565
-0.101571456
0.054141104
0.026149724
-0.18669423
-0.11616345
0.006006277
0.036538213
-0.12570138
-0.013078696
-0.05213252
-0.06288037
-0.08472875
0.058935415
0.035551812
-0.041409697
0.033988334
0.07933742
0.12356827
-0.039074354
0.046625618
0.05436758
-0.048345402
-0.09991232
0.12766257
-0.15693961
0.10336023
-0.08127523
0.009146724
0.02417598
-0.11253228
-0.087558046
-0.022625558
-0.046088565
0.15383871
-0.04220487
0.053638324
0.037800517
-0.10734196
-0.10921047
-0.018927483
-0.14726463
0.02762103
0.0008508994
-0.037457183
0.015571899
0.12694967
-0.09885222
-0.023070928
-0.02039981
0.028205788
-0.14246152
0.08612132
0.01619072
-0.012444777
-0.05726563
-0.13690697
0.09355753
-0.013624792
-0.13649675
0.052392427
0.09233953
0.11341823
-0.08548456
-0.11018136
-0.023159064
0.13905875
0.043304488
-0.046890784
-0.04820651
0.009316977
0.037539624
0.039237034
-0.045234535
0.054817364
-0.14659293
-0.08441286
0.03494993
0.002533323
0.04711482
0.079059206
-0.003682767
-0.01340034
0.026913518
0.038979646
-0.026891306
0.013981257
-0.024736537
0.12019529
0.010514889
-0.014807987
0.058478393
-0.10797765
0.016868807
-0.15429774
-0.11794746
-0.19472238
0.05229676
0.023669973
0.03984318
0.09658127
0.13960196
0.053721473
0.10987556
-0.11646501
0.015401006
0.017877655
-0.16454546
-0.1016657
-0.04898531
-0.0909222
-0.007817637
0.013914954
-0.058868155
-0.036884457
-0.010991773
-0.091353245
0.004053283
0.112155944
0.038676035
0.13800083
0.12923637
-0.026721552
-0.12201569
0.050251465
0.05606902
0.07248407
0.12954041
-0.12389864
-0.0049618636
0.0030188537
0.045222852
-0.14442278
0.03952695
-0.031577963
-0.102030896
-0.033815175
0.05706929
-0.20200886
-0.029388947
-0.16898292
0.025757479
0.019040946
-0.014428295
0.20815368
-0.078669734
0.063438445
0.0045026066
-0.09286505
-0.038621694
-0.031681623
0.039870303
0.023759646
0.0542064
-0.060461663
-0.03442484
0.021752656
0.04774112
-0.10404734
-0.1328316
0.09069435
-0.13744077
0.056308564
-0.0004405048
-0.09417054
-0.12529628
0.006843795
0.04101684
-0.11822397
-0.02766733
0.08460438
0.1225541
-0.07255505
-0.005663486
0.059147324
-0.10790154
0.07560088
-0.026914978
0.09522894
0.014797979
0.0433399
0.071251854
-0.0516206
0.040529855
-0.101307996
0.050457552
-0.100932874
-0.09172038
0.028409267
-0.07354111
-0.045690954
-0.17974184
-0.01021182
-0.08431897
-0.063560165
0.016938183
0.06663366
-0.022102037
0.0458318
0.111786045
-0.0948825
-0.11039208
-0.07300672
0.0135244485
-0.01320441
-0.13526879
0.06755007
0.048162114
0.032163188
-0.015943144
-0.03191463
0.06672871
0.13215323
0.012066992
-0.022710767
-0.046825655
0.031073181
-0.0738788
0.030207077
-0.0017809243
-0.0089789275
-0.020997368
0.016485967
0.022644412
-0.01456939
-0.027573211
-0.015276662
0.08564004
0.05337697
-0.04204505
0.15365896
-0.098107785
0.13424145
-0.035202287
0.0036617622
-0.105905645
0.002945159
-0.09387549
0.056290742
-0.14072213
-0.06336944
0.032884832
0.099717416
-0.13404559
0.050137937
0.0943492
-0.032526184
-0.13425158
-0.06125951
-0.039858222
-0.010413909
0.02607114
-0.07212922
-0.017956339
0.05355931
0.117513895
-0.01971586
-0.08286202
0.06926712
-0.038910847
-0.13358527
-0.102476195
0.0022785363
0.005228404
0.14992762
0.06746149
-0.020792304
-0.17793073
-0.12130135
-0.0077793123
-0.07470831
0.07923901
-0.061868113
0.028595101
-0.028903611
0.059066765
-0.0066592274
0.023992743
-0.01985983
-0.027819972
-0.07575518
-0.097920455
-0.07301696
0.098983325
-0.012639745
-0.018383702
-0.14349143
0.11119966
-0.03567564
0.12567429
-0.075230554
0.01173644
0.049346253
0.01931196
0.009071854
0.058103252
0.084627554
-0.08873294
-0.015845953
0.051746845
0.10568743
0.04772403
-0.048954893
-0.03128148
0.015928207
0.06639938
0.0029541317
0.038605943
-0.043889694
0.074412405
-0.031820975
0.03687988
0.22257191
0.05658732
-0.011609111
0.07450838
-0.031367116
-0.11202679
0.12786771
0.021923436
0.015137474
0.014391174
0.009468809
0.08241249
0.07032241
0.13890786
0.028026253
0.006334117
-0.057051122
0.12798774
-0.04797618
0.13374697
-0.119086616
-0.062135953
0.13597116
-0.0039500473
0.025979912
0.03078092
-0.060595058
0.031791925
-0.121394545
0.005565755
0.056410182
-0.068489134
0.039617464
0.011568123
-0.0011745887
0.033756286
-0.022036614
-0.08125253
0.050524887
0.05218048
0.0016559449
-0.036137633
0.07829003
-0.091715544
0.096449666
-0.09360142
0.036544334
-0.0082661295
-0.03785193
0.021537514
0.050549388
-0.09354567
-0.05241388
-0.004603982
-0.037718207
-0.01754338
0.0016345185
-0.086552404
0.105211295
0.067460485
-0.070125915
0.011927895
-0.036357015
-0.08066351
0.1126721
0.054270968
-0.054856256
-0.12860776
0.041774023
0.042654667
-0.028016383
-0.087465815
0.02716513
-0.019633465
0.018009612
-0.043196
0.08722465
0.045869496
-0.06411802
0.010586863
0.076483525
-0.04865064
0.10172604
-0.030565232
-0.07065369
-0.009201127
-0.036051814
-0.018824916
-0.042677257
-0.09458051
0.005142226
-0.055564284
-0.13644908
-0.00013540473
0.10412445
0.029396122
0.065687515
-0.027070943
0.08879719
0.046347827
-0.13157746
0.07253702
-0.086125754
0.2595053
0.16681771
-0.103254005
-0.013664911
0.14494842
0.12863329
0.0581087
0.06780614
-0.04265792
-0.01040907
-0.048994333
0.045695182
0.08542632
0.07738155
0.1001251
0.103423744
-0.035828978
-0.168361
-0.13640566
0.09694818
0.012351692
-0.049205415
0.06567645
0.05345019
0.0070073935
-0.06386938
0.016197268
-0.060462818
-0.07055475
0.016486641
-0.08576591
0.05321051
0.14027259
0.1087692
0.03631838
0.06966663
0.016265785
-0.033907212
-0.008340332
-0.065281734
-0.037689053
0.15629187
-0.15830758
0.036682837
-0.15809922
0.07035122
0.054924183
-0.12363656
0.048614167
0.038496953
-0.095123634
-0.10527236
-0.057908054
-0.331773
0.05014795
-0.030545143
-0.009132894
0.067873426
0.01038839
-0.016859913
0.030118715
-0.03263384
0.1147115
0.041654363
0.014440042
-0.0514788
0.07415449
-0.043948818
-0.102941506
0.059894677
-0.026246209
-0.088649295
-0.1463642
-0.011183156
0.06338697
-0.096422814
0.0068134423
-0.055428617
-0.016808402
-0.06110236
0.002388379
-0.06377542
0.054928284
-0.038185924
-0.061126724
0.007578662
-0.13176104
0.03495604
-0.0056206165
-0.059972387
0.029941166
0.11773778
-0.023865387
0.1288637
0.00845274
-0.017590763
0.061529197
-0.05687447
-0.031871535
-0.023924103
0.11747016
0.031566698
0.08846538
0.111430235
-0.026209604
-0.02022441
0.12092858
-0.05115731
0.05191855
0.090007514
-0.038526047
0.18255636
-0.035588007
0.13559702
-0.039412495
0.10667534
-0.07110418
0.023270682
-0.04065845
-0.07731412
-0.0051563256
-0.023064215
0.12008228
0.06254378
0.10316524
-0.073887624
-0.002173632
-0.10699749
0.012651526
0.08799126
0.14722686
-0.10093802
0.05692447
-0.046460662
-0.081409514
0.034768384
0.04884316
-0.083294965
0.07304479
-0.044024818
-0.045866482
0.0017021531
-0.008923653
-0.09250795
0.05438157
0.10886362
-0.052219667
0.04145631
-0.156552
-0.025706887
-0.049100973
-0.09681129
0.021044375
-0.09649459
-0.07691963
-0.0214958
-0.030218808
-0.09896821
-0.07038592
-0.08319752
-0.045520905
0.007854522
-0.038418412
-0.12855555
-0.017514102
-0.13443017
0.047072317
0.06423224
-0.052932616
-0.02318836
0.06312805
-0.014679804
-0.11451633
0.08660994
0.118406124
-0.101446405
0.07739482
-0.14099053
-0.036716163
-0.15169364
0.15133604
-0.1232629
-0.022537151
-0.1327783
0.061235607
-0.04695673
-0.07783227
-0.0487291
-0.05071255
0.03825024
-0.010079093
0.01428116
-0.050074574
0.0137534235
-0.04924644
-0.0209681
0.058676753
-0.009151148
-0.0815002
-0.17808813
-0.04284845
-0.016382936
-0.077035874
0.051146347
-0.03511499
-0.08532175
-0.01711539
0.083239615
0.023050014
0.006821799
0.02706827
-0.00125562
-0.0040262267
0.027091091
0.14242497
-0.12498016
0.0968955
0.08070557
0.14903215
0.1605476
0.08552503
0.07504319
-0.024633123
-0.044400044
0.019412572
-0.008787352
-0.06762134
0.0032698582
-0.09554054
-0.081642166
-0.18268904
0.031902783
0.054174174
0.064398706
-0.038640264
0.03886131
0.073560245
-0.080437124
-0.048165105
-0.15291892
-0.08201916
-0.05768115
0.061661955
-0.020643981
0.014176729
0.08222111
0.08182039
0.0989698
-0.037457548
-0.028168479
-0.008616567
-0.0724659
-0.10583389
-0.04734565
0.017180532
-0.018831948
-0.037092894
-0.033674743
0.115701914
-0.12899184
-0.16516013
0.062132068
-0.087641574
0.07710531
-0.06753461
-0.030787442
-0.048791524
0.07141454
-0.1419603
0.016371986
-0.023243513
-0.008302271
0.059596214
-0.026825825
0.077665314
0.026284095
0.009009054
0.054225657
-0.16356066
0.04083883
-0.07026253
-0.04162457
0.09796185
-0.22133704
0.10263202
-0.073393226
0.05849394
-0.07002259
0.022620225
-0.08582517
0.055424593
0.053985015
0.079961196
-0.08130067
-0.025668327
0.10809286
0.019215517
0.08235817
0.11653674
-0.039167356
0.014578533
-0.0043140254
0.022117415
0.08073981
0.17544352
0.020973518
0.068763494
-0.21290387
0.023638075
0.02457365
-0.04479516
-0.088812545
0.053199712
0.08242046
0.10496412
-0.06120892
0.016232688
-0.05106608
-0.14378752
-0.0087979
-0.019256648
0.0068604113
-0.16105998
-0.06503881
0.094192944
-0.018037846
0.09790269
0.008774881
0.07463402
0.062459785
0.0007544758
-0.062144674
0.076951064
0.04103119
-0.09174277
0.06699403
0.08052558
0.032778177
-0.026635624
-0.015461391
0.121608205
-0.11652021
0.042208515
-0.05004299
-0.034354743
0.047648292
-0.07413562
-0.0720521
-0.0966137
-0.018032927
-0.10232675
0.035160165
0.021677352
0.05440921
-0.014904519
0.009750614
0.00258385
0.031096246
0.062815934
0.041862622
-0.1506128
0.032724366
0.009685658
-0.042637564
0.02629065
0.16338877
0.033535406
0.101355694
-0.009013777
0.004428157
-0.011674891
0.043742735
0.018888889
0.028566916
-0.031940132
-0.15433034
0.060250457
0.024269128
-0.008237673
0.027431639
-0.0121734
0.03798854
-0.07177833
0.11882417
0.058988065
-0.010728033
0.03319012
-0.09083262
0.0074995854
0.012293767
-0.030430974
0.08510948
-0.017451309
-0.0017958988
0.09685663
-0.00091398606
0.039767377
0.04572256
-0.14029737
0.0754598
-0.061876044
-0.058526386
0.030221812
-0.089015126
0.0615008
-0.06956979
0.03399921
0.067518264
-0.0072554545
0.12691875
0.05186764
-0.1677781
0.09188256
-0.08825481
0.003027339
0.08364866
0.11543419
0.032908265
0.048408072
0.09643366
0.051517278
-0.10829739
-0.04345517
-0.14060044
-0.06761122
0.026581742
0.014488929
-0.0141163925
0.0283072
0.07189345
-0.00439782
-0.02253199
-0.0013109872
-0.045626342
-0.008672554
-0.0027722756
0.044054437
0.058174603
0.031528786
-0.07856798
0.083183795
0.033822343
-0.10401295
