0.00037876997
-0.0032285738
0.00026900042
0.00074394135
-0.003282322
0.0031829267
0.0027593824
-0.0017281842
0.0010521025
-0.00043112485
-0.00031223486
-0.0014998388
-0.0015202712
0.005364634
-0.0017792403
-0.0012922868
0.002440915
0.00499434
0.0009655151
0.0020976746
0.001788776
-1.2373648e-05
0.0023626592
0.00048552902
0.00059127586
0.00018745972
0.0022836393
-0.00021918026
0.004715279
-0.0033958582
0.0003674719
-0.00046458733
0.0014328797
-0.0016699658
-0.0016477287
0.000100961624
-0.00037223895
0.0045489524
0.0020710959
0.0030057083
-0.001103315
-0.0008062495
0.0007308184
0.001691122
-0.00068449107
-0.0015671237
0.00039116875
0.0016256715
0.001690231
0.0010673511
0.00057189335
-0.0069868844
0.0035253933
-0.00057206856
-0.001954288
0.0010448616
0.003751245
-0.0012254567
0.00034876642
0.0062143677
0.00010420775
0.0012267077
0.0008789347
-0.00043889953
0.0005269054
0.004171465
-0.00023129697
0.0041595087
0.001951374
-0.003254224
-0.00067392236
0.0012068333
0.0005954905
-0.00038318423
-0.004474945
-0.00015376302
0.0021579755
0.00071964046
-0.0010243577
-0.001434901
-0.000607645
-0.0005371449
-0.00059236976
0.0010295913
0.0027788389
-7.708429e-05
0.0013690362
0.0020067345
-0.0023340464
0.00023037563
0.004210353
-0.009521791
-0.002509636
-0.0035814056
1.437049e-05
0.00038121824
-0.0006182292
0.0013597723
-0.007060744
0.0020238273
0.0040439386
-8.318831e-05
-0.0032626889
-0.0015458672
-0.0049824743
-0.0045316024
4.5334426e-05
0.0012611629
0.0010507075
0.0013053705
-0.0027094458
0.0012884081
-0.00031423126
-0.0011682941
0.002411735
0.0016375573
-0.00041010109
0.00065768365
0.0002531176
0.002041941
0.0028351902
9.872054e-05
0.0028190897
-0.0031642267
-2.0705764e-05
0.00054837624
-0.00025512345
-0.00014793409
0.00035999605
0.005186527
0.00199187
-0.0012122418
-5.3302152e-05
0.001892204
0.00018034416
0.0042622588
-0.0020593079
0.0029301315
0.0017910787
-0.0009035778
0.0010301257
-0.0014283711
0.00045192492
0.0027038136
0.0059277727
7.059834e-05
0.003648652
-0.0013921272
-0.0001995966
-0.00080725073
0.0010722007
0.0008518661
0.0024467001
0.0015590026
-0.00015611557
-0.0007676047
0.0014568835
-0.0028472228
0.0048801284
0.0012158002
0.00032638505
0.0019916005
-3.2506785e-05
0.0014256111
-0.0029048277
0.0010360669
-0.0019666755
-0.00017671831
-0.0020231053
-0.0036800762
-0.00033284267
-0.00073460536
0.00033030816
0.006680864
0.001367927
0.005015328
-9.837132e-05
0.0013518183
-0.0030256715
0.0035638877
-0.00015328906
0.0041122627
3.2596265e-05
0.00058093463
0.0041377083
0.0015960345
0.00065659045
-0.003815866
0.0015004053
-0.0010275084
-0.0020903365
-0.0013012626
0.0015525407
0.00097526144
0.002030408
0.0011452243
0.0016718423
-0.00022999446
-0.0015950958
0.0007179441
-0.002481682
0.002583511
0.0031636676
-0.004567468
0.001849689
0.0020414353
0.0019593474
0.0033837794
-0.0024784885
0.00010331342
0.005877157
-0.0025676305
-0.0007032276
0.0050581843
0.00149026
0.0026591513
0.0020668036
-0.0026356082
-0.005060956
-0.00053785165
0.00689776
-0.0023933926
-4.6420613e-05
-0.0015178242
8.824965e-05
-0.0029953537
0.0002845576
-0.0019959733
0.0033346834
0.00061206863
0.00058528094
0.0010296578
0.0005500093
0.0009886496
0.0031247737
0.002589082
0.00047499783
-0.0016198086
-0.00013054628
0.0019404192
-0.0020185146
-0.0021020742
0.00021548905
0.0014990603
-0.0022278554
8.81801e-05
-0.00016347434
0.0018649881
0.0018265112
-0.0011402519
0.0020883284
0.002212654
-0.00086266926
0.0027391748
-0.00032621494
0.0004929158
