-0.0013321163
0.004797191
0.0013289424
0.0033680429
0.0007305518
-0.0036088377
-0.002921519
0.0029468741
-0.012928249
-0.0057258876
0.010566072
0.0024005282
0.0043893037
-0.007958049
-0.007538222
-0.0035730216
0.0019668804
0.00335141
-0.0033178057
-0.00071282533
0.0018823569
0.0017923102
-0.001940875
0.0025506264
-0.0008385563
-0.0013202954
-0.0043342584
-0.0020342371
0.006323654
0.0028635089
0.010045403
-0.0009709984
-0.015523216
0.0009946387
4.61024e-08
-0.00096192514
-0.0116660455
0.0027123387
0.0001584701
0.007902324
-0.005800024
-0.004531218
-0.0018394766
0.0042444174
0.005582309
0.0032951687
-0.00048082173
0.0031766875
0.004019132
0.0029141344
0.0017167784
0.0026785822
-0.0066494285
-0.009300743
0.0016616242
0.00867538
0.004412796
0.005692402
0.01243775
-0.010742739
0.0071407957
-0.0069427276
-0.002238259
-0.0046080993
-0.001139575
-0.0033503554
-0.007959845
0.0018006567
0.0013903833
0.0046968497
-0.0008558025
-0.005048858
0.0038408032
0.0070625995
0.004497222
0.0035446228
-0.0059433645
-0.0048297
-0.0013234619
-0.005145785
0.0031439974
0.0020096002
0.009375002
0.00825003
0.004041346
0.0083716605
0.0030945584
0.0061181756
0.000572239
0.0006980973
0.012306172
-0.004171611
0.007692553
-0.002396991
-0.01048826
0.005908492
0.0011652451
0.017038044
0.007224218
-0.001599637
0.0007332803
0.0041980264
0.011768536
-0.0075748474
0.0011742614
-0.0218887
0.009101604
-0.0022214004
0.0064927824
0.0042753513
0.008935186
0.001609557
-0.007180694
0.0076233093
0.0055983383
-0.0031874843
-0.005245113
0.0035683145
0.009589074
-0.005393465
0.0038387938
0.0029793237
0.002139896
3.4063258e-05
-0.004299716
-0.007616855
-0.011051193
-0.023934754
-0.005083763
-0.014666316
2.3515782e-05
0.0007362062
0.0051090657
0.0086887535
0.005434352
0.0034774572
-0.011026249
0.00022590032
0.0016775565
0.0034617754
0.0022518595
-0.0010973994
-0.0006649647
-0.0048930114
-0.00076270377
-0.0015619859
-0.0010971595
-0.006861336
-0.00011534282
0.014232324
-0.0049237455
0.0102819055
0.0075355796
0.0019519291
0.008655791
0.0012838045
-0.007592992
0.008558119
0.0036256507
-0.0019710173
-0.00442048
0.0042283866
0.0028889244
-0.009061905
0.0036709777
-0.0045227837
-0.00172371
-0.0018512403
-0.0008383131
-0.0015121641
0.0027716875
0.0063541513
-0.014545859
0.0035556322
0.0091875745
-0.002516381
-0.010723391
-0.009349602
0.0027287428
-0.0062719593
0.0057293484
-0.012779995
-0.0023312143
0.0066415058
0.009786224
0.013750614
0.005498644
0.0027719694
-0.0037756516
0.0031385452
0.0023417007
-0.0032631916
-0.005084271
-0.0040024715
0.010576512
-0.0049862782
-0.0008422969
0.0058711083
0.011128493
-0.0032977888
-0.00034419968
0.007407737
-0.0037975232
0.020926021
-0.00906728
0.002217099
-0.0026721577
-0.0068750083
-0.00713993
-0.0102664465
0.00449576
-0.0010433877
0.008150534
0.002902186
0.00011638404
-0.009127346
-0.0018991944
0.0035131434
0.0032110694
0.0080318805
-0.0140509475
0.0025310968
-0.004558284
-0.0031049196
0.0075039263
-0.0015733172
-0.0035585258
-0.0074247844
0.01110959
0.00043184773
-0.008021505
0.0018372129
0.0020823579
0.002583039
0.0032230346
-0.0015848394
0.001875307
0.0005432449
0.0023913088
-0.0005535188
0.0015207405
-0.0026943753
0.011904127
0.00789038
-0.0115200905
0.0074081095
0.0028273766
-0.0020327675
-0.00093129126
-0.00037724565
-0.00036580002
0.0054219933
-0.0016162813
-0.004021566
-0.013639352
0.0028792412
0.002534819
0.0057768603
-0.0022056394
0.009019725
-0.007357858
0.008174878
-0.0022556987
-0.0039346064
-0.005262928
0.000636221
-0.02049578
-0.0048861615
-0.0035548303
-0.011552475
-0.0022866314
-0.007554879
-0.00088527764
0.002886772
0.0048667197
-0.0020372346
-0.0017586023
-0.0004914602
0.008225533
0.013076891
-0.006797781
0.015665725
0.0014971466
-0.001104372
0.0051325723
-0.004389758
0.0071168123
-0.0022406362
0.0007858319
0.007212453
0.0017467254
0.006285118
0.00048332455
0.003915031
-0.0017155458
0.0010226474
-0.004783852
0.0037772881
0.002389534
-0.0031952646
-0.0012087004
-0.007260953
-0.0066751703
-0.0011800656
0.002528382
0.0115205
0.012807593
0.0051307073
0.0054755425
0.008263027
-0.0055047083
-0.00039476517
-0.0061174952
-0.0032582066
-0.0070488993
0.006632115
0.008186968
-6.512743e-05
-0.00075703266
0.0032188157
0.0012687262
-0.003289442
-0.0015276347
-0.0011438214
0.0058712745
0.0018899712
-0.0008905405
0.0018497535
0.006259946
0.0038129115
-0.0036821908
-0.0060327016
0.003196163
0.0015823973
-0.00197675
0.0065043513
-0.003811961
0.0020993534
-0.01731585
0.014503814
-0.0008438142
0.0002449095
0.013653234
-0.0021683115
0.00027766792
3.56813e-05
-0.0013603028
0.012039573
0.005488576
0.006211852
0.0018151936
0.0011691295
0.0032676538
-0.0016700602
0.001272212
-0.0028285692
0.0039643645
0.007395304
-0.0013902304
-0.0076097813
-0.011212138
-0.0039523556
-0.006073725
-0.010254566
0.00495728
0.0127597805
-0.0038793623
0.002241339
0.004814394
0.006377745
-0.004308139
0.0032703164
0.0028220462
-0.0012226427
-0.006200465
-0.014280621
-0.0028600327
-0.004128558
0.0022712115
0.002876711
-0.0033745288
0.0042893416
0.0034439983
0.0009387873
0.0010176332
-0.006128459
0.003906592
-0.0017430031
0.0027400889
0.008176665
-0.007707236
-0.005169675
0.008610941
0.0094453
-0.003166783
0.00062458526
-0.00053536904
0.00082280685
0.0015393787
-0.006150368
0.006202093
0.0039265966
-0.0020004644
0.0059945094
0.00089323416
-0.001650263
0.0046636853
-0.003082082
0.0006470097
0.0055761733
0.013357707
0.003647536
0.0036028912
-0.010282085
0.005736606
0.008002176
-0.0044022817
0.0032031732
0.0057873665
0.0024095133
-0.0059746704
-0.0011344092
0.0039343596
0.0081238495
0.0016274028
-0.003117429
-0.004505106
0.012015433
0.0015034358
0.004848353
0.008287538
0.010553118
0.0007544295
0.0031678954
0.005893582
0.0020983308
0.012151858
0.0017647913
0.0008562934
0.0060066627
0.004500532
0.01049249
-0.004914267
-0.002512073
0.007925112
0.0041660997
-0.009149751
0.005037242
0.0031891107
0.0012299075
0.0024394344
0.004939429
0.0054859538
0.0042933994
-0.0012621487
0.0028943045
0.0073358775
0.0044039367
0.0026236272
-0.0032808606
0.001976764
0.014950152
-0.010107872
2.0150215e-05
0.004346756
-0.00390715
-0.0004427894
0.0015332823
0.00034297706
-0.010702887
0.00024234755
-0.007676071
0.009155152
0.011372047
0.00661915
0.0003283509
0.0043310723
-0.0037502614
-0.010957874
-0.0018952676
0.014351595
0.0097316895
-0.0006320625
-0.001595971
-0.0008297489
0.0011448099
0.0052973772
0.0022997016
0.0029857848
0.0015473207
-0.009462264
0.0066809757
0.0037767917
-2.3234345e-05
0.002050398
-0.0059026713
0.004771733
0.0009897136
0.010066306
-0.016298214
0.011299345
-0.0022515901
-0.006385454
-0.0038598864
-0.005314692
0.0010379232
0.008342904
-0.00021392078
0.0012819614
0.0010013641
-0.009528461
-0.0007458253
