0.049836516
0.0021471507
0.011629277
0.05103565
-0.056569204
0.06298093
0.031154871
0.018976007
0.012613958
0.067518026
-0.019361971
0.048319943
0.0062482413
-0.042963155
0.041611694
-0.029982762
0.028413
0.043124735
-0.018467007
-0.014224491
0.044740796
0.012701031
0.069011755
0.028355945
0.031309698
0.056064162
0.059223462
-0.03662587
-0.05538171
0.060158137
0.03235678
-0.07107617
0.022220379
0.038598113
-0.018744472
0.0442653
-0.015368288
-0.047534045
0.053809747
-0.055564657
-0.07625652
-0.013391387
-0.044641405
0.022382198
-0.043226887
0.02950066
0.052469485
-0.046135686
-0.01810166
0.052470144
0.03447019
-0.06944091
0.048951983
-0.06480955
0.023557087
-0.04663875
-0.0712169
0.05830736
0.06512049
-0.056941345
-0.050782323
-0.030869348
0.034137074
0.05443816
0.013010449
-0.03174759
0.034316767
0.06199037
-0.07078812
-0.06959016
-0.05890563
0.031188663
0.061914984
-0.009479795
0.0054583377
0.075595714
0.009587784
-0.004735079
-0.05469038
0.005508076
-0.044709854
-0.06323524
0.06371944
-0.03593318
-0.02416977
0.016300838
0.052672252
-0.027041325
0.061330296
-0.04145566
0.027539462
0.03242166
-0.04162121
0.011752329
0.0021914283
-0.046082757
-0.034374405
0.032289382
0.011436523
0.049025703
-0.04784657
-0.03553034
0.047821037
-0.01391513
0.05387598
0.01587572
0.05304286
-0.055877596
-0.06383554
-0.04125873
-0.036870312
-0.027020099
0.037915986
-0.03460445
0.027747788
0.028634425
-0.072214365
-0.041466508
-0.016045462
0.046601746
-0.053274274
-0.00071430847
0.037161134
0.036614753
-0.019175766
0.0076685427
-0.040667262
-0.0069724163
-0.035389747
0.005676573
0.068688914
0.030000946
0.0020328134
0.0044944515
0.06894737
-0.014710916
-0.040658012
-0.015110853
-0.028030235
-0.04000968
-0.008001394
0.018077895
-0.039554864
-0.037839573
-0.050458096
-0.004753476
-0.01146601
-0.023765404
-0.019993234
-0.018585794
-0.054062344
0.053647615
-0.00056165876
-0.04984031
0.0023819564
-0.06662126
0.050626542
-0.043999862
-0.051514886
-0.004009706
0.043846756
-0.045460463
-0.067854136
-0.029602535
-0.067597054
-0.063061625
-0.0041139806
0.05117331
0.0060912934
-0.057722982
0.018736877
-0.041508347
-0.00043879688
0.06755844
0.052782267
0.03340984
-0.0126998285
0.019665653
0.009650604
0.03639063
0.015945097
-0.06053835
-0.046023857
0.016618721
-0.05448185
-0.055837147
0.03605986
0.022854308
0.066482596
0.03687334
-0.01297273
-0.01290008
0.03986382
0.01718326
0.055561297
0.04332144
0.026518581
-0.031835616
0.01781653
0.064097986
0.030863134
0.05289819
-0.06445043
0.06545092
0.05454815
-0.047178183
-0.06272845
0.011729011
-0.06691701
0.04074478
-0.062149175
-0.02072619
0.05806447
0.002233928
-0.074562244
0.05192595
0.043837406
-0.03430254
-0.0029067465
-0.021316083
0.012914201
0.06246307
0.023566231
0.0505926
-0.021939779
-0.02147794
0.030482348
-0.030773336
0.010180539
-0.037620485
-0.06952252
-0.058373418
-0.019674666
-0.06959485
0.013449784
0.02857683
0.026032768
0.02238069
-0.026462112
-0.068053536
0.054446638
0.06485844
0.052313592
0.044512745
0.034186464
-0.06710427
0.00944414
0.02273677
-0.026281629
0.05491989
0.013103866
-0.06373903
-0.032334767
-0.030994795
0.018666685
-0.046405897
-0.0017644287
-0.06311385
0.060563404
0.01669014
-0.042989057
0.017938862
0.06252292
-0.00777367
-0.0547407
0.031945284
0.059364613
0.03428475
0.022685884
-0.06014283
-0.02508115
0.022415113
-0.044281248
0.00923767
-0.00357439
-0.026940955
0.06973063
-0.06779579
0.058234952
-0.06977848
0.008509117
-0.019858433
-0.0135234445
0.058251824
0.049300075
-0.031446215
-0.06003029
-0.048773695
0.009973723
0.013315178
0.019968683
-0.015482892
0.055432826
-0.034428503
0.059526194
-0.020673066
0.045942973
-0.022700507
-0.026322028
-0.052246805
-0.051977422
0.00444844
0.06577861
0.022068111
0.050175708
-0.02075198
-0.05778655
0.0029498236
-0.0048735016
-0.019576449
0.020330554
0.031208344
-0.010638559
-0.013512323
0.02325219
0.029411227
-0.029086366
0.069136776
0.0026099086
-0.036508564
-0.0074626375
0.042808987
0.06506004
0.014153462
0.077413216
-0.012168035
0.059041746
-0.017435048
-0.045676887
-0.06520059
-0.03624219
-0.05974201
-0.0252664
0.03713662
0.013542867
-0.010746503
-0.005458021
-0.023748687
0.016261984
-0.07749751
0.050439224
-0.03271737
-0.045098655
0.0023662753
0.030950805
-0.038772147
0.026194641
-0.06543324
-0.025603374
0.015824988
-0.026458887
0.044643868
0.04137175
-0.0687357
-0.005358825
-0.05908896
0.042900983
0.012692209
-0.023252117
-0.024065873
0.040999316
-0.07198929
0.061476316
-0.052087136
-0.03708347
-0.04191727
-0.057224575
-0.027130187
0.04711524
-0.06879719
-0.041022398
-0.020072207
0.04807425
-0.014506441
0.04717837
0.026653029
0.0041278037
-0.05006886
0.033039346
0.006332465
-0.063575745
0.04344712
0.04378556
-0.0572646
0.05954382
0.04172443
-0.06555653
0.014946984
-0.079977326
0.04367807
0.06809264
-0.004940532
0.008202544
0.054418113
-0.012827977
-0.063279755
0.01715511
-0.020429742
0.022792647
0.04221724
0.06829528
-0.03038237
0.022637827
-0.010840866
-0.0039274264
0.037463423
-0.013240556
-0.04154071
-0.04450639
0.066916846
0.04405625
0.064524196
0.0089925965
-0.07289617
-0.026600083
-0.03936939
0.061959464
-3.3884986e-05
-0.035368636
-0.050110217
-0.006797182
-0.051607158
0.056065533
-0.03019624
0.04815628
0.009478438
-0.04646438
-0.021912951
-0.07758594
-0.055846855
-0.028084867
-0.014565149
0.027678207
0.05763721
0.043882977
0.036747724
-0.028594494
-0.007380449
0.0366806
0.04410719
0.03293222
-0.068896964
-0.075513296
-0.057370197
-0.009462549
0.041642945
-0.052543428
-0.02165235
-0.059153125
0.023159577
-0.039581716
0.05922954
0.013773442
-0.013050223
-0.037691753
-0.07243186
0.03129023
-0.034849167
-0.014760649
-0.04637426
-0.0065380195
0.011655723
-0.050323885
-0.055175953
-0.045249294
-0.05942692
0.057981174
0.07140636
0.056975648
-0.061373785
-0.019405935
-0.02178393
-0.04218056
-0.021189608
-0.0004497044
0.02520077
-0.049950987
-0.022730919
0.06322949
-0.05714257
-0.049884193
0.05258061
0.046084166
0.034939945
-0.004756605
-0.037393525
0.023198333
0.01699167
0.035224017
0.037976876
-0.032002196
0.018796118
0.055409916
-0.022217914
-0.037638407
0.039834857
-0.049472123
-0.009830597
-0.033225767
0.056503125
-0.06936194
0.045683317
-0.0064135846
-0.025863819
-0.039145727
0.051260356
-0.054261923
0.02416972
0.01428229
-0.045048323
0.038920403
-0.013885363
-0.01954255
-0.01250967
-0.06499888
0.021077117
0.07701772
-0.02550068
0.0559006
-0.053738255
4.1337233e-05
0.03583475
0.07097399
-0.012189423
0.053362936
0.047338564
-0.05111523
-0.04585158
-0.054367296
0.0130867595
0.034057584
0.06613359
-0.035559256
0.029961567
-0.00012919621
0.051849343
0.03897774
0.064388976
-0.0507477
-0.067100726
-0.023609195
0.032068357
-0.051193297
-0.040327802
-0.029272
0.03792455
-0.03312689
-0.025794366
0.015831826
-0.049196377
0.039471973
0.060680486
0.018382719
-0.00041134868
-0.06267283
0.0091893235
0.050142508
-0.033645496
0.060209043
-0.011011196
0.0146136535
0.018610345
-0.068972565
-0.0032234283
-0.016506074
0.02828953
-0.030853778
-0.049430896
-0.031498156
-0.040218897
0.044321552
-0.0013351009
-0.0088759605
-0.06141784
-0.045900833
0.026230676
-0.07578518
-0.057581365
0.045274954
-0.005480476
0.04134499
0.015362191
0.043863684
-0.06567579
-0.009548082
0.01276361
0.028974922
0.030015983
-0.067198485
0.06740303
0.0020255062
0.044601053
0.021401497
0.020833727
-0.054758504
0.05918258
-0.05588537
0.038355753
0.0039709676
0.050428655
-0.03753184
-0.011310416
-0.039282426
0.023098573
-0.0032416617
-0.0073148757
-0.059787694
0.019300336
0.0010070644
0.053239465
0.015198114
-0.02835389
0.05956486
-0.002944375
-0.0018279224
-0.02393595
-0.058733776
0.008238857
-0.07768504
-0.078402154
-0.040025547
0.023194268
0.066128634
-0.04699401
-0.027591247
0.042197626
-0.008293094
0.018594464
0.055098385
-0.013281012
0.0047170823
-0.07418688
0.049290016
0.0036873675
0.0051516932
0.069832966
-0.045238096
-0.0056287358
0.059674088
-0.012693973
0.035156183
-0.014547312
-0.04258637
-0.06264506
-0.07474765
0.0013950062
-0.04540971
0.050834198
0.039768644
0.013743359
-0.06649344
-0.022087174
0.046827022
-0.02114641
0.014840616
-0.05424057
0.041450888
0.020094963
0.05125495
0.015173454
0.03190714
-0.03126367
0.018888742
0.0013385692
-0.060588628
0.027205765
0.05649771
0.023251737
0.042543706
-0.054319486
0.03238011
-0.05999409
0.006544021
-0.05187336
0.04184744
0.07143916
-0.017999161
0.040030498
-0.045941263
0.028549852
0.019528583
0.02580698
0.046975065
-0.006467521
0.060401063
0.05700321
0.0043584118
0.038609147
0.04849202
-0.0118248025
-0.066955894
-0.03218005
-0.045352995
0.06456572
0.06508612
-0.04441682
-0.014722145
0.007356256
-0.059321344
0.029523393
-0.03277384
0.02935865
-0.071288146
-0.03559526
0.01717078
-0.07053649
-0.0075168572
-0.011142711
0.033667263
-0.023462802
-0.044252288
0.06296028
0.008955473
-0.06783114
0.010515474
-0.03056289
-0.063342385
0.050609376
0.02744596
-0.043851558
0.0046105008
0.0666693
-0.058560804
-0.06640574
-0.059394833
0.024553318
0.04866261
-0.03514476
-0.023428706
-0.055742893
0.013776881
0.038939163
-0.066208795
-0.016431462
0.011563782
0.023201264
-0.023134075
-0.040562075
-0.03396119
0.00680404
-0.05884738
-0.03687748
0.06418841
-0.05234797
-0.015838116
-0.037521087
0.007974196
0.044708744
-0.029965136
-0.0167734
0.02256155
-0.08082036
-0.057825472
-0.0627731
-0.03541647
-0.011447815
-0.010846117
-0.023702811
-0.017216036
0.07290908
0.035433482
-0.01899841
-0.070053086
0.042346496
0.0017021839
0.036271118
-0.01000004
-0.017487071
0.035541482
-0.020137228
0.044618655
-0.058204997
0.014248103
-0.0749878
0.047910642
0.01670213
-0.06152155
-0.02101024
0.0074090282
0.04683147
-0.019780898
0.015789509
0.005225941
0.052726395
0.009350186
0.026912207
0.023561392
-0.042386968
0.06603947
-0.050085913
0.03548003
-0.057068862
0.024160989
0.06114662
0.038444497
-0.0061394954
-0.013787397
0.0062416904
0.006147734
-0.057336155
-0.023709364
-0.053686593
0.068039864
0.039829277
0.052263293
-0.056331296
0.05889551
0.027940439
0.06386375
-0.013458621
-0.057303697
0.014309374
-0.019005448
-0.026366085
-0.012422827
0.0009472278
-0.055296563
-0.06790424
-0.026618259
0.03212334
-0.021276742
0.062664755
-0.051774714
0.06264514
0.027919482
0.061679732
0.0014948505
-0.06286042
0.027006269
0.0050011463
-0.031196164
-0.040806185
-0.027972389
-0.0216378
-0.005643609
0.021754263
-0.04992359
-0.06351684
-0.03817181
-0.0712659
0.034184236
-0.007977057
0.027075417
0.049359016
0.04192055
-0.05310001
-0.07031237
0.0035543162
-0.004269069
-0.00059717015
0.020472577
-0.028162045
0.043017607
0.049600657
0.037737247
0.070863836
-0.035970427
0.02330584
-0.036615994
-0.026263418
0.0294332
-0.055019584
-0.045376603
-0.01835329
0.022389757
-0.010308673
0.036290612
-0.05817568
0.008001615
0.06760864
-0.013666861
-0.030017775
-0.027941065
-0.04043285
-0.06710628
-0.036507305
-0.017598558
0.064799435
0.06746383
-0.017287696
-0.005680196
-0.0729344
-0.030026952
-0.033848062
0.017385293
0.04321443
-0.040183682
0.028083084
0.056851443
0.0105311
0.03180475
0.06985754
-0.05635535
-0.018327735
-0.08148006
0.009638805
-0.05117598
0.032293305
-0.03929588
-0.044728216
0.032336462
0.02391034
-0.052633334
-0.028085623
-0.046300963
-0.029090624
-0.036848
-0.03718658
-0.010332777
0.03861956
0.0018900553
0.05661123
0.008890674
-0.01589056
-0.048820745
0.0089921
0.002252345
0.047190424
-0.06591128
0.06652791
-0.039540667
-0.04121486
-0.013443111
0.0028341473
0.060744427
0.07425964
0.04513001
-0.030285137
0.030588616
-0.06771171
0.049826663
-0.061598714
0.05296461
-0.071733825
-0.040062
0.058247905
-0.06360733
-0.009903593
-0.06802703
0.011773223
0.04053313
0.04574367
0.042151824
0.026882261
0.0152846165
0.048286714
0.05944103
0.037764356
0.043470897
-0.033820216
-0.016750133
-0.01141846
0.06109106
-0.002728516
-0.046440247
-0.03405009
0.04279023
0.04749139
0.044421144
-0.033688035
0.052844115
-0.018461235
0.012774778
-0.004020064
0.052550644
0.0044627804
-0.06581958
-0.008779902
0.0718155
0.05208507
-0.044091936
0.043801382
-0.00502801
-0.060114793
-0.024388636
0.040221337
0.060639594
-0.011641469
0.045998134
0.062067244
0.062703356
-0.035374004
0.06222286
-0.020216053
-0.017543994
-0.005027267
0.02719514
-0.046670374
-0.0721917
0.061818786
-0.01712165
0.047522288
-0.07021471
0.07028451
0.048742622
-0.019385802
0.008965676
0.012268334
-0.014555901
0.05232255
-0.07026854
0.007903262
0.018003788
0.05361174
-0.032556705
0.037069183
-0.008906113
-0.039399277
0.019061808
-0.059512693
-0.057313263
0.037977654
0.0639187
0.053254742
0.028709972
0.033762377
-0.066258855
-0.051473666
0.011328061
-0.0033703784
0.061769966
0.053551983
0.061088435
0.018155579
-0.037294105
-0.009173694
-0.0036087197
-0.015703563
0.038294036
-0.004097373
-0.031307604
-0.057704184
0.06501734
0.058967125
-0.034849774
-0.012386507
-0.03013078
0.013853159
0.016536372
-0.070686266
-0.03741573
-0.0036290037
-0.049826965
-0.009160982
0.017215798
-0.05346933
0.012822284
0.015213425
0.040212665
-0.03020314
-0.06423312
-0.0679053
-0.031897422
-0.014431697
-0.05960866
-0.06735711
0.03754969
0.06720944
0.038757518
-0.04312652
0.038548857
0.07317574
-0.012773824
0.0030875714
0.06980227
-0.026566967
0.010106905
0.07147618
0.059066456
-0.043606587
0.024009613
0.029181182
-0.054063838
0.031623006
0.05288641
-0.07007682
0.06436948
0.025308434
0.01913108
-0.039496105
0.0243482
0.03678609
-0.062612474
0.055215653
-0.04748982
-0.07489516
-0.030255493
-0.008314378
0.046637475
-0.018260231
0.02291125
0.0063659195
-0.060180865
-0.03660174
-0.060876854
0.0136628635
-0.041437548
0.04748796
0.054427642
-0.012602774
-0.05363259
-0.025655275
0.019807741
-0.03837663
-0.037982583
0.04529635
-0.020141365
-0.043510552
-0.024489976
-0.075159766
-0.004268057
0.061480924
-0.030005483
-0.032951143
0.03587661
0.053749695
-0.037488766
-0.025592428
0.04893325
0.027989054
-0.037104588
0.04982224
-0.060147826
0.039596602
-0.051193364
-0.04132464
0.06785215
-0.0355776
0.037687376
-0.00569453
-0.0058961967
0.06729249
-0.05675329
0.0033411696
0.04355425
0.02267887
0.012913761
0.01079196
-0.052970745
-0.07495403
0.043267768
0.06064339
0.003967365
-0.030590044
-0.017862437
0.01980786
-0.069797896
0.062251195
-0.0029165738
-0.009498462
-0.027128428
0.04459862
-0.0664428
-0.017646631
-0.012969118
-0.028124265
-0.013011248
-0.051234584
0.011389018
-0.011596694
-0.00091737945
-0.0030127338
0.0025551799
-0.025182132
-0.02163968
-0.056997765
-0.031450935
0.06177862
-0.042413503
0.006094692
0.015098507
0.037200592
0.010139938
-0.0035347193
0.009005465
0.056247838
0.021306641
-0.02277046
-0.014016536
0.052670043
-0.031056073
0.049377356
-0.03804471
-0.03342276
-0.015141922
-0.02755216
0.00016080815
0.04132063
-0.038165927
0.025244575
0.039754335
-0.029965702
-0.06993673
-0.012036956
0.02278395
0.02860463
0.032060742
-0.026680902
-0.036743723
-0.037790317
-0.062390313
0.035049412
-0.07813966
-0.02113857
-0.065006725
0.0148383975
0.0693812
0.012445163
0.030634375
0.0006322029
-0.02525171
0.009965358
0.031428244
-0.054164372
0.00493113
0.038112614
0.057550948
-0.061557423
-0.03472369
-0.07034233
0.006090572
0.00025775394
0.07355085
0.042827625
-0.07289338
0.05439689
0.0013918899
-0.022460965
-0.037082013
-0.022496944
0.05933013
-0.0013744577
0.031154867
-0.06597789
0.051527806
0.034938965
0.019886361
-0.034005586
0.057834756
-0.02040075
0.05031371
0.031541567
-0.06876181
0.035407405
-0.05880605
0.010141242
-0.042214476
-0.054496266
0.024979394
0.04226651
0.06202952
-0.07732526
0.0128429765
-0.037912525
-0.018862432
-0.017836269
0.04325957
-0.034576554
0.015800886
0.05395459
0.026523547
0.016130226
-0.013938258
-0.0119988425
-0.008187791
-0.05906936
-0.021531299
-0.023948753
0.022993287
0.054118555
0.07041086
-0.02060209
-0.060782813
-0.026547758
-0.024307648
0.033681527
-0.04095951
0.0013860747
0.044556372
-0.010258639
0.010753092
-0.058613043
-0.021844897
0.048258465
-0.06608038
0.024468975
-0.064694546
0.075804226
-0.015158436
-0.007760871
-0.026238956
0.011726232
-0.024196975
0.04120384
-0.060989432
0.01288754
0.022706063
0.012820142
0.04119798
0.053108525
-0.03648305
-0.044927843
0.06350666
0.037241455
0.041245513
-0.040482033
0.047072608
-0.038567085
0.05954722
0.048384648
0.046425886
-0.064085715
-0.044406954
0.023508798
-0.02879294
-0.005083635
0.03484197
0.050238837
0.06299488
0.0390507
-0.053738516
-0.0595558
-0.054846805
0.040711995
-0.061909024
-0.030018244
-0.07704927
0.010789213
-0.04363242
0.013237067
-0.058446623
0.04090215
0.05290372
-0.007543702
0.006118438
-0.022718314
-0.061980642
-0.039959926
-0.02194206
-0.018530997
-0.022599695
-0.013620667
0.01896178
-0.0635785
-0.039646246
0.05235194
0.05130875
-0.06885868
0.045059822
0.0377672
-0.04471924
0.04878841
0.05645955
0.02576208
0.06952571
-0.045088522
-0.06764468
0.02812185
0.004253399
-0.04195085
-0.056417145
0.01191929
0.014462504
0.03015197
0.062142123
0.039267235
0.047554225
-0.051373128
-0.05137202
-0.0055647
-0.026194243
-0.023184013
-0.04994943
0.00065463275
-0.072318375
-0.019647304
0.059416436
0.049787108
-0.03128035
-0.03334569
-0.05350811
-0.052182496
0.028576314
0.06410569
-0.07721108
0.040249433
-0.029891241
0.06645144
0.005422272
-0.0601122
-0.041108128
0.027561536
0.0073295385
0.0031782044
-0.049744293
0.016018132
0.060342617
0.064439446
0.055312954
0.07640906
-0.017445186
0.06993757
-0.03374512
0.0041842475
-0.023408307
-0.04011814
0.041244633
-0.0051603406
-0.06705915
0.02872228
0.06195095
-0.014128891
-0.031554133
0.07183225
0.019734547
0.04541668
0.029991582
-0.0045970944
0.050178647
-0.022333626
0.016696136
-0.07564685
-0.009288
0.039142378
0.012552689
0.043068208
-0.06669102
0.026419764
-0.038251616
-0.06395023
-0.0075472076
-0.015183092
-0.059553817
0.055880032
-0.022639383
0.050841708
0.07228476
-0.0673765
0.057306185
0.06338518
-0.014772818
0.04875091
-0.021303639
-0.022576375
0.03990401
-0.050670538
0.0758109
-0.030042525
0.06402624
-0.036895882
-0.061275825
0.022704437
0.0035704977
-0.0027801401
-0.018707756
-0.0551664
-0.021945594
-0.065255985
-0.03729943
-0.01607918
0.0326832
0.015359276
0.04577198
-0.0261192
-0.04497192
0.022845848
-0.05739062
-0.020206766
0.063090675
-0.032579713
0.041712567
0.06416471
-0.068587475
0.042030312
0.0074015264
0.010458327
0.057947163
-0.035248205
0.025728714
-0.006361183
0.057340864
0.060252447
-0.053719465
-0.03441054
0.036999267
0.056831885
-0.02052409
0.012393231
-0.03582743
-0.05795551
0.017983386
0.049871355
-0.0044144234
-0.046459425
0.029819129
-0.013170534
0.057190463
0.017243505
-0.011306416
-0.06314916
-0.045343146
0.035487372
-0.016086655
-0.03581036
-0.016292417
0.019701572
0.0072651296
-0.04675121
0.03306943
0.031229826
-0.07212381
-0.019249136
-0.039882965
-0.01033395
-0.0066494914
0.06203998
0.05403396
0.042685278
0.0014677697
0.07501035
0.03857271
0.011712711
0.06425824
-0.0060920413
-0.04401343
0.017597906
-0.037829384
-0.032678094
-0.048220407
-0.01039347
0.05435894
-0.0055702482
0.058155417
0.06044023
0.042666163
0.038885415
0.013625551
0.0044843876
0.0150208445
0.00035642102
-0.008233307
-0.045372944
-0.014609646
-0.00460232
0.009054183
0.024738662
-0.045130447
-0.051571503
-0.04917327
0.007862237
0.043810967
0.015802387
-0.03585424
0.024167148
-0.026673734
-0.04359594
0.047943804
-0.016743356
-0.018866532
0.02543794
0.0098237
-0.05503108
-0.034567077
0.01163473
-0.028730366
-0.054693952
-0.025856992
-0.061382644
-0.066401616
0.03283583
0.033397194
0.030696813
-0.04518364
-0.0026706345
-0.022641223
-0.058932375
0.029084248
0.0009898797
-0.0076604853
0.029156055
-0.06364512
-0.01409998
-0.047191974
-0.030366605
0.061156858
0.03306593
-0.027808128
0.051864076
-0.043506496
-0.0025823482
-0.0196025
-0.03186359
0.034114014
-0.041142628
0.023849789
-0.03720481
-0.04166122
0.05102914
0.0612638
0.04106207
-0.01844622
-0.060620777
-0.028838066
-0.031423908
0.0022581266
0.015639095
0.05794868
-0.00044770716
-0.038386587
0.059439298
0.030003296
0.04788279
0.053554438
0.055692434
0.044326056
-0.058597215
0.04605422
-0.05233177
0.04115135
0.026754418
0.046091292
0.037675586
-0.056982107
-0.05532594
0.038310397
0.026914315
-0.048747245
-0.05797195
0.06119967
0.040261246
0.0077140587
0.0129188085
0.02761039
-0.025258876
-0.018606136
-0.014051463
0.03691975
0.019723674
0.018305793
-0.053030416
0.025910525
-0.02458893
-0.0134318285
0.044182107
0.033266913
0.05184862
-0.061615527
-0.033501823
-0.027141709
-0.025638761
-0.041554816
-0.061598472
-0.07173968
-0.0032351413
0.034483068
-0.06643533
-0.0020172559
-0.022561597
0.0148257855
0.012958742
-0.035854436
-0.05843993
0.032727934
-0.010741099
0.04669437
-0.029267153
-0.028357582
-0.07157265
0.0074551827
-0.029215578
-0.01599934
-0.013906418
-0.02947942
-0.02840268
-0.0037695433
-0.020958135
-0.03758704
0.011800785
0.002306545
0.0035304343
0.0148558505
-0.062464148
0.016469166
-0.035765726
0.014337455
-0.064017266
-0.0047935923
0.03624434
-0.029746218
0.021735629
0.038630787
-0.065787815
0.037276465
0.07211295
-0.033163182
-0.008837407
-0.037166186
0.0042613284
-0.03398296
-0.06416759
-0.027024562
-0.06711254
-0.05063287
-0.040107217
0.055306405
0.04896372
0.039681133
-0.04001179
-0.018062769
0.04976201
-0.065364726
-0.025819741
-0.028058503
-0.016227724
0.011028197
-0.031420514
-0.018876266
0.0020910194
0.04345864
-0.037979964
0.019599576
-0.04436592
-0.0075439145
-0.050590985
-0.049028914
0.034219433
-0.006169451
0.0149888685
-0.042686816
-0.03656558
0.06091994
0.0590515
-0.017779058
0.06794296
-0.07094391
-0.05754972
-0.054245844
0.056404877
-0.010014247
-0.03429031
-0.031203642
-0.0027005589
-0.006409271
-0.03644245
-0.060226437
0.040592767
0.069946505
0.005156112
-0.032660775
-0.02995089
-0.033706408
0.043480676
-0.019589854
-0.03919873
-0.03255908
0.02000893
0.045705833
-0.023109643
0.004341961
0.061378866
-0.0049581616
0.013934868
-0.054128367
-0.0066228556
0.04342889
0.02340148
-0.05868179
0.06440577
-0.019125128
0.032582257
0.06024572
-0.002007689
0.033177406
-0.061455972
0.018161327
0.043456696
-0.049821038
0.015175091
0.0025540947
-0.03816132
-0.022686258
0.04722268
-0.055931065
-0.03938701
0.07580138
-0.02825207
0.038774576
0.049973473
0.0036177277
0.0498704
0.014765473
-0.019110203
-0.0645552
-0.059992276
0.026604831
0.02169438
0.010507041
0.026716368
-0.03993083
0.04982345
0.0015607718
-0.046958566
0.023088016
-0.04191978
-0.051454592
-0.018638726
-0.00025903562
0.05621698
0.00091579155
0.03837865
-0.029831856
0.018106189
-0.024686556
0.06309983
-0.033845145
0.009568209
0.009964199
-0.042540163
0.053109337
0.07323978
-0.047057092
0.02985567
0.020956215
0.06341613
0.0674715
0.06684628
-0.0048234086
0.019533828
0.019491538
0.05629243
0.04812365
0.011765518
-0.04027764
0.054364577
-0.06432712
0.030616658
0.071843386
-0.011358776
0.053260878
-0.03781628
0.021408604
-0.033998966
-0.008274325
-0.011214765
-0.06381389
-0.03245265
0.06593511
0.04608693
0.03688724
0.05011899
0.026049715
0.0028371082
-0.06899526
-0.053773195
-0.067257896
-0.038670655
-0.064045265
0.014457979
-0.04101606
0.011450483
0.03423826
-0.026374632
-0.019448973
-0.00388967
-0.04244231
0.060092803
0.056968298
0.031231036
-0.077461526
0.042294875
-0.056078106
-0.07415515
0.0009553607
0.010931617
-0.029437404
-0.041968938
0.009023414
0.05984236
0.04621934
0.03959752
-0.004525915
0.04240494
0.047246855
-0.050684206
0.029886082
-0.029341362
0.027085772
0.06150957
-0.06696552
0.06766044
-0.010210685
-0.011480454
-0.030298287
-0.030558426
-0.065800704
-0.009055052
0.018346582
-0.009501288
-0.03356343
0.04835089
-0.061670285
0.050847948
-0.0648636
-0.061213154
-0.040591747
-0.021597737
-0.017320555
0.027339306
-0.009384472
-0.040991407
-0.06801374
-0.06333435
0.07584209
-0.018706296
-0.00912152
-0.01891947
-0.033949066
-0.0225284
0.043418907
-0.06636422
0.02822735
0.016922891
0.0032965916
0.061279602
-0.017795034
0.024620794
0.06780146
0.041401427
0.062952064
-0.021701276
-0.041754924
-0.033378966
-0.005430749
-0.063362025
0.0005390607
-0.016911818
7.863658e-05
-0.024561243
0.04146623
-0.059027992
0.01377553
0.071592666
-0.080175996
-0.018326288
-0.026217123
0.027837044
0.024831142
0.053665757
-0.05807742
-0.058646776
-0.04960713
-0.016763011
-0.05777923
0.016067343
-0.060296852
-0.022411887
0.059192456
-0.023104263
-0.03916308
-0.0012924916
-0.016899489
0.06053882
-0.03955057
-0.05810788
0.052565984
0.017404892
0.036007624
-0.06594321
-0.028028546
0.048820544
-0.02926956
0.049675602
-0.019544037
-0.014533674
0.053864352
-0.009645047
0.0050684214
-0.040556494
0.02743175
-0.034356583
0.06651025
0.020817738
-0.06691266
0.0610017
-0.033190418
-0.067748934
-0.014445053
0.033187386
0.06216194
0.031779684
0.02762956
-0.07342186
0.02480922
0.0030801413
-0.026058752
0.060487527
-0.054589827
0.047593497
-0.055509992
-0.004747909
0.035056937
0.032412577
0.030202908
-0.06807808
-0.05423226
0.021762038
0.038128592
-0.007877685
0.028430415
-0.032452397
-0.0062555005
0.014899739
0.0678192
0.0033573683
-0.010213675
0.03734883
0.05817552
0.022557579
-0.05579549
0.040517043
-0.034073498
0.031401705
0.004615395
-0.054919686
-0.027429616
-0.045490015
0.05465533
0.023552043
-0.044654544
-0.0830177
0.015117849
0.046061706
0.023167599
-0.00019720945
-0.014706027
-0.02456334
0.04233798
-0.010523627
-0.04145383
0.037002675
0.02950258
0.009641162
0.054508846
0.006007958
0.04895948
-0.016984245
0.037922546
0.019515233
-0.059799902
-0.061498743
-0.040974315
-0.026817476
-0.011918413
0.043968067
-0.014044505
0.046844807
0.016675634
-0.009451364
-0.042106554
0.03998541
-0.03566538
-0.0016919381
-0.045529447
0.011364152
0.008008262
0.054319475
0.01982102
0.021214815
0.017740732
-0.052796107
0.045049958
-0.034006093
-0.0064163925
-0.06318759
-0.024466386
0.016554575
-0.06997248
-0.07360198
-0.017226407
-0.0002536287
0.057660248
0.018981898
-0.07511509
-0.0025912784
0.01438212
-0.01571851
-0.031443086
0.011154259
-0.04758346
0.06597298
0.06177525
-0.048250172
-0.004166313
0.033613432
-0.006230017
-0.020659145
0.04716712
-0.048949085
-0.07578375
-0.05448957
-0.027264856
0.006683358
0.021023411
0.06538107
-0.018016644
0.05920401
0.022880096
-0.010584977
-0.012001127
-0.007411563
-0.039077457
-0.010357274
-0.025496988
-0.045283463
-0.022730792
0.033128686
0.0504713
0.05194448
0.04016807
0.024208348
0.024533238
0.004551596
-0.033478063
-0.059674047
0.05545229
-0.0027607365
0.041068003
-0.004483145
0.03312057
-0.03327917
0.050826736
-0.0688084
0.046266086
-9.105852e-05
-0.06485358
-0.023919554
-0.03278402
0.061447356
-0.021609463
0.016524158
-0.018754331
-0.05391353
0.06980065
0.055895336
-0.0035933303
0.0023136332
0.03665392
-0.05296886
0.06776661
0.047052663
0.046332356
-0.023028806
-0.023567399
-0.031149223
0.014142635
0.00063029473
0.049545042
0.0009570961
0.011884341
-0.056553055
-0.042803816
0.024358576
-0.010324823
0.03959367
-0.06937157
0.024873072
-0.06675889
-0.05499452
0.02573436
-0.01429686
-0.0077351304
-0.0703646
0.048054136
0.03428693
-0.011147822
0.012609725
-0.017097674
-0.019945564
-0.042475514
0.035329938
0.0066050505
-0.021812847
0.039085407
0.04105558
0.020831907
-0.0505668
0.05613895
0.031124048
0.055986583
0.008582895
0.0087529505
0.027422102
0.012365778
-0.006960342
0.011161852
0.04133729
-0.064993285
-0.010331544
-0.015078099
0.014083406
0.011321799
-0.022247802
0.045247346
-0.022934908
0.027905805
-0.00369738
0.020139152
-0.04928088
0.0016394283
0.031311482
0.025347728
0.0564967
0.020195598
-0.013081333
0.050689075
0.00639925
0.024506835
0.01051413
-0.06457117
0.07269771
-0.035742268
0.02824457
0.007548101
0.044972
-0.019055039
0.009271437
-0.055211503
-0.0026349267
0.024367418
0.019954944
0.03904682
-0.03839248
0.06426866
-0.029917497
-0.06434604
0.055105362
0.015209498
-0.0034244114
-0.05879089
-0.0073231612
-0.0066385106
0.0043740985
0.018121103
-0.01616056
0.036171895
-0.04174025
0.009672565
0.025228675
0.046568748
-0.038230307
-0.047402523
-0.018720323
0.0155967465
-0.036258142
0.010815278
0.0394096
0.04766415
-0.03274084
0.033780597
0.06900471
0.021701396
-0.03530132
-0.067935914
0.018740969
0.05677784
0.04792693
0.025607958
-0.024204018
-0.057626925
-0.07037149
0.009363447
0.062297698
0.04885459
0.059094258
0.015463768
-0.05001533
0.049925704
0.024019312
0.036154132
0.0032214588
-0.07379594
-0.044474315
0.030792834
0.020150278
-0.032000363
-0.07260776
0.06677917
0.031091034
0.0063457116
-0.06342143
-0.04956364
-0.015253815
0.047105696
0.0013281866
0.03413758
0.019433511
0.03748015
-0.039099872
0.043465123
-0.046912234
0.009841613
-0.027079519
-0.04502625
0.056072094
-0.056711573
0.052791942
-0.024759706
0.012229517
-0.017066391
0.025722697
0.056659672
-0.03430022
0.0145291565
0.050230227
-0.035298888
0.040382795
0.04351544
-0.018236818
-0.076329656
0.01318153
0.029220639
-0.051721234
0.044829752
-0.021437926
-0.03788138
-0.05916224
-0.037671246
-0.0322486
0.04352144
0.05194364
0.05553464
0.06429494
0.05780382
-0.038065057
-0.06950003
-0.058599196
0.0017351697
-0.06655239
-0.05936594
0.05453831
-0.065696955
0.016276965
0.040736802
-0.07145493
-0.04731243
0.020124888
0.050895583
-0.043429907
-0.047618683
-0.029149476
-0.04687132
0.026663959
-0.063431084
0.005100908
0.03406576
-0.03821794
0.03459119
-0.04086256
0.049767926
0.023637803
-0.06553766
-0.03851708
0.052572902
0.04520372
-0.063274495
-0.052513342
-0.05672908
-0.04822626
-0.02038896
-0.07857034
-0.020205734
-0.02029401
0.02886395
-0.06949642
0.05036946
0.026980273
0.06479208
-0.028680006
0.058585003
-0.049089715
0.04213264
-0.068375714
-0.06151663
0.027856532
-0.012487365
-0.06643333
-0.031694956
-0.03767959
-0.043411076
0.053470366
0.0045108655
0.011975356
0.04645409
0.01283005
-0.021322556
0.069223486
-0.075729966
-0.067221455
0.046102606
-0.012686209
0.05371456
0.014191732
-0.03442218
0.043050583
0.021052128
-0.036293417
-0.00092242594
-0.0133993905
-0.0015999292
0.011273147
-0.04082292
0.023884382
-0.055409264
-0.03466845
-0.072251126
-0.031468324
0.050807584
0.0065008476
-0.006559105
0.04470639
-0.00070336397
-0.022161162
0.043776326
0.032837283
-0.034768548
-0.027519843
-0.030049914
0.061486725
-0.05948186
-0.051908698
-0.028495414
-0.05730812
0.012309593
-0.06111554
0.01627094
0.059447233
0.05026685
0.041050754
-0.0077059707
0.008481423
-0.0734729
-0.018562209
-0.052789934
-0.0591651
-0.028412424
0.042098343
-0.013540351
-0.042993657
-0.04249707
0.01878436
0.01293378
0.034213483
0.043778446
-0.00938244
0.05580998
-0.06270721
-0.02482013
-0.04539381
0.057884175
0.0024640758
-0.040273726
-0.0608762
0.023663426
-0.008617028
0.0071100346
0.044165194
0.06017825
-0.057446577
0.072708234
-0.059751578
0.054167885
-0.028606327
-0.012845961
0.004218746
-0.06811797
0.06469736
0.0052329996
0.016311875
0.019967252
0.01850606
0.065720595
-0.010956388
0.04803469
-0.03284323
0.021346748
0.032826725
-0.04598739
0.043103565
0.025545783
0.042409085
0.030592917
-0.0674249
0.05234282
-0.014139829
0.0012963801
-0.042185728
-0.057315554
-0.024527747
0.033445556
0.05088315
0.00367767
-0.011082947
0.027484028
-0.0020737553
-0.0065459255
-0.034146596
-0.0021020484
0.014033523
0.038100768
0.026426751
-0.070678204
-0.0027753946
0.039010853
0.0065835323
-0.076478705
-0.0037958093
-0.013228233
-0.053821046
-0.06524104
-0.0409196
-0.016988877
0.04575885
-0.037438862
0.026626118
0.065812476
0.0511598
-0.038648374
0.011702951
0.006502885
0.037848547
0.03461005
0.04779978
-0.008905251
-0.00063008367
-0.031998258
-0.04111868
-0.03302647
0.059502088
0.056701235
0.010962171
-0.072492786
-0.062350042
-0.03395414
-0.014996979
-0.03814128
-0.053465344
-0.047597323
0.034891643
0.06377861
0.031308852
0.02678669
-0.033538282
-0.018404339
0.0377066
-0.039723255
-0.03194963
-0.033593792
0.001898483
0.066682376
-0.07708662
0.012689
-0.010481026
0.03324509
0.030008495
-0.07567921
0.033040803
0.02254712
-0.0424401
-0.06626187
-0.053421814
0.045826625
0.028590549
0.026145931
-0.0073358077
-0.027486097
-0.06992351
-0.03816656
-0.06286959
-0.026189111
0.013522071
0.01917311
0.04025566
0.0051331082
0.025821742
0.054563534
-0.01481047
0.022414222
-0.06712672
0.0253797
-0.030787237
-0.04442068
-0.04350119
0.046894047
-0.026326993
-0.035265513
0.0326315
-0.014699814
-0.058025178
0.06593501
0.029767577
0.040140916
0.012662054
0.012810799
-0.031571917
-0.016424457
-0.027994536
-0.03508372
0.067536116
-0.04966101
0.07093435
-0.07073781
0.044990808
0.058056466
-0.076736316
0.076680295
0.008578955
-0.039339174
0.025415765
0.020792613
-0.06257155
0.03487528
-0.046196226
0.014175671
0.03207999
-0.04203838
0.062075324
0.050939426
0.015360569
0.048149753
0.009296521
0.010403641
-0.012887176
0.034787793
-0.005958997
-0.01658591
-0.050148156
-0.017381879
0.018717017
0.028289787
0.048416194
0.021473585
0.006849265
0.009337684
-0.030848386
0.033779733
-0.03391766
-0.054105498
0.043501582
0.049586486
-0.03563053
0.009917432
-0.04710686
0.008578875
0.06397237
0.000851201
0.009242269
-0.06716637
0.008386174
-0.00045606733
0.030551413
0.056472003
0.05265804
-0.011892111
0.015983133
0.022336002
0.026778242
-0.042233404
0.024626598
-0.035495717
0.021514319
-0.042917997
0.0074181403
-0.075150006
0.001702912
0.0426879
0.05534328
0.013868295
0.012844029
0.017585423
0.06129917
0.039168343
0.01680966
0.004543352
0.061331503
0.06496784
-0.022158857
-0.0665868
0.05851394
0.04946841
0.018909886
-0.010966856
0.04718563
0.043782335
0.036434446
0.010805838
0.028220726
0.016430326
0.011758782
-0.047970675
-0.0055928235
0.020429522
-0.060848705
-0.05678818
0.021594893
-0.028276276
0.008261319
0.028398115
0.049681142
0.004579764
-0.038546044
-0.054715414
0.05792577
0.040742144
0.06179152
0.0021750336
-0.06591124
-0.05993157
0.04199828
0.00829498
-0.024724856
-0.05470846
-0.03949877
-0.047102895
0.0071487864
-0.069394134
-0.053383134
0.00088854
-0.04641019
0.0026044608
0.03281302
0.0036285997
-0.01903893
-0.051399726
0.033043846
0.023185603
-0.020310067
0.059249513
-0.06054769
-0.047492422
-0.053251237
0.033786446
-0.06573669
-0.025644613
0.02891674
0.011205275
-0.005642108
-0.06422797
-0.05426763
-5.0466086e-05
0.008197204
0.05838065
0.05290507
0.03300003
-0.010663144
-0.04428333
0.008240863
-0.06327054
0.018233139
-0.029195724
-0.00041622765
-0.05287131
0.06705615
-0.029695392
0.038136505
0.020368554
0.0027530985
0.031323254
-0.06530942
0.04189043
0.026061907
-0.042996097
-0.0051266868
-0.058575653
0.013848286
0.023721784
-0.051524177
0.05062853
0.015538381
0.031760525
0.029651841
0.015054351
-0.002541187
-0.06479409
0.05889068
0.007177043
-0.06026142
-0.013051443
-0.06003223
0.06436677
0.016408496
0.019529141
-0.025445808
0.019348852
0.06890831
-0.050485216
-0.03379321
0.052268915
-0.026375175
-0.07099789
0.05335689
0.06591183
0.029237956
0.0031348246
-0.05930135
-0.058269598
0.03545977
0.026555866
0.007375619
-0.05723672
0.0013128476
0.009620369
-0.03708356
0.019118764
-0.07085729
-0.013022074
-0.028240837
0.01848448
0.031662133
0.06561718
0.04913457
0.011808041
-0.062349916
-0.06421686
0.057007313
-0.024247922
-0.061235487
0.05621158
-0.057962958
0.0034981163
-0.07529849
-0.020835096
-0.06667444
-0.014917823
0.057810493
0.05046214
-0.024174236
-0.06796028
-0.038215153
-0.03620662
-0.050740596
-0.018492052
-0.00024634297
-0.04762892
0.011922049
-0.0047170697
-0.049653336
-0.004835425
-0.047231946
0.00070316653
0.04628218
-0.051263556
-0.055971958
-0.0059982664
-0.011240053
0.065643266
0.056872156
-0.013593368
0.011254843
0.0042832275
-0.049986918
-0.046582688
-0.08063845
-0.035294004
-0.048755936
-0.018223459
0.049060173
-0.022004122
-0.03772867
0.062809534
-0.037765376
-0.034155674
-0.032002114
0.0023839881
0.032580636
-0.040851567
0.029268924
0.012674289
-0.054740816
0.004755572
-0.004896866
0.027307322
-0.000881976
0.04952407
-0.040060177
-0.0033328019
0.050854046
-0.0047095586
0.0338279
0.049987186
-0.048220824
-0.025311276
-0.00033465974
0.030665569
-0.008800994
0.059869148
-0.043802038
-0.02813549
-0.04753131
0.0465984
0.026681494
0.042222008
-0.008096386
-0.031234808
-0.05621882
0.05098763
-0.03405786
0.040305194
0.049580265
-0.036368564
0.067383826
-0.019920405
0.049289417
0.00049564376
0.03621993
0.046842277
-0.038852416
0.07068902
0.055186678
0.025697036
0.013831927
-0.015300265
-0.041453075
0.054791547
0.02512721
-0.051341027
-0.029079184
-0.016115371
-0.055351693
-0.069512874
-0.022026308
-0.06398618
0.046997577
0.058509167
-0.0024131644
-0.040231697
-0.033824276
0.013421543
0.040491436
-0.026998354
-0.07008024
0.03771971
-0.058366697
0.049657717
0.05300075
-0.010981192
-0.013508492
-0.0054183872
-0.026838802
0.027018754
-0.018186301
0.018982006
-0.02275322
-0.011705366
0.006726841
0.01054602
0.060647827
-0.021039521
-0.057983167
-0.040824264
-0.041850727
0.058978893
-0.048048675
0.06597852
0.030813348
-0.039908923
-0.004144686
-0.008646219
-0.043852773
0.012559405
0.058698423
-0.00091811595
-0.06268635
0.00565778
0.04011269
-0.034325257
-0.020369677
-0.031898662
-0.04016746
-0.06359084
-0.048653502
-0.059182625
-0.027877863
0.07345304
-0.0029116299
0.06834604
0.04747597
0.03861406
-0.052505672
0.028586203
-0.01725332
-0.066123314
-0.049544103
0.07424612
0.07177398
-0.06927526
-0.034557767
-0.021627441
-0.040050883
0.013894402
0.03326525
0.014085747
0.060841896
0.04983038
-0.023032926
-0.016537247
0.035183776
0.062368717
0.060706604
0.006149302
0.015124444
-0.0067853257
0.019596292
0.05888644
-0.01611624
-0.05231519
0.016349155
-0.043853234
0.052333806
-0.005355551
-0.070250176
-0.045482486
-0.026441688
-0.075237215
-0.00019775885
-0.031856105
-0.007615948
0.013525842
-0.009893617
0.023666602
0.017646227
-0.009508488
-0.037817527
-0.020527573
-0.034947786
0.021093668
-0.025905613
0.055140816
-0.06024838
-0.007026743
-0.054123584
-0.0392865
0.017046098
-0.0117685655
0.01442135
0.030403389
-0.028072903
-0.057863913
0.046505913
0.060641136
0.04957719
0.05235847
-0.058553156
0.017036183
0.050874103
0.031485878
-0.045351718
0.061495632
-0.01147243
0.022441937
-0.05896104
-0.06321574
-0.05726453
0.02614952
0.02908803
0.038881898
-0.045443468
-0.026927585
-0.0035203923
-0.001754907
0.07159241
-0.058297146
0.00656147
-0.014081171
0.035678964
-0.059994537
-0.075186126
0.055099163
0.0031592238
-0.06316337
-0.05645773
0.02953396
-0.041466586
-0.04399568
0.013450146
0.04156684
0.0638242
0.05355267
-0.051077165
0.045846745
-0.059575535
0.027279096
0.014478452
0.05685185
-0.047140073
0.029067196
0.019571763
0.04506205
-0.06933275
-0.01810844
-0.007459917
0.010042608
-0.023058768
0.04720525
-0.011049249
0.012600411
-0.073761135
0.06923071
-0.026662981
-0.04619232
-0.04489119
-0.011784552
0.014188597
0.06948264
0.035852555
0.02942875
-0.068137616
0.042620298
0.024763415
-0.057755463
-0.021720933
-0.04272099
-0.016114634
-0.030831315
-0.06065163
0.06095946
-0.00429183
0.026500888
0.051780183
-0.0010035135
0.03586675
0.01227882
-0.024232542
-0.04675099
-0.055827145
-0.04586497
0.037495334
-0.06907781
-0.011045624
-0.041869983
-0.060927484
0.034550123
-0.05555416
-0.018084118
0.026880516
-0.007845416
0.001548715
0.05027261
-0.06280308
-0.023568252
-0.0100734355
0.025628645
0.054694217
0.048474424
-0.061492227
0.036982965
0.026486468
0.04876049
0.03767011
-0.019887915
-0.050355602
0.026768655
-0.018659182
-0.06013579
0.02944855
0.063767806
0.008553523
0.064746395
0.035635483
0.028014885
0.023978263
0.013891654
0.06357044
-0.055006552
-0.085933685
0.076894686
-0.039757166
0.082883306
-0.05565442
-0.054270994
0.03193158
0.03435649
-0.022683777
0.052713256
-0.060536962
-0.024017747
-0.017489426
-0.046816096
0.048428036
0.043767113
-0.03147716
0.011954226
0.045190837
-0.073689386
0.05647596
-0.01829563
0.009611398
0.057177898
0.05615634
-0.053705208
-0.0768914
0.014267207
-0.02747933
-0.035928924
0.019283915
-0.018075507
-0.0152494
0.005722028
-0.018852867
0.01405902
0.05492042
0.058218297
-0.023544319
0.019705653
0.057501342
0.022070441
-0.003408691
0.0035561176
0.021246126
-0.033037838
0.048856676
-0.07068239
0.020296833
-0.05158189
0.005894817
0.037575826
-0.035360422
-0.007011877
-0.013371264
-0.029713342
0.053775053
0.019234832
0.07276243
-0.03346042
-0.047677703
-0.025685826
-0.025117537
0.026230002
-0.07238618
-0.037041888
0.01227857
0.006731058
0.0027165182
0.0004825811
-0.015207181
0.011280562
0.0045823124
0.052910287
0.06110915
0.048432767
-0.07050455
0.06226249
-0.033180214
0.03167291
-0.06212009
-0.03650371
0.038034674
0.015171756
-0.0043956563
0.010556591
0.042129204
0.037856337
0.044611927
0.06616777
0.016134245
0.034228742
-0.0062968708
-0.006315688
-0.069829345
0.060168378
-0.013673994
-0.0073383143
-0.017453333
-0.04051192
-0.016163431
-0.0671166
0.033931114
0.038835235
0.068309344
-0.027325954
-0.04910043
-0.047713075
0.02169955
-0.036490716
-0.04335297
-0.067071944
-0.07738821
0.056010567
-0.014683192
-0.009276668
0.02832102
-0.010701539
0.023066746
0.06063543
-0.026673088
-0.012453902
0.009894608
-0.039017707
-0.049191922
-0.07159765
0.07217841
0.017703613
-0.034570787
0.0352277
-0.04174797
-0.053996116
0.0044740117
-0.030881392
0.030497193
0.04674874
0.051540717
0.03613561
0.03620861
-0.045920387
-0.06091999
0.048898466
-0.013895997
0.060258392
-0.048883583
0.024980983
-0.032563694
0.041474123
0.02569188
-0.011308144
0.049707208
0.008965829
-0.04770578
-0.057501424
-5.9801077e-05
-0.0341655
0.035198767
-0.006339593
-0.03767245
-0.011985545
-0.029368425
0.05674963
0.054098897
-0.057008747
-0.06629137
-0.02232213
-0.02228954
0.0051341574
-0.012297384
-0.06752529
-0.07485793
0.044512067
-0.0143362405
-0.0606298
-0.049368653
-0.07447047
0.03180718
-0.039100546
-0.06468876
-0.05592393
-0.04215885
0.026897032
-0.045693804
7.6908895e-05
0.047787238
0.00728129
0.06455374
-0.0024669138
-0.0068621053
0.03632528
-0.033615068
-0.003482228
-0.045053307
0.013230673
0.06508083
0.06127709
0.024848629
0.039359607
0.0011657398
0.038747672
0.050305087
0.031448178
0.03300522
-0.04257963
0.058810543
0.06398353
0.014171896
-0.012845789
0.01269178
0.06823431
0.06752614
0.00806451
-0.00033931565
-0.020310257
0.010774355
-0.0636726
0.022433618
0.049187064
-0.021203889
-0.019439368
0.057045307
-0.051903367
0.013633981
-0.050752923
0.056235503
-0.0014336247
0.016848935
0.02929451
-0.039538313
0.04073009
-0.07105936
0.059378203
0.045703646
0.0048844987
0.05468221
0.056609027
0.06011999
0.057681266
-0.020765807
-0.02767332
0.025541171
0.035639286
-0.047748577
0.025529439
-0.039875858
0.065197736
0.024241436
-0.024338657
0.04738283
-0.019735986
-0.041085124
0.059475962
-0.058871713
0.030475581
0.01980687
0.031550083
0.049789533
-0.0025909296
0.03663431
0.012632006
-0.020073645
0.024860865
-0.060824152
-0.028204309
0.04414335
-0.053563327
0.05420249
-0.062768
-0.016492186
0.011931259
-0.01494109
-0.060540978
-0.0609677
0.032075267
0.05222361
0.02227529
-0.031706605
-0.05897219
-0.071381696
-0.022884427
-0.05334114
0.008024463
0.045025237
0.026641263
0.026159802
-0.031107655
-0.051942736
0.06473818
-0.030695343
0.042676695
-0.05599987
-0.05164387
0.05559596
0.026018606
-0.058656488
0.017574055
-0.01757862
-0.008147086
0.067650914
-0.011551949
-0.012222918
0.020820128
0.0671031
0.06780964
-0.04674754
-0.008568394
-0.020399095
0.034835145
-0.011800712
0.0035076418
0.031003356
0.03594797
-0.047660902
0.0037226721
0.04693622
-0.06568923
0.06417044
0.047482766
0.0248131
0.038401786
-0.030725641
-0.046873014
-0.066837765
-0.07093236
-0.012006472
-0.06905345
0.02137376
0.052543424
-0.047148574
0.062821396
0.049229484
-0.024178293
-0.017878816
-0.042025656
0.05904193
-0.06283553
0.039070807
0.039574668
-0.0333365
0.026864318
-0.009317635
0.061801232
0.02280233
-0.05513517
-0.0032153486
0.03338967
-0.0153691685
-0.07747974
0.020664727
-0.055418603
0.050658956
-0.010926338
-0.037217706
0.006647971
0.0037015479
-0.017163265
-0.06602473
-0.053632315
0.0792464
0.02570924
-0.0604925
0.0061914925
-0.05455869
-0.029893365
-0.02087489
-0.0146298865
-0.024728127
0.061980948
0.06451206
-0.005601547
-0.046910666
-0.010361422
-0.0380146
-0.016718928
-0.008142388
0.04709753
-0.039681073
-0.01206987
0.040575583
0.037326418
0.032094814
0.05846406
0.036313962
-0.03446755
0.004898405
-0.011978454
0.0134055875
-0.016513903
0.028602399
-0.027988618
-0.04781452
0.04288956
0.020493668
-0.05897366
-0.013986947
-0.06917678
0.051788416
-0.025307732
0.036910627
-0.003343874
-0.033769894
-0.00076532824
-0.04154853
-0.0367484
0.035829607
0.0053197085
0.019219935
0.06973119
0.032046653
0.059562903
0.009898248
0.032669365
0.032186523
-0.030380867
0.014368849
0.0060087373
0.06300776
0.026876304
-0.0060865553
-0.06401854
-0.044635423
-0.033435952
0.061480023
-0.010082286
0.05649148
0.05817505
-0.00951338
0.05917331
0.038701203
0.042988155
0.035928812
0.042702448
-0.05943169
0.048683118
0.024840271
0.05887325
-0.024096668
-0.045397446
-0.053201713
0.070471294
-0.05010424
-0.038206335
-0.03195791
0.034878895
0.0170366
0.005448126
-8.4610976e-05
-0.013424399
-0.0019140423
-0.014824171
-0.06585227
-0.036644723
0.028689928
0.009121791
-0.025961587
0.04560052
-0.05011251
0.007410177
0.029489987
-0.08525601
0.046806738
0.047536552
-0.059213273
0.037169397
-0.0049192365
0.027837915
-0.04956389
0.074948534
-0.0032290863
0.069605924
0.006404986
-0.05626077
-0.00808922
0.0068629785
-0.0118828425
0.035303477
-0.030926012
0.052751623
-0.04122269
-0.05168835
-0.0232167
-0.033456083
0.05337763
0.0007560993
-0.036487002
0.020402147
0.005548173
-0.0151365455
-0.043380346
0.049285576
-0.03484865
0.027239786
0.04492474
-0.033842698
0.000573663
-0.036442243
-0.01779922
-0.056608945
-0.014820257
-0.07811868
-0.025685813
0.008981051
-0.00450634
-0.0021853433
-0.02919121
0.017347626
0.07134457
0.014257097
0.04648737
0.007891042
0.07329879
0.04763354
0.020786902
0.003190727
-0.044758897
-0.04705537
-0.037084285
-0.019914927
-0.032657154
0.055879436
0.045801688
0.03397828
0.007677744
-0.023783328
-0.0501841
-0.05801981
-0.062181972
-0.0023918
0.050336663
0.025893101
0.051450912
-0.0507566
-0.031114843
-0.06553658
-0.033502847
-0.004839496
0.05237063
0.030009635
0.009852811
0.02896278
0.024586491
0.063626386
0.028008068
-0.025921976
-0.033779535
-0.018541088
-0.015422646
-0.018127372
0.0601986
-0.054021683
-0.035409827
-0.069104075
-0.05244873
-0.03889685
0.059792373
-0.009281679
0.012988709
0.033573322
-0.05295001
-0.03960524
-0.045151394
-0.04594167
-0.03693338
0.011433076
0.06201508
0.011747557
-0.03902831
0.012591041
-0.0009131422
-0.063644715
-0.06748189
-0.050457194
0.073971145
-0.053697594
0.04936983
-0.016518641
-0.043798156
0.031303853
-0.032809716
-0.0025959115
-0.026931453
0.020767095
0.050727833
-0.026194131
-0.06107423
0.04541869
-0.025517952
0.04243054
-0.067067064
0.037807047
0.06066844
-0.050734185
-0.053739153
0.0028064023
-0.005360828
-0.018743044
-0.028003208
-0.06370416
-0.07854739
0.0420737
0.04179104
-0.043842122
0.0054012057
0.0063089654
0.052375045
-0.043920204
-0.053534694
-0.054782864
0.03413409
0.036401805
-0.004717268
0.044010974
-0.033399083
0.0329914
-0.020962832
0.035010394
0.03275626
0.032673642
0.0115174735
0.050824825
-0.03368821
-0.025954708
-0.0031617302
-0.03084341
-0.04254432
-2.3187324e-05
-0.013291906
-0.07535662
-0.051833328
0.0045179455
-0.05540828
0.06548568
-0.02245089
-0.0432213
0.017037863
-0.007733854
-0.045402974
0.05588051
0.035335146
-0.05703571
-0.035102855
-0.02149353
-0.0387056
0.05017201
-0.0634754
0.0478914
-0.02656167
0.03339547
0.007039476
0.042434778
-0.025219632
-0.036040533
0.051443283
-0.012922798
0.063241675
-0.037446175
0.05692414
-0.054295387
0.035217058
-0.0039619314
-0.060358744
-0.04308589
-0.015358813
-0.063409545
0.059160326
0.013763865
0.068266764
-0.031877197
0.038098752
-0.022406625
0.06591008
0.004027179
-0.016363952
0.035978027
0.03942942
0.0041998024
0.06527493
-0.050585218
-0.03343956
-0.06151235
0.01327219
-0.027044183
0.05954138
-0.057022754
0.043506615
-0.059611984
0.045669544
-0.06322055
-0.050427638
0.03333557
-0.016106045
0.05049643
-0.06400859
-0.032583524
0.012015609
-0.045218173
0.043703448
0.044365693
0.06482668
0.0013291615
0.02099963
0.042426884
-0.01810578
-0.01425065
-0.06450362
-0.039854217
0.05322209
0.008730924
-0.052084617
-0.0041204146
0.0018287034
-0.01726579
0.003265987
0.015937576
-0.010339861
-0.0003864089
-0.058771063
-0.0022805408
-0.018523451
0.061179865
0.011653968
-0.05994889
0.0042811856
0.031896435
-0.052257936
0.023684138
-0.022170149
-0.031988844
0.04602794
0.01923857
0.03884753
-0.04448198
-0.08039165
0.061988566
-0.05711003
-0.038792342
-0.06616066
0.012968422
-0.009563381
-0.040780026
0.018512148
-0.013987055
0.06295324
-0.054482587
-0.0598266
-0.05325614
-0.016952327
-0.015166965
-0.013658426
0.022290321
0.045561794
0.03610357
-0.058961753
-0.041360985
-0.009155813
-0.059033792
-0.04803782
-0.036390748
-0.052715104
-0.037250597
-0.015911525
0.05771393
-0.07743332
-0.0055748923
-0.02641326
-0.0727578
0.017487187
0.06103534
-0.05780175
-0.040527947
0.008105591
-0.066426456
0.0031364288
-0.037551224
-0.019901196
-0.07276489
0.026015228
0.011335751
-0.002411849
-0.03496622
0.046402916
-0.024901181
0.06145465
0.06481523
-0.04988502
-0.04606437
0.017838638
0.014242732
0.020539068
-0.028896729
0.03939476
-0.053449146
0.046185568
-0.02191637
0.037351497
-0.068114564
-0.03736203
0.013163344
-0.06266492
-0.052720793
0.040251303
0.010774276
0.031896014
0.025525227
-0.048800614
-0.066219375
-0.060727563
0.011335977
-0.06576573
-0.0021969662
-0.067133375
-0.036142606
0.042629514
0.004852019
0.015880624
-0.050357293
0.0004126412
0.04410019
-0.014606109
-0.02672501
0.004708052
0.024558406
-0.0357935
-0.069366194
-0.044692192
0.011688139
-0.03798521
-0.07696504
-0.058617778
0.059981044
-0.0642506
-0.04678203
-0.0043275673
-0.0060292436
0.014774167
0.04685386
-0.050392028
-0.0557169
0.0064240047
-0.025451377
-0.017506894
0.0077258726
0.03826575
0.035634123
-0.036363896
0.010566055
-0.009479857
0.0642262
0.043038722
0.0048856842
-0.025820877
-0.020612577
-0.021112485
-0.027233008
-0.053058214
-0.031344905
-0.00979056
-0.06655023
0.030189073
0.06092727
-0.06724182
-0.020433554
0.034028675
0.038837306
-0.06865358
-0.059856195
0.046742912
-0.04233411
-0.033631753
-0.061265256
-0.06010357
-0.029709313
0.0431569
0.057517644
0.05517051
0.026386105
0.05601399
0.024952594
0.0387696
0.03607887
0.031223655
-0.04360391
-0.018035838
-0.0396466
0.036208827
-0.038954023
-0.029255584
-0.041881647
0.02169867
0.040819634
0.028978864
-0.018529726
-0.006475214
0.0021534606
-0.03985751
0.041710787
0.014546355
0.04093852
0.018701442
0.044348087
0.0669092
0.02679021
0.017534675
-0.06685359
-0.01689521
-0.068039685
-0.03928219
0.047544174
0.0136579415
-0.07429671
-0.030668711
-0.015162274
-0.039288003
0.037852004
0.051454607
0.07787509
0.061163135
0.005378644
-0.024630949
0.035475157
-0.04945588
-0.009654287
-0.057554405
-0.036388986
0.035132013
-0.07062111
-0.038894534
0.047887165
0.022347124
0.049347915
-0.030298138
-0.034817565
0.022788512
0.047910385
0.0007790212
-0.017550116
-0.047408633
0.00279746
-0.05566281
-0.034153584
0.010652063
0.028008658
0.026159443
-0.036669426
0.015136741
0.056346733
-0.045413237
-0.006149094
0.03242002
0.010542312
0.047758866
0.016482363
-0.02562583
0.017878184
0.059262257
0.014015819
-0.021733692
0.060006004
0.064033955
0.058125515
-0.062318854
0.046610825
-0.068928786
-0.06010496
0.054996748
0.06312151
0.026219252
-0.06793371
-0.039933387
0.014096235
0.022867106
0.05633137
-0.013016242
0.028829614
0.065929405
0.048511785
0.033218008
0.018897248
0.062476333
-0.03137855
0.045936935
0.05160488
-0.065849096
-0.0001224885
0.033559304
-0.06363767
-0.047977015
-0.05367343
-0.070633575
-0.029391985
-0.049114868
0.025455207
-0.014725805
0.040292457
-0.018980766
-0.059309945
-0.030545602
-0.040940735
0.0054396614
-0.03627585
0.051022995
-0.008074236
0.019506391
0.01088005
0.049313415
0.004720833
0.059226625
0.06471148
0.06648291
-0.05669851
-0.05311343
0.032103334
-0.025916573
-0.05737624
-0.037108388
0.033945292
-0.03953037
-0.004205342
-0.01121465
-0.052515466
0.072943315
0.038109764
0.058884557
0.004467923
0.066715784
-0.021930328
0.04866385
-0.0029579147
0.03743022
0.03754113
-0.009051491
-0.008581305
0.05809362
-0.06427969
0.030627565
-0.05777033
-0.06462964
0.00015890806
0.030617282
0.049279418
0.026037147
0.0141268475
0.008113852
0.043072067
0.00251511
0.069898285
-0.011732087
0.021771276
-0.030303925
-0.021816818
0.02918923
0.040219527
-0.04590238
0.024919953
0.06643341
0.0036651865
0.057604782
0.0661022
0.034295097
-0.052821204
-0.045743443
0.0126968315
-0.021083726
0.027072996
-0.019035779
-0.017721916
0.017737526
-0.049636137
0.054766342
0.07765519
0.029584136
-0.032936934
-0.05332423
0.019627063
-0.018592397
0.06869828
0.04387929
-0.011051822
-0.023385167
-0.009678197
-0.054606013
-0.039895315
0.059383925
-0.012753818
0.014200633
0.061682776
-0.012546712
0.0045343847
-0.019225141
0.04121356
0.033911362
-0.028855653
-0.04351413
0.002649805
-0.04847684
0.07608068
0.022169093
0.070931464
-0.001893355
-0.06387185
-0.06514222
-0.008082837
-0.033802755
0.049536087
-0.03741817
-0.006168932
-0.0199989
-0.024271635
0.031585988
-0.048294004
-0.0016814092
-0.04250579
-0.0028372924
0.0734568
0.0167342
-0.0729014
-0.008296855
0.029800782
0.040608864
-0.04727215
-0.018408196
0.072466165
-0.06174493
-0.005468252
-0.022488078
-0.017697144
0.022867844
0.06402589
0.002902906
-0.023827653
-0.0033988275
0.008198474
0.0033983772
-0.0026243604
-0.040614747
0.049914256
0.019407334
0.04683031
-0.022116812
-0.056802884
0.051587846
-0.0636785
0.039964527
0.02314824
-0.07062723
-0.017669803
0.022807915
-0.02567828
-0.060240682
0.007792794
0.056249764
0.015153614
0.0080111
0.035429627
0.030758549
-0.035070598
0.06494323
0.016934447
-0.021841286
-0.024414808
0.020973142
0.009264676
-0.063575305
0.020904468
0.05846765
-0.00063005945
-0.059538182
-0.0012723636
-0.039551914
0.055122618
0.007797395
0.0107016
0.06409967
0.06438373
0.007975031
0.060401317
0.015270466
0.04459006
0.03766473
-0.036710173
0.0051072114
0.0032674114
-0.07755324
0.005589267
-0.025520056
0.06614826
0.042139407
-0.022661699
0.0541513
0.054218724
-0.018233178
-0.04169367
0.0037995947
0.075540565
-0.014146917
0.025190815
-0.023652641
-0.010643712
-0.010177967
-0.035314098
0.04488142
-0.02976268
-0.06804702
-0.04895352
-0.022988906
0.043824617
0.06209751
-0.06986576
-0.04324016
0.02558453
-0.0531874
0.056069203
-0.073378734
-0.06272702
0.0119032785
0.00038532677
0.050920673
0.07276311
0.059207685
0.0136796255
0.04277228
0.013298777
-0.05915511
-0.01551989
-0.05719693
0.018313093
-0.023005178
0.04648279
-0.035191305
-0.063416414
0.022619586
-0.005799507
0.056525357
-0.063165
-0.0323463
-0.053059682
0.043927163
-0.07668743
-0.032898724
-0.020893134
-0.0416088
0.02640105
0.04001442
0.03608201
-0.056629106
0.01335325
0.017030789
-0.057199392
-0.083481215
0.01675523
0.034775764
-0.04536226
-0.055183746
0.049097262
-0.03808438
-0.031958044
-0.010752639
0.02389439
-0.015236409
-0.055396356
0.027692726
0.035242938
-0.029056773
0.040147807
-0.047673754
0.061324555
0.020455806
0.04008174
0.05372768
0.068695396
0.057523374
-0.0072573265
-0.074508615
0.039549995
0.055935774
-0.033444706
-0.04316119
-0.057704274
-0.06340599
0.04098362
-0.03804522
0.060640883
-0.0064911107
0.048506472
0.051699467
-0.057414908
0.027228132
0.044307966
-0.03192011
-0.06698542
0.044965867
-0.033166543
0.025577132
0.011156168
-0.034319703
0.028033866
-0.060048874
-0.04327076
0.042757772
-0.00045225
-0.039657764
-0.010492558
0.049284976
-0.001857696
0.008756955
-0.046318237
-0.01818546
-0.042650674
0.022786494
0.06555807
-0.002177435
-0.028812636
0.038404364
0.003504003
0.026660308
-0.02767953
-0.0026097759
-0.037547816
0.067826204
0.042728774
-0.054784235
-0.04439303
0.03640433
-0.06464381
-0.019013168
-0.061745945
-0.021221166
0.069349445
-0.05515717
0.03488185
-0.04358684
0.052853476
-0.00604735
-0.06234135
-0.029152373
0.008479445
0.047483467
0.008953955
0.04312099
0.024896264
0.054831848
-0.0025590213
-0.03833066
0.06606934
0.037058312
-0.03585203
-0.0022581744
0.035983577
-0.075979024
0.0030203124
0.06250528
-0.054752413
-0.05812129
-0.017932614
0.03493315
0.024137147
0.04362596
0.033015154
-0.08170046
-0.0029860826
-0.016893523
0.023429561
0.025778724
0.028872177
-0.031096706
-0.04601721
-0.017043231
0.012527908
0.029937826
0.05543256
-0.04318682
-0.0055192546
-0.0016987761
0.043121677
0.015061912
-0.037990965
-0.04808595
0.026990235
-0.04485382
0.05775739
0.05507463
-0.018824916
0.010332627
-0.057663184
-0.045444135
-0.026806781
-0.015689073
0.022819582
-0.037330005
0.055852845
-0.009682373
0.06285896
-0.040437847
0.014636742
-0.0023190528
-0.046037573
0.028062169
-0.049501438
-0.046678554
-0.011030779
0.04684503
-0.0059171384
0.059964456
0.010159071
-0.032287423
0.0023836067
0.01316836
-0.02181897
-0.069231
-0.037900746
0.03936488
-0.020665824
-0.07818928
-0.041128818
-0.031739514
0.055451736
-0.06339295
0.016023014
-0.035539445
-0.05126627
0.033652045
0.0037307953
0.06518137
0.0024680297
-0.06266611
0.027227756
0.014176671
-0.030858885
0.023339055
-0.060538903
-0.058535643
-0.022379752
0.04429032
-0.023072712
0.05895952
-0.05092097
-0.012483656
0.040857196
-0.06815327
0.027643759
-0.014897296
-0.046660833
0.037632473
0.029757487
0.035344016
-0.044433173
0.002123128
0.05979046
0.03406071
0.042503525
-0.062091563
-0.08783077
0.032004245
-0.045488086
0.0063772406
-0.054335944
0.035405397
0.030004013
-0.037918143
-0.008863203
-0.018098025
0.032853678
-0.026374305
-0.025225306
0.0020801704
0.028258828
0.017871074
0.046465088
-0.027129808
-0.009297046
-0.003121331
-0.044103004
0.03231978
0.00915672
0.051188674
-0.009360173
-0.0072567067
-0.06935568
0.030405903
-0.042552438
-0.07164022
0.0561198
0.008070014
0.0076968023
-0.022836475
-0.05128494
-0.07163287
0.016179359
0.003121788
-0.015646722
0.01184363
-0.031408835
-0.028430577
0.043971118
0.052950438
-0.023562422
0.014775114
-0.038149633
0.008609021
-0.013616678
0.07425863
-0.06513148
-0.020101255
0.0701243
-0.06829852
-0.06979378
-0.04766862
-0.05330411
-0.026970087
-0.06907231
0.020476755
-0.00035845637
0.017311202
-0.021791706
0.016286219
0.0705671
-0.035815135
-0.07848649
0.030760182
-0.058952097
-0.02227007
0.048726507
-0.032437366
0.00940149
0.012855235
-0.06330036
0.064711064
0.05958944
-0.06717338
-0.054608528
0.06147406
0.01244365
-0.0060492954
0.03226926
0.011024545
0.026816063
-0.013857437
0.069368415
0.06503414
0.028532017
0.009055836
-0.07464402
-0.055332042
-0.062638156
0.010382937
-0.0010175889
-0.027092187
0.052849174
-0.045080118
0.06475355
-0.06902333
-0.07344898
-0.023424666
0.019228145
0.04025923
0.058694348
-0.041963927
0.0665087
0.01515538
0.008934895
-0.0403514
-0.04054866
-0.019251782
0.060556132
-0.045092147
0.007917677
0.032741137
-0.040194068
-0.024091676
0.060178366
-0.056150895
-0.044627585
-0.026442328
-0.06524653
-0.07741353
0.04532787
0.069392934
0.00036778234
0.07316831
-0.0037887425
-0.07290408
-0.010879793
0.024594644
0.0012797101
-0.01708455
0.03656265
0.017948108
0.043694057
0.040392872
-0.010033302
0.058795378
0.059766535
0.01696256
0.037239723
0.0070141056
-0.05715571
-0.06059751
0.049189426
-0.059191626
-0.009407035
0.006120254
-0.0739397
-0.04389056
-0.045084663
-0.008047948
0.012446366
-0.044219397
0.023946323
0.043376006
0.039806034
-0.07158518
-0.040452763
-0.030368788
-0.069283806
0.033396196
0.017030053
-0.08113996
0.028192714
0.04831662
0.002050887
0.03515099
-0.058328394
-0.06313841
0.06812722
0.008628836
0.024160648
-0.011918801
-0.002562999
-0.0034531886
-0.04750052
-0.036032062
0.055842277
-0.015000351
0.0076344097
-0.03285057
0.033091974
0.027781678
0.0059798
-0.02184926
-0.0780935
-0.053851347
-0.024867395
0.054331373
0.015072077
0.014099091
-0.044018228
-0.063998275
-0.017740527
-0.023554482
0.07830973
0.004137954
0.02502893
0.005702164
-0.07375194
0.03168451
0.044736832
-0.07815596
0.032067914
0.0701453
0.02661857
-0.013055503
-0.019273046
0.01247979
-0.05139374
-0.021278687
-0.014973067
0.0026291695
0.04231952
-0.006352942
-0.036716767
0.07111902
-0.029049454
-0.04349744
-0.033997662
-0.06853616
0.0408418
-0.060869098
-0.039912507
0.05110948
0.029901223
0.04929356
0.035483602
-0.042075362
-0.059707433
0.01236452
0.005390897
-0.026604429
-0.006955696
0.058612175
-0.033083767
0.0043844515
0.016622752
-0.05329961
-0.060282215
-0.014307732
0.044655126
-0.047334246
-0.03895469
0.026359905
0.01672891
-0.05843904
0.06659547
0.019788323
-0.06371058
-0.014615319
0.030335678
0.0033385563
0.059452172
0.051201276
0.026359366
-0.037437335
-0.010503458
0.0662674
0.050866295
0.020370878
0.008371673
0.016289053
-0.0050978963
-0.060912818
0.044133153
-0.040026687
-0.045765307
-0.04790642
0.009717032
-0.052940816
0.062631875
-0.0017780832
0.009198193
-0.030273749
-0.0605457
0.035609633
0.06479082
0.030487318
0.033201125
0.027473537
0.033899907
-0.028769827
0.035377797
-0.014560876
-0.024846062
-0.009992012
-0.047429018
0.01671552
0.015452331
-0.07165607
0.006436897
-0.07273898
0.04379878
0.020938767
0.045951016
0.062277403
0.013292976
0.053463187
-0.0401965
0.014258688
0.009781936
0.025157403
0.02581031
0.017142449
0.016112786
0.003373958
0.030984383
-0.055617865
-0.001049443
0.018261561
-0.040867817
0.05260267
-0.058627434
-0.027821753
-0.0022219098
-0.035938557
-0.029612074
0.030736506
-0.051700614
0.029726347
-0.009759609
0.052025594
-0.0017249064
-0.048277054
-0.027378745
0.052453663
0.044185173
-0.06048674
0.015490817
0.02838815
-0.016865334
-0.05672512
0.03173266
0.049011845
-0.014445048
0.011812393
0.055516846
0.022739995
0.05368787
-0.011554914
0.06545675
-0.06256311
-0.016306989
-0.008009824
0.014848807
-0.004377294
0.0013388882
0.0012188217
-0.03714838
-0.036865477
-0.02941306
0.068416096
-0.028213793
-0.0139277335
-0.009670051
-0.04572667
-0.02456421
0.032751437
0.016457565
-0.0053554084
0.051789522
-0.026077736
-0.01065354
0.015410567
0.036965042
0.010235634
0.02455697
-0.040703405
0.04719108
-0.048594613
0.0046855644
0.00050752994
-0.014008514
-0.059203234
-0.036277294
-0.010935384
-0.020998053
0.05438178
0.032819096
0.021942038
-0.022129744
-0.07433145
0.06916222
0.069931656
0.05524339
0.024550717
0.061353717
0.014189442
-0.052124903
0.058667187
-0.049731486
0.035453722
-0.02449462
-0.043220073
-0.016293947
0.057750598
0.04955642
0.0032725614
-0.010903993
-0.01821879
-0.02485368
0.013393482
-0.04299039
0.038036767
-0.06843738
-0.048913505
0.0052936636
0.060394324
-0.0027648793
-0.04798978
-0.026585737
-0.027407281
-0.002711426
0.008675002
-0.02079582
0.030191613
0.026263267
0.06471447
0.023944901
-0.05400172
-0.028335704
0.012399637
-0.015572023
-0.027774291
0.073573716
-0.015588132
-0.073789395
-0.06258137
0.03398761
0.04014693
-0.0016289894
-0.0071536186
-0.018558884
-0.030532358
0.025606554
-0.030173276
-0.040096324
0.045139536
0.0021509947
0.06016609
0.05379474
-0.053825878
-0.051896024
-0.04657237
0.028221097
0.041020703
0.028132226
0.063299134
-0.02136548
0.04791059
0.052366003
0.073286705
0.04627781
-0.0042523458
0.060372964
0.0027333742
0.030469254
0.067257866
0.017804412
0.0129408045
-0.027494866
0.0017311556
0.07681492
0.01153587
-0.005703811
0.01712877
-0.0023986942
-0.05203336
0.029855546
-0.02718692
0.007336142
0.047858268
-0.03064878
0.055645343
0.05538763
-0.054610465
0.06168761
-0.03295323
-0.040863305
0.010505475
0.056711484
-0.034767114
-0.018341783
0.018010816
0.028970942
-0.010943374
0.056213226
0.010861278
0.03466726
-0.036833916
-0.0015542646
-0.065674216
-0.040673092
0.028726565
-0.014207301
-0.018504053
0.07236054
-0.019567203
0.01674768
-0.06349132
-0.012302426
0.06627127
0.011504645
0.025330046
0.030517926
-0.010204813
0.054491624
-0.055021908
0.0059756255
-0.05517201
-0.005444269
-0.010890481
0.041209362
-0.062099878
0.06827601
-0.034280855
-0.0075896936
-0.02500512
-0.020107705
-0.02557815
0.03923036
-0.04623061
0.06791431
0.02039899
-0.0155967325
-0.02356306
0.07762788
-0.049072478
-0.022236435
0.037642907
-0.06679778
-0.046639822
-0.034191534
-0.029355766
-0.051190034
-0.0543284
0.05326583
0.040462565
0.028917046
0.05423281
-0.043601952
0.0711396
0.0082196845
0.06948895
0.030468015
-0.0020658819
0.07134484
0.061344203
-0.054111492
0.02090566
0.0071638166
0.013037448
0.034470532
-0.023116108
0.030415718
0.0324675
-0.031952195
-0.010661418
0.02406107
0.021392088
-0.057752118
0.014166656
-0.06184595
0.0049495576
-0.012356813
-0.004523697
-0.026869064
-0.0644017
0.027627034
-0.025574232
-0.0604222
0.030944828
0.039910194
0.012336613
0.04462311
-0.017419016
0.026443603
0.025700653
0.054753996
0.068441644
-0.05572775
-0.054533895
-0.007388952
0.062134765
-0.018324073
-0.04328697
0.052893057
0.054491386
0.0063727084
0.069272086
-0.03119751
0.042742513
-0.037219822
-0.005815323
-0.042388387
-0.047212448
-0.05725711
0.011144371
0.05181812
0.026942706
-0.0023161776
0.038778953
0.013363599
0.030439569
0.037080735
-0.017165992
-0.014418461
-0.0069796536
0.0028668526
-0.079229884
0.05059119
0.022925079
-0.005927779
-0.030129509
0.071371615
0.01873651
0.033975277
0.06714032
0.0065673734
-0.045845326
-0.020558638
0.012030169
-0.016302373
-0.07019303
-0.056520548
0.05603514
0.047020536
0.022343328
0.023599897
-0.0217908
-0.05659918
-0.02752825
0.04556639
0.015762195
0.047602408
0.052814253
0.064232156
0.01764866
0.02166216
0.031777184
0.0108191
0.007692601
-0.052257773
-0.045561172
-0.020501912
-0.05216672
0.004908946
-0.02736789
0.06174321
0.019343667
0.010718395
-0.0353005
-0.0023861951
0.04256632
0.05785962
0.0522439
-0.014060356
-0.037721023
-0.020462686
-0.077047735
0.05075171
0.073311485
0.06648464
0.034478404
0.06378159
0.054992087
-0.039880704
0.015296473
0.072527364
-0.032477874
0.07432026
0.071596734
0.053476073
-0.05294135
0.025074443
0.061793193
0.06584418
-0.0031938432
0.019060738
-0.051695094
-0.022252332
0.019028852
-0.029225765
-0.024422579
-0.028079867
0.0043714987
0.011351718
-0.051830176
0.050587226
-0.0006353419
-0.054882273
-0.011019923
0.028761042
0.015476796
0.006035728
-0.06225942
-0.044251267
0.06973526
0.06380492
-0.00732342
0.056713145
0.033912502
0.010331374
-0.0009626163
-0.009651565
0.048317395
0.06536763
0.071086556
-0.050731402
0.0168548
0.055980332
-0.034021337
-0.03726738
0.002659103
0.06778812
0.0355011
-0.03667549
0.016952002
0.041665033
-0.0005392148
0.0703443
0.028554615
0.030859368
-0.039681792
-0.023480052
-0.047898713
0.031474978
-0.006431396
0.05334333
-0.010051794
0.0009262223
-0.02606048
0.030446487
-0.011380608
-0.026707763
0.041195683
0.028897254
0.017351618
0.0029934405
-0.04738929
-0.030483399
-0.0064036446
-0.016890755
-0.00062326185
0.021121886
0.021594059
-0.026491933
0.029225703
-0.07087329
0.011647634
0.0012121374
-0.06341849
-0.041507863
0.05850595
0.011853751
0.012167294
-0.0696088
-0.046390966
-0.048486084
0.022334695
0.02049445
-0.06564857
-0.04324549
0.0377988
0.03597464
0.041208267
-0.07704514
-0.044723995
-0.046646077
-0.024614198
0.041426156
-0.0613361
-0.052953497
-0.052078072
0.011487817
-0.06769285
-0.05824967
0.022110859
0.057728477
-0.031479627
-0.028692018
-0.0015750045
-0.03338754
0.03680732
0.050793506
0.037604872
-0.00037046132
0.042444456
0.016798886
0.028494531
-0.06980072
-0.026016807
-0.037588753
0.05639681
0.010939175
-0.01041885
0.018617673
0.018384997
0.020327998
-0.056298856
0.017152926
0.04889886
-0.039972104
-0.03125916
-0.06923572
-0.011986308
0.0400901
-0.04996307
-0.040141348
-0.07957104
-0.07711536
0.050153464
-0.0077865347
0.049132124
0.020091286
0.029515075
0.061823852
-0.024975704
0.04992539
0.04497566
0.046479296
0.03127234
0.07040551
0.0030128334
0.06649206
-0.016934196
0.05213256
0.04450626
0.003002451
-0.018087726
-0.0338096
0.021910856
0.022770101
0.022081304
0.06840899
-0.060514174
0.056698613
-0.057761043
0.06335461
0.01944837
-0.018196438
0.00941991
0.017942986
-0.060304414
0.0100644035
-0.050247315
-0.04928388
0.05023576
0.032882117
-0.02777679
-0.03078576
0.034620963
0.006393665
0.035031896
-0.017535772
-0.067656025
-0.0807412
-0.07565665
-0.053009946
-0.053073842
0.017380785
-0.020515148
0.04748464
-0.036288105
-0.025646003
0.052549854
0.07397432
-0.029868986
-0.06959646
-0.03993715
0.007121725
-0.0368897
0.03250366
-0.037396677
0.03882259
0.05354035
-0.055854946
0.0041842354
-0.04335793
0.035048615
0.007080929
-0.06416228
-0.0032807318
-0.042799953
-0.028112084
0.002088734
0.0077994736
-0.0323866
-0.02281095
-0.047531605
0.021457048
0.05588652
0.039385628
-0.05894129
-0.0032284118
-0.0014400065
0.058453772
0.031688545
0.03877193
0.011712193
0.060972903
0.029150473
0.045472037
0.023292894
0.018608568
0.05286639
0.047368918
0.049487315
0.0099928435
0.005866368
0.053465474
0.00039507347
-0.032321118
-0.052749276
-0.008429096
-0.0441519
-0.0053160028
-0.021502031
0.0077466476
0.02206847
0.0040474576
-0.0021261286
-0.06645579
-0.042097364
0.05766889
0.039320804
-0.013814085
-0.053444337
-0.02078309
0.014512845
0.0117597375
0.0069146035
0.04798167
0.017329438
0.010912101
-0.007681446
-0.008486145
-0.049421083
-0.04618118
0.015968975
0.052401498
-0.035464574
0.03710103
-0.02961595
-0.060410075
-0.033258546
-0.01777663
0.031023037
-0.040928777
-0.01840461
-0.0155084515
0.009892403
0.013003306
-0.040691964
-0.057672318
0.06858808
-0.058710285
-0.009684314
-0.06142668
0.06112887
-0.011532688
0.055780575
-0.011699212
-0.015525429
-0.07310543
-0.015693927
0.06346865
0.02348089
0.00048688205
-0.017794339
-0.018413356
0.0034523665
-0.010956222
0.041611835
-0.050064236
0.024397038
0.023894379
0.036788907
-0.06405033
-0.008404586
0.0036653574
-0.021896506
0.012005234
0.002341946
0.043157753
0.045131
-0.0054549742
-0.047255237
0.013691041
-0.029162854
0.030040568
0.055580836
-0.02114682
0.002610371
0.052737486
-0.024285775
-0.047811985
0.009146248
-0.013830001
0.018512107
-0.027393654
0.045528084
0.023270756
-0.052082807
0.006877418
-0.054853283
-0.005053882
-0.06939169
-0.04355025
-0.010970621
-0.041392643
0.059568368
0.0084926095
0.060779877
-0.041850716
-0.027389953
-0.04885909
0.052272797
-0.032510735
-0.041740507
0.012206232
0.052480657
-0.0103255045
0.0398253
0.059851322
0.05199418
0.022912838
-0.011842968
-0.0033390068
-0.053209197
-0.017198365
-0.011524611
0.037951246
0.061117798
0.045414817
-0.05301282
0.0206359
-0.058087967
-0.01138861
-0.00647142
0.019538028
-0.06112449
0.0010106209
-0.057159405
0.0041034473
-0.022215294
0.04650019
-0.05853222
-0.073728725
-0.016907183
0.05592992
-0.0058396873
-0.030551972
0.03722202
0.033313323
0.031548936
0.08060758
-0.03590803
0.05750737
0.019611105
-0.008564135
-0.04353077
0.016127333
0.018362056
0.018732196
-0.054456886
-0.007887745
-0.056505125
0.063154176
0.0052405973
0.04076309
-0.05635708
0.0597149
-0.06711299
-0.015954187
0.03585114
0.02147061
-0.04995002
-0.010825571
-0.011960238
0.06856571
0.06413306
0.03993167
-0.03996951
-0.026132647
-0.025985783
-0.0711901
-0.0013912322
0.049507268
0.050898377
-0.018720735
-0.027752915
0.009540972
-0.031778436
-0.04099164
0.035538655
-0.025447095
0.034345616
0.0052568545
-0.0035555025
-0.06926491
8.6295986e-05
0.067675196
0.0047004083
0.020366456
-0.030244095
-0.027147127
-0.04501502
0.013951248
-0.0049663926
0.026495982
-0.06062477
-0.0049333484
0.05496547
-0.049502924
-0.0005195672
-0.00048477214
-0.0013062357
-0.0063395924
-0.019318292
-0.06885613
-0.015293505
-0.057649564
-0.057972714
-0.07348318
0.009990544
0.020524083
-0.031798325
-0.015924858
0.015519017
-0.05735856
-0.018772926
-0.012505922
-0.04281417
-0.07601884
0.027054962
-0.016229779
0.043956246
0.06787259
-0.020636786
0.010507272
-0.009368523
0.030015975
0.025149506
0.0002930192
-0.06385408
-0.045775518
-0.022844877
-0.044777367
0.072002284
-0.0151467705
-0.055016004
-0.035875253
0.073166616
-0.02228963
-0.016852813
-0.020316197
-0.029585293
-0.050821807
0.04068747
-0.047767337
-0.0361818
-0.06530538
0.06350826
0.08591401
-0.05342202
0.06026295
-0.03039826
-0.022753693
-0.016023368
0.019469203
-0.049809292
-0.072414435
0.013117108
-0.052017994
-0.054704774
0.06574092
-0.06508285
0.036223993
-0.018153928
0.07743052
-0.060673602
-0.027381744
0.017354205
0.054505415
-0.053486116
-0.03539314
-0.07233392
-0.035406295
0.025183
0.008304902
-0.0059663216
-0.0634754
-0.039445676
-0.05428517
-0.0037560957
-0.06713096
-0.034698583
-0.044315714
0.036804903
0.05629613
0.03370686
0.019938651
-0.034708563
-0.05518115
0.028517896
-0.012654762
-0.034357287
0.055278752
-0.038823716
-0.028303869
-0.03898843
0.039616033
-0.003893032
-0.0688249
0.017570635
0.0013933899
-0.024544597
0.0118558705
-0.030260984
0.0037983533
-0.013191994
-0.061572894
-0.041796997
0.04259694
0.019868964
0.02739777
-0.05120076
0.050879415
-0.041593328
0.037366774
-0.037517566
-0.054242957
-0.019840408
0.04900457
-0.02984251
-0.035930037
-0.027529141
0.038345046
-0.032788154
-0.05753737
0.012363298
-0.012379002
0.0146727925
-0.06678742
0.065547705
-0.051911417
-0.06285051
0.060775064
-0.051868223
0.013922358
0.033201564
0.035996184
-0.039566927
-0.061991792
-0.038067594
0.061116464
0.015242609
0.061757658
0.02014154
0.007003642
-0.078890435
-0.05994471
0.048073057
0.027052881
-0.02365786
-0.06654228
0.060562097
-0.0577796
1.654374e-05
-0.026478712
0.044877626
0.058857556
0.009070692
-0.014154665
-0.035348553
-0.038944922
-0.068091825
0.018851105
0.07386348
-0.028660892
-0.05479525
0.002891419
0.03174942
-0.0539876
0.014648014
-0.061032325
-0.008832227
0.07270297
-0.07291783
0.07266803
0.0038487767
-0.010953455
0.012434583
0.0402276
0.056919727
-0.0640265
0.032501485
-0.058657866
-0.0045679198
0.046964176
0.02971349
0.06557399
-0.05144218
-0.058234047
-0.030414967
0.05660776
0.07513831
0.004827629
0.06937565
-0.03930728
-0.06917048
0.061553277
0.001280705
-0.06315117
-0.033614337
-0.05811948
0.035047736
-0.038101662
-0.00063795625
0.008731616
0.039391413
-0.046257336
0.0066290116
0.047685694
-0.06322121
-0.0592884
-0.060164865
0.025411587
-0.03567356
-0.0044130497
-0.03172524
-0.0036871126
0.012630127
-0.020095617
-0.07209425
0.0124672605
-0.0018703054
0.059257165
-0.025003497
0.058345556
0.063091174
-0.027017161
-0.02742746
0.007608614
-0.047912
0.05604612
0.03860259
0.054270227
0.030863397
-0.0092203645
0.018911399
-0.05617876
-0.058973227
0.02401006
-0.061232924
-0.042792264
0.023607217
0.061547656
-0.055513646
0.0135050835
0.012993018
0.045206167
-0.022500392
0.050174933
0.0073674903
0.009144758
0.01468314
0.010509928
-0.036338896
0.023705997
-0.06911395
-0.008390054
0.032211073
0.059533942
0.057982843
0.013061521
0.0029113933
0.05643762
-0.02497709
0.019609319
-0.01819968
-0.013824278
-0.065817036
0.057329014
0.0436039
-0.04070935
-0.023359442
-0.03961326
0.00015776197
-0.0031352043
0.047771517
0.06487519
0.0097378045
-0.054185063
0.048483532
0.024093261
0.014774668
-0.008668825
0.02287001
0.01837719
-0.04914685
0.0708107
-0.039157096
0.038448717
0.03245739
-0.037793554
0.02444151
-0.06708614
-0.041999254
-0.026774324
-0.017831052
-0.025536278
-0.0007925459
0.07351772
-0.0010674085
0.013779265
0.07128977
-0.019303216
-0.050763976
0.04452131
0.022856383
-0.0017424235
0.013483533
0.07536029
-0.062406365
-0.034232106
-0.069545284
-0.0044930573
0.029344525
0.05780675
-0.04803673
-0.034000635
0.04885892
-0.043064397
-0.028409444
-0.0063766823
0.050811697
0.036205903
-0.05056265
0.025205182
0.056065165
0.01557389
-0.02854139
-0.060540818
-0.0067958403
-0.075371124
-0.05240498
0.017265476
0.003452162
-0.01650545
0.06377486
-0.00025708298
-0.01856251
-0.016662886
0.056885015
-0.013188991
-0.049968727
-0.03836722
-0.052554086
-0.03352539
-0.063011356
0.009401073
0.017619323
-0.015778292
0.0746152
0.023352643
-0.008115676
0.043937694
-0.0387439
-0.053707685
0.0425766
0.04811585
-0.064572506
0.07369542
0.02243634
-0.039623026
0.05618327
-0.07130726
-0.009255037
0.0124472855
-0.05899456
0.039129462
0.041979015
0.058147762
-0.01645889
0.019945335
0.054902785
-0.013692819
-0.064564146
-0.0062500006
-0.063865595
-0.05056285
0.0064019724
0.037160236
-0.016594548
-0.06166851
-0.0026443955
-0.039230328
0.041013382
-0.04307174
0.0008234615
-0.06704399
0.026593106
0.0417842
-0.06772182
0.023245938
-0.04671598
0.061411377
0.06056689
-0.04152917
0.022434838
0.050407764
0.028072793
0.024355864
0.029931208
0.0075309426
0.06079959
-0.06723353
0.07064621
-0.0052268608
-0.011002448
-0.0006633339
-0.031808183
0.055834483
-0.025582498
-0.018320983
-0.01600747
-0.06426325
0.02625813
0.04465385
-0.03551399
-0.05012706
0.038053192
-0.009748398
-0.06329041
-0.019346388
-0.022152815
0.038276367
0.022693202
-0.022588588
-0.016257254
0.047406953
-0.040048882
-0.00092014525
-0.057237744
0.056233827
-0.023514235
-0.03996534
-0.0176507
0.044864357
-0.043293536
-0.02674977
-0.071471706
-0.02276218
0.0027553313
0.0019804765
0.017196797
0.051613696
0.01950732
0.03203338
0.020605193
0.023671472
-0.0047843903
-0.033054657
-0.008388041
0.04977787
0.0703519
0.015004155
0.015388549
0.01525396
-0.048122812
-0.06976167
-0.0438141
0.019982634
-0.0008411676
0.013653861
-0.067644514
-0.001337508
0.02209613
0.020614471
0.05935252
-0.057273522
-0.06633975
0.04006392
-0.015980434
-0.054024573
0.03708422
0.029389074
-0.028310409
-0.06671823
0.005529018
-0.03617345
-0.039965823
0.046922952
-0.0028121006
0.0192886
0.044608686
-0.05952497
0.021045282
-0.05528515
-0.013213494
0.048927397
0.0013123121
0.056779966
-0.0134630855
-0.009537619
-0.0462473
-0.033373185
-0.06654229
-0.028688882
0.03255829
0.00774254
-0.0641674
0.050270263
0.0012126751
0.03490528
-0.07535186
-0.053900618
-0.062179673
0.069541365
-0.05301739
-0.016712682
0.026583714
-0.061986223
-0.06738532
-0.024134481
0.013014868
0.0649968
0.023082998
-0.060790483
-0.03476444
-0.016886018
0.06022165
-0.0017358449
-0.04870412
0.03365267
-0.03173614
0.009833955
-0.06672153
0.05177765
0.0031173683
-0.058137495
0.006039262
0.06329674
0.03629709
-0.008466681
0.025048701
-1.1307194e-05
0.040861536
-0.041622397
-0.053873904
0.024288319
0.061216082
-0.017817564
-0.013070184
0.063606314
0.03258143
-0.027208298
0.007867218
-0.04355405
-0.03461274
-0.03621369
-0.030581616
-0.07084018
-0.038296193
-0.054843567
0.040709622
-0.04301821
0.04146765
0.0580808
-0.04686268
-0.031168206
0.0070889746
0.031035747
-0.07011469
-0.039872266
-0.036228634
-0.02378632
-0.073388
0.005168279
0.03767861
0.049007453
0.049887415
0.010822906
-0.010903387
0.066933975
0.044301383
-0.03687534
0.006346231
-0.048506588
0.042858526
-0.006777893
0.011813941
0.011556589
-0.06773083
-0.045694914
0.061304543
-0.06895528
-0.0634123
-0.011709003
-0.016148372
-0.015159959
-0.028921233
0.01632614
0.055058394
-0.03973718
-0.017097075
0.045654982
-0.01309623
-0.050175514
-0.064944245
-0.0503118
0.061279483
0.04905416
0.05565268
0.04950007
0.023226539
0.01695328
-0.034195013
-0.019525912
0.016453722
0.036478337
0.024033004
0.037626043
-0.05104575
-0.012351293
0.018903771
0.03495938
-0.04712824
-0.069622725
0.02960981
0.006951383
-0.024810951
0.023849286
0.00018198864
0.06143542
-0.019897144
-0.0047777453
-0.021275517
0.051652223
0.014242543
0.043443523
-0.042179205
-0.067135066
0.0065909117
-0.013989328
-0.0047269776
-0.008481106
-0.05081068
-0.046321396
0.041385043
0.06469121
0.06845906
0.02913585
-0.017465658
0.021557035
-0.04858779
-0.011740589
-0.051501654
0.043139443
0.05077198
0.0619033
-0.012564503
0.046937943
0.036913488
-0.0130217895
0.039915055
0.06467908
0.0014959961
-0.06000218
-0.060041487
-0.016103743
-0.013351451
0.033622015
-0.0374459
-0.03347667
0.006198023
-0.05833112
-0.030658325
0.044232417
0.028860217
-0.012525367
0.05085961
-0.057947297
-0.0133759
0.00817963
0.064524084
0.033265445
0.03277472
-0.049703013
-0.046103824
-0.017904872
0.025649853
0.051238537
-0.014312826
0.0070150467
0.05102783
-0.060719505
-0.064086154
0.027606238
0.009811307
0.031973764
0.0112038655
-0.074606396
0.062313505
-0.05614529
0.0381516
-0.0025169258
-0.005895778
-0.0073578134
-0.026507031
0.05747212
-0.047039643
0.04830776
0.008496255
-0.04576241
-0.011923815
-0.044043243
0.020236107
0.05990972
-0.0012205915
-0.03540982
-0.060223207
-0.024178462
-0.033746503
-0.0525269
0.047806975
-0.0041239467
-0.024476502
-0.062059596
0.0020529523
-0.058901485
-0.055211715
0.02820411
-0.023739785
-0.06698899
-0.040422186
-0.02222681
-0.06420233
-0.03727951
-0.07349871
0.014826847
-0.029540816
0.031415645
0.046688255
-0.051339023
0.038687106
0.040877827
-0.06637379
-0.053830475
0.05857368
0.054683845
0.022008516
0.046405703
-0.030571392
0.0042090514
-0.038959555
0.02080863
-0.02033404
-0.0077569853
0.049949054
-0.048215926
0.009845755
-0.032777548
0.016996542
-0.025123436
-0.054093223
-0.01505976
0.024520157
-0.024176534
-0.038655806
0.022937613
0.03969772
0.03376826
-0.046868365
0.045153115
-0.05040408
-0.010111886
0.020690188
-0.02031455
-0.02509108
-0.044714697
-0.0050201206
-0.011003899
0.012578196
-0.02160232
0.010011892
-0.045767833
-0.038860206
0.07000067
0.019319957
0.038844142
-0.047377694
0.010115744
-0.026557228
0.029322548
-0.05460461
-0.03913187
-0.00592379
-0.054069083
-0.023923963
0.0066962964
0.014824562
0.010346941
0.048856746
0.040282033
-0.064542025
-0.051764213
0.023214001
-0.0036316663
0.04670695
0.0028793511
-0.024724878
-0.031799473
0.06098003
-0.018584087
0.019545272
0.0633222
0.021648707
-0.07076014
-0.04152738
0.0379928
0.031222902
0.05353837
0.041968256
-0.029238435
0.037482735
-0.05140368
0.023313945
-0.0012354193
-0.026596583
0.022704875
0.01704928
0.0014602774
0.021835966
0.01716296
0.0061179744
-0.0084848
0.0073087886
0.0107859
0.0018185079
-0.03687328
-0.014882589
-0.046429202
-0.039564002
0.048324395
-0.0016389167
-0.069039546
0.03237862
0.032671195
-0.047368422
-0.047828596
0.039436832
-0.0107383095
-0.017244356
-0.019083988
-0.0056407303
-0.019732181
-0.039047893
0.04677017
0.028859612
0.051040757
0.06696132
0.014932062
0.025970438
0.037548855
0.0050783698
-0.04854012
-0.061747693
0.048840385
-0.035478797
0.029688476
-0.010138701
0.04042028
0.035395667
0.0457492
0.07743617
0.06575618
-0.018782185
0.007296302
0.041624717
-0.021706296
0.04342963
-0.05778642
-0.051684875
-0.026207922
-0.046558574
-0.042303167
-0.06272167
0.017745927
-0.010645464
0.036046278
2.5451278e-05
-0.043372203
-0.006661796
-0.051379465
-0.03592534
0.030492665
0.056650367
0.0618531
-0.04388974
-0.059724994
0.06414208
0.04468038
0.031133281
0.037173133
0.01606306
-0.044366214
-0.01288891
-0.06204155
0.06757882
-0.05385499
0.02111655
0.05816571
-0.037732832
0.051781997
-0.036660403
-0.026195401
0.08208518
-0.037151482
-0.056883298
-0.020974176
-0.063491836
0.04765146
-0.051934842
0.052155744
-0.012802306
-0.047460303
0.031800795
0.00493189
-0.038165823
-0.024089722
-0.05124383
0.06490686
0.0049405065
-0.00632309
-0.021747584
0.025771882
0.038477078
-0.03948594
0.008013416
0.057947345
-0.015993733
0.0054990333
0.069971606
0.06903766
0.051594052
0.032217115
0.026196534
-0.026717039
0.04238161
0.021954665
0.06258472
-0.06346209
0.0668575
-0.026263708
-0.04374761
0.016003419
-0.031924695
-0.055908423
0.033622816
0.030213209
0.05480757
-0.0229125
0.0072234077
-0.03434771
0.009173763
0.06650931
0.035082113
0.058141433
-0.043336682
0.027157612
0.021165475
0.0639663
0.004874523
0.0060266177
0.015527963
0.043783326
-0.03293513
-0.028023427
0.016797261
0.06057336
0.0047884327
0.06647003
0.013048629
0.051186267
0.051172905
-0.006451795
-0.03277144
0.05448106
-0.0108900145
0.00522599
0.03572216
-0.033589166
-0.00846999
0.056852054
-0.05442213
-0.003807647
0.038768444
-0.06948632
-0.027336715
-0.010724708
-0.05987515
-0.056485336
0.015275341
0.06164168
-0.020055722
0.03262503
-0.0029340764
0.009875477
-0.038625617
0.052232947
-0.061831415
0.0707727
0.028123124
0.01575327
-0.00999891
-0.023011453
-0.07106537
0.03479429
0.0057856734
0.024921136
-0.06587197
0.06266509
-0.04515537
-0.0259678
0.03844474
0.013132706
-0.002286337
-0.046421364
-0.023054017
-0.019305125
0.06416996
0.056740675
-0.06028076
0.034168445
-0.047495786
0.07320494
0.0071107377
-0.032192532
-0.00746707
0.031690694
0.059235446
-0.06245007
-0.059453554
0.0014448031
-0.03664191
-0.031885594
0.006409669
-0.03290804
-0.06267162
0.020568125
-0.026521565
0.07162583
0.056376234
-0.042529278
-0.029499797
-0.045474634
0.056935687
-0.0084169535
0.06422283
0.061847553
0.010819187
-0.055204935
0.06060987
0.023239395
-0.04431012
0.031084659
0.024762698
-0.030939117
-0.027158821
-0.052308165
0.050459605
0.03970185
0.044254728
0.057998005
-0.010223608
-0.007028448
-0.068810895
0.042171754
0.025529332
0.0003486828
-0.04417453
0.015453138
-0.060646806
0.060276106
0.037331898
0.034664243
0.0341419
0.016665852
-0.00813637
0.030465048
-0.051282704
0.06962331
0.0699628
0.024307946
0.05744691
-0.024248704
-0.009688896
-0.034887612
-0.06521011
0.041940894
0.03475527
-0.045796715
0.0008247471
-0.048740502
0.04613026
0.005155198
-0.054386385
-0.027202131
-0.027517889
-0.019860625
0.0153148845
0.05688733
0.04308658
0.0007945794
0.04088668
-0.019059116
0.024232233
-0.022684569
0.06491663
-0.050958373
-0.04562275
0.0077434774
-0.009401119
0.031222146
-0.017118113
0.06964723
0.027054185
0.051329385
-0.0058826776
0.02836754
-0.059538513
0.042841066
-0.045714326
0.042456467
0.032167625
-0.015468136
-0.014672311
0.059997167
-0.03519138
-0.07254014
0.040640503
0.052851878
-0.029268755
-0.0683817
0.01737407
-0.032459248
-0.0010848214
0.05066849
-0.050209824
-0.04693651
0.042036403
-0.0023833306
0.05381324
-0.0483206
0.0043307054
0.008578672
0.003185215
-0.029119939
-0.045138393
-0.026313715
0.04411296
0.06774598
0.031689953
0.034911126
0.00011516134
0.00062892627
0.034117706
0.030285722
-0.035330836
-0.040969778
-0.039793715
0.020201467
-0.003149708
-0.04984328
0.050535165
0.063022494
0.0533802
0.07280213
0.05923236
-0.05789945
-0.0102421595
0.050228477
0.023640664
-0.019813016
0.016823836
0.07028152
-0.032198705
-0.018452287
-0.03880511
-0.044124767
-0.01063149
-0.06428604
-0.07508033
0.04146838
0.03294514
-0.042113476
0.06907821
0.04437935
-0.078133635
-0.062128372
-0.029457146
-0.019239375
-0.04869924
-0.054000217
-0.014511625
-0.06661226
0.0028940921
0.04572944
0.052408934
-0.049912345
-0.06476436
0.04183326
0.0065678493
-0.052230775
0.02938838
0.0059937444
-0.027602892
-0.06577236
0.03821379
-0.034616638
0.036931112
-0.024430962
-0.027341086
-0.05386068
-0.06291244
-0.031162962
-0.05558517
-0.016068209
-0.061347134
0.05077059
-0.034933165
0.047674138
0.042101115
-0.0039799768
-0.060336974
0.051728487
-0.027750691
0.021397421
0.0687996
-0.062844776
-0.046493754
-0.025566898
-0.06580337
-0.05500087
-0.065962985
0.01094603
-0.00957991
0.013412156
0.04145198
0.047358897
0.014748793
-0.037966304
-0.045176398
0.017303417
0.04402524
0.054229256
0.04537833
0.0066093267
0.051672127
0.031463232
-0.021816881
-0.05949673
-0.032273725
0.0035872867
0.0302589
0.04550855
0.042873576
-0.0064379917
0.02137641
0.0028698756
-0.0395707
-0.048695784
-0.033016056
-0.0493176
-0.038584363
-0.031378493
-0.007956514
-0.03136158
-0.042822547
-0.060793594
0.019871848
0.0054321475
0.033297073
-0.07248702
0.02779572
-0.01065849
-0.032042325
-0.027917612
-0.018770115
-0.021151474
-0.027105454
-0.0125110345
0.005609183
0.020270607
0.03281067
-0.0028028074
-0.045850586
0.060520053
0.07110877
0.06760287
0.029992353
-0.059982847
-0.05836232
-0.025144052
0.015248029
0.06118793
-0.00091567496
-0.024981702
-0.066772744
0.052979305
0.038458034
-0.023368988
0.05173399
0.05459705
0.003284006
0.054976057
-0.021449352
0.027758682
-0.061819807
-0.03997705
0.062325053
-0.014157696
0.03250379
0.07402906
-0.07407807
-0.013635812
-0.037763823
0.024310447
0.02855263
-0.045649756
-0.0713749
0.05883207
0.019449256
-0.03382201
0.054495823
-0.023610242
-0.07387589
-0.005012578
-0.042085662
0.04937613
0.05203577
0.06552739
-0.0822442
0.05374102
-0.020823872
0.022875665
0.0057153404
0.002412195
0.014889423
-0.0600549
-0.0007836809
0.07284869
0.008297602
-0.04626975
-0.029951045
-0.021463472
0.024491902
0.012248697
0.08087961
-0.039672792
-0.031790014
0.04853686
0.014439456
0.0052970964
0.0547073
-0.050490633
-0.025431596
-0.0009868988
0.052081045
-0.023746137
-0.0741244
-0.030512564
0.050192285
0.017053643
-0.041056685
-0.034513965
-0.015897747
0.048958775
-0.06520978
0.017270338
0.019380836
0.03723429
0.057907797
-0.03962597
0.045529053
0.02855421
-0.0366309
0.057244938
-0.0691694
-0.06877591
-0.061976634
0.061007205
-0.067458384
0.022271045
0.073616855
-0.03460546
0.02897673
0.052464362
-0.06678388
-0.016723182
-0.012889503
-0.042055324
0.005512584
-0.0315451
-0.06370799
0.0016302271
0.007917465
0.032841112
0.057213347
-0.0074980245
0.026717974
0.04321666
-0.032103837
-0.044270646
-0.027207546
-0.03511625
0.034883842
-0.013608086
-0.05907066
0.053709283
0.024096804
0.050395947
0.0071003884
-0.014872997
-0.042257115
-0.016487312
0.031298485
-0.02692817
-0.005462325
0.013418707
-0.057213027
0.017408352
0.0006671207
0.033444703
0.06440086
0.061336383
0.0648098
0.061373044
0.016975032
0.06253774
0.025155157
-0.03676187
0.024711816
-0.0050862916
0.06163654
-0.0057134223
0.015584434
-0.013144503
0.038966298
0.048065253
-0.058642823
-0.010336262
-0.07315822
0.000116728275
-0.03601215
-0.055551857
0.02156836
-0.030125422
0.041263744
0.05784514
0.015851047
0.03934178
-0.06705542
-0.004557217
0.06348263
-0.01490786
-0.04029308
-0.04686507
0.004361165
0.07056966
-0.047248214
0.054659627
-0.048849437
0.05870283
0.05634665
-0.06470303
-0.027875783
0.023027595
-0.05817411
0.049199987
0.03526951
0.063888215
-0.020268828
0.041804273
-0.018662615
0.0048750984
-0.042343475
0.0042856787
0.007806832
-0.028262261
0.020101616
0.058865733
0.008812406
0.013346869
-0.04355034
-0.052413385
0.04732617
0.014310931
0.012059061
-0.018394185
-0.016669052
0.07055053
-0.028088806
-0.047374643
-0.029175853
-0.0061564343
0.03822278
0.01629378
0.034261692
0.0322594
-0.02761188
0.014214588
-0.030702421
0.006253011
-0.02538229
0.01511709
-0.025555598
-0.013141686
-0.01988121
0.01209692
0.0027039724
0.01376208
0.048506275
-0.020197235
-0.05478496
0.024785988
-0.056489162
-0.03169096
0.0604718
-0.00316664
0.02423754
-0.042181443
-0.05220444
-0.029635437
0.04171573
0.066766396
0.027778918
-0.01660136
0.0036521507
0.05421323
0.016340163
-0.040312443
0.06483512
0.049010277
0.037862703
0.035640623
0.04796366
-0.041162267
-0.06652024
-0.026952673
0.067996934
-0.020840269
-0.016206628
0.0326925
0.064744525
0.074667536
0.058282934
0.002867134
-0.04830636
0.027472664
0.056885127
-0.06545981
0.05911408
0.02280394
-0.028270356
-0.01476893
-0.06409633
0.012087199
0.016091477
-0.022464875
0.033170182
0.066066094
0.058484346
-0.043239426
-0.03850807
-0.012544717
-0.06832098
-0.016195983
0.011321642
-0.018434063
-0.0125444215
-0.016772922
-0.013172908
-0.002747872
0.0055403844
0.01312377
-0.06412234
0.050526366
-0.015469999
-0.060187615
-0.032460526
0.029406851
0.067026995
-0.0656814
-0.05237655
0.03935315
0.016968
-0.013548607
-0.033327736
-0.009337294
-0.06312479
-0.016826315
0.025728367
-0.0033485675
0.040681675
-0.061194338
-0.05051079
0.0003799167
0.0036708936
0.011772331
-0.06307416
0.054326463
-0.0066142506
-0.04477032
-0.02416933
0.016294431
0.065988176
0.03550694
-0.018682962
-0.020877453
-0.033348452
-0.058968786
-0.05979032
0.027133739
0.053926397
0.03735513
0.05394013
-0.06203551
0.031798277
0.024646232
0.058639146
0.015752094
0.03973576
-0.060522296
0.015389544
-0.010087717
0.007826367
0.004307087
-0.023795672
-0.07627738
0.047055576
0.009108554
-0.06820964
-0.06963033
-0.05919092
0.01826853
-0.03677925
-0.049309358
0.0036727048
0.0064026434
0.009746623
-0.07252864
-0.03301841
-0.031799316
-0.052625053
-0.06551764
-0.05873474
0.047913194
0.008459552
0.064173646
-0.021229997
0.030218404
-0.06717926
-0.062072843
0.014345747
-0.012610726
-0.039770145
0.055026468
0.0061463853
0.050400294
-0.044209898
-0.0007426633
0.0074287653
-0.023298377
0.006213733
0.05545606
0.020309564
-0.018224511
-0.033294503
-0.010209298
-0.0016912081
0.037990075
0.013582582
0.048581854
-0.00125024
-0.052819286
-0.040504694
0.02701624
0.04016286
0.023595573
-0.026407432
-0.057259746
-0.04302208
0.03236426
0.013106677
-0.029287705
0.012017518
0.038546417
0.031554274
0.026677242
-0.015601853
0.035388898
-0.021516737
0.008975428
-0.022657702
0.011546006
0.030089237
-0.07426404
0.026089698
0.06115392
0.03705911
0.025028054
-0.053333513
-0.025692195
-0.049988404
-0.020771109
-0.029526137
-0.028613523
-0.07498115
0.010964263
-0.036252785
0.000901617
0.028421488
0.06416432
-0.0643606
0.0557069
0.05415121
0.050054144
-0.037023664
0.033409495
-0.06297323
-0.05678443
0.060679145
-0.042450845
0.033239257
-0.0042657335
-0.073163055
0.021067481
-0.028694652
0.0033221198
-0.009716448
0.0014543837
-0.030630862
0.0575658
0.015988646
-0.005040967
-0.03431231
0.03776284
-0.003663791
-0.0023831273
0.068897985
0.021068212
-0.04276699
0.05750997
-0.0025472976
-0.05908199
0.06635142
-0.007423172
-0.06390953
0.050721414
-0.024347022
-0.05777526
-0.04969688
-0.0041908845
-0.0664653
0.055399332
-0.041997474
0.01301942
0.05902289
0.018022621
0.0090018865
0.042104535
-0.037489347
-0.07277514
0.066438854
-0.045302685
-0.050581604
-0.047874864
0.009734729
0.065481246
-0.06587654
0.04686189
-0.039853536
0.03852496
0.003294702
0.06942016
0.07157792
0.027045347
-0.0026499361
0.012100672
-0.05614378
-0.0542885
0.024995077
0.044226315
-0.07084729
-0.046703078
-0.056480568
-0.0051665306
0.013864629
-0.017219776
0.030367808
0.034307636
-0.06284825
0.038082216
-0.021701572
0.056449994
0.010749067
0.023777492
0.042156033
-0.079402514
-0.057163004
-0.04525515
0.0070237275
0.050835725
-0.015585234
-0.022831975
-0.05848098
0.027767671
0.06520756
0.07009758
0.05044688
0.05204356
-0.052883483
-0.069822945
0.029123336
-0.0057803933
-0.02858981
-0.06766074
-0.03227195
0.053687934
-0.00329987
-0.034915492
0.040957425
-0.07101955
-0.068990886
0.034953848
0.062760234
-0.06910592
-0.01685303
-0.06706398
0.002770419
-0.0297821
0.027264692
-0.0009451348
-0.022543127
0.012702948
0.060319897
0.024934517
-0.03274629
-0.030503005
-0.028691905
0.032067116
-0.015912794
0.0071276966
0.00043421128
-0.02925495
-0.03337181
0.0729958
0.06901956
0.06224397
-0.043132607
-0.027815685
0.04608336
-0.021566404
-0.027187433
-0.06556563
0.010014772
0.016026847
0.0067793927
0.002434846
-0.010608251
0.052224465
0.005775775
0.023130618
0.07520834
0.043099366
-0.07501455
0.07199767
0.05988854
0.016037647
0.012597176
0.0463822
0.050110325
-0.032755937
-0.067840226
-0.0031115976
0.057598583
0.04387411
0.03248673
0.0005090304
-0.052678768
-0.0120257465
-0.06487014
-0.031948324
-0.017116947
0.052823905
-0.062991396
0.0097661475
0.056846805
-0.0016998582
0.02982511
-0.038077615
0.045458447
0.01779496
0.021988392
-0.03236488
-0.0045189336
0.04501251
0.05778622
-0.04708629
0.022725891
0.01754724
-0.038028765
-0.003276598
0.031783506
-0.060015492
-0.04236226
0.014331246
-0.040637426
-0.027704956
-0.039630167
-0.050922018
-0.013740834
-0.03497985
-0.0028501838
0.0006847063
-0.032475926
-0.057618942
0.03984353
-0.016002515
0.012005942
-0.028949162
-0.04317995
-0.051447578
0.05730768
-0.05387861
-0.014321981
0.05959377
0.03700302
0.0019881458
0.054146435
0.017630894
0.011128586
-0.030083459
0.017306536
-0.020392044
-0.04740523
-0.060998175
0.05866016
-0.030299855
-0.06302746
-0.06215845
-0.017102364
0.033178154
-0.044605136
-0.04364373
-0.055133082
0.040266912
0.0028819311
0.017698845
0.033160537
0.0422546
0.06784592
0.0021462787
0.035892513
-0.07430182
0.012324486
0.05375927
-0.06330129
-0.075508475
0.021784369
0.06340871
-0.004673169
-0.0021121278
0.0032689965
0.023607288
0.0035435532
0.00863383
-0.014706263
0.01871552
-0.034748998
0.011085642
0.041984178
0.02282085
0.024619596
0.018703314
0.026356686
-0.01797994
-4.8127604e-05
0.013756116
-0.047020223
-0.06683384
-0.006153824
0.0012263545
0.01630238
0.015888603
-0.008434447
0.014661897
0.07294728
-0.0045747473
-0.020926535
-0.016074827
-0.0398118
-0.041053545
-0.004908744
0.023736034
-0.030954516
0.05261566
-0.05979498
-0.035149563
0.017639073
-0.03844878
0.020786198
0.023056116
0.04351341
0.023049464
-0.005466376
0.020740705
-0.053791314
-0.02766239
-0.06809179
0.0006062874
0.00016461153
-0.05753427
-0.044956613
-0.05364512
-0.020613097
0.020806756
0.06136407
0.0570344
0.06569188
-0.06360056
-0.00013202433
0.03145025
-0.055305004
-0.056688398
-0.051067043
-0.0031156035
-0.073664956
-0.07210416
0.06274555
-0.01805375
0.011389971
-0.010193748
-0.0063433265
0.035284907
0.008412399
0.006410139
0.044761676
0.058953147
-0.016894573
-0.06292333
0.035567846
-0.03811251
0.032433044
-0.0051853065
-0.02733191
0.007174407
0.0063343747
-0.0690736
0.011906852
-0.010384319
-0.05174525
-0.044802587
0.055978213
0.04739851
-0.020103406
-0.026885785
0.06442811
0.048654977
-0.006762672
-0.0027870892
-0.07110331
0.01727418
-0.017142512
0.06157478
-0.06709199
-0.019121727
-0.062874995
0.019371305
0.059837017
-0.06533094
-0.008287365
-0.07216585
0.061737806
-0.026128294
-0.04852367
0.02316241
-0.03289426
-0.024467435
-0.072776444
0.052638344
-0.03711778
0.04167648
0.0447299
-0.04704341
0.021053663
0.05046262
-0.0063793757
0.0551229
-0.025768947
0.013212134
-0.058722418
0.010943256
-0.030992512
-0.060120072
0.04228437
0.01738517
-0.031451337
0.01648846
-0.041513897
-0.008916468
0.038281262
0.061353795
0.0024648388
-0.0061068507
-0.039015774
-0.018930236
-0.017664762
0.023453513
0.020220095
-0.03103061
-0.0044066906
-0.026353374
0.0020355508
0.04998849
-0.014204101
0.05097067
0.04376505
-0.029738177
-0.021836374
0.0034821627
0.03164198
-0.054813094
0.03668163
-0.023573488
0.0444875
-0.037723865
-0.0211449
-0.06553378
-0.00063439645
0.00754646
-0.04708981
-0.0055558537
0.048640016
-0.052597515
-0.004937139
0.030020079
0.024181044
-0.059411995
0.021523744
-0.02632692
0.0055600363
0.026713219
0.0093671
0.053660028
0.02497125
-0.056245483
-0.042885613
-0.011161163
-0.04296436
0.05053127
-0.0046114237
-0.04619819
-0.06222645
-0.025845014
-0.06902448
0.06392384
-0.0108015025
-0.07347706
-0.020619791
-0.008453672
0.0402179
0.029905867
-0.015198609
-0.0725555
0.010761533
-0.016285319
0.027719276
-0.06378062
0.024055185
-0.014693185
0.03442356
-0.0009326989
-0.07357692
0.03390452
-0.067317836
0.026979472
0.03653245
-0.037021942
-0.059607178
-0.048778623
0.036459453
-0.05287645
0.039654963
0.06083642
-0.033215858
-0.010732308
-0.026092563
-0.04027951
-0.06715365
0.006564722
-0.049054135
0.009057922
-0.0012804089
-0.02677678
0.0498802
-0.003969733
0.06545233
-0.019351974
-0.014243463
0.0637652
-0.042921968
0.00890316
0.020543419
-0.045211993
-0.04751575
-0.027769325
-0.051425558
-0.05541535
0.013838076
0.021426842
0.032713372
0.011885907
-0.05670708
0.06328817
-0.05054138
-0.060596995
0.032545444
0.04696095
-0.06711343
-0.038624566
0.024466775
0.04792678
0.032774705
0.047299787
0.0108827185
0.06073832
0.052974872
0.023142014
0.019185223
0.013019241
0.04071129
0.02464888
0.052856352
-0.029454816
0.02300495
-0.032031175
-0.009219415
-0.029683633
-0.06789327
-0.01307873
0.02985854
-0.03046205
-0.013711131
-0.035560146
-0.019037997
0.066671185
0.03818899
-0.016956288
0.050787948
-0.017779564
-0.0776838
-0.07117817
-0.080749355
-0.07490474
-0.034042712
0.02451092
0.040967282
0.005937389
-0.06581601
-0.006559313
-0.034522913
0.047961045
-0.019973017
0.03931808
-0.065179974
0.024575206
-0.026890798
-0.024736138
-0.010812004
0.039060444
-0.019708745
-0.02143289
-0.006164975
0.06591922
0.014647586
0.040298507
-0.035037912
0.03280015
0.0492703
0.011328395
0.02944281
0.027373679
-0.011882257
-0.049124204
-0.015850836
-0.050729644
-0.00012859942
0.057329267
0.070706494
0.009239779
0.02253004
-0.00701697
-0.038488727
0.053067982
-0.028002003
-0.05317844
0.022072002
-0.013465181
0.043869212
0.03534578
-0.034562435
0.029885253
-0.026459692
0.054449227
0.04209755
-0.03798361
-0.01478437
0.026440544
0.014472754
0.008463822
-0.0016982604
-0.019583201
0.03791265
0.051748354
0.06994966
-0.015997263
-0.016172964
0.059433788
-0.06268072
0.01402631
-0.057640895
0.016115876
-0.015565252
-0.027135365
0.028368112
-0.06468482
-0.06237674
0.03862735
-0.052123446
-0.036850907
-0.009505694
-0.030883899
0.0054954765
0.015048904
0.035433948
-0.059161846
0.061945315
-0.0051517803
0.06884117
0.011389174
0.049020335
-0.031478014
-0.05801484
-0.07452123
-0.03907854
0.0039047257
0.016919544
-0.073322065
-0.01500893
0.043731187
0.03113454
0.011495699
-0.05017013
-0.022305036
-0.07183521
0.0052906745
0.016698632
-0.031844065
0.024356632
-0.021188185
0.016000219
-0.010029846
-0.039386537
-0.0644875
-0.060609452
-0.00016186702
0.033489697
-0.058558423
0.03747559
-0.019781409
0.0037938734
0.04712988
0.052043434
0.05744626
0.0047096815
0.05937622
-0.068327434
0.04835288
-0.054051
0.05714697
0.053265583
-0.020780174
0.02748427
0.010244699
0.061999448
-0.062645115
-0.018139435
-0.037653472
0.0417993
-0.03232313
-0.056473836
0.00033836262
0.06393035
0.008915444
0.00102934
0.05330341
-0.06551383
0.0486777
0.05588968
-0.030337112
-0.034614373
-0.024026323
-0.071560234
0.01936139
0.020350138
0.014491492
0.037481215
0.037414245
0.031121766
-0.063499354
-0.022734191
-0.030531354
0.058032177
0.012259916
-0.004312147
-0.03669782
-0.065500766
-0.059675355
-0.04195374
-0.063332826
0.018931119
0.05426765
0.053820644
