-0.13464095
-0.047147293
0.086760744
0.11181085
0.0014924183
-0.09870057
-0.04330579
0.044009656
0.05588264
-0.027876088
-0.109207705
0.0006043396
0.16598341
0.06619907
0.12582463
0.031152869
0.062460545
-0.035139214
-0.09624443
-0.07552681
0.102474205
0.059749678
-0.058930654
-0.11633469
0.10421388
0.0794118
-0.05373057
-0.06725716
0.01188526
0.0010684992
-0.039079692
0.09076653
-0.15850501
0.011882141
0.09034998
-0.08823329
-0.09461207
-0.10567799
-0.087928794
-0.12788013
-0.0024445376
0.13383429
-0.019382643
0.11936938
-0.09191475
0.11270731
-0.122334525
0.1328826
-0.120635904
0.052132912
0.061015874
-0.02075884
-0.11559689
-0.098369405
0.10923992
0.076828144
-0.097371496
-0.09814837
0.08535311
0.13192111
0.07449596
-0.046251237
0.022867767
-0.14100471
-0.11407318
0.08213155
-0.025521567
-0.0031113988
0.003011809
-0.078203306
-0.049063634
0.11359106
0.10099942
0.16504326
-0.10986285
-0.050572664
-0.094186604
0.08835059
0.023564192
-0.08556244
-0.023669116
0.16899638
0.018592263
-0.08099159
0.029758554
-0.004308966
-0.07225202
-0.004868822
-0.0012461102
0.0060118665
-0.11547885
0.116528995
-0.07665621
0.12984017
-0.13207126
0.14436808
-0.020810168
-0.109261185
-0.0375487
-0.052281342
-0.16471112
-0.025509961
-0.031662486
-0.017929416
0.06378686
0.022105321
-0.044947553
0.07712847
-0.10612353
-0.11145497
-0.00901262
-0.043315407
0.028456798
-0.04505575
0.08921386
0.101095885
0.013486729
0.103794694
-0.01794554
-0.06414978
-0.10502814
0.082287356
-0.1311718
-0.054775774
0.0054415176
-0.116050616
-0.04774963
-0.03630615
0.013183532
0.13131678
0.04527713
-0.12264247
-0.060267262
-0.034879714
-0.056162883
0.03168734
0.06381157
0.011165684
-0.14748326
-0.09680691
0.0750847
0.053931687
-0.0924782
-0.04080545
-0.13374637
-0.018111126
0.17914987
0.036785845
0.027870819
-0.01982384
0.094672725
0.083839566
-0.084688656
0.05502323
-0.1825782
0.025388632
0.08431169
0.13329275
0.04053664
0.101917855
0.07409748
-0.10101612
-0.08511579
-0.092294216
-0.036836945
-0.03872216
0.14769481
-0.025912713
-0.026576813
0.031373937
0.001436082
-0.15094627
-0.07844442
-0.037133917
0.038414024
0.02288547
0.10479656
0.013377936
0.045507666
-0.06155167
0.10740163
-0.14877306
0.11588501
0.08861427
-0.021048276
0.11263954
0.060081724
0.040354244
-0.007877364
0.014249658
-0.002913369
0.030738425
-0.122600615
0.15136795
-0.13340057
0.05095488
-0.08787588
-0.10613755
-0.03621256
0.026487404
0.013764568
0.07280766
0.122195505
-0.13299955
-0.01596486
0.07528847
0.072477
0.07672736
-0.10841948
-0.10427436
0.07000402
-0.044407673
0.12159544
0.06240231
0.053352486
-0.026647745
-0.10262504
-0.04487049
-0.12105403
-0.013989672
-0.08178557
0.038675115
0.009594862
0.077201925
-0.091023564
0.007904644
-0.11681369
-0.004140056
-0.16071497
0.026817527
0.04587599
-0.06470055
-0.062595
-0.09292074
-0.115854755
0.1573114
-0.08610265
-0.048251152
0.02721698
-0.084918
-0.116759546
0.0021106238
-0.11765392
0.054755878
0.064137295
0.15519191
-0.027698554
-0.033610046
-0.05629842
0.11254548
-0.044043336
0.047503695
-0.037560925
0.029676199
-0.030898899
0.12814294
-0.05905261
-0.14084136
-0.015526691
0.07519407
-0.00011863118
-0.08349882
0.0012231969
-0.1024175
-0.1283537
0.004524269
0.037590783
0.0007268765
-0.0717537
0.0344986
0.13843384
0.058097195
0.01681037
-0.06950619
0.06647821
-0.03880943
-0.05343272
0.1168328
0.05635205
0.110343
0.06971365
0.037744433
0.03989928
-0.11635038
-0.07800776
0.0962021
0.08802791
0.11312555
0.1022848
0.117542036
0.06594224
0.006617583
-0.020713547
-0.058153007
0.06369559
0.012181201
-0.045786448
0.032605566
0.055438776
-0.014872222
-0.09768323
-0.04908946
-0.16596723
-0.0992316
0.025511038
-0.047516104
-0.14317234
0.13829198
-0.118278235
0.0076428484
-0.09258939
0.12833728
0.07363859
-0.040697165
0.10000522
-0.14163426
-0.020510752
0.10257921
0.019812465
0.16225028
-0.11405538
-0.003762529
-0.0883595
0.0049878177
-0.006619849
-0.116202846
0.10108732
0.11774421
-0.031703383
0.004015754
0.114690214
0.049878255
-0.07101331
0.14445424
0.030781006
-0.051392443
-0.08184093
0.02210534
0.08514789
-0.10797404
0.044676147
0.09504914
-0.04022599
0.09045454
0.11286697
-0.090605706
0.043540508
0.10626257
0.02697767
-0.013711026
-0.05849064
-0.08963898
-0.06254745
-0.07676086
-0.04325428
0.006439343
0.18331367
-0.093592905
-0.04375281
0.08171023
-0.05584933
0.042592324
0.040990558
0.16839494
0.036491033
-0.114404276
0.078656115
-0.049088035
-0.112133525
-0.15574852
0.072013795
-0.08239646
0.041218963
0.101960376
0.16598408
-0.10663661
-0.06141896
0.014359109
-0.049689725
0.05595942
0.052038696
-0.11798185
0.049745128
-0.1415001
0.056008317
-0.07088139
-0.11441755
-0.08365741
0.09732444
0.109626286
0.11550319
-0.08442124
-0.03987937
-0.040465087
-0.07709652
0.053265568
-0.11752008
-0.050565287
0.09545686
-0.043292567
-0.09957251
-0.034688655
0.03621897
0.024429569
-0.11016597
0.05877112
0.042792376
0.10787771
0.14136013
-0.09228778
0.11338193
0.10541127
-0.02559332
0.016632605
0.0847759
0.12368187
0.113462366
-0.057447553
-0.04169582
-0.005434101
0.071685776
-0.07408553
0.10661422
-0.09514738
0.006263652
-0.018282663
-0.006307785
0.04249471
0.1924657
0.03577047
0.04036685
0.0289496
-0.133225
0.020391572
0.08927733
-0.103042975
-0.12902296
-0.075687915
-0.10071913
-0.023830881
-0.039076973
0.115804225
0.07308873
-0.1546519
0.12608527
0.099217765
-0.026728863
0.045874365
0.075148046
-0.10833642
-0.013485303
0.1707987
-0.047877666
0.08958092
-0.07266074
-0.058923867
0.08590403
0.10830232
0.062044464
-0.0557991
-0.0029446622
0.051421683
0.18954664
-0.10145002
0.040289715
-0.002604889
-0.07974404
-0.07865276
-0.12590507
-0.13853957
0.0040335567
-0.005136023
0.04407954
0.103605896
0.034491293
-0.044858802
0.0979142
-0.14089525
0.14140062
0.06671396
-0.010309789
-0.052875582
0.10747362
0.06831419
0.019339664
-0.05090465
0.0592289
-0.12158549
0.021915507
0.028722085
-0.14237566
-0.03726043
0.059781693
-0.07092611
-0.06990243
-0.113485
0.06589119
-0.08086981
0.08439163
-0.07472654
-0.10988197
-0.07593098
0.071206674
-0.005264888
-0.014510717
-0.033817455
-0.04636018
0.05238241
0.103222944
0.1851392
-0.061090507
-0.104400784
-0.007490878
-0.076858215
0.13792527
-0.02948981
0.12957549
0.009291921
0.120117016
-0.051041886
0.11271758
-0.07203908
-0.12578823
0.21921572
-0.1047668
0.0061138547
-0.061248317
0.020642377
0.10882369
-0.044590104
-0.06621558
0.12550624
-0.017461384
-0.18419792
0.028074455
0.043581687
0.030200409
0.08956854
0.09577782
-0.041099083
0.16647202
-0.07043817
-0.15275174
-0.096277654
-0.055810153
0.059801742
-0.11593471
0.09737545
-0.10141366
0.03708294
-0.1598195
0.08426932
-0.036947284
0.11311583
0.14198272
0.10316743
0.089825995
-0.013546029
-0.09138105
-0.03782264
0.043943018
0.02357356
-0.15688664
-0.03801252
0.0645776
-0.09903067
-0.07669181
0.12397908
0.019775568
-0.0896378
-0.1519782
-0.041164383
0.07526661
-0.10880279
0.08255401
-0.07310171
-0.041970532
-0.0010824088
0.01482213
0.16972837
-0.06950485
0.16197759
0.02502008
0.00024836377
0.07253081
-0.0021716522
0.15362413
0.14205655
0.020334879
-0.020114446
-0.052753493
0.10239106
0.0631662
-0.09722533
-0.09720858
-0.07492087
0.109822296
0.081774086
-0.09745745
-0.08871944
0.05552286
0.10607404
-0.05619266
-0.090441205
-0.07284981
0.049004406
0.1529808
0.065412626
-0.11007164
0.037127495
-0.018778011
-0.05108996
-0.0887383
-0.13315153
-0.098275915
-0.07220264
0.063101165
0.06585969
-0.030284368
-0.008131633
0.0690186
-0.10156567
0.18328683
-0.12127021
-0.007847515
-0.116435274
0.093286425
-0.005824961
-0.07986709
0.09467505
0.046359334
0.15442568
-0.153107
0.0474444
-0.04727469
-0.011002188
0.060203116
-0.07586622
0.060493905
-0.02256894
0.037034187
-0.013439885
0.16339213
0.063494004
-0.01933722
0.017869566
-0.071868956
0.076517254
-0.120079294
-0.022835568
0.14891537
0.13350631
0.03195478
0.015700823
0.007164036
0.031606432
0.118850574
0.17730187
-0.12845716
-0.049958207
-0.041638006
0.02092375
0.049078822
-0.0020836038
0.107268676
0.113141425
0.09872123
0.034054488
0.002922656
0.117895275
-0.007496416
-0.09015687
0.09773195
-0.11230668
-0.11450832
-0.027617889
-0.06444128
0.12565401
0.034284938
0.18714398
-0.0187331
-0.08283972
-0.04709217
-0.10837859
-0.08156579
-0.031960934
0.03494002
-0.102772556
-0.12447154
0.031766426
0.100412205
0.00897615
-0.0009112452
0.0037863068
-0.051880892
0.06360667
-0.11045726
0.022067677
0.11117534
-0.06756247
-0.035095245
0.032811675
-0.02216165
0.075971864
0.036421884
0.14110015
-0.032704737
0.045429517
-0.039790165
0.027719695
0.039902147
-0.0046820627
0.0376137
0.024610221
-0.14010866
-0.10619513
-0.056694433
-0.09165051
-0.01939758
0.05060825
-0.04610408
-0.00307638
0.028663065
0.006335048
0.13666072
0.14226024
0.009307674
0.11786427
0.09372943
0.015527311
-0.09054479
0.09720748
-0.025248269
-0.1418233
0.07824562
-0.10716909
-0.07627606
-0.08630558
-0.064616375
-0.038214494
-0.096246034
0.0735315
0.1354078
-0.11450277
0.11890355
0.120034054
0.009554109
0.10336524
0.0891975
0.09798041
0.101323836
-0.09040136
-0.037699323
0.092158146
0.02830852
0.10402353
-0.05412681
-0.03461038
0.12669764
0.14322372
0.11421778
-0.029135
0.080365896
-0.11004778
0.0014940411
-0.08778847
0.17014487
0.10811243
-0.042577058
-0.07066064
0.004461705
0.11734803
0.09152309
-0.033993557
0.060181707
-0.111119956
0.11904633
0.07948457
0.051251426
-0.10927331
-0.08572169
0.053244848
-0.026805544
-0.028631765
0.058490068
-0.11527851
0.07012967
0.14178042
0.030783908
-0.03416866
0.0029573997
0.058231156
-0.0050463057
0.02644583
-0.05115069
0.120985314
-0.12074676
0.14693755
-0.09334697
0.09682962
0.038943235
0.104408644
0.014491416
-0.13546173
-0.091818996
0.072665974
0.025944874
-0.0038735913
-0.008251524
-0.0585645
-0.11651855
0.1237687
-0.039462306
-0.100095615
-0.018004749
-0.116927266
0.054286037
-0.060271244
-0.021725263
-0.070514716
0.02927864
-0.08974267
-0.052834626
-0.0016047645
-0.13925624
-0.05557146
0.09596992
0.042436693
0.05164011
-0.0067733284
0.018002756
-0.09933968
0.12904142
0.095865026
-0.06704359
-0.00974782
-0.005537899
-0.06874593
0.056845557
-0.06365829
0.17093116
0.012363818
0.13674095
0.026050644
-0.056431144
0.11698678
0.10489011
0.08861315
0.067745835
-0.12583075
-0.15646471
-0.013379212
0.103287496
-0.006835469
0.10885587
-0.090852335
-0.05443673
-0.059443492
-0.14286274
-0.050155405
-0.087188736
-0.047022376
-0.021904327
-0.116627835
-0.076627366
-0.018116832
-0.04664164
-0.0832476
-0.07203918
0.13755427
0.07503505
0.028023692
0.087049074
-0.12669331
0.13373092
0.025903407
0.07286055
0.03600525
-0.112485714
0.062776096
-0.08711092
-0.0047015566
0.055850666
-0.057796437
0.028932609
-0.14431834
0.1855404
-0.10580413
0.06614436
-0.005470809
0.06362503
-0.03877704
-0.11412038
-0.13398492
0.046609674
-0.060506083
-0.09998048
-0.04027141
0.005717955
-0.0910365
0.07394954
0.12193142
0.14991708
-0.07029939
-0.016084881
0.02599316
-0.032100413
0.02054171
-0.06320339
-0.07441384
-0.049279876
0.076119415
-0.11283143
-0.10084675
-0.047604635
-0.056501064
0.0683657
-0.10116654
0.10089153
0.04081955
-0.16449545
0.004706422
-0.046123035
-0.07819887
0.08552712
0.089218
-0.104514234
0.09972532
-0.13894328
0.11098909
-0.031687226
0.003936832
0.03840261
-0.0017065929
0.048301816
0.11267449
0.1804561
-0.057582304
-0.13211797
-0.10927035
0.0030319244
-0.0010920701
0.0766145
0.08895225
0.10291947
-0.04897935
-0.041006844
0.030911079
0.143417
0.1509555
0.05842567
-0.082391724
-0.059531
0.063705556
0.0637906
-0.05266889
-0.054442264
-0.10654395
0.18329114
0.052594602
-0.012175646
-0.07670016
0.047150437
-0.117883906
-0.0049017537
0.13553105
0.17288576
0.008424377
-0.09182587
-0.028913366
0.014328436
-0.061788294
0.008663503
-0.1078363
-0.068081126
0.14751859
-0.12554143
-0.0029739009
0.114497
-0.07841692
0.03962627
-0.08489158
-0.007256695
0.00996198
-0.02371413
0.15778242
-0.089288965
-0.01212378
0.05299593
-0.025556298
0.047805086
0.034852616
0.042649776
0.100708015
0.11601005
-0.14293003
0.03431451
0.05692673
-0.042943254
0.08651082
0.041163146
-0.08681362
0.102200404
-0.062482417
-0.1244792
-0.005667135
-0.02657974
-0.08856676
-0.076284744
-0.092662565
-0.11425972
-0.009390423
0.09773926
-0.08686098
-0.03693744
-0.027752042
-0.118465535
-0.0046464168
-0.08962534
-0.023726877
0.11378426
0.15163094
0.012764273
-0.053050503
0.11890716
-0.102911375
0.17535643
0.1444057
-0.12521175
-0.064604096
-0.0644245
0.003251634
0.115495145
-0.07263104
0.11686135
-0.039474014
0.041378133
-0.10498467
0.14678389
0.02373459
0.0113073625
-0.0089681065
-0.0025068452
-0.074130125
0.018635066
0.10112452
-0.032916397
-0.02613536
0.088655956
0.13463156
0.08651333
0.08923341
-0.08435194
-0.12574525
0.10263562
-0.14551763
-0.08577583
0.034635186
0.0016059448
-0.049679812
0.11089714
0.03750938
0.10074093
-0.092258975
-0.12844233
0.09370998
-0.06246649
-0.034878325
0.048381183
-0.04001969
0.08780188
0.06268485
-0.02057344
-0.08414679
-0.09849923
-0.080245964
-0.08707114
-0.09312356
0.060980316
-0.04933629
-0.016803885
-0.057364635
-0.05007111
-0.064839184
-0.09761334
-0.09459982
0.103390075
0.10601821
0.059063707
0.14226538
0.025669143
-0.08688704
-0.14895779
0.08471194
0.123718835
0.06003213
-0.050301224
0.036056787
-0.023074064
-0.09625162
-0.05220957
0.1291043
0.14091861
-0.03943832
-0.1038995
-0.03898411
0.08278473
-0.0020863805
-0.02990178
-0.10280339
0.06007667
0.19755074
0.05247679
-0.04683293
-0.0715395
0.086561605
0.13845502
-0.0021197058
-0.17500132
-0.017316354
0.054290686
0.043475833
0.08819234
-0.11841731
-0.019252086
-0.06290186
-0.121647045
-0.14685449
0.06476724
0.01745721
-0.063222334
0.061800394
-0.014250132
0.0972887
0.060523618
-0.0109490575
0.03353447
-0.057663586
-0.06869216
-0.2196004
0.05914884
0.030600788
-0.002606643
0.0937929
0.0010263389
-0.037616502
0.023293657
-0.04345303
0.15607654
-0.07881014
0.007325975
-0.023934316
