-0.21785134
-0.1097031
0.19898821
-0.027094938
0.14266726
-0.04910744
0.046903238
0.1660188
-0.0016760007
-0.2033511
0.13447891
-0.21122596
0.07331211
0.13776155
0.1484357
0.17399721
-0.19959942
0.14521539
-0.15651062
0.120678805
-0.21773437
0.09183815
0.016286824
-0.07963207
0.2800824
-0.09895664
-0.08487644
0.084567145
-0.033176515
-0.120173074
-0.2568601
-0.29874158
0.2361797
0.110147156
-0.25991887
0.09577623
-0.3258911
-0.25913566
0.30018428
-0.12190173
0.02369565
-0.099807285
0.22977613
0.09816781
-0.08788133
-0.12298701
0.25669584
0.20472792
0.2790301
-0.13116474
0.13268773
0.28343326
-0.30154347
0.2740418
0.09245341
-0.19635443
-0.13908847
0.29415208
-0.0461993
0.087027654
0.0333079
-0.011716408
-0.27610305
0.19354503
0.3172618
0.2575821
0.2244756
0.32506397
0.24897443
0.16359419
-0.16431123
0.0019350399
-0.18173872
-0.10748981
-0.09935153
-0.28297573
0.05208323
0.11950936
0.11982983
-0.07838217
0.29468638
0.024498718
-0.27439353
0.30389732
0.26975957
-0.064690776
0.19062531
0.069561884
0.27498925
0.20275299
-0.2734163
0.21444485
-0.30580592
-0.18473107
-0.12503497
-0.15230379
-0.21183227
0.12058459
0.1740252
-0.27328214
-0.10756283
0.23730418
-0.05054009
-0.109084636
-0.31135523
0.13137025
0.27776983
0.2847203
0.25199255
0.2965585
-0.2902226
-0.27786458
0.2462343
0.24536584
0.15455805
0.021201003
-0.30284947
-0.19442374
0.025023527
-0.0050772694
0.25682333
0.26485947
0.2746775
-0.16973707
-0.22612298
0.16350523
0.11898481
-0.3203766
