-0.02441158
0.019181797
0.037884068
-0.03892076
-0.017744351
-0.043736443
-0.031128896
0.02996617
0.014052764
0.04224442
-0.019489327
0.018664341
0.009096201
0.00073671096
-0.035282366
-0.028831722
-0.034123376
0.037126288
0.0002889177
-0.02117693
0.037982132
-0.0017631527
0.046812944
0.00631379
-0.036320418
0.0005338186
-0.011796679
0.0019861134
-0.013646448
0.048658874
-0.04968536
-0.047450967
0.00341088
-0.039407376
-0.021799538
-0.0023271504
0.014097936
-0.034390714
-0.039601702
0.037320968
0.049160723
0.047363408
-0.019927071
-0.012600827
-0.02278951
-0.02313021
0.013225779
0.03843776
-0.04361299
0.027036645
-0.044953298
-0.031023242
0.029104795
0.03098565
-0.048803892
0.008390351
-0.026807364
0.005388557
-0.043302976
-0.024613608
-0.0393412
0.022584856
-0.0072175195
0.037553087
0.0004383273
0.029162824
0.010748561
-0.011452178
-0.003952398
-0.03467111
-0.047298715
-0.020028712
-0.0018471045
0.0056106183
0.0003568839
-0.039713856
0.027388632
-0.008619671
-0.039078496
-0.04279675
-0.0003756228
0.016752921
0.004223429
0.03835833
0.018732045
0.026483143
-0.022963334
-0.016565023
0.04600498
0.0062640007
-0.047697138
-0.022387348
-0.0045811674
0.048533026
-0.0015812182
-0.025072416
-0.048272453
-0.026826091
0.015382363
-0.008897111
0.008932608
-0.012723567
0.029497355
0.045339584
-0.0064012413
-0.0042600073
0.026476525
0.0384695
0.043208055
-0.005885174
0.010754952
0.029880103
0.011635897
0.005832725
0.00039157728
0.0055190464
0.03928219
-0.022489592
0.029916743
0.035550807
0.0026358366
0.032372147
0.012073644
-0.020991925
0.04864425
-0.016899653
0.03343671
-0.049204655
-0.02566084
-0.046119053
-0.047091216
0.027897006
-0.012444248
-0.04943654
-0.02276493
-0.028132796
0.028190767
-0.021528251
-0.005439947
-0.04659115
-0.01586042
0.030066313
-0.03165656
0.026302781
-0.043776326
-0.03240317
0.01356536
0.038739104
-0.024538703
-0.0043361336
-0.022969501
-0.033869285
0.0046426184
0.032799497
0.048298053
0.042254623
-0.031871576
-0.03085982
-0.011165031
-0.014848522
-0.039125238
-0.04230537
0.0049689654
-0.03605455
-0.021423122
0.04470232
-0.025402637
-0.040147524
0.04862766
0.014790726
0.04071693
0.0030179778
0.021920448
0.03019953
0.023602478
0.045125686
-0.0446246
0.002455675
-0.018467046
-0.0051836018
-0.008772943
-0.032483324
0.043763135
0.047353864
-0.045198068
-0.0017537999
0.00061491056
0.00416151
0.044010725
-0.04887665
0.011442835
-0.014739109
0.012871128
-0.045522388
-0.009260826
-0.0010774685
0.008249868
0.025629636
0.0080276895
0.0071424097
0.005863089
-0.042574238
-0.015489054
0.022531526
-0.014883538
0.013071151
0.0042746793
0.035908315
0.020916913
-0.048393898
-0.045956783
0.012875758
0.013746792
0.04188063
0.007157486
0.046782266
-0.0310687
-0.030213982
0.0477491
-0.009107391
0.035564102
0.04932936
-0.00012750264
0.033139605
0.034696274
0.027194666
-0.01598573
-0.014179982
-0.035968803
-0.034048714
-0.040168922
-0.017816318
0.04491963
-0.01935708
0.037796475
0.03986977
0.0051569333
-0.0066087646
-0.007232969
0.019532183
0.020402715
-0.019225676
-0.005639373
0.043260194
-0.004092173
-0.009993461
-0.016709516
-0.0027599642
0.017912144
-0.037833743
-0.02988898
0.043743763
0.022216756
0.014627562
0.024070496
0.027024472
