-0.097115405
-0.09675505
-1.646383e-05
0.06457983
-0.020263277
-0.07661924
-0.00066831347
-0.12884563
0.06131492
-0.032459237
-0.015208356
-0.049720295
-0.07258644
0.0288945
0.072456844
0.041007325
-0.047646396
-0.017741894
-0.030231146
-0.042023435
0.0073476
-0.003213394
0.09488863
-0.037788488
0.0063665984
0.051663823
-0.087863445
-0.06654204
0.064541675
0.0067912866
-0.025717204
0.06754498
-0.052057076
-0.041276306
-0.09139803
0.08343593
0.022814684
-0.01279409
0.041083984
0.019148156
0.060048297
-0.022944698
0.061951183
-0.022744982
-0.0011801617
0.01644019
-0.062584564
-0.024295023
-0.036268435
-0.048541553
-0.039844904
-0.016040158
-0.027495436
0.04942444
0.048123647
-0.027637232
0.040521692
0.062190823
-0.005699436
-0.037717767
0.0011074586
0.117997445
0.020486336
-0.05297144
-0.07728817
-0.011637598
-0.010639065
-0.048883636
0.10638924
-0.10568538
-0.050157145
0.07746277
0.011020259
-0.007072633
-0.04808367
-0.0817441
0.025929833
-0.007137037
-0.017857596
-0.018753344
-0.003510539
0.047069274
-0.024525791
-0.046198446
-0.014949035
0.05616024
0.010530855
0.08794916
-0.04582135
0.03460416
-0.07187546
-0.002584844
0.004077839
-0.008044401
0.056226283
-0.06278495
0.04604708
0.012286889
0.020876007
0.008622243
0.074204266
-0.023081481
-0.024202451
-0.023056988
-0.019778889
-0.05135226
0.07459627
-0.06969244
-0.015249369
0.07058309
-0.003016448
-0.07526314
0.014123666
0.030306343
-0.008121278
-0.05992427
-0.039267465
0.008896801
0.08737057
-0.03954461
0.08784119
-0.03906813
-0.039923854
-0.03526121
0.07185591
0.012234168
0.006741942
0.012594571
-0.003852988
-0.0037587192
0.0313086
-0.024440307
-0.015115496
0.017154397
0.04594217
0.031124959
-0.05921267
0.046224188
0.033903375
0.079418816
-0.030082716
-0.06752984
-0.06361815
-0.09312914
0.005490716
0.038390905
-0.00075981027
0.022175765
-0.010429815
-0.025380125
0.12839086
-0.0006307989
0.048812542
0.050889
0.12501311
-0.006400852
-0.010003951
-0.07930475
-0.0762558
0.038098577
-0.027632056
-0.15024169
0.02376319
0.05125732
0.020504279
0.025019392
-0.011726132
-0.03129289
0.037540454
0.047364146
-0.06246317
0.009145694
-0.014678507
-0.042957116
0.0025305517
-0.03517406
-0.074859895
0.0021588835
0.07429469
-0.0515165
-0.027879499
0.015130057
-0.03866357
-0.052105166
-0.03426132
-0.011510191
0.025844766
0.10470792
-0.06483766
-0.008887375
0.025048712
-0.0023216705
0.043698713
-0.0680882
0.020297006
0.008041759
0.08963126
-0.052851506
0.00051254185
0.040017705
-0.0012293195
0.028277712
0.048588783
-0.03690061
-0.023260675
0.022658603
-0.0683782
0.049157444
-0.079390496
0.042829666
-0.066986755
0.076274976
0.11910432
0.002902772
-0.03850259
-0.053519495
-0.047172476
-0.095881104
-0.031095572
-0.024396019
-0.08213017
-0.04191153
0.035382334
0.10598211
-0.20692787
0.06560098
-0.011208559
0.04098824
-0.043401625
0.024479054
-0.058674827
-0.03465671
0.0018980782
-0.0037454807
0.060024712
0.06184798
0.022036022
-0.033531163
0.007939981
0.019855173
0.021869343
0.019494882
-0.0116468305
0.01329659
0.04021025
-0.01495214
-0.02236626
0.024080178
0.056743424
-0.04848141
-0.010483427
-0.0009983473
0.0005060161
0.02476332
-0.055495672
-0.07636943
-0.0023106358
0.016659599
0.0146199055
0.010996939
0.0026881022
0.047961492
-0.010910573
-0.012510641
0.0022177421
0.012263616
-0.00720719
0.048428096
0.018687014
-0.01115947
-0.003987052
0.05765291
0.05236745
0.033044
-0.018174903
0.037763607
0.008426552
0.024167877
0.009148597
0.05773191
-0.03758088
-0.021802438
-0.056214172
-0.0017330466
0.0032836683
-0.0032871051
-0.06326749
0.08914829
0.024178132
-0.00683611
0.06629879
0.016704291
-0.021458754
-0.02267613
-0.009182355
-0.07271373
0.09315194
0.06780859
-0.05881518
0.01902551
-0.021212915
-0.05329234
0.046439305
0.00033926358
-0.017772552
-0.07880103
-0.02559243
-0.08354672
-0.090363525
-0.067218944
-0.059695352
-0.034204867
-0.038739104
-0.015089186
-0.024427775
-0.072035775
0.010070982
0.0040642954
-0.051337752
0.071096174
-0.01448386
0.09524624
0.010807348
0.02360151
-0.043217793
-0.0011767874
-0.028667066
0.047402803
0.010256199
0.07143127
0.051068638
-0.014817298
0.022550957
-0.058132768
-0.02950693
0.014962405
0.049182013
-0.08336585
-0.07835428
0.048146814
0.018032126
0.101027496
0.013384072
-0.015176514
-0.020885684
6.809419e-06
0.0012174723
-0.10201561
0.025521714
0.043693006
0.029371232
0.02533109
-0.047566798
-0.023630997
-0.062047917
0.03051959
-0.03420957
-0.046884578
0.108826004
-0.032786414
0.049836878
0.021778828
0.013860504
0.0195312
-0.034792174
-0.043723185
-0.022505477
-0.010079032
0.06886869
-0.02267244
-0.006728798
0.016344735
-0.0007668009
0.023721678
-0.016443988
-0.046240892
0.017693564
0.0019667584
-0.012270943
-0.041073263
0.024586527
-0.047492757
0.013260634
-0.021734653
0.08492629
0.05589403
-0.14031059
-0.04790139
-0.032954704
-0.044339642
0.046126723
-0.07065196
-0.025032513
0.06376712
-0.028777815
-0.07961679
0.058983732
-0.0364746
-0.042372175
0.07433465
-0.041028567
0.010584188
-0.041988276
-0.012093912
-0.036250632
-0.0323139
-0.053013198
0.010558632
0.015069607
0.060443286
0.043367434
-0.024625974
0.010254677
-0.057212815
0.10094017
0.040975448
-0.03898799
-0.09680919
0.097086266
-0.020891082
-0.011109603
6.452909e-05
-0.15427777
-0.04057915
-0.029320825
-0.06924237
0.021979462
-0.06821743
-0.02361869
-0.061370898
0.01910832
-0.014171701
-0.06318259
0.057641137
-0.03263169
0.0121020395
0.09577756
-0.003000637
-0.013924436
-0.031015338
0.039042283
-0.1644199
-0.013340495
0.07307404
-0.060916644
-0.07767514
-0.0005341447
0.036133964
0.028619574
0.018285945
-0.013698155
0.078449436
-0.05656092
-0.0018752726
-0.08103701
0.025586603
-0.16637526
0.09247536
-0.005563969
0.036348153
-0.00025393962
-0.036247995
-0.0090361545
-0.0023693698
-0.09222823
0.017007615
0.09883671
-0.05211306
-0.02526919
-0.035231534
-0.0054498385
0.044417452
0.096125185
-0.04226006
-0.035404913
0.09716648
-0.025587488
-0.0046002287
-0.039458632
0.10769776
0.0039395657
0.044226017
0.0058015357
0.045958012
-0.049422204
0.07508453
0.077699654
0.08328253
0.016212914
-0.089034416
0.051930465
-0.062230945
0.044938497
0.098604985
0.0045538754
0.030983506
-0.026938418
0.023608424
-0.056592368
0.021622108
0.046381585
-0.04977472
0.06626473
0.04374682
0.044586837
0.075880095
-0.035354152
0.07352372
-0.012137444
0.013333121
0.03763153
-0.034499995
0.10792095
-0.050528906
-0.011648177
-0.019813532
-0.029831547
0.028245911
0.017145788
-0.09299964
0.03987
0.035305843
0.07719078
-0.053621013
-0.05508601
-0.0750348
0.09198296
-0.05876061
0.014149609
0.029872766
-0.042693052
0.07741934
0.060650084
-0.025714595
-0.05376844
-0.13818535
-0.009959442
0.08169851
-0.021795647
-0.0381388
-0.0038636015
-0.0032257652
-0.022687512
0.07045609
0.076162346
0.08972665
-0.09376286
0.03438694
0.0044034556
-0.04520491
-0.033023756
0.07272089
-0.08382534
0.02432736
-0.025623757
0.02310879
0.039825935
0.054632694
0.040680233
-0.14150357
0.039154027
-0.044773843
0.10487801
0.0041956115
0.07630951
-0.08413059
-0.0021117863
0.07731447
0.0509133
0.042417947
-0.030622615
-0.008187923
0.026093688
-0.067943126
0.06623791
-0.024824405
0.023576772
0.09994254
-0.027812906
0.0017514803
-0.010246318
-0.073660545
-0.06633968
-0.13159223
-0.031937074
0.04407595
-0.09270153
-0.08050325
-0.0031047116
0.016414136
0.09743451
0.036230784
-0.039446015
-0.014269058
-0.048661157
0.025961483
-0.00012463698
0.045815434
0.04380468
0.026953043
0.025675202
-0.052521322
0.06374367
0.047576156
-0.03622317
-0.05058288
-0.04768861
-0.07616698
-0.04480913
0.008463039
0.08330968
-0.018355632
-0.013150682
0.003339516
-0.039752606
0.02335456
-0.05868225
0.09728331
0.03843174
0.05556332
0.09340419
-0.0186743
0.01883218
-0.02887093
0.05019582
0.025069423
0.016204957
0.054198697
-0.032648794
0.035383087
0.07446644
-0.14144154
0.011845923
0.036695927
-0.019494057
0.00088819355
0.00095130544
-0.056888867
-0.04458632
0.07979686
0.08610002
0.02945282
-0.17391358
-0.03854226
0.06377209
0.04042138
0.053285845
0.011471429
-0.05502244
-0.0627294
0.013089104
-0.080874905
0.016487649
-0.078659564
0.009878506
-0.007923775
-0.0059006973
-0.030663025
-0.025882669
0.05208115
0.054678977
0.06659542
0.02759002
0.07402932
-0.008476785
0.006919979
-0.043777496
-0.034705862
0.022708898
0.006023605
-0.06573135
0.04854322
-0.033246346
-0.048131783
0.0061124065
-0.057283603
0.04576109
-0.017103868
0.0044685584
0.028486451
0.021018887
-0.13835502
-0.013459439
-0.065567926
-0.036311075
-0.07244484
0.09969122
0.0395669
0.09165824
-0.124432325
-0.033098806
0.06340415
-0.013135236
-0.07351613
0.07797358
-0.12865423
-0.047321793
-0.031878613
-0.00752557
-0.009466361
0.09784696
-0.07260342
0.043777067
0.005918693
-0.01827519
0.012858906
0.03462478
0.028944593
-0.044142712
-0.03824265
0.03948067
-0.045213357
0.03814641
0.031785622
-0.007990976
0.048882794
-0.053331725
-0.03254964
-0.036379676
-0.051397637
0.0881561
-0.018851116
-0.021200607
0.04291566
0.042614132
0.0050149234
-0.08208011
0.13431871
0.03212084
0.03185474
0.054390654
0.02440072
0.1236773
-0.030357536
0.05088663
0.03899963
0.00069642166
0.02844781
0.0030692907
-0.012305161
0.035767972
-0.0118477475
0.011994375
-0.043383967
-0.00037801458
-0.02237468
0.022855723
0.028726976
0.050494052
0.013573825
-0.0032372111
-0.057165954
0.0035291112
0.07168407
0.012501373
0.06520249
-0.012541941
0.050918154
-0.03502238
0.04348544
0.07983116
0.089703396
-0.025505075
-0.020738352
-0.023321029
0.06491785
0.136058
0.015165055
0.010308117
0.09825893
-0.10311447
0.056855716
0.034415033
-0.0099650035
0.05341073
0.0114377495
0.02289523
0.0133407
-0.12166395
0.112200014
-0.0585896
-0.018680928
0.026679887
-0.07109597
0.038959768
0.06250097
0.06643618
-0.058973975
0.011615985
0.018722545
0.018959971
0.049446866
-0.07016436
0.050331555
-0.059866466
0.030443426
-0.07231485
0.013754876
-0.020957114
-0.13481648
0.0055913883
0.021630216
-0.03373598
0.01163549
-0.11862896
0.00013783878
0.039043285
0.0074996366
-0.014857765
0.06779633
0.014365555
-0.073236704
0.04490905
0.043329664
0.080405064
-0.04611211
0.07219151
0.024919577
0.05278585
-0.08852717
0.015555106
0.014282007
0.017047089
-0.06284438
0.005161319
0.054057404
-0.0010701937
0.042475007
-0.00020405922
-0.07832899
-0.09407009
-0.01004667
-0.028536176
-0.00789421
0.043331
-0.07453723
0.073722005
0.029083159
-0.027298845
-0.040532846
0.041229602
0.038246073
-0.014818503
0.13113654
-0.018292436
-0.012765005
0.05405868
-0.0062584723
-0.10129609
-0.06342843
0.070441715
0.10012366
0.052565455
-0.005158124
0.033722505
0.067897685
0.055079542
-0.054721914
-0.023102032
-0.014452288
0.110050984
0.004306925
0.030053683
-0.00034856732
-0.058057357
-0.027507277
0.056604773
0.0011816096
0.0045869825
0.09292877
0.051719144
0.041182935
-0.0078050424
-0.10758092
-0.06859186
-0.08151246
0.027957233
0.034442432
0.07380609
0.037295178
-0.047281165
0.03466132
-0.15712741
0.009935853
0.06406073
0.07738301
0.117757045
0.08139963
-0.07204802
0.009482166
-0.034958083
-0.05728826
0.08315173
-0.07742624
0.009579019
-0.07216818
0.048881203
0.034158245
0.07737759
0.076783225
0.04797452
-0.02661346
-0.047730274
0.008133404
-0.034276627
0.01986849
0.0749331
-0.044304397
-0.07485489
0.0052185003
-0.07145167
-0.14151764
0.048967086
-0.044575013
-0.041878466
-0.022644827
0.058734555
-0.02036909
0.007451357
0.07417185
-0.061194167
0.0054601994
-0.0011530383
0.020352205
0.015712777
0.090738855
0.07170294
0.06694888
0.03132089
-0.0369125
0.010931432
-0.0422815
0.07387644
-0.03390389
-0.05773736
0.040398367
0.03191671
0.06758851
-0.06660779
0.024893384
-0.010508918
0.005756663
0.069080755
0.05253651
-0.09703699
-0.032452703
-0.025326962
-0.0911679
0.13487098
-0.083732255
0.011864859
-0.03481226
-0.020850511
0.024911398
-0.118026316
-0.078549616
0.039521538
0.04820112
-0.017943626
-0.029153893
-0.024829376
0.03426443
0.09343289
-0.025496254
-0.08441438
0.024835804
0.10376135
0.037592042
-0.014528456
0.03721701
0.019060692
-0.037165225
0.0967581
0.045222346
-0.095605075
-0.044754863
-0.011283245
-0.011573605
0.06530942
0.009782863
-0.07122303
0.092731416
-0.08248784
-0.055115245
0.05921621
0.012668377
-0.07000899
0.019633742
-0.028070508
-0.028360492
-0.0059908433
0.020777302
0.024940182
0.022198187
-0.078969136
-0.015640566
0.06461636
-0.07745905
0.026075037
-0.02911885
-0.088110425
0.10155843
-0.023970112
-0.014068118
-0.08777061
0.015554383
-0.035650626
0.10836658
-0.026519757
0.09435392
-0.0766469
0.015821375
0.028718317
0.00034505533
-0.06764837
-0.044821158
0.093855545
-0.05658661
0.0422751
0.03406418
-0.034960948
-0.075010285
-0.047655333
0.014765553
0.018216358
-0.0030931851
0.012633248
0.0059124804
0.095117755
-0.029097399
-0.06337589
0.024285313
-0.024834218
-0.010543223
0.04946794
-0.0456137
-0.10297628
0.1282673
-0.0065638423
0.06593767
-0.008692057
0.019560633
0.050251935
0.013251825
0.055389438
0.0492464
0.017887505
-0.037289407
0.023663482
0.034210335
-0.105075784
0.04183587
0.0027463723
0.12385829
-0.01583266
-0.07625906
-0.014072041
0.010633608
-0.036407564
-0.015184977
-0.008352995
-0.00426197
0.07798427
0.04177911
0.12608992
0.03440487
-0.044728342
0.015818741
-0.0676699
-0.081474975
0.022201171
-0.018511467
-0.123126745
0.0473747
-0.037219517
-0.0105987
-0.046973743
-0.0010646433
0.021177942
0.053585317
-0.006195714
0.0043861032
-0.10008649
0.058668707
-0.004589906
0.027167493
-0.025322191
0.086278364
-0.04640305
0.00031055356
-0.008197037
-0.051423714
0.008993157
0.12088784
-0.029224612
0.07135756
0.011615783
-0.009073287
-0.05689006
0.043759257
0.0014072899
-0.027384726
-0.13761032
0.051690165
-0.041521814
-0.00051686296
0.003860738
0.032186087
0.046777315
0.090399995
0.08482523
-0.06718512
-0.007932006
0.038126085
0.020284645
0.0037666005
0.018998243
0.068196
0.10631216
-0.037257757
0.046255846
-0.04732278
-0.014103838
0.08556084
0.002613805
-0.03249425
0.04092133
-0.09279952
0.035657056
-0.051356394
-0.043244977
-0.08903266
-0.022675326
-0.025691224
0.008741894
0.036164396
-0.093929686
-0.006447457
0.076318786
-0.050510976
-0.009800951
-0.049567834
-0.008238311
0.09954565
0.0059129926
-0.09277947
-0.050997354
-0.033549048
-0.083537266
0.12317482
0.058223177
-0.022087578
0.051922772
0.07704
0.04997401
0.025648184
-0.01781095
-0.03201943
0.043631215
-0.054230817
0.007174309
0.008204874
-0.06539927
0.012493948
-0.008904511
0.03177764
-0.03780719
0.06415144
-0.03762536
0.12096192
0.005775653
0.041127983
-0.07742185
-0.03127237
0.06488203
-0.024839053
0.09566483
0.083456494
-0.024620157
-0.07288423
-0.031059628
0.020396322
0.044265732
0.06029286
-0.0036489111
-0.05773879
-0.050020505
0.07601088
0.020536993
0.061367832
-0.0400131
-0.07575564
0.008280233
0.08805519
-0.079452224
0.030095924
0.1381715
-0.058508057
0.044832192
-0.048832472
-0.049428083
0.10394413
0.035250682
-0.056568194
-0.010760132
0.025634563
-0.07617023
-0.04895744
0.10814406
0.08733104
-0.050700665
-0.08929124
-0.05647283
0.021107685
-0.044835635
0.100515634
0.11119764
0.026271848
0.05755278
-0.015319931
0.09709741
0.05363737
0.0024970004
0.03580125
-0.013262717
-0.085006006
0.06611142
-0.070122145
0.094617695
-0.0754125
-0.03265119
-0.036420356
-0.069377415
0.03881926
0.06473005
-0.04865408
0.044925217
-0.0033917099
0.025477853
-0.06729
0.040683065
-0.03406901
-0.02597705
-0.04423197
-0.08445842
-0.0019193746
-0.05233948
0.03551248
-0.11602076
0.004036504
0.10568366
0.064559065
0.05196432
0.059089728
-0.034620244
0.03145623
0.06408304
0.058382925
-0.001055264
0.071078755
-0.04111493
0.06760863
0.05054399
0.083255365
0.026674591
-0.06261019
-0.0389716
-0.0014518087
0.07357096
0.045155045
-0.048545126
0.03538954
0.03394537
-0.050751887
-0.012960396
-0.029033985
0.050609592
-0.03155381
-0.07460136
0.0379051
-0.028859379
-0.00442945
-0.028409962
-0.077524476
-0.10813585
-0.0073037357
0.0114674
0.15111002
0.047580007
-0.056052756
0.10591908
-0.021977805
0.098795995
0.03250683
0.0052619907
0.020813173
0.090556666
-0.029482394
-0.04508473
0.07361484
0.044110402
-0.058699235
-0.024954315
0.07260036
-0.052522562
-0.04035324
-0.029780768
0.04565656
0.06418983
0.107492104
-0.08893533
0.01929641
-0.06831759
-0.060949154
0.011879164
0.01787715
0.021453334
0.088517666
0.07059633
-0.020254558
0.08365774
-0.03271444
-0.058586802
0.14038
-0.027804103
-0.039967913
0.0066474495
-0.060073856
-0.06433723
0.046399273
-0.09633202
0.011340598
-0.07582828
-0.03747077
-0.04112812
0.036285684
0.0126658445
-0.10575995
0.08289031
0.02728651
-0.01450435
0.044330657
0.037240557
-0.024310686
0.052491836
0.06166942
0.082410686
0.05549356
-0.069825165
-0.033077676
0.09693839
0.09241185
-0.09752949
0.05438561
0.10838195
-0.045203555
-0.0561396
0.0454611
-0.060082562
-0.01726482
-0.05196998
0.05798665
-0.08891743
0.08841936
0.13206975
0.05351573
-0.08997123
-0.0030770414
-0.03957096
-0.020699607
-0.013715354
0.037782814
0.06665191
-0.052437242
0.021502528
0.05356241
0.032523055
0.006709923
-0.0757175
0.007524203
0.04878228
0.042801153
0.021706205
0.021327456
0.04294761
0.06411479
0.06093147
0.106993414
-0.054577667
-0.01678676
-0.0073253633
0.029469937
-0.06371617
0.0025310698
0.1411758
0.036389265
0.007443655
0.021677276
-0.05211514
-0.034429155
0.07036682
-0.07937878
0.05759666
-0.076282464
0.042543847
-0.03979409
0.015654271
0.0033025402
-0.01414409
0.056400295
-0.07526742
-0.054807063
-0.060422227
0.004352497
0.069741
-0.012867984
0.016663648
-0.013109578
-0.049727466
0.09341226
0.04413611
-0.093033984
0.0039106593
0.08927498
0.0062893345
0.07782652
0.021850308
0.0014500688
-0.03855158
0.026029633
0.0028522154
-0.0017227177
-0.009969161
-0.028370408
-0.06776965
0.017664753
0.012382035
-0.024032604
-0.048076928
0.011777444
-0.05071744
-0.04666257
0.0074955528
-0.052245107
0.053129766
-0.040137716
0.009514756
0.041692574
0.02829977
0.062424075
0.037298113
0.0040911613
-0.020832319
0.03425882
-0.03861128
0.009719897
0.008009069
-0.0018441192
-0.066184595
-0.019067762
-0.022368714
0.07145659
-0.028844742
0.008772557
-0.07793639
-0.058250908
-0.090276435
0.09569998
-0.051038343
-0.031010076
0.026263418
0.048482936
0.06421594
-0.0009898975
-0.04181874
0.095705315
-0.039291166
0.004874029
-0.0072528715
0.06645116
-0.04984942
0.020904029
0.03199462
0.13378154
-0.05608659
-0.06458676
0.03213651
-0.0076172645
-0.03181134
0.042207275
-0.03769241
0.069865
-0.025874319
-0.028815893
0.010563878
0.07863784
0.046420436
0.007414766
0.03797494
0.030303702
-0.049722288
0.087204084
0.13268243
0.055107318
-0.13054088
-0.055636827
-0.026948338
0.0716226
0.0044929446
0.040245187
-0.009207186
0.08475456
-0.056098204
-0.0026727803
0.017042626
-0.01560666
-0.004641679
0.046841294
-0.027561001
0.0063716755
-0.046714623
-0.014420226
-0.063416265
-0.044961184
-0.081742786
-0.1017115
0.01560856
-0.031159308
0.02461556
0.03481295
-0.074000634
0.12041025
-0.01011033
0.004901895
0.12920138
0.014219588
0.053961456
0.085174985
0.07676538
-0.06239733
0.00073525263
0.007899775
0.08706928
0.034764554
0.06624771
0.06776044
-0.071642414
-0.002977313
0.04400483
0.03799585
0.01212193
0.015408225
0.06239453
-0.014043165
0.051026452
0.029264579
-0.0019787485
-0.0035870564
-0.08719928
0.049592435
-0.037003633
-0.044582203
0.039473824
-0.1413241
-0.06244321
-0.053002622
-0.0857559
-0.025610661
0.10176378
0.004930716
0.052978426
-0.015941987
0.00935717
0.0357044
-0.082397185
-0.05034137
-0.078977786
0.04432825
0.107122354
-0.033148695
-0.03131452
0.013344174
-0.008104457
-0.050942544
0.04209115
-0.019566838
0.039180905
-0.009205382
0.100120865
-0.0322444
-0.06347444
-0.02223099
-0.04235261
0.05699641
0.08368374
0.090416156
0.0135046765
-0.038340714
0.022864396
-0.026260793
0.049907032
-0.06345081
0.022876924
0.073209345
0.028195623
0.017185707
0.10080083
-0.0995685
-0.019525487
-0.058394533
0.052189168
-0.076566406
0.06255988
0.039899666
0.09629532
-0.048554208
-0.052816015
-0.039866734
0.029964738
0.023998283
-0.03749245
0.034478188
-0.030380592
0.034876727
0.04192026
-0.14785184
-0.071117036
0.10098976
0.03858459
-0.08320655
-0.0063690613
-0.006888327
-0.009945026
0.01487748
0.047439683
-0.029438337
-0.004898988
-0.029196914
-0.043436125
0.033310454
0.039751843
0.1254674
-0.0637385
0.0005289289
0.0031285123
-0.046689533
0.011710207
0.08004556
0.08123481
-0.02339106
-0.033466272
0.030851046
-0.004316616
0.058377825
-0.09965891
0.042003755
0.011943757
0.03060884
0.09336405
0.024184851
-0.0021254313
-0.03186042
-0.042061996
0.11324323
0.031844128
-0.07529974
-0.046076823
0.022868514
0.035153262
-0.01482391
-0.043578785
-0.0384433
0.015306471
0.045123667
0.028256059
-0.085328266
0.039812308
0.05145593
0.04253963
0.024231844
-0.0018412521
-0.0025310912
0.018772881
0.049372725
0.063467264
-0.016033623
0.027139066
0.023665242
-0.06642653
-0.06835237
-0.06113437
0.059524987
0.008561687
-0.030553257
0.001442631
0.02149776
0.09610412
0.0106728375
0.058255136
-0.120180495
-0.0878666
0.057962164
0.053384017
-0.0018143274
-0.030954555
0.008879234
0.015908426
-0.015956573
-0.07712891
-0.050469387
0.027783006
0.061395895
0.02472644
-0.07479497
0.08582751
0.05189725
0.034527853
0.012109344
0.0401213
0.028250659
0.004226731
0.02160596
-0.054031994
-0.047708265
0.05532823
0.0414396
-0.060961433
-0.042714696
-0.021513755
0.09413859
-0.030392943
0.08353653
-0.10130789
0.023995847
0.0021794515
0.0047641685
0.07197607
0.016475607
-0.01466067
0.05704676
-0.018748557
0.0496986
-0.067998946
0.05473265
0.04013156
0.066997446
0.01863037
-0.04179448
-0.098058924
-0.12274189
0.04069923
0.05203721
0.040303588
0.08789702
-0.088063136
0.026355945
0.011714811
0.022677366
0.05224766
-0.073514074
0.0066603627
-0.081830904
0.062101662
-0.018160377
-0.002897315
-0.100262724
0.10635641
0.015307857
-0.0044940454
-0.003183883
0.017982991
-0.08297473
-0.058512814
-0.074129365
0.04293559
-0.04046486
-0.006729044
0.063398875
-0.0536481
0.044872988
-0.039688
0.019712394
0.008210378
-0.06174336
-0.06587454
0.0124523295
0.05196781
-0.04012853
0.14834894
0.09312492
0.058247857
0.0783026
0.049081393
-0.0063728886
0.082826644
0.054773152
0.07282816
-0.0948404
0.055795565
-0.069942035
-0.040368453
-0.07631434
-0.050035574
0.0012818428
-0.005321754
0.088609904
0.05145708
0.04224
-0.06678645
-0.01751235
0.03564023
-0.0018720865
-0.06878941
0.023613175
-0.034769688
-0.09059771
0.08519365
-0.030974416
0.07167741
0.021547707
0.028596098
-0.11438895
-0.02713621
-0.025517857
0.013652284
0.010243876
-0.032108165
0.03825151
-0.08188113
-0.028090974
0.007688997
0.03560856
-0.024389109
-0.05694034
0.008976152
-0.028210677
0.04425651
0.07121649
0.013105114
-0.036028255
-0.036780834
-0.05572584
0.026175048
0.03294262
0.055917457
0.00033398654
0.09159902
-0.06842077
0.08273201
0.039191917
-0.042616088
0.01231598
-0.07298569
0.015351333
0.017481295
-0.05942644
0.056186985
0.01052127
-0.060523782
-0.022655219
0.02379164
-0.0113903945
-0.02477043
-0.02972763
0.0029974654
-0.12381287
0.023745704
0.044066627
0.03607931
-0.01714531
0.0063049076
-0.09402541
-0.0068963394
-0.044551637
0.032893885
-0.016476844
-0.05010954
-0.043536063
-0.004280241
-0.004865234
0.0045897434
-0.016205763
-0.073233016
-0.039422132
-0.08194226
-0.06453181
-0.06805197
-0.0029707202
-0.008788964
0.05301581
0.06661734
-0.014162309
0.026974063
-0.050522428
-0.021331202
0.01719879
-0.02368321
0.04641417
-0.02685163
-0.005646927
0.03354125
-0.05123032
-0.0068259886
0.07159608
-0.07905483
-0.010918603
0.10494278
-0.013726143
-0.0039595775
0.025486834
0.031077843
0.0879766
-0.030161476
0.09438499
-0.005577148
-0.044627763
-0.06388093
0.042539608
0.0064766244
0.020727148
-0.069124535
-0.076197304
0.082381405
0.0040062503
0.010654825
-0.07418236
-0.07826748
0.086626016
0.014616284
-0.06244559
0.023369256
0.033428956
0.0830327
0.022189545
0.015145824
0.025936482
0.042592466
-0.10771376
0.061279297
0.07793844
0.00034524561
-0.0037155452
0.030932166
0.020147389
-0.028022278
-0.039752625
-0.049972303
0.017279733
-0.03056867
0.08280107
-0.06234161
-0.0583334
0.047837317
0.018813493
-0.060364332
-0.027216118
-0.038171157
-0.0075175483
0.068158485
-0.063445054
-0.04866788
0.03425521
0.032032304
0.008455131
-0.022757504
-0.007971067
-0.041182943
-0.08590976
0.08069399
0.0077093937
0.06792739
-0.04165062
-0.110286154
-0.049472764
-0.0016444935
-0.02090241
-0.0030294515
-0.024853213
0.07625731
-0.048550945
-0.022069374
0.031459052
0.07654673
-0.030730769
-0.048178434
0.06753487
-0.025058666
-0.012622627
0.02897704
0.049772307
0.08243977
-0.057607412
0.06459032
-0.011786049
0.05153677
-0.09873037
0.005641635
0.03962695
0.07240061
0.02591096
0.0440857
0.014231308
-0.031120796
-0.02651226
0.0013850963
0.0886386
-0.018994093
-0.028324354
-0.063101515
-0.032360908
-0.033131246
-0.07576954
-0.016359698
0.016809642
-0.061721712
-0.025244001
-0.059066188
-0.102269515
-0.06495713
0.019861382
0.0116869
-0.016507259
0.045815688
-0.032637183
-0.06254672
0.034832474
0.05899921
-0.042797208
0.06651014
-0.02779141
0.03534072
-0.023468856
0.075350724
0.024611996
0.030387156
0.090067424
-0.016537294
0.08200448
-0.054206815
0.010760703
0.10297654
0.04518251
-0.009668827
-0.03200552
0.025101317
0.065782756
0.0073512876
0.0123064
-0.074770465
0.06297275
0.021191593
0.03005629
-0.02630394
-0.0090380255
0.01365216
0.057738498
-0.053176474
-0.08021503
-0.06823582
-0.07290476
0.017346397
0.013416434
-0.058778927
0.048129093
0.07226106
0.07324245
0.002240279
0.03070235
-0.10010221
-0.03303363
0.022449592
0.06384226
0.04616588
0.047783855
0.08108568
0.041920006
0.015595571
-0.08568785
-0.008781911
-0.05316059
-0.005320462
-0.0328492
0.091588125
0.09948868
-0.043303184
0.05764427
0.01497288
-0.13775618
0.04324533
0.050636545
0.03621702
0.045386862
0.016616711
-0.05835866
0.043236703
0.109338224
-0.020955307
-0.03965733
0.02267602
0.058966644
0.028869297
0.06274781
0.01214602
-0.083560534
0.004225048
0.060281835
-0.04048868
-0.0293223
-0.005475113
0.0683177
0.016896974
0.02657593
-0.034896035
-0.049011532
-0.05310577
0.02724692
0.014319054
-0.009102923
0.0635208
0.015034379
0.08969293
0.07404545
0.056888893
0.008164352
-0.016848007
-0.017967718
0.015520464
0.043074805
0.029658405
0.05650144
-0.01248625
0.025394347
-0.009271098
-0.009645022
0.023930296
-0.16314816
-0.023956848
0.08060286
0.026254758
-0.07236191
0.014014424
0.043087076
0.019259427
0.005876735
-0.03901203
0.038864512
0.09475449
-0.041635737
0.002000871
-0.0004673707
-0.07542133
-0.04587455
0.10336724
-0.08385601
0.019710662
-0.06718592
0.0014831888
-0.0921555
0.04458052
0.033599094
0.018771585
0.026273401
0.07203524
0.07688688
0.039100673
0.0027215292
-0.09450771
0.12547068
-0.019353272
-0.001271269
0.038265076
0.047112487
-0.067010894
0.045822524
-0.03468693
-0.0618738
-0.04635315
0.08727033
-0.05944926
-0.039217435
-0.033122417
0.017626999
-0.02312722
0.05686747
-0.010145182
-0.042269345
0.049631465
0.008691159
-0.03549265
0.095471404
-0.0237765
0.036983654
0.057416264
-0.09044128
0.044946782
0.0076213004
-0.056091383
-0.011635327
-0.026921088
0.052517492
-0.05150347
0.07000984
0.0117463665
-0.008365751
0.008250718
0.0054222737
-0.02926453
0.054169003
-0.02816318
0.03234802
0.07195
0.014719474
-0.021355432
-0.14267738
0.055734213
-0.012878365
-0.010776355
0.037037358
0.08802102
-0.062486537
0.099024855
0.0705893
-0.11145448
0.047034014
0.030101025
0.042519
0.006045938
0.060415417
0.021272387
0.07515105
0.011257584
0.07873758
-0.08755885
-0.09309613
0.008894082
0.020120557
0.0065396437
0.0458731
0.08118546
-0.03888303
-0.05343168
0.011521207
-0.019310711
-0.028619908
0.007865978
0.039205164
-0.09944582
0.049100116
0.008786751
-0.02188601
0.026068375
-0.10066523
0.0023866114
0.062168676
0.03547804
0.008530865
-0.008424371
-0.04293087
0.011604144
0.037097875
-0.09722418
0.03409862
0.04876873
-0.079482846
-0.08431248
0.13132472
-0.03219014
0.009130008
-0.047922425
0.029150952
-0.011768441
-0.039297312
-0.014313464
-0.02167164
-0.0052179615
-0.008610565
-0.074140206
0.04670823
0.037898403
-0.051339433
0.028852034
0.10014807
-0.026753087
0.07032592
0.045392774
0.020888023
-0.051057894
-0.029734047
0.020990076
-0.0016658464
0.06917105
0.018462984
0.08817876
-0.017201116
0.017745495
-0.049765125
-0.07253823
-0.062343147
0.07706405
0.07649414
-0.016279088
-0.03874057
-0.0077898423
-0.0071148626
-0.018763285
-0.097635195
0.08116564
0.01195388
-0.011133378
-0.017161518
-0.07083068
-0.013052214
0.027601046
0.03775372
0.07960712
0.004284583
0.07331707
-0.019714762
0.03708753
0.05770363
-0.076121114
-0.0659756
-0.0070667337
-0.029527567
-0.04503992
0.011235965
0.05493746
-0.13568608
0.020534122
-0.089543104
0.041488994
-0.108479574
-0.08422522
0.011054192
0.06764308
0.032059286
0.039310142
0.045065183
-0.013503637
-0.11942847
0.05745053
-0.118774176
-0.10162016
-0.045198996
-0.04180587
-0.056415047
0.027392097
0.017320568
-0.0191209
-0.07824523
0.021692349
-0.012934959
0.004747891
0.05004921
-0.022125468
0.05365152
-0.06544019
0.099453405
-0.061782043
0.09287095
0.06461182
-0.026389636
-0.014926874
-0.14347781
-0.046734884
0.07620344
0.022161888
0.047560565
0.024037004
-0.0923209
-0.01275694
0.009822867
0.068063475
-0.03546505
0.05113893
-0.041837443
-0.05412445
-0.030257422
0.0026210996
-0.055613123
0.035195388
0.035204053
-0.05458834
-0.04878762
-0.00877685
0.02681319
-0.028113347
-0.16320713
-0.13078623
0.0007133141
0.025538756
0.040802337
-0.023810985
0.06652774
0.09123401
-0.039425727
-0.06111522
0.062106024
0.0043997825
0.049325038
-0.025637861
-0.041394643
-0.020276977
0.06833657
-0.07728493
-0.057663046
0.061769534
0.037306357
-0.037472494
0.025809793
0.032068267
0.010813902
0.04347263
-0.008232938
0.027880196
0.073386654
0.060087822
0.039744306
0.010280243
0.04446728
-0.16228019
-0.038526703
-0.062282898
0.019198311
-0.07503284
-0.004406671
0.05761593
0.07651539
0.01923424
0.034311395
0.07314923
-0.045832433
-0.008492665
-0.05324599
0.06712532
0.009388007
-0.0113149835
0.060971472
0.08443662
-0.029735994
0.07660921
-0.004684514
0.042801104
-0.06604492
-0.07239223
-0.061666824
0.09749604
0.0076661156
0.009639903
0.050600577
0.10335928
0.020972967
-0.069551766
-0.04763228
-0.011674502
-0.09406529
0.04143772
-0.035590954
-0.046165016
0.042990685
-0.026347768
-0.031342745
-0.08767022
-0.092298985
0.08628685
0.012591933
0.054057505
-0.019958388
0.033027872
-0.01848308
0.045052357
0.034154948
0.0040764627
-0.06539302
-0.028519506
0.058113955
0.005557233
-0.051085334
0.02556855
0.015181236
-0.09736286
-0.055974126
-0.055778854
0.03461877
-0.031206885
-0.03857587
-0.014859223
0.064092375
-0.061130896
0.00419319
0.0835146
-0.055544678
-0.045838602
-0.05244101
-0.02623138
-0.042646635
-0.072678424
-0.08817529
0.028801538
-0.056770172
0.10157155
-0.085223965
-0.006168317
-0.011924305
-0.027291102
-0.1492922
-0.042647913
0.037839934
-0.07448669
0.033205755
0.12819651
-0.034461446
-0.0036126017
-0.015364249
-0.11174344
-0.038746357
0.048419647
-0.023702407
0.05586705
0.051262107
-0.103133135
0.053422946
-0.12336511
0.0045299493
0.024820294
-0.03452424
0.06133921
-0.047206245
-0.057065565
-0.0008607263
0.064712845
-0.058792565
-0.07729282
0.021506336
-0.005549523
-0.017218616
0.013370801
-0.06607592
-0.0005942117
-0.0035259086
-0.04264644
-0.00010239787
0.04279887
0.009283394
0.079437874
-0.0052134944
-0.006865802
-0.043762833
-0.06310454
0.05150011
0.059108496
0.006310025
-0.10077107
-0.02853053
0.046677615
-0.038287267
0.09847678
0.07467171
0.027656069
-0.016795447
0.058403887
0.023242615
-0.047301173
0.02129536
0.030935341
-0.07817357
0.03329459
0.13193674
-0.11101501
-0.0011707359
0.05278707
0.024639877
0.09273381
0.0493437
-0.084642746
-0.062833674
-0.015912969
-0.00900143
-0.02597674
0.02074647
0.022320755
-0.017874686
0.074632816
0.024341911
0.0059976196
0.023498412
0.06920026
0.11054463
-0.053089056
0.05521909
0.14105813
-0.13189822
-0.10473851
0.06948356
0.024164114
-0.059608866
-0.090424
0.004793942
0.054030675
-0.02918701
-0.08114833
-0.04015693
-0.032276828
0.09706274
0.0056350725
-0.021072863
-0.08648514
0.06681455
-0.029461056
-0.030728687
-0.021768618
0.0032657534
0.023755345
-0.013155301
0.046252877
0.005636064
-0.030786524
0.035627507
0.056001738
-0.0674072
0.006277731
0.042606734
-0.04200711
-0.024570188
0.030172385
-0.04635774
-0.08882328
-0.08314021
-0.048901767
0.11568844
-0.030634226
0.0684998
-0.024591701
0.019284833
0.027579332
0.121984005
-0.057216767
0.008180181
0.05166004
-0.013483253
0.043919656
0.021566562
-0.009731183
0.029720934
0.02097487
0.02010316
0.05058206
0.041047383
0.099134035
0.015402998
0.04934316
0.041324176
-0.042803008
-0.015653249
-0.02315271
0.023231614
-0.12470591
0.04916869
-0.006846692
0.023698477
0.045518745
-0.048389424
0.09062565
-0.01257025
-0.01955685
-0.03643771
-0.042355318
0.02677443
-0.031689428
-0.0380507
0.04467955
0.037232034
-0.043144993
-0.02052385
0.0731375
0.015879273
-0.007718112
0.05532997
-0.028877834
0.010992014
0.0014028053
0.007666768
-0.019452356
-0.035997733
-0.07682045
-0.055826243
0.038599595
-0.12574899
-0.101645604
0.05387004
0.05548025
-0.053952806
-0.039181843
0.034938622
-0.052027106
0.02022579
-0.07182226
-0.01153059
-0.012404904
0.016501402
0.04135506
0.025883703
-0.024218084
-0.01806004
-0.0006096666
0.043586988
-0.0037828884
-0.035001617
0.006410942
0.02861701
0.0023626261
-0.023388037
-0.061115306
-0.017502876
0.024165016
0.026520425
-0.11796183
-0.07554173
0.11323088
0.029626975
-0.048327215
0.03409088
-0.029917588
-0.036655284
0.033817638
-0.070943736
0.030905738
0.017232252
0.0762033
0.015557336
-0.012800694
0.060177337
-0.035472576
-0.025958182
-0.016102461
-0.021132424
-0.05349542
-0.01342137
-0.11904536
0.02087418
-0.00016794597
-0.056007266
0.039516594
0.0108560035
-0.02123421
0.072520755
-0.022664623
-0.06028077
0.021672083
0.07034303
0.025437606
0.00515917
0.06396241
-0.094609275
-0.002029389
-0.017938664
0.037088186
0.082205184
0.07685714
-0.055342484
-0.053207446
-0.023967844
-0.08100384
0.05730653
0.06038087
-0.0026825566
-0.032278936
-0.05240411
0.02371678
-0.088434055
0.017113859
-0.07146078
0.018641774
0.012761105
0.012975714
-0.002315128
0.0029217345
-0.031039467
0.015536339
0.013566908
-0.010486175
-0.0030669929
0.00726783
-0.044563178
0.110745594
-0.07130052
-0.040555578
0.023710493
-0.027254237
0.0367537
-0.061059
0.08388046
0.042339098
-0.0057887984
0.09395282
-0.04287895
-0.047942277
0.022495938
-0.029732523
0.016945906
0.017202713
-0.04542297
0.022730973
-0.036547493
-0.038145185
0.0025701302
0.0080404915
-0.018344691
-0.124312535
-0.051333223
-0.040809475
0.0069985897
-0.078134336
-0.033617135
0.055519607
0.059274137
0.0022108643
-0.046989366
0.022993423
0.009143727
-0.036246393
0.061055288
0.026161227
0.07305823
-0.11635494
-0.066491775
0.08084237
-0.09894521
0.045220863
-0.08145826
-0.0036509926
0.021743204
0.073556416
0.08771624
-0.024370814
0.07855346
0.044659488
-0.021383181
-0.06668842
0.020080695
-0.04703942
0.08524374
0.06884656
0.03571417
0.023335177
0.037974346
-0.0065234983
-0.040554523
-0.004378597
-0.04453051
-0.04997957
-0.058403518
0.0070714476
0.050373983
0.096833274
-0.008958918
-0.019168356
0.016036961
-0.005304351
-0.006623601
-0.006512926
-0.04411316
-0.039468654
0.08532803
-0.08560869
0.0062417067
0.009861557
0.08594678
0.0051630554
0.034334708
-0.004638807
0.09016433
-0.018986592
-0.008864724
0.062767245
0.044233605
-0.09006271
-0.011784159
-0.08609059
0.08320693
-0.08312836
0.02847708
-0.041906066
0.031748768
0.02520099
-0.08824984
0.079387985
0.018577883
-0.016385674
-0.05197027
-0.060366753
-0.066370964
-0.03292526
0.023514088
-0.025891872
-0.023617519
0.039494757
-0.05859395
-0.079219654
0.05762177
0.10955415
0.0016163106
0.068808526
-0.0061320756
-0.08093544
-0.026450476
0.06464335
0.13732022
-0.011415223
-0.0039960695
-0.01903782
0.057285566
0.042939264
-0.06778992
0.020573724
0.09840774
-0.010872562
0.030480668
-0.05241001
-0.056164797
-0.06940289
0.0021786941
0.031203177
0.06467306
-0.014834242
0.098955736
-0.0727794
0.005367117
0.015354313
0.033943474
-0.0015907518
-0.014618027
-0.023531644
-0.042860337
-0.03433936
-0.027552448
0.0044901986
-0.036535013
-0.0047512767
0.03419048
0.008051256
0.026178857
0.058759384
-0.07309828
0.0024639945
-0.052216567
0.110511914
-0.030641483
-0.006749698
0.093071386
-0.026901199
-0.10470475
0.11953473
-0.018818174
-0.05382574
0.053740405
0.0018835028
-0.014485246
-0.033269767
-0.0082944445
0.019035926
-0.050093424
0.0016252194
0.018840471
0.102640696
-0.09945609
-0.07842484
-0.00608588
0.015688892
0.010021092
0.0039759083
0.06781529
-0.01763172
-0.015414134
0.016875405
0.048434354
0.026406014
-0.013839981
-0.039625645
0.020647246
-0.0068119937
-0.0022018538
-0.04724194
0.027312098
-0.071781985
-0.016863452
-0.08623831
0.06797996
0.015656047
0.007053485
-0.015204889
0.017748244
0.088898554
0.10213418
0.023961816
-0.06728554
-0.075877786
0.017911237
-0.015329971
0.033460222
-0.02577439
0.07443786
0.053295884
0.05747366
-0.012273677
-0.08350584
-0.02842901
0.009364488
-0.016076686
-0.0020108824
0.030909773
0.023619903
-0.031008586
0.036341082
-0.034222458
-0.0064376644
0.10180103
-0.08771292
0.031436265
-0.05618518
0.010468796
-0.03790738
0.025706252
0.03500134
0.03452393
0.003254093
-0.042491753
-0.04459051
0.08287762
-0.075393334
0.040888734
0.03397209
0.06630835
0.07050126
0.026507355
-0.050403297
0.036204327
0.09253944
0.053668182
-0.036623575
-0.059505936
-0.016170193
0.05929279
0.0019511379
-0.08432778
-0.004279756
-0.12156985
-0.009341811
-0.02215476
-0.0715075
-0.10009786
-0.029794876
0.01164011
-0.05718094
-0.06660071
-0.067986414
0.016420485
-0.11749796
0.08668494
-0.11869696
0.02707708
0.0035095445
-0.07353774
-0.06252222
-0.011418102
-0.003915566
-0.021921339
-0.060070697
0.0007331668
0.0090227565
-0.04397307
-0.042773698
-0.100070916
-0.029578252
0.033055592
-0.050977282
0.016245034
0.020483462
0.031306576
-0.10118549
0.020776782
0.0068535465
-0.04700909
0.032998268
0.014070529
-0.059522238
-0.025634801
-0.062991835
0.04250126
-0.029687474
-0.0074958685
-0.007986251
0.088248156
0.060325928
-0.0422852
-0.02608442
0.009776067
0.0028779046
0.096284375
-0.005506713
-0.11544668
0.0036593566
-0.047643512
0.07909462
0.09944193
-0.033108722
0.059708618
-0.064999625
-0.024659963
-0.07122446
0.028167829
0.04533701
-0.06262483
0.0049799774
-0.037302148
-0.08767221
-0.034931753
-0.006433863
0.04639649
0.027812105
0.025102759
-0.059112623
0.006208704
-0.03974128
0.06110996
0.059397608
0.09515781
0.006883614
-0.043635007
-0.0029997122
-0.06068765
0.040832877
-0.0024668581
-0.014358207
0.088490106
-0.021934409
-0.07924148
0.057601344
0.046455584
-0.032787226
0.0002765851
-0.0881988
-0.04853553
0.11063819
0.0067989393
0.029554473
-0.030355606
-0.087838076
0.0022343672
0.07139761
0.011506392
-0.00714779
0.03323922
-0.061606087
-0.035393666
-0.09535053
-0.0563633
0.031992346
-0.16688602
0.079660006
-0.074884996
-0.07931552
-0.022976639
0.072052
0.03219964
-0.00856407
-0.008198677
-0.127787
0.004767669
-0.0893123
-0.02055899
0.029185817
0.07235154
-0.064301625
-0.022279892
-0.053604826
-0.04290542
0.06758355
-0.07790174
0.020234328
-0.046640486
0.08938958
-0.04919407
0.0153427
-0.039757986
-0.06963439
-0.101725474
0.052127447
0.10454938
-0.06707816
-0.009582457
-0.028915823
0.014838504
0.032336894
0.006247432
-0.008961172
0.0093195895
-0.018896654
0.021640727
-0.034868453
0.015372404
0.0203295
-0.016706537
-0.054244164
-0.045154247
0.03560833
0.0043155923
-0.063872255
-0.02441696
-0.0063491007
-0.048316717
0.025176594
-0.011010939
-0.020265931
-0.012028157
-0.058135305
0.08848511
0.017542485
-0.027924832
0.014903134
-0.00876467
0.025120601
0.08730981
0.025018211
-0.095770106
0.005014347
0.03384022
-0.039018113
0.050697256
-0.0703138
0.0017533205
-0.02428361
0.034897324
0.030993057
-0.0636305
-0.04343814
-0.04930489
0.04609809
-0.02778503
-0.013220819
0.049227193
-0.042133335
0.05335561
-0.07371626
-0.016389953
0.08425917
0.005919728
0.062088657
0.03895822
-0.10390396
-0.017177502
0.017630864
-0.03147473
0.04075634
0.03889105
-0.06943837
-0.041462686
-0.01733494
0.0008627188
0.059224878
0.029999927
-0.05165422
-0.037075963
-0.007884543
0.0047513754
0.013244138
-0.047144495
0.019550024
-0.0015836715
-0.06720196
-0.006124802
-0.043002933
-0.0017462063
0.006436152
0.015921766
-0.03503041
-0.0424983
-0.056162905
-0.027565919
0.10716211
-0.05426284
0.05337073
-0.026257614
-0.026728446
-0.041839823
0.06497988
-0.035818286
0.036002185
0.07415044
0.018037833
0.0049599526
0.005571841
-0.08841232
-0.05184197
0.008891438
-0.04408878
-0.006022312
0.09684649
-0.0016431155
0.060620718
-0.03348434
-0.06765868
0.06467984
-0.02897677
-0.07675952
0.039729208
-0.052326057
0.064772695
0.08514025
0.0053668837
0.04261059
0.035651304
-0.008246885
0.047349006
0.052844033
-0.07007533
0.017019974
-0.03227867
0.03465943
0.079951
0.036693662
0.025757568
0.046766493
-0.011397429
0.115889646
-0.012551071
-0.009562196
-0.027172208
0.024170136
0.029783962
0.016195562
-0.02960455
0.042295
-0.053332455
-0.031917892
-0.13445137
0.03472761
0.04615601
0.0090502435
-0.010618669
0.0028196403
0.04618581
0.05694137
0.09168056
0.09189258
-0.09461441
0.03917975
-0.06647285
-0.020313533
-0.058254287
-0.0079910755
0.014078041
0.05090478
-0.07480817
0.030219913
0.047252223
-0.075109154
-0.037012383
0.09109075
-0.03542948
0.057460383
-0.010825107
0.10557151
0.05082517
0.10220064
-0.08343038
-0.051099766
0.018633274
0.014712531
-0.058617122
0.005641345
-0.018955812
-0.024772473
0.08091731
-0.03297388
0.051753115
0.056352016
0.00939089
0.009822272
-7.7844714e-05
0.017791148
0.004552037
-0.0012100117
-0.07428817
0.0535869
0.0077827354
-0.070833005
-0.034508485
0.08573254
0.0015616427
0.038943846
0.020211045
-0.062294412
0.021993805
0.019249618
0.06610563
0.031070853
0.077451535
-0.059520375
-0.022606146
0.042989347
-0.020298757
-0.056400783
-0.048762493
-0.041383605
-0.04896734
-0.028016163
-0.04006151
-0.05075227
-0.063819155
0.040384375
0.0057856096
0.03185698
-0.08870118
-0.025159627
-0.07472344
0.005852618
-0.04459191
0.05330638
-0.031725716
0.030464208
-0.0139440065
-0.026111273
-0.07935571
0.09923235
-0.066817954
0.058153816
0.03395861
-0.036176417
0.016047891
0.0070876735
0.045491014
-0.011114902
0.032849796
0.040183432
-0.06021671
-0.027810602
-0.02979951
-0.002651093
-0.025134984
-0.006613492
-0.028230881
-0.078931846
0.014919877
0.05446137
0.0110579105
0.0355681
0.018889802
-0.034774356
-0.045551762
-0.044891182
0.0841311
0.0018574608
0.056236412
-0.023685008
0.02609345
0.08937664
-0.02575568
-0.062245913
0.06430597
0.052379142
-0.028226014
-0.04659029
0.064721584
-0.079934716
-0.006992392
0.07389839
-0.076525316
0.012039556
0.07090314
-0.0052162525
0.041091196
0.023946255
-0.08896694
-0.060911525
-0.025814932
0.08286232
0.026464958
-0.04217738
0.029554075
0.086945616
-0.010939521
0.026950516
0.04606705
0.05442687
0.03192543
0.0065711904
-0.02257247
0.08597934
0.0667137
-0.056566164
-0.0009522796
-0.013678642
0.05052811
-0.02615374
0.009423272
-0.071256906
-0.04658618
0.052917853
-0.04476582
0.057782628
-0.045313608
0.00523088
0.04502886
0.037405174
-0.07736802
-0.062607266
0.029238433
0.09383475
0.05266142
-0.06608796
-0.0010033366
-0.07852507
-0.045453794
0.10257333
-0.021079063
-0.019362729
-0.06557064
0.08628248
0.054917194
-0.03125088
0.015228425
0.017598094
-0.030487483
0.021360086
-0.050469924
0.043971512
0.031015169
-0.030436859
0.060803566
-0.0516833
-0.03910276
0.00593212
-0.08193757
0.07278109
-0.051545326
0.025752053
0.093399204
0.115167715
-0.017915113
0.0693341
0.044137783
-0.0026976748
-0.0076965154
-0.059659764
-0.07443884
0.0017984628
-0.034468777
0.05866536
-0.03764402
-0.11464201
-0.024985291
0.06804219
0.060467232
-0.09994788
-0.024267765
0.09966741
0.012087156
0.019164614
-0.07313576
0.11758836
0.020575497
-0.0242724
-0.08210222
0.036682405
-0.017127734
0.069617994
0.07383995
0.05392736
0.06433274
0.014530127
0.0006146044
-0.04694776
0.05366816
-0.07673859
0.113074124
-0.06328708
0.015770003
-0.02501637
-0.05446582
0.040690154
-0.031431627
-0.08040694
0.0133893825
-0.026136486
-0.02689743
-0.029309586
-0.07728744
0.006081279
0.03964597
-0.04433809
-0.09440006
-0.016933965
-0.0036612905
0.040024955
0.08170456
0.050837845
0.016234316
-0.047907844
0.07568165
0.022046842
0.032727778
0.00032410558
-0.03520865
-0.119819015
0.011295145
0.060737483
0.02346021
-0.031570397
0.036695577
0.016954243
0.0049644983
-0.04446637
0.027341558
-0.05954448
0.038579322
-0.08967301
-0.0049750805
0.04166165
-0.049631972
0.01975819
-0.058861196
0.0017489019
0.01818503
-0.09579418
-0.017379947
-0.04066551
-0.014185413
-0.01946828
0.07104338
0.04161875
-0.049363617
0.11325433
0.018366428
-0.03975698
0.042358447
-0.012945318
0.027569892
0.007056113
-0.02325471
0.012024314
-0.0981659
0.09530364
0.07711377
-0.11766687
-0.022500059
-0.024160627
-0.041532867
0.028415939
-0.011714045
0.07209719
0.059752468
0.07759013
0.0053491774
0.018521432
-0.030373339
-0.06992558
0.0024937787
0.026920523
0.0022283087
-0.002742314
0.007078637
-0.013005857
0.0230236
0.04559455
0.023435216
-0.083763726
0.047747415
0.02527634
-0.044683523
-0.018128283
-0.055034745
-0.090902776
0.1071025
0.05329564
-0.077838
0.07585541
-0.011515767
-0.0025214602
0.0850494
0.021569347
0.026162904
-0.039221145
0.022170138
0.043120544
-0.041751914
-0.0049553476
-0.024629643
-0.13105027
-0.034981497
0.04677518
-0.002859506
-0.08222734
0.00092181086
-0.010793988
-0.04561503
0.028148757
-0.011397947
-0.005468504
-0.071963444
0.011538201
0.015098665
0.06307229
-0.04175001
0.04131985
0.073175155
-0.019768404
-0.03621914
-0.09292536
-0.07295048
-0.0036780322
0.013767133
-0.07376109
-0.10900988
0.005229885
0.086239
-0.015752714
-0.04233988
-0.06544612
-0.043859594
-0.025400626
0.04744156
-0.0019662231
0.0489003
-0.026896393
0.02233524
0.05990155
0.02313627
0.0193287
-0.017830916
-0.012304001
-0.045179673
0.10454146
-0.005149071
-0.095328465
-0.023576368
0.05503425
-0.019904997
0.052193195
0.016726317
-0.034359634
0.050163567
0.053558324
-0.048915997
0.05446305
-0.06958652
-0.0069281016
-0.011021337
0.0820547
0.006397224
-0.06478596
-0.065642774
-0.044982854
0.0033471321
-0.05629306
0.103339545
-0.0022200048
0.003996626
-0.022202896
-0.0120497625
-0.06459535
0.030911451
0.07920811
-0.083509214
-0.026622357
-0.05873686
-0.07301072
0.04140298
0.08314471
-0.078708135
0.05750856
-0.06863696
-0.071605854
-0.0048035462
-0.033335928
-0.019786125
0.036214404
0.03100553
0.08297374
0.05709974
-0.13714801
0.029401049
-0.019470822
-0.059531864
-0.007832913
0.1046672
-0.07124064
0.07278471
-0.014293825
0.057212148
0.060538005
0.0004200791
-0.097110756
0.030491969
-0.018174823
0.055397194
-0.022191916
0.029164277
0.020062149
-0.052453432
-0.0091016935
-0.02396125
-0.03894013
-0.050218977
-0.066029094
0.046728067
-0.016666658
-0.007747922
-0.039725047
0.056405324
0.02065497
-0.10448869
0.034012433
-0.044692304
-0.016099714
-0.026402315
-0.08489107
0.0023526947
-0.036767416
0.048355583
0.015462555
-0.109599054
-0.05347194
0.0064509315
0.032974254
-0.08585268
-0.00565513
0.015306205
-0.06671361
0.07678882
-0.02965616
-0.057805665
-0.05081449
0.0038504002
-0.10486928
0.0063740555
-0.05501191
-0.06921145
-0.10455218
-0.18222436
-0.0412751
-0.011371043
0.045370795
-0.0058042845
-0.028874632
-0.03184439
0.0975196
0.06153406
0.039411694
0.013590485
-0.03022871
-0.012120414
-0.031104423
-0.024740305
-0.07274994
0.02345051
-0.08491065
-0.042295072
0.048006073
0.043549784
0.07384263
0.06421205
0.011455729
-0.038517397
-0.04903342
0.06309236
0.06298896
-0.005877984
0.03732921
0.007787456
0.012692161
0.019871518
0.017636694
0.09568879
-0.084084876
0.06081152
0.024377538
-0.08528331
0.05975892
0.036309242
-0.02045217
-0.017108675
-0.046458323
0.025376813
-0.019339958
-0.012925161
-0.0829929
0.06501077
0.019365827
-0.046167985
0.08062451
-0.014685759
0.016235838
-0.0021376915
0.059764642
0.090465955
-0.1194233
-0.03292467
0.068530165
0.009908823
0.10526104
-0.09863989
0.09219315
-0.0733848
0.07088244
-0.027543329
-0.04589789
0.076571375
-0.03590751
0.049974483
-0.0668343
-0.025889227
-0.0019064243
-0.042627573
-0.050127357
-0.0092433
0.030179119
-0.043225057
0.10449829
0.060579963
0.035626546
0.013855826
0.087276764
0.009636637
-0.03790566
0.031185308
0.05592358
-0.05080699
0.018842079
0.03270241
-0.0509122
-0.030796388
-0.098912984
-0.003688356
0.021001216
-0.052208997
-0.0035353021
0.06985171
-0.022314988
-0.014080909
0.017243361
-0.08593339
-0.08598769
-0.043637797
-0.050534543
0.030294362
0.010731966
0.02904696
0.012041782
0.056284025
-0.07029625
-0.043934923
0.015324427
0.03186858
0.011606712
-0.022289809
-0.011003373
-0.08249365
-0.02266319
-0.07431046
0.022190832
0.032457177
-0.021386988
0.050256614
-0.047069203
-0.027294476
-0.13439536
0.08408567
0.033772122
-0.06856146
0.012441201
-0.012897178
0.060839564
-0.061028432
-0.0042759124
0.061472435
-0.09767035
0.034362268
-0.09397648
0.010216169
0.05238643
0.00049607316
-0.0037727042
-0.035392698
-0.0038286385
-0.011023508
-0.08845328
-0.026927372
-0.10545101
0.0795329
0.027131733
-0.05997352
0.00833624
0.009435691
0.06389224
0.016455797
-0.015788196
-0.047528602
0.04328899
0.02357382
-0.03607129
0.060986206
-0.07034578
0.021867728
0.04407033
-0.016483603
0.019150766
-0.037532415
0.025505269
0.0065544248
0.012661465
0.082556404
0.010586414
0.07957761
-0.04106565
0.040365007
-0.049941745
-0.013958757
0.068757676
0.04268741
0.029564632
0.04957383
0.05079134
-0.034356393
0.09257418
-0.034575712
0.058622338
-0.014929482
0.04892937
0.019520452
-0.06618573
0.047397967
-0.032491107
0.03685438
-0.043297824
-0.056198973
-0.015822724
0.07608224
0.017954838
-0.08783316
-0.0886683
-0.040688243
0.013425494
0.02823013
0.04659938
0.07334527
-0.047869045
0.05776458
0.0128651485
-0.07635505
-0.023312649
0.057592157
0.006065251
-0.026356323
-0.03629979
0.03224773
-0.014407323
-0.044310335
0.013871683
-0.026355058
0.032294758
0.04452453
0.054450218
-0.06791202
0.09279355
0.0065712016
-0.029024173
0.005996969
-0.013431385
-0.007314069
0.041998103
-0.123975106
0.10982877
0.058682323
0.057020213
0.025962587
0.018970156
-0.028883567
0.11808861
-0.10460034
0.0492011
-0.01204712
0.039800692
0.053852353
0.07356519
0.023825062
-0.0149211595
0.009359122
-0.039448023
-0.026962826
0.02402989
-0.08844853
0.030337948
-0.019783981
0.016637895
-0.01047683
0.11687022
0.0468524
-0.009269655
-0.018195529
0.037840903
-0.0185038
-0.11785418
0.037618317
-0.049762424
0.0032467025
0.019090008
-0.022855073
-0.014145888
-0.109346494
0.024955768
-0.07619299
0.0013297297
-0.0824418
-0.03388822
-0.031019513
0.016380025
-0.059750155
-0.04004252
0.037655532
-0.009465814
-0.09625912
-0.03215862
-0.056118526
0.024517473
0.051400345
0.042677738
0.007382149
-0.021609725
-0.024959961
-0.0068489504
-0.087646306
-0.042666078
-0.02365003
-0.004425236
0.013252796
0.123596996
-0.06225706
-0.14303425
-0.049585402
-0.041395724
0.033916473
-0.047300626
0.109112576
0.07811603
0.013532065
-0.0043495926
-0.05435182
0.005204288
-0.05136648
-0.029394755
0.06006384
0.07434774
-0.0027879993
0.043233603
-0.08200782
0.10082591
-0.08991042
-0.049646925
-0.04128885
0.013008165
-0.011108954
-0.055726193
-0.014756586
-0.02995209
-0.0842907
0.009272633
-0.033284705
-0.062484745
0.017233927
-0.009602422
0.06566174
-0.10535693
-0.028267922
0.08176182
-0.07173212
-0.03210746
-0.03427385
0.08277193
0.101063795
0.08993755
-0.00030362705
-0.011935993
-0.0069499603
0.05458863
0.025507638
0.023223983
0.031347703
0.040009726
0.009391561
-0.047013402
-0.016654868
0.058361765
0.06577406
-0.05867734
-0.067016006
-0.0127455555
0.021606723
0.07893469
0.026586588
0.08703337
-0.050387744
0.057401042
0.013440694
0.026074344
0.029166963
0.03536937
-0.061807357
0.04737506
0.0033959227
0.022523317
0.025597228
-0.07583161
0.039932128
-0.035778895
-0.0016994276
-0.07088791
0.013056496
0.0058167432
0.01644173
0.0678509
0.022192493
-0.041301075
0.007653248
0.03666851
-0.08942759
0.08287151
-0.06452344
0.04977684
-0.07247038
0.043690387
0.060750823
-0.101457514
0.02756607
-0.0038252403
0.042833585
0.0023751685
-0.0788238
0.039562684
-0.043502215
0.013895205
-0.033086922
-0.008750432
-0.054229762
0.03130389
0.033241417
-0.13499697
-0.018387064
0.048653323
0.069934696
-0.080162704
0.0075525907
-0.042676173
0.124676004
0.06645146
0.010851915
0.010460093
0.08292802
0.075223014
-0.010789878
-0.047410686
0.025171716
0.03665893
0.09127202
0.013369915
0.02882841
0.07287083
0.0015123272
0.017865691
0.012470284
0.05715223
-0.05231155
-0.06802379
0.0265387
-0.06912224
-0.05019627
0.03321466
-0.06471969
-0.036640126
0.07031384
-0.023943782
0.016232718
-0.007169217
-0.0136278635
0.033916637
-9.9953495e-06
-0.0036025571
-0.07536562
-0.07287092
-0.018899443
0.09431199
-0.065405935
0.01926357
0.015960801
0.0483877
-0.0063836672
0.0717551
0.030108288
-0.028620662
0.09885743
-0.01802802
-0.029474923
0.033093564
-0.086439215
0.04371663
-0.12015639
0.0067507545
0.04224632
0.059160043
-0.021987028
0.06276137
0.013950474
-0.0027644252
0.069180146
-0.007693267
0.009828464
0.045042742
0.04842475
-0.013030111
-0.002670517
0.15281735
-0.062326822
-0.014393432
-0.05379623
0.06752307
0.03199283
-0.02367416
0.102905944
-0.035403345
-0.04825307
-0.0052543636
-0.0972174
-0.057998583
-0.025052413
0.0004951853
0.03502984
-0.019548353
-0.039068736
0.032952596
0.018273156
-0.08385444
-0.015962997
0.082365625
-0.03880712
0.07303235
0.013608834
-0.02883904
-0.0035192478
-0.049172793
-0.09436128
-0.019897614
0.03732415
0.051063348
-0.037308384
-0.013006918
0.0048795715
-0.01506543
0.16346063
-0.034817826
0.0075076604
-0.08557889
-0.023090445
-0.06078332
-0.085558
0.11560785
-0.102787375
-0.022216396
-0.08297598
-0.11369228
0.08437992
0.013779489
0.053376168
-0.0068672416
0.05698075
0.09363959
0.059925742
0.013907543
0.076773584
-0.013808063
-0.020527676
0.009478142
-0.024617366
0.0728784
-0.064562365
-0.053575255
0.06376919
-0.011013048
-0.033814535
0.010051362
0.065854885
-0.052718103
-0.005864292
-0.08007086
0.020416068
0.019051941
0.06380402
0.023646468
0.009879859
-0.022934508
-0.00010123973
-0.03578511
0.04037206
0.06907609
0.03963682
0.090995625
-0.021887172
-0.020477224
-0.08270524
-0.061349526
-0.012404835
-0.041718222
0.08760654
-0.07577959
0.025916163
-0.107549414
0.00813853
0.020968122
0.0063760565
-0.025688369
-0.12099374
0.055839345
0.00654262
-0.03652147
0.0031343992
0.064592965
0.090930015
0.051285613
0.005947129
0.01224224
-0.031947818
-0.020269547
0.06480181
0.037191108
0.064923994
-0.05453547
-0.010462216
-0.055234075
0.084097326
-0.03057503
-0.07573528
0.02522597
0.04999491
-0.028280128
0.09293377
0.037771963
-0.0015079298
0.013065476
0.041183192
-0.07312797
-0.054113112
0.08034699
-0.053501915
-0.024814917
0.042743184
0.002564436
-0.048204158
-0.12787534
-0.0040602316
-0.0659907
-0.029820098
0.019206999
0.09205856
0.0039700805
0.030611796
0.016772484
-0.014497263
-0.04961333
-0.018579567
0.016574088
-0.03187293
-0.009295792
-0.013690435
0.018422375
0.04745172
-0.02834243
0.007295844
-0.056223825
0.023510013
-0.08219428
-0.0541727
-0.08312648
-0.050288152
0.018877657
0.025661798
0.028239276
0.011891733
-0.022725748
0.019900778
0.03368409
0.03672705
-0.018047761
-0.04301878
-0.025530536
0.067605
0.08851561
0.051502954
0.06640224
0.057492904
-0.052695222
0.040740002
0.06942329
-0.0892126
-0.042078525
0.02195825
-0.010788192
-0.10709428
0.013640986
0.020705627
-0.028871674
-0.020667832
0.0031524177
-0.032561906
-0.021334698
-0.022380615
0.011603956
-0.07197805
-0.096819565
-0.06462662
0.042965896
0.030745666
-0.005006864
0.03004016
0.013610913
0.09829249
-0.03880447
-0.083358645
-0.025565928
0.057595532
0.14048818
0.023080219
0.09846261
-0.021843022
-0.006914103
0.011066518
-0.046099503
0.06207815
0.12933928
0.11241659
-0.09081972
0.04829932
0.042963594
0.07049326
-0.07311799
0.0013287618
0.07739978
-0.023328377
-0.03675667
0.02647098
0.029690549
-0.00062011095
0.024713533
0.0027383636
0.105853975
-0.03087019
-0.06358405
0.08595517
-0.052246634
0.103679776
-0.037768565
-0.022833914
0.0062997616
-0.070233665
-0.08430794
-0.064148076
0.032563508
-0.028114073
-0.007781315
-0.03814026
0.017562434
0.09376001
0.024591172
-0.07055444
-0.042401962
-0.03265615
0.0011033987
-0.07884164
0.058396507
0.10233473
0.10462181
0.039278977
0.022952514
0.050723005
-0.004177692
0.09261032
-0.08362296
0.043307222
-0.031304713
0.08387983
0.015134648
-0.015430925
-0.008260969
-0.02212303
-0.0082302885
0.017200073
0.008199605
-0.019657496
0.028487071
-0.06465141
-0.07533227
-0.022689069
-0.03986178
-0.0554733
0.03496432
0.041265834
-0.10862309
-0.06739988
-0.06598771
-0.03530066
0.07434885
0.015005224
-0.031073
0.07364215
0.011342628
0.065466546
0.058407594
0.096903324
0.028157538
0.04150617
-0.0050746654
0.055194553
-0.021691477
0.028523887
0.024564853
0.07353346
0.00502003
-0.044499636
0.008685854
0.008301527
-0.005037946
0.022510383
-0.06559997
-0.049179792
-0.05025185
-0.029249363
-0.045910064
0.006295355
0.022602415
-0.0561262
0.068580344
-0.0021901682
-0.022974687
0.047820702
-0.00013971407
0.013400262
0.07911117
0.07665125
0.026742388
0.0006804954
-0.015710529
0.08318034
-0.013329353
-0.038520485
0.013565634
-0.000419194
0.06312718
0.0435589
-0.010309222
0.06474354
0.00996721
-0.07110698
-0.072504744
0.037816823
-0.05851767
-0.027131254
-0.06067661
0.0015787029
-0.062340908
0.03189061
-0.041852057
-0.053929847
0.024689298
-0.015618906
0.0976907
0.02683306
0.09245356
0.019867908
0.027862633
0.025818463
0.074081086
-0.056456637
-0.008327601
-0.016443474
-0.052786954
0.029576931
0.05582381
0.027831413
-0.10882416
-0.001927136
-0.08063853
-0.00037372822
-0.032813143
-0.026644586
-0.09390927
-0.084456116
0.06446754
-0.031335056
0.069736145
0.07325581
0.04106065
-0.047451444
0.022454629
0.046939444
0.040652834
-0.046361286
0.05671519
-0.07159027
-0.04001541
-0.076804355
-0.012506922
0.005972994
-0.0073135686
0.071224004
0.028580515
-0.007482171
0.014711009
0.07197277
-0.018100388
0.009873413
0.012880237
0.008642299
0.027443867
-0.015209654
0.030793896
-0.029859582
-0.00043496146
-0.02204778
-0.017965222
0.0077799256
-0.028310684
-0.043596555
0.049683735
0.05577596
0.09988602
-0.1281783
0.037300814
0.04386614
0.028281005
0.052123345
0.002619368
0.0027122595
-0.012427499
0.034364123
0.017065171
-0.008103374
0.10107542
0.018007722
0.042526897
0.022208646
0.044993907
0.01906593
0.06343948
0.0036269787
-0.08545007
-0.0796161
0.013596166
0.07002698
0.030487949
-0.056567304
-0.088648655
-0.017297981
-0.021188466
-0.0088776
0.013639572
0.00035088987
0.058853757
0.04451235
0.06676001
-0.068282716
0.026804596
-0.073477246
-0.003819043
0.07325696
-0.072991155
0.04364159
0.04801974
-0.03962503
-0.06581986
0.049549762
-0.04745831
0.036319006
-0.07334747
0.0064848955
-0.07737815
0.02692384
-0.024582464
0.047455277
0.016370462
0.012474661
-0.0102294795
0.07860227
-0.02546784
0.026931839
0.055010304
-0.052337453
-0.043182205
0.031186838
-0.06281337
-0.0012465719
0.01908016
0.011926855
0.06082147
0.030387556
-0.114440836
0.06904147
0.08004451
0.035852525
-0.032498468
0.034586024
0.023630746
0.008292097
0.06677451
-0.11889447
0.027550599
0.024339769
0.061017312
-0.013485974
0.021504462
0.058373686
0.018902024
0.011324409
0.073394366
-0.0648773
-0.04646821
-0.014552657
-0.023572423
-0.038474035
-0.038879618
-0.036452595
0.05499319
0.050359774
0.055644065
0.04768096
0.069741614
0.07275107
0.030947288
0.043604262
0.0006843956
-0.06595924
0.036814243
-0.050886083
0.0638455
-0.035858255
-0.07599146
-0.053682495
-0.06785787
0.036875248
-0.0536499
0.04038923
-0.052698515
-0.014417977
-0.029190807
-0.059664514
0.029353091
-0.07582979
0.0180451
0.077007376
0.08099945
0.018673142
-0.017701479
-0.035339657
-0.09884445
-0.008124724
-0.012229161
0.009350573
-0.07242971
-0.022789113
-0.022687776
0.015023595
0.056127496
-0.065162376
0.025864579
-0.0051034885
0.06207541
0.070648886
-0.06395964
0.07218401
0.0075076367
0.04820085
0.005523147
-0.011048676
0.01734557
-0.042816147
-0.011731941
-0.091807194
0.009846315
-0.056878224
-0.040552072
0.02726249
0.06970834
-0.028493218
-0.0385008
0.03488827
0.035892796
0.0017936806
-0.053376894
0.023619607
0.04818753
-0.052872136
-0.046953905
-0.054163106
-0.012468247
0.09369993
0.004696257
0.00875489
0.023979139
0.08501026
-0.046094023
-0.07278257
0.04436755
0.062798195
0.009860183
0.0011451206
-0.021800814
-0.03058496
-0.04310215
0.0073198127
0.039937664
-0.056004684
0.05080607
-0.022702996
0.010802321
-0.009919929
-0.011195978
0.06937704
-0.025095912
0.032354675
0.08087603
-0.04443812
0.022273175
0.039003324
0.0039683133
0.026277065
-0.008528084
-0.038176112
0.017787198
0.02201568
-0.019239793
0.026087895
0.036320474
-0.02149578
-0.074493945
0.0086063
0.028733788
0.047190435
-0.004485787
0.014016439
0.06970853
-0.014279847
0.03217335
-0.062722385
-0.042405505
0.07129325
-0.031562336
0.08043773
-0.06976407
0.048879024
0.012640952
-0.00018647962
0.01682784
-0.00084023946
-0.018660972
0.018420711
-0.07755342
-0.06886942
0.029163804
-0.012857356
-0.042761624
0.011939474
0.06072685
-0.058123358
-0.028060421
-0.061375856
-0.013016721
0.017682727
0.047032382
0.02862905
-0.070047416
0.0017123636
0.019365726
-0.045826517
-0.0015530426
-0.06812818
-0.042259913
0.03621689
0.023550518
0.033373155
0.05826401
-0.06002961
-0.025547735
-0.00453733
-0.02246896
-0.0036868537
-0.042650603
0.06449159
0.012538784
-0.033847224
-0.00819012
0.046806045
-0.024158308
0.030950475
0.048272844
-0.025724454
-0.012473262
-0.037078083
0.0990819
-0.013186146
-0.08596461
-0.05664611
-0.048139036
0.02754323
0.032939605
8.3536564e-05
-0.07387208
0.08869723
-0.0027396856
0.048694335
-0.013765462
0.0004219992
-0.01701014
-0.058169674
-0.07036411
0.04253014
0.016631793
-0.101897
0.005555689
-0.005203732
0.059699625
0.049065724
0.008387764
-0.00062293414
-0.06342766
0.0285017
0.046683483
0.0153112225
0.045753293
-0.0027457252
-0.06777852
-0.01094135
0.009952419
0.0069520357
-0.00710537
0.021502322
0.0017010497
0.056870427
0.015547323
-0.03983906
0.083113864
0.017890425
-0.0069748736
0.031811893
-0.037199214
-0.0694834
-0.06603633
-0.02349399
0.049028896
0.019097578
0.062006045
-0.0084222965
0.035438173
-0.09949934
-0.03216895
-0.012710069
-0.025626725
-0.05001155
0.0385748
-0.007735077
-0.012702729
0.051405657
0.021006804
-0.036597144
-0.06897672
-0.057512395
-0.040465325
-0.03648258
0.07375797
-0.016203992
-0.11800973
0.007834989
-0.012955471
-0.06539018
0.04323746
-0.034416158
0.041444037
0.032574125
-0.011248953
-0.034818772
-0.06290679
0.0017409347
-0.06670072
-0.052101012
0.06509682
-0.017600724
-0.013888803
-0.09005673
-0.051528033
0.074006446
-0.048402954
-0.057156455
0.06428538
-0.030762134
0.0017907271
0.02968291
0.058097355
0.020067235
-0.09939433
-0.009108468
-0.042137507
0.033428434
-0.06513136
0.047328193
0.055279087
0.033259835
0.0640204
-0.044544842
-0.03575488
0.044277474
-0.021293197
-0.019169671
0.007201861
0.022133397
